~o
<STREAMINFO> 1 25
<VECSIZE> 25<NULLD><MFCC_D_N_Z_0><DIAGC>
~s "silst"
<MEAN> 25
 -4.158175e+00 -2.404241e-01 -7.565597e-01 4.182330e+00 5.766187e+00 4.047729e+00 4.828420e+00 3.410730e+00 3.237771e+00 2.259173e+00 2.922011e+00 2.674218e+00 -3.499512e-03 2.678829e-03 -1.323645e-02 5.745528e-03 1.453778e-02 4.775234e-02 9.641470e-03 -1.569726e-02 9.947084e-03 2.306843e-02 1.978816e-02 -3.154481e-03 -4.425375e-02
<VARIANCE> 25
 1.603592e+01 2.313738e+01 1.614855e+01 1.781326e+01 1.936404e+01 2.542229e+01 2.468223e+01 2.655293e+01 2.599645e+01 2.374715e+01 2.248599e+01 1.712712e+01 2.049592e-01 4.146400e-01 5.303550e-01 7.355438e-01 9.443382e-01 1.190194e+00 1.311457e+00 1.431803e+00 1.465399e+00 1.466073e+00 1.393915e+00 1.299294e+00 1.708077e-01
<GCONST> 7.951992e+01
~h "b"
<BEGINHMM>
<NUMSTATES> 5
<STATE> 2
<MEAN> 25
 4.156171e+00 6.579741e+00 2.379732e+00 5.434232e+00 4.814077e+00 7.912261e-01 8.609719e-01 -2.285741e+00 -5.104772e-01 6.850336e-02 -1.404852e-01 -1.338928e+00 -4.147305e-01 -2.413481e-01 3.934853e-02 -2.673823e-02 2.236067e-01 -1.669802e-01 1.230911e-01 -2.386160e-01 1.496545e-01 1.310354e-01 -1.328446e-01 1.127433e-01 8.239753e-01
<VARIANCE> 25
 4.530293e+01 4.753785e+01 3.255528e+01 4.061236e+01 4.247517e+01 5.183166e+01 5.460823e+01 3.525604e+01 5.218440e+01 4.442099e+01 3.933297e+01 2.931843e+01 4.118770e+00 5.760040e+00 3.269076e+00 4.852566e+00 5.034886e+00 4.891857e+00 5.030774e+00 4.157836e+00 4.571571e+00 4.471700e+00 3.179068e+00 3.239771e+00 1.065365e+01
<GCONST> 1.107580e+02
<STATE> 3
<MEAN> 25
 1.891860e+00 2.469424e+00 1.550840e+00 3.130733e+00 3.644765e+00 -1.739832e-01 -8.645570e-02 -2.684273e+00 7.953765e-01 4.751343e-01 -4.668897e-01 -8.608451e-01 5.408081e-01 -2.042191e+00 -8.415110e-01 -2.098903e+00 -2.007261e+00 -1.287260e+00 -1.000348e+00 -3.210294e-02 5.402732e-01 1.906081e-01 -9.447630e-02 -6.151159e-02 4.426699e+00
<VARIANCE> 25
 3.281372e+01 3.850762e+01 3.087091e+01 4.108363e+01 3.397258e+01 5.034186e+01 4.221717e+01 3.556814e+01 3.860490e+01 3.264534e+01 3.135707e+01 2.815332e+01 5.858491e+00 6.521761e+00 6.926341e+00 7.668219e+00 5.865012e+00 7.129351e+00 6.179798e+00 5.367416e+00 5.876869e+00 5.916013e+00 4.612720e+00 4.392143e+00 1.023228e+01
<GCONST> 1.126481e+02
<STATE> 4
<MEAN> 25
 4.900214e+00 3.285673e-01 9.986256e-02 -6.318717e-01 -1.214945e+00 -2.385652e+00 -2.918762e+00 -3.730627e+00 7.026303e-01 -3.627315e-01 -4.162679e-01 -1.339818e+00 6.988476e-01 -1.335891e+00 -2.536743e-01 -1.704414e+00 -1.815074e+00 -3.095035e-01 -7.705357e-01 1.933064e-01 -9.221336e-02 -3.024644e-01 -1.649046e-02 -8.823688e-02 2.606286e+00
<VARIANCE> 25
 3.715797e+01 5.015518e+01 6.231237e+01 7.455838e+01 4.664941e+01 7.889215e+01 4.789558e+01 5.094375e+01 5.407095e+01 4.934716e+01 3.867161e+01 3.678054e+01 4.626285e+00 6.021258e+00 8.326183e+00 7.491733e+00 8.439199e+00 7.012883e+00 6.936295e+00 5.043664e+00 5.681530e+00 6.014641e+00 4.820910e+00 4.508543e+00 8.756755e+00
<GCONST> 1.169567e+02
<TRANSP> 5
 0.000000e+00 1.000000e+00 0.000000e+00 0.000000e+00 0.000000e+00
 0.000000e+00 5.105519e-01 4.894480e-01 0.000000e+00 0.000000e+00
 0.000000e+00 0.000000e+00 2.857354e-01 7.142646e-01 0.000000e+00
 0.000000e+00 0.000000e+00 0.000000e+00 2.227867e-01 7.772133e-01
 0.000000e+00 0.000000e+00 0.000000e+00 0.000000e+00 0.000000e+00
<ENDHMM>
~h "d"
<BEGINHMM>
<NUMSTATES> 5
<STATE> 2
<MEAN> 25
 5.947381e+00 3.249928e+00 6.759062e+00 4.859677e+00 -3.961642e+00 -4.242197e+00 -2.344081e+00 -1.967352e+00 -2.165385e+00 -2.226249e+00 -2.700919e+00 -5.384967e-01 -5.461296e-01 1.109420e+00 4.577281e-01 9.848766e-01 1.654282e+00 7.828376e-01 5.425337e-01 -3.615520e-02 3.305858e-01 -2.381113e-01 -3.612335e-02 -2.629051e-01 -1.922415e+00
<VARIANCE> 25
 2.032268e+01 5.156464e+01 3.889575e+01 5.134225e+01 6.441650e+01 5.000993e+01 4.443037e+01 4.533242e+01 4.624422e+01 3.744650e+01 3.442468e+01 3.493480e+01 3.101089e+00 5.593064e+00 3.308704e+00 4.960979e+00 5.652926e+00 5.082115e+00 4.842002e+00 4.857958e+00 4.570615e+00 3.699539e+00 3.650620e+00 3.381257e+00 6.272527e+00
<GCONST> 1.100800e+02
<STATE> 3
<MEAN> 25
 3.212766e+00 4.818767e+00 6.017707e+00 5.357662e+00 9.964098e-01 -1.017671e+00 -4.811298e-01 -2.306360e+00 -1.488741e+00 -2.168034e+00 -2.274943e+00 -1.017095e+00 -1.719672e+00 -8.663797e-01 -5.868034e-01 -7.189641e-01 6.547714e-01 4.889345e-01 5.459461e-01 5.328507e-01 8.130238e-01 4.691960e-01 7.371661e-01 3.735017e-01 6.614696e-01
<VARIANCE> 25
 3.117348e+01 4.555153e+01 3.624278e+01 4.653775e+01 4.381490e+01 4.931981e+01 3.957626e+01 3.973709e+01 4.200671e+01 3.372911e+01 2.821642e+01 2.975892e+01 4.394564e+00 5.612172e+00 3.535162e+00 5.512527e+00 6.603399e+00 6.241713e+00 4.705806e+00 5.231360e+00 5.361290e+00 4.323121e+00 3.592750e+00 3.577187e+00 7.908476e+00
<GCONST> 1.105259e+02
<STATE> 4
<MEAN> 25
 -1.803653e+00 1.428166e+00 3.664930e+00 2.896901e+00 1.087742e+00 -1.629124e-01 2.331644e+00 4.350568e-01 1.649105e+00 4.425089e-01 1.021456e+00 1.584800e+00 -7.739494e-01 -6.308059e-01 -4.210328e-01 -5.777423e-01 -2.497526e-01 -1.217275e-01 5.032406e-02 3.772790e-01 3.818820e-01 3.041947e-01 4.036619e-01 2.485756e-01 6.754770e-01
<VARIANCE> 25
 4.784096e+01 4.592930e+01 3.482475e+01 4.223825e+01 5.971448e+01 4.869855e+01 4.988214e+01 4.935172e+01 4.160548e+01 3.932821e+01 3.404924e+01 2.887362e+01 4.723292e+00 3.790327e+00 3.071107e+00 4.020068e+00 5.572982e+00 5.294213e+00 4.437042e+00 4.518741e+00 4.215031e+00 3.555377e+00 3.148953e+00 2.745472e+00 6.794537e+00
<GCONST> 1.095717e+02
<TRANSP> 5
 0.000000e+00 1.000000e+00 0.000000e+00 0.000000e+00 0.000000e+00
 0.000000e+00 4.493945e-01 5.506055e-01 0.000000e+00 0.000000e+00
 0.000000e+00 0.000000e+00 3.210668e-01 6.789331e-01 0.000000e+00
 0.000000e+00 0.000000e+00 0.000000e+00 5.833226e-01 4.166774e-01
 0.000000e+00 0.000000e+00 0.000000e+00 0.000000e+00 0.000000e+00
<ENDHMM>
~h "f"
<BEGINHMM>
<NUMSTATES> 5
<STATE> 2
<MEAN> 25
 -8.221880e+00 1.754180e+00 -1.011404e+00 5.237991e+00 3.496173e+00 2.127406e+00 2.279535e+00 6.997511e-01 2.099808e+00 1.236206e+00 7.869698e-01 1.590513e+00 -2.530431e+00 -1.527999e-01 -3.179564e-01 5.869492e-01 4.073872e-01 4.168570e-01 5.278685e-01 7.725103e-01 7.392462e-01 6.484740e-01 6.593166e-01 6.650160e-01 -5.845041e-01
<VARIANCE> 25
 4.214454e+01 2.604203e+01 3.408463e+01 2.559024e+01 3.341298e+01 3.867053e+01 3.222445e+01 3.140529e+01 2.774926e+01 2.930450e+01 2.805194e+01 2.612513e+01 4.272972e+00 2.452354e+00 2.534546e+00 2.864768e+00 3.188098e+00 2.997597e+00 3.153197e+00 3.444329e+00 3.231243e+00 3.075924e+00 2.439574e+00 2.681205e+00 1.620575e+00
<GCONST> 1.007320e+02
<STATE> 3
<MEAN> 25
 -1.279124e+01 -5.656403e-01 -3.620888e+00 4.737425e+00 3.274212e+00 2.886868e+00 2.910177e+00 2.925009e+00 3.988173e+00 3.578448e+00 2.263437e+00 2.553390e+00 2.308106e-02 -3.067665e-01 -1.719977e-01 -1.696927e-01 -1.734849e-02 9.993449e-03 5.932155e-02 -4.326747e-02 -4.487238e-02 -1.370586e-02 -6.469782e-06 -1.213461e-03 1.063207e-01
<VARIANCE> 25
 2.476965e+01 2.810717e+01 2.099813e+01 2.120910e+01 2.103463e+01 2.820663e+01 2.268005e+01 2.088546e+01 3.168936e+01 2.582080e+01 1.923880e+01 1.647154e+01 1.441495e+00 9.231186e-01 1.039538e+00 1.217884e+00 1.381459e+00 1.599159e+00 1.531173e+00 1.628689e+00 1.717144e+00 1.679309e+00 1.305624e+00 1.344458e+00 1.187418e+00
<GCONST> 8.762493e+01
<STATE> 4
<MEAN> 25
 -8.653829e+00 -2.015356e+00 -3.209649e+00 3.290748e+00 2.720602e+00 1.127594e+00 3.042296e+00 1.846776e+00 3.030232e+00 1.620511e+00 2.289085e+00 2.915169e+00 2.637413e+00 -4.089473e-02 -1.602633e-01 -1.089528e+00 -8.819140e-01 -8.611431e-01 -7.482467e-01 -5.112194e-01 -6.276306e-01 -4.831945e-01 -4.542925e-01 -5.477715e-01 1.272002e+00
<VARIANCE> 25
 5.051117e+01 3.856614e+01 3.771489e+01 3.983088e+01 3.922196e+01 4.740739e+01 4.338513e+01 3.255552e+01 3.772827e+01 2.850423e+01 2.686059e+01 2.765779e+01 8.841183e+00 4.202034e+00 3.990467e+00 4.501265e+00 4.114939e+00 5.650831e+00 4.688643e+00 3.347025e+00 3.958614e+00 3.371382e+00 2.646856e+00 2.824244e+00 4.246899e+00
<GCONST> 1.076602e+02
<TRANSP> 5
 0.000000e+00 1.000000e+00 0.000000e+00 0.000000e+00 0.000000e+00
 0.000000e+00 7.227361e-01 2.772639e-01 0.000000e+00 0.000000e+00
 0.000000e+00 0.000000e+00 7.834373e-01 2.165627e-01 0.000000e+00
 0.000000e+00 0.000000e+00 0.000000e+00 7.307291e-01 2.692708e-01
 0.000000e+00 0.000000e+00 0.000000e+00 0.000000e+00 0.000000e+00
<ENDHMM>
~h "g"
<BEGINHMM>
<NUMSTATES> 5
<STATE> 2
<MEAN> 25
 5.286238e+00 6.102105e+00 7.808007e+00 5.110078e+00 -2.853809e+00 -2.786067e+00 -1.473999e+00 -9.899232e-01 -4.681653e+00 -7.062205e-01 -1.926290e-01 -1.699980e+00 -4.247020e-01 6.898054e-01 -4.913997e-01 6.874060e-01 1.584384e+00 7.317666e-01 4.933601e-01 -7.598050e-02 5.488889e-01 1.710025e-01 -1.300686e-01 5.914878e-02 -1.734881e+00
<VARIANCE> 25
 2.635594e+01 4.808049e+01 4.657607e+01 3.989634e+01 7.681284e+01 6.330106e+01 6.093937e+01 4.984331e+01 5.470448e+01 4.260324e+01 4.389280e+01 2.667706e+01 2.772092e+00 6.659444e+00 4.737342e+00 3.184600e+00 6.306968e+00 5.776365e+00 6.360427e+00 5.691620e+00 5.971530e+00 4.091637e+00 3.767419e+00 2.999791e+00 5.890114e+00
<GCONST> 1.121544e+02
<STATE> 3
<MEAN> 25
 1.820964e+00 5.713418e+00 4.445951e+00 6.325289e+00 3.095366e+00 4.821951e-01 4.208044e-01 -1.890727e+00 -1.920123e+00 4.015121e-01 -7.294205e-01 -2.950187e-01 -1.593876e+00 -2.175779e+00 -1.703912e+00 -6.491041e-01 9.860150e-01 -2.206467e-02 6.507263e-02 1.448740e-01 4.588498e-01 7.934821e-01 8.570177e-02 6.948087e-01 1.917762e+00
<VARIANCE> 25
 2.933817e+01 4.713371e+01 4.482837e+01 3.369426e+01 7.194736e+01 5.089211e+01 4.830620e+01 4.753613e+01 4.877711e+01 2.871640e+01 3.432617e+01 2.188556e+01 3.735455e+00 6.265545e+00 8.994700e+00 5.224545e+00 1.131603e+01 7.465455e+00 5.288433e+00 6.902248e+00 5.310485e+00 5.973914e+00 4.358762e+00 2.998709e+00 6.723547e+00
<GCONST> 1.132800e+02
<STATE> 4
<MEAN> 25
 -2.109792e-01 -2.044374e+00 -2.275744e+00 2.376428e+00 2.505954e+00 -2.969968e+00 -1.027633e+00 -9.519992e-01 -7.745612e-01 3.564538e+00 4.927198e-01 1.009207e+00 6.703210e-01 -9.819264e-01 -3.952451e-01 -1.622579e+00 -1.522831e+00 -9.651690e-01 -8.409125e-01 -2.394370e-01 -2.975278e-01 1.946994e-01 1.376696e-01 -2.876133e-01 2.797964e+00
<VARIANCE> 25
 3.178712e+01 5.721257e+01 1.369072e+02 5.789046e+01 1.147868e+02 6.415723e+01 6.187704e+01 5.271600e+01 5.581841e+01 4.495868e+01 3.650182e+01 2.832370e+01 3.594471e+00 5.497632e+00 8.995491e+00 5.883768e+00 9.588938e+00 6.463230e+00 6.413893e+00 5.054859e+00 5.975884e+00 5.063899e+00 4.463337e+00 4.331651e+00 5.169765e+00
<GCONST> 1.167667e+02
<TRANSP> 5
 0.000000e+00 1.000000e+00 0.000000e+00 0.000000e+00 0.000000e+00
 0.000000e+00 5.624986e-01 4.375013e-01 0.000000e+00 0.000000e+00
 0.000000e+00 0.000000e+00 4.274415e-01 5.725585e-01 0.000000e+00
 0.000000e+00 0.000000e+00 0.000000e+00 6.339985e-01 3.660015e-01
 0.000000e+00 0.000000e+00 0.000000e+00 0.000000e+00 0.000000e+00
<ENDHMM>
~h "k"
<BEGINHMM>
<NUMSTATES> 5
<STATE> 2
<MEAN> 25
 1.345462e-01 1.787173e+00 3.008714e+00 4.045327e+00 -1.181867e-01 -1.508935e+00 1.563456e+00 6.992506e-01 -1.637352e+00 1.354597e+00 1.087759e+00 1.492038e-01 -1.164192e+00 -4.291577e-01 -8.861504e-01 4.850900e-01 1.511440e+00 1.113360e+00 9.442194e-01 6.937428e-01 1.218847e+00 8.797308e-01 7.037247e-01 8.882258e-01 -1.795244e+00
<VARIANCE> 25
 2.442380e+01 3.356459e+01 5.853152e+01 4.321518e+01 6.313296e+01 6.040776e+01 4.762821e+01 5.847556e+01 4.726814e+01 3.856732e+01 3.983392e+01 3.307736e+01 2.541151e+00 5.743700e+00 5.519872e+00 5.082585e+00 6.527332e+00 6.602737e+00 5.223052e+00 6.629680e+00 5.531250e+00 4.738785e+00 4.839370e+00 3.466323e+00 9.164753e+00
<GCONST> 1.129864e+02
<STATE> 3
<MEAN> 25
 -4.223249e+00 -2.914199e+00 -2.093225e+00 3.228775e+00 4.200818e+00 9.494200e-01 2.624190e+00 3.080436e+00 2.249407e+00 4.550714e+00 2.917812e+00 2.962332e+00 -1.383701e+00 -1.686294e+00 -1.133142e+00 -9.858249e-01 4.066043e-01 6.586780e-02 -2.053626e-01 5.442392e-01 7.078460e-01 8.492692e-01 1.503543e-01 4.725972e-01 2.423420e+00
<VARIANCE> 25
 2.247458e+01 4.074085e+01 6.132957e+01 3.963057e+01 4.672091e+01 5.172919e+01 4.815744e+01 4.768553e+01 3.749526e+01 3.774626e+01 2.876132e+01 2.442958e+01 3.229187e+00 4.363062e+00 6.741610e+00 4.472085e+00 6.052135e+00 6.011614e+00 5.297650e+00 5.263634e+00 4.782381e+00 4.137337e+00 3.903339e+00 3.415932e+00 8.606323e+00
<GCONST> 1.106032e+02
<STATE> 4
<MEAN> 25
 -6.637158e+00 -3.631517e+00 -1.719330e+00 -2.271605e-01 4.389368e+00 2.441468e+00 2.681810e+00 1.894929e+00 2.467165e+00 4.954618e+00 2.104374e+00 2.588868e+00 4.667882e-01 5.331025e-01 4.035284e-01 -3.576478e-01 -3.133354e-01 1.104877e-01 -1.577797e-01 -6.074767e-01 -4.923421e-01 -6.975978e-01 -4.294644e-01 -4.325119e-01 7.001797e-01
<VARIANCE> 25
 2.778583e+01 4.212827e+01 6.392174e+01 4.718018e+01 6.434355e+01 6.054759e+01 5.005931e+01 4.355972e+01 4.929485e+01 3.988746e+01 3.245967e+01 2.752423e+01 5.141665e+00 3.193650e+00 3.404418e+00 3.233551e+00 4.458931e+00 5.003613e+00 4.229924e+00 4.396340e+00 4.971100e+00 4.212453e+00 3.505255e+00 3.024297e+00 4.758433e+00
<GCONST> 1.095455e+02
<TRANSP> 5
 0.000000e+00 1.000000e+00 0.000000e+00 0.000000e+00 0.000000e+00
 0.000000e+00 5.886254e-01 4.113747e-01 0.000000e+00 0.000000e+00
 0.000000e+00 0.000000e+00 5.458167e-01 4.541833e-01 0.000000e+00
 0.000000e+00 0.000000e+00 0.000000e+00 7.438064e-01 2.561936e-01
 0.000000e+00 0.000000e+00 0.000000e+00 0.000000e+00 0.000000e+00
<ENDHMM>
~h "l"
<BEGINHMM>
<NUMSTATES> 5
<STATE> 2
<MEAN> 25
 6.878877e+00 1.126157e+00 -5.287942e+00 -1.233362e+01 9.823933e-01 5.073161e+00 -4.331679e+00 -6.115566e+00 4.302783e-01 -5.617405e-01 -1.897977e-01 -1.962982e+00 1.026582e+00 8.357126e-01 -5.137247e-01 -2.472351e+00 -8.932257e-02 1.215841e+00 -4.324867e-01 -7.233488e-01 -5.539441e-01 -1.702827e-01 8.399128e-01 4.230076e-01 8.289929e-02
<VARIANCE> 25
 1.580136e+01 5.258560e+01 4.189002e+01 7.267854e+01 4.422065e+01 6.332663e+01 7.909555e+01 6.321063e+01 5.641548e+01 4.996553e+01 4.892156e+01 4.525474e+01 2.172035e+00 2.107612e+00 2.591524e+00 4.916462e+00 4.104129e+00 4.374886e+00 4.624963e+00 4.527882e+00 3.719019e+00 4.310531e+00 3.671208e+00 3.246942e+00 2.080324e+00
<GCONST> 1.087727e+02
<STATE> 3
<MEAN> 25
 8.835194e+00 4.859016e+00 -5.245139e+00 -1.819414e+01 -7.466440e-01 7.391210e+00 -2.551001e+00 -5.294434e+00 -1.110759e+00 -2.358003e+00 1.761872e+00 4.082731e-01 -1.723604e-03 1.601528e-01 8.962659e-02 3.537906e-01 1.715738e-01 -2.088143e-01 -2.212573e-01 1.323765e-01 -2.158617e-02 1.536825e-01 7.688761e-03 -1.405357e-01 -2.752877e-01
<VARIANCE> 25
 1.170793e+01 3.358509e+01 4.114264e+01 7.064288e+01 5.741163e+01 5.488932e+01 7.261242e+01 6.380664e+01 4.582178e+01 5.462625e+01 4.055891e+01 4.024601e+01 4.719732e-01 2.205846e+00 1.400584e+00 3.034381e+00 2.045597e+00 2.313779e+00 2.704118e+00 2.800122e+00 2.881567e+00 3.240846e+00 2.367020e+00 2.256898e+00 1.367122e+00
<GCONST> 1.009042e+02
<STATE> 4
<MEAN> 25
 6.533331e+00 2.518965e+00 -4.499897e+00 -9.430935e+00 2.465006e+00 2.930905e+00 -5.742425e+00 -4.485642e+00 1.135448e+00 5.549341e-01 1.026092e-01 -2.481472e+00 -9.616100e-01 -7.909968e-01 7.947473e-01 2.388888e+00 -7.662518e-02 -1.307780e+00 3.031598e-01 1.256058e+00 7.439480e-01 -7.188646e-02 -8.495424e-01 -2.485994e-01 -2.150968e-01
<VARIANCE> 25
 1.781763e+01 4.228383e+01 3.897749e+01 7.019879e+01 4.604985e+01 6.496724e+01 9.032341e+01 6.498180e+01 6.846571e+01 6.313400e+01 5.166172e+01 4.894954e+01 1.628160e+00 3.516288e+00 3.223394e+00 5.580824e+00 4.838485e+00 4.720731e+00 5.610394e+00 6.381502e+00 5.808098e+00 5.674661e+00 4.313438e+00 4.439679e+00 3.390561e+00
<GCONST> 1.123838e+02
<TRANSP> 5
 0.000000e+00 1.000000e+00 0.000000e+00 0.000000e+00 0.000000e+00
 0.000000e+00 5.933995e-01 4.066005e-01 0.000000e+00 0.000000e+00
 0.000000e+00 0.000000e+00 7.720253e-01 2.279747e-01 0.000000e+00
 0.000000e+00 0.000000e+00 0.000000e+00 6.599782e-01 3.400218e-01
 0.000000e+00 0.000000e+00 0.000000e+00 0.000000e+00 0.000000e+00
<ENDHMM>
~h "m"
<BEGINHMM>
<NUMSTATES> 5
<STATE> 2
<MEAN> 25
 8.531409e+00 1.360051e+00 4.177603e-02 3.030888e+00 4.496779e-01 -2.415478e+00 -4.840715e+00 -6.101126e+00 -5.709076e+00 -1.126713e+00 -1.210390e+00 -4.567391e+00 4.935418e-01 1.259938e+00 5.938612e-01 1.740631e+00 5.224760e-01 -5.642277e-01 -1.309853e-01 -1.736457e+00 -1.663429e+00 7.159448e-02 6.089609e-01 -6.949936e-01 -1.087055e+00
<VARIANCE> 25
 1.591040e+01 4.297852e+01 3.352711e+01 5.080192e+01 3.965454e+01 5.434948e+01 6.201397e+01 6.577348e+01 5.814836e+01 5.303601e+01 5.787569e+01 4.806175e+01 1.470621e+00 2.433365e+00 2.801660e+00 3.201386e+00 3.579217e+00 3.619530e+00 4.140920e+00 4.759466e+00 5.023441e+00 5.029014e+00 4.284937e+00 3.867290e+00 2.178421e+00
<GCONST> 1.076958e+02
<STATE> 3
<MEAN> 25
 8.882156e+00 4.511212e+00 2.301047e+00 6.591886e+00 4.782455e-01 -2.600815e+00 -3.042242e+00 -8.222805e+00 -9.006934e+00 -1.571147e+00 -4.267097e-04 -5.095702e+00 -1.119383e-01 -7.319918e-02 1.398989e-01 -1.297984e-01 -1.381123e-01 1.402845e-01 2.062801e-01 2.445875e-01 9.021456e-02 -2.569536e-01 -1.162094e-01 9.929889e-02 8.087529e-02
<VARIANCE> 25
 1.138993e+01 2.766551e+01 2.933252e+01 3.636784e+01 4.057178e+01 4.857933e+01 6.922864e+01 5.634629e+01 5.029781e+01 4.687901e+01 6.637517e+01 5.178532e+01 5.565739e-01 1.708424e+00 1.273883e+00 1.799698e+00 1.776006e+00 2.073600e+00 2.215324e+00 2.333048e+00 2.468187e+00 2.192666e+00 2.460297e+00 2.440585e+00 1.426571e+00
<GCONST> 9.799730e+01
<STATE> 4
<MEAN> 25
 7.090940e+00 1.555635e+00 4.511001e-01 2.653623e+00 7.256107e-01 2.062661e-01 -2.378971e+00 -5.060771e+00 -4.811870e+00 -3.081959e+00 -6.661448e-01 -3.623056e+00 -6.672555e-01 -1.586729e+00 -4.497626e-01 -2.069457e+00 -9.478712e-01 7.346442e-01 2.304153e-01 1.671393e+00 2.071456e+00 1.004520e-01 -4.594080e-01 6.293353e-01 1.260288e+00
<VARIANCE> 25
 2.152385e+01 4.711007e+01 3.663795e+01 6.174369e+01 4.433855e+01 6.731978e+01 6.524329e+01 5.710447e+01 6.676648e+01 5.899331e+01 4.724515e+01 4.735893e+01 1.300148e+00 3.284075e+00 3.792094e+00 5.130194e+00 4.472552e+00 4.469543e+00 5.009432e+00 5.444229e+00 6.190766e+00 5.294274e+00 5.586451e+00 4.951881e+00 3.585121e+00
<GCONST> 1.116160e+02
<TRANSP> 5
 0.000000e+00 1.000000e+00 0.000000e+00 0.000000e+00 0.000000e+00
 0.000000e+00 5.785448e-01 4.214552e-01 0.000000e+00 0.000000e+00
 0.000000e+00 0.000000e+00 6.658609e-01 3.341391e-01 0.000000e+00
 0.000000e+00 0.000000e+00 0.000000e+00 5.660267e-01 4.339733e-01
 0.000000e+00 0.000000e+00 0.000000e+00 0.000000e+00 0.000000e+00
<ENDHMM>
~h "n"
<BEGINHMM>
<NUMSTATES> 5
<STATE> 2
<MEAN> 25
 6.334905e+00 -4.353698e-01 3.265290e+00 8.876044e-01 -5.227515e+00 -3.940557e+00 -1.767745e+00 -1.171456e-01 -4.414514e+00 -3.530464e+00 -4.170802e+00 -1.923146e+00 6.639464e-01 1.808941e+00 5.434949e-01 1.478137e+00 2.197399e-01 -4.105619e-01 1.227188e-01 -1.773850e+00 -1.067811e+00 4.374524e-01 -3.531705e-01 -1.335617e-01 -1.571557e+00
<VARIANCE> 25
 1.411148e+01 4.308640e+01 3.405908e+01 4.116566e+01 5.085425e+01 4.765129e+01 5.512938e+01 6.873627e+01 6.333141e+01 5.201904e+01 4.156783e+01 4.019781e+01 8.533143e-01 2.148099e+00 2.814192e+00 2.835598e+00 3.735421e+00 4.152051e+00 4.182985e+00 5.590744e+00 4.509045e+00 4.169011e+00 3.074545e+00 2.759641e+00 1.760888e+00
<GCONST> 1.053711e+02
<STATE> 3
<MEAN> 25
 8.081741e+00 5.980885e+00 4.694919e+00 4.888972e+00 -3.716771e+00 -3.916786e+00 -8.236133e-01 -6.935021e+00 -6.707722e+00 -1.085988e+00 -4.287690e+00 -2.453264e+00 1.052133e-02 7.069652e-01 1.847747e-01 4.207653e-01 3.410924e-01 2.681523e-01 8.101831e-02 -5.912755e-01 -1.796105e-01 9.175783e-02 1.595034e-02 -4.124410e-02 -7.088529e-01
<VARIANCE> 25
 1.090309e+01 2.514915e+01 2.310146e+01 3.526334e+01 3.728904e+01 3.808796e+01 4.687888e+01 5.481073e+01 5.338903e+01 5.609864e+01 4.595765e+01 4.513250e+01 5.885815e-01 1.851897e+00 1.368366e+00 1.752387e+00 2.111343e+00 2.311561e+00 2.425307e+00 3.518806e+00 2.899324e+00 2.788647e+00 2.119191e+00 1.980080e+00 1.132654e+00
<GCONST> 9.735449e+01
<STATE> 4
<MEAN> 25
 5.756122e+00 4.723492e+00 4.115388e+00 4.846635e+00 -1.144112e+00 -1.704353e+00 -6.428762e-01 -4.495609e+00 -4.690114e+00 -1.963029e+00 -3.764863e+00 -2.058403e+00 -1.147781e+00 -8.938158e-01 -2.384018e-01 -5.756413e-01 5.687193e-01 7.724999e-01 8.483689e-02 1.140535e+00 1.025261e+00 -1.435873e-01 5.377156e-01 2.861733e-01 1.020105e-01
<VARIANCE> 25
 1.970552e+01 3.972002e+01 2.634198e+01 3.917167e+01 4.874320e+01 4.031630e+01 4.352990e+01 5.566611e+01 5.490693e+01 5.139414e+01 4.013757e+01 3.663861e+01 1.699828e+00 3.508123e+00 2.514066e+00 3.245152e+00 3.794139e+00 3.865655e+00 4.235213e+00 4.709364e+00 4.884658e+00 4.283564e+00 3.492761e+00 3.279704e+00 2.831251e+00
<GCONST> 1.062468e+02
<TRANSP> 5
 0.000000e+00 1.000000e+00 0.000000e+00 0.000000e+00 0.000000e+00
 0.000000e+00 6.126791e-01 3.873209e-01 0.000000e+00 0.000000e+00
 0.000000e+00 0.000000e+00 6.372464e-01 3.627535e-01 0.000000e+00
 0.000000e+00 0.000000e+00 0.000000e+00 5.452130e-01 4.547870e-01
 0.000000e+00 0.000000e+00 0.000000e+00 0.000000e+00 0.000000e+00
<ENDHMM>
~h "p"
<BEGINHMM>
<NUMSTATES> 5
<STATE> 2
<MEAN> 25
 4.604549e-01 4.164509e+00 -2.657999e-01 3.778561e+00 3.725349e+00 2.130151e+00 2.744124e+00 6.010309e-01 2.373200e+00 2.170414e+00 1.829499e+00 5.268135e-01 -1.210989e+00 -3.319075e-01 -2.233308e-01 3.193212e-01 7.158846e-01 7.153341e-01 1.080398e+00 1.025905e+00 9.493849e-01 7.230780e-01 7.351967e-01 7.601976e-01 -1.091024e+00
<VARIANCE> 25
 3.143127e+01 2.586336e+01 2.765545e+01 2.681207e+01 2.460649e+01 3.192027e+01 3.120875e+01 3.391407e+01 3.184080e+01 2.919822e+01 2.619781e+01 2.355495e+01 2.747437e+00 2.548404e+00 2.346375e+00 2.332106e+00 2.931769e+00 3.432509e+00 3.157014e+00 3.290300e+00 2.871856e+00 3.025837e+00 2.568612e+00 2.254655e+00 7.207095e+00
<GCONST> 1.003357e+02
<STATE> 3
<MEAN> 25
 -3.912809e+00 -5.740588e-01 -1.793950e+00 3.104569e+00 5.277212e+00 3.268573e+00 4.592825e+00 2.527680e+00 5.228004e+00 4.380768e+00 3.905395e+00 3.343570e+00 -5.320845e-01 -1.620249e+00 -4.126362e-01 -3.332919e-01 7.138837e-02 -1.642322e-02 -1.644576e-02 2.233249e-01 4.138052e-01 1.869292e-01 1.617174e-01 4.092440e-01 2.444561e+00
<VARIANCE> 25
 1.800201e+01 3.473732e+01 2.315795e+01 2.526448e+01 2.528692e+01 3.089816e+01 3.123956e+01 3.448510e+01 3.112512e+01 2.367709e+01 2.497398e+01 2.203435e+01 2.481597e+00 3.431651e+00 2.874291e+00 3.043624e+00 3.536957e+00 3.699460e+00 3.975570e+00 3.492574e+00 3.378629e+00 2.861224e+00 2.607984e+00 2.507736e+00 7.636042e+00
<GCONST> 1.010058e+02
<STATE> 4
<MEAN> 25
 -2.636720e+00 -4.285493e+00 -1.558989e+00 1.333606e+00 4.786573e+00 3.890196e+00 4.183680e+00 2.348576e+00 3.163170e+00 2.306079e+00 1.780936e+00 2.240556e+00 1.600304e+00 -1.487424e-01 -1.065772e-01 -1.058892e+00 -7.099313e-01 -5.451896e-01 -1.219190e+00 -8.134457e-01 -1.536409e+00 -1.304575e+00 -1.270101e+00 -8.122332e-01 1.772546e+00
<VARIANCE> 25
 2.745964e+01 4.534504e+01 5.648506e+01 4.459863e+01 6.263874e+01 5.860998e+01 5.384111e+01 4.451523e+01 4.578440e+01 3.773687e+01 3.214866e+01 2.608603e+01 5.161696e+00 5.182506e+00 5.466231e+00 5.198251e+00 5.614527e+00 8.144695e+00 7.088085e+00 5.180583e+00 5.484325e+00 4.898913e+00 4.316946e+00 2.963592e+00 6.828925e+00
<GCONST> 1.129027e+02
<TRANSP> 5
 0.000000e+00 1.000000e+00 0.000000e+00 0.000000e+00 0.000000e+00
 0.000000e+00 6.333490e-01 3.666510e-01 0.000000e+00 0.000000e+00
 0.000000e+00 0.000000e+00 6.310013e-01 3.689987e-01 0.000000e+00
 0.000000e+00 0.000000e+00 0.000000e+00 6.171039e-01 3.828961e-01
 0.000000e+00 0.000000e+00 0.000000e+00 0.000000e+00 0.000000e+00
<ENDHMM>
~h "r"
<BEGINHMM>
<NUMSTATES> 5
<STATE> 2
<MEAN> 25
 8.911836e+00 -3.397774e+00 -7.239919e+00 2.463809e+00 1.232189e+00 -5.358590e+00 -7.879467e+00 1.092146e+00 -1.971439e+00 -2.212643e+00 1.178850e+00 2.244822e-01 1.716174e+00 -5.096622e-01 -1.155336e+00 3.420310e-01 1.989654e-01 -1.604012e+00 -2.179486e+00 7.962397e-01 4.017672e-01 -7.127516e-01 -3.466336e-01 1.156334e-01 6.414257e-01
<VARIANCE> 25
 4.061095e+01 4.013258e+01 8.208652e+01 4.005539e+01 6.425493e+01 6.880785e+01 8.067699e+01 8.092240e+01 5.803559e+01 5.173943e+01 4.159967e+01 4.107874e+01 4.695440e+00 3.359587e+00 4.922064e+00 4.180350e+00 5.873335e+00 5.790267e+00 6.206946e+00 5.831423e+00 5.735610e+00 4.693760e+00 4.028607e+00 3.362368e+00 3.072304e+00
<GCONST> 1.139897e+02
<STATE> 3
<MEAN> 25
 1.160380e+01 -6.656367e+00 -9.913363e+00 3.661782e+00 2.429257e+00 -9.344052e+00 -1.377251e+01 6.603637e+00 1.391324e+00 -2.606989e+00 -2.684822e-01 7.006333e-01 -6.838181e-02 -3.979461e-01 6.016895e-01 3.450297e-01 -6.813467e-01 -6.728255e-01 3.482130e-01 7.840726e-01 1.057598e-01 -2.497671e-01 -2.534578e-01 -1.534230e-01 1.232327e-01
<VARIANCE> 25
 1.312277e+01 2.651339e+01 5.717262e+01 3.838763e+01 5.388096e+01 6.144759e+01 9.354520e+01 8.560692e+01 5.840351e+01 4.866648e+01 3.707638e+01 4.188107e+01 1.410723e+00 2.779514e+00 4.100538e+00 2.386393e+00 4.934961e+00 4.037717e+00 5.692548e+00 5.452394e+00 3.842337e+00 3.244572e+00 3.112867e+00 2.621541e+00 2.101871e+00
<GCONST> 1.073258e+02
<STATE> 4
<MEAN> 25
 8.797140e+00 -6.631906e+00 -4.056689e+00 4.626112e+00 -2.060409e+00 -1.015202e+01 -5.887887e+00 7.042048e+00 -1.307576e+00 -3.111136e+00 3.825186e-01 -7.403611e-01 -1.007032e+00 6.445821e-01 1.912828e+00 -3.611222e-01 -1.008448e+00 9.844697e-01 1.955132e+00 -1.036526e+00 -6.529217e-01 3.869677e-01 1.583053e-01 -3.764811e-01 -6.295538e-01
<VARIANCE> 25
 1.864818e+01 3.555861e+01 6.421577e+01 4.243454e+01 7.786815e+01 7.660690e+01 7.259646e+01 7.838976e+01 6.672540e+01 5.464310e+01 4.682129e+01 4.275537e+01 1.651788e+00 2.753187e+00 3.358541e+00 3.044862e+00 4.749048e+00 3.756936e+00 4.754271e+00 4.534086e+00 4.773461e+00 3.943907e+00 3.260989e+00 2.860156e+00 2.493902e+00
<GCONST> 1.093714e+02
<TRANSP> 5
 0.000000e+00 1.000000e+00 0.000000e+00 0.000000e+00 0.000000e+00
 0.000000e+00 5.530161e-01 4.469840e-01 0.000000e+00 0.000000e+00
 0.000000e+00 0.000000e+00 6.008087e-01 3.991913e-01 0.000000e+00
 0.000000e+00 0.000000e+00 0.000000e+00 6.163997e-01 3.836003e-01
 0.000000e+00 0.000000e+00 0.000000e+00 0.000000e+00 0.000000e+00
<ENDHMM>
~h "s"
<BEGINHMM>
<NUMSTATES> 5
<STATE> 2
<MEAN> 25
 -9.911956e+00 6.924260e+00 3.136603e-01 1.512047e+00 3.992721e+00 -1.891295e+00 1.399367e+00 2.251966e-01 1.412016e+00 -1.081919e+00 -3.046175e-01 6.946051e-01 -4.653735e+00 1.344879e+00 -8.033639e-01 1.310813e-01 1.571864e+00 1.015384e+00 1.462726e+00 1.032522e+00 5.870280e-01 4.795778e-01 1.152971e+00 7.106277e-01 4.307722e-02
<VARIANCE> 25
 7.622733e+01 4.247667e+01 4.852037e+01 5.121799e+01 5.444978e+01 6.008735e+01 5.408199e+01 5.032238e+01 4.055294e+01 3.756010e+01 3.504065e+01 2.972036e+01 3.493295e+00 4.710994e+00 4.723264e+00 5.441142e+00 4.082545e+00 5.134004e+00 4.949605e+00 4.324169e+00 3.849515e+00 4.673297e+00 3.272162e+00 3.024473e+00 1.835133e+00
<GCONST> 1.100691e+02
<STATE> 3
<MEAN> 25
 -2.178391e+01 8.579355e+00 -5.238468e+00 1.661723e+00 6.999045e+00 2.592818e-01 5.108066e+00 2.901325e+00 2.366553e+00 1.527797e+00 2.792076e+00 3.149477e+00 -4.426059e-01 -1.347261e-01 -2.147726e-01 -1.389816e-01 8.185974e-02 1.726035e-01 1.806554e-01 1.591656e-01 7.738450e-02 1.674489e-01 1.055288e-01 1.453335e-01 -2.341458e-01
<VARIANCE> 25
 2.194753e+01 3.044022e+01 3.375383e+01 6.862611e+01 3.925425e+01 4.819367e+01 3.569027e+01 3.244591e+01 3.046063e+01 2.463534e+01 2.391803e+01 2.124877e+01 1.741665e+00 1.311114e+00 1.455843e+00 1.432406e+00 1.679834e+00 1.844027e+00 1.757789e+00 1.792147e+00 1.892699e+00 1.775496e+00 1.640301e+00 1.410833e+00 8.925799e-01
<GCONST> 9.342666e+01
<STATE> 4
<MEAN> 25
 -1.554269e+01 5.608708e+00 -2.118608e+00 1.018929e+00 6.430171e+00 4.496131e-01 3.958684e+00 3.576874e+00 3.526106e+00 1.956524e+00 2.129407e+00 2.967834e+00 2.941873e+00 -7.668706e-01 6.726198e-01 -7.569724e-02 -9.473050e-01 -4.600215e-01 -8.643996e-01 -5.244459e-01 -2.185104e-01 -1.280041e-01 -5.404820e-01 -4.553064e-01 -6.049281e-01
<VARIANCE> 25
 5.586408e+01 3.917492e+01 3.663694e+01 5.066654e+01 4.797681e+01 5.715134e+01 5.369587e+01 4.249960e+01 3.645478e+01 3.240352e+01 3.134681e+01 2.423306e+01 5.525643e+00 3.630293e+00 2.892520e+00 4.143080e+00 4.057045e+00 4.949296e+00 4.530313e+00 3.643655e+00 3.187941e+00 3.114720e+00 3.373888e+00 2.300211e+00 4.778028e+00
<GCONST> 1.077150e+02
<TRANSP> 5
 0.000000e+00 1.000000e+00 0.000000e+00 0.000000e+00 0.000000e+00
 0.000000e+00 7.069352e-01 2.930648e-01 0.000000e+00 0.000000e+00
 0.000000e+00 0.000000e+00 8.394692e-01 1.605308e-01 0.000000e+00
 0.000000e+00 0.000000e+00 0.000000e+00 7.526696e-01 2.473304e-01
 0.000000e+00 0.000000e+00 0.000000e+00 0.000000e+00 0.000000e+00
<ENDHMM>
~h "t"
<BEGINHMM>
<NUMSTATES> 5
<STATE> 2
<MEAN> 25
 -2.691448e+00 1.614259e+00 1.192294e+00 2.049742e+00 2.041150e+00 5.453482e-01 1.678046e+00 7.963483e-01 2.368198e+00 1.387142e+00 9.564619e-01 1.083163e+00 -1.885572e+00 -1.452934e-01 -1.926233e-01 -3.806085e-01 4.974578e-01 3.921828e-01 8.088739e-01 3.904108e-01 6.022140e-01 5.665248e-01 7.973964e-01 6.457540e-01 4.531813e-01
<VARIANCE> 25
 6.414693e+01 3.980093e+01 4.312905e+01 4.311808e+01 5.436424e+01 5.986111e+01 4.534679e+01 4.480791e+01 4.418010e+01 3.562319e+01 3.796989e+01 2.796566e+01 5.912971e+00 5.313185e+00 3.852074e+00 5.687224e+00 5.421526e+00 5.765701e+00 4.598239e+00 5.226242e+00 4.724130e+00 3.868183e+00 3.693381e+00 2.919330e+00 1.281048e+01
<GCONST> 1.123431e+02
<STATE> 3
<MEAN> 25
 -9.774879e+00 4.057956e-01 4.660949e-01 -7.067013e-01 2.253290e+00 7.288810e-01 4.355227e+00 2.366712e+00 3.105179e+00 2.657782e+00 3.465699e+00 3.030704e+00 -7.525344e-01 -3.174215e-01 3.198416e-01 -1.821118e-01 -5.028383e-01 -6.673207e-01 3.098666e-01 1.203499e-01 -1.217444e-01 -8.091076e-02 7.346189e-02 2.375761e-01 1.413287e+00
<VARIANCE> 25
 8.003387e+01 4.467583e+01 3.815914e+01 4.358265e+01 4.872381e+01 5.320955e+01 4.872993e+01 4.414940e+01 3.863601e+01 3.739379e+01 3.803015e+01 2.903764e+01 6.484263e+00 3.998692e+00 3.877330e+00 4.587517e+00 5.023372e+00 5.408802e+00 4.575536e+00 4.448334e+00 3.619078e+00 3.538171e+00 3.224422e+00 2.691554e+00 9.372009e+00
<GCONST> 1.107598e+02
<STATE> 4
<MEAN> 25
 -7.050071e+00 -1.115826e+00 1.489743e+00 9.539579e-01 5.573491e-01 -1.653339e+00 3.163381e+00 1.761942e+00 1.855006e+00 8.735204e-01 1.309368e+00 2.266184e+00 1.972526e+00 1.651491e-02 1.176667e-01 3.715186e-01 -5.032621e-01 -6.566141e-01 -1.077971e+00 -6.368835e-01 -7.709081e-01 -6.709569e-01 -7.930238e-01 -7.062438e-01 1.949194e-01
<VARIANCE> 25
 6.932452e+01 5.474781e+01 4.965895e+01 5.083968e+01 5.975383e+01 5.838036e+01 5.745234e+01 5.551331e+01 5.184588e+01 4.373468e+01 3.871599e+01 3.547417e+01 7.673806e+00 3.987929e+00 4.848066e+00 4.562768e+00 6.022047e+00 6.749959e+00 5.731443e+00 5.463167e+00 5.181760e+00 5.027872e+00 4.576457e+00 3.269939e+00 5.142605e+00
<GCONST> 1.144685e+02
<TRANSP> 5
 0.000000e+00 1.000000e+00 0.000000e+00 0.000000e+00 0.000000e+00
 0.000000e+00 5.307757e-01 4.692243e-01 0.000000e+00 0.000000e+00
 0.000000e+00 0.000000e+00 4.772775e-01 5.227225e-01 0.000000e+00
 0.000000e+00 0.000000e+00 0.000000e+00 5.228624e-01 4.771376e-01
 0.000000e+00 0.000000e+00 0.000000e+00 0.000000e+00 0.000000e+00
<ENDHMM>
~h "v"
<BEGINHMM>
<NUMSTATES> 5
<STATE> 2
<MEAN> 25
 8.144123e+00 -1.827328e+00 -2.865678e+00 -2.594733e-02 -1.902123e+00 -1.937788e+00 -5.721879e+00 -3.322252e+00 2.232558e+00 2.643268e+00 -1.143808e+00 -2.406821e+00 -5.115651e-01 2.308241e+00 2.389735e-01 1.626727e+00 1.646332e+00 1.052423e+00 4.397001e-01 -1.091984e+00 -9.021466e-01 -2.834833e-01 7.469990e-01 2.370978e-01 -2.198391e+00
<VARIANCE> 25
 1.489965e+01 3.222009e+01 3.138572e+01 3.754617e+01 3.038541e+01 5.119083e+01 3.711315e+01 5.095508e+01 4.538187e+01 4.261366e+01 4.467497e+01 2.817391e+01 2.039784e+00 2.219689e+00 2.733585e+00 3.011403e+00 3.118164e+00 4.389226e+00 4.523359e+00 4.628538e+00 3.686517e+00 3.194811e+00 3.572650e+00 2.848587e+00 1.632412e+00
<GCONST> 1.033448e+02
<STATE> 3
<MEAN> 25
 4.595175e+00 5.623688e+00 -3.834450e-02 4.684204e+00 2.717978e+00 1.472588e+00 -2.320588e+00 -4.166950e+00 -8.593946e-01 3.010528e-01 -4.346004e-01 -1.592502e+00 -2.008708e+00 1.568719e+00 9.476512e-01 1.358873e+00 1.268970e+00 1.013063e+00 1.393597e+00 6.440881e-01 -2.417030e-01 -6.682984e-01 -2.019976e-01 -4.197657e-04 -1.560920e+00
<VARIANCE> 25
 2.002273e+01 2.164752e+01 2.813398e+01 2.843206e+01 2.182876e+01 3.151606e+01 2.896044e+01 3.048644e+01 3.411569e+01 3.247485e+01 3.283900e+01 2.228774e+01 2.667629e+00 2.341869e+00 2.187495e+00 2.668490e+00 2.614966e+00 3.464206e+00 3.065879e+00 3.177661e+00 3.253662e+00 2.779227e+00 2.612900e+00 2.281439e+00 1.626390e+00
<GCONST> 9.817620e+01
<STATE> 4
<MEAN> 25
 -1.959004e+00 4.270981e+00 4.321328e-01 5.573079e+00 3.724451e+00 2.684817e+00 1.425237e+00 -8.139053e-02 1.573462e+00 4.664488e-01 7.501590e-02 2.508806e-01 -4.954439e-01 -6.251667e-01 -2.744417e-01 -2.101002e-01 -6.995684e-02 -1.587005e-01 8.558806e-02 2.502348e-01 1.595245e-01 1.053188e-01 2.070436e-01 2.523726e-01 1.861570e-01
<VARIANCE> 25
 3.445966e+01 2.996310e+01 3.124967e+01 2.641050e+01 2.764695e+01 3.237626e+01 3.369643e+01 3.120642e+01 3.973479e+01 2.845316e+01 2.625810e+01 2.319150e+01 4.279211e+00 2.519961e+00 2.246253e+00 2.638311e+00 2.809074e+00 2.765897e+00 2.945437e+00 2.674906e+00 2.696561e+00 2.670005e+00 2.260086e+00 2.003417e+00 2.346694e+00
<GCONST> 9.940877e+01
<TRANSP> 5
 0.000000e+00 1.000000e+00 0.000000e+00 0.000000e+00 0.000000e+00
 0.000000e+00 5.239821e-01 4.760179e-01 0.000000e+00 0.000000e+00
 0.000000e+00 0.000000e+00 4.863280e-01 5.136721e-01 0.000000e+00
 0.000000e+00 0.000000e+00 0.000000e+00 6.829337e-01 3.170662e-01
 0.000000e+00 0.000000e+00 0.000000e+00 0.000000e+00 0.000000e+00
<ENDHMM>
~h "w"
<BEGINHMM>
<NUMSTATES> 5
<STATE> 2
<MEAN> 25
 4.974673e+00 3.706363e+00 -2.083322e+00 3.745237e-01 1.525461e+00 1.475256e+00 -3.266063e-01 -2.643980e+00 -1.512605e+00 6.668801e-01 2.817103e-01 -2.921456e-01 1.379799e+00 1.171734e+00 -3.067372e-01 -1.127620e+00 -7.294859e-01 2.838240e-01 2.092840e-02 -5.615144e-01 -7.951233e-01 -5.116364e-01 -1.817172e-01 -9.130279e-02 8.956738e-02
<VARIANCE> 25
 4.590071e+01 4.270419e+01 3.163599e+01 4.359544e+01 4.245589e+01 4.520828e+01 5.106390e+01 4.292812e+01 4.437869e+01 3.749316e+01 2.758677e+01 2.736102e+01 3.440655e+00 2.424772e+00 2.901533e+00 4.774208e+00 4.791464e+00 4.612498e+00 4.846508e+00 4.567620e+00 4.757326e+00 3.721799e+00 3.116413e+00 2.700626e+00 4.439111e+00
<GCONST> 1.074899e+02
<STATE> 3
<MEAN> 25
 1.093784e+01 6.908917e+00 -3.666988e+00 -8.102150e+00 -5.124091e+00 3.078486e+00 -8.293682e-01 -3.594705e+00 -3.909026e+00 -2.248684e+00 -5.878440e-01 -6.694866e-01 6.742541e-01 -8.269141e-01 -8.030437e-01 -2.015532e+00 -7.781451e-01 8.180302e-01 -8.510092e-01 -4.345281e-01 -4.097736e-01 2.317242e-01 4.952882e-01 1.089724e-01 1.852773e+00
<VARIANCE> 25
 1.720274e+01 2.287668e+01 3.267453e+01 6.313253e+01 4.816866e+01 4.019195e+01 3.995633e+01 3.988515e+01 6.273179e+01 3.049036e+01 3.185935e+01 3.376366e+01 2.370672e+00 3.306893e+00 3.310868e+00 6.233702e+00 5.309299e+00 5.424834e+00 6.024038e+00 5.435883e+00 5.062751e+00 4.960468e+00 3.926986e+00 3.200784e+00 4.067565e+00
<GCONST> 1.081264e+02
<STATE> 4
<MEAN> 25
 9.452091e+00 -1.681327e+00 -7.041241e+00 -9.946156e+00 -1.838730e+00 5.291044e+00 -6.797337e+00 -4.798063e+00 -3.180894e+00 2.324636e+00 9.417816e-01 -3.113116e+00 -7.289850e-01 -2.008391e+00 3.709626e-01 1.064801e+00 3.815757e-01 -1.417589e+00 -1.362328e+00 7.602879e-01 1.186866e+00 7.794411e-01 -8.235435e-01 -9.128111e-01 1.531803e+00
<VARIANCE> 25
 1.427399e+01 3.581653e+01 3.440672e+01 7.302995e+01 4.547679e+01 8.180472e+01 7.572635e+01 7.059380e+01 7.512206e+01 8.086253e+01 7.714481e+01 4.830686e+01 9.760240e-01 2.567316e+00 3.421580e+00 4.619270e+00 5.995998e+00 7.161881e+00 6.550136e+00 5.880038e+00 6.374366e+00 6.630596e+00 5.885499e+00 4.032791e+00 1.951660e+00
<GCONST> 1.124231e+02
<TRANSP> 5
 0.000000e+00 1.000000e+00 0.000000e+00 0.000000e+00 0.000000e+00
 0.000000e+00 6.797691e-01 3.202309e-01 0.000000e+00 0.000000e+00
 0.000000e+00 0.000000e+00 6.628025e-01 3.371975e-01 0.000000e+00
 0.000000e+00 0.000000e+00 0.000000e+00 6.676689e-01 3.323310e-01
 0.000000e+00 0.000000e+00 0.000000e+00 0.000000e+00 0.000000e+00
<ENDHMM>
~h "y"
<BEGINHMM>
<NUMSTATES> 5
<STATE> 2
<MEAN> 25
 -5.216413e+00 5.352767e+00 1.130427e+01 1.031471e+00 -2.406918e+00 -8.491454e-01 9.385309e-01 -3.953650e+00 -3.739947e+00 -6.219883e-01 6.034911e-02 3.180497e-01 1.150836e+00 2.123009e-01 2.494728e+00 -1.510109e-01 -2.156075e+00 -4.401642e-01 -1.073764e+00 -1.186057e+00 -2.102684e+00 -7.218329e-01 -3.403153e-01 -7.051512e-01 1.142688e+00
<VARIANCE> 25
 6.611314e+01 5.412977e+01 6.038993e+01 4.208739e+01 4.874742e+01 5.296336e+01 6.551830e+01 4.489266e+01 5.066788e+01 4.213577e+01 3.702778e+01 3.214400e+01 6.242616e+00 3.286817e+00 5.008441e+00 4.722769e+00 5.219727e+00 5.008687e+00 6.878640e+00 4.523387e+00 5.659867e+00 4.773618e+00 3.761558e+00 2.991720e+00 3.037428e+00
<GCONST> 1.122755e+02
<STATE> 3
<MEAN> 25
 3.725075e-01 3.701030e+00 1.701626e+01 -1.282395e+00 -1.250110e+01 -2.343731e+00 -5.068989e+00 -7.321715e+00 -1.031275e+01 -2.435537e+00 -7.979571e-01 -4.142908e+00 5.262088e-01 -8.762968e-01 7.356617e-01 -1.566561e-01 -2.045701e+00 -3.114389e-01 -1.529383e-01 9.379415e-02 -1.078869e+00 -3.323235e-01 7.458670e-01 -5.445856e-01 9.225616e-01
<VARIANCE> 25
 1.708854e+01 2.860695e+01 3.336373e+01 8.118494e+01 3.918556e+01 4.514125e+01 4.422241e+01 4.167522e+01 4.137165e+01 5.433205e+01 3.892609e+01 4.994386e+01 2.462885e+00 2.221819e+00 4.329738e+00 3.889282e+00 3.589435e+00 6.116667e+00 5.081699e+00 4.075103e+00 4.564025e+00 3.547769e+00 3.854947e+00 3.352908e+00 1.429277e+00
<GCONST> 1.066745e+02
<STATE> 4
<MEAN> 25
 2.191232e+00 -2.429926e-01 1.448850e+01 1.926495e+00 -1.348306e+01 -5.849584e+00 -4.525536e+00 -3.704480e+00 -1.064453e+01 -3.891725e+00 1.697053e+00 -2.521518e+00 6.101577e-01 -5.767912e-01 -1.550576e+00 5.201377e-01 6.139845e-01 -8.871342e-01 -5.441207e-01 5.754648e-01 8.456410e-01 -2.762996e-01 -1.571258e-01 3.706680e-01 1.499705e-01
<VARIANCE> 25
 1.302969e+01 2.500689e+01 4.516017e+01 6.257853e+01 3.579504e+01 6.439521e+01 5.146802e+01 4.571563e+01 5.187185e+01 7.763334e+01 4.089844e+01 6.510470e+01 4.939942e-01 1.191592e+00 2.057123e+00 1.866970e+00 2.626309e+00 2.468467e+00 3.882656e+00 3.112739e+00 3.135904e+00 3.210882e+00 1.968515e+00 1.997211e+00 5.051625e-01
<GCONST> 9.954654e+01
<TRANSP> 5
 0.000000e+00 1.000000e+00 0.000000e+00 0.000000e+00 0.000000e+00
 0.000000e+00 6.059877e-01 3.940123e-01 0.000000e+00 0.000000e+00
 0.000000e+00 0.000000e+00 5.989619e-01 4.010381e-01 0.000000e+00
 0.000000e+00 0.000000e+00 0.000000e+00 7.923955e-01 2.076045e-01
 0.000000e+00 0.000000e+00 0.000000e+00 0.000000e+00 0.000000e+00
<ENDHMM>
~h "z"
<BEGINHMM>
<NUMSTATES> 5
<STATE> 2
<MEAN> 25
 -2.008244e+00 9.839123e+00 2.109971e+00 1.739354e+00 7.136829e-01 -8.048044e+00 -5.202740e+00 -3.997678e+00 -1.759429e-01 -1.050953e+00 -2.635566e+00 7.829997e-01 -3.972062e+00 3.031375e+00 -5.764086e-01 8.198687e-01 2.495639e+00 6.990440e-01 1.510133e+00 4.372443e-01 3.378105e-01 -2.264349e-01 5.808858e-01 1.982952e-01 -5.229689e-01
<VARIANCE> 25
 3.706356e+01 4.592835e+01 4.282781e+01 4.098336e+01 6.426136e+01 5.353879e+01 5.545066e+01 4.158245e+01 3.568698e+01 4.871077e+01 3.424055e+01 3.091648e+01 2.638012e+00 3.843055e+00 3.432422e+00 5.316431e+00 3.820829e+00 6.200715e+00 4.937549e+00 6.309689e+00 3.917308e+00 3.912140e+00 3.883748e+00 3.360001e+00 1.170108e+00
<GCONST> 1.084487e+02
<STATE> 3
<MEAN> 25
 -1.582813e+01 1.431247e+01 -7.317605e-01 3.995930e+00 6.771418e+00 -2.274074e+00 9.757141e-01 -8.225036e-02 6.619933e-01 -2.367980e-01 5.602589e-01 1.803030e+00 -2.214720e+00 -5.045065e-01 -6.799605e-01 1.643753e-03 6.660223e-01 1.030634e+00 1.017222e+00 1.056828e+00 4.522974e-01 5.384085e-01 6.517698e-01 3.886577e-01 -3.243375e-01
<VARIANCE> 25
 2.993729e+01 2.655168e+01 4.700164e+01 5.866425e+01 5.615010e+01 5.215739e+01 4.624275e+01 4.503726e+01 3.889458e+01 3.171524e+01 2.852248e+01 2.265012e+01 3.818031e+00 2.245000e+00 2.343911e+00 2.511812e+00 2.470128e+00 3.269355e+00 3.231286e+00 2.911608e+00 2.865007e+00 2.840760e+00 2.206993e+00 2.135323e+00 9.219568e-01
<GCONST> 1.015767e+02
<STATE> 4
<MEAN> 25
 -1.337504e+01 6.848824e+00 -7.051005e-01 2.437946e+00 6.389668e+00 -6.460299e-01 2.371948e+00 2.881488e+00 2.641731e+00 7.905725e-01 1.332358e+00 2.660606e+00 1.825270e+00 -1.083581e+00 8.086900e-02 3.621057e-02 -6.619558e-01 9.705391e-03 -2.955127e-01 -2.828903e-01 -2.105802e-03 1.510230e-02 -1.095852e-01 -1.847040e-01 -6.714737e-01
<VARIANCE> 25
 6.102522e+01 5.825732e+01 3.943089e+01 5.479803e+01 4.702227e+01 6.073220e+01 6.413006e+01 5.443349e+01 3.988337e+01 3.025106e+01 3.906820e+01 2.622706e+01 4.805426e+00 3.086409e+00 2.209332e+00 3.080997e+00 3.734589e+00 4.238371e+00 4.213889e+00 3.844571e+00 3.438284e+00 2.866476e+00 2.607817e+00 2.186426e+00 3.488343e+00
<GCONST> 1.073837e+02
<TRANSP> 5
 0.000000e+00 1.000000e+00 0.000000e+00 0.000000e+00 0.000000e+00
 0.000000e+00 6.780086e-01 3.219914e-01 0.000000e+00 0.000000e+00
 0.000000e+00 0.000000e+00 6.758948e-01 3.241052e-01 0.000000e+00
 0.000000e+00 0.000000e+00 0.000000e+00 8.096975e-01 1.903024e-01
 0.000000e+00 0.000000e+00 0.000000e+00 0.000000e+00 0.000000e+00
<ENDHMM>
~h "aa"
<BEGINHMM>
<NUMSTATES> 5
<STATE> 2
<MEAN> 25
 4.416958e+00 -5.205638e+00 -6.254442e+00 -5.046273e+00 2.556727e+00 4.789111e+00 -2.156292e+00 -1.332712e+00 6.530681e-01 -7.604235e-01 -2.081321e+00 -3.230951e+00 1.299208e+00 -1.709817e+00 -1.411055e+00 -1.776951e+00 2.035381e-01 1.390574e+00 -2.874718e-01 -2.334699e-01 9.651460e-03 -6.635847e-01 -3.021006e-01 -9.708360e-01 1.679277e+00
<VARIANCE> 25
 3.316563e+01 4.484092e+01 4.736860e+01 4.694952e+01 6.699245e+01 9.612612e+01 7.293040e+01 6.930090e+01 5.626612e+01 5.509943e+01 5.859248e+01 3.596015e+01 4.000017e+00 3.983097e+00 4.510682e+00 4.434070e+00 6.556139e+00 7.712971e+00 5.473195e+00 6.913943e+00 5.702101e+00 4.782581e+00 5.616280e+00 3.917162e+00 2.808880e+00
<GCONST> 1.146995e+02
<STATE> 3
<MEAN> 25
 7.833386e+00 -9.131784e+00 -9.968925e+00 -1.030760e+01 3.435156e+00 1.000796e+01 -1.310497e+00 -3.539685e+00 2.806415e-01 -2.717887e+00 -9.738074e-01 -4.114825e+00 4.179608e-02 -3.351220e-01 -2.883555e-01 8.955746e-02 3.433553e-01 3.083785e-02 -1.910161e-01 -5.095040e-03 7.731932e-02 -2.004534e-02 3.382623e-02 -1.675977e-01 1.580583e-01
<VARIANCE> 25
 1.600877e+01 3.851056e+01 3.149220e+01 5.312378e+01 5.973969e+01 7.132534e+01 9.725049e+01 5.473383e+01 4.780441e+01 4.557093e+01 5.437331e+01 4.170881e+01 5.089871e-01 1.030287e+00 1.057705e+00 1.925330e+00 2.018171e+00 2.743905e+00 2.349870e+00 2.511483e+00 1.986579e+00 2.125720e+00 2.210555e+00 1.947633e+00 5.156540e-01
<GCONST> 9.793394e+01
<STATE> 4
<MEAN> 25
 8.016820e+00 -8.143516e+00 -9.469556e+00 -6.026075e+00 3.187553e+00 4.093973e+00 -3.771902e+00 -1.744281e+00 1.815209e+00 -9.856439e-01 -4.313129e+00 -5.215683e+00 2.099261e-03 1.169191e+00 6.609598e-01 1.067281e+00 -3.616523e-01 -1.422807e+00 -5.601560e-02 3.190739e-01 -9.657522e-02 2.081805e-01 -3.015425e-01 2.955217e-01 -1.092667e+00
<VARIANCE> 25
 1.344005e+01 3.958182e+01 3.962398e+01 3.910275e+01 4.110259e+01 7.813349e+01 7.855114e+01 5.914113e+01 5.718410e+01 6.011847e+01 5.586573e+01 4.028720e+01 7.999176e-01 1.999763e+00 2.107071e+00 2.749987e+00 3.115463e+00 3.570768e+00 3.765667e+00 3.705276e+00 2.955775e+00 3.408406e+00 2.862495e+00 2.343554e+00 1.591241e+00
<GCONST> 1.038983e+02
<TRANSP> 5
 0.000000e+00 1.000000e+00 0.000000e+00 0.000000e+00 0.000000e+00
 0.000000e+00 6.581323e-01 3.418677e-01 0.000000e+00 0.000000e+00
 0.000000e+00 0.000000e+00 7.901573e-01 2.098427e-01 0.000000e+00
 0.000000e+00 0.000000e+00 0.000000e+00 7.581319e-01 2.418680e-01
 0.000000e+00 0.000000e+00 0.000000e+00 0.000000e+00 0.000000e+00
<ENDHMM>
~h "ae"
<BEGINHMM>
<NUMSTATES> 5
<STATE> 2
<MEAN> 25
 2.020480e+00 -6.140599e+00 -1.002541e+00 -1.110934e+00 -4.627079e+00 -2.208920e+00 3.440025e+00 3.537652e+00 6.462388e-01 -2.622520e+00 -2.778066e+00 -6.625002e-01 7.286685e-01 -1.640188e+00 -3.416561e-01 -7.204305e-01 -1.044109e+00 -1.880632e-02 6.289236e-02 7.542626e-01 -2.003016e-01 -8.085647e-01 -6.970543e-01 -2.867511e-01 2.067000e+00
<VARIANCE> 25
 2.875528e+01 5.005029e+01 3.968647e+01 3.977100e+01 6.374189e+01 6.292953e+01 7.165943e+01 5.873819e+01 6.980575e+01 4.847472e+01 5.391579e+01 4.075132e+01 2.912325e+00 4.347102e+00 3.392639e+00 3.758654e+00 5.163776e+00 4.717301e+00 6.507783e+00 5.296553e+00 5.156006e+00 4.433435e+00 4.746931e+00 3.599124e+00 4.853257e+00
<GCONST> 1.124107e+02
<STATE> 3
<MEAN> 25
 3.497378e+00 -1.109886e+01 -2.783043e+00 -2.310470e+00 -4.435600e+00 -9.328903e-01 3.164795e+00 3.201530e+00 -1.264409e+00 -5.327245e+00 -4.913264e+00 -2.059361e+00 1.090247e-01 -1.754609e-01 -2.594346e-01 1.400570e-01 3.066799e-01 1.148002e-01 -2.094826e-01 -9.249367e-03 2.058230e-01 -5.173781e-02 -1.904466e-01 7.406030e-03 -1.724885e-02
<VARIANCE> 25
 1.776675e+01 3.466116e+01 4.509450e+01 3.044476e+01 5.554483e+01 4.644835e+01 5.533472e+01 5.416388e+01 5.098229e+01 4.044885e+01 3.899292e+01 3.511262e+01 4.648610e-01 1.127088e+00 1.241291e+00 1.252682e+00 1.850302e+00 1.733992e+00 2.114260e+00 1.930105e+00 1.957691e+00 1.565360e+00 1.455855e+00 1.422014e+00 5.681985e-01
<GCONST> 9.395832e+01
<STATE> 4
<MEAN> 25
 4.497487e+00 -7.698014e+00 -3.777729e+00 -4.586105e-01 -3.256500e+00 -2.403022e+00 2.322829e+00 2.842493e+00 1.829799e+00 -2.970732e+00 -5.412066e+00 -2.145726e+00 1.225235e-01 1.645837e+00 5.171773e-01 6.537206e-01 4.909329e-01 -3.282712e-01 -4.135129e-01 -4.992974e-01 -1.581393e-03 6.942627e-01 3.102927e-01 5.668478e-02 -1.691000e+00
<VARIANCE> 25
 2.103337e+01 3.599097e+01 4.603247e+01 3.287111e+01 5.391745e+01 4.763970e+01 7.087186e+01 4.879382e+01 5.323245e+01 4.901072e+01 3.951989e+01 4.454977e+01 1.276252e+00 2.093330e+00 2.013643e+00 2.293949e+00 3.134756e+00 3.035918e+00 3.464237e+00 3.688881e+00 2.762219e+00 2.729546e+00 2.561540e+00 2.447772e+00 2.049251e+00
<GCONST> 1.031252e+02
<TRANSP> 5
 0.000000e+00 1.000000e+00 0.000000e+00 0.000000e+00 0.000000e+00
 0.000000e+00 6.568806e-01 3.431193e-01 0.000000e+00 0.000000e+00
 0.000000e+00 0.000000e+00 7.931600e-01 2.068399e-01 0.000000e+00
 0.000000e+00 0.000000e+00 0.000000e+00 6.785883e-01 3.214117e-01
 0.000000e+00 0.000000e+00 0.000000e+00 0.000000e+00 0.000000e+00
<ENDHMM>
~h "ah"
<BEGINHMM>
<NUMSTATES> 5
<STATE> 2
<MEAN> 25
 2.388102e+00 -1.741157e+00 -4.789709e-02 -1.669827e+00 -2.874563e+00 -2.729344e+00 -2.872403e+00 -2.366067e-01 1.100175e+00 -5.177643e-01 -2.090110e+00 -1.047890e+00 1.493248e+00 -9.665529e-01 -2.118423e-02 -1.051083e+00 -1.047244e+00 -3.958743e-01 -1.062955e+00 -6.851444e-02 1.913831e-01 -8.877438e-02 -7.332329e-01 -4.771556e-01 1.490108e+00
<VARIANCE> 25
 3.498245e+01 4.451842e+01 5.986987e+01 4.995452e+01 7.071677e+01 6.810781e+01 7.629623e+01 5.766719e+01 5.782925e+01 5.255521e+01 4.303613e+01 3.919002e+01 5.185068e+00 4.361669e+00 4.804579e+00 5.612445e+00 6.154943e+00 6.567688e+00 6.913202e+00 6.725869e+00 5.961794e+00 5.263253e+00 4.711865e+00 4.042124e+00 5.972624e+00
<GCONST> 1.157520e+02
<STATE> 3
<MEAN> 25
 5.259101e+00 -3.361919e+00 -8.439886e-01 -3.687835e+00 -3.413166e+00 -2.465310e+00 -4.851686e+00 -7.664134e-01 1.488072e+00 -2.381846e-01 -3.357275e+00 -2.417806e+00 4.741523e-01 4.352467e-01 1.297749e-01 1.929547e-01 2.447950e-01 3.865833e-01 1.699419e-01 -2.625546e-01 -1.936999e-01 -4.556032e-02 -1.523762e-02 -1.843882e-02 -5.684202e-01
<VARIANCE> 25
 2.215680e+01 4.524850e+01 6.681088e+01 5.335867e+01 6.475910e+01 6.747701e+01 6.432645e+01 6.363518e+01 5.986977e+01 6.543633e+01 4.758900e+01 4.293871e+01 2.484382e+00 3.241315e+00 3.200976e+00 4.515632e+00 4.581611e+00 4.300665e+00 4.274218e+00 4.520092e+00 4.065405e+00 3.629217e+00 3.315804e+00 2.988345e+00 3.898604e+00
<GCONST> 1.106759e+02
<STATE> 4
<MEAN> 25
 3.597385e+00 -2.196296e+00 -1.060375e+00 -1.445295e+00 -2.045457e-01 3.224957e-01 -1.056695e+00 6.558146e-01 1.770131e+00 -9.152098e-01 -1.692370e+00 -8.421759e-01 -1.286438e-01 7.946218e-01 2.224058e-01 4.124877e-01 4.621696e-01 2.847922e-01 3.308149e-01 -1.835092e-01 -3.726101e-01 -9.788583e-02 2.245636e-01 1.359560e-01 -8.541549e-01
<VARIANCE> 25
 4.298473e+01 5.544225e+01 4.972332e+01 6.115106e+01 6.662738e+01 7.007682e+01 7.551643e+01 6.415634e+01 5.797875e+01 6.108413e+01 5.047728e+01 4.932415e+01 2.161882e+00 2.571964e+00 2.362124e+00 3.810892e+00 3.338704e+00 3.432571e+00 3.309007e+00 3.624537e+00 3.530072e+00 3.045429e+00 2.730417e+00 2.581747e+00 3.774640e+00
<GCONST> 1.091621e+02
<TRANSP> 5
 0.000000e+00 1.000000e+00 0.000000e+00 0.000000e+00 0.000000e+00
 0.000000e+00 4.554971e-01 5.445029e-01 0.000000e+00 0.000000e+00
 0.000000e+00 0.000000e+00 3.496570e-01 6.503430e-01 0.000000e+00
 0.000000e+00 0.000000e+00 0.000000e+00 5.620537e-01 4.379463e-01
 0.000000e+00 0.000000e+00 0.000000e+00 0.000000e+00 0.000000e+00
<ENDHMM>
~h "ao"
<BEGINHMM>
<NUMSTATES> 5
<STATE> 2
<MEAN> 25
 6.822088e+00 7.296690e-01 -7.678057e+00 -1.037470e+01 -1.945740e+00 4.490113e+00 -4.800017e-01 4.205617e-02 -1.307505e+00 -3.764100e-01 1.060961e+00 -1.845730e+00 1.587587e+00 -3.579259e-01 -1.039706e+00 -2.459063e+00 -8.865174e-01 6.683162e-01 -5.337650e-02 3.644683e-01 -8.279820e-01 -6.473525e-01 8.569182e-02 -7.361083e-02 1.314013e+00
<VARIANCE> 25
 3.953691e+01 5.625026e+01 3.583010e+01 7.068497e+01 8.029382e+01 7.633222e+01 5.580397e+01 5.874326e+01 5.657167e+01 4.782835e+01 5.652171e+01 3.671391e+01 4.852573e+00 4.718097e+00 4.091527e+00 6.692093e+00 7.312194e+00 7.674085e+00 6.535589e+00 5.717547e+00 5.725765e+00 4.692183e+00 4.756315e+00 4.424362e+00 4.272039e+00
<GCONST> 1.157262e+02
<STATE> 3
<MEAN> 25
 1.032662e+01 -2.000319e+00 -9.274150e+00 -1.716193e+01 -3.046320e+00 9.539995e+00 9.808316e-01 3.060010e-01 -2.807664e+00 -3.397955e+00 6.791307e-01 -7.098714e-01 9.517207e-02 -3.718501e-01 -5.066720e-01 1.315614e-01 6.894678e-01 1.280577e-01 -1.931897e-01 3.341023e-03 -7.800998e-02 -8.926032e-02 2.939641e-01 2.621654e-01 7.910169e-02
<VARIANCE> 25
 1.209285e+01 4.686496e+01 3.091421e+01 5.254314e+01 9.835774e+01 8.135416e+01 7.472057e+01 6.610957e+01 5.380863e+01 4.844453e+01 5.429688e+01 4.451829e+01 3.267447e-01 1.397743e+00 1.297572e+00 1.939624e+00 2.481193e+00 2.083319e+00 2.761715e+00 2.066290e+00 1.994662e+00 2.231612e+00 2.133885e+00 1.900369e+00 5.224497e-01
<GCONST> 9.859593e+01
<STATE> 4
<MEAN> 25
 9.044128e+00 -4.623424e+00 -1.401422e+01 -8.505515e+00 5.528326e+00 4.743197e+00 -4.887785e+00 -1.396829e+00 -6.765177e-01 -1.418555e+00 1.658713e+00 -1.039324e+00 -2.556010e-01 1.427671e-01 2.922390e-01 1.640106e+00 5.942104e-01 -1.120114e+00 -9.200888e-01 -1.035095e-01 8.480108e-01 6.060641e-01 -4.203313e-01 -4.479184e-01 -4.566745e-01
<VARIANCE> 25
 3.826410e+01 3.610160e+01 4.113506e+01 8.098724e+01 7.325378e+01 7.368900e+01 1.429397e+02 8.738395e+01 8.089793e+01 7.057941e+01 5.897172e+01 5.823321e+01 9.429820e-01 2.190706e+00 2.547354e+00 3.304712e+00 4.066840e+00 3.770696e+00 5.152960e+00 4.111884e+00 3.646466e+00 2.939290e+00 3.266668e+00 3.048669e+00 1.238552e+00
<GCONST> 1.096307e+02
<TRANSP> 5
 0.000000e+00 1.000000e+00 0.000000e+00 0.000000e+00 0.000000e+00
 0.000000e+00 7.314463e-01 2.685537e-01 0.000000e+00 0.000000e+00
 0.000000e+00 0.000000e+00 8.437150e-01 1.562851e-01 0.000000e+00
 0.000000e+00 0.000000e+00 0.000000e+00 7.302296e-01 2.697704e-01
 0.000000e+00 0.000000e+00 0.000000e+00 0.000000e+00 0.000000e+00
<ENDHMM>
~h "aw"
<BEGINHMM>
<NUMSTATES> 5
<STATE> 2
<MEAN> 25
 4.004758e+00 -1.208924e+01 -4.186730e+00 -2.335603e+00 -1.295061e+00 1.219752e+00 1.554239e+00 2.352979e+00 3.097119e-01 -4.831546e+00 -5.293699e+00 -3.388516e+00 4.279844e-01 -1.211931e+00 -1.069216e+00 -3.047903e-01 9.274788e-01 1.405606e+00 -2.215780e-01 -5.382769e-01 5.731667e-01 -3.147150e-01 -4.351611e-01 -4.782015e-01 6.534955e-01
<VARIANCE> 25
 1.289761e+01 3.523120e+01 3.181144e+01 3.340039e+01 5.766194e+01 6.098408e+01 4.157394e+01 4.915435e+01 6.918987e+01 4.348948e+01 4.263792e+01 4.584086e+01 1.164090e+00 2.816418e+00 2.373524e+00 2.653219e+00 3.216856e+00 3.076352e+00 4.432932e+00 5.145640e+00 3.630451e+00 2.768540e+00 2.813486e+00 2.874934e+00 1.446836e+00
<GCONST> 1.036237e+02
<STATE> 3
<MEAN> 25
 7.572895e+00 -1.184277e+01 -8.550446e+00 -4.925998e+00 2.081897e+00 9.167789e+00 -1.764489e+00 -1.737868e+00 2.876934e+00 -2.809101e+00 -4.629401e+00 -5.797760e+00 4.335801e-01 6.715258e-01 -3.954973e-01 -8.067795e-01 -7.190525e-02 6.609277e-01 -4.303025e-02 -5.875405e-01 -1.952751e-01 4.206901e-01 6.151831e-01 4.259915e-02 -4.853454e-01
<VARIANCE> 25
 1.092901e+01 2.947993e+01 2.162287e+01 3.382969e+01 3.864365e+01 6.137620e+01 5.090219e+01 5.327045e+01 4.278076e+01 4.703115e+01 4.038799e+01 3.926760e+01 3.257062e-01 9.500551e-01 8.482995e-01 1.585167e+00 1.901013e+00 2.005164e+00 1.768455e+00 1.922102e+00 2.303415e+00 1.827097e+00 1.618418e+00 1.970272e+00 3.082050e-01
<GCONST> 9.207423e+01
<STATE> 4
<MEAN> 25
 1.000603e+01 -3.827302e+00 -7.964229e+00 -9.642234e+00 -1.474807e+00 8.122592e+00 6.345198e-01 -4.709484e+00 7.496959e-01 -3.428310e-01 8.948606e-02 -2.677538e+00 5.360755e-02 1.231692e+00 7.735260e-01 1.038489e+00 -3.358459e-01 -1.255441e+00 -2.769748e-01 6.786471e-02 -4.278590e-01 2.417698e-01 1.376051e-01 4.150528e-01 -1.304833e+00
<VARIANCE> 25
 1.513296e+01 3.972395e+01 3.056907e+01 7.111310e+01 7.366611e+01 5.899692e+01 6.896712e+01 5.654946e+01 5.429786e+01 6.511510e+01 7.727061e+01 3.843620e+01 1.014115e+00 2.516898e+00 2.029592e+00 4.716181e+00 4.448012e+00 3.210462e+00 3.240827e+00 3.544551e+00 3.550725e+00 3.832396e+00 3.602732e+00 3.332249e+00 1.383324e+00
<GCONST> 1.065592e+02
<TRANSP> 5
 0.000000e+00 1.000000e+00 0.000000e+00 0.000000e+00 0.000000e+00
 0.000000e+00 7.848611e-01 2.151389e-01 0.000000e+00 0.000000e+00
 0.000000e+00 0.000000e+00 8.413156e-01 1.586844e-01 0.000000e+00
 0.000000e+00 0.000000e+00 0.000000e+00 8.119515e-01 1.880485e-01
 0.000000e+00 0.000000e+00 0.000000e+00 0.000000e+00 0.000000e+00
<ENDHMM>
~h "ay"
<BEGINHMM>
<NUMSTATES> 5
<STATE> 2
<MEAN> 25
 3.818449e+00 -8.276948e+00 -7.622157e+00 -5.554769e+00 5.066718e+00 7.993249e+00 9.470583e-01 -2.488305e+00 3.776872e+00 5.819456e-02 -1.983226e+00 -2.418092e+00 3.309654e-01 -1.702050e+00 -4.078905e-01 -4.502680e-01 3.785944e-01 5.016516e-01 -2.349743e-01 -3.423374e-02 4.911277e-01 -3.049109e-01 -7.984187e-01 -6.621084e-01 1.441476e+00
<VARIANCE> 25
 3.908696e+01 4.581677e+01 3.549929e+01 7.846294e+01 6.519704e+01 6.385765e+01 8.452193e+01 5.751285e+01 4.954899e+01 5.368338e+01 5.975666e+01 5.987803e+01 2.342697e+00 3.618611e+00 2.603439e+00 4.760754e+00 3.519609e+00 4.709321e+00 4.465710e+00 4.522049e+00 4.172732e+00 4.087986e+00 3.712782e+00 3.668527e+00 3.152771e+00
<GCONST> 1.113256e+02
<STATE> 3
<MEAN> 25
 6.452059e+00 -1.264331e+01 -7.255296e+00 -5.874339e+00 3.687116e+00 6.082412e+00 -1.594988e+00 -2.234434e-01 3.429558e+00 -3.220180e+00 -6.232636e+00 -5.605785e+00 -2.026051e-01 -1.439133e-01 6.701285e-01 5.443770e-01 -7.803144e-01 -1.110160e+00 2.992795e-01 1.107517e+00 -5.480847e-02 -5.148191e-01 -3.067983e-01 3.346674e-01 7.450912e-02
<VARIANCE> 25
 9.705670e+00 2.892786e+01 2.967283e+01 2.946194e+01 4.660928e+01 5.805072e+01 6.192458e+01 5.557500e+01 4.735912e+01 5.139848e+01 3.878235e+01 3.384619e+01 3.276833e-01 8.999892e-01 1.151056e+00 1.373225e+00 2.408861e+00 2.264662e+00 2.257745e+00 2.616301e+00 1.973211e+00 1.720366e+00 1.539613e+00 1.644539e+00 2.666965e-01
<GCONST> 9.292071e+01
<STATE> 4
<MEAN> 25
 3.645853e+00 -8.537239e+00 7.314388e-01 -2.329302e+00 -5.651683e+00 -2.375720e+00 3.261038e+00 4.533670e+00 8.273779e-01 -2.464545e+00 -3.073499e+00 -1.285980e+00 -1.180288e-01 1.184959e+00 1.084477e+00 3.425839e-01 -1.241882e+00 -9.669205e-01 2.828867e-01 -2.431333e-01 -7.087622e-01 7.412076e-01 8.363200e-01 2.711409e-01 -7.099634e-01
<VARIANCE> 25
 1.702753e+01 3.861183e+01 4.228184e+01 3.454709e+01 6.297334e+01 4.897160e+01 3.982728e+01 4.852927e+01 5.359331e+01 4.444242e+01 4.751046e+01 3.523410e+01 5.525667e-01 1.421758e+00 2.447539e+00 1.892285e+00 4.042881e+00 2.957438e+00 3.402659e+00 3.308907e+00 3.350011e+00 2.914519e+00 2.628927e+00 2.686633e+00 7.110910e-01
<GCONST> 1.006078e+02
<TRANSP> 5
 0.000000e+00 1.000000e+00 0.000000e+00 0.000000e+00 0.000000e+00
 0.000000e+00 7.288948e-01 2.711051e-01 0.000000e+00 0.000000e+00
 0.000000e+00 0.000000e+00 8.342068e-01 1.657933e-01 0.000000e+00
 0.000000e+00 0.000000e+00 0.000000e+00 7.700346e-01 2.299654e-01
 0.000000e+00 0.000000e+00 0.000000e+00 0.000000e+00 0.000000e+00
<ENDHMM>
~h "ch"
<BEGINHMM>
<NUMSTATES> 5
<STATE> 2
<MEAN> 25
 -8.653820e+00 1.256960e+00 4.764529e+00 7.393390e-03 1.883407e+00 1.451886e+00 9.178417e-01 2.550396e-01 2.557073e+00 8.133067e-01 3.183239e+00 1.496328e+00 -4.226254e+00 -1.822886e-01 2.869759e-01 -1.457785e+00 5.299301e-01 1.203142e+00 9.245384e-01 3.944426e-01 8.416598e-01 3.625798e-01 1.094062e+00 3.340504e-01 1.710957e+00
<VARIANCE> 25
 7.137691e+01 4.341351e+01 3.588745e+01 4.768890e+01 5.158407e+01 4.848213e+01 4.255747e+01 4.055625e+01 3.894467e+01 3.622612e+01 2.936092e+01 1.980060e+01 4.927775e+00 4.894724e+00 5.329592e+00 3.898947e+00 5.138640e+00 5.280879e+00 4.259802e+00 3.745644e+00 4.560103e+00 3.717061e+00 3.140186e+00 2.830280e+00 8.244483e+00
<GCONST> 1.097382e+02
<STATE> 3
<MEAN> 25
 -2.182729e+01 7.937257e-01 8.027691e+00 -2.824590e+00 4.330651e-02 3.510682e+00 5.359258e+00 1.095296e+00 4.268912e+00 2.926539e-01 4.240238e+00 2.334803e+00 1.794247e-01 -4.244626e-01 4.353549e-01 8.203149e-01 -9.058560e-01 -4.522914e-01 4.813313e-01 2.908350e-02 -1.250267e-01 -2.091085e-01 -4.001101e-01 1.722129e-01 2.225278e-01
<VARIANCE> 25
 2.209374e+01 3.493753e+01 1.974981e+01 2.062651e+01 3.878623e+01 3.174077e+01 3.123118e+01 3.517797e+01 3.363651e+01 2.696222e+01 2.651611e+01 1.853420e+01 6.221255e+00 1.928243e+00 2.194602e+00 2.434975e+00 2.684669e+00 2.643727e+00 2.623330e+00 2.888409e+00 2.066537e+00 1.882740e+00 1.794867e+00 1.797384e+00 3.192605e+00
<GCONST> 9.756654e+01
<STATE> 4
<MEAN> 25
 -1.189104e+01 -1.672282e+00 4.244130e+00 3.311967e+00 -1.537400e+00 -8.053910e-01 3.518638e+00 2.116916e+00 4.099373e+00 7.535518e-01 1.421271e+00 2.336097e+00 2.995947e+00 9.108227e-02 -1.074874e+00 2.951109e-01 4.314828e-02 -6.360589e-01 -9.017740e-01 -1.026998e-01 -1.507574e-01 -1.356079e-01 -5.451099e-01 -2.186505e-01 -7.762065e-01
<VARIANCE> 25
 7.173425e+01 3.803438e+01 4.756689e+01 2.867270e+01 3.416102e+01 6.124849e+01 3.979649e+01 3.251380e+01 3.579136e+01 3.099391e+01 3.518617e+01 2.060395e+01 6.480485e+00 2.336032e+00 1.997622e+00 2.231560e+00 3.874930e+00 4.562596e+00 3.559864e+00 3.427840e+00 3.584237e+00 2.332544e+00 2.838561e+00 2.151062e+00 3.748395e+00
<GCONST> 1.043256e+02
<TRANSP> 5
 0.000000e+00 1.000000e+00 0.000000e+00 0.000000e+00 0.000000e+00
 0.000000e+00 7.372944e-01 2.627056e-01 0.000000e+00 0.000000e+00
 0.000000e+00 0.000000e+00 7.671433e-01 2.328567e-01 0.000000e+00
 0.000000e+00 0.000000e+00 0.000000e+00 7.448107e-01 2.551893e-01
 0.000000e+00 0.000000e+00 0.000000e+00 0.000000e+00 0.000000e+00
<ENDHMM>
~h "dh"
<BEGINHMM>
<NUMSTATES> 5
<STATE> 2
<MEAN> 25
 3.008798e-01 5.053961e+00 -7.583043e-02 5.301498e+00 2.052159e+00 -1.009531e+00 -5.989963e-01 -1.992954e+00 1.713015e+00 5.705580e-01 -1.763900e+00 -7.746806e-01 -6.231585e-01 2.583947e-01 -1.413225e-01 3.045253e-01 4.465924e-01 2.089065e-01 4.730942e-01 5.219408e-02 3.799937e-01 -1.072609e-01 3.412235e-01 4.013233e-02 -1.864126e-01
<VARIANCE> 25
 4.930947e+01 4.299764e+01 3.566030e+01 3.373624e+01 4.596165e+01 4.926693e+01 4.808650e+01 5.419551e+01 4.345976e+01 3.881966e+01 3.804751e+01 3.832997e+01 4.012238e+00 4.113501e+00 2.988840e+00 3.947088e+00 3.483959e+00 4.955278e+00 4.428027e+00 4.142975e+00 3.996471e+00 3.308214e+00 3.634498e+00 2.960712e+00 6.013233e+00
<GCONST> 1.087865e+02
<STATE> 3
<MEAN> 25
 -6.183756e-01 4.528278e+00 -7.194227e-02 4.402561e+00 1.569463e+00 -1.691104e+00 -3.030170e-01 -1.881999e+00 1.793010e+00 -2.516568e-03 -9.579622e-01 -4.919730e-01 -1.516391e-01 -1.053266e+00 -2.154426e-01 -1.066053e+00 -9.303116e-01 -1.107326e+00 -3.037695e-01 3.566454e-01 4.288136e-01 9.879485e-02 2.633849e-01 3.760211e-01 2.083465e+00
<VARIANCE> 25
 3.664347e+01 3.107335e+01 2.688823e+01 3.576820e+01 4.259291e+01 5.241958e+01 4.340380e+01 4.126011e+01 3.516072e+01 3.229119e+01 3.416230e+01 3.504010e+01 3.825718e+00 3.354993e+00 2.891927e+00 3.658771e+00 3.989846e+00 5.906978e+00 4.732713e+00 3.885432e+00 3.911735e+00 3.591034e+00 3.617325e+00 3.545996e+00 7.097020e+00
<GCONST> 1.073135e+02
<STATE> 4
<MEAN> 25
 -3.393279e+00 -3.747634e-01 -2.526948e+00 2.939361e+00 2.445457e+00 -6.847034e-01 1.450535e+00 1.088748e-01 2.010309e+00 4.061908e-02 -9.278274e-02 1.613976e+00 1.461906e-01 -4.018204e-01 -1.927571e-02 -4.125698e-01 -4.924763e-01 -3.410760e-01 -2.523643e-01 4.271992e-02 5.918557e-02 4.256256e-02 3.871213e-02 5.592994e-02 8.774092e-01
<VARIANCE> 25
 2.759090e+01 5.320137e+01 2.658688e+01 3.019062e+01 3.713258e+01 4.631918e+01 3.778657e+01 4.048491e+01 3.402838e+01 2.767217e+01 3.112353e+01 2.970178e+01 1.251492e+00 1.918064e+00 1.586591e+00 1.982811e+00 2.577023e+00 3.070115e+00 2.782592e+00 2.486238e+00 2.232517e+00 2.452064e+00 2.148421e+00 1.957774e+00 3.940776e+00
<GCONST> 9.891840e+01
<TRANSP> 5
 0.000000e+00 1.000000e+00 0.000000e+00 0.000000e+00 0.000000e+00
 0.000000e+00 3.749882e-01 6.250118e-01 0.000000e+00 0.000000e+00
 0.000000e+00 0.000000e+00 3.404953e-01 6.595047e-01 0.000000e+00
 0.000000e+00 0.000000e+00 0.000000e+00 6.662309e-01 3.337691e-01
 0.000000e+00 0.000000e+00 0.000000e+00 0.000000e+00 0.000000e+00
<ENDHMM>
~h "eh"
<BEGINHMM>
<NUMSTATES> 5
<STATE> 2
<MEAN> 25
 3.494565e+00 -3.875184e+00 9.416202e-01 -2.248162e+00 -7.645545e+00 -5.151939e+00 -1.014010e+00 1.764056e+00 7.993703e-01 -9.215969e-01 -2.771137e+00 -1.783336e+00 1.071894e+00 -2.160589e+00 6.549314e-02 -1.502957e+00 -1.817212e+00 -7.634537e-01 2.272883e-01 1.280362e+00 1.021309e-01 -5.357885e-01 -8.917266e-01 -4.009604e-01 2.050565e+00
<VARIANCE> 25
 2.217249e+01 4.252198e+01 4.253158e+01 4.331743e+01 6.262830e+01 5.676548e+01 5.392085e+01 4.999837e+01 5.621022e+01 4.576939e+01 4.710928e+01 3.396008e+01 5.007026e+00 3.281836e+00 3.121295e+00 4.374952e+00 5.262858e+00 5.857995e+00 6.449039e+00 5.770959e+00 5.068974e+00 4.729872e+00 4.619119e+00 3.706923e+00 2.708876e+00
<GCONST> 1.110932e+02
<STATE> 3
<MEAN> 25
 4.217753e+00 -9.154370e+00 5.385998e-01 -4.785728e+00 -9.127797e+00 -4.693117e+00 1.779279e+00 5.448105e+00 -1.151906e+00 -2.570579e+00 -4.279566e+00 -2.922326e+00 1.314241e-01 -2.868614e-01 -3.333980e-01 1.705448e-01 3.816023e-01 8.598027e-02 5.929990e-02 3.229572e-01 -8.238237e-02 -3.040562e-01 -9.825000e-02 -4.236599e-02 -1.388597e-01
<VARIANCE> 25
 1.329727e+01 3.009238e+01 4.214426e+01 3.097361e+01 4.990885e+01 4.691852e+01 5.564851e+01 6.115572e+01 7.500054e+01 5.568089e+01 4.692882e+01 3.448867e+01 6.042154e-01 1.700577e+00 1.728531e+00 1.920250e+00 2.073128e+00 2.489859e+00 2.824098e+00 2.920182e+00 2.087836e+00 2.100329e+00 1.761150e+00 1.889108e+00 1.070606e+00
<GCONST> 9.845700e+01
<STATE> 4
<MEAN> 25
 7.809750e-01 -6.955421e+00 -8.805844e-01 2.576054e-01 -2.729390e+00 -1.596219e+00 2.847077e+00 5.449169e+00 3.267617e+00 -1.915504e+00 -1.051702e+00 1.001515e+00 5.944351e-02 6.190003e-01 -4.886047e-02 4.262911e-01 5.124314e-01 8.179063e-02 -3.041491e-01 -3.118046e-01 -1.039413e-01 5.388981e-02 1.834416e-01 4.361656e-02 -7.235736e-01
<VARIANCE> 25
 5.193098e+01 3.927913e+01 4.798411e+01 4.267308e+01 5.578288e+01 6.026850e+01 6.721860e+01 5.131006e+01 6.468096e+01 5.194217e+01 5.619860e+01 4.426315e+01 1.160478e+00 2.039084e+00 1.829183e+00 2.159999e+00 2.422119e+00 2.529946e+00 2.612462e+00 2.735445e+00 2.305651e+00 2.347903e+00 1.868212e+00 2.103319e+00 1.662293e+00
<GCONST> 1.029771e+02
<TRANSP> 5
 0.000000e+00 1.000000e+00 0.000000e+00 0.000000e+00 0.000000e+00
 0.000000e+00 5.292631e-01 4.707369e-01 0.000000e+00 0.000000e+00
 0.000000e+00 0.000000e+00 7.374429e-01 2.625571e-01 0.000000e+00
 0.000000e+00 0.000000e+00 0.000000e+00 6.542353e-01 3.457647e-01
 0.000000e+00 0.000000e+00 0.000000e+00 0.000000e+00 0.000000e+00
<ENDHMM>
~h "er"
<BEGINHMM>
<NUMSTATES> 5
<STATE> 2
<MEAN> 25
 9.005136e+00 -4.712931e+00 -6.675068e+00 1.800995e+00 4.358690e-01 -8.058001e+00 -8.777923e+00 3.330732e+00 1.021649e-01 -7.894452e-01 -6.915351e-01 -5.655609e-01 1.846334e+00 -8.782114e-01 -1.513430e+00 1.083418e-01 4.431118e-01 -1.586061e+00 -2.346843e+00 1.167260e+00 5.388387e-01 -2.470620e-01 -8.777914e-02 2.481374e-01 5.222894e-01
<VARIANCE> 25
 2.464333e+01 2.738771e+01 7.022659e+01 4.237183e+01 6.740897e+01 6.390792e+01 8.930689e+01 7.184045e+01 5.941155e+01 4.661523e+01 3.832603e+01 3.410009e+01 4.173332e+00 2.599280e+00 3.532248e+00 3.282068e+00 4.211427e+00 4.647473e+00 6.526583e+00 5.385420e+00 4.499505e+00 3.581491e+00 3.345318e+00 2.637725e+00 1.473578e+00
<GCONST> 1.094093e+02
<STATE> 3
<MEAN> 25
 1.110219e+01 -6.140391e+00 -9.093570e+00 3.383369e+00 2.340073e+00 -1.137644e+01 -1.292525e+01 6.679185e+00 2.637489e+00 -1.967691e+00 -1.511462e+00 1.915545e-01 -2.133145e-01 2.210115e-01 4.919177e-01 4.325339e-01 -1.706849e-01 -6.341218e-02 4.776551e-01 -9.216346e-03 -8.272966e-02 -3.705500e-01 -6.959268e-02 1.540065e-01 -4.972260e-01
<VARIANCE> 25
 1.271688e+01 2.233875e+01 6.210306e+01 4.157100e+01 6.989613e+01 5.597459e+01 9.565555e+01 7.355258e+01 7.604862e+01 5.138639e+01 3.751123e+01 3.726199e+01 7.256588e-01 1.276038e+00 2.499322e+00 1.744175e+00 2.892748e+00 2.639847e+00 3.720474e+00 3.080083e+00 2.616717e+00 2.484689e+00 1.981045e+00 1.858222e+00 8.041642e-01
<GCONST> 1.009209e+02
<STATE> 4
<MEAN> 25
 1.711924e+00 -4.081746e+00 -4.303185e+00 5.245840e+00 2.697983e+00 -4.498830e+00 -1.926998e+00 6.532327e+00 4.005880e+00 -9.635095e-01 2.230962e-01 2.160141e+00 -9.496964e-01 7.209224e-01 9.952329e-01 -1.284593e-01 -1.872671e-01 9.868968e-01 1.314998e+00 -7.176636e-01 -3.602270e-01 3.162103e-01 2.576997e-01 -6.055713e-02 -9.575738e-01
<VARIANCE> 25
 6.964393e+01 4.823695e+01 4.794463e+01 4.954140e+01 6.303065e+01 1.002852e+02 8.113394e+01 6.825354e+01 1.180727e+02 6.564759e+01 4.849859e+01 3.724228e+01 1.983008e+00 3.270649e+00 3.625129e+00 2.629704e+00 3.773204e+00 4.430858e+00 5.302412e+00 5.033453e+00 5.016277e+00 3.842798e+00 3.278453e+00 2.727957e+00 2.354174e+00
<GCONST> 1.118960e+02
<TRANSP> 5
 0.000000e+00 1.000000e+00 0.000000e+00 0.000000e+00 0.000000e+00
 0.000000e+00 6.923018e-01 3.076982e-01 0.000000e+00 0.000000e+00
 0.000000e+00 0.000000e+00 7.955101e-01 2.044899e-01 0.000000e+00
 0.000000e+00 0.000000e+00 0.000000e+00 7.515113e-01 2.484888e-01
 0.000000e+00 0.000000e+00 0.000000e+00 0.000000e+00 0.000000e+00
<ENDHMM>
~h "ey"
<BEGINHMM>
<NUMSTATES> 5
<STATE> 2
<MEAN> 25
 2.386951e+00 -4.434119e+00 7.175848e+00 -3.583853e+00 -1.386372e+01 -5.925732e+00 1.330975e+00 2.524106e+00 -3.783181e+00 -6.393439e-01 7.480612e-01 -1.501258e+00 -2.426078e-01 1.266299e-01 1.435621e+00 -8.380717e-01 -1.717425e+00 2.487162e-01 5.105956e-01 -7.018401e-01 -1.069692e+00 5.715035e-01 6.888688e-01 -3.219272e-01 3.472241e-01
<VARIANCE> 25
 9.191476e+00 2.281618e+01 3.571969e+01 4.007444e+01 3.800224e+01 5.180664e+01 4.052042e+01 4.851604e+01 4.704398e+01 3.724907e+01 3.784558e+01 3.197744e+01 1.277632e+00 2.241074e+00 2.209193e+00 2.632122e+00 3.169318e+00 3.647707e+00 3.934781e+00 3.849299e+00 3.717820e+00 3.072152e+00 2.927058e+00 1.934365e+00 1.455514e+00
<GCONST> 1.008176e+02
<STATE> 3
<MEAN> 25
 1.119337e+00 -1.153676e-01 1.325496e+01 -8.077723e+00 -1.607058e+01 -1.276444e+00 -1.387881e+00 -5.431022e+00 -6.181366e+00 3.318843e+00 -3.492798e-01 -2.945701e+00 2.584544e-02 5.996037e-01 5.064117e-01 2.114596e-01 1.105409e-01 4.452991e-01 -4.802999e-01 -7.644947e-01 -2.398096e-01 1.193082e-01 -2.881006e-01 3.540375e-02 -5.813172e-01
<VARIANCE> 25
 7.911201e+00 2.159759e+01 2.925315e+01 6.291343e+01 3.148212e+01 7.523082e+01 5.739656e+01 5.575002e+01 4.548419e+01 4.351830e+01 6.815913e+01 3.227708e+01 3.506829e-01 8.277155e-01 1.029527e+00 1.375927e+00 1.247537e+00 1.732966e+00 1.583291e+00 2.235917e+00 1.893316e+00 1.625517e+00 1.611850e+00 1.711096e+00 4.935345e-01
<GCONST> 9.231206e+01
<STATE> 4
<MEAN> 25
 2.360751e+00 2.556001e+00 1.225340e+01 -7.578675e-01 -1.142397e+01 -1.411445e+00 -3.638362e-01 -5.610995e+00 -6.446521e+00 1.158493e+00 -1.368640e-01 -1.573179e+00 -2.711605e-02 4.852068e-01 -1.368237e+00 1.676544e+00 2.461284e+00 -1.365558e-01 4.332438e-01 3.295714e-01 7.590020e-01 -6.433820e-01 3.913394e-02 2.171609e-01 -1.764962e+00
<VARIANCE> 25
 1.437126e+01 2.485329e+01 3.817344e+01 6.716353e+01 6.098992e+01 6.679153e+01 5.624000e+01 6.144108e+01 5.546904e+01 4.101151e+01 5.361371e+01 3.380624e+01 2.346730e+00 1.986833e+00 2.546277e+00 3.579360e+00 4.505710e+00 5.157710e+00 4.140478e+00 4.365585e+00 3.437441e+00 3.504695e+00 4.098141e+00 2.600302e+00 2.101105e+00
<GCONST> 1.067538e+02
<TRANSP> 5
 0.000000e+00 1.000000e+00 0.000000e+00 0.000000e+00 0.000000e+00
 0.000000e+00 7.701463e-01 2.298537e-01 0.000000e+00 0.000000e+00
 0.000000e+00 0.000000e+00 8.344328e-01 1.655672e-01 0.000000e+00
 0.000000e+00 0.000000e+00 0.000000e+00 7.191188e-01 2.808811e-01
 0.000000e+00 0.000000e+00 0.000000e+00 0.000000e+00 0.000000e+00
<ENDHMM>
~h "hh"
<BEGINHMM>
<NUMSTATES> 5
<STATE> 2
<MEAN> 25
 -5.598360e+00 -3.062861e+00 8.716300e-01 3.157138e+00 4.299120e+00 3.700482e+00 6.466015e+00 3.018488e+00 2.745268e+00 4.074030e-01 2.699517e+00 2.383283e+00 -1.609749e-01 -2.299363e-01 -2.432301e-02 -6.673826e-02 4.974023e-02 1.988591e-01 2.548532e-01 1.581124e-01 1.091271e-01 7.400440e-02 -3.818147e-02 5.313584e-02 3.953313e-02
<VARIANCE> 25
 3.182771e+01 5.086065e+01 3.588371e+01 2.870389e+01 6.341345e+01 5.468226e+01 4.106697e+01 4.064140e+01 4.746976e+01 4.451487e+01 4.057133e+01 2.504634e+01 1.015487e+00 1.403143e+00 1.208248e+00 1.601331e+00 1.874597e+00 2.072548e+00 2.569380e+00 2.319639e+00 2.522120e+00 2.379264e+00 1.809239e+00 1.611661e+00 6.823249e-01
<GCONST> 9.706073e+01
<STATE> 3
<MEAN> 25
 -4.643065e+00 -5.240737e+00 2.287541e+00 9.561049e-01 1.186467e+00 2.348889e+00 7.384145e+00 3.702134e+00 -4.495965e-01 3.115115e-01 2.330317e-01 1.939804e+00 3.439380e-01 -1.744362e-01 4.096676e-02 -2.302543e-01 -3.793589e-01 3.341305e-02 -1.954195e-01 -9.842812e-02 -2.350017e-01 -1.110841e-01 -4.252577e-01 -2.462422e-01 4.040939e-01
<VARIANCE> 25
 3.989160e+01 6.817773e+01 7.096811e+01 5.139303e+01 8.331447e+01 6.729118e+01 7.558534e+01 6.195241e+01 5.310919e+01 5.062373e+01 3.879836e+01 2.911116e+01 1.782738e+00 1.979688e+00 2.622956e+00 2.757123e+00 3.070634e+00 3.335992e+00 3.176297e+00 3.129898e+00 3.145824e+00 3.074208e+00 2.546886e+00 2.151459e+00 1.183699e+00
<GCONST> 1.060682e+02
<STATE> 4
<MEAN> 25
 -4.306376e+00 -2.843748e+00 1.729048e+00 3.267951e-01 2.412595e+00 4.132665e+00 4.045609e+00 7.013382e-01 9.098136e-01 4.268587e-02 -7.363638e-01 5.795828e-01 1.138843e+00 3.741297e-01 5.321417e-02 -6.292734e-01 -9.617212e-01 -8.621751e-01 -1.277974e+00 -8.313278e-01 -7.746041e-01 -6.289697e-01 -7.508740e-01 -5.550537e-01 1.563403e+00
<VARIANCE> 25
 4.895350e+01 6.771662e+01 7.104330e+01 5.289915e+01 8.726037e+01 5.911384e+01 6.019244e+01 5.350706e+01 6.304283e+01 5.637279e+01 4.411806e+01 3.167784e+01 3.738557e+00 3.530595e+00 3.740739e+00 3.570435e+00 5.150345e+00 4.093130e+00 4.261112e+00 4.377735e+00 3.864916e+00 4.093000e+00 3.396831e+00 2.823911e+00 4.470381e+00
<GCONST> 1.119951e+02
<TRANSP> 5
 0.000000e+00 1.000000e+00 0.000000e+00 0.000000e+00 0.000000e+00
 0.000000e+00 7.505525e-01 2.494475e-01 0.000000e+00 0.000000e+00
 0.000000e+00 0.000000e+00 4.449341e-01 5.550659e-01 0.000000e+00
 0.000000e+00 0.000000e+00 0.000000e+00 5.658221e-01 4.341779e-01
 0.000000e+00 0.000000e+00 0.000000e+00 0.000000e+00 0.000000e+00
<ENDHMM>
~h "ih"
<BEGINHMM>
<NUMSTATES> 5
<STATE> 2
<MEAN> 25
 1.187104e+00 5.198445e-01 5.595795e+00 -1.381913e-01 -6.852436e+00 -5.740455e+00 -2.248373e+00 -1.006362e+00 -2.237581e+00 -5.972777e-01 -3.849403e-01 2.252517e-01 1.274345e+00 -7.180376e-01 1.410070e+00 -8.117579e-01 -2.671768e+00 -1.384955e+00 -8.588518e-01 4.490445e-02 -8.948796e-01 -2.305809e-01 -5.519174e-02 -1.131774e-01 1.652054e+00
<VARIANCE> 25
 3.451759e+01 3.813850e+01 4.995444e+01 4.887359e+01 6.093821e+01 6.061490e+01 6.526592e+01 5.942764e+01 5.171359e+01 4.670369e+01 3.818167e+01 3.385838e+01 5.384867e+00 3.952849e+00 4.235909e+00 5.459258e+00 5.921615e+00 6.748904e+00 7.036182e+00 6.936491e+00 5.984949e+00 4.973405e+00 4.836202e+00 3.936550e+00 4.323808e+00
<GCONST> 1.139404e+02
<STATE> 3
<MEAN> 25
 3.016626e+00 -1.623953e+00 8.468684e+00 -2.458405e+00 -1.186757e+01 -6.983644e+00 -2.961800e+00 -3.122339e-01 -4.610808e+00 -8.961034e-02 4.677484e-01 -3.661454e-01 1.604121e-01 -6.576182e-02 2.270502e-01 -1.164118e-01 -3.477513e-01 -1.035818e-02 1.811028e-01 2.146348e-01 -2.479278e-01 4.514196e-03 -2.608776e-03 -1.280905e-02 7.406756e-02
<VARIANCE> 25
 1.614508e+01 3.118249e+01 5.320377e+01 5.119104e+01 5.411340e+01 5.514209e+01 5.944894e+01 7.055740e+01 5.695296e+01 5.128006e+01 3.839471e+01 3.826208e+01 1.513120e+00 2.314347e+00 2.319826e+00 3.024390e+00 3.537117e+00 3.604096e+00 4.041179e+00 4.094909e+00 3.494066e+00 3.630547e+00 2.902461e+00 2.404536e+00 2.014403e+00
<GCONST> 1.054294e+02
<STATE> 4
<MEAN> 25
 3.562362e+00 -1.254768e-01 6.852470e+00 -3.907410e-01 -8.942962e+00 -7.170777e+00 -2.978405e+00 -3.740804e-01 -3.540439e+00 -6.856256e-01 -3.487631e-01 1.267603e-01 -1.779084e-01 1.179378e+00 -5.831069e-01 8.620259e-01 1.623101e+00 5.781792e-01 2.614851e-01 -4.388205e-01 3.262509e-01 -1.440773e-01 -2.333476e-01 -7.380633e-02 -1.384634e+00
<VARIANCE> 25
 1.857781e+01 3.129471e+01 4.483224e+01 4.886193e+01 5.745650e+01 5.143169e+01 5.530239e+01 5.980740e+01 6.136375e+01 4.880869e+01 4.156987e+01 4.163606e+01 2.355813e+00 2.678365e+00 2.362278e+00 3.478721e+00 3.941005e+00 4.087251e+00 3.962233e+00 4.487656e+00 3.409149e+00 3.728931e+00 3.096348e+00 2.989754e+00 2.397897e+00
<GCONST> 1.068090e+02
<TRANSP> 5
 0.000000e+00 1.000000e+00 0.000000e+00 0.000000e+00 0.000000e+00
 0.000000e+00 4.682007e-01 5.317993e-01 0.000000e+00 0.000000e+00
 0.000000e+00 0.000000e+00 4.713532e-01 5.286468e-01 0.000000e+00
 0.000000e+00 0.000000e+00 0.000000e+00 5.499293e-01 4.500707e-01
 0.000000e+00 0.000000e+00 0.000000e+00 0.000000e+00 0.000000e+00
<ENDHMM>
~h "iy"
<BEGINHMM>
<NUMSTATES> 5
<STATE> 2
<MEAN> 25
 1.438774e+00 1.467822e+00 1.159078e+01 3.470294e-01 -1.013120e+01 -6.341637e+00 -2.985689e+00 -3.525309e+00 -7.151124e+00 -1.501062e+00 3.817371e-01 -1.027263e+00 2.470801e-01 1.752393e-01 2.855338e+00 -1.269175e+00 -3.103265e+00 4.322464e-01 -2.922106e-01 -1.344525e+00 -1.829091e+00 3.201117e-01 -1.196572e-01 -3.629977e-01 1.012697e+00
<VARIANCE> 25
 2.526739e+01 3.703335e+01 4.754464e+01 5.487640e+01 5.256887e+01 6.437120e+01 5.885735e+01 6.649623e+01 5.099459e+01 5.364324e+01 4.218188e+01 2.981399e+01 4.989996e+00 2.716863e+00 3.581280e+00 5.311888e+00 4.797445e+00 7.081815e+00 8.934426e+00 6.769124e+00 5.076082e+00 5.526731e+00 5.244239e+00 3.493952e+00 2.609523e+00
<GCONST> 1.124870e+02
<STATE> 3
<MEAN> 25
 5.717911e-01 3.486774e+00 1.745020e+01 -4.109930e+00 -1.416980e+01 -7.877223e-01 -4.495145e+00 -7.785655e+00 -9.251648e+00 1.040837e+00 -6.526965e-01 -2.598579e+00 -2.169729e-02 3.151734e-01 1.958766e-01 -3.212868e-01 -1.241447e-01 5.499267e-01 -1.732896e-02 -3.956890e-01 1.212155e-01 2.709618e-01 -2.235773e-01 -1.198154e-01 -2.406029e-01
<VARIANCE> 25
 1.344122e+01 2.516602e+01 3.440974e+01 6.352718e+01 3.077493e+01 5.270283e+01 5.162400e+01 5.426376e+01 4.833987e+01 6.516784e+01 6.649644e+01 3.213198e+01 5.483589e-01 1.269181e+00 1.408323e+00 1.743236e+00 1.704513e+00 2.512722e+00 2.398347e+00 2.433506e+00 1.999883e+00 1.755761e+00 1.891001e+00 1.419883e+00 7.487432e-01
<GCONST> 9.622076e+01
<STATE> 4
<MEAN> 25
 1.324687e+00 4.742987e+00 1.259112e+01 -2.243263e+00 -1.001396e+01 2.798341e-01 -1.872825e+00 -7.325137e+00 -5.139831e+00 7.512635e-01 -1.946030e+00 -1.182819e+00 1.436772e-01 -1.773939e-01 -1.510005e+00 1.006979e+00 1.469201e+00 -2.547652e-01 6.215616e-01 8.384367e-01 6.871139e-01 -1.965579e-01 1.520150e-01 2.638014e-01 -1.009991e+00
<VARIANCE> 25
 1.945006e+01 3.741335e+01 4.071334e+01 8.298613e+01 6.433664e+01 6.838181e+01 7.559872e+01 7.576804e+01 5.846951e+01 5.452171e+01 5.235790e+01 3.992673e+01 1.484746e+00 2.221852e+00 2.631716e+00 3.014286e+00 4.441242e+00 4.167285e+00 3.914795e+00 4.180510e+00 3.554360e+00 3.585289e+00 3.005986e+00 2.464461e+00 2.475300e+00
<GCONST> 1.078486e+02
<TRANSP> 5
 0.000000e+00 1.000000e+00 0.000000e+00 0.000000e+00 0.000000e+00
 0.000000e+00 6.018503e-01 3.981496e-01 0.000000e+00 0.000000e+00
 0.000000e+00 0.000000e+00 7.889457e-01 2.110543e-01 0.000000e+00
 0.000000e+00 0.000000e+00 0.000000e+00 7.831026e-01 2.168974e-01
 0.000000e+00 0.000000e+00 0.000000e+00 0.000000e+00 0.000000e+00
<ENDHMM>
~h "jh"
<BEGINHMM>
<NUMSTATES> 5
<STATE> 2
<MEAN> 25
 -3.274179e+00 5.857064e+00 7.373416e+00 2.085865e+00 4.180774e+00 3.504288e+00 4.585670e-01 -2.090652e+00 -8.853763e-01 -2.178625e+00 3.009936e-01 -1.284589e+00 -4.217241e+00 -6.226952e-01 6.066374e-01 -9.148778e-01 1.820567e-01 9.026293e-01 6.124091e-01 2.022910e-01 1.120514e+00 6.673367e-02 8.040232e-01 7.557791e-01 1.695062e+00
<VARIANCE> 25
 6.094985e+01 3.878748e+01 7.205124e+01 4.421088e+01 4.965489e+01 4.341446e+01 5.093149e+01 4.072879e+01 4.668684e+01 2.987832e+01 4.069497e+01 2.766906e+01 6.162676e+00 5.392186e+00 4.863499e+00 4.966824e+00 6.507021e+00 3.963128e+00 4.249629e+00 4.430990e+00 4.701617e+00 4.517348e+00 4.861674e+00 3.395665e+00 5.763327e+00
<GCONST> 1.118463e+02
<STATE> 3
<MEAN> 25
 -1.984966e+01 9.411979e-01 9.692359e+00 -1.382190e+00 -1.989652e-01 4.199066e+00 4.471928e+00 -1.755117e+00 3.546195e+00 -1.346206e+00 1.924117e+00 2.179095e+00 -7.683386e-01 -4.224475e-01 1.292836e-02 1.647881e-01 -1.125971e+00 -1.352488e+00 4.353788e-01 1.251982e-01 5.833137e-02 -2.456567e-01 8.887608e-02 3.007444e-01 1.243926e+00
<VARIANCE> 25
 4.761563e+01 5.645415e+01 3.637043e+01 2.834578e+01 4.151658e+01 3.310582e+01 4.736494e+01 3.914568e+01 4.928233e+01 3.427165e+01 2.965588e+01 2.060433e+01 1.000893e+01 2.229759e+00 2.963730e+00 3.173980e+00 4.026170e+00 4.350727e+00 3.283147e+00 2.786643e+00 3.655498e+00 2.483138e+00 2.099408e+00 1.646408e+00 3.869219e+00
<GCONST> 1.046024e+02
<STATE> 4
<MEAN> 25
 -7.997100e+00 1.645471e+00 9.072382e+00 1.373274e+00 -4.358208e+00 -5.274821e+00 2.265252e-01 -2.500167e+00 1.418734e+00 -2.899531e+00 1.267474e+00 2.063051e+00 4.444679e+00 -8.686217e-01 -1.073072e+00 7.647957e-02 -1.313145e+00 -2.280739e+00 -1.658435e+00 2.813006e-01 -3.899640e-01 2.536823e-01 -1.075078e-01 -6.118826e-02 9.193344e-02
<VARIANCE> 25
 7.194257e+01 4.806281e+01 2.785163e+01 5.659418e+01 3.959607e+01 5.302874e+01 5.839263e+01 3.768172e+01 5.459147e+01 2.849857e+01 2.226104e+01 2.284661e+01 5.884385e+00 5.303052e+00 3.272947e+00 3.559985e+00 7.106980e+00 7.717461e+00 5.891702e+00 6.040498e+00 3.795440e+00 3.473336e+00 3.436609e+00 2.950716e+00 2.931807e+00
<GCONST> 1.098291e+02
<TRANSP> 5
 0.000000e+00 1.000000e+00 0.000000e+00 0.000000e+00 0.000000e+00
 0.000000e+00 7.132454e-01 2.867546e-01 0.000000e+00 0.000000e+00
 0.000000e+00 0.000000e+00 6.926889e-01 3.073111e-01 0.000000e+00
 0.000000e+00 0.000000e+00 0.000000e+00 6.598199e-01 3.401801e-01
 0.000000e+00 0.000000e+00 0.000000e+00 0.000000e+00 0.000000e+00
<ENDHMM>
~h "ng"
<BEGINHMM>
<NUMSTATES> 5
<STATE> 2
<MEAN> 25
 3.774051e+00 2.684457e+00 8.812863e+00 -4.628597e+00 -1.151059e+01 1.530719e+00 5.321324e-01 -7.333710e+00 -7.979268e+00 2.876406e+00 -2.040386e+00 -4.548340e+00 8.060627e-01 1.137053e+00 -8.270344e-01 1.128307e+00 1.085340e+00 9.729493e-02 -1.074635e-01 -1.782441e+00 3.641486e-02 6.410347e-01 -5.647400e-01 -3.682045e-01 -1.351762e+00
<VARIANCE> 25
 1.893900e+01 2.167484e+01 4.369677e+01 5.142487e+01 5.976992e+01 4.021517e+01 7.876508e+01 7.106606e+01 5.292111e+01 5.886894e+01 6.724496e+01 4.189336e+01 9.476395e-01 1.226574e+00 3.527735e+00 3.827344e+00 4.045288e+00 4.975561e+00 3.618581e+00 3.643158e+00 3.615144e+00 4.180422e+00 2.548894e+00 3.190707e+00 7.101317e-01
<GCONST> 1.048876e+02
<STATE> 3
<MEAN> 25
 8.060357e+00 6.514242e+00 2.283635e+00 1.729439e+00 -4.757536e+00 -1.026452e+00 -3.371118e-01 -1.070789e+01 -6.142472e+00 1.692416e+00 -2.925801e+00 -3.300760e+00 2.367422e-01 4.195232e-01 -5.142121e-01 7.426091e-01 6.783787e-01 -2.848953e-01 -2.675517e-02 1.676553e-01 1.993275e-01 -4.436244e-01 -2.414250e-02 2.290859e-01 -6.569495e-01
<VARIANCE> 25
 1.084316e+01 1.866921e+01 3.050107e+01 3.498039e+01 3.434686e+01 3.776601e+01 6.960365e+01 5.554553e+01 4.145906e+01 3.699868e+01 4.995015e+01 3.954403e+01 6.780018e-01 8.992132e-01 1.696942e+00 2.236095e+00 2.425515e+00 2.524726e+00 2.289266e+00 2.397011e+00 2.487553e+00 2.445333e+00 1.778906e+00 1.721509e+00 6.718966e-01
<GCONST> 9.546225e+01
<STATE> 4
<MEAN> 25
 4.712934e+00 5.042950e+00 3.584303e+00 2.499504e+00 -2.980103e+00 -1.007222e+00 6.522046e-01 -6.429996e+00 -5.740465e+00 -1.285712e-01 -2.565253e+00 -1.654923e+00 -1.088698e+00 -9.426205e-01 3.637621e-02 -1.489924e-01 8.226291e-01 2.708885e-01 3.103039e-01 2.076356e+00 7.606757e-01 -5.015562e-01 2.577333e-01 5.030313e-01 -1.534019e-01
<VARIANCE> 25
 2.133806e+01 2.921602e+01 3.740365e+01 4.105266e+01 6.773148e+01 6.025729e+01 6.016054e+01 8.479877e+01 4.961998e+01 4.601209e+01 5.334288e+01 4.146983e+01 1.721591e+00 2.397416e+00 3.036077e+00 3.969161e+00 5.102256e+00 4.335603e+00 4.494778e+00 4.765346e+00 4.899113e+00 4.834378e+00 4.062943e+00 2.828201e+00 2.230586e+00
<GCONST> 1.084814e+02
<TRANSP> 5
 0.000000e+00 1.000000e+00 0.000000e+00 0.000000e+00 0.000000e+00
 0.000000e+00 7.031373e-01 2.968627e-01 0.000000e+00 0.000000e+00
 0.000000e+00 0.000000e+00 7.449970e-01 2.550030e-01 0.000000e+00
 0.000000e+00 0.000000e+00 0.000000e+00 6.490797e-01 3.509203e-01
 0.000000e+00 0.000000e+00 0.000000e+00 0.000000e+00 0.000000e+00
<ENDHMM>
~h "ow"
<BEGINHMM>
<NUMSTATES> 5
<STATE> 2
<MEAN> 25
 5.855631e+00 -4.059447e+00 -5.572185e+00 -7.099418e+00 -1.572098e+00 6.703155e-01 -6.306761e+00 -4.988015e-01 1.504832e+00 1.201457e+00 -2.819458e+00 -4.767024e+00 1.264754e+00 -5.769823e-01 -1.037320e+00 -1.949586e+00 -2.349373e-01 1.183947e+00 -6.510762e-01 -5.834035e-01 -5.918396e-02 7.841197e-01 4.322806e-02 -7.250984e-01 8.812732e-01
<VARIANCE> 25
 2.259493e+01 4.176412e+01 3.925178e+01 5.038314e+01 4.809264e+01 7.530466e+01 4.620896e+01 5.071123e+01 6.369641e+01 8.193860e+01 6.038482e+01 3.933372e+01 3.433762e+00 3.457047e+00 3.182624e+00 4.178503e+00 4.889791e+00 4.798880e+00 4.936363e+00 5.105858e+00 5.337420e+00 4.648643e+00 4.517866e+00 3.969058e+00 3.053705e+00
<GCONST> 1.113318e+02
<STATE> 3
<MEAN> 25
 8.909518e+00 -2.753892e+00 -7.472177e+00 -1.203473e+01 -1.620309e+00 5.394579e+00 -5.025118e+00 -4.432386e+00 -1.263088e+00 4.528396e+00 4.589259e-01 -3.764676e+00 3.838115e-01 8.516899e-01 2.720967e-02 -6.289530e-01 -2.341485e-01 4.484217e-01 3.115824e-01 -3.774627e-01 -8.246573e-01 -2.210898e-01 4.388357e-01 6.888773e-01 -6.174965e-01
<VARIANCE> 25
 9.982263e+00 2.548667e+01 2.989240e+01 4.605375e+01 4.311237e+01 7.377096e+01 5.644600e+01 4.440430e+01 6.782802e+01 7.906610e+01 5.646114e+01 4.477014e+01 3.089664e-01 1.057458e+00 8.914714e-01 1.938668e+00 1.873282e+00 2.141991e+00 2.103484e+00 2.157414e+00 2.118921e+00 2.578948e+00 2.306302e+00 2.061724e+00 5.123393e-01
<GCONST> 9.594616e+01
<STATE> 4
<MEAN> 25
 9.640850e+00 4.509749e+00 -5.973475e+00 -1.167033e+01 -3.525772e+00 6.064608e+00 -2.878161e+00 -5.080153e+00 -5.258025e+00 -3.616074e-01 -7.616934e-01 -2.216656e-01 -4.037345e-01 3.126900e-01 5.553589e-01 1.459745e+00 3.761204e-01 -6.324056e-01 -1.424613e-01 -2.773955e-02 3.582779e-01 -4.089250e-01 -3.453136e-01 -2.926535e-02 -7.854308e-01
<VARIANCE> 25
 1.200153e+01 3.079675e+01 4.036188e+01 6.341681e+01 6.978548e+01 5.296165e+01 8.858424e+01 4.934168e+01 5.919035e+01 6.830888e+01 5.686236e+01 5.422079e+01 8.865416e-01 1.957262e+00 2.050079e+00 3.308458e+00 3.316061e+00 2.753652e+00 3.106764e+00 3.220863e+00 3.936130e+00 3.795292e+00 3.000057e+00 2.835598e+00 1.000970e+00
<GCONST> 1.044694e+02
<TRANSP> 5
 0.000000e+00 1.000000e+00 0.000000e+00 0.000000e+00 0.000000e+00
 0.000000e+00 6.800232e-01 3.199768e-01 0.000000e+00 0.000000e+00
 0.000000e+00 0.000000e+00 8.141107e-01 1.858893e-01 0.000000e+00
 0.000000e+00 0.000000e+00 0.000000e+00 8.275539e-01 1.724461e-01
 0.000000e+00 0.000000e+00 0.000000e+00 0.000000e+00 0.000000e+00
<ENDHMM>
~h "oy"
<BEGINHMM>
<NUMSTATES> 5
<STATE> 2
<MEAN> 25
 7.992965e+00 1.133903e+00 -4.329198e+00 -9.022212e+00 -4.304323e+00 4.134752e+00 -2.738452e+00 -1.224079e+00 -3.687253e+00 1.243036e-01 4.273592e+00 9.213690e-01 1.265028e+00 -3.313851e-01 -1.073912e+00 -2.420220e+00 -7.219725e-01 1.765950e+00 2.148638e-01 2.063820e-01 -9.925408e-01 9.299471e-01 1.206102e+00 5.208640e-02 5.071847e-01
<VARIANCE> 25
 1.750114e+01 2.914431e+01 2.973810e+01 6.473837e+01 3.956816e+01 3.783031e+01 7.266531e+01 3.858176e+01 5.069277e+01 3.837292e+01 4.396698e+01 2.631620e+01 2.471004e+00 1.517928e+00 1.687514e+00 9.031394e+00 5.211307e+00 5.303286e+00 4.422763e+00 3.703682e+00 3.887695e+00 4.018647e+00 4.740862e+00 3.100628e+00 8.137058e-01
<GCONST> 1.050124e+02
<STATE> 3
<MEAN> 25
 8.967780e+00 -3.105207e+00 -4.960506e+00 -1.213645e+01 -2.220891e+00 5.188285e+00 -1.890304e+00 1.420412e-01 -2.238673e+00 4.837721e+00 2.051409e+00 -1.145730e+00 -3.695364e-01 -8.113438e-01 6.139630e-01 1.456550e+00 4.377198e-01 -1.428831e+00 -1.458926e-01 5.626544e-01 9.237351e-01 3.745611e-01 -7.407193e-01 -6.211175e-01 1.744563e-01
<VARIANCE> 25
 9.461345e+00 3.784737e+01 3.196625e+01 7.625492e+01 4.956754e+01 1.126693e+02 2.935312e+01 4.449375e+01 4.309336e+01 6.540392e+01 4.456324e+01 3.918478e+01 4.967680e-01 2.068380e+00 1.806632e+00 4.069042e+00 3.484170e+00 9.568999e+00 3.478010e+00 5.546982e+00 3.010735e+00 6.448073e+00 3.342194e+00 3.702219e+00 5.119162e-01
<GCONST> 1.041386e+02
<STATE> 4
<MEAN> 25
 2.044324e+00 -7.746985e+00 5.936304e-01 -3.557833e+00 2.584627e-01 -1.376692e+00 -1.807941e+00 2.634392e+00 2.985232e+00 3.580862e+00 1.237136e+00 1.073656e+00 -3.364170e-01 3.798872e-01 6.418585e-01 4.159207e-01 -4.167933e-01 -2.454396e-01 -1.590842e-01 1.482306e-01 -1.088861e-01 -3.557144e-01 -2.819405e-01 5.235825e-01 3.434315e-03
<VARIANCE> 25
 2.789591e+01 4.057643e+01 6.797948e+01 4.914745e+01 2.914962e+01 1.069226e+02 4.179807e+01 2.001342e+01 4.480536e+01 4.316343e+01 3.057747e+01 1.930139e+01 6.157423e-01 2.479701e+00 2.837325e+00 3.306503e+00 2.610601e+00 4.586666e+00 3.844966e+00 3.298541e+00 3.598261e+00 4.646750e+00 3.173982e+00 2.434684e+00 2.166139e+00
<GCONST> 1.031335e+02
<TRANSP> 5
 0.000000e+00 1.000000e+00 0.000000e+00 0.000000e+00 0.000000e+00
 0.000000e+00 7.480019e-01 2.519981e-01 0.000000e+00 0.000000e+00
 0.000000e+00 0.000000e+00 8.507123e-01 1.492877e-01 0.000000e+00
 0.000000e+00 0.000000e+00 0.000000e+00 8.265179e-01 1.734821e-01
 0.000000e+00 0.000000e+00 0.000000e+00 0.000000e+00 0.000000e+00
<ENDHMM>
~h "sh"
<BEGINHMM>
<NUMSTATES> 5
<STATE> 2
<MEAN> 25
 -1.127969e+01 1.228560e+00 1.100576e+01 1.148118e+00 -1.673511e+00 3.685753e-01 2.736057e+00 -1.446941e+00 4.822576e-01 -2.665456e+00 1.538175e+00 8.261955e-01 -4.680995e+00 -4.507318e-01 3.266257e-01 -1.918210e-01 1.056937e+00 1.083288e+00 1.281200e+00 5.555968e-01 1.457346e+00 2.386755e-01 1.008711e+00 4.664738e-01 8.299098e-01
<VARIANCE> 25
 8.247572e+01 3.247740e+01 3.285115e+01 4.499088e+01 4.700379e+01 6.260015e+01 4.792168e+01 3.511557e+01 5.028231e+01 3.558232e+01 3.226742e+01 2.528717e+01 3.748555e+00 3.570077e+00 3.654138e+00 3.441275e+00 5.041797e+00 4.650811e+00 4.721455e+00 4.369345e+00 3.546201e+00 4.516023e+00 3.443913e+00 2.595191e+00 2.320675e+00
<GCONST> 1.078603e+02
<STATE> 3
<MEAN> 25
 -2.310481e+01 -1.493366e+00 9.984082e+00 -1.408803e+00 -8.389466e-01 3.309231e+00 5.265105e+00 4.104523e-01 4.003671e+00 -4.534470e-01 4.643938e+00 1.989750e+00 -2.340010e-01 -2.537282e-01 -1.668036e-01 -1.614867e-01 -4.034783e-02 1.428993e-01 2.794020e-01 1.244808e-01 2.136817e-01 1.256869e-01 6.065182e-02 1.200278e-01 3.563831e-02
<VARIANCE> 25
 1.615325e+01 4.112307e+01 1.965399e+01 3.237096e+01 3.402033e+01 4.451450e+01 3.744640e+01 2.696706e+01 2.436382e+01 3.148816e+01 2.436270e+01 1.842601e+01 2.080876e+00 7.567567e-01 9.861684e-01 1.255414e+00 1.294964e+00 1.665400e+00 1.628463e+00 1.697226e+00 1.747690e+00 1.676785e+00 1.324695e+00 1.316013e+00 5.967483e-01
<GCONST> 8.945847e+01
<STATE> 4
<MEAN> 25
 -1.326789e+01 -9.966544e-01 9.020269e+00 1.468211e-01 -2.980409e+00 -1.972147e-01 3.292970e+00 1.540999e-01 2.005973e+00 -1.862096e+00 2.085825e+00 9.687352e-01 4.982580e+00 8.434033e-01 -2.224969e-01 2.449988e-01 -1.195641e+00 -1.901090e+00 -2.011674e+00 -5.846623e-01 -1.242755e+00 -9.199467e-01 -1.147657e+00 -6.933938e-01 -3.378358e-01
<VARIANCE> 25
 7.763892e+01 3.623856e+01 2.344927e+01 3.013275e+01 3.546806e+01 4.642535e+01 4.514782e+01 3.170277e+01 3.560310e+01 3.875457e+01 2.597259e+01 2.064780e+01 4.611625e+00 3.255633e+00 3.012990e+00 2.501627e+00 4.040874e+00 4.011162e+00 3.652063e+00 3.450939e+00 3.495529e+00 2.919567e+00 2.331891e+00 1.751428e+00 1.251562e+00
<GCONST> 1.026395e+02
<TRANSP> 5
 0.000000e+00 1.000000e+00 0.000000e+00 0.000000e+00 0.000000e+00
 0.000000e+00 7.157043e-01 2.842957e-01 0.000000e+00 0.000000e+00
 0.000000e+00 0.000000e+00 8.411554e-01 1.588446e-01 0.000000e+00
 0.000000e+00 0.000000e+00 0.000000e+00 7.226684e-01 2.773316e-01
 0.000000e+00 0.000000e+00 0.000000e+00 0.000000e+00 0.000000e+00
<ENDHMM>
~h "sp"
<BEGINHMM>
<NUMSTATES> 3
<STATE> 2
~s "silst"
<TRANSP> 3
 0.000000e+00 1.461977e-01 8.538023e-01
 0.000000e+00 9.636073e-01 3.639274e-02
 0.000000e+00 0.000000e+00 0.000000e+00
<ENDHMM>
~h "th"
<BEGINHMM>
<NUMSTATES> 5
<STATE> 2
<MEAN> 25
 -4.563611e+00 3.862153e+00 -1.888610e+00 6.238616e+00 2.490631e+00 -3.485119e-02 3.109068e+00 -9.818967e-01 3.805166e+00 4.624139e-01 -3.371161e-02 1.243334e+00 -2.421970e+00 3.326980e-01 -3.727366e-01 6.977685e-01 1.203636e+00 8.458813e-01 1.293034e+00 6.516206e-01 9.441467e-01 1.115792e+00 1.487141e+00 5.742174e-01 -1.178104e+00
<VARIANCE> 25
 4.238811e+01 2.644321e+01 3.479973e+01 3.925280e+01 5.060530e+01 4.401735e+01 4.295787e+01 4.625423e+01 3.492091e+01 6.647376e+01 3.062035e+01 2.621155e+01 4.136263e+00 3.807186e+00 3.881949e+00 5.234609e+00 3.758833e+00 5.021280e+00 5.254714e+00 5.130553e+00 5.096186e+00 6.013843e+00 3.901393e+00 3.048312e+00 2.717990e+00
<GCONST> 1.088280e+02
<STATE> 3
<MEAN> 25
 -1.112838e+01 2.959921e+00 -2.152339e+00 6.040190e+00 4.433239e+00 3.346373e+00 6.177501e+00 2.333097e+00 5.102331e+00 2.729170e+00 3.982315e+00 3.544680e+00 -7.122272e-02 -3.944753e-01 -1.654457e-02 -3.587533e-01 2.218107e-02 2.390993e-01 3.536417e-02 2.095526e-01 2.382076e-02 1.266043e-01 9.605378e-02 2.158003e-02 -1.805057e-01
<VARIANCE> 25
 3.763354e+01 2.584769e+01 2.959375e+01 2.721945e+01 2.626904e+01 3.266360e+01 2.322394e+01 2.750354e+01 2.305623e+01 3.350473e+01 2.353984e+01 2.557796e+01 2.790746e+00 1.822900e+00 1.823995e+00 2.076449e+00 1.677016e+00 2.003172e+00 1.750284e+00 1.934100e+00 2.514686e+00 2.311086e+00 2.410658e+00 1.803690e+00 3.560438e+00
<GCONST> 9.567181e+01
<STATE> 4
<MEAN> 25
 -4.071211e+00 8.377213e-01 1.972098e-01 5.102432e+00 2.804850e+00 3.996199e+00 4.258589e+00 1.426588e+00 3.100243e+00 9.042494e-01 4.400066e+00 2.095608e+00 4.732245e-01 -2.570919e-01 1.596528e-01 -2.018242e-01 -2.854869e-01 -2.632351e-01 -2.634499e-01 -8.315232e-02 -2.155209e-01 -2.388649e-01 -2.325155e-01 -5.160986e-02 4.432383e-01
<VARIANCE> 25
 4.279371e+01 2.653252e+01 1.875881e+01 2.318471e+01 1.917944e+01 2.255636e+01 2.608965e+01 2.716270e+01 2.110646e+01 2.379812e+01 2.393199e+01 2.059947e+01 2.726123e+00 1.451660e+00 1.855827e+00 2.125235e+00 2.323991e+00 2.612200e+00 1.868107e+00 2.354343e+00 1.849333e+00 2.344145e+00 1.937535e+00 2.003638e+00 2.649560e+00
<GCONST> 9.393974e+01
<TRANSP> 5
 0.000000e+00 1.000000e+00 0.000000e+00 0.000000e+00 0.000000e+00
 0.000000e+00 6.580143e-01 3.419857e-01 0.000000e+00 0.000000e+00
 0.000000e+00 0.000000e+00 7.749901e-01 2.250099e-01 0.000000e+00
 0.000000e+00 0.000000e+00 0.000000e+00 8.357624e-01 1.642376e-01
 0.000000e+00 0.000000e+00 0.000000e+00 0.000000e+00 0.000000e+00
<ENDHMM>
~h "uh"
<BEGINHMM>
<NUMSTATES> 5
<STATE> 2
<MEAN> 25
 5.808336e-02 -1.013190e-01 7.104106e-01 -1.979261e+00 -1.012416e+00 -2.546889e+00 -3.407395e+00 -3.067701e+00 -2.157419e+00 1.059577e+00 5.359966e-01 -1.485625e+00 2.699371e+00 1.367093e-01 3.933001e-01 -9.290875e-01 -2.051398e+00 -1.302720e+00 -2.165938e+00 -4.533675e-01 -1.058661e+00 -4.353620e-01 -6.937543e-01 -7.660692e-01 1.173771e+00
<VARIANCE> 25
 7.027222e+01 2.795679e+01 6.883129e+01 6.172326e+01 6.816021e+01 7.790691e+01 8.417279e+01 3.595625e+01 3.618167e+01 3.988820e+01 5.336229e+01 3.457655e+01 9.489505e+00 4.265855e+00 6.482312e+00 8.348809e+00 9.447196e+00 6.268126e+00 7.410383e+00 6.653721e+00 4.015406e+00 4.951563e+00 6.707706e+00 4.104446e+00 3.692480e+00
<GCONST> 1.165545e+02
<STATE> 3
<MEAN> 25
 6.404036e+00 -2.049014e+00 -2.314341e-01 -3.779304e+00 -5.824928e+00 -3.711345e+00 -9.101454e+00 -3.662446e+00 -3.441317e+00 1.773122e+00 -9.429977e-01 -2.455108e+00 1.513900e+00 -5.484795e-01 1.515931e-01 -3.278921e-01 -1.392517e+00 -4.719192e-01 -9.034293e-01 1.613456e-01 -1.015680e-01 4.223689e-02 2.691578e-01 -2.347217e-01 5.187472e-01
<VARIANCE> 25
 1.818398e+01 2.956799e+01 5.994408e+01 5.879734e+01 4.961540e+01 9.024895e+01 6.126568e+01 4.839418e+01 4.829032e+01 3.740928e+01 6.802525e+01 4.227032e+01 3.902269e+00 2.707211e+00 6.402818e+00 7.948181e+00 5.439354e+00 7.390983e+00 4.957247e+00 6.887630e+00 6.080992e+00 5.673308e+00 4.774315e+00 2.649796e+00 2.976264e+00
<GCONST> 1.129472e+02
<STATE> 4
<MEAN> 25
 7.409349e+00 -2.721845e+00 -1.129626e+00 -2.023232e+00 -6.080070e+00 -3.108725e+00 -9.022214e+00 -3.439487e+00 6.124525e-01 3.145030e+00 -2.426527e-01 -2.786797e+00 5.147807e-02 4.276811e-01 3.523051e-01 8.479989e-01 3.939156e-01 -1.723732e-01 8.014609e-01 3.728272e-01 4.841322e-01 -2.433583e-01 5.735562e-02 2.900239e-01 -1.200511e+00
<VARIANCE> 25
 1.372084e+01 2.923846e+01 7.112215e+01 6.522182e+01 4.007592e+01 6.134578e+01 5.165913e+01 6.927746e+01 7.479675e+01 4.076640e+01 8.468468e+01 3.625852e+01 1.142867e+00 2.675512e+00 2.600526e+00 4.028509e+00 3.563928e+00 3.842206e+00 4.281466e+00 4.016637e+00 4.089635e+00 2.704285e+00 3.188708e+00 2.535894e+00 3.168587e+00
<GCONST> 1.070010e+02
<TRANSP> 5
 0.000000e+00 1.000000e+00 0.000000e+00 0.000000e+00 0.000000e+00
 0.000000e+00 4.025646e-01 5.974354e-01 0.000000e+00 0.000000e+00
 0.000000e+00 0.000000e+00 2.846059e-01 7.153941e-01 0.000000e+00
 0.000000e+00 0.000000e+00 0.000000e+00 7.330977e-01 2.669023e-01
 0.000000e+00 0.000000e+00 0.000000e+00 0.000000e+00 0.000000e+00
<ENDHMM>
~h "uw"
<BEGINHMM>
<NUMSTATES> 5
<STATE> 2
<MEAN> 25
 -1.861442e+00 2.130841e+00 6.080757e+00 2.932190e+00 -2.474916e+00 -6.096993e+00 -2.955809e+00 -2.551293e+00 -3.704819e+00 -1.573105e+00 -4.053440e-01 2.133733e-01 3.055947e+00 1.626839e-01 2.207946e-01 3.256851e-01 -1.528108e+00 -1.080808e+00 -2.437595e+00 -1.674337e+00 -8.880661e-01 -6.487200e-01 -1.112317e+00 -7.788005e-01 5.903986e-01
<VARIANCE> 25
 7.126045e+01 3.298794e+01 3.994556e+01 5.606055e+01 6.242241e+01 4.723067e+01 8.016391e+01 5.453436e+01 4.804368e+01 5.285909e+01 3.418749e+01 3.335642e+01 7.012406e+00 4.127841e+00 5.434774e+00 4.897925e+00 8.709219e+00 6.939994e+00 6.797157e+00 5.246781e+00 6.956560e+00 6.348033e+00 5.148860e+00 3.686980e+00 3.931809e+00
<GCONST> 1.150975e+02
<STATE> 3
<MEAN> 25
 4.767265e+00 8.196706e-01 4.879737e+00 2.882762e+00 -6.281595e+00 -7.084842e+00 -9.088584e+00 -5.041353e+00 -4.414004e+00 -2.113668e+00 -1.786110e+00 -1.178421e+00 1.642657e+00 2.308488e-03 -1.036445e+00 -4.748977e-01 -3.032585e-01 3.610623e-01 -1.286347e+00 -1.038086e+00 -2.622834e-01 5.727763e-01 -1.524450e-01 -7.098286e-01 -5.315772e-02
<VARIANCE> 25
 1.930058e+01 2.502513e+01 4.216801e+01 5.261505e+01 5.018960e+01 5.137387e+01 6.144688e+01 5.341022e+01 4.894584e+01 5.011897e+01 4.603234e+01 3.905351e+01 3.004622e+00 3.401349e+00 4.007957e+00 4.129266e+00 6.301069e+00 5.491210e+00 6.932327e+00 5.020456e+00 5.031059e+00 4.891356e+00 4.640032e+00 3.659965e+00 2.658491e+00
<GCONST> 1.103194e+02
<STATE> 4
<MEAN> 25
 6.920690e+00 2.561994e+00 1.877083e+00 1.306442e+00 -4.645903e+00 -3.104699e+00 -8.281516e+00 -6.815328e+00 -5.707538e+00 -3.174887e-01 -8.263684e-01 -2.551612e+00 -1.344407e-01 3.745011e-01 -3.210519e-01 7.895736e-02 8.005259e-01 5.199248e-01 7.651625e-01 1.939658e-01 2.703541e-01 1.586781e-01 4.148622e-02 1.481207e-01 -8.665271e-01
<VARIANCE> 25
 2.257362e+01 3.563794e+01 5.680325e+01 5.748615e+01 6.473534e+01 7.813625e+01 6.617574e+01 5.296066e+01 6.254444e+01 5.935788e+01 6.303796e+01 4.291937e+01 1.637837e+00 2.397582e+00 2.588060e+00 2.697166e+00 3.541119e+00 4.310865e+00 4.895044e+00 4.272975e+00 4.131035e+00 3.773147e+00 3.449833e+00 2.772493e+00 1.993721e+00
<GCONST> 1.083130e+02
<TRANSP> 5
 0.000000e+00 1.000000e+00 0.000000e+00 0.000000e+00 0.000000e+00
 0.000000e+00 3.980481e-01 6.019520e-01 0.000000e+00 0.000000e+00
 0.000000e+00 0.000000e+00 3.045824e-01 6.954176e-01 0.000000e+00
 0.000000e+00 0.000000e+00 0.000000e+00 8.028244e-01 1.971756e-01
 0.000000e+00 0.000000e+00 0.000000e+00 0.000000e+00 0.000000e+00
<ENDHMM>
~h "zh"
<BEGINHMM>
<NUMSTATES> 5
<STATE> 2
<MEAN> 25
 4.429295e+00 9.097890e+00 3.137501e+00 7.812834e+00 5.903170e+00 9.364377e+00 8.510605e+00 -1.003731e+01 5.067597e+00 -1.684500e+00 -2.505208e+00 2.085726e+00 -6.485007e-01 6.756434e-01 -1.246122e-01 2.033722e-01 1.023410e+00 2.470872e-01 7.952265e-01 1.790123e-01 1.385042e-01 6.485026e-02 1.463664e-01 -6.598912e-03 -8.324412e-01
<VARIANCE> 25
 4.080262e+01 4.420220e+01 3.948051e+01 7.983461e+00 1.710915e+02 4.980680e+01 4.369733e+01 5.578504e+01 2.302699e+01 1.258198e+01 3.202205e+01 1.902974e+01 2.174958e+00 5.247833e+00 5.431514e+00 1.370079e+00 6.263939e+00 7.189874e-01 1.366195e+00 3.731063e+00 1.702064e+00 2.292791e+00 1.214233e+00 2.357881e+00 2.443658e+00
<GCONST> 9.901065e+01
<STATE> 3
<MEAN> 25
 -7.882495e+00 1.503516e+00 7.708402e+00 5.173206e+00 -1.861410e+00 -1.536047e+00 1.128740e+00 1.804608e+00 1.887843e+00 -2.117881e+00 2.073523e+00 -1.075022e+00 -9.411122e-01 -5.818095e-01 6.240687e-01 3.391846e-01 -3.802465e-01 3.487568e-01 -6.549913e-02 -4.702343e-01 5.493445e-01 -2.985027e-01 4.236353e-01 1.739278e-01 1.170546e+00
<VARIANCE> 25
 1.609748e+02 1.040641e+02 4.688198e+01 1.312401e+01 1.125817e+02 4.098341e+01 5.790985e+01 4.715522e+01 4.313950e+01 2.283764e+01 2.233931e+01 1.898129e+01 1.432280e+01 8.054430e+00 2.976665e+00 2.738593e+00 7.761447e+00 4.921094e+00 4.991453e+00 4.426607e+00 3.764220e+00 3.082318e+00 2.199159e+00 2.126862e+00 7.876315e+00
<GCONST> 1.110293e+02
<STATE> 4
<MEAN> 25
 -6.165426e+00 -5.790204e+00 1.231637e+01 1.258777e+01 4.623895e+00 4.935865e+00 8.414012e+00 7.278606e+00 6.128879e+00 -8.030750e+00 8.145259e+00 2.936900e+00 3.817027e-01 -2.062967e-01 -2.694744e-01 2.735036e-01 9.719457e-02 -1.390854e-01 -2.889227e-01 3.152035e-01 1.611625e-01 1.473786e-01 -1.331823e-01 -4.658587e-02 -1.945246e-01
<VARIANCE> 25
 5.599979e+01 3.289402e+01 3.056251e+01 3.668755e+01 1.853070e+01 2.025602e+01 6.310434e+01 6.271281e+01 3.088994e+01 5.476562e+01 2.827971e+01 1.641294e+01 1.740477e+00 7.203688e-01 1.746333e+00 1.217518e+00 1.353453e+00 1.550290e+00 2.277776e+00 1.095683e+00 1.822543e+00 1.385857e+00 1.676304e+00 1.429536e+00 7.426567e-01
<GCONST> 9.241187e+01
<TRANSP> 5
 0.000000e+00 1.000000e+00 0.000000e+00 0.000000e+00 0.000000e+00
 0.000000e+00 8.926749e-01 1.073251e-01 0.000000e+00 0.000000e+00
