~o
<STREAMINFO> 1 25
<VECSIZE> 25<NULLD><MFCC_D_N_Z_0><DIAGC>
~h "b"
<BEGINHMM>
<NUMSTATES> 5
<STATE> 2
<MEAN> 25
 3.837299e+00 4.551798e+00 1.555194e+00 4.345671e+00 3.965014e+00 5.372893e-01 -1.801182e-01 -1.957994e+00 -1.801902e-02 8.776265e-02 -3.068837e-01 -1.270582e+00 2.562234e-02 -4.477867e-01 -1.908483e-01 -2.942382e-01 -9.870225e-02 -5.323880e-01 -4.455777e-01 -3.612750e-01 1.016230e-01 -7.654576e-02 -2.786329e-01 -2.638970e-01 1.436209e+00
<VARIANCE> 25
 4.115570e+01 5.460062e+01 3.823671e+01 5.481994e+01 4.889162e+01 5.959068e+01 6.377645e+01 3.906051e+01 5.018150e+01 4.485677e+01 3.715477e+01 3.386481e+01 4.140746e+00 6.439578e+00 3.908421e+00 6.159893e+00 6.934580e+00 6.596216e+00 6.418331e+00 4.662381e+00 5.310042e+00 4.958242e+00 3.802179e+00 3.591275e+00 1.389376e+01
<GCONST> 1.141688e+02
<STATE> 3
<MEAN> 25
 3.753661e+00 2.347125e+00 8.469054e-01 2.427742e+00 2.517470e+00 -9.915560e-01 -1.835707e+00 -2.762241e+00 2.441841e-01 -6.597462e-02 -8.333213e-01 -1.937353e+00 2.613523e-01 -1.492793e+00 -3.346050e-01 -1.324699e+00 -1.474131e+00 -8.603311e-01 -7.433032e-01 -9.933233e-02 1.483931e-01 8.153115e-02 -9.360646e-02 -1.990552e-01 3.017435e+00
<VARIANCE> 25
 3.735989e+01 5.243511e+01 4.437653e+01 5.961311e+01 4.426401e+01 6.395523e+01 5.509592e+01 3.924496e+01 5.014366e+01 4.194550e+01 3.897135e+01 3.358056e+01 4.632264e+00 8.152555e+00 6.738822e+00 9.314001e+00 7.832024e+00 7.602275e+00 6.619512e+00 5.751402e+00 7.106434e+00 5.902192e+00 4.672304e+00 4.238038e+00 1.362610e+01
<GCONST> 1.166939e+02
<STATE> 4
<MEAN> 25
 5.431251e+00 3.572751e-01 6.392249e-02 -2.499744e+00 -9.145291e-01 -2.051234e+00 -5.321322e+00 -3.298081e+00 -2.153398e+00 -1.454101e+00 -1.400796e+00 -2.818594e+00 1.448128e-01 -7.399229e-01 1.465961e-02 -8.864906e-01 -1.063168e+00 -1.511741e-01 -1.604607e-01 1.033009e-01 -2.809206e-02 -4.304459e-02 8.462103e-02 1.388694e-01 1.367496e+00
<VARIANCE> 25
 3.004970e+01 5.533801e+01 6.907246e+01 9.550471e+01 6.614407e+01 7.026551e+01 6.067193e+01 5.504758e+01 6.605738e+01 4.780709e+01 5.417863e+01 3.924031e+01 3.246841e+00 6.008225e+00 5.925649e+00 7.735338e+00 7.220921e+00 5.633370e+00 5.748959e+00 5.341196e+00 5.541263e+00 4.890043e+00 4.495015e+00 3.777033e+00 9.521356e+00
<GCONST> 1.167460e+02
<TRANSP> 5
 0.000000e+00 1.000000e+00 0.000000e+00 0.000000e+00 0.000000e+00
 0.000000e+00 4.148150e-01 5.851849e-01 0.000000e+00 0.000000e+00
 0.000000e+00 0.000000e+00 3.574687e-01 6.425313e-01 0.000000e+00
 0.000000e+00 0.000000e+00 0.000000e+00 5.414388e-01 4.585612e-01
 0.000000e+00 0.000000e+00 0.000000e+00 0.000000e+00 0.000000e+00
<ENDHMM>
~h "d"
<BEGINHMM>
<NUMSTATES> 5
<STATE> 2
<MEAN> 25
 4.435853e+00 2.303072e+00 5.289284e+00 3.922953e+00 -3.122782e+00 -2.971945e+00 -9.402887e-01 -1.365149e+00 -1.773337e+00 -2.067239e+00 -2.397317e+00 -1.992344e-01 -3.895147e-01 5.378547e-01 4.374770e-01 5.722175e-01 8.609259e-01 3.603449e-01 3.453311e-01 3.845287e-03 2.253921e-01 -1.611905e-01 3.115687e-02 -6.544351e-02 -9.637733e-01
<VARIANCE> 25
 3.022555e+01 5.959434e+01 4.402839e+01 5.528909e+01 7.196867e+01 5.553774e+01 5.247699e+01 5.315528e+01 4.997332e+01 3.818505e+01 3.590227e+01 3.532518e+01 3.551548e+00 6.445698e+00 3.537768e+00 5.634697e+00 6.875021e+00 5.203191e+00 5.182500e+00 5.253325e+00 4.926801e+00 3.897036e+00 3.886085e+00 3.406747e+00 9.304142e+00
<GCONST> 1.129399e+02
<STATE> 3
<MEAN> 25
 2.973384e+00 2.883126e+00 5.341996e+00 4.201722e+00 -9.885454e-01 -1.747148e+00 -7.090241e-02 -1.478270e+00 -9.638103e-01 -1.976232e+00 -1.951882e+00 -1.948006e-01 -8.733287e-01 -3.773545e-01 -2.839191e-01 -3.735605e-01 4.061638e-01 1.833387e-01 2.222662e-01 3.946306e-01 5.267510e-01 2.439364e-01 3.979858e-01 7.315470e-02 3.309492e-01
<VARIANCE> 25
 3.651365e+01 5.348292e+01 3.755570e+01 5.141261e+01 6.047856e+01 5.319767e+01 4.804884e+01 4.747001e+01 4.502134e+01 3.779321e+01 3.258475e+01 3.174129e+01 4.401598e+00 6.090482e+00 3.527391e+00 5.302128e+00 7.553151e+00 6.029317e+00 4.948095e+00 5.117004e+00 4.991175e+00 3.960196e+00 3.569554e+00 3.409547e+00 9.582219e+00
<GCONST> 1.122894e+02
<STATE> 4
<MEAN> 25
 -1.998248e-01 9.143462e-01 3.661433e+00 3.472859e+00 4.807733e-01 -3.304010e-01 1.353149e+00 5.507039e-01 1.065260e+00 -2.323452e-01 3.560309e-01 9.697971e-01 -5.878874e-01 -3.933939e-01 -3.842767e-01 -4.953550e-01 -2.478674e-02 -1.489929e-02 -3.980275e-02 2.686515e-01 2.395815e-01 2.981119e-01 3.253651e-01 7.409786e-02 5.552374e-01
<VARIANCE> 25
 4.502689e+01 4.635760e+01 3.101388e+01 4.041846e+01 5.969959e+01 5.209254e+01 4.857819e+01 4.909051e+01 4.241321e+01 3.856517e+01 3.814252e+01 2.987437e+01 3.829941e+00 3.515999e+00 2.807706e+00 3.554615e+00 5.054019e+00 4.735032e+00 4.167552e+00 4.226663e+00 3.969896e+00 3.351224e+00 3.035028e+00 2.573555e+00 5.611659e+00
<GCONST> 1.082947e+02
<TRANSP> 5
 0.000000e+00 1.000000e+00 0.000000e+00 0.000000e+00 0.000000e+00
 0.000000e+00 4.514706e-01 5.485294e-01 0.000000e+00 0.000000e+00
 0.000000e+00 0.000000e+00 4.233228e-01 5.766772e-01 0.000000e+00
 0.000000e+00 0.000000e+00 0.000000e+00 6.107188e-01 3.892812e-01
 0.000000e+00 0.000000e+00 0.000000e+00 0.000000e+00 0.000000e+00
<ENDHMM>
~h "f"
<BEGINHMM>
<NUMSTATES> 5
<STATE> 2
<MEAN> 25
 -7.116027e+00 1.052807e+00 -1.735710e+00 4.958981e+00 3.951551e+00 1.980124e+00 3.233452e+00 1.278451e+00 2.318407e+00 1.565850e+00 1.067649e+00 2.222261e+00 -1.582293e+00 -1.710823e-01 -1.853496e-01 3.861386e-01 2.274275e-01 3.283065e-01 3.361103e-01 4.905432e-01 4.895785e-01 3.949383e-01 4.320466e-01 4.388436e-01 -4.265864e-01
<VARIANCE> 25
 4.268363e+01 2.452300e+01 2.802721e+01 2.313548e+01 2.815466e+01 3.609226e+01 3.181303e+01 3.113025e+01 2.580182e+01 2.807211e+01 2.546739e+01 2.525493e+01 4.390821e+00 1.703125e+00 1.790121e+00 2.252215e+00 2.323151e+00 2.599210e+00 2.533730e+00 2.867743e+00 2.644967e+00 2.511301e+00 2.164061e+00 2.286873e+00 1.403124e+00
<GCONST> 9.726723e+01
<STATE> 3
<MEAN> 25
 -9.772939e+00 -3.671631e-01 -2.732144e+00 4.946347e+00 4.180983e+00 3.350066e+00 4.280203e+00 3.136938e+00 3.628566e+00 3.521005e+00 2.855284e+00 2.679497e+00 -1.267508e-03 -2.142741e-01 -1.320670e-01 -1.257728e-01 -7.689583e-02 -3.632511e-02 5.508579e-03 -2.917170e-02 -8.994050e-03 -1.162198e-02 1.859941e-03 -2.316825e-02 1.734890e-01
<VARIANCE> 25
 3.592900e+01 2.308748e+01 2.447478e+01 2.141338e+01 2.426182e+01 3.159096e+01 2.755930e+01 2.427376e+01 2.726181e+01 2.544144e+01 2.005633e+01 1.746686e+01 1.819211e+00 1.016149e+00 1.050610e+00 1.325582e+00 1.472879e+00 1.899138e+00 1.654247e+00 1.842097e+00 1.791148e+00 1.715980e+00 1.450767e+00 1.457115e+00 1.295588e+00
<GCONST> 8.969653e+01
<STATE> 4
<MEAN> 25
 -8.146900e+00 -2.185942e+00 -2.861349e+00 2.729110e+00 3.384653e+00 1.950908e+00 3.394874e+00 2.812104e+00 3.346702e+00 1.926172e+00 2.837214e+00 2.811647e+00 2.200743e+00 -8.095734e-03 -1.609453e-01 -9.506375e-01 -6.572374e-01 -5.705187e-01 -6.267340e-01 -4.668998e-01 -5.044717e-01 -3.894140e-01 -3.559746e-01 -4.587426e-01 9.754615e-01
<VARIANCE> 25
 4.602911e+01 3.776557e+01 3.728776e+01 4.028147e+01 3.670409e+01 4.102296e+01 3.972799e+01 3.405081e+01 3.720554e+01 3.125331e+01 2.992253e+01 2.752997e+01 7.986820e+00 3.291191e+00 3.283883e+00 4.220897e+00 3.502438e+00 4.284188e+00 4.065144e+00 3.080331e+00 3.620071e+00 3.077630e+00 2.487206e+00 2.491452e+00 3.653433e+00
<GCONST> 1.056859e+02
<TRANSP> 5
 0.000000e+00 1.000000e+00 0.000000e+00 0.000000e+00 0.000000e+00
 0.000000e+00 8.243955e-01 1.756045e-01 0.000000e+00 0.000000e+00
 0.000000e+00 0.000000e+00 8.503231e-01 1.496768e-01 0.000000e+00
 0.000000e+00 0.000000e+00 0.000000e+00 7.699677e-01 2.300323e-01
 0.000000e+00 0.000000e+00 0.000000e+00 0.000000e+00 0.000000e+00
<ENDHMM>
~h "g"
<BEGINHMM>
<NUMSTATES> 5
<STATE> 2
<MEAN> 25
 4.367251e+00 4.798332e+00 7.319845e+00 4.020192e+00 -3.146441e+00 -2.528490e+00 -1.879686e+00 -8.100300e-01 -4.358058e+00 -4.010826e-01 -2.896658e-01 -1.532635e+00 -2.925146e-01 3.512274e-01 -1.042946e-01 6.076689e-01 8.631994e-01 2.107690e-01 2.806292e-01 -5.602051e-02 1.666971e-01 1.110542e-04 -6.865579e-02 1.460393e-01 -9.957023e-01
<VARIANCE> 25
 3.414723e+01 5.867230e+01 4.888594e+01 4.297100e+01 7.989136e+01 5.988547e+01 6.408438e+01 5.426295e+01 5.780984e+01 4.290521e+01 4.603941e+01 2.797115e+01 3.450692e+00 8.317349e+00 5.442503e+00 3.865328e+00 9.335876e+00 6.632517e+00 7.221682e+00 6.508435e+00 6.764415e+00 4.682107e+00 4.182992e+00 3.341787e+00 8.456411e+00
<GCONST> 1.154107e+02
<STATE> 3
<MEAN> 25
 2.478822e+00 4.141638e+00 5.072737e+00 5.525090e+00 2.297714e-01 -1.494930e+00 -3.836325e-01 -1.527969e+00 -2.183107e+00 7.977104e-02 -5.309806e-01 -6.211601e-02 -7.161840e-01 -1.389502e+00 -1.325804e+00 -3.509122e-01 6.442552e-01 -1.397942e-01 1.504884e-01 1.396374e-02 4.906081e-01 6.023772e-01 2.561701e-02 4.985678e-01 1.252676e+00
<VARIANCE> 25
 3.214458e+01 6.185197e+01 5.633406e+01 4.300838e+01 9.840280e+01 5.808443e+01 5.764376e+01 4.870205e+01 5.530116e+01 3.726569e+01 4.185024e+01 2.373323e+01 4.120949e+00 7.227255e+00 8.730647e+00 4.614107e+00 1.203010e+01 7.127874e+00 5.608593e+00 6.425925e+00 6.154851e+00 5.546842e+00 4.676165e+00 2.993632e+00 8.678104e+00
<GCONST> 1.159136e+02
<STATE> 4
<MEAN> 25
 1.531374e+00 -1.035865e+00 -6.708601e-01 3.393795e+00 1.502316e+00 -3.541267e+00 -9.826786e-01 -4.521430e-01 -7.716568e-02 3.013428e+00 -1.362971e-01 9.733456e-01 3.880987e-01 -9.641290e-01 -9.103419e-01 -1.415017e+00 -6.662180e-01 -5.359649e-01 -5.872415e-01 -6.477321e-02 3.159384e-02 2.954153e-01 7.733288e-02 -2.998188e-01 2.035345e+00
<VARIANCE> 25
 3.115625e+01 6.967097e+01 1.032644e+02 5.483620e+01 1.285312e+02 6.262621e+01 6.138572e+01 5.307325e+01 5.085024e+01 4.660575e+01 4.255475e+01 2.819551e+01 3.262637e+00 5.444117e+00 7.146591e+00 4.999957e+00 9.387464e+00 5.677505e+00 6.382665e+00 4.866870e+00 5.641232e+00 5.128829e+00 4.387890e+00 3.875282e+00 6.811421e+00
<GCONST> 1.161962e+02
<TRANSP> 5
 0.000000e+00 1.000000e+00 0.000000e+00 0.000000e+00 0.000000e+00
 0.000000e+00 5.588397e-01 4.411603e-01 0.000000e+00 0.000000e+00
 0.000000e+00 0.000000e+00 4.928302e-01 5.071698e-01 0.000000e+00
 0.000000e+00 0.000000e+00 0.000000e+00 6.737939e-01 3.262061e-01
 0.000000e+00 0.000000e+00 0.000000e+00 0.000000e+00 0.000000e+00
<ENDHMM>
~h "k"
<BEGINHMM>
<NUMSTATES> 5
<STATE> 2
<MEAN> 25
 -7.596769e-01 1.469215e+00 2.517707e+00 3.861783e+00 4.967586e-01 -1.043686e+00 1.832966e+00 1.091739e+00 -8.200920e-01 2.050056e+00 1.314691e+00 7.146814e-01 -1.078555e+00 -5.758541e-01 -7.206740e-01 3.609058e-01 1.211284e+00 8.935469e-01 8.901618e-01 6.507678e-01 9.861133e-01 8.372000e-01 6.916336e-01 7.889007e-01 -1.285113e+00
<VARIANCE> 25
 3.093507e+01 3.676547e+01 5.910344e+01 4.492711e+01 6.571684e+01 6.166214e+01 4.569285e+01 5.912567e+01 4.840889e+01 3.835414e+01 3.876305e+01 3.327990e+01 3.169095e+00 5.929200e+00 5.684459e+00 5.447058e+00 7.079483e+00 7.054547e+00 4.890813e+00 6.505993e+00 5.826036e+00 4.559882e+00 4.515853e+00 3.558488e+00 1.113134e+01
<GCONST> 1.139688e+02
<STATE> 3
<MEAN> 25
 -4.278656e+00 -2.196560e+00 -1.020868e+00 2.844748e+00 3.470080e+00 9.551038e-01 3.069936e+00 2.744264e+00 1.740166e+00 4.285415e+00 2.569201e+00 2.771358e+00 -1.034560e+00 -1.229386e+00 -8.873920e-01 -8.458222e-01 3.610498e-01 2.198572e-01 2.436615e-02 4.045581e-01 5.446428e-01 5.880283e-01 1.574868e-01 3.747330e-01 1.715239e+00
<VARIANCE> 25
 2.772875e+01 4.100341e+01 6.075604e+01 4.492681e+01 5.445088e+01 5.570298e+01 4.538353e+01 4.646055e+01 4.150873e+01 3.847227e+01 3.062908e+01 2.680176e+01 3.780977e+00 5.008838e+00 6.760570e+00 4.629067e+00 6.259187e+00 6.130105e+00 4.757551e+00 5.289523e+00 5.180472e+00 4.317104e+00 4.006824e+00 3.472176e+00 1.022478e+01
<GCONST> 1.119747e+02
<STATE> 4
<MEAN> 25
 -5.932457e+00 -3.487504e+00 -1.631391e+00 2.678089e-01 4.187022e+00 2.492007e+00 3.037673e+00 1.908799e+00 2.288947e+00 4.470726e+00 1.915811e+00 2.790025e+00 4.061731e-01 1.466908e-01 1.473650e-01 -4.034021e-01 -3.424602e-01 -5.588277e-02 -2.925585e-01 -4.481172e-01 -2.872692e-01 -5.399705e-01 -3.767496e-01 -4.140891e-01 1.005908e+00
<VARIANCE> 25
 3.172961e+01 4.192038e+01 5.654323e+01 4.666134e+01 6.194218e+01 6.284668e+01 4.255050e+01 4.131344e+01 4.719692e+01 3.856974e+01 3.302440e+01 2.772596e+01 4.906633e+00 3.365702e+00 3.756344e+00 3.366824e+00 4.815358e+00 5.027698e+00 4.197472e+00 4.309444e+00 4.807848e+00 4.196313e+00 3.544553e+00 2.976092e+00 4.986473e+00
<GCONST> 1.094740e+02
<TRANSP> 5
 0.000000e+00 1.000000e+00 0.000000e+00 0.000000e+00 0.000000e+00
 0.000000e+00 5.699494e-01 4.300506e-01 0.000000e+00 0.000000e+00
 0.000000e+00 0.000000e+00 5.141699e-01 4.858301e-01 0.000000e+00
 0.000000e+00 0.000000e+00 0.000000e+00 7.500237e-01 2.499763e-01
 0.000000e+00 0.000000e+00 0.000000e+00 0.000000e+00 0.000000e+00
<ENDHMM>
~h "l"
<BEGINHMM>
<NUMSTATES> 5
<STATE> 2
<MEAN> 25
 7.265476e+00 1.599929e+00 -5.158471e+00 -1.316452e+01 7.829956e-01 5.734939e+00 -3.626678e+00 -6.061531e+00 8.423351e-02 -8.495973e-01 1.045076e-01 -1.277449e+00 8.364154e-01 6.695398e-01 -3.988045e-01 -2.196806e+00 -1.065025e-01 1.005218e+00 -4.338525e-01 -4.928288e-01 -3.974281e-01 -2.229369e-01 6.734687e-01 3.440375e-01 1.349620e-01
<VARIANCE> 25
 1.764710e+01 4.954084e+01 4.036325e+01 8.290105e+01 5.208813e+01 6.337063e+01 7.735899e+01 6.100213e+01 5.461035e+01 4.587837e+01 4.768153e+01 4.162414e+01 2.052636e+00 2.206347e+00 2.387851e+00 5.435091e+00 3.658734e+00 4.017581e+00 4.218779e+00 4.382785e+00 3.461235e+00 3.906665e+00 3.545418e+00 2.960492e+00 2.064010e+00
<GCONST> 1.081753e+02
<STATE> 3
<MEAN> 25
 8.547013e+00 4.006749e+00 -5.190937e+00 -1.726440e+01 -6.543338e-03 7.185454e+00 -3.538270e+00 -5.860771e+00 -9.658413e-01 -1.823666e+00 1.797670e+00 7.207832e-02 -8.851927e-03 5.515269e-02 6.119469e-02 2.915215e-01 1.495899e-01 -2.058376e-01 -2.088992e-01 2.024220e-01 8.783096e-02 1.486943e-01 -2.511245e-02 -1.319549e-01 -1.711014e-01
<VARIANCE> 25
 1.344945e+01 3.572905e+01 4.020697e+01 8.036665e+01 5.728420e+01 5.747364e+01 7.662665e+01 6.454268e+01 5.027843e+01 5.307887e+01 4.542922e+01 4.142982e+01 6.813034e-01 2.654220e+00 1.638292e+00 3.771250e+00 2.418457e+00 2.716512e+00 3.312507e+00 3.390038e+00 3.511179e+00 3.532993e+00 2.818132e+00 2.717804e+00 1.752595e+00
<GCONST> 1.040672e+02
<STATE> 4
<MEAN> 25
 6.847072e+00 2.602638e+00 -4.446820e+00 -1.045555e+01 1.726892e+00 3.962758e+00 -4.567565e+00 -4.027585e+00 9.867132e-01 1.285779e-01 2.323916e-01 -1.699163e+00 -7.430660e-01 -5.020906e-01 6.598824e-01 2.148249e+00 -6.134528e-02 -1.128375e+00 3.294697e-01 9.411783e-01 4.981009e-01 -7.947549e-03 -6.535839e-01 -1.683571e-01 -3.097713e-01
<VARIANCE> 25
 1.938835e+01 4.488755e+01 3.804040e+01 7.916334e+01 5.025819e+01 6.318066e+01 9.065725e+01 6.710827e+01 6.500547e+01 6.444034e+01 5.224575e+01 4.907078e+01 1.607138e+00 3.192635e+00 2.725970e+00 5.324251e+00 4.243796e+00 4.224889e+00 5.021080e+00 5.936204e+00 5.496331e+00 5.049724e+00 4.116642e+00 3.865520e+00 2.911252e+00
<GCONST> 1.114426e+02
<TRANSP> 5
 0.000000e+00 1.000000e+00 0.000000e+00 0.000000e+00 0.000000e+00
 0.000000e+00 6.662214e-01 3.337786e-01 0.000000e+00 0.000000e+00
 0.000000e+00 0.000000e+00 7.093840e-01 2.906160e-01 0.000000e+00
 0.000000e+00 0.000000e+00 0.000000e+00 7.113781e-01 2.886219e-01
 0.000000e+00 0.000000e+00 0.000000e+00 0.000000e+00 0.000000e+00
<ENDHMM>
~h "m"
<BEGINHMM>
<NUMSTATES> 5
<STATE> 2
<MEAN> 25
 8.054229e+00 1.132125e+00 5.256305e-01 3.490106e+00 9.557617e-02 -2.095809e+00 -4.257664e+00 -5.601512e+00 -5.843416e+00 -1.415914e+00 -9.068606e-01 -4.601419e+00 3.964704e-01 7.792428e-01 3.772210e-01 1.190648e+00 3.040087e-01 -3.080184e-01 -4.443842e-02 -1.119876e+00 -1.303234e+00 -6.006116e-02 5.052190e-01 -5.138369e-01 -7.527530e-01
<VARIANCE> 25
 2.108686e+01 4.901123e+01 3.550746e+01 5.542537e+01 4.225924e+01 5.311430e+01 6.698916e+01 7.238774e+01 6.352432e+01 5.287032e+01 6.244751e+01 5.158730e+01 1.317718e+00 2.615955e+00 2.431019e+00 3.333674e+00 2.976967e+00 3.097479e+00 3.517418e+00 4.698159e+00 4.850333e+00 4.118940e+00 3.730604e+00 3.533625e+00 1.984249e+00
<GCONST> 1.074872e+02
<STATE> 3
<MEAN> 25
 8.518401e+00 3.098567e+00 1.653865e+00 5.751541e+00 1.977282e-01 -2.483825e+00 -3.433781e+00 -7.121819e+00 -8.799294e+00 -1.917355e+00 2.648360e-01 -5.176477e+00 -9.709542e-02 -1.455599e-01 6.230905e-02 -1.856944e-01 -1.886147e-01 2.180677e-01 2.111795e-01 2.382936e-01 7.954460e-02 -1.786354e-01 -3.606354e-02 8.261054e-02 1.097982e-01
<VARIANCE> 25
 1.656623e+01 3.537386e+01 3.423680e+01 4.584913e+01 4.193124e+01 5.091579e+01 6.905587e+01 6.513972e+01 6.617365e+01 4.946302e+01 6.650523e+01 5.274461e+01 7.328641e-01 2.495808e+00 1.885392e+00 3.164160e+00 2.234865e+00 2.621179e+00 2.762773e+00 3.672210e+00 3.908018e+00 2.753005e+00 3.157436e+00 3.015572e+00 2.011806e+00
<GCONST> 1.038158e+02
<STATE> 4
<MEAN> 25
 6.018332e+00 1.567890e+00 7.328019e-01 2.958765e+00 8.305123e-01 1.188676e+00 -5.479740e-02 -3.884887e+00 -4.075098e+00 -2.076397e+00 2.934040e-01 -2.806262e+00 -4.477813e-01 -8.308716e-01 -2.795899e-01 -1.232967e+00 -5.198618e-01 4.416125e-01 1.924834e-01 1.026506e+00 1.269409e+00 1.592358e-01 -2.897404e-01 4.134576e-01 6.392899e-01
<VARIANCE> 25
 3.137535e+01 4.797826e+01 3.762582e+01 6.474848e+01 5.036055e+01 6.463404e+01 7.751729e+01 6.309328e+01 8.226897e+01 6.417561e+01 5.135522e+01 5.000291e+01 1.056508e+00 3.017835e+00 2.723866e+00 4.683234e+00 3.560366e+00 3.326433e+00 3.725461e+00 4.524697e+00 5.648315e+00 4.042931e+00 4.286522e+00 3.835501e+00 2.706434e+00
<GCONST> 1.099932e+02
<TRANSP> 5
 0.000000e+00 1.000000e+00 0.000000e+00 0.000000e+00 0.000000e+00
 0.000000e+00 5.897118e-01 4.102882e-01 0.000000e+00 0.000000e+00
 0.000000e+00 0.000000e+00 5.316349e-01 4.683651e-01 0.000000e+00
 0.000000e+00 0.000000e+00 0.000000e+00 6.693144e-01 3.306855e-01
 0.000000e+00 0.000000e+00 0.000000e+00 0.000000e+00 0.000000e+00
<ENDHMM>
~h "n"
<BEGINHMM>
<NUMSTATES> 5
<STATE> 2
<MEAN> 25
 6.025519e+00 1.176167e-01 3.184696e+00 1.000291e+00 -4.868757e+00 -3.439961e+00 -1.040179e+00 -1.035658e+00 -4.932593e+00 -2.973831e+00 -3.932539e+00 -1.965967e+00 4.436176e-01 1.183887e+00 4.469897e-01 9.957523e-01 1.101618e-01 -1.996377e-01 7.010373e-02 -1.146113e+00 -8.233508e-01 2.231758e-01 -2.898690e-01 -1.138069e-01 -1.025107e+00
<VARIANCE> 25
 1.871498e+01 5.151006e+01 3.557997e+01 4.493322e+01 5.347984e+01 5.148033e+01 5.752315e+01 7.211500e+01 6.258262e+01 5.436418e+01 4.458392e+01 4.122956e+01 9.046171e-01 2.713713e+00 2.371104e+00 2.866586e+00 3.331681e+00 3.580350e+00 3.701127e+00 5.349635e+00 4.031966e+00 3.590987e+00 2.733941e+00 2.524140e+00 2.144820e+00
<GCONST> 1.057412e+02
<STATE> 3
<MEAN> 25
 7.180151e+00 4.104491e+00 4.082312e+00 3.946644e+00 -3.682785e+00 -3.537809e+00 -7.945353e-01 -4.865236e+00 -6.377293e+00 -1.753700e+00 -4.492966e+00 -2.266399e+00 4.845858e-05 6.307170e-01 1.632871e-01 4.819752e-01 3.595910e-01 2.391392e-01 5.279104e-02 -5.297134e-01 -1.112057e-01 2.942266e-02 -1.322554e-02 -1.924765e-02 -7.061779e-01
<VARIANCE> 25
 1.710241e+01 3.766345e+01 2.798297e+01 3.922225e+01 4.533256e+01 4.287375e+01 5.030465e+01 6.588844e+01 5.850151e+01 5.521867e+01 4.635237e+01 4.498162e+01 8.479499e-01 2.932464e+00 1.806237e+00 2.447689e+00 2.589087e+00 2.948256e+00 3.047111e+00 5.163377e+00 3.811081e+00 3.348713e+00 2.520317e+00 2.371375e+00 1.791565e+00
<GCONST> 1.029200e+02
<STATE> 4
<MEAN> 25
 5.059627e+00 4.015173e+00 3.338471e+00 4.318010e+00 -8.490243e-01 -1.117980e+00 6.707937e-02 -3.283336e+00 -4.052960e+00 -2.008574e+00 -3.139518e+00 -1.443695e+00 -7.700115e-01 -4.217428e-01 -1.913550e-01 -2.747912e-01 4.796199e-01 5.487772e-01 4.017776e-02 6.776176e-01 8.018268e-01 -6.889772e-02 4.275175e-01 2.021474e-01 -8.609476e-02
<VARIANCE> 25
 2.555162e+01 4.337380e+01 2.847130e+01 3.939893e+01 4.983432e+01 4.199780e+01 4.723292e+01 6.149542e+01 5.293674e+01 5.163165e+01 4.147587e+01 3.759910e+01 1.718259e+00 3.241023e+00 2.132027e+00 2.879691e+00 3.120790e+00 3.337305e+00 3.469784e+00 4.459267e+00 4.266892e+00 3.748716e+00 3.045675e+00 2.871077e+00 2.325517e+00
<GCONST> 1.052648e+02
<TRANSP> 5
 0.000000e+00 1.000000e+00 0.000000e+00 0.000000e+00 0.000000e+00
 0.000000e+00 6.182984e-01 3.817015e-01 0.000000e+00 0.000000e+00
 0.000000e+00 0.000000e+00 5.497944e-01 4.502055e-01 0.000000e+00
 0.000000e+00 0.000000e+00 0.000000e+00 6.400486e-01 3.599515e-01
 0.000000e+00 0.000000e+00 0.000000e+00 0.000000e+00 0.000000e+00
<ENDHMM>
~h "p"
<BEGINHMM>
<NUMSTATES> 5
<STATE> 2
<MEAN> 25
 -9.332070e-01 2.939252e+00 -2.045913e-01 4.073443e+00 3.795250e+00 2.734164e+00 3.641165e+00 9.975253e-01 2.923558e+00 2.482869e+00 2.731738e+00 1.201174e+00 -7.487048e-01 -2.381203e-01 -1.176599e-01 2.510400e-01 5.807735e-01 5.227026e-01 6.992897e-01 5.819672e-01 5.959845e-01 5.172241e-01 4.849155e-01 4.906332e-01 -6.981981e-01
<VARIANCE> 25
 3.108139e+01 2.504556e+01 2.601561e+01 2.842195e+01 2.677973e+01 3.088181e+01 3.072080e+01 3.015991e+01 2.887075e+01 2.748243e+01 2.550539e+01 2.307926e+01 2.471259e+00 2.437195e+00 2.121637e+00 2.368769e+00 2.710677e+00 3.047932e+00 2.965312e+00 3.064282e+00 2.892987e+00 2.786840e+00 2.424306e+00 2.194721e+00 6.546746e+00
<GCONST> 9.917991e+01
<STATE> 3
<MEAN> 25
 -3.485951e+00 -3.193473e-01 -1.159715e+00 3.132106e+00 5.495613e+00 3.505901e+00 4.678511e+00 2.472241e+00 4.559605e+00 3.726725e+00 3.671670e+00 2.678864e+00 -4.135100e-01 -1.063786e+00 -2.682700e-01 -2.345830e-01 9.088151e-02 -8.304752e-03 1.874037e-02 1.588965e-01 2.474786e-01 1.263524e-01 1.486066e-01 3.042455e-01 1.689238e+00
<VARIANCE> 25
 2.340708e+01 3.042419e+01 2.446416e+01 2.533864e+01 2.646560e+01 3.043271e+01 3.119087e+01 3.339307e+01 2.987644e+01 2.521208e+01 2.538489e+01 2.458584e+01 2.577753e+00 3.433463e+00 2.563000e+00 3.203403e+00 3.126418e+00 3.633672e+00 3.771951e+00 3.280415e+00 3.209533e+00 2.736006e+00 2.790743e+00 2.362382e+00 7.943383e+00
<GCONST> 1.010078e+02
<STATE> 4
<MEAN> 25
 -2.415810e+00 -3.114358e+00 -1.811474e+00 1.493375e+00 4.809277e+00 3.049118e+00 3.224390e+00 1.611606e+00 3.189750e+00 2.465716e+00 2.167494e+00 2.315029e+00 1.173591e+00 -5.454767e-01 -2.675280e-01 -1.035143e+00 -6.298852e-01 -5.026438e-01 -1.072639e+00 -5.462092e-01 -1.002863e+00 -9.879166e-01 -9.142890e-01 -4.575905e-01 1.947549e+00
<VARIANCE> 25
 3.141957e+01 3.983739e+01 4.868255e+01 4.143343e+01 5.366966e+01 4.977905e+01 5.606250e+01 4.341804e+01 4.052413e+01 3.619568e+01 3.314394e+01 2.673005e+01 5.239764e+00 4.802073e+00 4.968367e+00 4.768497e+00 5.203815e+00 6.961464e+00 7.014500e+00 4.893476e+00 5.669611e+00 4.468966e+00 4.381260e+00 3.172883e+00 7.271620e+00
<GCONST> 1.118182e+02
<TRANSP> 5
 0.000000e+00 1.000000e+00 0.000000e+00 0.000000e+00 0.000000e+00
 0.000000e+00 7.618670e-01 2.381330e-01 0.000000e+00 0.000000e+00
 0.000000e+00 0.000000e+00 6.815872e-01 3.184128e-01 0.000000e+00
 0.000000e+00 0.000000e+00 0.000000e+00 6.479349e-01 3.520652e-01
 0.000000e+00 0.000000e+00 0.000000e+00 0.000000e+00 0.000000e+00
<ENDHMM>
~h "r"
<BEGINHMM>
<NUMSTATES> 5
<STATE> 2
<MEAN> 25
 8.344334e+00 -4.387665e+00 -7.089500e+00 2.356324e+00 8.772057e-01 -6.039656e+00 -8.225623e+00 2.215391e+00 -1.523314e+00 -2.041758e+00 1.341204e+00 4.139113e-01 1.320180e+00 -4.161357e-01 -8.670046e-01 4.385842e-01 2.266963e-01 -1.461706e+00 -1.682924e+00 8.674822e-01 3.601880e-01 -6.079620e-01 -3.124148e-01 1.120698e-01 4.550352e-01
<VARIANCE> 25
 4.732305e+01 4.230109e+01 8.160167e+01 4.104593e+01 6.939095e+01 7.432452e+01 9.530746e+01 8.980840e+01 6.803305e+01 5.310888e+01 4.251130e+01 4.384432e+01 4.561885e+00 3.142919e+00 5.088394e+00 3.731415e+00 5.405141e+00 5.643108e+00 6.513033e+00 5.806730e+00 5.394780e+00 4.562578e+00 3.802955e+00 3.178885e+00 2.655964e+00
<GCONST> 1.143207e+02
<STATE> 3
<MEAN> 25
 1.049586e+01 -6.361412e+00 -8.515552e+00 3.808300e+00 1.539960e+00 -9.376737e+00 -1.193340e+01 5.989618e+00 4.077199e-01 -2.737099e+00 2.005579e-01 4.174366e-01 1.230708e-02 -2.797972e-01 6.685265e-01 2.993416e-01 -7.108163e-01 -6.625109e-01 3.062791e-01 6.185231e-01 -2.251467e-02 -2.646037e-01 -2.695424e-01 -1.612293e-01 1.123453e-01
<VARIANCE> 25
 2.307130e+01 3.133041e+01 6.129963e+01 3.690752e+01 5.829493e+01 7.096931e+01 1.047846e+02 8.959120e+01 6.466828e+01 5.074368e+01 3.891188e+01 4.263566e+01 2.325829e+00 3.049716e+00 4.622598e+00 2.671317e+00 5.288525e+00 4.487116e+00 6.408088e+00 5.799743e+00 4.525312e+00 3.721145e+00 3.340664e+00 2.895481e+00 2.264655e+00
<GCONST> 1.104045e+02
<STATE> 4
<MEAN> 25
 8.629882e+00 -6.210440e+00 -4.438083e+00 4.283490e+00 -1.432147e+00 -9.553154e+00 -6.567713e+00 6.767694e+00 -7.064479e-01 -2.607871e+00 1.465724e-01 -5.257350e-01 -8.279012e-01 5.464385e-01 1.647179e+00 -3.026632e-01 -9.022774e-01 7.641357e-01 1.639848e+00 -8.382275e-01 -5.419313e-01 2.826871e-01 4.402155e-02 -3.396173e-01 -5.117534e-01
<VARIANCE> 25
 2.460991e+01 3.616241e+01 6.359287e+01 4.134144e+01 7.255931e+01 7.728764e+01 8.296267e+01 8.274169e+01 6.644698e+01 5.652487e+01 4.339180e+01 4.191289e+01 2.048373e+00 2.762655e+00 3.663828e+00 2.786222e+00 4.681715e+00 3.937500e+00 5.024160e+00 4.665634e+00 4.565380e+00 3.828731e+00 3.095690e+00 2.779473e+00 2.425992e+00
<GCONST> 1.098401e+02
<TRANSP> 5
 0.000000e+00 1.000000e+00 0.000000e+00 0.000000e+00 0.000000e+00
 0.000000e+00 5.935221e-01 4.064779e-01 0.000000e+00 0.000000e+00
 0.000000e+00 0.000000e+00 5.248978e-01 4.751022e-01 0.000000e+00
 0.000000e+00 0.000000e+00 0.000000e+00 6.476840e-01 3.523161e-01
 0.000000e+00 0.000000e+00 0.000000e+00 0.000000e+00 0.000000e+00
<ENDHMM>
~h "s"
<BEGINHMM>
<NUMSTATES> 5
<STATE> 2
<MEAN> 25
 -1.083066e+01 7.364560e+00 -6.080019e-02 1.936271e+00 4.404857e+00 -1.891006e+00 1.967942e+00 3.755130e-01 1.549345e+00 -7.596462e-01 -2.189994e-02 8.873633e-01 -4.427598e+00 1.230652e+00 -8.851711e-01 7.492845e-02 1.520914e+00 9.746151e-01 1.384365e+00 1.004945e+00 5.588564e-01 4.646557e-01 1.071754e+00 7.052764e-01 6.177991e-02
<VARIANCE> 25
 7.474196e+01 4.141482e+01 4.873297e+01 5.098202e+01 5.043111e+01 5.996740e+01 5.060308e+01 4.818542e+01 3.943989e+01 3.561921e+01 3.377776e+01 2.938049e+01 4.209482e+00 4.425449e+00 4.321257e+00 4.884944e+00 3.958939e+00 4.839877e+00 4.553980e+00 4.041470e+00 3.687515e+00 4.329051e+00 3.079882e+00 2.858374e+00 1.811820e+00
<GCONST> 1.091434e+02
<STATE> 3
<MEAN> 25
 -2.089112e+01 8.200419e+00 -4.821821e+00 1.500363e+00 7.044415e+00 6.689084e-01 4.913250e+00 2.990323e+00 2.376487e+00 1.396648e+00 2.688497e+00 3.107687e+00 -5.310596e-01 -1.019049e-01 -2.374989e-01 -1.259561e-01 1.166723e-01 2.039233e-01 1.821029e-01 1.838496e-01 9.831706e-02 1.975699e-01 1.585061e-01 1.617294e-01 -2.345044e-01
<VARIANCE> 25
 3.483515e+01 3.253886e+01 3.506665e+01 6.606458e+01 3.754333e+01 4.942179e+01 3.644251e+01 3.233169e+01 2.936350e+01 2.369835e+01 2.390315e+01 2.062268e+01 2.353573e+00 1.417509e+00 1.608613e+00 1.596600e+00 1.735895e+00 1.994587e+00 1.888357e+00 1.871737e+00 1.927717e+00 1.857520e+00 1.716812e+00 1.444859e+00 1.179835e+00
<GCONST> 9.507314e+01
<STATE> 4
<MEAN> 25
 -1.353244e+01 4.806703e+00 -2.097251e+00 1.893304e+00 6.618822e+00 1.432363e+00 4.587927e+00 3.646979e+00 4.047179e+00 2.562783e+00 2.361582e+00 3.049074e+00 2.180630e+00 -6.838067e-01 4.696707e-01 -1.378552e-01 -7.845767e-01 -4.001681e-01 -6.728732e-01 -4.085115e-01 -1.419139e-01 -1.320115e-01 -4.378323e-01 -3.533896e-01 -2.470399e-01
<VARIANCE> 25
 7.226827e+01 3.942260e+01 3.218493e+01 4.945850e+01 4.489341e+01 5.574287e+01 4.893756e+01 3.919572e+01 3.618454e+01 3.267302e+01 2.954296e+01 2.290511e+01 6.160676e+00 2.940825e+00 2.382251e+00 3.352438e+00 3.488013e+00 3.946206e+00 3.928045e+00 3.100610e+00 2.731742e+00 2.695812e+00 2.970590e+00 2.092001e+00 3.770028e+00
<GCONST> 1.054979e+02
<TRANSP> 5
 0.000000e+00 1.000000e+00 0.000000e+00 0.000000e+00 0.000000e+00
 0.000000e+00 7.020831e-01 2.979169e-01 0.000000e+00 0.000000e+00
 0.000000e+00 0.000000e+00 8.334244e-01 1.665755e-01 0.000000e+00
 0.000000e+00 0.000000e+00 0.000000e+00 8.312495e-01 1.687505e-01
 0.000000e+00 0.000000e+00 0.000000e+00 0.000000e+00 0.000000e+00
<ENDHMM>
~h "t"
<BEGINHMM>
<NUMSTATES> 5
<STATE> 2
<MEAN> 25
 -3.656215e+00 1.168707e+00 1.088110e+00 1.835607e+00 2.188440e+00 7.799654e-01 2.098047e+00 1.006205e+00 2.359631e+00 1.436267e+00 1.320518e+00 1.347878e+00 -1.535352e+00 -2.158444e-01 -4.619388e-02 -2.585110e-01 2.600574e-01 9.147998e-02 5.686191e-01 3.008110e-01 5.224247e-01 4.115118e-01 6.370902e-01 5.094079e-01 6.416807e-01
<VARIANCE> 25
 7.313710e+01 4.421828e+01 4.427700e+01 4.346680e+01 5.703928e+01 6.145118e+01 4.895646e+01 4.648865e+01 4.564854e+01 3.951352e+01 3.991002e+01 2.981290e+01 6.841460e+00 5.173600e+00 3.816652e+00 5.513485e+00 5.648329e+00 5.925410e+00 4.848973e+00 5.335540e+00 4.620575e+00 3.945487e+00 3.894965e+00 3.042306e+00 1.247507e+01
<GCONST> 1.133382e+02
<STATE> 3
<MEAN> 25
 -7.560351e+00 1.388170e-01 6.956948e-01 3.484812e-01 1.732615e+00 1.154421e-01 3.405183e+00 1.702450e+00 3.015271e+00 2.073996e+00 2.498546e+00 2.383914e+00 -4.756975e-01 -2.976390e-01 1.914179e-01 -2.698381e-01 -4.828508e-01 -6.439329e-01 9.000432e-02 -1.682090e-02 -1.041530e-01 -4.523080e-02 7.257178e-02 8.209112e-02 1.400497e+00
<VARIANCE> 25
 8.313782e+01 4.573126e+01 4.048342e+01 4.387816e+01 5.534870e+01 5.829070e+01 5.067584e+01 4.483153e+01 4.131454e+01 3.931191e+01 3.994943e+01 3.132640e+01 8.549370e+00 4.516822e+00 4.282065e+00 5.145924e+00 5.814916e+00 6.431861e+00 5.468815e+00 5.164495e+00 4.481790e+00 4.175108e+00 4.143357e+00 3.285251e+00 1.050963e+01
<GCONST> 1.136061e+02
<STATE> 4
<MEAN> 25
 -5.447489e+00 -9.389459e-01 1.218660e+00 6.762818e-01 6.132498e-02 -1.988255e+00 2.765711e+00 1.334097e+00 1.730635e+00 1.206100e+00 1.228750e+00 1.832888e+00 1.571053e+00 -1.060343e-01 1.139382e-01 8.124894e-02 -6.083887e-01 -5.880088e-01 -8.575073e-01 -4.259731e-01 -7.051753e-01 -5.378872e-01 -5.443360e-01 -5.197700e-01 4.407233e-01
<VARIANCE> 25
 8.421890e+01 5.381201e+01 5.132849e+01 4.900969e+01 6.494434e+01 6.413608e+01 5.802925e+01 5.495599e+01 5.158532e+01 4.326679e+01 4.089509e+01 3.557306e+01 8.059833e+00 4.184994e+00 4.858344e+00 4.838908e+00 5.988283e+00 6.725821e+00 5.913107e+00 5.535457e+00 5.218317e+00 4.860754e+00 4.728007e+00 3.452768e+00 5.981839e+00
<GCONST> 1.152660e+02
<TRANSP> 5
 0.000000e+00 1.000000e+00 0.000000e+00 0.000000e+00 0.000000e+00
 0.000000e+00 4.950897e-01 5.049103e-01 0.000000e+00 0.000000e+00
 0.000000e+00 0.000000e+00 4.426147e-01 5.573853e-01 0.000000e+00
 0.000000e+00 0.000000e+00 0.000000e+00 5.450094e-01 4.549907e-01
 0.000000e+00 0.000000e+00 0.000000e+00 0.000000e+00 0.000000e+00
<ENDHMM>
~h "v"
<BEGINHMM>
<NUMSTATES> 5
<STATE> 2
<MEAN> 25
 6.845203e+00 -4.001008e-01 -2.086107e+00 1.134547e+00 -1.547128e+00 -1.274579e+00 -4.600004e+00 -3.050463e+00 1.584199e+00 1.806259e+00 -1.325185e+00 -1.889742e+00 -5.059370e-01 1.706358e+00 2.397946e-01 1.265436e+00 1.235259e+00 8.251271e-01 3.724627e-01 -7.476254e-01 -5.560681e-01 -8.946259e-02 5.597500e-01 1.132866e-01 -1.658882e+00
<VARIANCE> 25
 2.107544e+01 3.745636e+01 3.294954e+01 4.077249e+01 3.762115e+01 5.115038e+01 3.985838e+01 4.901816e+01 4.534371e+01 4.092406e+01 4.165210e+01 2.705101e+01 2.722549e+00 3.168899e+00 2.390460e+00 3.493822e+00 3.837316e+00 4.466286e+00 4.231339e+00 4.509604e+00 4.037635e+00 3.131186e+00 3.127523e+00 2.661321e+00 2.593265e+00
<GCONST> 1.051907e+02
<STATE> 3
<MEAN> 25
 4.520576e+00 4.024684e+00 -4.926076e-01 4.235702e+00 1.530041e+00 8.371848e-01 -2.531206e+00 -3.624421e+00 2.602339e-02 7.324424e-01 -3.112109e-01 -1.536292e+00 -1.466131e+00 1.213828e+00 6.514825e-01 1.008902e+00 9.792265e-01 7.102000e-01 9.954156e-01 2.753748e-01 -2.974094e-01 -3.644500e-01 1.229407e-01 5.883723e-02 -1.257062e+00
<VARIANCE> 25
 2.685405e+01 2.740042e+01 2.846470e+01 3.453297e+01 3.183585e+01 3.520367e+01 3.641721e+01 3.679176e+01 3.720528e+01 3.373950e+01 3.497057e+01 2.260215e+01 3.092802e+00 3.321216e+00 2.188034e+00 3.197505e+00 3.241874e+00 3.659633e+00 3.497581e+00 3.710181e+00 3.359586e+00 3.051694e+00 2.826443e+00 2.492108e+00 2.396115e+00
<GCONST> 1.019332e+02
<STATE> 4
<MEAN> 25
 -7.032187e-01 3.341092e+00 4.667774e-02 4.741754e+00 2.759886e+00 2.134998e+00 1.646176e+00 -3.978123e-01 1.446402e+00 9.523156e-01 8.032226e-01 4.103638e-01 -4.106246e-01 -3.307975e-01 -7.226150e-02 -1.062738e-01 -2.444607e-02 -3.982773e-02 1.622944e-01 2.470175e-01 6.945825e-02 3.587727e-02 8.058090e-02 1.316459e-01 6.487875e-02
<VARIANCE> 25
 3.555331e+01 2.823912e+01 2.573289e+01 2.838847e+01 3.037930e+01 3.114487e+01 3.922237e+01 3.074123e+01 3.932964e+01 2.733745e+01 2.698215e+01 2.339507e+01 3.328848e+00 2.557018e+00 1.935333e+00 2.673201e+00 2.674581e+00 2.564060e+00 2.873383e+00 2.592194e+00 2.650955e+00 2.605981e+00 2.195034e+00 1.889987e+00 2.063193e+00
<GCONST> 9.862579e+01
<TRANSP> 5
 0.000000e+00 1.000000e+00 0.000000e+00 0.000000e+00 0.000000e+00
 0.000000e+00 4.980639e-01 5.019361e-01 0.000000e+00 0.000000e+00
 0.000000e+00 0.000000e+00 4.468672e-01 5.531329e-01 0.000000e+00
 0.000000e+00 0.000000e+00 0.000000e+00 7.530842e-01 2.469158e-01
 0.000000e+00 0.000000e+00 0.000000e+00 0.000000e+00 0.000000e+00
<ENDHMM>
~h "w"
<BEGINHMM>
<NUMSTATES> 5
<STATE> 2
<MEAN> 25
 5.827814e+00 3.352220e+00 -2.523663e+00 -8.169288e-01 4.061224e-01 1.596242e+00 -6.298178e-01 -2.704073e+00 -1.606375e+00 8.548045e-01 1.113570e-01 -1.667824e-01 1.132347e+00 7.088267e-01 -5.904837e-01 -1.228616e+00 -5.185935e-01 5.133364e-01 -1.310178e-01 -5.493629e-01 -6.730977e-01 -2.718700e-01 6.111801e-03 -1.828094e-02 7.874751e-02
<VARIANCE> 25
 4.424815e+01 4.686560e+01 3.441778e+01 4.974510e+01 4.807378e+01 4.580463e+01 5.048733e+01 4.364101e+01 5.689385e+01 4.648634e+01 3.138344e+01 2.975470e+01 2.731677e+00 2.553614e+00 2.924400e+00 4.716165e+00 4.691643e+00 4.302331e+00 4.866934e+00 4.563380e+00 5.163888e+00 4.052395e+00 3.204811e+00 2.857051e+00 3.813954e+00
<GCONST> 1.084100e+02
<STATE> 3
<MEAN> 25
 9.658052e+00 5.201982e+00 -4.194751e+00 -6.166016e+00 -2.801332e+00 3.128068e+00 -1.108699e+00 -3.765212e+00 -3.979835e+00 -1.003755e+00 2.449752e-01 -5.815821e-01 6.131360e-01 -5.623896e-01 -5.354458e-01 -1.494958e+00 -6.135661e-01 5.259942e-01 -7.405297e-01 -4.068189e-01 -3.561989e-01 2.295498e-01 2.930351e-01 -7.502820e-02 1.347674e+00
<VARIANCE> 25
 2.909507e+01 3.149301e+01 3.448213e+01 6.640141e+01 5.288486e+01 4.193733e+01 4.563577e+01 4.486776e+01 6.535053e+01 4.152262e+01 3.336427e+01 3.529814e+01 2.254381e+00 3.825739e+00 3.208779e+00 6.270898e+00 5.135001e+00 5.186937e+00 6.191601e+00 5.566330e+00 5.259432e+00 5.572314e+00 3.991544e+00 3.284055e+00 4.471890e+00
<GCONST> 1.102369e+02
<STATE> 4
<MEAN> 25
 9.122477e+00 -2.820998e-01 -5.632711e+00 -9.099583e+00 -2.459972e+00 4.173416e+00 -5.124637e+00 -3.459850e+00 -2.684745e+00 1.313906e+00 4.101499e-01 -2.776027e+00 -5.240551e-01 -1.478259e+00 3.145245e-01 5.682648e-01 5.597433e-02 -1.015431e+00 -8.789927e-01 5.944161e-01 7.473228e-01 3.928001e-01 -5.660537e-01 -5.384327e-01 1.317158e+00
<VARIANCE> 25
 2.077310e+01 4.415669e+01 3.790356e+01 7.896407e+01 5.233849e+01 7.648438e+01 7.826492e+01 6.375047e+01 6.923623e+01 7.272678e+01 6.229471e+01 4.754364e+01 1.358616e+00 3.403456e+00 3.842986e+00 6.434451e+00 6.103969e+00 7.262093e+00 6.885111e+00 6.086481e+00 6.189084e+00 6.381997e+00 5.526547e+00 4.183021e+00 2.929910e+00
<GCONST> 1.142581e+02
<TRANSP> 5
 0.000000e+00 1.000000e+00 0.000000e+00 0.000000e+00 0.000000e+00
 0.000000e+00 6.164017e-01 3.835983e-01 0.000000e+00 0.000000e+00
 0.000000e+00 0.000000e+00 5.761649e-01 4.238351e-01 0.000000e+00
 0.000000e+00 0.000000e+00 0.000000e+00 7.171168e-01 2.828832e-01
 0.000000e+00 0.000000e+00 0.000000e+00 0.000000e+00 0.000000e+00
<ENDHMM>
~h "y"
<BEGINHMM>
<NUMSTATES> 5
<STATE> 2
<MEAN> 25
 -3.241141e+00 4.196166e+00 1.080255e+01 1.395754e+00 -3.143579e+00 -1.425686e+00 1.157952e+00 -2.709562e+00 -4.003735e+00 -1.217838e+00 1.165597e+00 6.391815e-01 8.051697e-01 6.468936e-02 2.145958e+00 3.375959e-03 -1.768152e+00 -3.643864e-01 -9.337690e-01 -8.366803e-01 -1.668023e+00 -5.800949e-01 2.831294e-02 -4.262670e-01 1.010772e+00
<VARIANCE> 25
 7.086494e+01 5.895509e+01 5.785454e+01 4.329253e+01 5.907518e+01 5.369992e+01 6.297305e+01 5.103841e+01 5.083861e+01 4.145322e+01 4.173045e+01 3.356901e+01 4.598303e+00 3.547239e+00 5.011276e+00 4.244560e+00 4.696402e+00 4.614084e+00 6.354610e+00 4.067206e+00 5.340221e+00 4.129538e+00 3.372593e+00 2.621646e+00 2.329162e+00
<GCONST> 1.114416e+02
<STATE> 3
<MEAN> 25
 1.125164e+00 2.359117e+00 1.513949e+01 7.065276e-01 -1.108410e+01 -3.434702e+00 -3.888952e+00 -5.771465e+00 -9.421243e+00 -2.514842e+00 1.266073e-01 -2.197408e+00 4.758473e-01 -6.791089e-01 8.304923e-01 -1.949597e-01 -1.724438e+00 -3.176933e-01 -6.255694e-01 -3.710060e-02 -8.484365e-01 -1.914481e-01 3.830268e-01 -5.132440e-01 7.620093e-01
<VARIANCE> 25
 3.403196e+01 3.513313e+01 4.935937e+01 6.073717e+01 4.875253e+01 5.968796e+01 5.374955e+01 4.382494e+01 5.500842e+01 5.538930e+01 4.458652e+01 4.836938e+01 2.239000e+00 2.256325e+00 4.809052e+00 3.417214e+00 3.499741e+00 5.884845e+00 4.864102e+00 4.486077e+00 5.298321e+00 3.597373e+00 3.829340e+00 2.901995e+00 1.540656e+00
<GCONST> 1.087926e+02
<STATE> 4
<MEAN> 25
 2.392090e+00 -1.041952e-01 1.191827e+01 1.181890e+00 -1.159923e+01 -4.928297e+00 -5.287585e+00 -4.110497e+00 -8.486907e+00 -3.349449e+00 9.968978e-01 -3.042492e+00 4.416227e-01 -3.521725e-01 -1.201052e+00 2.603464e-01 5.104439e-01 -3.178836e-01 -2.756044e-01 2.163239e-01 5.874952e-01 -5.029956e-02 -1.848165e-01 7.983752e-02 -5.498774e-02
<VARIANCE> 25
 2.256867e+01 2.793208e+01 7.018465e+01 6.075667e+01 4.917684e+01 6.768869e+01 6.856424e+01 5.324348e+01 6.842945e+01 7.949386e+01 4.938763e+01 5.823973e+01 7.514570e-01 1.314091e+00 2.597974e+00 1.970329e+00 2.657800e+00 3.311233e+00 3.867935e+00 3.500334e+00 3.917289e+00 3.261893e+00 2.497784e+00 2.475977e+00 8.009004e-01
<GCONST> 1.041785e+02
<TRANSP> 5
 0.000000e+00 1.000000e+00 0.000000e+00 0.000000e+00 0.000000e+00
 0.000000e+00 6.419655e-01 3.580345e-01 0.000000e+00 0.000000e+00
 0.000000e+00 0.000000e+00 4.996926e-01 5.003074e-01 0.000000e+00
 0.000000e+00 0.000000e+00 0.000000e+00 8.411133e-01 1.588867e-01
 0.000000e+00 0.000000e+00 0.000000e+00 0.000000e+00 0.000000e+00
<ENDHMM>
~h "z"
<BEGINHMM>
<NUMSTATES> 5
<STATE> 2
<MEAN> 25
 -3.008554e+00 1.029236e+01 2.048208e+00 1.991933e+00 1.340156e+00 -7.458902e+00 -4.628119e+00 -3.627142e+00 -1.100644e-01 -1.039815e+00 -2.424492e+00 8.373668e-01 -3.828585e+00 2.699356e+00 -6.175919e-01 7.571723e-01 2.265746e+00 7.726765e-01 1.448815e+00 5.053870e-01 3.494588e-01 -1.343050e-01 6.446083e-01 2.382414e-01 -5.009791e-01
<VARIANCE> 25
 4.875974e+01 4.738520e+01 4.295530e+01 4.381599e+01 6.559510e+01 5.845999e+01 5.616613e+01 4.395099e+01 3.653564e+01 4.817112e+01 3.406730e+01 2.974396e+01 3.069835e+00 4.607143e+00 3.372065e+00 5.190165e+00 3.951952e+00 5.968138e+00 4.812477e+00 6.061061e+00 3.825840e+00 3.979989e+00 3.574738e+00 3.159794e+00 1.200001e+00
<GCONST> 1.090646e+02
<STATE> 3
<MEAN> 25
 -1.493261e+01 1.393163e+01 -3.911632e-01 3.716281e+00 6.617254e+00 -2.625499e+00 5.284011e-01 -1.530451e-01 6.868942e-01 -3.259834e-01 3.217868e-01 1.770921e+00 -2.135592e+00 -4.065080e-01 -6.500536e-01 2.664334e-02 6.605182e-01 1.005644e+00 9.703029e-01 9.756521e-01 4.215567e-01 4.825139e-01 6.218264e-01 3.221446e-01 -3.493356e-01
<VARIANCE> 25
 3.773774e+01 3.060170e+01 4.488307e+01 5.750824e+01 5.491785e+01 5.331837e+01 4.699701e+01 4.690756e+01 3.714404e+01 3.254570e+01 2.888252e+01 2.302228e+01 4.975458e+00 2.876314e+00 2.497811e+00 2.875781e+00 2.964958e+00 3.587126e+00 3.469149e+00 3.112870e+00 2.975388e+00 2.912888e+00 2.366483e+00 2.336307e+00 1.184282e+00
<GCONST> 1.035472e+02
<STATE> 4
<MEAN> 25
 -1.262652e+01 6.601063e+00 -8.386082e-01 2.940104e+00 6.335146e+00 -3.627586e-02 2.337324e+00 2.763548e+00 2.838350e+00 1.105161e+00 1.729668e+00 2.396586e+00 1.567072e+00 -1.061489e+00 3.101113e-02 -8.729705e-02 -6.259595e-01 2.952459e-02 -2.312107e-01 -1.892433e-01 4.117564e-02 4.567531e-02 -7.112607e-02 -1.384895e-01 -4.556899e-01
<VARIANCE> 25
 6.705542e+01 6.153656e+01 3.812907e+01 5.394122e+01 4.571222e+01 6.241651e+01 6.432649e+01 5.237442e+01 3.927028e+01 3.022342e+01 3.784235e+01 2.355362e+01 5.223826e+00 3.002674e+00 2.143752e+00 2.944397e+00 3.512132e+00 3.931127e+00 4.149463e+00 3.688123e+00 3.412526e+00 2.719790e+00 2.555934e+00 2.151172e+00 3.025735e+00
<GCONST> 1.068394e+02
<TRANSP> 5
 0.000000e+00 1.000000e+00 0.000000e+00 0.000000e+00 0.000000e+00
 0.000000e+00 6.969954e-01 3.030046e-01 0.000000e+00 0.000000e+00
 0.000000e+00 0.000000e+00 5.934662e-01 4.065339e-01 0.000000e+00
 0.000000e+00 0.000000e+00 0.000000e+00 8.405371e-01 1.594629e-01
 0.000000e+00 0.000000e+00 0.000000e+00 0.000000e+00 0.000000e+00
<ENDHMM>
~h "aa"
<BEGINHMM>
<NUMSTATES> 5
<STATE> 2
<MEAN> 25
 4.910019e+00 -5.242077e+00 -7.203806e+00 -6.095007e+00 3.037792e+00 6.011649e+00 -1.784957e+00 -1.578987e+00 9.444221e-01 -7.408568e-01 -1.982754e+00 -2.610677e+00 9.293445e-01 -1.490805e+00 -1.206944e+00 -1.537684e+00 2.685052e-01 1.432634e+00 -2.666529e-01 -3.751813e-01 8.190817e-02 -6.005758e-01 -2.167112e-01 -8.109624e-01 1.389147e+00
<VARIANCE> 25
 3.440374e+01 4.601021e+01 4.631193e+01 5.166101e+01 6.523231e+01 9.174106e+01 7.433614e+01 6.748598e+01 5.586800e+01 5.623320e+01 5.671875e+01 4.012668e+01 3.363710e+00 3.543097e+00 3.883123e+00 4.337861e+00 5.755558e+00 6.701143e+00 5.115981e+00 6.100114e+00 5.141632e+00 4.392202e+00 5.132782e+00 3.792804e+00 2.933644e+00
<GCONST> 1.136515e+02
<STATE> 3
<MEAN> 25
 7.522034e+00 -8.822342e+00 -9.589200e+00 -9.942919e+00 3.607127e+00 9.655108e+00 -1.287068e+00 -3.726813e+00 6.578791e-01 -2.431334e+00 -1.065059e+00 -3.893716e+00 1.412374e-01 -4.367062e-01 -3.175047e-01 -2.226150e-02 3.224401e-01 4.481208e-02 -2.712971e-01 -2.408281e-02 8.881460e-02 -4.151295e-02 5.197480e-03 -2.704120e-01 2.796943e-01
<VARIANCE> 25
 1.860629e+01 3.816243e+01 3.557003e+01 5.933849e+01 6.128185e+01 7.731466e+01 9.935184e+01 5.791705e+01 4.857047e+01 4.879844e+01 5.726969e+01 4.387363e+01 8.465198e-01 1.416829e+00 1.444685e+00 2.259838e+00 2.320351e+00 3.178207e+00 2.842649e+00 3.047146e+00 2.445805e+00 2.464201e+00 2.670022e+00 2.154841e+00 9.179713e-01
<GCONST> 1.018703e+02
<STATE> 4
<MEAN> 25
 8.086824e+00 -8.102412e+00 -9.624413e+00 -6.623950e+00 3.368376e+00 5.196013e+00 -3.985917e+00 -2.036554e+00 1.152622e+00 -1.389826e+00 -3.808156e+00 -5.293121e+00 -2.354682e-02 8.563728e-01 4.948893e-01 8.918175e-01 -2.526150e-01 -1.148326e+00 -3.577303e-02 2.413713e-01 -5.352212e-02 1.539753e-01 -2.291950e-01 2.082338e-01 -8.015949e-01
<VARIANCE> 25
 1.526538e+01 4.515062e+01 4.042678e+01 4.451864e+01 4.148333e+01 8.022327e+01 8.271525e+01 5.865557e+01 5.613280e+01 5.557095e+01 5.835879e+01 4.007401e+01 8.544130e-01 2.400027e+00 2.087696e+00 2.856755e+00 2.877581e+00 3.475028e+00 3.506805e+00 3.536976e+00 2.875338e+00 3.117866e+00 2.874705e+00 2.386822e+00 1.797646e+00
<GCONST> 1.044080e+02
<TRANSP> 5
 0.000000e+00 1.000000e+00 0.000000e+00 0.000000e+00 0.000000e+00
 0.000000e+00 6.818932e-01 3.181068e-01 0.000000e+00 0.000000e+00
 0.000000e+00 0.000000e+00 6.874135e-01 3.125865e-01 0.000000e+00
 0.000000e+00 0.000000e+00 0.000000e+00 8.348231e-01 1.651769e-01
 0.000000e+00 0.000000e+00 0.000000e+00 0.000000e+00 0.000000e+00
<ENDHMM>
~h "ae"
<BEGINHMM>
<NUMSTATES> 5
<STATE> 2
<MEAN> 25
 1.659722e+00 -7.163343e+00 -1.057000e+00 -1.125415e+00 -3.901263e+00 -1.333524e+00 3.720742e+00 3.820302e+00 8.987266e-01 -2.763953e+00 -2.391562e+00 -1.082681e+00 4.627305e-01 -1.530488e+00 -3.805805e-01 -5.194927e-01 -6.098806e-01 1.376063e-01 1.939398e-01 6.137533e-01 -1.706883e-01 -7.540617e-01 -7.102364e-01 -2.279602e-01 1.535377e+00
<VARIANCE> 25
 3.055133e+01 4.846991e+01 3.950093e+01 3.760221e+01 7.093798e+01 5.876843e+01 6.941106e+01 5.137035e+01 6.185147e+01 4.572655e+01 4.628498e+01 4.002666e+01 2.353966e+00 3.687083e+00 2.766622e+00 3.147145e+00 4.302511e+00 3.686921e+00 5.514587e+00 4.467504e+00 4.302840e+00 3.508665e+00 3.979751e+00 3.189155e+00 4.264647e+00
<GCONST> 1.095361e+02
<STATE> 3
<MEAN> 25
 3.006254e+00 -1.061931e+01 -2.573573e+00 -1.730229e+00 -4.093722e+00 -6.776186e-01 3.019410e+00 3.729630e+00 -5.506155e-01 -5.042762e+00 -4.226335e+00 -1.925459e+00 1.588176e-01 -1.486090e-01 -2.130274e-01 1.468618e-01 2.184794e-01 8.936488e-02 -2.301450e-01 -8.210661e-02 1.236712e-01 -7.772103e-02 -2.089198e-01 -3.361183e-02 3.839058e-02
<VARIANCE> 25
 2.055546e+01 3.930007e+01 4.272798e+01 3.040011e+01 5.672594e+01 4.406667e+01 5.479331e+01 5.478720e+01 5.373306e+01 4.319081e+01 3.993577e+01 3.918973e+01 6.901343e-01 1.529070e+00 1.529659e+00 1.618386e+00 2.336573e+00 2.012858e+00 2.641314e+00 2.320945e+00 2.261399e+00 1.831201e+00 1.735589e+00 1.715687e+00 1.282395e+00
<GCONST> 9.782947e+01
<STATE> 4
<MEAN> 25
 3.516598e+00 -8.309391e+00 -3.636414e+00 -3.527482e-01 -2.321259e+00 -1.864291e+00 3.087843e+00 3.323595e+00 1.236428e+00 -3.393883e+00 -5.263788e+00 -1.668952e+00 8.488631e-02 1.140523e+00 3.037191e-01 4.233967e-01 3.327283e-01 -2.088993e-01 -3.066615e-01 -3.610275e-01 4.623737e-02 5.030635e-01 1.697522e-01 3.250806e-02 -1.029131e+00
<VARIANCE> 25
 2.996455e+01 4.158189e+01 4.340035e+01 3.170343e+01 5.370375e+01 4.470507e+01 6.478804e+01 4.802247e+01 5.006190e+01 4.342215e+01 4.076622e+01 4.136804e+01 1.329847e+00 2.516339e+00 1.867851e+00 2.212534e+00 2.821639e+00 2.661414e+00 3.086016e+00 3.138408e+00 2.553596e+00 2.353213e+00 2.326890e+00 2.167993e+00 3.085154e+00
<GCONST> 1.026942e+02
<TRANSP> 5
 0.000000e+00 1.000000e+00 0.000000e+00 0.000000e+00 0.000000e+00
 0.000000e+00 6.511313e-01 3.488687e-01 0.000000e+00 0.000000e+00
 0.000000e+00 0.000000e+00 7.118807e-01 2.881192e-01 0.000000e+00
 0.000000e+00 0.000000e+00 0.000000e+00 7.948161e-01 2.051839e-01
 0.000000e+00 0.000000e+00 0.000000e+00 0.000000e+00 0.000000e+00
<ENDHMM>
~h "ah"
<BEGINHMM>
<NUMSTATES> 5
<STATE> 2
<MEAN> 25
 2.756659e+00 -1.860041e+00 -1.245605e-01 -1.647970e+00 -2.383489e+00 -2.440526e+00 -3.319570e+00 -1.721164e-01 1.748915e+00 9.733292e-02 -1.811458e+00 -1.230071e+00 9.565779e-01 -4.169132e-01 -2.948379e-02 -5.031424e-01 -4.002926e-01 2.870020e-02 -5.015581e-01 -1.664068e-01 1.636307e-01 2.231198e-02 -4.850255e-01 -2.768255e-01 4.316131e-01
<VARIANCE> 25
 4.101627e+01 4.584856e+01 5.763151e+01 5.121103e+01 6.767694e+01 6.665565e+01 7.072906e+01 5.717200e+01 5.639719e+01 5.265107e+01 4.373960e+01 4.122923e+01 4.825217e+00 4.073988e+00 3.887972e+00 4.974677e+00 5.465852e+00 5.631091e+00 5.897694e+00 5.740430e+00 4.944003e+00 4.590063e+00 4.135261e+00 3.500384e+00 4.825749e+00
<GCONST> 1.139471e+02
<STATE> 3
<MEAN> 25
 4.072463e+00 -2.085954e+00 -3.933781e-01 -1.921709e+00 -2.071433e+00 -1.727259e+00 -3.447645e+00 -6.246808e-01 1.724709e+00 2.340072e-01 -2.328786e+00 -1.632070e+00 4.052156e-01 3.990480e-01 1.114709e-01 1.167348e-01 2.322683e-01 3.644783e-01 1.439226e-01 -3.139270e-01 -2.752350e-01 -7.875869e-02 -9.065320e-02 -4.723131e-02 -4.775505e-01
<VARIANCE> 25
 3.488681e+01 4.583512e+01 5.306435e+01 5.535176e+01 6.215207e+01 6.725487e+01 6.730148e+01 5.709863e+01 5.640035e+01 5.765511e+01 4.400577e+01 4.293276e+01 3.069174e+00 3.468948e+00 3.068193e+00 4.363210e+00 4.521293e+00 4.462242e+00 4.340131e+00 4.657028e+00 4.262795e+00 3.773001e+00 3.423640e+00 3.009732e+00 4.143948e+00
<GCONST> 1.110345e+02
<STATE> 4
<MEAN> 25
 1.754987e+00 -1.197061e+00 -5.433960e-01 6.950530e-02 1.004059e+00 7.793121e-01 -7.632728e-01 5.075001e-01 1.977708e+00 2.113523e-01 -4.435083e-01 -2.312041e-01 -3.578503e-02 6.078485e-01 1.614190e-01 2.720855e-01 2.856954e-01 2.430829e-01 2.860992e-01 -2.076505e-01 -3.761826e-01 -1.118571e-01 1.271595e-01 9.245089e-02 -5.485780e-01
<VARIANCE> 25
 4.878826e+01 4.688228e+01 4.105341e+01 5.552958e+01 5.762572e+01 6.152682e+01 6.336239e+01 5.387196e+01 4.844841e+01 5.020028e+01 4.610632e+01 4.299319e+01 2.537404e+00 2.839640e+00 2.254472e+00 3.758474e+00 3.349606e+00 3.351025e+00 3.316505e+00 3.637373e+00 3.501608e+00 3.116084e+00 2.747495e+00 2.661984e+00 3.655034e+00
<GCONST> 1.078070e+02
<TRANSP> 5
 0.000000e+00 1.000000e+00 0.000000e+00 0.000000e+00 0.000000e+00
 0.000000e+00 3.503937e-01 6.496063e-01 0.000000e+00 0.000000e+00
 0.000000e+00 0.000000e+00 3.156840e-01 6.843160e-01 0.000000e+00
 0.000000e+00 0.000000e+00 0.000000e+00 5.689154e-01 4.310847e-01
 0.000000e+00 0.000000e+00 0.000000e+00 0.000000e+00 0.000000e+00
<ENDHMM>
~h "ao"
<BEGINHMM>
<NUMSTATES> 5
<STATE> 2
<MEAN> 25
 7.296201e+00 3.964664e-01 -8.158617e+00 -1.129452e+01 -2.369266e+00 5.220891e+00 -1.535444e-01 1.837128e-01 -1.474250e+00 -8.752399e-01 8.730205e-01 -1.938569e+00 1.210897e+00 -4.760033e-01 -1.059018e+00 -2.070178e+00 -3.965629e-01 8.438907e-01 1.342222e-02 3.275518e-01 -7.586322e-01 -6.862808e-01 1.915704e-01 6.606196e-02 1.006822e+00
<VARIANCE> 25
 3.968748e+01 6.198307e+01 3.499995e+01 7.385342e+01 9.265647e+01 7.488930e+01 5.379735e+01 5.608480e+01 5.670078e+01 4.806406e+01 5.496294e+01 3.871516e+01 3.877057e+00 3.965822e+00 3.396581e+00 6.544649e+00 6.676572e+00 6.868895e+00 5.904670e+00 4.750570e+00 4.981611e+00 4.278405e+00 4.183393e+00 4.077758e+00 3.383322e+00
<GCONST> 1.141512e+02
<STATE> 3
<MEAN> 25
 1.024876e+01 -2.778045e+00 -1.019773e+01 -1.663157e+01 -2.048228e+00 9.542446e+00 2.856210e-01 2.489074e-01 -3.193147e+00 -3.556029e+00 9.348466e-01 -5.218309e-01 1.251617e-01 -3.866372e-01 -5.406243e-01 2.097288e-01 7.308156e-01 5.947832e-02 -3.525437e-01 -3.959060e-02 1.157532e-02 -7.180373e-02 2.654813e-01 2.259813e-01 9.422687e-02
<VARIANCE> 25
 1.562012e+01 4.465593e+01 3.246807e+01 5.855553e+01 9.736506e+01 8.265486e+01 7.839734e+01 6.811105e+01 5.455879e+01 5.092113e+01 5.558520e+01 4.836554e+01 4.817469e-01 1.514744e+00 1.363051e+00 2.311462e+00 2.765152e+00 2.187994e+00 3.326177e+00 2.330884e+00 2.352481e+00 2.366614e+00 2.333922e+00 2.076782e+00 6.896800e-01
<GCONST> 1.010515e+02
<STATE> 4
<MEAN> 25
 8.968979e+00 -3.898414e+00 -1.351848e+01 -1.040439e+01 5.078580e+00 5.736640e+00 -3.881382e+00 -1.129450e+00 -3.039602e-01 -2.210443e+00 1.386931e+00 -8.275070e-01 -2.381504e-01 1.964496e-01 3.515584e-01 1.418894e+00 4.006210e-01 -1.022501e+00 -6.501790e-01 1.532941e-02 6.158065e-01 4.859708e-01 -3.170385e-01 -3.182301e-01 -3.899050e-01
<VARIANCE> 25
 3.289915e+01 3.679349e+01 4.045624e+01 8.943918e+01 8.125732e+01 8.405135e+01 1.480607e+02 7.767062e+01 7.552518e+01 6.562943e+01 5.497174e+01 4.956239e+01 1.047269e+00 1.962085e+00 2.347192e+00 3.379671e+00 3.509503e+00 3.368391e+00 4.623361e+00 3.485033e+00 3.343606e+00 2.836803e+00 2.895679e+00 2.546519e+00 1.363540e+00
<GCONST> 1.084356e+02
<TRANSP> 5
 0.000000e+00 1.000000e+00 0.000000e+00 0.000000e+00 0.000000e+00
 0.000000e+00 7.472836e-01 2.527164e-01 0.000000e+00 0.000000e+00
 0.000000e+00 0.000000e+00 8.062650e-01 1.937350e-01 0.000000e+00
 0.000000e+00 0.000000e+00 0.000000e+00 7.823921e-01 2.176080e-01
 0.000000e+00 0.000000e+00 0.000000e+00 0.000000e+00 0.000000e+00
<ENDHMM>
~h "aw"
<BEGINHMM>
<NUMSTATES> 5
<STATE> 2
<MEAN> 25
 4.365400e+00 -1.179451e+01 -4.787944e+00 -2.211416e+00 -6.766152e-01 2.058901e+00 1.146124e+00 2.028890e+00 6.879010e-01 -4.258227e+00 -5.264892e+00 -3.573909e+00 4.456379e-01 -1.093293e+00 -9.968214e-01 -3.872740e-01 7.044727e-01 1.453958e+00 -1.672668e-01 -6.521915e-01 5.393468e-01 -2.612186e-01 -4.024936e-01 -6.265534e-01 6.649271e-01
<VARIANCE> 25
 1.480972e+01 3.867999e+01 2.854086e+01 3.363610e+01 5.739566e+01 6.794727e+01 4.025700e+01 5.160278e+01 6.527921e+01 4.572711e+01 4.267862e+01 4.714619e+01 1.131671e+00 2.691826e+00 2.384915e+00 2.501412e+00 3.470490e+00 3.050431e+00 4.459511e+00 4.840272e+00 3.729229e+00 2.737335e+00 2.744469e+00 3.106778e+00 1.784553e+00
<GCONST> 1.040574e+02
<STATE> 3
<MEAN> 25
 7.288024e+00 -1.194846e+01 -8.124586e+00 -4.917939e+00 1.458442e+00 9.321124e+00 -9.914142e-01 -1.627261e+00 3.237541e+00 -3.056536e+00 -4.186893e+00 -5.685544e+00 4.094926e-01 5.649111e-01 -3.725703e-01 -7.629274e-01 -5.213812e-02 6.597872e-01 -5.107943e-02 -5.079549e-01 -1.281395e-01 3.523700e-01 5.508401e-01 4.262862e-02 -4.434226e-01
<VARIANCE> 25
 1.163113e+01 3.155499e+01 2.451862e+01 3.543158e+01 4.757350e+01 6.116396e+01 4.923304e+01 5.816286e+01 4.762805e+01 4.825930e+01 4.620940e+01 4.231789e+01 3.823049e-01 1.119799e+00 9.803287e-01 1.815206e+00 2.255294e+00 2.128254e+00 1.932218e+00 2.200714e+00 2.434144e+00 1.924130e+00 1.777600e+00 2.082941e+00 4.172693e-01
<GCONST> 9.459649e+01
<STATE> 4
<MEAN> 25
 9.845666e+00 -4.946848e+00 -7.696309e+00 -9.152945e+00 -1.241690e+00 7.649693e+00 -4.517281e-01 -3.876102e+00 3.418863e-01 -1.929929e-01 -5.124990e-01 -3.559374e+00 7.609028e-02 1.103239e+00 6.563994e-01 8.709409e-01 -3.128778e-01 -1.110930e+00 -2.964971e-01 3.559957e-02 -4.386926e-01 1.566412e-01 1.480587e-01 3.983308e-01 -1.050757e+00
<VARIANCE> 25
 1.337284e+01 4.195279e+01 2.947110e+01 6.719472e+01 7.408070e+01 6.357890e+01 6.346734e+01 5.582180e+01 5.239011e+01 6.506878e+01 7.671061e+01 4.389672e+01 8.216465e-01 2.653527e+00 1.902999e+00 4.259559e+00 3.987659e+00 3.303518e+00 3.212444e+00 3.424009e+00 3.530494e+00 3.901572e+00 3.540666e+00 3.117548e+00 1.474285e+00
<GCONST> 1.060143e+02
<TRANSP> 5
 0.000000e+00 1.000000e+00 0.000000e+00 0.000000e+00 0.000000e+00
 0.000000e+00 7.870963e-01 2.129038e-01 0.000000e+00 0.000000e+00
 0.000000e+00 0.000000e+00 8.343970e-01 1.656030e-01 0.000000e+00
 0.000000e+00 0.000000e+00 0.000000e+00 8.303503e-01 1.696498e-01
 0.000000e+00 0.000000e+00 0.000000e+00 0.000000e+00 0.000000e+00
<ENDHMM>
~h "ay"
<BEGINHMM>
<NUMSTATES> 5
<STATE> 2
<MEAN> 25
 3.279261e+00 -8.129785e+00 -7.298838e+00 -4.518425e+00 5.130615e+00 7.786790e+00 1.549338e+00 -1.818500e+00 3.592622e+00 -1.378446e-01 -1.532715e+00 -2.505960e+00 9.194745e-02 -1.300657e+00 -2.043081e-01 -1.192080e-01 4.421474e-01 3.269154e-01 -1.891088e-01 1.176986e-01 4.595220e-01 -2.322690e-01 -6.631801e-01 -4.230863e-01 8.421813e-01
<VARIANCE> 25
 4.781053e+01 4.988699e+01 3.642355e+01 8.133829e+01 6.349210e+01 6.212746e+01 8.526803e+01 5.908710e+01 4.788284e+01 5.315818e+01 5.792611e+01 5.808968e+01 1.577554e+00 2.875026e+00 2.072915e+00 3.538225e+00 2.800071e+00 3.886296e+00 3.546032e+00 3.862304e+00 3.371351e+00 3.211935e+00 3.196458e+00 3.035122e+00 1.921513e+00
<GCONST> 1.083022e+02
<STATE> 3
<MEAN> 25
 5.913907e+00 -1.229731e+01 -7.228689e+00 -5.314557e+00 3.900241e+00 6.484678e+00 -1.580526e+00 -6.552083e-01 3.323787e+00 -3.026300e+00 -5.565691e+00 -5.223320e+00 -1.833775e-01 -1.694167e-01 5.690343e-01 4.906067e-01 -5.943434e-01 -1.004502e+00 2.487935e-01 9.516909e-01 -3.993835e-02 -4.743422e-01 -3.496841e-01 2.731261e-01 7.800456e-02
<VARIANCE> 25
 1.623960e+01 3.716734e+01 3.032110e+01 3.449698e+01 4.382020e+01 5.322935e+01 6.409660e+01 5.716790e+01 4.459536e+01 5.209766e+01 4.291190e+01 3.815263e+01 3.736957e-01 9.643655e-01 1.172430e+00 1.422405e+00 2.329927e+00 2.287286e+00 2.341874e+00 2.733037e+00 2.029993e+00 1.846207e+00 1.711914e+00 1.712485e+00 3.946764e-01
<GCONST> 9.490254e+01
<STATE> 4
<MEAN> 25
 1.265934e+00 -6.005729e+00 -1.895003e+00 2.162668e-01 1.204965e+00 1.082072e+00 3.074502e+00 3.408692e+00 2.299747e+00 -1.194661e+00 -1.472492e+00 -3.904426e-02 -1.269676e-02 4.904725e-01 4.985838e-01 1.543622e-01 -6.483442e-01 -5.402918e-01 1.470521e-01 6.134605e-02 -2.852843e-01 2.339238e-01 2.928601e-01 1.191314e-01 -1.819272e-01
<VARIANCE> 25
 3.009981e+01 5.011729e+01 3.163853e+01 3.797615e+01 6.077598e+01 4.476317e+01 3.671737e+01 3.842234e+01 4.398182e+01 3.653720e+01 5.086151e+01 3.677420e+01 5.366920e-01 1.575474e+00 1.770141e+00 1.529918e+00 2.852527e+00 2.673303e+00 2.380829e+00 2.675715e+00 2.506876e+00 2.206471e+00 2.255907e+00 2.064323e+00 1.070274e+00
<GCONST> 9.846201e+01
<TRANSP> 5
 0.000000e+00 1.000000e+00 0.000000e+00 0.000000e+00 0.000000e+00
 0.000000e+00 7.345017e-01 2.654983e-01 0.000000e+00 0.000000e+00
 0.000000e+00 0.000000e+00 7.849017e-01 2.150983e-01 0.000000e+00
 0.000000e+00 0.000000e+00 0.000000e+00 9.001676e-01 9.983235e-02
 0.000000e+00 0.000000e+00 0.000000e+00 0.000000e+00 0.000000e+00
<ENDHMM>
~h "ch"
<BEGINHMM>
<NUMSTATES> 5
<STATE> 2
<MEAN> 25
 -1.011670e+01 1.316736e+00 4.579269e+00 -3.581520e-01 2.383020e+00 2.020066e+00 1.890041e+00 6.969354e-01 3.023970e+00 1.089046e+00 3.660043e+00 1.512673e+00 -3.986892e+00 -2.878344e-01 3.403584e-01 -1.265971e+00 3.133083e-01 1.156500e+00 1.008427e+00 4.031240e-01 8.275758e-01 2.861722e-01 1.037467e+00 3.375004e-01 1.558050e+00
<VARIANCE> 25
 8.045761e+01 4.267146e+01 3.136172e+01 4.272090e+01 4.951881e+01 4.332534e+01 3.415506e+01 4.094638e+01 3.702429e+01 3.309002e+01 2.914378e+01 2.010304e+01 4.927777e+00 4.254004e+00 4.757621e+00 4.166050e+00 4.740105e+00 4.918874e+00 2.904472e+00 3.404320e+00 4.366601e+00 3.404990e+00 3.196970e+00 2.464727e+00 7.485083e+00
<GCONST> 1.079330e+02
<STATE> 3
<MEAN> 25
 -2.064724e+01 6.405785e-01 7.150532e+00 -2.367971e+00 -1.123962e-01 3.422343e+00 5.019145e+00 1.270882e+00 4.076890e+00 3.143825e-01 4.218989e+00 2.496775e+00 1.701381e-01 -3.945140e-01 3.545581e-01 6.579342e-01 -7.687942e-01 -4.405030e-01 3.694754e-01 9.113504e-02 -1.142555e-02 -1.596405e-01 -4.086604e-01 2.091171e-01 2.379381e-01
<VARIANCE> 25
 4.022010e+01 3.359809e+01 2.237972e+01 2.294179e+01 4.109589e+01 3.526815e+01 2.939248e+01 3.464038e+01 3.498425e+01 2.832310e+01 2.620895e+01 1.787475e+01 7.174010e+00 2.012246e+00 2.314884e+00 2.668740e+00 3.015826e+00 2.916233e+00 2.611739e+00 2.919104e+00 2.386388e+00 2.086279e+00 1.995527e+00 1.907074e+00 3.768069e+00
<GCONST> 9.961394e+01
<STATE> 4
<MEAN> 25
 -8.716784e+00 -1.050845e+00 3.149941e+00 3.496109e+00 1.011947e+00 3.492578e-01 3.908878e+00 2.604650e+00 3.217497e+00 1.751098e-01 2.389192e+00 3.390444e+00 1.934756e+00 -4.486743e-02 -6.121637e-01 2.244023e-01 -5.724989e-02 -5.199926e-01 -5.532099e-01 -9.195109e-02 -2.467975e-01 -1.246892e-01 -3.522093e-01 -2.051851e-01 -3.719649e-01
<VARIANCE> 25
 7.446195e+01 3.045480e+01 4.310508e+01 2.437047e+01 4.029270e+01 4.925775e+01 3.511685e+01 3.102528e+01 3.203742e+01 2.657744e+01 3.009365e+01 2.152792e+01 5.995750e+00 1.848885e+00 1.872038e+00 1.680047e+00 2.911042e+00 3.878381e+00 3.221523e+00 2.704848e+00 2.681760e+00 2.003747e+00 2.487632e+00 2.061153e+00 3.150182e+00
<GCONST> 1.010417e+02
<TRANSP> 5
 0.000000e+00 1.000000e+00 0.000000e+00 0.000000e+00 0.000000e+00
 0.000000e+00 7.338614e-01 2.661385e-01 0.000000e+00 0.000000e+00
 0.000000e+00 0.000000e+00 7.228121e-01 2.771879e-01 0.000000e+00
 0.000000e+00 0.000000e+00 0.000000e+00 8.578326e-01 1.421675e-01
 0.000000e+00 0.000000e+00 0.000000e+00 0.000000e+00 0.000000e+00
<ENDHMM>
~h "dh"
<BEGINHMM>
<NUMSTATES> 5
<STATE> 2
<MEAN> 25
 1.030117e-03 4.033075e+00 -5.164462e-01 4.607820e+00 1.966136e+00 -4.110249e-01 2.778156e-01 -1.045580e+00 1.691156e+00 9.000941e-01 -1.082401e+00 -3.383978e-01 -3.338577e-01 4.191770e-02 -2.112294e-01 1.455852e-01 3.329070e-01 9.762202e-02 2.382659e-01 1.193585e-01 3.653573e-01 4.004113e-02 2.156300e-01 7.973073e-02 -2.206284e-01
<VARIANCE> 25
 4.711209e+01 3.881050e+01 3.246257e+01 3.419250e+01 4.477822e+01 5.081578e+01 5.003771e+01 5.271975e+01 4.010928e+01 3.647780e+01 3.739024e+01 3.557518e+01 3.084044e+00 3.342638e+00 2.564993e+00 3.475420e+00 2.964814e+00 4.056798e+00 3.905004e+00 3.555095e+00 3.367997e+00 2.906214e+00 3.045953e+00 2.778714e+00 5.379583e+00
<GCONST> 1.062974e+02
<STATE> 3
<MEAN> 25
 -4.782495e-01 3.966745e+00 -5.863285e-01 4.355370e+00 1.988460e+00 -1.117892e+00 1.377026e-01 -1.442022e+00 2.333655e+00 7.957500e-01 -7.798414e-01 -5.734509e-01 -1.080046e-01 -6.976550e-01 -1.454204e-01 -7.339102e-01 -4.169086e-01 -5.750922e-01 -2.277749e-01 2.659431e-01 3.711040e-01 6.063852e-02 1.868125e-01 2.616808e-01 1.099923e+00
<VARIANCE> 25
 3.838604e+01 3.415892e+01 2.786793e+01 3.557442e+01 4.281715e+01 5.014486e+01 4.943904e+01 4.720150e+01 3.387836e+01 3.367924e+01 3.545028e+01 3.451137e+01 3.155370e+00 3.306240e+00 2.662553e+00 3.778052e+00 3.841591e+00 5.479640e+00 4.485666e+00 3.673445e+00 3.366481e+00 2.938899e+00 3.125348e+00 3.095265e+00 7.326114e+00
<GCONST> 1.066560e+02
<STATE> 4
<MEAN> 25
 -3.314005e+00 4.298806e-02 -1.744152e+00 3.414285e+00 4.020862e+00 1.224106e+00 3.084470e+00 1.531853e+00 2.472600e+00 9.705989e-01 1.134598e+00 1.801488e+00 1.138951e-01 -1.522457e-01 3.648161e-02 -2.075672e-01 -2.509944e-01 -1.805977e-01 -1.814743e-01 1.277090e-02 4.526611e-02 -2.896871e-03 -1.242193e-02 8.301355e-03 4.525290e-01
<VARIANCE> 25
 2.180716e+01 2.944750e+01 1.958059e+01 2.231075e+01 2.966802e+01 3.838195e+01 3.373106e+01 3.460204e+01 2.573956e+01 2.454556e+01 2.499152e+01 2.297994e+01 1.035426e+00 1.314678e+00 1.153264e+00 1.691257e+00 2.094357e+00 2.420761e+00 2.344003e+00 2.110386e+00 1.853895e+00 1.934977e+00 1.869232e+00 1.684455e+00 2.953781e+00
<GCONST> 9.309905e+01
<TRANSP> 5
 0.000000e+00 1.000000e+00 0.000000e+00 0.000000e+00 0.000000e+00
 0.000000e+00 4.364157e-01 5.635843e-01 0.000000e+00 0.000000e+00
 0.000000e+00 0.000000e+00 3.721899e-01 6.278102e-01 0.000000e+00
 0.000000e+00 0.000000e+00 0.000000e+00 8.987227e-01 1.012773e-01
 0.000000e+00 0.000000e+00 0.000000e+00 0.000000e+00 0.000000e+00
<ENDHMM>
~h "eh"
<BEGINHMM>
<NUMSTATES> 5
<STATE> 2
<MEAN> 25
 2.953056e+00 -5.026195e+00 6.502858e-01 -2.874849e+00 -7.075163e+00 -4.450760e+00 6.873405e-02 2.811536e+00 1.040670e+00 -9.659706e-01 -2.689719e+00 -1.507052e+00 7.113664e-01 -1.619529e+00 -7.141011e-03 -1.006427e+00 -1.039618e+00 -3.766340e-01 4.697612e-01 1.163981e+00 5.408035e-02 -4.692397e-01 -7.080092e-01 -2.810663e-01 1.353815e+00
<VARIANCE> 25
 3.063185e+01 4.353632e+01 4.377333e+01 4.930201e+01 6.296472e+01 5.835960e+01 5.779542e+01 4.999133e+01 5.521632e+01 4.643427e+01 4.782595e+01 3.338442e+01 4.391814e+00 3.956923e+00 2.756738e+00 4.291183e+00 5.013746e+00 4.905788e+00 5.171665e+00 4.826407e+00 3.851170e+00 3.973012e+00 4.148454e+00 3.145117e+00 3.485338e+00
<GCONST> 1.105132e+02
<STATE> 3
<MEAN> 25
 3.843975e+00 -8.375705e+00 2.798702e-01 -4.253930e+00 -8.025961e+00 -4.336544e+00 1.709026e+00 4.979561e+00 2.599363e-01 -2.115420e+00 -3.884541e+00 -2.284173e+00 1.138435e-01 -3.156854e-01 -1.679480e-01 1.269214e-01 2.558245e-01 1.963636e-01 1.413949e-01 2.883057e-01 -1.174609e-01 -2.275186e-01 -7.364978e-02 -8.249495e-02 -1.356884e-01
<VARIANCE> 25
 1.864280e+01 3.602730e+01 3.950247e+01 3.792937e+01 5.826134e+01 5.243867e+01 5.373482e+01 5.465394e+01 6.709721e+01 5.112040e+01 5.010352e+01 3.316319e+01 1.021143e+00 2.384799e+00 1.940437e+00 2.440724e+00 2.602623e+00 3.011287e+00 3.025688e+00 3.184140e+00 2.363425e+00 2.403565e+00 2.161491e+00 2.265779e+00 1.759441e+00
<GCONST> 1.019945e+02
<STATE> 4
<MEAN> 25
 -1.474043e+00 -5.137175e+00 -9.989514e-01 9.192542e-01 -6.325728e-01 2.074016e-01 3.421820e+00 5.177896e+00 2.833025e+00 -7.033145e-01 -4.551378e-01 1.004027e+00 -8.439261e-03 3.848583e-01 -4.521341e-02 2.679577e-01 3.290189e-01 1.175336e-01 -1.753931e-01 -1.529822e-01 -1.032607e-01 2.236549e-02 1.072174e-01 2.908461e-02 -4.750321e-01
<VARIANCE> 25
 5.279765e+01 4.373123e+01 2.934295e+01 3.876685e+01 5.849380e+01 5.686391e+01 5.087035e+01 4.142990e+01 5.180582e+01 3.896197e+01 4.370288e+01 3.279587e+01 1.150062e+00 1.870790e+00 1.407159e+00 1.815373e+00 2.030238e+00 2.312593e+00 2.312081e+00 2.449727e+00 2.148412e+00 2.094856e+00 1.832415e+00 1.881372e+00 1.636528e+00
<GCONST> 9.958786e+01
<TRANSP> 5
 0.000000e+00 1.000000e+00 0.000000e+00 0.000000e+00 0.000000e+00
 0.000000e+00 5.190438e-01 4.809563e-01 0.000000e+00 0.000000e+00
 0.000000e+00 0.000000e+00 5.587720e-01 4.412279e-01 0.000000e+00
 0.000000e+00 0.000000e+00 0.000000e+00 8.421604e-01 1.578396e-01
 0.000000e+00 0.000000e+00 0.000000e+00 0.000000e+00 0.000000e+00
<ENDHMM>
~h "er"
<BEGINHMM>
<NUMSTATES> 5
<STATE> 2
<MEAN> 25
 9.154604e+00 -5.445073e+00 -7.597847e+00 2.125740e+00 1.311499e+00 -8.646912e+00 -9.556316e+00 4.536492e+00 8.353257e-01 -7.497756e-01 -6.066854e-01 -4.990692e-01 1.440642e+00 -5.554439e-01 -1.251090e+00 1.806870e-01 5.535302e-01 -1.311471e+00 -1.995783e+00 9.680774e-01 4.839823e-01 -2.489938e-01 -1.566983e-01 2.225536e-01 3.077236e-01
<VARIANCE> 25
 2.935201e+01 2.766512e+01 6.963072e+01 4.077834e+01 6.556577e+01 6.145000e+01 9.981246e+01 7.539244e+01 5.899697e+01 4.853170e+01 3.648785e+01 3.617852e+01 3.962564e+00 2.476284e+00 3.403804e+00 2.663115e+00 3.547081e+00 4.139007e+00 6.582542e+00 4.912969e+00 3.782467e+00 3.288663e+00 2.809080e+00 2.411653e+00 1.411107e+00
<GCONST> 1.083996e+02
<STATE> 3
<MEAN> 25
 1.073614e+01 -5.908633e+00 -9.044848e+00 3.562153e+00 2.592462e+00 -1.112398e+01 -1.318172e+01 6.516170e+00 2.782685e+00 -1.702455e+00 -1.630283e+00 3.756914e-01 -2.361365e-01 2.331469e-01 5.698130e-01 4.427094e-01 -1.992858e-01 -4.236013e-02 5.712188e-01 -2.950215e-02 -8.903713e-02 -3.380288e-01 -7.719988e-02 1.529452e-01 -5.340930e-01
<VARIANCE> 25
 1.867111e+01 2.513129e+01 6.544862e+01 4.074179e+01 6.827571e+01 6.218066e+01 1.018375e+02 7.839125e+01 7.262753e+01 4.981272e+01 3.594189e+01 3.716279e+01 1.090849e+00 1.663639e+00 2.815877e+00 1.943519e+00 3.055470e+00 3.231141e+00 4.508240e+00 3.664888e+00 2.967091e+00 2.703600e+00 2.100134e+00 1.924040e+00 1.194336e+00
<GCONST> 1.037625e+02
<STATE> 4
<MEAN> 25
 1.823596e+00 -3.834335e+00 -4.155983e+00 5.364729e+00 3.292470e+00 -3.854937e+00 -1.666249e+00 6.429516e+00 4.239650e+00 -7.451738e-01 2.446817e-01 2.501263e+00 -7.350889e-01 6.017364e-01 9.155107e-01 -5.401860e-02 -2.424313e-01 8.075236e-01 1.144877e+00 -5.908250e-01 -4.182354e-01 1.759565e-01 2.388347e-01 -7.900106e-02 -7.371287e-01
<VARIANCE> 25
 6.910170e+01 4.673732e+01 4.767691e+01 4.403317e+01 5.924709e+01 1.025042e+02 9.430804e+01 6.249702e+01 1.029673e+02 5.925919e+01 4.977945e+01 3.527021e+01 1.889836e+00 2.677376e+00 3.278747e+00 2.306162e+00 3.275905e+00 4.006579e+00 4.796663e+00 4.510980e+00 4.195685e+00 3.428221e+00 2.873971e+00 2.324679e+00 1.957837e+00
<GCONST> 1.097873e+02
<TRANSP> 5
 0.000000e+00 1.000000e+00 0.000000e+00 0.000000e+00 0.000000e+00
 0.000000e+00 7.363908e-01 2.636091e-01 0.000000e+00 0.000000e+00
 0.000000e+00 0.000000e+00 7.221107e-01 2.778893e-01 0.000000e+00
 0.000000e+00 0.000000e+00 0.000000e+00 7.978951e-01 2.021049e-01
 0.000000e+00 0.000000e+00 0.000000e+00 0.000000e+00 0.000000e+00
<ENDHMM>
~h "ey"
<BEGINHMM>
<NUMSTATES> 5
<STATE> 2
<MEAN> 25
 2.253520e+00 -4.042078e+00 7.995802e+00 -3.944628e+00 -1.415673e+01 -5.829986e+00 1.009620e+00 1.569263e+00 -4.133434e+00 -8.345449e-02 8.693357e-01 -1.705236e+00 -1.630018e-01 2.423885e-01 1.354126e+00 -7.030703e-01 -1.517192e+00 2.000478e-01 2.594779e-01 -7.781036e-01 -9.712730e-01 5.892563e-01 4.946978e-01 -2.765354e-01 2.163289e-01
<VARIANCE> 25
 9.670352e+00 2.285698e+01 3.390451e+01 4.265404e+01 4.217781e+01 5.154459e+01 3.967665e+01 5.219859e+01 4.705656e+01 4.030034e+01 4.347680e+01 3.328666e+01 1.236850e+00 2.058946e+00 2.149890e+00 2.377529e+00 3.484259e+00 3.225652e+00 3.619731e+00 3.589645e+00 3.546867e+00 2.883224e+00 2.924248e+00 1.966689e+00 1.503344e+00
<GCONST> 1.007993e+02
<STATE> 3
<MEAN> 25
 1.392037e+00 5.348851e-02 1.357034e+01 -6.778501e+00 -1.592473e+01 -1.935440e+00 -1.294537e+00 -5.509153e+00 -6.587282e+00 3.130461e+00 1.615224e-01 -2.662800e+00 3.551629e-02 5.652835e-01 4.275571e-01 2.745687e-01 1.811333e-01 4.388182e-01 -3.601175e-01 -6.824145e-01 -2.366436e-01 8.444982e-02 -2.760876e-01 -3.504042e-03 -6.010716e-01
<VARIANCE> 25
 8.615275e+00 1.993124e+01 3.174549e+01 6.559710e+01 3.703136e+01 7.153253e+01 5.346587e+01 5.194143e+01 4.565663e+01 4.602274e+01 6.202329e+01 3.143964e+01 4.704786e-01 9.454553e-01 1.284617e+00 1.713549e+00 1.847026e+00 1.991160e+00 1.787328e+00 2.396341e+00 2.225515e+00 1.776484e+00 1.743454e+00 1.722968e+00 9.425980e-01
<GCONST> 9.492229e+01
<STATE> 4
<MEAN> 25
 2.142137e+00 2.888587e+00 1.209379e+01 -6.224597e-01 -1.121740e+01 -9.370396e-01 -3.019502e-01 -6.066853e+00 -6.322035e+00 1.206593e+00 -2.698069e-01 -1.716535e+00 -1.306648e-01 4.304943e-01 -1.202704e+00 1.393885e+00 2.131800e+00 -2.174917e-02 3.376272e-01 2.771813e-01 6.291443e-01 -5.255981e-01 -1.468507e-02 2.390298e-01 -1.437528e+00
<VARIANCE> 25
 1.573632e+01 2.414651e+01 4.067003e+01 6.754539e+01 6.188431e+01 6.925621e+01 5.545172e+01 6.165905e+01 5.075596e+01 4.126302e+01 5.091253e+01 3.181461e+01 2.224364e+00 1.960372e+00 2.603274e+00 3.413067e+00 4.645596e+00 4.657559e+00 3.775319e+00 4.274856e+00 3.278445e+00 3.161922e+00 3.814926e+00 2.441401e+00 2.308953e+00
<GCONST> 1.062620e+02
<TRANSP> 5
 0.000000e+00 1.000000e+00 0.000000e+00 0.000000e+00 0.000000e+00
 0.000000e+00 8.005786e-01 1.994214e-01 0.000000e+00 0.000000e+00
 0.000000e+00 0.000000e+00 8.028623e-01 1.971377e-01 0.000000e+00
 0.000000e+00 0.000000e+00 0.000000e+00 7.536162e-01 2.463837e-01
 0.000000e+00 0.000000e+00 0.000000e+00 0.000000e+00 0.000000e+00
<ENDHMM>
~h "hh"
<BEGINHMM>
<NUMSTATES> 5
<STATE> 2
<MEAN> 25
 -4.495478e+00 -1.311092e+00 8.488554e-01 3.840538e+00 4.912374e+00 3.519010e+00 5.755292e+00 3.579352e+00 2.778119e+00 1.916913e+00 3.233532e+00 2.544668e+00 -1.176381e-01 -1.635255e-01 -1.629982e-02 -5.434686e-02 3.852832e-02 1.007627e-01 1.339908e-01 1.035883e-01 4.672608e-02 5.737029e-02 3.926869e-02 2.759006e-02 -1.715238e-02
<VARIANCE> 25
 2.820160e+01 3.923526e+01 2.889078e+01 2.482280e+01 4.007733e+01 3.953097e+01 3.663797e+01 3.758709e+01 3.972655e+01 3.659967e+01 3.243670e+01 2.235336e+01 8.344747e-01 1.241694e+00 1.023733e+00 1.342100e+00 1.701153e+00 1.767522e+00 2.060141e+00 2.043198e+00 2.037088e+00 2.047095e+00 1.721934e+00 1.614463e+00 5.523504e-01
<GCONST> 9.274334e+01
<STATE> 3
<MEAN> 25
 -3.728334e+00 -3.379308e+00 1.743649e+00 1.634064e+00 2.087193e+00 3.381853e+00 6.367312e+00 2.839430e+00 6.736912e-01 7.329889e-02 2.594731e-01 1.629948e+00 3.513421e-01 -4.441321e-02 1.920120e-02 -2.676213e-01 -2.654961e-01 -6.081236e-02 -3.464594e-01 -6.899902e-02 -1.079093e-01 -6.556345e-02 -3.236063e-01 -1.577191e-01 3.775100e-01
<VARIANCE> 25
 3.991314e+01 5.786670e+01 5.419707e+01 4.495932e+01 8.607692e+01 5.900593e+01 6.351525e+01 5.478148e+01 5.436101e+01 5.114581e+01 4.014628e+01 2.848800e+01 1.842233e+00 2.064861e+00 2.515286e+00 2.540850e+00 3.353953e+00 3.085920e+00 3.371769e+00 3.297508e+00 3.191173e+00 2.877319e+00 2.467443e+00 2.173769e+00 1.309370e+00
<GCONST> 1.052529e+02
<STATE> 4
<MEAN> 25
 -3.474417e+00 -2.512555e+00 1.140180e+00 1.571693e+00 3.043024e+00 3.529318e+00 3.785323e+00 1.675956e+00 1.134686e+00 -1.165619e-01 3.396014e-01 9.824074e-01 7.058616e-01 1.509033e-01 -7.036328e-02 -3.805625e-01 -6.362877e-01 -6.148157e-01 -8.939586e-01 -5.003078e-01 -5.074926e-01 -3.640451e-01 -4.737016e-01 -3.457073e-01 1.042188e+00
<VARIANCE> 25
 4.209115e+01 5.760924e+01 5.729012e+01 4.499651e+01 8.730914e+01 5.820764e+01 6.051139e+01 5.876874e+01 6.070937e+01 5.666575e+01 4.054380e+01 2.874897e+01 2.474265e+00 2.627310e+00 3.019510e+00 2.866065e+00 4.033198e+00 3.226985e+00 3.783040e+00 3.603384e+00 3.461576e+00 3.347068e+00 2.884847e+00 2.249426e+00 3.600784e+00
<GCONST> 1.083189e+02
<TRANSP> 5
 0.000000e+00 1.000000e+00 0.000000e+00 0.000000e+00 0.000000e+00
 0.000000e+00 9.115189e-01 8.848114e-02 0.000000e+00 0.000000e+00
 0.000000e+00 0.000000e+00 4.079221e-01 5.920780e-01 0.000000e+00
 0.000000e+00 0.000000e+00 0.000000e+00 6.397181e-01 3.602819e-01
 0.000000e+00 0.000000e+00 0.000000e+00 0.000000e+00 0.000000e+00
<ENDHMM>
~h "ih"
<BEGINHMM>
<NUMSTATES> 5
<STATE> 2
<MEAN> 25
 1.549296e+00 1.778993e-01 5.519997e+00 -1.643614e-01 -7.024758e+00 -6.007566e+00 -2.349046e+00 -6.603950e-01 -2.524625e+00 -6.323015e-01 -4.417334e-01 3.372315e-01 9.723575e-01 -3.562949e-01 1.182717e+00 -5.102216e-01 -2.029636e+00 -1.144778e+00 -5.172913e-01 -1.006862e-01 -8.228912e-01 -2.112874e-01 -1.115693e-01 -7.339259e-02 1.040654e+00
<VARIANCE> 25
 3.419329e+01 3.788620e+01 5.069932e+01 4.922002e+01 6.383119e+01 5.802315e+01 6.359702e+01 6.204790e+01 5.248746e+01 4.660032e+01 3.947993e+01 3.332822e+01 4.993914e+00 4.024496e+00 3.986829e+00 5.397543e+00 6.678716e+00 6.696148e+00 6.905849e+00 6.735280e+00 5.687778e+00 4.843446e+00 4.519815e+00 3.455369e+00 4.367992e+00
<GCONST> 1.136661e+02
<STATE> 3
<MEAN> 25
 3.050453e+00 -7.424314e-01 7.421943e+00 -1.166256e+00 -9.925787e+00 -7.082131e+00 -3.009002e+00 -5.959682e-01 -4.073018e+00 -5.186571e-01 -2.943991e-01 6.407104e-02 2.110566e-01 2.407044e-01 2.509983e-01 6.000205e-02 -1.365615e-01 2.317620e-02 1.651628e-01 -8.735897e-02 -2.058414e-01 -4.685093e-04 -6.751340e-02 -5.586588e-02 -2.032958e-01
<VARIANCE> 25
 1.939939e+01 3.266851e+01 4.969004e+01 5.128299e+01 6.462074e+01 5.279753e+01 5.799597e+01 6.311165e+01 5.369904e+01 4.904578e+01 3.833831e+01 3.684196e+01 2.228446e+00 3.178932e+00 2.753042e+00 3.981343e+00 5.575298e+00 4.434255e+00 4.803814e+00 4.816303e+00 4.115561e+00 4.046930e+00 3.368420e+00 2.682724e+00 3.055780e+00
<GCONST> 1.085436e+02
<STATE> 4
<MEAN> 25
 3.080472e+00 7.048775e-01 7.242681e+00 1.125574e-02 -8.236482e+00 -6.437766e+00 -2.295604e+00 -1.037124e+00 -3.843299e+00 -6.423360e-01 -2.149688e-01 1.534102e-01 -2.214317e-01 8.295342e-01 -5.012882e-01 6.354240e-01 1.300036e+00 5.963454e-01 2.963611e-01 -2.596830e-01 2.642336e-01 -6.309044e-03 -9.593959e-02 -6.674007e-02 -1.012836e+00
<VARIANCE> 25
 2.166911e+01 3.370515e+01 4.669120e+01 4.982131e+01 6.735456e+01 5.496005e+01 5.629354e+01 5.893152e+01 5.627915e+01 4.661403e+01 4.044923e+01 3.818327e+01 2.686366e+00 3.026178e+00 2.488552e+00 3.638034e+00 4.478185e+00 4.215521e+00 3.894322e+00 4.856831e+00 3.524767e+00 3.742162e+00 3.020057e+00 2.907713e+00 2.687469e+00
<GCONST> 1.077479e+02
<TRANSP> 5
 0.000000e+00 1.000000e+00 0.000000e+00 0.000000e+00 0.000000e+00
 0.000000e+00 4.565284e-01 5.434716e-01 0.000000e+00 0.000000e+00
 0.000000e+00 0.000000e+00 4.073150e-01 5.926850e-01 0.000000e+00
 0.000000e+00 0.000000e+00 0.000000e+00 5.527543e-01 4.472457e-01
 0.000000e+00 0.000000e+00 0.000000e+00 0.000000e+00 0.000000e+00
<ENDHMM>
~h "iy"
<BEGINHMM>
<NUMSTATES> 5
<STATE> 2
<MEAN> 25
 1.602087e+00 1.283105e+00 1.173739e+01 1.007412e-01 -1.030307e+01 -5.673880e+00 -2.669438e+00 -3.364795e+00 -7.117973e+00 -1.048740e+00 5.024509e-01 -1.235474e+00 1.264677e-01 2.632248e-01 2.600341e+00 -1.182518e+00 -2.729365e+00 5.072439e-01 -2.053999e-01 -1.350611e+00 -1.602416e+00 3.414803e-01 -1.763373e-01 -4.201916e-01 8.738328e-01
<VARIANCE> 25
 2.795038e+01 3.666209e+01 4.873838e+01 5.699355e+01 5.466473e+01 6.757489e+01 5.834258e+01 6.718657e+01 5.343396e+01 5.673904e+01 4.491837e+01 3.163466e+01 4.329285e+00 2.625499e+00 3.745024e+00 4.884988e+00 5.404371e+00 6.593399e+00 7.900524e+00 6.371030e+00 4.830851e+00 5.126753e+00 4.981383e+00 3.294794e+00 2.683940e+00
<GCONST> 1.123968e+02
<STATE> 3
<MEAN> 25
 9.577733e-01 2.985132e+00 1.676520e+01 -3.766445e+00 -1.369668e+01 -1.241866e+00 -4.044726e+00 -7.218358e+00 -9.411369e+00 8.262931e-01 -4.721112e-01 -2.769654e+00 -1.091784e-02 3.576333e-01 2.238973e-01 -2.957706e-01 -8.154290e-02 5.793163e-01 -7.972581e-02 -4.536231e-01 8.446786e-02 2.603743e-01 -2.255851e-01 -1.288226e-01 -2.751298e-01
<VARIANCE> 25
 1.595963e+01 2.684996e+01 4.271272e+01 6.332871e+01 3.616220e+01 5.083140e+01 5.007610e+01 5.845186e+01 4.877884e+01 6.315384e+01 6.448342e+01 3.254131e+01 7.801964e-01 1.472375e+00 1.962380e+00 2.248953e+00 2.451549e+00 2.845121e+00 2.918771e+00 2.851515e+00 2.472506e+00 2.115619e+00 2.188710e+00 1.650914e+00 1.129415e+00
<GCONST> 9.983570e+01
<STATE> 4
<MEAN> 25
 1.476849e+00 4.708268e+00 1.290334e+01 -2.611488e+00 -1.025593e+01 2.978405e-01 -2.393104e+00 -7.397264e+00 -5.911373e+00 1.069902e+00 -1.735225e+00 -1.587226e+00 1.098075e-01 -1.071879e-01 -1.283314e+00 7.967075e-01 1.205276e+00 -1.832038e-01 5.198501e-01 6.626693e-01 6.092075e-01 -1.547542e-01 1.187923e-01 2.340479e-01 -8.040931e-01
<VARIANCE> 25
 2.084392e+01 3.598194e+01 4.688601e+01 8.073074e+01 6.299563e+01 6.533154e+01 7.437877e+01 7.483122e+01 5.521630e+01 5.373698e+01 5.720102e+01 3.943515e+01 1.407869e+00 2.048976e+00 2.655676e+00 2.850297e+00 4.148582e+00 3.703279e+00 3.633536e+00 3.849441e+00 3.134044e+00 3.176533e+00 2.727329e+00 2.389965e+00 2.232001e+00
<GCONST> 1.068987e+02
<TRANSP> 5
 0.000000e+00 1.000000e+00 0.000000e+00 0.000000e+00 0.000000e+00
 0.000000e+00 6.573502e-01 3.426498e-01 0.000000e+00 0.000000e+00
 0.000000e+00 0.000000e+00 7.476381e-01 2.523619e-01 0.000000e+00
 0.000000e+00 0.000000e+00 0.000000e+00 8.329691e-01 1.670308e-01
 0.000000e+00 0.000000e+00 0.000000e+00 0.000000e+00 0.000000e+00
<ENDHMM>
~h "jh"
<BEGINHMM>
<NUMSTATES> 5
<STATE> 2
<MEAN> 25
 -4.240858e+00 5.919085e+00 8.482656e+00 2.237345e+00 3.960962e+00 4.223682e+00 3.157987e-01 -2.042394e+00 -5.093049e-01 -2.284334e+00 4.833193e-02 -6.687695e-01 -4.243138e+00 -5.568702e-01 6.730862e-01 -8.876655e-01 1.816981e-01 8.869749e-01 6.128062e-01 8.567499e-02 1.134900e+00 1.190488e-02 6.682392e-01 7.410551e-01 1.656365e+00
<VARIANCE> 25
 7.734683e+01 4.243668e+01 5.552878e+01 4.420320e+01 5.402019e+01 3.950898e+01 4.808360e+01 3.740505e+01 4.646984e+01 2.872975e+01 3.221147e+01 2.518148e+01 5.877313e+00 5.477408e+00 4.121767e+00 5.173393e+00 6.656939e+00 4.204511e+00 4.312365e+00 3.951256e+00 4.613449e+00 4.350396e+00 4.207993e+00 2.911766e+00 6.000816e+00
<GCONST> 1.109005e+02
<STATE> 3
<MEAN> 25
 -1.896421e+01 2.544806e+00 9.524924e+00 -1.108614e+00 5.958015e-01 4.080604e+00 3.584170e+00 -2.221062e+00 3.181175e+00 -1.638355e+00 1.480527e+00 1.920441e+00 -8.507183e-01 -3.821878e-01 -4.135143e-03 2.881083e-02 -1.270063e+00 -1.579019e+00 2.558727e-01 7.776061e-02 1.180807e-01 -2.077846e-01 1.173912e-01 3.734083e-01 1.484673e+00
<VARIANCE> 25
 6.275540e+01 4.956079e+01 4.026050e+01 3.121322e+01 4.219684e+01 3.791811e+01 5.239240e+01 3.931590e+01 5.231561e+01 3.142892e+01 2.979039e+01 2.216834e+01 1.177963e+01 2.770712e+00 3.162657e+00 3.494216e+00 4.649990e+00 4.726592e+00 3.708077e+00 2.717205e+00 3.910048e+00 2.505441e+00 2.452310e+00 1.927699e+00 3.424964e+00
<GCONST> 1.063863e+02
<STATE> 4
<MEAN> 25
 -9.063132e+00 9.755350e-01 8.706501e+00 5.855576e-01 -3.815848e+00 -4.143056e+00 3.666674e-01 -1.709453e+00 2.036278e+00 -2.665621e+00 1.299456e+00 1.988004e+00 4.124292e+00 -9.079435e-01 -1.061434e+00 -3.672801e-02 -1.303546e+00 -2.053258e+00 -1.406008e+00 3.692866e-01 -3.684858e-01 2.988374e-01 -7.587259e-02 -9.985576e-02 1.115815e-01
<VARIANCE> 25
 9.838620e+01 5.026147e+01 3.344804e+01 5.338071e+01 3.971859e+01 6.055869e+01 6.012790e+01 3.698441e+01 5.280177e+01 2.848824e+01 2.534063e+01 2.455674e+01 6.173182e+00 4.793760e+00 3.296805e+00 3.563840e+00 6.033910e+00 7.280438e+00 5.668020e+00 5.352587e+00 3.776603e+00 3.484354e+00 3.285725e+00 3.027870e+00 2.859044e+00
<GCONST> 1.101537e+02
<TRANSP> 5
 0.000000e+00 1.000000e+00 0.000000e+00 0.000000e+00 0.000000e+00
 0.000000e+00 7.049483e-01 2.950517e-01 0.000000e+00 0.000000e+00
 0.000000e+00 0.000000e+00 6.098232e-01 3.901768e-01 0.000000e+00
 0.000000e+00 0.000000e+00 0.000000e+00 6.955057e-01 3.044943e-01
 0.000000e+00 0.000000e+00 0.000000e+00 0.000000e+00 0.000000e+00
<ENDHMM>
~h "ng"
<BEGINHMM>
<NUMSTATES> 5
<STATE> 2
<MEAN> 25
 4.458551e+00 2.760891e+00 7.740834e+00 -3.566614e+00 -1.089081e+01 5.290824e-01 4.301921e-01 -7.221174e+00 -7.954256e+00 2.077253e+00 -1.945277e+00 -4.476568e+00 6.010548e-01 9.273905e-01 -5.724552e-01 8.367554e-01 7.414119e-01 1.396091e-01 -4.037889e-02 -1.402971e+00 -8.629134e-02 5.698374e-01 -4.245260e-01 -3.566757e-01 -1.052667e+00
<VARIANCE> 25
 2.004687e+01 2.621415e+01 4.718761e+01 5.360299e+01 6.459146e+01 3.993435e+01 7.004073e+01 6.787310e+01 5.036941e+01 6.137373e+01 6.141143e+01 4.137704e+01 9.716954e-01 1.426791e+00 3.436014e+00 3.734968e+00 4.179132e+00 4.371335e+00 3.500073e+00 3.838047e+00 3.599667e+00 4.091774e+00 2.497615e+00 2.934434e+00 1.005160e+00
<GCONST> 1.053143e+02
<STATE> 3
<MEAN> 25
 7.228845e+00 6.136536e+00 3.592171e+00 1.261463e+00 -6.002585e+00 -6.591049e-01 2.225176e-01 -1.018195e+01 -7.023733e+00 2.113890e+00 -2.887288e+00 -3.558933e+00 1.982706e-01 3.831111e-01 -4.892562e-01 6.820435e-01 7.393527e-01 -1.837892e-01 -2.898933e-02 1.344682e-01 2.956567e-01 -4.745193e-01 -8.454360e-02 3.066872e-01 -6.604835e-01
<VARIANCE> 25
 1.456038e+01 2.054244e+01 3.814207e+01 4.116589e+01 4.483651e+01 4.090424e+01 6.794047e+01 6.206464e+01 4.661465e+01 4.053855e+01 4.906799e+01 3.760942e+01 9.377425e-01 1.184844e+00 2.228844e+00 2.740277e+00 3.231827e+00 2.962999e+00 2.620492e+00 3.082791e+00 2.920479e+00 2.817396e+00 2.013500e+00 1.935945e+00 1.043048e+00
<GCONST> 9.970583e+01
<STATE> 4
<MEAN> 25
 5.775064e+00 5.348276e+00 2.982391e+00 1.745112e+00 -3.702780e+00 -9.371554e-01 4.560485e-01 -7.227995e+00 -5.817144e+00 1.416274e-01 -3.282268e+00 -2.015313e+00 -7.074956e-01 -6.625909e-01 -2.252948e-01 1.343648e-02 9.098048e-01 1.842456e-01 1.948293e-01 1.736185e+00 8.456970e-01 -6.443832e-01 2.330072e-01 4.934016e-01 -1.551793e-01
<VARIANCE> 25
 1.933782e+01 3.195296e+01 3.648960e+01 4.202966e+01 6.622819e+01 5.089411e+01 6.373439e+01 8.830795e+01 4.336215e+01 4.537828e+01 4.958974e+01 4.360981e+01 1.787836e+00 2.511422e+00 2.743565e+00 3.844334e+00 4.543730e+00 3.938620e+00 3.906797e+00 5.283011e+00 4.171287e+00 4.348438e+00 3.476887e+00 2.775801e+00 1.986166e+00
<GCONST> 1.073516e+02
<TRANSP> 5
 0.000000e+00 1.000000e+00 0.000000e+00 0.000000e+00 0.000000e+00
 0.000000e+00 7.588037e-01 2.411963e-01 0.000000e+00 0.000000e+00
 0.000000e+00 0.000000e+00 6.811948e-01 3.188052e-01 0.000000e+00
 0.000000e+00 0.000000e+00 0.000000e+00 6.862113e-01 3.137886e-01
 0.000000e+00 0.000000e+00 0.000000e+00 0.000000e+00 0.000000e+00
<ENDHMM>
~h "ow"
<BEGINHMM>
<NUMSTATES> 5
<STATE> 2
<MEAN> 25
 6.608260e+00 -3.619531e+00 -5.971265e+00 -7.627539e+00 -1.159580e+00 1.464217e+00 -6.094666e+00 -1.542142e+00 7.112315e-01 2.739221e+00 -2.076854e+00 -5.103071e+00 1.027644e+00 -3.070606e-01 -8.028783e-01 -1.887378e+00 -3.427199e-01 1.188577e+00 -5.124518e-01 -5.911667e-01 -4.239855e-01 7.273755e-01 1.894893e-01 -3.352783e-01 5.951077e-01
<VARIANCE> 25
 2.371008e+01 3.932022e+01 3.638327e+01 4.942735e+01 5.034358e+01 8.312270e+01 5.321538e+01 4.994720e+01 6.525810e+01 7.927097e+01 6.316009e+01 4.107795e+01 2.618600e+00 3.069314e+00 2.749199e+00 3.929380e+00 4.208234e+00 4.536050e+00 5.064792e+00 4.473340e+00 4.709057e+00 4.791333e+00 4.149424e+00 4.131061e+00 2.181102e+00
<GCONST> 1.101871e+02
<STATE> 3
<MEAN> 25
 8.682977e+00 -2.624405e+00 -7.422899e+00 -1.247476e+01 -1.715710e+00 5.652935e+00 -4.945387e+00 -3.928274e+00 -2.068108e+00 3.802361e+00 2.217433e-01 -3.038462e+00 3.473660e-01 7.279708e-01 3.984851e-02 -6.423556e-01 -2.475912e-01 4.305855e-01 2.705169e-01 -2.625943e-01 -6.338340e-01 -2.460395e-01 3.206668e-01 5.710377e-01 -4.911236e-01
<VARIANCE> 25
 1.357274e+01 2.833112e+01 3.449096e+01 5.022428e+01 5.718958e+01 7.427239e+01 6.137212e+01 4.787786e+01 6.459022e+01 8.570318e+01 6.041432e+01 4.872499e+01 4.620526e-01 1.453663e+00 1.134564e+00 2.373138e+00 2.559087e+00 2.439360e+00 2.533739e+00 2.533172e+00 2.424698e+00 3.173343e+00 2.778554e+00 2.406270e+00 8.935980e-01
<GCONST> 1.004132e+02
<STATE> 4
<MEAN> 25
 9.241444e+00 3.620964e+00 -5.681270e+00 -1.133480e+01 -3.129469e+00 5.534353e+00 -3.165981e+00 -5.129323e+00 -4.775598e+00 -4.714562e-01 -4.459013e-01 -9.381949e-01 -3.170348e-01 3.544412e-01 5.109783e-01 1.246153e+00 3.374452e-01 -5.372556e-01 -4.684977e-02 -7.024711e-02 1.886889e-01 -3.830749e-01 -2.295220e-01 6.938379e-02 -7.331223e-01
<VARIANCE> 25
 1.413271e+01 3.319202e+01 4.248896e+01 7.146225e+01 7.084434e+01 5.305339e+01 8.122471e+01 5.282359e+01 6.093266e+01 7.687823e+01 5.248997e+01 5.152271e+01 8.912950e-01 1.763063e+00 1.995898e+00 3.512082e+00 3.103733e+00 2.584279e+00 2.946566e+00 3.230645e+00 3.886764e+00 3.543656e+00 2.722111e+00 2.708982e+00 1.034211e+00
<GCONST> 1.044558e+02
<TRANSP> 5
 0.000000e+00 1.000000e+00 0.000000e+00 0.000000e+00 0.000000e+00
 0.000000e+00 7.041260e-01 2.958740e-01 0.000000e+00 0.000000e+00
 0.000000e+00 0.000000e+00 7.765244e-01 2.234756e-01 0.000000e+00
 0.000000e+00 0.000000e+00 0.000000e+00 8.619497e-01 1.380503e-01
 0.000000e+00 0.000000e+00 0.000000e+00 0.000000e+00 0.000000e+00
<ENDHMM>
~h "oy"
<BEGINHMM>
<NUMSTATES> 5
<STATE> 2
<MEAN> 25
 7.283840e+00 -4.660371e-01 -4.766379e+00 -7.665900e+00 -2.843769e+00 2.822008e+00 -4.098869e+00 -7.394252e-01 -3.369714e+00 2.288062e+00 4.571177e+00 5.374513e-01 7.150663e-01 -4.355993e-01 -7.349350e-01 -1.753021e+00 -4.243297e-01 8.268040e-01 2.619942e-01 5.225323e-01 -3.927787e-01 9.583433e-01 7.150679e-01 -1.803293e-01 4.463484e-01
<VARIANCE> 25
 2.294771e+01 2.891316e+01 3.076867e+01 8.380545e+01 5.222216e+01 5.544408e+01 6.600807e+01 4.383274e+01 4.724813e+01 4.254309e+01 4.998009e+01 2.629722e+01 2.749698e+00 1.446263e+00 2.554899e+00 1.144911e+01 4.623035e+00 9.912593e+00 3.537671e+00 3.971726e+00 4.685748e+00 4.387881e+00 4.971735e+00 3.356674e+00 9.669117e-01
<GCONST> 1.080559e+02
<STATE> 3
<MEAN> 25
 8.045664e+00 -2.565192e+00 -4.133732e+00 -1.176227e+01 -3.030844e+00 2.590968e+00 -8.708323e-01 1.164487e+00 -2.525470e+00 5.019444e+00 1.845983e+00 3.491933e-01 -2.822592e-02 -2.069619e-01 4.069674e-01 4.132156e-01 7.702254e-03 -2.342298e-01 3.183962e-01 2.163432e-01 3.390051e-01 3.286417e-02 -5.324757e-01 -1.692513e-01 -3.958873e-03
<VARIANCE> 25
 1.987669e+01 4.323825e+01 4.898319e+01 8.986349e+01 5.414702e+01 1.317382e+02 2.818364e+01 3.692500e+01 3.999033e+01 5.266262e+01 4.104347e+01 3.538173e+01 1.117902e+00 2.679460e+00 2.004807e+00 6.661393e+00 3.547528e+00 8.280672e+00 3.447756e+00 4.402192e+00 3.842953e+00 5.105106e+00 3.183572e+00 3.824208e+00 8.165569e-01
<GCONST> 1.069086e+02
<STATE> 4
<MEAN> 25
 2.583670e+00 -5.955495e+00 -1.297621e+00 -5.440717e+00 1.112215e+00 2.317129e+00 -1.172982e+00 1.997496e+00 2.943735e+00 2.251820e+00 1.394231e+00 1.193273e+00 -1.751418e-01 1.122393e-01 2.953442e-01 2.995384e-01 -3.547689e-02 -2.614950e-01 -9.264003e-02 -2.058088e-02 1.119666e-01 5.094781e-02 -3.857539e-01 1.132734e-01 1.373175e-01
<VARIANCE> 25
 3.211749e+01 4.525798e+01 4.635615e+01 6.760282e+01 3.618368e+01 9.695527e+01 3.156741e+01 1.803721e+01 3.938328e+01 5.375523e+01 3.107262e+01 1.823868e+01 1.194202e+00 2.638272e+00 2.121216e+00 3.967767e+00 2.551316e+00 4.145036e+00 3.198954e+00 2.478954e+00 3.354199e+00 4.136154e+00 2.979366e+00 2.515846e+00 1.835224e+00
<GCONST> 1.027422e+02
<TRANSP> 5
 0.000000e+00 1.000000e+00 0.000000e+00 0.000000e+00 0.000000e+00
 0.000000e+00 7.492633e-01 2.507368e-01 0.000000e+00 0.000000e+00
 0.000000e+00 0.000000e+00 8.048431e-01 1.951569e-01 0.000000e+00
 0.000000e+00 0.000000e+00 0.000000e+00 8.621879e-01 1.378121e-01
 0.000000e+00 0.000000e+00 0.000000e+00 0.000000e+00 0.000000e+00
<ENDHMM>
~h "sh"
<BEGINHMM>
<NUMSTATES> 5
<STATE> 2
<MEAN> 25
 -1.146662e+01 1.082850e+00 1.102317e+01 1.274343e+00 -2.239047e+00 -2.393137e-01 2.293484e+00 -1.186970e+00 -1.081427e-01 -2.237229e+00 1.448407e+00 7.967104e-01 -4.594214e+00 -4.340470e-01 3.422006e-01 -2.153654e-01 1.094583e+00 1.192213e+00 1.400803e+00 5.605003e-01 1.505499e+00 4.091402e-01 1.047842e+00 4.692853e-01 7.124398e-01
<VARIANCE> 25
 8.363689e+01 3.358030e+01 3.278512e+01 4.282187e+01 3.905812e+01 5.247550e+01 4.358514e+01 3.418800e+01 4.474640e+01 3.263570e+01 3.057595e+01 2.440170e+01 4.154373e+00 3.258706e+00 3.171702e+00 3.061442e+00 4.344430e+00 4.070754e+00 4.277690e+00 3.964364e+00 3.226588e+00 3.965106e+00 3.140963e+00 2.555129e+00 1.702460e+00
<GCONST> 1.057134e+02
<STATE> 3
<MEAN> 25
 -2.194245e+01 -1.361138e+00 9.960010e+00 -8.799757e-01 -2.909210e-01 3.568752e+00 5.526559e+00 5.198948e-01 3.902542e+00 -1.974237e-01 4.759536e+00 2.008071e+00 -3.946537e-01 -2.689762e-01 -1.372525e-01 -2.193270e-01 -2.478875e-02 1.864241e-01 2.758229e-01 1.166633e-01 2.324927e-01 1.335921e-01 1.152547e-01 1.175622e-01 6.560172e-02
<VARIANCE> 25
 3.333022e+01 4.039284e+01 2.123087e+01 3.376326e+01 3.505460e+01 4.709638e+01 3.563109e+01 2.688230e+01 2.548270e+01 2.950212e+01 2.435247e+01 1.867534e+01 2.753356e+00 8.710368e-01 1.076727e+00 1.273176e+00 1.312847e+00 1.737120e+00 1.658023e+00 1.730654e+00 1.790408e+00 1.721735e+00 1.373392e+00 1.316996e+00 6.652440e-01
<GCONST> 9.112253e+01
<STATE> 4
<MEAN> 25
 -1.320607e+01 -5.195205e-01 9.172013e+00 1.188062e-01 -2.269209e+00 6.556276e-01 3.706545e+00 2.034723e-01 2.304760e+00 -1.350915e+00 2.721281e+00 9.485794e-01 3.917368e+00 5.440527e-01 -1.966741e-01 1.218733e-01 -1.041413e+00 -1.509136e+00 -1.652494e+00 -4.104051e-01 -9.095753e-01 -7.216930e-01 -9.433681e-01 -5.347375e-01 -1.543917e-01
<VARIANCE> 25
 9.242534e+01 3.971310e+01 2.496785e+01 3.211143e+01 4.947868e+01 5.392096e+01 5.149914e+01 2.956928e+01 3.344389e+01 3.936841e+01 2.709484e+01 1.912340e+01 8.344002e+00 3.123249e+00 2.787079e+00 2.524937e+00 4.060997e+00 4.170047e+00 3.827698e+00 3.146792e+00 3.439465e+00 3.061319e+00 2.298418e+00 1.695102e+00 2.027651e+00
<GCONST> 1.044429e+02
<TRANSP> 5
 0.000000e+00 1.000000e+00 0.000000e+00 0.000000e+00 0.000000e+00
 0.000000e+00 6.998171e-01 3.001829e-01 0.000000e+00 0.000000e+00
 0.000000e+00 0.000000e+00 8.366076e-01 1.633924e-01 0.000000e+00
 0.000000e+00 0.000000e+00 0.000000e+00 7.855001e-01 2.144999e-01
 0.000000e+00 0.000000e+00 0.000000e+00 0.000000e+00 0.000000e+00
<ENDHMM>
~h "th"
<BEGINHMM>
<NUMSTATES> 5
<STATE> 2
<MEAN> 25
 -5.083405e+00 3.737456e+00 -1.317562e+00 5.752213e+00 3.140013e+00 1.245709e+00 4.062175e+00 3.046034e-01 4.100856e+00 1.004559e+00 7.860944e-01 1.860272e+00 -2.061948e+00 2.199756e-01 -3.485998e-01 6.338490e-01 8.220869e-01 6.419957e-01 1.090466e+00 4.767252e-01 8.463444e-01 9.754983e-01 1.225177e+00 5.275717e-01 -1.061453e+00
<VARIANCE> 25
 4.389097e+01 2.440561e+01 2.770268e+01 3.598172e+01 4.684594e+01 4.620744e+01 4.134967e+01 3.871317e+01 3.102189e+01 4.811156e+01 3.242656e+01 2.680807e+01 4.140818e+00 3.350898e+00 3.138326e+00 4.468822e+00 3.712520e+00 4.374773e+00 4.294418e+00 3.750688e+00 4.403604e+00 4.705238e+00 3.850904e+00 2.513181e+00 2.991117e+00
<GCONST> 1.061965e+02
<STATE> 3
<MEAN> 25
 -9.760808e+00 2.999291e+00 -1.697499e+00 5.438530e+00 4.598824e+00 2.973225e+00 5.984828e+00 2.092704e+00 5.115331e+00 2.496916e+00 3.327448e+00 3.549653e+00 -1.077134e-01 -4.444330e-01 -8.969143e-02 -3.858454e-01 -1.145288e-01 6.321161e-02 -3.375100e-03 1.389793e-01 -6.466475e-02 4.516310e-02 1.073854e-02 2.053902e-02 -1.903999e-02
<VARIANCE> 25
 4.185408e+01 2.555741e+01 2.568743e+01 2.950611e+01 2.806511e+01 3.416150e+01 2.742892e+01 2.522201e+01 2.386314e+01 3.332761e+01 2.260132e+01 2.434707e+01 3.568115e+00 2.115471e+00 2.008822e+00 2.548498e+00 2.286606e+00 2.973252e+00 2.181016e+00 2.115031e+00 2.408030e+00 2.609955e+00 3.116701e+00 1.941178e+00 4.365318e+00
<GCONST> 9.815857e+01
<STATE> 4
<MEAN> 25
 -4.480311e+00 7.286509e-01 -7.230711e-02 4.163616e+00 2.403775e+00 3.323975e+00 4.422771e+00 1.148691e+00 2.707886e+00 1.102506e+00 4.385591e+00 2.175128e+00 6.104053e-01 -2.659509e-01 1.221377e-01 -2.588508e-01 -4.431331e-01 -3.687215e-01 -3.513030e-01 -3.219840e-02 -1.774422e-01 -1.459528e-01 -2.485326e-01 -1.602156e-01 4.929579e-01
<VARIANCE> 25
 4.315866e+01 2.578407e+01 2.246714e+01 2.388519e+01 3.031561e+01 2.683184e+01 2.453705e+01 2.980657e+01 2.231765e+01 2.344567e+01 3.169798e+01 2.261001e+01 2.951004e+00 1.522397e+00 2.071287e+00 2.036960e+00 2.776854e+00 2.928634e+00 2.210486e+00 2.306744e+00 1.912800e+00 2.182050e+00 2.128066e+00 2.023207e+00 2.570907e+00
<GCONST> 9.587771e+01
<TRANSP> 5
 0.000000e+00 1.000000e+00 0.000000e+00 0.000000e+00 0.000000e+00
 0.000000e+00 6.914565e-01 3.085435e-01 0.000000e+00 0.000000e+00
 0.000000e+00 0.000000e+00 7.322285e-01 2.677715e-01 0.000000e+00
 0.000000e+00 0.000000e+00 0.000000e+00 8.855000e-01 1.145001e-01
 0.000000e+00 0.000000e+00 0.000000e+00 0.000000e+00 0.000000e+00
<ENDHMM>
~h "uh"
<BEGINHMM>
<NUMSTATES> 5
<STATE> 2
<MEAN> 25
 4.462300e-01 -4.087089e-01 -3.143078e-01 -8.962006e-01 8.690177e-01 -1.922873e+00 -4.045609e+00 -3.255754e+00 -1.324081e+00 1.024596e+00 8.828391e-01 -3.890018e-01 2.731040e+00 2.088618e-01 4.439832e-01 -9.368110e-01 -2.068852e+00 -1.070706e+00 -1.878135e+00 -6.607975e-01 -1.290214e+00 -6.171842e-01 -5.422032e-01 -5.189875e-01 1.283753e+00
<VARIANCE> 25
 5.172251e+01 3.445060e+01 6.418591e+01 5.776074e+01 6.759053e+01 7.819000e+01 8.119499e+01 3.714226e+01 4.671704e+01 4.711239e+01 4.864999e+01 4.057515e+01 6.581616e+00 4.756979e+00 5.281265e+00 7.139528e+00 6.310908e+00 5.818640e+00 8.685140e+00 6.434198e+00 4.502860e+00 5.952762e+00 4.864562e+00 4.305645e+00 5.584764e+00
<GCONST> 1.162699e+02
<STATE> 3
<MEAN> 25
 4.918692e+00 -6.867923e-01 1.667832e-01 -2.331004e+00 -4.115033e+00 -2.891140e+00 -7.627936e+00 -3.818956e+00 -3.248496e+00 1.286796e+00 -8.481956e-02 -2.084834e+00 1.343266e+00 -4.809099e-02 1.929519e-01 -5.655273e-02 -1.142444e+00 -2.333502e-01 -6.054687e-01 -2.194831e-01 -3.422612e-01 -1.143226e-01 1.430673e-01 -1.714192e-02 1.135355e-01
<VARIANCE> 25
 2.797994e+01 3.352106e+01 6.534949e+01 5.545139e+01 6.265444e+01 7.077531e+01 6.691955e+01 4.821097e+01 4.638797e+01 4.306153e+01 6.230856e+01 4.217675e+01 4.165756e+00 3.867464e+00 5.561574e+00 7.774198e+00 5.793215e+00 6.086113e+00 6.250026e+00 5.715835e+00 6.310145e+00 4.887825e+00 3.837472e+00 2.901878e+00 4.713550e+00
<GCONST> 1.140099e+02
<STATE> 4
<MEAN> 25
 6.419399e+00 -1.027054e+00 1.153163e+00 -1.077640e-02 -5.001762e+00 -3.175999e+00 -8.900019e+00 -4.000058e+00 -1.020868e+00 1.687916e+00 9.377960e-01 -2.220827e+00 1.746826e-01 4.001064e-01 2.107363e-01 6.193515e-01 2.890379e-01 -6.013878e-02 6.316408e-01 2.248684e-01 5.305997e-01 -1.032600e-01 -1.313968e-02 3.047153e-01 -1.053388e+00
<VARIANCE> 25
 2.320177e+01 3.573135e+01 8.858183e+01 6.682349e+01 4.822285e+01 4.890671e+01 5.895240e+01 4.712096e+01 5.811216e+01 3.504129e+01 6.788597e+01 3.578004e+01 1.804787e+00 3.911260e+00 3.509996e+00 4.699601e+00 4.423150e+00 4.324987e+00 6.015957e+00 3.192434e+00 4.399097e+00 2.693312e+00 3.265841e+00 2.905835e+00 4.444964e+00
<GCONST> 1.093405e+02
<TRANSP> 5
 0.000000e+00 1.000000e+00 0.000000e+00 0.000000e+00 0.000000e+00
 0.000000e+00 3.788210e-01 6.211790e-01 0.000000e+00 0.000000e+00
 0.000000e+00 0.000000e+00 3.335131e-01 6.664869e-01 0.000000e+00
 0.000000e+00 0.000000e+00 0.000000e+00 6.856301e-01 3.143698e-01
 0.000000e+00 0.000000e+00 0.000000e+00 0.000000e+00 0.000000e+00
<ENDHMM>
~h "uw"
<BEGINHMM>
<NUMSTATES> 5
<STATE> 2
<MEAN> 25
 -1.867948e+00 2.113849e+00 5.046019e+00 3.217371e+00 -2.190656e+00 -4.957134e+00 -2.567307e+00 -2.951985e+00 -3.100358e+00 -4.869803e-01 1.303169e-01 1.496678e-01 2.376282e+00 2.062559e-01 2.448162e-01 1.279457e-01 -1.310743e+00 -8.393677e-01 -1.884944e+00 -1.448546e+00 -9.531053e-01 -6.333809e-01 -8.767029e-01 -7.299713e-01 5.805681e-01
<VARIANCE> 25
 8.330578e+01 3.263388e+01 4.781774e+01 5.589009e+01 6.543308e+01 5.433610e+01 8.299118e+01 6.516780e+01 5.167122e+01 6.045895e+01 3.755588e+01 3.472600e+01 8.101536e+00 3.694351e+00 4.939604e+00 4.893067e+00 7.624803e+00 7.213471e+00 7.482147e+00 5.754276e+00 6.139382e+00 6.335020e+00 5.114434e+00 3.565550e+00 4.506115e+00
<GCONST> 1.161611e+02
<STATE> 3
<MEAN> 25
 4.358330e+00 1.696278e+00 4.520750e+00 2.381519e+00 -5.555953e+00 -5.731910e+00 -7.735918e+00 -5.763406e+00 -4.666766e+00 -1.867644e+00 -1.477733e+00 -1.335175e+00 1.402854e+00 3.279211e-02 -5.282195e-01 -2.874048e-01 -4.774669e-01 1.130434e-01 -8.892170e-01 -6.543225e-01 -4.060871e-01 1.270323e-02 -3.293785e-01 -4.661086e-01 -4.520607e-02
<VARIANCE> 25
 2.987628e+01 3.025794e+01 5.098705e+01 5.763449e+01 5.984375e+01 6.060361e+01 6.315609e+01 6.045312e+01 4.901243e+01 5.594699e+01 4.635555e+01 3.267618e+01 4.400937e+00 3.683376e+00 4.061960e+00 4.005838e+00 7.047672e+00 6.080138e+00 8.197234e+00 5.381950e+00 4.858075e+00 5.439942e+00 4.679696e+00 3.715979e+00 3.486433e+00
<GCONST> 1.129213e+02
<STATE> 4
<MEAN> 25
 6.331923e+00 2.395828e+00 2.984257e+00 1.793484e+00 -5.014317e+00 -3.678069e+00 -8.320991e+00 -6.378133e+00 -5.169178e+00 -1.091712e+00 -1.580584e+00 -2.218669e+00 -1.649769e-01 3.100689e-01 -4.069017e-01 9.647375e-02 9.140979e-01 5.399699e-01 6.911800e-01 2.919984e-01 3.672563e-01 1.803779e-01 5.569763e-02 1.482861e-01 -7.788734e-01
<VARIANCE> 25
 2.635456e+01 3.771383e+01 5.664457e+01 5.271241e+01 7.307002e+01 7.737479e+01 6.562482e+01 5.262382e+01 5.274199e+01 5.696189e+01 5.962352e+01 3.814091e+01 2.322267e+00 2.836568e+00 3.206486e+00 2.743318e+00 4.715064e+00 5.017016e+00 5.654068e+00 4.628257e+00 4.121686e+00 4.461936e+00 3.696736e+00 2.944751e+00 2.508130e+00
<GCONST> 1.100811e+02
<TRANSP> 5
 0.000000e+00 1.000000e+00 0.000000e+00 0.000000e+00 0.000000e+00
 0.000000e+00 4.424522e-01 5.575477e-01 0.000000e+00 0.000000e+00
 0.000000e+00 0.000000e+00 3.735722e-01 6.264277e-01 0.000000e+00
 0.000000e+00 0.000000e+00 0.000000e+00 7.721708e-01 2.278292e-01
 0.000000e+00 0.000000e+00 0.000000e+00 0.000000e+00 0.000000e+00
<ENDHMM>
~h "zh"
<BEGINHMM>
<NUMSTATES> 5
<STATE> 2
<MEAN> 25
 4.928058e+00 8.802440e+00 3.445004e+00 7.614144e+00 5.038511e+00 8.989429e+00 8.014118e+00 -1.041216e+01 4.861384e+00 -1.866134e+00 -2.750519e+00 2.302202e+00 -6.256635e-01 8.013162e-01 -8.420521e-02 2.800353e-01 1.031854e+00 3.044978e-01 7.935632e-01 1.280162e-02 2.351155e-01 2.238696e-01 9.314520e-02 -8.781646e-02 -8.699614e-01
<VARIANCE> 25
 4.127751e+01 4.948964e+01 4.075009e+01 8.819141e+00 1.848044e+02 5.739696e+01 4.814167e+01 5.542760e+01 2.369465e+01 1.257193e+01 3.360195e+01 1.798546e+01 2.274362e+00 5.461174e+00 5.939027e+00 1.608681e+00 6.847195e+00 7.377115e-01 1.516404e+00 4.176023e+00 1.762151e+00 2.345838e+00 1.222085e+00 2.538292e+00 2.507884e+00
<GCONST> 1.004251e+02
<STATE> 3
<MEAN> 25
 -6.611980e+00 2.597303e+00 7.443225e+00 4.974660e+00 -7.925677e-02 -2.534454e-01 1.322882e+00 1.858053e+00 1.836230e+00 -1.457025e+00 1.634541e+00 -1.252987e+00 -1.325091e+00 -6.563386e-01 5.074186e-01 9.001187e-02 -3.398882e-01 4.165383e-01 1.865736e-01 -3.422871e-01 5.804075e-01 -2.092323e-01 3.703304e-01 3.772961e-02 1.156264e+00
<VARIANCE> 25
 1.508506e+02 1.041868e+02 4.974036e+01 1.135368e+01 1.177743e+02 4.544579e+01 5.688400e+01 4.846262e+01 4.276431e+01 2.069256e+01 1.986390e+01 1.946841e+01 1.277495e+01 7.517934e+00 2.891645e+00 2.188166e+00 7.497981e+00 4.502207e+00 5.440763e+00 4.699172e+00 3.319357e+00 3.215281e+00 2.153503e+00 2.236760e+00 8.222458e+00
<GCONST> 1.104129e+02
<STATE> 4
<MEAN> 25
 -5.722563e+00 -3.700840e+00 8.332818e+00 9.953909e+00 5.081593e+00 4.009791e+00 5.310715e+00 5.195405e+00 7.124374e+00 -3.842521e+00 7.382527e+00 3.180724e+00 3.762257e-01 -3.791267e-02 -1.782307e-01 2.372750e-01 8.764319e-02 -1.413831e-01 -2.047113e-01 1.176469e-01 3.970191e-04 9.770578e-02 -9.818905e-02 -1.881771e-02 -1.241092e-01
<VARIANCE> 25
 4.059870e+01 3.136561e+01 4.561882e+01 4.458891e+01 2.388183e+01 2.739891e+01 6.463083e+01 4.891038e+01 3.261290e+01 7.037279e+01 2.350425e+01 1.401331e+01 1.964797e+00 9.444585e-01 1.467960e+00 1.233918e+00 1.298911e+00 1.546546e+00 2.070991e+00 1.141644e+00 2.009852e+00 1.536735e+00 1.491677e+00 1.224150e+00 5.451982e-01
<GCONST> 9.268582e+01
<TRANSP> 5
 0.000000e+00 1.000000e+00 0.000000e+00 0.000000e+00 0.000000e+00
 0.000000e+00 8.866919e-01 1.133081e-01 0.000000e+00 0.000000e+00
 0.000000e+00 0.000000e+00 8.737239e-01 1.262762e-01 0.000000e+00
 0.000000e+00 0.000000e+00 0.000000e+00 9.670105e-01 3.298948e-02
 0.000000e+00 0.000000e+00 0.000000e+00 0.000000e+00 0.000000e+00
<ENDHMM>
~h "sil"
<BEGINHMM>
<NUMSTATES> 5
<STATE> 2
<MEAN> 25
 -4.136606e+00 4.157254e-02 7.083009e-01 5.064970e+00 5.885089e+00 3.649055e+00 5.448023e+00 3.351841e+00 3.322753e+00 1.535842e+00 3.173306e+00 2.633759e+00 -7.221511e-02 -1.696209e-01 -7.428579e-02 -8.454156e-02 3.378865e-02 4.151916e-02 3.856558e-03 4.518016e-02 7.707480e-02 5.238915e-02 8.265115e-05 3.575844e-02 -1.536139e-01
<VARIANCE> 25
 2.839296e+01 4.388114e+01 3.653461e+01 3.248608e+01 3.582926e+01 3.380201e+01 4.701122e+01 4.905580e+01 3.815696e+01 3.790795e+01 3.915015e+01 2.474121e+01 6.068383e-01 9.480606e-01 1.042078e+00 1.375670e+00 1.590885e+00 1.859124e+00 1.825403e+00 2.089483e+00 1.985960e+00 1.760642e+00 1.757015e+00 1.521249e+00 6.611688e-01
