~o
<STREAMINFO> 1 25
<VECSIZE> 25<NULLD><MFCC_D_N_Z_0><DIAGC>
~s "silst"
<MEAN> 25
 -4.058741e+00 -1.936146e-01 -8.015163e-01 4.172126e+00 5.682683e+00 3.961729e+00 4.825532e+00 3.227468e+00 3.093978e+00 2.179993e+00 2.800230e+00 2.622356e+00 -5.990468e-03 7.043793e-03 -1.288570e-02 3.863251e-03 1.481643e-02 5.514894e-02 1.493402e-02 -1.423260e-02 1.382854e-02 2.766686e-02 2.235754e-02 2.854996e-04 -5.247995e-02
<VARIANCE> 25
 1.571513e+01 2.284033e+01 1.637976e+01 1.821474e+01 1.999258e+01 2.524268e+01 2.527964e+01 2.794084e+01 2.672252e+01 2.364661e+01 2.353441e+01 1.712000e+01 2.185233e-01 4.496254e-01 5.578677e-01 7.629306e-01 9.787689e-01 1.225548e+00 1.341340e+00 1.455275e+00 1.493744e+00 1.491932e+00 1.412691e+00 1.314791e+00 1.982583e-01
<GCONST> 8.023849e+01
~h "b"
<BEGINHMM>
<NUMSTATES> 5
<STATE> 2
<MEAN> 25
 4.233560e+00 7.620642e+00 3.258597e+00 6.216779e+00 5.097525e+00 9.001151e-01 1.029593e+00 -2.933373e+00 -8.111598e-01 -8.653101e-02 -9.855403e-01 -1.549827e+00 -7.124022e-01 9.239127e-02 1.890097e-01 3.697756e-01 6.439009e-01 2.381828e-01 5.188549e-01 1.261856e-01 1.626542e-01 -3.062851e-02 2.571965e-02 2.649869e-01 -2.643142e-01
<VARIANCE> 25
 5.194239e+01 3.687827e+01 2.895383e+01 3.153149e+01 3.227489e+01 4.782389e+01 5.093950e+01 3.220846e+01 4.886409e+01 4.194378e+01 3.942995e+01 3.212883e+01 2.849911e+00 4.384816e+00 2.615515e+00 3.507046e+00 3.785289e+00 3.654801e+00 3.724092e+00 3.378209e+00 3.674718e+00 3.504416e+00 2.712864e+00 2.811858e+00 6.451405e+00
<GCONST> 1.061884e+02
<STATE> 3
<MEAN> 25
 5.771385e-01 3.088220e+00 2.197870e+00 4.693605e+00 5.141414e+00 1.622583e+00 1.334778e+00 -1.718288e+00 1.131542e+00 7.641830e-01 1.547818e-01 -1.375101e-01 1.042327e-01 -2.256564e+00 -8.457839e-01 -2.224550e+00 -1.884300e+00 -1.300085e+00 -1.187767e+00 -1.879920e-01 5.326477e-01 2.569743e-01 5.987981e-02 1.118485e-01 4.795274e+00
<VARIANCE> 25
 2.744231e+01 3.276916e+01 2.362353e+01 3.106489e+01 2.268022e+01 3.968157e+01 3.824712e+01 3.329145e+01 3.298388e+01 3.025748e+01 2.759394e+01 2.496827e+01 5.470294e+00 4.118394e+00 5.809717e+00 5.514390e+00 4.343673e+00 6.463130e+00 4.897734e+00 4.995136e+00 4.970355e+00 5.246962e+00 4.034788e+00 3.922959e+00 5.909788e+00
<GCONST> 1.076528e+02
<STATE> 4
<MEAN> 25
 2.734151e+00 -2.168104e-01 1.898846e-01 -5.297683e-02 2.809218e-02 -2.530440e+00 -2.433098e+00 -3.196972e+00 1.395102e+00 6.943939e-01 1.843144e-01 -6.548355e-01 1.174345e+00 -1.936259e+00 -6.821384e-01 -2.806219e+00 -2.682786e+00 -8.692012e-01 -1.442242e+00 7.745806e-02 -7.951513e-02 -1.855356e-01 2.901003e-02 -3.006412e-01 4.176134e+00
<VARIANCE> 25
 3.655671e+01 3.342509e+01 4.748895e+01 4.971466e+01 2.949159e+01 6.139904e+01 4.251295e+01 3.894666e+01 4.100657e+01 3.590009e+01 3.272193e+01 3.045926e+01 5.837883e+00 5.362301e+00 9.530761e+00 7.146255e+00 6.475510e+00 8.022029e+00 6.548582e+00 5.377566e+00 6.504934e+00 6.081000e+00 5.799487e+00 5.000808e+00 4.981621e+00
<GCONST> 1.137617e+02
<TRANSP> 5
 0.000000e+00 1.000000e+00 0.000000e+00 0.000000e+00 0.000000e+00
 0.000000e+00 6.597063e-01 3.402936e-01 0.000000e+00 0.000000e+00
 0.000000e+00 0.000000e+00 3.257389e-01 6.742612e-01 0.000000e+00
 0.000000e+00 0.000000e+00 0.000000e+00 8.375898e-02 9.162410e-01
 0.000000e+00 0.000000e+00 0.000000e+00 0.000000e+00 0.000000e+00
<ENDHMM>
~h "d"
<BEGINHMM>
<NUMSTATES> 5
<STATE> 2
<MEAN> 25
 6.405823e+00 3.945596e+00 7.210917e+00 5.919240e+00 -3.391978e+00 -4.176044e+00 -2.656917e+00 -2.249453e+00 -2.077458e+00 -2.448747e+00 -2.729585e+00 -8.480255e-01 -5.135950e-01 1.344291e+00 2.254671e-01 1.077257e+00 2.025111e+00 1.047050e+00 7.535721e-01 -5.462897e-02 3.208736e-01 -2.127832e-01 -1.306864e-01 -4.227685e-01 -2.231430e+00
<VARIANCE> 25
 1.910157e+01 4.563872e+01 3.689814e+01 4.687749e+01 5.250245e+01 4.534727e+01 4.249286e+01 4.138477e+01 4.555200e+01 3.816479e+01 3.254648e+01 3.414493e+01 2.688977e+00 4.404419e+00 2.917968e+00 4.108180e+00 4.230125e+00 4.405558e+00 4.113501e+00 4.222209e+00 4.062356e+00 3.383067e+00 3.300222e+00 3.021759e+00 4.523064e+00
<GCONST> 1.070596e+02
<STATE> 3
<MEAN> 25
 3.457625e+00 6.220122e+00 5.899328e+00 6.357626e+00 2.326876e+00 -2.966252e-02 -1.578770e-01 -2.818334e+00 -2.269768e+00 -2.177653e+00 -2.376157e+00 -1.474289e+00 -2.146176e+00 -1.144829e+00 -6.374523e-01 -9.533528e-01 8.736251e-01 6.888598e-01 7.174910e-01 5.804467e-01 7.272859e-01 5.249661e-01 9.040946e-01 6.057280e-01 7.928568e-01
<VARIANCE> 25
 2.633327e+01 3.791808e+01 3.633829e+01 3.995164e+01 3.770387e+01 4.184524e+01 3.602825e+01 3.632660e+01 3.799943e+01 3.088046e+01 2.673463e+01 2.849506e+01 3.759680e+00 4.539858e+00 3.453051e+00 5.201807e+00 4.730778e+00 5.059659e+00 4.215836e+00 4.823741e+00 5.133457e+00 4.250380e+00 3.389720e+00 3.249175e+00 5.497101e+00
<GCONST> 1.074771e+02
<STATE> 4
<MEAN> 25
 -3.117435e+00 1.012232e+00 3.601239e+00 2.238012e+00 1.067532e+00 1.951198e-01 2.928265e+00 1.289757e-01 1.823963e+00 8.032414e-01 1.233318e+00 1.811899e+00 -7.568190e-01 -6.248555e-01 -3.233910e-01 -6.206066e-01 -5.389504e-01 -3.933701e-01 -1.900458e-02 3.953971e-01 3.577094e-01 2.828338e-01 3.799016e-01 2.972854e-01 9.424928e-01
<VARIANCE> 25
 5.030554e+01 4.808711e+01 4.170312e+01 4.471451e+01 6.090870e+01 5.301634e+01 5.592986e+01 5.303329e+01 4.790412e+01 4.254967e+01 3.412901e+01 3.004781e+01 5.198007e+00 4.117105e+00 3.428850e+00 4.590269e+00 5.829741e+00 5.708096e+00 4.767312e+00 4.735861e+00 4.645284e+00 3.966287e+00 3.389558e+00 2.946514e+00 7.896789e+00
<GCONST> 1.116196e+02
<TRANSP> 5
 0.000000e+00 1.000000e+00 0.000000e+00 0.000000e+00 0.000000e+00
 0.000000e+00 5.215508e-01 4.784492e-01 0.000000e+00 0.000000e+00
 0.000000e+00 0.000000e+00 3.023260e-01 6.976740e-01 0.000000e+00
 0.000000e+00 0.000000e+00 0.000000e+00 6.099889e-01 3.900110e-01
 0.000000e+00 0.000000e+00 0.000000e+00 0.000000e+00 0.000000e+00
<ENDHMM>
~h "f"
<BEGINHMM>
<NUMSTATES> 5
<STATE> 2
<MEAN> 25
 -7.013634e+00 2.020988e+00 -6.241366e-01 5.220925e+00 3.225216e+00 2.007077e+00 2.037095e+00 4.648181e-01 1.906068e+00 8.866744e-01 4.560232e-01 1.146177e+00 -2.936446e+00 -5.545001e-02 -2.912815e-01 7.805031e-01 4.944853e-01 4.550734e-01 6.663662e-01 9.124704e-01 8.956144e-01 7.052854e-01 7.337730e-01 8.426258e-01 -7.156429e-01
<VARIANCE> 25
 4.767474e+01 2.564910e+01 3.696601e+01 2.808650e+01 4.182295e+01 4.297451e+01 3.640479e+01 3.516338e+01 3.021755e+01 3.307809e+01 3.021790e+01 2.739810e+01 4.107182e+00 2.888347e+00 2.947943e+00 3.371675e+00 3.883650e+00 3.538895e+00 3.759918e+00 3.725709e+00 3.475090e+00 3.541992e+00 2.587241e+00 2.871504e+00 1.932227e+00
<GCONST> 1.034807e+02
<STATE> 3
<MEAN> 25
 -1.268417e+01 -9.469059e-01 -3.755211e+00 4.337497e+00 2.874520e+00 2.062312e+00 2.339879e+00 2.835011e+00 3.852042e+00 3.190605e+00 2.358865e+00 2.869908e+00 -5.525514e-02 -3.070509e-01 -1.876013e-01 -1.522856e-01 3.970806e-02 8.030929e-02 6.831900e-02 -5.070594e-02 -3.788757e-02 1.885930e-02 4.008657e-02 7.043335e-03 5.309670e-02
<VARIANCE> 25
 2.236806e+01 3.203965e+01 2.189616e+01 2.315735e+01 2.042413e+01 3.315891e+01 2.393637e+01 2.268534e+01 3.145002e+01 2.762693e+01 2.003729e+01 1.948458e+01 1.494441e+00 9.331155e-01 1.112496e+00 1.259162e+00 1.421667e+00 1.690498e+00 1.564661e+00 1.682889e+00 1.826173e+00 1.761284e+00 1.350275e+00 1.390882e+00 1.095724e+00
<GCONST> 8.870427e+01
<STATE> 4
<MEAN> 25
 -9.128805e+00 -1.464682e+00 -2.646703e+00 3.749717e+00 2.845085e+00 1.612798e+00 3.617183e+00 1.435869e+00 2.803434e+00 1.922988e+00 1.851880e+00 2.623108e+00 3.095692e+00 -1.278346e-03 -1.046907e-01 -1.212561e+00 -9.782597e-01 -1.065935e+00 -8.871934e-01 -5.979427e-01 -7.910240e-01 -5.898339e-01 -5.509117e-01 -6.655412e-01 1.466015e+00
<VARIANCE> 25
 4.318370e+01 3.395850e+01 3.875871e+01 3.822017e+01 3.686318e+01 4.259890e+01 4.082893e+01 2.931301e+01 3.848045e+01 2.714231e+01 2.581964e+01 2.341838e+01 8.545757e+00 4.481557e+00 4.546849e+00 4.601050e+00 4.266950e+00 5.524571e+00 5.029629e+00 3.496237e+00 4.049081e+00 3.432904e+00 2.779752e+00 2.793133e+00 4.223052e+00
<GCONST> 1.071758e+02
<TRANSP> 5
 0.000000e+00 1.000000e+00 0.000000e+00 0.000000e+00 0.000000e+00
 0.000000e+00 7.053766e-01 2.946234e-01 0.000000e+00 0.000000e+00
 0.000000e+00 0.000000e+00 8.117598e-01 1.882402e-01 0.000000e+00
 0.000000e+00 0.000000e+00 0.000000e+00 6.873482e-01 3.126519e-01
 0.000000e+00 0.000000e+00 0.000000e+00 0.000000e+00 0.000000e+00
<ENDHMM>
~h "g"
<BEGINHMM>
<NUMSTATES> 5
<STATE> 2
<MEAN> 25
 5.207223e+00 6.825880e+00 7.320551e+00 6.056707e+00 -2.134929e+00 -2.421362e+00 -6.299881e-01 -1.758564e+00 -3.990159e+00 -5.037237e-01 -1.093517e-01 -1.544496e+00 -3.352492e-01 9.689809e-01 -7.764599e-01 7.181199e-01 1.899218e+00 8.962826e-01 7.821291e-01 -1.394021e-01 9.221886e-01 2.028697e-01 -1.955892e-01 1.117926e-01 -2.131445e+00
<VARIANCE> 25
 2.453695e+01 4.039506e+01 5.049723e+01 4.134365e+01 7.444365e+01 6.337392e+01 5.492360e+01 4.971560e+01 5.604171e+01 3.745275e+01 3.966022e+01 2.423804e+01 2.022707e+00 4.622211e+00 4.658332e+00 2.952679e+00 4.551438e+00 4.953440e+00 5.154552e+00 5.042713e+00 4.104657e+00 3.489321e+00 3.581484e+00 2.595507e+00 3.638376e+00
<GCONST> 1.087914e+02
<STATE> 3
<MEAN> 25
 1.704996e+00 6.196357e+00 3.632831e+00 6.458095e+00 4.245713e+00 6.059710e-01 1.010267e+00 -1.458451e+00 -1.362428e+00 8.495145e-01 -5.376452e-01 2.834714e-02 -1.914046e+00 -2.625406e+00 -1.783438e+00 -1.001164e+00 1.258335e+00 3.422828e-01 -9.742279e-03 2.145521e-01 3.066090e-01 9.991733e-01 1.643330e-01 5.856554e-01 2.258985e+00
<VARIANCE> 25
 3.131256e+01 4.167482e+01 4.303679e+01 2.578498e+01 5.911609e+01 4.232080e+01 4.301144e+01 4.439228e+01 4.888819e+01 2.584502e+01 3.221917e+01 2.283097e+01 3.237025e+00 4.785864e+00 8.809405e+00 4.786936e+00 1.008540e+01 5.968549e+00 5.343721e+00 6.590899e+00 5.284877e+00 5.462972e+00 4.123816e+00 3.086288e+00 4.622926e+00
<GCONST> 1.108332e+02
<STATE> 4
<MEAN> 25
 -1.531586e+00 -1.957703e+00 -2.712697e+00 1.587275e+00 3.583649e+00 -1.680351e+00 -7.177505e-01 -1.271073e+00 -1.178689e+00 3.927389e+00 2.584084e-01 9.291095e-01 8.138362e-01 -8.001983e-01 1.798058e-01 -1.541267e+00 -2.063493e+00 -1.266671e+00 -1.054168e+00 -4.560146e-01 -7.044107e-01 8.242481e-02 4.510581e-02 -2.586919e-01 3.040191e+00
<VARIANCE> 25
 3.060822e+01 5.179835e+01 1.434908e+02 6.230248e+01 9.325851e+01 6.610711e+01 6.709362e+01 5.492250e+01 6.003160e+01 4.110748e+01 3.380321e+01 3.103073e+01 4.012025e+00 5.923707e+00 8.887213e+00 6.484633e+00 9.674490e+00 7.597516e+00 6.714615e+00 5.127027e+00 5.595491e+00 4.795804e+00 4.690764e+00 4.406534e+00 4.611746e+00
<GCONST> 1.170245e+02
<TRANSP> 5
 0.000000e+00 1.000000e+00 0.000000e+00 0.000000e+00 0.000000e+00
 0.000000e+00 6.165398e-01 3.834602e-01 0.000000e+00 0.000000e+00
 0.000000e+00 0.000000e+00 4.149735e-01 5.850266e-01 0.000000e+00
 0.000000e+00 0.000000e+00 0.000000e+00 6.201883e-01 3.798116e-01
 0.000000e+00 0.000000e+00 0.000000e+00 0.000000e+00 0.000000e+00
<ENDHMM>
~h "k"
<BEGINHMM>
<NUMSTATES> 5
<STATE> 2
<MEAN> 25
 3.309151e-01 2.300174e+00 3.127615e+00 4.356904e+00 9.115079e-02 -1.627893e+00 1.680069e+00 4.909788e-01 -1.889572e+00 1.112060e+00 1.246592e+00 9.179500e-02 -1.213599e+00 -2.882749e-01 -1.037833e+00 4.919139e-01 1.718542e+00 1.273328e+00 9.395357e-01 6.456258e-01 1.403076e+00 7.602695e-01 6.722143e-01 8.661525e-01 -2.226106e+00
<VARIANCE> 25
 2.216372e+01 2.779562e+01 5.678098e+01 4.199105e+01 5.972677e+01 6.177281e+01 5.075306e+01 5.681457e+01 4.635353e+01 3.942041e+01 3.850819e+01 3.234219e+01 2.213386e+00 5.018397e+00 4.369953e+00 4.945282e+00 5.610173e+00 5.841321e+00 5.000000e+00 5.870138e+00 4.386546e+00 4.537288e+00 4.646016e+00 3.399370e+00 7.218241e+00
<GCONST> 1.110415e+02
<STATE> 3
<MEAN> 25
 -4.176325e+00 -3.434070e+00 -2.630164e+00 2.942363e+00 4.401546e+00 7.558105e-01 2.113854e+00 3.008937e+00 2.319138e+00 4.489083e+00 2.569844e+00 2.925978e+00 -1.430654e+00 -1.859352e+00 -1.158838e+00 -9.729366e-01 3.665119e-01 -5.881963e-02 -3.449883e-01 5.715498e-01 6.688615e-01 9.192636e-01 1.234504e-01 4.068497e-01 2.721689e+00
<VARIANCE> 25
 2.117376e+01 4.337319e+01 6.038546e+01 3.796367e+01 4.345540e+01 5.128868e+01 4.708664e+01 4.306469e+01 3.759852e+01 3.602124e+01 2.895959e+01 2.360351e+01 3.135698e+00 3.714355e+00 6.367939e+00 4.494405e+00 5.769538e+00 5.958609e+00 5.373448e+00 5.016650e+00 4.569343e+00 3.978810e+00 3.987885e+00 3.356761e+00 6.964394e+00
<GCONST> 1.096454e+02
<STATE> 4
<MEAN> 25
 -7.030119e+00 -3.768049e+00 -1.481477e+00 -4.988084e-01 4.417023e+00 2.432143e+00 2.807975e+00 2.235018e+00 2.567491e+00 5.110661e+00 2.597121e+00 2.545057e+00 4.905647e-01 7.407951e-01 5.482373e-01 -2.480662e-01 -2.649496e-01 2.124490e-01 4.885917e-02 -6.638245e-01 -5.222731e-01 -7.248984e-01 -3.907881e-01 -4.051105e-01 4.304025e-01
<VARIANCE> 25
 2.896310e+01 4.161916e+01 6.379311e+01 4.758900e+01 6.494138e+01 6.282441e+01 5.725517e+01 4.792482e+01 4.998822e+01 4.013527e+01 3.703342e+01 2.819559e+01 4.817713e+00 2.933085e+00 2.956543e+00 3.163948e+00 4.107313e+00 4.642054e+00 4.011916e+00 4.422382e+00 4.680890e+00 4.077169e+00 3.379207e+00 2.974616e+00 4.047998e+00
<GCONST> 1.092087e+02
<TRANSP> 5
 0.000000e+00 1.000000e+00 0.000000e+00 0.000000e+00 0.000000e+00
 0.000000e+00 5.933161e-01 4.066838e-01 0.000000e+00 0.000000e+00
 0.000000e+00 0.000000e+00 5.979998e-01 4.020003e-01 0.000000e+00
 0.000000e+00 0.000000e+00 0.000000e+00 7.469708e-01 2.530293e-01
 0.000000e+00 0.000000e+00 0.000000e+00 0.000000e+00 0.000000e+00
<ENDHMM>
~h "l"
<BEGINHMM>
<NUMSTATES> 5
<STATE> 2
<MEAN> 25
 6.724381e+00 1.048237e+00 -5.311318e+00 -1.192742e+01 1.212364e+00 4.522877e+00 -4.916622e+00 -5.944635e+00 4.134751e-01 -4.127370e-01 8.247715e-02 -2.261940e+00 9.909335e-01 8.589302e-01 -5.183586e-01 -2.219052e+00 1.035263e-01 1.173670e+00 -4.670922e-01 -7.953112e-01 -6.378882e-01 -8.124734e-02 8.017016e-01 3.170719e-01 -2.058575e-02
<VARIANCE> 25
 1.663033e+01 5.077253e+01 4.570500e+01 7.658799e+01 4.348142e+01 6.670142e+01 7.761801e+01 6.327332e+01 6.088009e+01 5.110315e+01 5.063956e+01 5.031765e+01 2.258688e+00 2.173260e+00 2.647393e+00 4.583863e+00 3.834358e+00 4.691286e+00 4.895765e+00 4.668908e+00 4.008505e+00 4.463162e+00 3.774246e+00 3.393336e+00 1.894963e+00
<GCONST> 1.093835e+02
<STATE> 3
<MEAN> 25
 8.769565e+00 4.835325e+00 -5.239203e+00 -1.859967e+01 -7.194798e-01 7.607927e+00 -2.190857e+00 -4.818393e+00 -1.012891e+00 -2.546094e+00 1.625573e+00 5.310469e-01 1.196989e-02 2.683008e-01 1.365238e-01 3.888083e-01 1.516010e-01 -2.098878e-01 -1.593668e-01 1.407649e-01 -1.102855e-01 6.906615e-02 2.881154e-02 -6.121786e-02 -3.631610e-01
<VARIANCE> 25
 1.205503e+01 3.388165e+01 4.114555e+01 6.938058e+01 5.848795e+01 5.604302e+01 7.043158e+01 5.961992e+01 4.495771e+01 5.463985e+01 4.070723e+01 3.919509e+01 4.613914e-01 2.026195e+00 1.321573e+00 3.073903e+00 1.967497e+00 2.196609e+00 2.444344e+00 2.583787e+00 2.569154e+00 3.030196e+00 2.227365e+00 2.122088e+00 1.167039e+00
<GCONST> 9.993606e+01
<STATE> 4
<MEAN> 25
 6.595008e+00 2.611300e+00 -4.485192e+00 -9.657518e+00 2.397331e+00 2.786028e+00 -5.691144e+00 -4.886864e+00 1.101560e+00 8.253548e-01 5.012194e-01 -2.234249e+00 -9.405518e-01 -9.222371e-01 7.018591e-01 2.270242e+00 -7.946348e-02 -1.226858e+00 2.058651e-01 1.263453e+00 8.673368e-01 -2.835070e-02 -8.783938e-01 -3.291563e-01 -7.645044e-02
<VARIANCE> 25
 1.678018e+01 3.934782e+01 4.030984e+01 6.941869e+01 4.561627e+01 6.894545e+01 9.015317e+01 6.594337e+01 6.975671e+01 5.957764e+01 5.192780e+01 4.770927e+01 1.622309e+00 3.487235e+00 3.426135e+00 5.934935e+00 4.952242e+00 4.918697e+00 5.795801e+00 6.660078e+00 6.056063e+00 6.025805e+00 4.411367e+00 4.617454e+00 3.528268e+00
<GCONST> 1.127308e+02
<TRANSP> 5
 0.000000e+00 1.000000e+00 0.000000e+00 0.000000e+00 0.000000e+00
 0.000000e+00 5.597860e-01 4.402140e-01 0.000000e+00 0.000000e+00
 0.000000e+00 0.000000e+00 7.645313e-01 2.354687e-01 0.000000e+00
 0.000000e+00 0.000000e+00 0.000000e+00 6.454602e-01 3.545398e-01
 0.000000e+00 0.000000e+00 0.000000e+00 0.000000e+00 0.000000e+00
<ENDHMM>
~h "m"
<BEGINHMM>
<NUMSTATES> 5
<STATE> 2
<MEAN> 25
 8.644924e+00 1.562415e+00 -3.078730e-01 3.011225e+00 6.255276e-01 -2.423742e+00 -4.639296e+00 -6.309876e+00 -5.822297e+00 -1.081744e+00 -1.127604e+00 -4.457010e+00 5.180272e-01 1.356256e+00 6.726643e-01 1.975698e+00 6.311620e-01 -5.817742e-01 -1.646035e-01 -1.941286e+00 -1.818747e+00 5.067067e-02 5.759414e-01 -7.950090e-01 -1.132694e+00
<VARIANCE> 25
 1.589334e+01 3.988050e+01 3.451644e+01 4.948028e+01 3.872590e+01 5.652350e+01 6.316796e+01 6.220771e+01 5.956623e+01 5.478292e+01 5.755002e+01 4.397734e+01 1.659786e+00 2.699630e+00 3.164553e+00 3.393569e+00 3.978740e+00 4.052204e+00 4.564483e+00 5.035714e+00 5.287795e+00 5.715429e+00 4.643187e+00 3.978359e+00 2.749789e+00
<GCONST> 1.088611e+02
<STATE> 3
<MEAN> 25
 8.767356e+00 4.653668e+00 2.611038e+00 6.565041e+00 6.046804e-01 -2.374865e+00 -2.826749e+00 -8.107389e+00 -8.788209e+00 -1.616633e+00 -2.336553e-01 -5.149275e+00 -1.028795e-01 5.615675e-02 1.627683e-01 -2.121314e-03 -8.780252e-02 7.966566e-02 1.638904e-01 1.525585e-01 2.008252e-02 -2.248922e-01 -7.020660e-02 8.047672e-02 -2.540384e-02
<VARIANCE> 25
 1.152533e+01 2.904618e+01 2.844255e+01 3.650754e+01 4.072439e+01 5.133391e+01 6.688361e+01 5.485427e+01 4.843357e+01 4.901041e+01 6.143970e+01 4.959335e+01 5.343977e-01 1.501738e+00 1.134187e+00 1.535511e+00 1.700833e+00 1.859682e+00 2.037042e+00 2.101915e+00 2.118720e+00 2.107961e+00 2.179086e+00 2.159813e+00 1.230358e+00
<GCONST> 9.654615e+01
<STATE> 4
<MEAN> 25
 7.647133e+00 1.489742e+00 5.260425e-01 3.334683e+00 2.557980e-01 -1.255938e+00 -3.343301e+00 -5.595551e+00 -5.202765e+00 -2.764443e+00 -8.953543e-01 -4.045762e+00 -7.204425e-01 -1.848208e+00 -4.873621e-01 -2.348427e+00 -1.097068e+00 8.690166e-01 3.032050e-01 1.885227e+00 2.085913e+00 -4.749725e-02 -4.394654e-01 7.297503e-01 1.565336e+00
<VARIANCE> 25
 1.735067e+01 4.416405e+01 3.448404e+01 5.406073e+01 4.166343e+01 6.248874e+01 6.248931e+01 5.798763e+01 6.143608e+01 5.266484e+01 4.876783e+01 4.368187e+01 1.493962e+00 3.365424e+00 4.282412e+00 5.196307e+00 4.890154e+00 4.958153e+00 5.711176e+00 5.843725e+00 6.492233e+00 5.516282e+00 6.016586e+00 4.976024e+00 3.523989e+00
<GCONST> 1.115754e+02
<TRANSP> 5
 0.000000e+00 1.000000e+00 0.000000e+00 0.000000e+00 0.000000e+00
 0.000000e+00 5.324483e-01 4.675516e-01 0.000000e+00 0.000000e+00
 0.000000e+00 0.000000e+00 6.936188e-01 3.063811e-01 0.000000e+00
 0.000000e+00 0.000000e+00 0.000000e+00 5.517619e-01 4.482381e-01
 0.000000e+00 0.000000e+00 0.000000e+00 0.000000e+00 0.000000e+00
<ENDHMM>
~h "n"
<BEGINHMM>
<NUMSTATES> 5
<STATE> 2
<MEAN> 25
 6.874741e+00 7.045161e-01 3.483097e+00 1.805375e+00 -4.522687e+00 -4.339200e+00 -2.510556e+00 -9.956357e-01 -4.497269e+00 -3.096962e+00 -4.409498e+00 -2.063833e+00 7.429196e-01 2.161460e+00 5.174772e-01 1.771700e+00 3.764044e-01 -4.094025e-01 3.616019e-01 -2.292207e+00 -1.228405e+00 5.132006e-01 -4.327478e-01 -1.201980e-01 -1.885315e+00
<VARIANCE> 25
 1.276480e+01 3.633440e+01 3.000211e+01 3.958449e+01 4.810412e+01 4.221174e+01 5.131461e+01 6.754594e+01 6.173308e+01 4.986865e+01 4.228579e+01 4.122775e+01 9.576278e-01 2.021516e+00 3.200221e+00 2.814911e+00 4.113075e+00 4.757792e+00 4.570734e+00 5.537149e+00 5.133543e+00 4.589772e+00 3.396978e+00 3.146906e+00 1.439021e+00
<GCONST> 1.053854e+02
<STATE> 3
<MEAN> 25
 8.027843e+00 6.243781e+00 4.675876e+00 4.925927e+00 -3.452781e+00 -3.608298e+00 -8.322461e-01 -6.938070e+00 -6.366080e+00 -9.410290e-01 -3.878309e+00 -2.362568e+00 -2.403466e-02 5.971417e-01 1.704544e-01 3.381361e-01 3.199073e-01 2.566288e-01 7.698461e-02 -4.806325e-01 -1.588715e-01 8.715079e-02 1.147740e-02 -4.398187e-02 -6.295337e-01
<VARIANCE> 25
 1.095455e+01 2.302528e+01 2.283367e+01 3.427351e+01 3.728736e+01 3.821746e+01 4.581158e+01 5.186066e+01 5.056905e+01 5.146371e+01 4.277253e+01 4.329010e+01 5.472602e-01 1.415745e+00 1.208001e+00 1.433603e+00 1.924386e+00 2.034657e+00 2.048896e+00 2.700471e+00 2.430847e+00 2.377630e+00 1.909166e+00 1.766845e+00 8.763922e-01
<GCONST> 9.477088e+01
<STATE> 4
<MEAN> 25
 6.036272e+00 4.673070e+00 4.155827e+00 4.647620e+00 -1.612936e+00 -2.156756e+00 -9.842526e-01 -4.931532e+00 -5.376263e+00 -2.237885e+00 -4.226688e+00 -2.086740e+00 -1.260495e+00 -1.101123e+00 -1.938445e-01 -7.487479e-01 5.282741e-01 8.402988e-01 9.850550e-03 1.377230e+00 1.128767e+00 -2.185302e-01 5.633939e-01 2.667724e-01 3.169612e-01
<VARIANCE> 25
 1.752646e+01 3.714795e+01 2.753793e+01 4.042470e+01 4.923269e+01 4.051949e+01 4.481424e+01 5.421643e+01 5.748396e+01 5.805050e+01 4.388373e+01 4.025233e+01 1.834490e+00 3.911463e+00 2.937317e+00 3.826539e+00 4.390212e+00 4.475543e+00 4.902905e+00 5.192717e+00 5.374903e+00 4.931650e+00 3.950902e+00 3.612144e+00 3.247060e+00
<GCONST> 1.081426e+02
<TRANSP> 5
 0.000000e+00 1.000000e+00 0.000000e+00 0.000000e+00 0.000000e+00
 0.000000e+00 5.496600e-01 4.503400e-01 0.000000e+00 0.000000e+00
 0.000000e+00 0.000000e+00 6.522487e-01 3.477512e-01 0.000000e+00
 0.000000e+00 0.000000e+00 0.000000e+00 4.905331e-01 5.094669e-01
 0.000000e+00 0.000000e+00 0.000000e+00 0.000000e+00 0.000000e+00
<ENDHMM>
~h "p"
<BEGINHMM>
<NUMSTATES> 5
<STATE> 2
<MEAN> 25
 1.635038e+00 4.725076e+00 1.128671e-01 3.593352e+00 3.717222e+00 1.948419e+00 2.052844e+00 -4.022318e-01 1.491873e+00 1.605713e+00 1.112613e+00 -3.961526e-01 -1.511299e+00 -3.144825e-01 -2.169540e-01 4.195084e-01 7.824761e-01 8.181378e-01 1.271229e+00 1.180578e+00 1.106113e+00 8.214726e-01 8.366255e-01 8.890333e-01 -1.262292e+00
<VARIANCE> 25
 2.990171e+01 2.619662e+01 3.144670e+01 2.947102e+01 2.578411e+01 3.499797e+01 3.333133e+01 3.680198e+01 3.366280e+01 3.082205e+01 2.735399e+01 2.440798e+01 2.469077e+00 2.752379e+00 2.784607e+00 2.680250e+00 3.176080e+00 3.761503e+00 3.246684e+00 3.394330e+00 2.969246e+00 3.156579e+00 2.892099e+00 2.336006e+00 7.099191e+00
<GCONST> 1.017224e+02
<STATE> 3
<MEAN> 25
 -4.007252e+00 -6.410271e-01 -1.842177e+00 3.046804e+00 4.851366e+00 3.013722e+00 4.453303e+00 2.558443e+00 5.148268e+00 4.467173e+00 4.125205e+00 3.492832e+00 -5.522066e-01 -1.688279e+00 -4.535853e-01 -3.525801e-01 5.921189e-02 1.230091e-02 1.912580e-02 2.854793e-01 3.958276e-01 1.536639e-01 1.716917e-01 4.211535e-01 2.445179e+00
<VARIANCE> 25
 1.620857e+01 3.643888e+01 2.259956e+01 2.557894e+01 2.583962e+01 3.120408e+01 3.164443e+01 3.353870e+01 3.078660e+01 2.348779e+01 2.381298e+01 2.060073e+01 2.331424e+00 3.057318e+00 2.869751e+00 3.033519e+00 3.534151e+00 3.805996e+00 3.951754e+00 3.486019e+00 3.230649e+00 2.723406e+00 2.463484e+00 2.421480e+00 7.192383e+00
<GCONST> 1.004101e+02
<STATE> 4
<MEAN> 25
 -2.841951e+00 -4.916317e+00 -1.547127e+00 8.098294e-01 4.774358e+00 4.987475e+00 5.121689e+00 2.504139e+00 2.820974e+00 2.175814e+00 1.574084e+00 2.285428e+00 1.625222e+00 2.094854e-01 2.553798e-02 -9.066356e-01 -5.924381e-01 -3.651980e-01 -1.096162e+00 -9.386923e-01 -1.645640e+00 -1.340145e+00 -1.304587e+00 -8.793999e-01 1.355597e+00
<VARIANCE> 25
 2.528841e+01 4.695147e+01 6.086693e+01 4.921458e+01 6.945019e+01 6.252947e+01 5.516668e+01 4.472631e+01 4.570213e+01 3.525028e+01 3.147841e+01 2.597601e+01 4.668946e+00 4.577575e+00 4.972943e+00 5.203492e+00 5.488379e+00 7.717305e+00 6.390177e+00 4.895866e+00 5.193662e+00 4.507684e+00 4.108914e+00 2.943585e+00 5.784535e+00
<GCONST> 1.122154e+02
<TRANSP> 5
 0.000000e+00 1.000000e+00 0.000000e+00 0.000000e+00 0.000000e+00
 0.000000e+00 6.183787e-01 3.816213e-01 0.000000e+00 0.000000e+00
 0.000000e+00 0.000000e+00 6.802977e-01 3.197022e-01 0.000000e+00
 0.000000e+00 0.000000e+00 0.000000e+00 6.187652e-01 3.812348e-01
 0.000000e+00 0.000000e+00 0.000000e+00 0.000000e+00 0.000000e+00
<ENDHMM>
~h "r"
<BEGINHMM>
<NUMSTATES> 5
<STATE> 2
<MEAN> 25
 8.935210e+00 -2.833524e+00 -7.573184e+00 2.453847e+00 1.838164e+00 -4.716038e+00 -7.584547e+00 4.638791e-03 -1.996227e+00 -2.022638e+00 9.605203e-01 3.535260e-01 1.928486e+00 -4.849625e-01 -1.158307e+00 1.470062e-01 5.300517e-02 -1.523156e+00 -2.233207e+00 6.065526e-01 2.353055e-01 -6.383776e-01 -2.834470e-01 2.881640e-02 7.266149e-01
<VARIANCE> 25
 4.102076e+01 3.871091e+01 7.185786e+01 3.826491e+01 5.649519e+01 7.197314e+01 7.580956e+01 7.608896e+01 5.107726e+01 4.817989e+01 3.888744e+01 3.834839e+01 5.121180e+00 3.475232e+00 5.075352e+00 4.180717e+00 6.028913e+00 6.026825e+00 6.563653e+00 5.980297e+00 5.988243e+00 4.801032e+00 4.333712e+00 3.523383e+00 3.273984e+00
<GCONST> 1.137898e+02
<STATE> 3
<MEAN> 25
 1.190871e+01 -6.427917e+00 -1.041760e+01 3.507418e+00 2.831323e+00 -8.969007e+00 -1.363837e+01 6.544816e+00 1.843018e+00 -2.257441e+00 -2.865185e-01 6.547064e-01 -1.027858e-01 -3.182883e-01 5.516402e-01 3.562380e-01 -5.596311e-01 -6.092573e-01 3.333722e-01 6.728982e-01 2.000435e-01 -2.038858e-01 -2.261279e-01 -1.148787e-01 3.337256e-02
<VARIANCE> 25
 1.144614e+01 2.570967e+01 5.604784e+01 4.053272e+01 5.334893e+01 5.877177e+01 8.967271e+01 8.488248e+01 5.832225e+01 4.898521e+01 3.538887e+01 4.187653e+01 1.091920e+00 2.628473e+00 3.596609e+00 2.213867e+00 4.398201e+00 3.853894e+00 5.343845e+00 5.236483e+00 3.552193e+00 3.043164e+00 2.793224e+00 2.412322e+00 1.956469e+00
<GCONST> 1.058567e+02
<STATE> 4
<MEAN> 25
 8.572561e+00 -6.675061e+00 -3.596451e+00 4.500997e+00 -2.650226e+00 -1.021468e+01 -5.392169e+00 6.707577e+00 -1.862985e+00 -3.277669e+00 8.829739e-01 -8.174089e-01 -1.105257e+00 5.841283e-01 2.104188e+00 -4.447284e-01 -1.200735e+00 1.047099e+00 2.053772e+00 -1.054013e+00 -7.508533e-01 3.760607e-01 1.748585e-01 -4.182113e-01 -5.507641e-01
<VARIANCE> 25
 1.786098e+01 3.538758e+01 6.869365e+01 4.372640e+01 8.213721e+01 7.863030e+01 7.090936e+01 7.606918e+01 6.828336e+01 5.546109e+01 4.858686e+01 4.538016e+01 1.458001e+00 2.946669e+00 3.466799e+00 3.333549e+00 5.047250e+00 3.932823e+00 4.813474e+00 4.836763e+00 5.006273e+00 4.213294e+00 3.573193e+00 3.110062e+00 2.643004e+00
<GCONST> 1.101773e+02
<TRANSP> 5
 0.000000e+00 1.000000e+00 0.000000e+00 0.000000e+00 0.000000e+00
 0.000000e+00 5.141732e-01 4.858268e-01 0.000000e+00 0.000000e+00
 0.000000e+00 0.000000e+00 6.494321e-01 3.505678e-01 0.000000e+00
 0.000000e+00 0.000000e+00 0.000000e+00 5.634865e-01 4.365135e-01
 0.000000e+00 0.000000e+00 0.000000e+00 0.000000e+00 0.000000e+00
<ENDHMM>
~h "s"
<BEGINHMM>
<NUMSTATES> 5
<STATE> 2
<MEAN> 25
 -9.932494e+00 6.785318e+00 3.287856e-01 1.381649e+00 4.007580e+00 -1.887684e+00 1.248586e+00 2.985051e-01 1.465712e+00 -1.060384e+00 -3.068109e-01 7.158102e-01 -4.629655e+00 1.351009e+00 -7.735204e-01 1.654004e-01 1.547672e+00 9.859808e-01 1.452457e+00 1.006306e+00 5.550100e-01 4.601670e-01 1.126791e+00 6.834669e-01 1.309843e-02
<VARIANCE> 25
 7.700967e+01 4.235826e+01 4.830848e+01 5.184708e+01 5.492131e+01 6.105522e+01 5.621903e+01 5.074919e+01 4.042504e+01 3.851849e+01 3.519980e+01 2.973400e+01 3.371780e+00 4.687799e+00 4.713203e+00 5.458711e+00 4.080791e+00 5.192929e+00 5.003565e+00 4.326770e+00 3.880799e+00 4.687868e+00 3.290332e+00 3.013339e+00 1.714386e+00
<GCONST> 1.101113e+02
<STATE> 3
<MEAN> 25
 -2.185749e+01 8.602310e+00 -5.369538e+00 1.891189e+00 6.897953e+00 2.853787e-01 5.186151e+00 2.865234e+00 2.466599e+00 1.573222e+00 2.854271e+00 3.187752e+00 -4.233720e-01 -1.572349e-01 -2.045984e-01 -1.523205e-01 6.540309e-02 1.451068e-01 1.723821e-01 1.637998e-01 7.369721e-02 1.521152e-01 8.967695e-02 1.373370e-01 -1.980549e-01
<VARIANCE> 25
 2.091252e+01 3.040355e+01 3.310480e+01 6.860579e+01 3.997414e+01 4.839248e+01 3.548331e+01 3.268736e+01 3.079041e+01 2.499950e+01 2.414827e+01 2.147604e+01 1.504480e+00 1.299344e+00 1.416079e+00 1.409774e+00 1.713424e+00 1.841025e+00 1.777437e+00 1.806689e+00 1.881016e+00 1.771751e+00 1.634443e+00 1.422816e+00 7.702712e-01
<GCONST> 9.311455e+01
<STATE> 4
<MEAN> 25
 -1.626702e+01 5.953987e+00 -2.050050e+00 6.509998e-01 6.734458e+00 -2.289810e-02 3.833824e+00 3.555804e+00 3.184578e+00 1.768762e+00 1.983605e+00 2.967436e+00 3.109553e+00 -7.095040e-01 7.084883e-01 4.177900e-03 -9.527439e-01 -4.121069e-01 -8.585961e-01 -5.657440e-01 -2.227204e-01 -1.004961e-01 -5.256730e-01 -4.612484e-01 -7.817701e-01
<VARIANCE> 25
 5.065290e+01 3.766581e+01 3.782470e+01 5.077497e+01 4.742760e+01 5.692650e+01 5.505833e+01 4.334397e+01 3.688767e+01 3.249980e+01 3.126533e+01 2.460746e+01 5.123373e+00 3.692317e+00 3.055264e+00 4.153242e+00 4.147204e+00 5.248733e+00 4.580667e+00 3.770069e+00 3.280623e+00 3.159898e+00 3.429976e+00 2.290223e+00 4.883222e+00
<GCONST> 1.078700e+02
<TRANSP> 5
 0.000000e+00 1.000000e+00 0.000000e+00 0.000000e+00 0.000000e+00
 0.000000e+00 7.119409e-01 2.880591e-01 0.000000e+00 0.000000e+00
 0.000000e+00 0.000000e+00 8.362391e-01 1.637609e-01 0.000000e+00
 0.000000e+00 0.000000e+00 0.000000e+00 7.343524e-01 2.656476e-01
 0.000000e+00 0.000000e+00 0.000000e+00 0.000000e+00 0.000000e+00
<ENDHMM>
~h "t"
<BEGINHMM>
<NUMSTATES> 5
<STATE> 2
<MEAN> 25
 -1.605234e+00 2.111593e+00 1.514971e+00 2.577802e+00 1.640440e+00 -2.386317e-01 1.020970e+00 2.575177e-01 2.013450e+00 1.053627e+00 4.013288e-01 6.702501e-01 -1.901310e+00 -1.227742e-01 -3.218324e-01 -2.688595e-01 7.638850e-01 7.460898e-01 9.937145e-01 3.785266e-01 6.558699e-01 5.957733e-01 9.030814e-01 7.058303e-01 -1.395683e-01
<VARIANCE> 25
 5.591435e+01 3.739376e+01 4.218619e+01 4.179866e+01 5.402348e+01 5.835093e+01 4.255582e+01 4.305769e+01 4.466733e+01 3.348439e+01 3.529914e+01 2.690043e+01 5.449688e+00 5.300257e+00 3.987841e+00 5.749432e+00 5.696176e+00 5.885065e+00 4.477795e+00 5.379026e+00 5.091700e+00 4.124314e+00 3.786336e+00 3.062819e+00 1.252702e+01
<GCONST> 1.120154e+02
<STATE> 3
<MEAN> 25
 -1.001738e+01 4.442902e-01 6.398700e-01 -6.768439e-01 2.777334e+00 1.571698e+00 4.661280e+00 2.778745e+00 3.321214e+00 2.705856e+00 3.893292e+00 3.331926e+00 -8.387536e-01 -3.343911e-01 2.773586e-01 -1.639619e-01 -3.427906e-01 -4.275977e-01 3.765113e-01 2.082974e-01 -3.467652e-02 -9.879603e-02 1.283590e-01 3.011459e-01 1.214370e+00
<VARIANCE> 25
 7.228875e+01 4.435144e+01 3.696054e+01 4.268036e+01 4.372575e+01 5.092836e+01 4.620433e+01 4.263439e+01 3.679224e+01 3.775259e+01 3.372831e+01 2.606520e+01 5.728696e+00 3.518580e+00 3.287803e+00 3.937053e+00 3.982224e+00 4.317298e+00 3.920450e+00 3.756859e+00 3.040055e+00 2.952574e+00 2.651017e+00 2.254446e+00 8.183584e+00
<GCONST> 1.078757e+02
<STATE> 4
<MEAN> 25
 -7.690063e+00 -1.205334e+00 1.467194e+00 1.475849e+00 1.302036e+00 -1.061163e+00 3.382744e+00 1.900293e+00 2.351108e+00 5.400144e-01 1.299975e+00 2.401352e+00 2.149058e+00 1.062538e-01 1.032865e-01 4.789855e-01 -4.746677e-01 -7.270266e-01 -1.205989e+00 -8.518838e-01 -8.477561e-01 -7.410575e-01 -9.230338e-01 -8.440247e-01 2.000016e-01
<VARIANCE> 25
 6.112366e+01 5.580503e+01 4.538752e+01 4.930972e+01 5.487376e+01 5.447286e+01 5.576045e+01 4.894080e+01 4.950244e+01 4.160386e+01 3.653943e+01 3.277587e+01 7.346441e+00 3.666508e+00 4.564543e+00 4.365571e+00 6.056983e+00 6.783279e+00 5.347358e+00 4.971920e+00 4.888583e+00 4.971311e+00 4.348355e+00 3.075380e+00 4.792275e+00
<GCONST> 1.130602e+02
<TRANSP> 5
 0.000000e+00 1.000000e+00 0.000000e+00 0.000000e+00 0.000000e+00
 0.000000e+00 4.902816e-01 5.097184e-01 0.000000e+00 0.000000e+00
 0.000000e+00 0.000000e+00 6.011035e-01 3.988965e-01 0.000000e+00
 0.000000e+00 0.000000e+00 0.000000e+00 4.862737e-01 5.137263e-01
 0.000000e+00 0.000000e+00 0.000000e+00 0.000000e+00 0.000000e+00
<ENDHMM>
~h "v"
<BEGINHMM>
<NUMSTATES> 5
<STATE> 2
<MEAN> 25
 8.401727e+00 -1.489749e+00 -3.061015e+00 7.743712e-02 -1.442266e+00 -1.625965e+00 -5.988392e+00 -3.857644e+00 2.171164e+00 3.122680e+00 -5.507983e-01 -2.464837e+00 -6.418852e-01 2.504446e+00 3.189274e-01 1.672553e+00 1.786761e+00 1.192849e+00 6.321501e-01 -1.056840e+00 -1.014001e+00 -4.767676e-01 7.103096e-01 3.292211e-01 -2.385148e+00
<VARIANCE> 25
 1.457239e+01 2.792647e+01 3.036032e+01 3.672202e+01 2.667974e+01 5.071086e+01 3.557648e+01 4.743269e+01 4.289444e+01 4.155566e+01 4.512383e+01 2.889170e+01 1.900283e+00 1.988350e+00 2.817720e+00 3.338883e+00 2.949049e+00 4.169900e+00 4.496559e+00 4.736253e+00 3.806787e+00 3.297481e+00 3.588444e+00 2.951055e+00 1.438039e+00
<GCONST> 1.026638e+02
<STATE> 3
<MEAN> 25
 4.316031e+00 5.912260e+00 1.778065e-01 4.798154e+00 3.034851e+00 1.421820e+00 -2.439054e+00 -4.141072e+00 -1.301862e+00 4.976805e-02 -4.904129e-01 -1.416959e+00 -2.062236e+00 1.542140e+00 1.023013e+00 1.393788e+00 1.241923e+00 1.050525e+00 1.387354e+00 6.944312e-01 -1.821726e-01 -6.901660e-01 -3.008809e-01 -3.810987e-02 -1.508722e+00
<VARIANCE> 25
 1.894947e+01 1.845397e+01 2.776910e+01 2.640630e+01 1.953405e+01 3.166924e+01 2.645711e+01 2.788825e+01 3.275285e+01 3.354675e+01 3.199390e+01 2.231574e+01 2.452132e+00 2.131516e+00 2.102524e+00 2.749937e+00 2.559038e+00 3.363642e+00 3.063109e+00 3.013510e+00 3.131253e+00 2.673777e+00 2.604768e+00 2.161406e+00 1.531376e+00
<GCONST> 9.706842e+01
<STATE> 4
<MEAN> 25
 -2.436254e+00 4.414371e+00 5.712459e-01 6.082789e+00 4.171194e+00 2.926247e+00 1.391937e+00 -5.409548e-02 1.746334e+00 3.755291e-01 -4.307082e-01 -5.516872e-02 -5.196956e-01 -7.607442e-01 -3.418249e-01 -2.848068e-01 -1.262101e-01 -1.913290e-01 6.879470e-02 2.715256e-01 1.681124e-01 9.488989e-02 2.476082e-01 3.104686e-01 2.571177e-01
<VARIANCE> 25
 3.291624e+01 2.799469e+01 3.081975e+01 2.414734e+01 2.677667e+01 3.361663e+01 3.025328e+01 3.012460e+01 4.080365e+01 3.061814e+01 2.715301e+01 2.254044e+01 4.821090e+00 2.489934e+00 2.349692e+00 2.861279e+00 2.925849e+00 2.951404e+00 3.149796e+00 2.933642e+00 2.963231e+00 2.836580e+00 2.442452e+00 2.107548e+00 2.554202e+00
<GCONST> 1.000253e+02
<TRANSP> 5
 0.000000e+00 1.000000e+00 0.000000e+00 0.000000e+00 0.000000e+00
 0.000000e+00 4.989435e-01 5.010565e-01 0.000000e+00 0.000000e+00
 0.000000e+00 0.000000e+00 5.011105e-01 4.988895e-01 0.000000e+00
 0.000000e+00 0.000000e+00 0.000000e+00 6.648262e-01 3.351738e-01
 0.000000e+00 0.000000e+00 0.000000e+00 0.000000e+00 0.000000e+00
<ENDHMM>
~h "w"
<BEGINHMM>
<NUMSTATES> 5
<STATE> 2
<MEAN> 25
 4.271493e+00 3.565513e+00 -2.119590e+00 8.310661e-01 2.261197e+00 2.051265e+00 7.098943e-02 -2.378384e+00 -1.450967e+00 3.423158e-01 6.245995e-01 -3.313266e-02 1.488027e+00 1.235709e+00 -1.427513e-01 -1.068326e+00 -9.257675e-01 8.198735e-02 1.878621e-02 -5.689870e-01 -8.217762e-01 -6.025457e-01 -3.097888e-01 -2.028789e-01 2.050583e-01
<VARIANCE> 25
 4.821724e+01 3.741776e+01 2.924338e+01 3.890144e+01 3.816765e+01 4.316312e+01 4.999812e+01 4.379878e+01 4.191474e+01 3.424689e+01 2.632924e+01 2.490271e+01 4.009155e+00 2.758377e+00 2.849401e+00 4.858870e+00 4.732874e+00 4.634490e+00 5.132343e+00 4.708202e+00 4.473695e+00 3.636918e+00 3.135896e+00 2.575251e+00 5.207325e+00
<GCONST> 1.071673e+02
<STATE> 3
<MEAN> 25
 1.124827e+01 7.053946e+00 -3.430107e+00 -9.104376e+00 -6.111012e+00 3.114055e+00 -9.974893e-01 -3.020530e+00 -3.556595e+00 -2.833591e+00 -7.831419e-01 -8.604683e-01 5.373818e-01 -1.036340e+00 -9.692641e-01 -2.041845e+00 -5.660113e-01 1.067016e+00 -7.448524e-01 -3.201181e-01 -3.996175e-01 1.975653e-01 5.836242e-01 2.213805e-01 1.827088e+00
<VARIANCE> 25
 1.173135e+01 2.208355e+01 2.969492e+01 6.666515e+01 4.237999e+01 4.281072e+01 3.930199e+01 4.239399e+01 6.228802e+01 3.025293e+01 3.345305e+01 3.399502e+01 2.065654e+00 2.911782e+00 3.049334e+00 5.876596e+00 5.706718e+00 5.388918e+00 5.628598e+00 4.862114e+00 4.872159e+00 4.750287e+00 3.875935e+00 3.011086e+00 2.875006e+00
<GCONST> 1.066645e+02
<STATE> 4
<MEAN> 25
 9.713780e+00 -1.981907e+00 -7.304534e+00 -9.988334e+00 -1.144183e+00 5.361190e+00 -6.914156e+00 -5.470317e+00 -3.940169e+00 3.450910e+00 1.426856e+00 -2.576818e+00 -7.809029e-01 -2.240742e+00 3.740561e-01 1.314759e+00 5.714201e-01 -1.628869e+00 -1.721049e+00 7.628066e-01 1.559283e+00 1.117130e+00 -9.134582e-01 -1.149511e+00 1.697091e+00
<VARIANCE> 25
 1.224725e+01 2.994741e+01 3.217699e+01 6.998871e+01 4.012388e+01 8.157856e+01 7.672941e+01 6.205021e+01 6.768234e+01 7.156235e+01 7.129750e+01 4.361350e+01 8.294457e-01 1.808253e+00 3.004719e+00 3.642946e+00 5.886465e+00 6.343141e+00 6.017719e+00 6.018045e+00 5.332839e+00 6.466867e+00 5.425731e+00 3.539541e+00 1.415059e+00
<GCONST> 1.095114e+02
<TRANSP> 5
 0.000000e+00 1.000000e+00 0.000000e+00 0.000000e+00 0.000000e+00
 0.000000e+00 6.906970e-01 3.093031e-01 0.000000e+00 0.000000e+00
 0.000000e+00 0.000000e+00 6.878867e-01 3.121133e-01 0.000000e+00
 0.000000e+00 0.000000e+00 0.000000e+00 6.048501e-01 3.951500e-01
 0.000000e+00 0.000000e+00 0.000000e+00 0.000000e+00 0.000000e+00
<ENDHMM>
~h "y"
<BEGINHMM>
<NUMSTATES> 5
<STATE> 2
<MEAN> 25
 -5.735591e+00 5.090574e+00 1.161205e+01 9.030740e-01 -2.633044e+00 -7.531717e-01 8.893541e-01 -4.122384e+00 -4.121226e+00 -2.713197e-01 -2.842575e-02 1.090801e-01 1.455420e+00 2.590858e-01 2.602534e+00 -2.266108e-01 -2.238023e+00 -4.807043e-01 -1.237506e+00 -1.236962e+00 -2.304050e+00 -8.218699e-01 -3.988023e-01 -7.948318e-01 1.173286e+00
<VARIANCE> 25
 7.438376e+01 5.803740e+01 6.118126e+01 4.302446e+01 5.605707e+01 5.050769e+01 7.233435e+01 4.382648e+01 5.351040e+01 4.410500e+01 3.978224e+01 3.140930e+01 6.835482e+00 3.206722e+00 4.981113e+00 4.806828e+00 5.330476e+00 5.578109e+00 6.865755e+00 4.535104e+00 5.799300e+00 5.322265e+00 3.952766e+00 2.955813e+00 3.178308e+00
<GCONST> 1.132378e+02
<STATE> 3
<MEAN> 25
 1.180476e-01 4.189136e+00 1.774535e+01 -2.770478e+00 -1.288670e+01 -7.294225e-01 -5.259647e+00 -7.671326e+00 -1.025536e+01 -1.470841e+00 -8.670504e-01 -4.624585e+00 4.154082e-01 -7.504204e-01 4.924903e-01 -3.956713e-02 -1.784505e+00 -3.493154e-01 1.286145e-01 9.228437e-02 -8.325475e-01 -2.683473e-01 7.260171e-01 -4.522168e-01 8.174742e-01
<VARIANCE> 25
 1.620996e+01 2.866020e+01 3.063592e+01 7.822964e+01 4.201425e+01 4.557750e+01 4.067074e+01 4.014838e+01 3.780777e+01 5.475195e+01 3.907278e+01 5.397828e+01 2.163284e+00 2.318306e+00 3.370416e+00 3.448421e+00 3.796985e+00 4.785355e+00 4.197712e+00 3.740273e+00 4.104262e+00 3.288170e+00 3.284856e+00 3.002867e+00 1.197638e+00
<GCONST> 1.049052e+02
<STATE> 4
<MEAN> 25
 2.409722e+00 -7.845239e-01 1.488708e+01 2.567423e+00 -1.433862e+01 -6.318046e+00 -3.719107e+00 -3.114897e+00 -1.140804e+01 -4.117817e+00 2.536889e+00 -2.000924e+00 7.278381e-01 -8.218277e-01 -1.726851e+00 7.431813e-01 6.713687e-01 -1.265787e+00 -6.770874e-01 1.001069e+00 8.975514e-01 -6.218008e-01 -1.176572e-01 6.476285e-01 2.409626e-01
<VARIANCE> 25
 1.143149e+01 2.299211e+01 4.112467e+01 6.527496e+01 3.039116e+01 5.802013e+01 4.804787e+01 4.685963e+01 4.895089e+01 8.395506e+01 4.044491e+01 5.538304e+01 5.533103e-01 1.134134e+00 1.908542e+00 1.775327e+00 2.418911e+00 2.291121e+00 3.787854e+00 2.421188e+00 3.097142e+00 2.959501e+00 2.059560e+00 1.772151e+00 4.828098e-01
<GCONST> 9.810811e+01
<TRANSP> 5
 0.000000e+00 1.000000e+00 0.000000e+00 0.000000e+00 0.000000e+00
 0.000000e+00 5.794986e-01 4.205014e-01 0.000000e+00 0.000000e+00
 0.000000e+00 0.000000e+00 6.648884e-01 3.351116e-01 0.000000e+00
 0.000000e+00 0.000000e+00 0.000000e+00 7.314258e-01 2.685742e-01
 0.000000e+00 0.000000e+00 0.000000e+00 0.000000e+00 0.000000e+00
<ENDHMM>
~h "z"
<BEGINHMM>
<NUMSTATES> 5
<STATE> 2
<MEAN> 25
 -2.144206e+00 9.923546e+00 2.124906e+00 1.773144e+00 7.911011e-01 -8.165285e+00 -5.168974e+00 -4.015716e+00 -2.422126e-01 -1.088177e+00 -2.562356e+00 8.692276e-01 -4.040479e+00 3.086863e+00 -6.099766e-01 8.158708e-01 2.534939e+00 6.943253e-01 1.540936e+00 4.244044e-01 3.587030e-01 -2.345187e-01 5.882481e-01 1.923624e-01 -5.188904e-01
<VARIANCE> 25
 3.458261e+01 4.406241e+01 4.317704e+01 4.034851e+01 6.366565e+01 5.349522e+01 5.521466e+01 4.164027e+01 3.508752e+01 4.810236e+01 3.364353e+01 3.058876e+01 2.579737e+00 3.791826e+00 3.442175e+00 5.379027e+00 3.771134e+00 6.221747e+00 4.863828e+00 6.273886e+00 3.788489e+00 3.808763e+00 3.936421e+00 3.421046e+00 1.195438e+00
<GCONST> 1.082007e+02
<STATE> 3
<MEAN> 25
 -1.622326e+01 1.406971e+01 -1.236933e+00 4.270914e+00 6.582396e+00 -1.765086e+00 1.361142e+00 1.002531e-01 1.156918e+00 -2.086937e-02 9.335140e-01 1.812672e+00 -2.045155e+00 -4.968435e-01 -6.163562e-01 -1.985957e-02 6.212464e-01 9.620353e-01 9.718773e-01 1.011222e+00 4.145306e-01 4.770150e-01 6.042866e-01 3.814022e-01 -2.989952e-01
<VARIANCE> 25
 2.963266e+01 2.676719e+01 4.737045e+01 5.839467e+01 5.428870e+01 5.251693e+01 4.741211e+01 4.335805e+01 3.964388e+01 3.166503e+01 2.939749e+01 2.215758e+01 3.681442e+00 2.067552e+00 2.208581e+00 2.343856e+00 2.342537e+00 3.122555e+00 3.200173e+00 2.816863e+00 2.788896e+00 2.803664e+00 2.155007e+00 2.032631e+00 8.140994e-01
<GCONST> 1.009368e+02
<STATE> 4
<MEAN> 25
 -1.317940e+01 6.603181e+00 -2.925847e-01 2.176607e+00 6.598487e+00 -8.195614e-01 2.240377e+00 2.947702e+00 2.462330e+00 7.256035e-01 1.068905e+00 2.688211e+00 1.911054e+00 -1.072201e+00 8.149329e-02 1.090088e-01 -6.614248e-01 2.501647e-02 -3.226331e-01 -3.210239e-01 5.707203e-03 4.280633e-02 -1.106370e-01 -1.882400e-01 -8.144552e-01
<VARIANCE> 25
 5.824498e+01 5.994539e+01 3.871573e+01 5.442201e+01 4.757849e+01 6.261079e+01 6.462389e+01 5.647725e+01 4.077072e+01 3.125484e+01 3.976715e+01 2.770261e+01 4.551315e+00 3.064963e+00 2.217022e+00 3.199107e+00 3.789159e+00 4.419230e+00 4.158814e+00 3.915810e+00 3.464314e+00 2.933119e+00 2.668126e+00 2.237500e+00 3.615727e+00
<GCONST> 1.077079e+02
<TRANSP> 5
 0.000000e+00 1.000000e+00 0.000000e+00 0.000000e+00 0.000000e+00
 0.000000e+00 6.639467e-01 3.360533e-01 0.000000e+00 0.000000e+00
 0.000000e+00 0.000000e+00 7.070695e-01 2.929306e-01 0.000000e+00
 0.000000e+00 0.000000e+00 0.000000e+00 7.945521e-01 2.054479e-01
 0.000000e+00 0.000000e+00 0.000000e+00 0.000000e+00 0.000000e+00
<ENDHMM>
~h "aa"
<BEGINHMM>
<NUMSTATES> 5
<STATE> 2
<MEAN> 25
 5.001472e+00 -5.284808e+00 -6.304757e+00 -5.621511e+00 2.097719e+00 4.285577e+00 -1.957830e+00 -1.319909e+00 8.393456e-01 -1.076955e+00 -2.233685e+00 -3.368990e+00 1.367611e+00 -1.732180e+00 -1.524178e+00 -1.712173e+00 1.746322e-01 1.227195e+00 -2.646177e-01 -1.835821e-01 6.197922e-02 -6.283964e-01 -2.978763e-01 -1.004354e+00 1.646614e+00
<VARIANCE> 25
 3.034629e+01 4.313768e+01 4.335253e+01 4.663216e+01 6.706318e+01 9.737790e+01 7.368525e+01 6.899471e+01 5.530544e+01 5.369110e+01 5.883273e+01 3.713678e+01 4.116203e+00 3.832756e+00 3.948710e+00 4.497522e+00 6.662480e+00 7.864647e+00 5.197371e+00 6.638579e+00 5.576097e+00 4.728022e+00 5.528499e+00 3.842018e+00 2.511472e+00
<GCONST> 1.141233e+02
<STATE> 3
<MEAN> 25
 8.013753e+00 -9.351990e+00 -1.003708e+01 -9.818447e+00 3.638014e+00 9.237514e+00 -2.078011e+00 -3.193369e+00 3.114927e-01 -2.603168e+00 -1.636075e+00 -4.503660e+00 1.093897e-02 -2.016692e-01 -1.807107e-01 1.840961e-01 2.119749e-01 -1.475507e-01 -1.422249e-01 1.072311e-01 1.171843e-01 -1.625295e-03 -6.653570e-02 -8.582172e-02 3.311614e-02
<VARIANCE> 25
 1.328824e+01 3.718763e+01 3.138553e+01 5.183136e+01 5.614082e+01 7.256622e+01 8.956412e+01 5.587182e+01 5.126907e+01 4.684280e+01 5.617052e+01 4.073551e+01 3.661153e-01 9.780741e-01 9.760149e-01 1.850275e+00 1.972442e+00 2.696660e+00 2.128336e+00 2.408177e+00 1.868804e+00 2.004973e+00 2.031430e+00 1.817804e+00 3.705055e-01
<GCONST> 9.639786e+01
<STATE> 4
<MEAN> 25
 7.762791e+00 -7.351373e+00 -8.977135e+00 -5.636293e+00 2.545444e+00 3.588497e+00 -3.256324e+00 -1.979930e+00 2.184968e+00 -7.958812e-01 -4.241328e+00 -5.204956e+00 -5.994361e-02 1.542987e+00 8.511394e-01 1.292980e+00 -3.193297e-01 -1.531561e+00 -3.262531e-02 1.740927e-01 -2.033252e-01 2.403689e-01 -2.289007e-01 3.551197e-01 -1.461788e+00
<VARIANCE> 25
 1.435244e+01 3.971520e+01 4.153398e+01 3.957779e+01 4.372840e+01 8.504719e+01 8.407339e+01 5.864790e+01 5.397980e+01 6.664317e+01 5.788195e+01 4.163652e+01 1.081182e+00 2.080254e+00 2.548121e+00 3.133207e+00 3.783437e+00 4.125687e+00 4.561358e+00 4.184312e+00 3.355186e+00 4.053418e+00 3.316712e+00 2.760942e+00 1.637075e+00
<GCONST> 1.062995e+02
<TRANSP> 5
 0.000000e+00 1.000000e+00 0.000000e+00 0.000000e+00 0.000000e+00
 0.000000e+00 6.476766e-01 3.523234e-01 0.000000e+00 0.000000e+00
 0.000000e+00 0.000000e+00 8.151888e-01 1.848113e-01 0.000000e+00
 0.000000e+00 0.000000e+00 0.000000e+00 6.770245e-01 3.229755e-01
 0.000000e+00 0.000000e+00 0.000000e+00 0.000000e+00 0.000000e+00
<ENDHMM>
~h "ae"
<BEGINHMM>
<NUMSTATES> 5
<STATE> 2
<MEAN> 25
 2.413069e+00 -5.887799e+00 -8.200157e-01 -1.312079e+00 -5.374400e+00 -2.722237e+00 3.072845e+00 3.265507e+00 4.205161e-01 -2.710295e+00 -3.110715e+00 -8.563916e-01 7.987443e-01 -1.556649e+00 -2.357050e-01 -7.162831e-01 -1.032230e+00 -8.429245e-02 5.099052e-04 7.275641e-01 -1.716118e-01 -6.824806e-01 -6.243474e-01 -2.550598e-01 1.986380e+00
<VARIANCE> 25
 2.401896e+01 4.731533e+01 4.145927e+01 3.944110e+01 5.866384e+01 5.789630e+01 6.999751e+01 5.697695e+01 7.350197e+01 5.193335e+01 5.510924e+01 3.773134e+01 3.224003e+00 4.089922e+00 3.638687e+00 3.594193e+00 5.431485e+00 4.550869e+00 6.759556e+00 4.879562e+00 5.102370e+00 4.722108e+00 4.558292e+00 3.571308e+00 4.486549e+00
<GCONST> 1.120173e+02
<STATE> 3
<MEAN> 25
 4.043276e+00 -1.073043e+01 -2.982087e+00 -2.043013e+00 -4.106325e+00 -1.075313e+00 3.482117e+00 3.184802e+00 -8.037108e-01 -4.879570e+00 -5.210320e+00 -2.108909e+00 9.824638e-02 -1.088946e-01 -2.157837e-01 1.348929e-01 2.863406e-01 1.110078e-01 -1.866565e-01 -3.082058e-03 1.708041e-01 1.706433e-02 -1.812061e-01 -1.321186e-02 -8.540578e-02
<VARIANCE> 25
 1.249712e+01 3.433324e+01 4.580269e+01 3.196510e+01 5.572764e+01 4.727855e+01 5.879937e+01 5.401345e+01 5.110516e+01 4.032270e+01 3.831995e+01 3.482115e+01 4.143776e-01 1.114252e+00 1.214495e+00 1.174267e+00 1.774440e+00 1.678751e+00 2.029349e+00 1.848962e+00 1.925461e+00 1.581075e+00 1.430327e+00 1.375622e+00 4.196278e-01
<GCONST> 9.298219e+01
<STATE> 4
<MEAN> 25
 5.038522e+00 -7.153144e+00 -3.009383e+00 -6.857513e-01 -4.255604e+00 -2.440132e+00 9.059119e-01 2.926084e+00 1.465615e+00 -2.938081e+00 -5.181620e+00 -2.289937e+00 1.623617e-01 1.934075e+00 6.957697e-01 8.223869e-01 5.906214e-01 -3.640383e-01 -5.033695e-01 -6.522028e-01 -9.910594e-02 7.028320e-01 3.882120e-01 3.064629e-02 -2.048941e+00
<VARIANCE> 25
 1.265297e+01 3.624559e+01 4.958282e+01 3.333908e+01 5.672973e+01 5.188752e+01 6.705692e+01 4.936124e+01 6.188345e+01 5.744649e+01 4.105368e+01 4.840641e+01 1.328539e+00 2.044274e+00 2.298784e+00 2.466707e+00 3.499497e+00 3.246308e+00 3.673546e+00 4.174279e+00 3.186431e+00 3.122001e+00 2.730996e+00 2.657554e+00 1.826032e+00
<GCONST> 1.041244e+02
<TRANSP> 5
 0.000000e+00 1.000000e+00 0.000000e+00 0.000000e+00 0.000000e+00
 0.000000e+00 6.453615e-01 3.546385e-01 0.000000e+00 0.000000e+00
 0.000000e+00 0.000000e+00 8.021257e-01 1.978743e-01 0.000000e+00
 0.000000e+00 0.000000e+00 0.000000e+00 6.328745e-01 3.671255e-01
 0.000000e+00 0.000000e+00 0.000000e+00 0.000000e+00 0.000000e+00
<ENDHMM>
~h "ah"
<BEGINHMM>
<NUMSTATES> 5
<STATE> 2
<MEAN> 25
 2.220917e+00 -1.476546e+00 -1.490880e-01 -1.587358e+00 -2.472967e+00 -2.321826e+00 -2.212075e+00 -2.576388e-01 8.815128e-01 -7.885282e-01 -1.936321e+00 -8.809711e-01 1.792670e+00 -1.173940e+00 1.535872e-02 -1.358980e+00 -1.397770e+00 -5.045860e-01 -1.245534e+00 -5.492971e-02 6.127156e-02 -2.377081e-01 -8.093919e-01 -5.859373e-01 1.921083e+00
<VARIANCE> 25
 3.559452e+01 4.312197e+01 5.244302e+01 5.127737e+01 6.618807e+01 7.252477e+01 7.596489e+01 5.491580e+01 5.486143e+01 4.866287e+01 4.127244e+01 3.641257e+01 5.375926e+00 4.334498e+00 4.807937e+00 5.793087e+00 5.858557e+00 6.843251e+00 6.924338e+00 6.988828e+00 6.388680e+00 5.308847e+00 4.989438e+00 4.282624e+00 5.951991e+00
<GCONST> 1.156130e+02
<STATE> 3
<MEAN> 25
 5.435173e+00 -4.087311e+00 -3.559395e-01 -4.682965e+00 -4.547336e+00 -2.387648e+00 -5.264852e+00 -3.616260e-01 1.003944e+00 -4.649635e-01 -3.226955e+00 -2.692087e+00 5.729876e-01 -1.626503e-02 -4.671627e-02 -1.638302e-01 -6.354274e-02 2.467391e-01 1.416566e-02 -3.047095e-02 -6.592914e-03 5.365564e-02 -1.125650e-01 -3.020568e-02 -8.860329e-02
<VARIANCE> 25
 1.697644e+01 4.228992e+01 8.100418e+01 5.711834e+01 6.882588e+01 7.077637e+01 6.062056e+01 6.755563e+01 6.762761e+01 6.477589e+01 4.986538e+01 4.400188e+01 1.829391e+00 2.346461e+00 2.978528e+00 4.000032e+00 3.984712e+00 3.948959e+00 3.851256e+00 4.225839e+00 3.950395e+00 3.588301e+00 3.143290e+00 2.837430e+00 2.284307e+00
<GCONST> 1.089960e+02
<STATE> 4
<MEAN> 25
 4.747377e+00 -2.800302e+00 -1.391533e+00 -2.617423e+00 -1.447840e+00 -1.390537e-01 -1.841242e+00 4.173900e-01 1.482623e+00 -1.561398e+00 -2.019036e+00 -1.143168e+00 -7.973264e-02 1.006236e+00 2.985501e-01 6.331003e-01 5.683842e-01 1.664981e-01 2.553877e-01 -2.094505e-01 -3.549457e-01 -8.087932e-02 2.203580e-01 1.384183e-01 -1.153732e+00
<VARIANCE> 25
 3.465962e+01 5.356871e+01 5.459016e+01 6.281077e+01 7.094127e+01 7.500090e+01 7.854826e+01 7.053185e+01 6.215037e+01 6.662863e+01 5.174373e+01 5.240841e+01 1.512370e+00 2.325701e+00 2.380108e+00 3.398498e+00 3.214707e+00 3.426070e+00 3.375977e+00 3.533610e+00 3.417382e+00 3.025339e+00 2.755050e+00 2.574896e+00 3.005527e+00
<GCONST> 1.086686e+02
<TRANSP> 5
 0.000000e+00 1.000000e+00 0.000000e+00 0.000000e+00 0.000000e+00
 0.000000e+00 4.415206e-01 5.584794e-01 0.000000e+00 0.000000e+00
 0.000000e+00 0.000000e+00 3.837701e-01 6.162298e-01 0.000000e+00
 0.000000e+00 0.000000e+00 0.000000e+00 6.033863e-01 3.966137e-01
 0.000000e+00 0.000000e+00 0.000000e+00 0.000000e+00 0.000000e+00
<ENDHMM>
~h "ao"
<BEGINHMM>
<NUMSTATES> 5
<STATE> 2
<MEAN> 25
 6.217065e+00 2.629251e-01 -7.809643e+00 -9.860285e+00 -1.237577e+00 4.644436e+00 -4.149981e-01 -2.725110e-01 -9.767069e-01 -3.519435e-02 1.161667e+00 -1.657583e+00 1.690214e+00 -2.683823e-01 -9.633220e-01 -2.474285e+00 -9.377037e-01 5.494567e-01 -1.789405e-01 3.537925e-01 -7.398857e-01 -6.170004e-01 2.983456e-02 -1.230419e-01 1.317715e+00
<VARIANCE> 25
 4.168739e+01 5.559373e+01 3.931340e+01 7.124223e+01 7.416956e+01 7.800476e+01 5.780544e+01 6.040912e+01 5.576233e+01 4.897340e+01 5.357500e+01 3.536322e+01 5.255044e+00 4.851431e+00 4.472635e+00 7.019191e+00 7.341802e+00 7.575671e+00 6.763359e+00 6.027039e+00 5.856599e+00 4.735495e+00 4.829878e+00 4.535007e+00 4.666040e+00
<GCONST> 1.162743e+02
<STATE> 3
<MEAN> 25
 1.024831e+01 -1.775000e+00 -9.007811e+00 -1.715435e+01 -3.588742e+00 9.630648e+00 1.192568e+00 -6.108725e-02 -2.317414e+00 -3.173116e+00 3.479031e-01 -7.959437e-01 9.121464e-02 -3.615865e-01 -4.520066e-01 3.182007e-02 5.394702e-01 1.547205e-01 -4.406640e-02 3.969326e-02 -1.431390e-01 -1.170097e-01 2.653203e-01 2.216805e-01 9.354279e-02
<VARIANCE> 25
 1.159280e+01 5.111620e+01 3.125816e+01 4.963550e+01 1.030346e+02 8.437729e+01 7.575941e+01 6.572024e+01 5.403497e+01 4.651623e+01 5.239284e+01 4.102718e+01 3.044667e-01 1.357301e+00 1.264280e+00 1.813501e+00 2.344816e+00 2.070138e+00 2.460227e+00 1.979293e+00 1.988597e+00 2.240161e+00 2.045509e+00 1.865007e+00 5.276095e-01
<GCONST> 9.806654e+01
<STATE> 4
<MEAN> 25
 9.220162e+00 -4.404716e+00 -1.375410e+01 -8.709824e+00 4.705713e+00 4.708628e+00 -4.557029e+00 -4.786850e-01 -2.344624e+00 -1.930945e+00 2.688991e+00 -9.839284e-01 -1.939277e-01 -3.378380e-03 8.261596e-02 1.691270e+00 8.661401e-01 -1.084602e+00 -1.125392e+00 -1.246308e-01 8.247386e-01 6.234657e-01 -3.539330e-01 -3.346297e-01 -3.910238e-01
<VARIANCE> 25
 3.842677e+01 3.602026e+01 4.002512e+01 8.038802e+01 7.671833e+01 6.601334e+01 1.344756e+02 9.140327e+01 8.420882e+01 7.383145e+01 6.601099e+01 6.910910e+01 8.840219e-01 2.273707e+00 2.970170e+00 3.299322e+00 4.526938e+00 4.043953e+00 5.347292e+00 4.421346e+00 3.931021e+00 3.193823e+00 3.763794e+00 3.490146e+00 1.161057e+00
<GCONST> 1.106690e+02
<TRANSP> 5
 0.000000e+00 1.000000e+00 0.000000e+00 0.000000e+00 0.000000e+00
 0.000000e+00 7.210100e-01 2.789900e-01 0.000000e+00 0.000000e+00
 0.000000e+00 0.000000e+00 8.379824e-01 1.620177e-01 0.000000e+00
 0.000000e+00 0.000000e+00 0.000000e+00 7.307675e-01 2.692325e-01
 0.000000e+00 0.000000e+00 0.000000e+00 0.000000e+00 0.000000e+00
<ENDHMM>
~h "aw"
<BEGINHMM>
<NUMSTATES> 5
<STATE> 2
<MEAN> 25
 4.038742e+00 -1.225205e+01 -3.979292e+00 -2.363808e+00 -1.682094e+00 1.335574e+00 1.500665e+00 2.634429e+00 4.543740e-01 -4.947680e+00 -5.249712e+00 -3.381988e+00 4.188028e-01 -1.167000e+00 -1.030342e+00 -2.619205e-01 9.363942e-01 1.354669e+00 -2.058847e-01 -5.072684e-01 4.833788e-01 -2.791231e-01 -3.895919e-01 -4.357236e-01 5.817130e-01
<VARIANCE> 25
 1.319069e+01 3.443077e+01 3.342565e+01 3.144044e+01 5.903205e+01 6.080215e+01 4.197769e+01 5.308598e+01 6.978832e+01 4.141537e+01 4.217637e+01 4.560537e+01 1.081435e+00 2.689619e+00 2.192349e+00 2.479170e+00 2.992939e+00 2.841855e+00 4.150826e+00 4.873296e+00 3.460660e+00 2.779758e+00 2.799077e+00 2.817479e+00 1.309537e+00
<GCONST> 1.029556e+02
<STATE> 3
<MEAN> 25
 7.745043e+00 -1.153088e+01 -8.675785e+00 -5.101396e+00 2.219390e+00 9.225705e+00 -1.972360e+00 -1.980648e+00 2.746049e+00 -2.428469e+00 -4.568900e+00 -5.770675e+00 4.305513e-01 7.436022e-01 -3.788591e-01 -8.068275e-01 -1.287897e-01 6.185014e-01 -3.162865e-02 -5.921775e-01 -2.022532e-01 4.187826e-01 6.391053e-01 5.575808e-02 -5.212577e-01
<VARIANCE> 25
 1.074447e+01 3.006339e+01 1.989813e+01 3.499332e+01 3.787077e+01 6.280947e+01 5.178193e+01 4.721481e+01 4.010652e+01 4.795167e+01 3.983154e+01 3.953167e+01 2.998033e-01 8.652976e-01 8.385648e-01 1.530847e+00 1.827367e+00 2.030736e+00 1.679937e+00 1.882023e+00 2.263185e+00 1.834732e+00 1.531537e+00 1.949793e+00 2.765092e-01
<GCONST> 9.136490e+01
<STATE> 4
<MEAN> 25
 9.992081e+00 -3.857974e+00 -8.197748e+00 -9.661046e+00 -1.796913e+00 8.306807e+00 1.038405e+00 -4.935639e+00 8.842263e-01 -4.852627e-01 1.788850e-01 -2.399661e+00 4.299459e-02 1.241828e+00 7.871099e-01 1.029566e+00 -3.065559e-01 -1.242767e+00 -3.109683e-01 1.740654e-01 -4.296552e-01 2.457168e-01 1.417273e-01 4.143826e-01 -1.348582e+00
<VARIANCE> 25
 1.642351e+01 3.960928e+01 3.064446e+01 7.437119e+01 7.381197e+01 6.039572e+01 6.924890e+01 5.782084e+01 5.618921e+01 6.585893e+01 7.958858e+01 3.741712e+01 1.104778e+00 2.542649e+00 2.090211e+00 4.973871e+00 4.829936e+00 3.237720e+00 3.373461e+00 3.631020e+00 3.556882e+00 3.912897e+00 3.699294e+00 3.433418e+00 1.436005e+00
<GCONST> 1.072352e+02
<TRANSP> 5
 0.000000e+00 1.000000e+00 0.000000e+00 0.000000e+00 0.000000e+00
 0.000000e+00 7.992145e-01 2.007855e-01 0.000000e+00 0.000000e+00
 0.000000e+00 0.000000e+00 8.353159e-01 1.646841e-01 0.000000e+00
 0.000000e+00 0.000000e+00 0.000000e+00 8.030871e-01 1.969129e-01
 0.000000e+00 0.000000e+00 0.000000e+00 0.000000e+00 0.000000e+00
<ENDHMM>
~h "ay"
<BEGINHMM>
<NUMSTATES> 5
<STATE> 2
<MEAN> 25
 3.661854e+00 -7.297388e+00 -7.036865e+00 -4.894946e+00 5.137541e+00 7.622426e+00 7.547281e-01 -2.168060e+00 4.126776e+00 3.443602e-01 -2.106088e+00 -1.816979e+00 4.257805e-01 -1.697524e+00 -4.874844e-01 -6.173836e-01 1.638923e-01 4.564528e-01 -1.970661e-01 2.510734e-03 4.534399e-01 -2.867373e-01 -7.575012e-01 -7.012968e-01 1.542630e+00
<VARIANCE> 25
 4.187430e+01 5.541808e+01 4.317915e+01 7.608432e+01 6.428745e+01 6.307058e+01 8.962178e+01 6.285092e+01 5.341733e+01 5.728445e+01 6.665662e+01 5.777887e+01 2.771760e+00 4.169300e+00 3.160746e+00 5.004893e+00 3.657672e+00 5.097165e+00 4.714889e+00 4.786006e+00 4.791130e+00 4.538815e+00 4.332667e+00 3.637027e+00 3.535761e+00
<GCONST> 1.133701e+02
<STATE> 3
<MEAN> 25
 6.546863e+00 -1.259672e+01 -7.338728e+00 -5.843553e+00 3.943680e+00 6.226619e+00 -1.396389e+00 -3.136042e-01 3.387168e+00 -2.942073e+00 -6.169307e+00 -5.565568e+00 -1.861682e-01 -1.959317e-01 6.233369e-01 5.384591e-01 -6.759887e-01 -1.064217e+00 2.456174e-01 1.049783e+00 1.978978e-02 -5.065538e-01 -3.570795e-01 3.233225e-01 8.704079e-02
<VARIANCE> 25
 8.824210e+00 2.859210e+01 2.962239e+01 3.016359e+01 4.475365e+01 5.761097e+01 6.171584e+01 5.411731e+01 4.431227e+01 4.950035e+01 3.817098e+01 3.363111e+01 3.344214e-01 8.774467e-01 1.130913e+00 1.405900e+00 2.240784e+00 2.216269e+00 2.096094e+00 2.534681e+00 1.838561e+00 1.627613e+00 1.492014e+00 1.591551e+00 2.497934e-01
<GCONST> 9.217628e+01
<STATE> 4
<MEAN> 25
 4.178909e+00 -8.648614e+00 1.454208e+00 -3.297219e+00 -8.413140e+00 -4.044589e+00 2.499851e+00 4.431931e+00 -4.588441e-01 -2.445534e+00 -3.448885e+00 -2.079359e+00 -8.691172e-02 1.474994e+00 1.374549e+00 4.338991e-01 -1.345058e+00 -1.008992e+00 1.140764e-01 -5.123115e-01 -8.262019e-01 8.752591e-01 8.428799e-01 3.025460e-01 -9.402769e-01
<VARIANCE> 25
 1.278699e+01 3.617707e+01 4.862395e+01 3.424031e+01 5.400471e+01 4.244816e+01 4.418231e+01 5.786471e+01 5.965980e+01 5.068781e+01 4.549938e+01 3.467848e+01 6.084166e-01 1.341703e+00 2.610369e+00 2.252777e+00 4.515089e+00 3.283069e+00 4.402292e+00 4.634785e+00 3.596997e+00 3.519896e+00 2.814913e+00 2.865926e+00 8.683087e-01
<GCONST> 1.022290e+02
<TRANSP> 5
 0.000000e+00 1.000000e+00 0.000000e+00 0.000000e+00 0.000000e+00
 0.000000e+00 7.569787e-01 2.430213e-01 0.000000e+00 0.000000e+00
 0.000000e+00 0.000000e+00 8.346528e-01 1.653472e-01 0.000000e+00
 0.000000e+00 0.000000e+00 0.000000e+00 7.977163e-01 2.022837e-01
 0.000000e+00 0.000000e+00 0.000000e+00 0.000000e+00 0.000000e+00
<ENDHMM>
~h "ch"
<BEGINHMM>
<NUMSTATES> 5
<STATE> 2
<MEAN> 25
 -7.795648e+00 1.142708e+00 4.600470e+00 3.371103e-01 1.550507e+00 1.183263e+00 6.968834e-01 9.274328e-02 2.353405e+00 6.072999e-01 2.872280e+00 1.491124e+00 -4.272682e+00 -1.023243e-01 3.024367e-01 -1.489321e+00 6.632851e-01 1.182990e+00 9.018770e-01 3.935810e-01 7.996181e-01 3.842169e-01 1.109051e+00 3.044768e-01 1.568020e+00
<VARIANCE> 25
 7.180718e+01 4.355436e+01 3.873917e+01 5.052142e+01 4.967252e+01 5.107511e+01 4.243103e+01 4.116401e+01 4.120672e+01 3.813970e+01 3.041833e+01 2.144105e+01 4.805545e+00 5.210918e+00 5.343118e+00 3.820159e+00 5.535493e+00 5.503141e+00 4.413770e+00 3.820262e+00 4.654757e+00 3.899967e+00 3.129941e+00 2.924011e+00 8.656522e+00
<GCONST> 1.104679e+02
<STATE> 3
<MEAN> 25
 -2.196028e+01 1.085554e+00 7.980315e+00 -2.865642e+00 6.700402e-01 3.458853e+00 5.142682e+00 1.241113e+00 4.282111e+00 3.692650e-01 4.253962e+00 2.276000e+00 -1.897244e-01 -4.172605e-01 4.510573e-01 7.675290e-01 -8.839316e-01 -3.630828e-01 6.139347e-01 3.012228e-02 -1.108514e-01 -1.593575e-01 -3.344156e-01 2.030234e-01 3.719559e-01
<VARIANCE> 25
 1.939176e+01 3.529893e+01 1.896245e+01 1.971059e+01 4.307418e+01 2.988273e+01 3.097192e+01 3.396827e+01 3.194773e+01 2.641396e+01 2.632491e+01 1.830495e+01 4.981730e+00 1.886685e+00 2.154647e+00 2.196166e+00 2.486186e+00 2.570830e+00 2.332329e+00 2.749012e+00 1.950020e+00 1.748195e+00 1.701994e+00 1.742873e+00 2.695613e+00
<GCONST> 9.624705e+01
<STATE> 4
<MEAN> 25
 -1.277102e+01 -2.101420e+00 3.774782e+00 2.924613e+00 -1.511020e+00 -6.699589e-02 4.291364e+00 1.788111e+00 4.374853e+00 9.328568e-01 1.456844e+00 2.323811e+00 3.159223e+00 2.642434e-01 -8.926858e-01 2.861600e-01 6.987885e-02 -6.380118e-01 -9.297684e-01 -8.597262e-02 -2.384616e-01 -2.800187e-01 -5.318537e-01 -2.498579e-01 -9.054661e-01
<VARIANCE> 25
 6.476424e+01 3.989646e+01 6.485401e+01 3.423876e+01 3.114543e+01 6.545861e+01 4.250467e+01 3.574343e+01 3.652506e+01 3.358512e+01 3.682808e+01 2.011592e+01 6.491603e+00 2.450045e+00 2.755423e+00 3.063833e+00 4.199993e+00 5.112293e+00 3.925470e+00 3.675637e+00 3.851003e+00 2.558805e+00 3.110923e+00 2.140449e+00 4.617342e+00
<GCONST> 1.065248e+02
<TRANSP> 5
 0.000000e+00 1.000000e+00 0.000000e+00 0.000000e+00 0.000000e+00
 0.000000e+00 7.406133e-01 2.593867e-01 0.000000e+00 0.000000e+00
 0.000000e+00 0.000000e+00 7.623091e-01 2.376909e-01 0.000000e+00
 0.000000e+00 0.000000e+00 0.000000e+00 7.519804e-01 2.480196e-01
 0.000000e+00 0.000000e+00 0.000000e+00 0.000000e+00 0.000000e+00
<ENDHMM>
~h "dh"
<BEGINHMM>
<NUMSTATES> 5
<STATE> 2
<MEAN> 25
 8.738931e-01 6.471016e+00 5.699559e-01 5.931016e+00 2.342597e+00 -6.168754e-01 -3.662628e-01 -2.826403e+00 1.104274e+00 3.946235e-01 -2.086313e+00 -1.573065e+00 -6.063300e-01 2.268982e-01 -6.245714e-02 2.165317e-01 3.555022e-01 1.451959e-01 3.599379e-01 -6.677850e-02 2.740440e-01 -2.745267e-01 2.800355e-01 1.208340e-02 1.891125e-01
<VARIANCE> 25
 4.627109e+01 3.329766e+01 3.286861e+01 3.164967e+01 4.093187e+01 4.672826e+01 4.524786e+01 5.000659e+01 4.428242e+01 3.992064e+01 3.779853e+01 3.526237e+01 4.598607e+00 3.789280e+00 2.802562e+00 3.902581e+00 3.690404e+00 5.199384e+00 4.812605e+00 4.317604e+00 4.017947e+00 3.467863e+00 3.588079e+00 2.966353e+00 6.353428e+00
<GCONST> 1.082739e+02
<STATE> 3
<MEAN> 25
 -9.383227e-01 4.990672e+00 2.283714e-01 4.764672e+00 2.154716e+00 -1.264782e+00 1.748854e-01 -2.278995e+00 1.478252e+00 -2.178288e-01 -6.706943e-01 -5.940006e-01 -2.148031e-01 -1.411367e+00 -3.761026e-01 -1.390831e+00 -1.439872e+00 -1.568876e+00 -5.644581e-01 4.178414e-01 7.108983e-01 1.498344e-01 3.599820e-01 4.819410e-01 2.730422e+00
<VARIANCE> 25
 3.563765e+01 2.593597e+01 2.524072e+01 3.043091e+01 4.001097e+01 5.000568e+01 4.300653e+01 4.209122e+01 3.250887e+01 3.131890e+01 3.053993e+01 3.201231e+01 3.665343e+00 2.496025e+00 2.937727e+00 3.246284e+00 3.687108e+00 5.140537e+00 4.516818e+00 3.940590e+00 4.322381e+00 3.497386e+00 3.455714e+00 3.702244e+00 5.133688e+00
<GCONST> 1.055238e+02
<STATE> 4
<MEAN> 25
 -4.992347e+00 -2.380731e+00 -2.851263e+00 2.558898e+00 2.096644e+00 -1.851236e+00 1.034384e+00 1.527072e+00 3.637632e+00 -8.499314e-01 6.815812e-01 2.946672e+00 3.548601e-01 -5.734949e-01 -5.307840e-04 -5.853462e-01 -7.973789e-01 -5.979534e-01 -4.411706e-01 7.716791e-02 1.127403e-01 3.510496e-02 -4.067755e-02 1.425670e-02 1.486702e+00
<VARIANCE> 25
 3.766329e+01 8.040627e+01 3.241303e+01 3.529123e+01 5.441116e+01 5.430406e+01 4.654299e+01 4.372451e+01 3.554509e+01 3.609852e+01 3.130771e+01 4.007047e+01 1.930804e+00 2.918371e+00 2.304100e+00 3.097148e+00 3.900437e+00 4.309961e+00 3.950757e+00 3.454790e+00 2.956430e+00 3.059164e+00 2.802885e+00 2.508170e+00 5.487647e+00
<GCONST> 1.058906e+02
<TRANSP> 5
 0.000000e+00 1.000000e+00 0.000000e+00 0.000000e+00 0.000000e+00
 0.000000e+00 4.061841e-01 5.938159e-01 0.000000e+00 0.000000e+00
 0.000000e+00 0.000000e+00 2.419369e-01 7.580631e-01 0.000000e+00
 0.000000e+00 0.000000e+00 0.000000e+00 6.335023e-01 3.664977e-01
 0.000000e+00 0.000000e+00 0.000000e+00 0.000000e+00 0.000000e+00
<ENDHMM>
~h "eh"
<BEGINHMM>
<NUMSTATES> 5
<STATE> 2
<MEAN> 25
 3.552335e+00 -3.731635e+00 1.015718e+00 -2.246747e+00 -7.678426e+00 -5.439190e+00 -1.300805e+00 1.616901e+00 5.589540e-01 -9.256178e-01 -2.833432e+00 -1.784104e+00 1.237556e+00 -2.205488e+00 1.046314e-01 -1.538012e+00 -1.942962e+00 -8.668808e-01 9.239602e-02 1.252220e+00 3.344082e-02 -4.661034e-01 -8.948180e-01 -4.589196e-01 2.156568e+00
<VARIANCE> 25
 1.997216e+01 4.175166e+01 4.464137e+01 4.178388e+01 6.356619e+01 5.606819e+01 5.357312e+01 4.992570e+01 5.622359e+01 4.419114e+01 4.558554e+01 3.250515e+01 5.183334e+00 3.363562e+00 3.349558e+00 4.303706e+00 5.091243e+00 5.906536e+00 6.674835e+00 5.788527e+00 5.330300e+00 4.746842e+00 4.616106e+00 3.601890e+00 2.528211e+00
<GCONST> 1.109472e+02
<STATE> 3
<MEAN> 25
 4.295168e+00 -8.960937e+00 8.670563e-01 -4.618289e+00 -9.126220e+00 -4.540854e+00 1.691717e+00 5.597175e+00 -1.109985e+00 -2.417945e+00 -3.920069e+00 -2.775571e+00 1.344267e-01 -3.486657e-01 -3.385766e-01 1.362125e-01 3.722812e-01 2.598204e-02 6.544719e-02 4.111854e-01 -6.883901e-02 -3.303348e-01 -1.174847e-01 2.963779e-03 -3.846607e-02
<VARIANCE> 25
 1.138205e+01 2.995364e+01 4.022333e+01 2.940493e+01 4.943549e+01 5.072975e+01 5.658076e+01 6.331733e+01 7.952036e+01 5.506545e+01 4.585617e+01 3.408088e+01 4.811540e-01 1.346016e+00 1.616097e+00 1.725654e+00 1.803468e+00 2.341894e+00 2.583359e+00 2.598221e+00 1.930101e+00 1.887630e+00 1.630595e+00 1.657274e+00 4.906562e-01
<GCONST> 9.611481e+01
<STATE> 4
<MEAN> 25
 3.910532e+00 -8.212226e+00 -1.184021e+00 -1.186670e+00 -4.691345e+00 -3.482151e+00 7.759584e-01 6.037111e+00 1.825301e+00 -2.880747e+00 -3.193130e+00 -8.325816e-01 1.509660e-01 1.093573e+00 -1.043145e-01 7.827449e-01 7.601579e-01 1.713006e-02 -6.121113e-01 -5.711878e-01 -1.145602e-01 5.726150e-02 3.069477e-01 9.710345e-02 -1.354095e+00
<VARIANCE> 25
 2.647082e+01 3.131231e+01 5.538065e+01 4.676472e+01 4.864512e+01 6.149487e+01 6.116711e+01 6.210100e+01 6.896520e+01 5.953023e+01 5.685733e+01 4.802375e+01 1.186488e+00 2.279714e+00 2.419187e+00 2.725958e+00 2.705246e+00 3.048321e+00 3.286747e+00 3.301381e+00 2.838039e+00 2.871790e+00 2.329058e+00 2.407795e+00 2.122738e+00
<GCONST> 1.049548e+02
<TRANSP> 5
 0.000000e+00 1.000000e+00 0.000000e+00 0.000000e+00 0.000000e+00
 0.000000e+00 5.360916e-01 4.639084e-01 0.000000e+00 0.000000e+00
 0.000000e+00 0.000000e+00 7.472082e-01 2.527918e-01 0.000000e+00
 0.000000e+00 0.000000e+00 0.000000e+00 5.903941e-01 4.096059e-01
 0.000000e+00 0.000000e+00 0.000000e+00 0.000000e+00 0.000000e+00
<ENDHMM>
~h "er"
<BEGINHMM>
<NUMSTATES> 5
<STATE> 2
<MEAN> 25
 8.644187e+00 -4.275427e+00 -6.278310e+00 1.395943e+00 1.207568e-01 -7.517570e+00 -8.671775e+00 2.227912e+00 -1.063518e-01 -5.659555e-01 -8.745734e-01 -6.585118e-01 2.106668e+00 -1.050061e+00 -1.584891e+00 4.097660e-02 2.387622e-01 -1.752640e+00 -2.470561e+00 1.292665e+00 3.643433e-01 -2.338520e-01 -6.166165e-02 2.109022e-01 6.889505e-01
<VARIANCE> 25
 2.548642e+01 2.816757e+01 7.390016e+01 4.513353e+01 7.096270e+01 6.506348e+01 8.545172e+01 6.855267e+01 5.926270e+01 4.424847e+01 3.798724e+01 3.415186e+01 4.521971e+00 2.756199e+00 3.910731e+00 3.937033e+00 4.566453e+00 5.164560e+00 7.060122e+00 5.943122e+00 5.266112e+00 3.930910e+00 3.660849e+00 2.944859e+00 1.537833e+00
<GCONST> 1.107810e+02
<STATE> 3
<MEAN> 25
 1.095667e+01 -6.389608e+00 -8.729562e+00 3.171048e+00 1.640699e+00 -1.128054e+01 -1.222301e+01 6.820421e+00 2.102119e+00 -1.988115e+00 -1.223446e+00 4.611114e-02 -6.540501e-02 1.260878e-01 2.775153e-01 4.088832e-01 -1.439862e-02 -2.232347e-01 1.614498e-01 1.104540e-01 -4.322711e-03 -3.254372e-01 -5.721012e-02 1.627759e-01 -3.845165e-01
<VARIANCE> 25
 1.222603e+01 2.266127e+01 6.083590e+01 3.981018e+01 6.944213e+01 5.398378e+01 1.040644e+02 7.105594e+01 7.675341e+01 5.135608e+01 3.783343e+01 3.682359e+01 6.031952e-01 1.054810e+00 2.375745e+00 1.556499e+00 2.763218e+00 2.311702e+00 3.115150e+00 2.796399e+00 2.430784e+00 2.311992e+00 1.916990e+00 1.741205e+00 5.492513e-01
<GCONST> 9.922688e+01
<STATE> 4
<MEAN> 25
 2.815426e+00 -4.318707e+00 -4.989627e+00 5.030952e+00 2.561762e+00 -5.261331e+00 -3.149429e+00 6.576510e+00 3.813225e+00 -1.149322e+00 5.038123e-02 1.905476e+00 -9.851896e-01 7.890604e-01 1.062122e+00 -3.688850e-02 -2.044257e-01 1.021291e+00 1.471942e+00 -7.422636e-01 -3.424706e-01 2.232631e-01 2.090700e-01 -5.873943e-02 -1.093393e+00
<VARIANCE> 25
 7.378580e+01 4.567531e+01 5.647461e+01 5.277246e+01 7.147609e+01 1.050131e+02 8.937363e+01 6.904446e+01 1.214513e+02 6.661020e+01 5.136100e+01 3.827469e+01 1.987133e+00 3.314593e+00 3.892696e+00 2.862036e+00 4.106588e+00 4.586873e+00 5.583841e+00 5.330669e+00 5.281672e+00 4.067765e+00 3.308319e+00 2.862345e+00 2.395715e+00
<GCONST> 1.131164e+02
<TRANSP> 5
 0.000000e+00 1.000000e+00 0.000000e+00 0.000000e+00 0.000000e+00
 0.000000e+00 6.544995e-01 3.455005e-01 0.000000e+00 0.000000e+00
 0.000000e+00 0.000000e+00 8.035854e-01 1.964146e-01 0.000000e+00
 0.000000e+00 0.000000e+00 0.000000e+00 7.618107e-01 2.381894e-01
 0.000000e+00 0.000000e+00 0.000000e+00 0.000000e+00 0.000000e+00
<ENDHMM>
~h "ey"
<BEGINHMM>
<NUMSTATES> 5
<STATE> 2
<MEAN> 25
 2.624864e+00 -4.315125e+00 6.638924e+00 -3.272467e+00 -1.344844e+01 -6.085814e+00 1.178467e+00 2.719891e+00 -3.317183e+00 -7.298281e-01 3.554617e-01 -1.095195e+00 -2.553317e-01 6.377235e-03 1.411320e+00 -8.602099e-01 -1.804639e+00 1.977101e-01 7.099547e-01 -5.178714e-01 -1.109273e+00 4.314738e-01 7.413008e-01 -3.092695e-01 4.385102e-01
<VARIANCE> 25
 8.925596e+00 2.314367e+01 3.956509e+01 3.960411e+01 3.894739e+01 5.021823e+01 4.298450e+01 5.119034e+01 4.941713e+01 3.805305e+01 3.676464e+01 3.130840e+01 1.351385e+00 2.302856e+00 2.553878e+00 2.797135e+00 3.131924e+00 4.027525e+00 4.069592e+00 4.058296e+00 3.891992e+00 3.304951e+00 2.926805e+00 2.055372e+00 1.424697e+00
<GCONST> 1.016404e+02
<STATE> 3
<MEAN> 25
 1.054476e+00 -5.376416e-01 1.277244e+01 -8.260631e+00 -1.608595e+01 -1.454826e+00 -1.036785e+00 -4.911658e+00 -6.022122e+00 3.180215e+00 -3.136579e-01 -3.022902e+00 -2.126008e-02 6.197014e-01 6.128307e-01 1.207621e-01 2.845162e-02 4.441935e-01 -5.280843e-01 -8.521917e-01 -2.715800e-01 2.461106e-01 -2.491780e-01 2.905409e-02 -5.411606e-01
<VARIANCE> 25
 7.967244e+00 2.275571e+01 3.078002e+01 5.912197e+01 3.098786e+01 7.647523e+01 5.768077e+01 5.817052e+01 4.476411e+01 4.251575e+01 6.759231e+01 3.196507e+01 3.319239e-01 7.614658e-01 9.447218e-01 1.147024e+00 1.191150e+00 1.682918e+00 1.497359e+00 2.144645e+00 1.818802e+00 1.603969e+00 1.581212e+00 1.677752e+00 3.893594e-01
<GCONST> 9.144196e+01
<STATE> 4
<MEAN> 25
 2.161160e+00 2.014445e+00 1.245955e+01 -1.431033e+00 -1.220215e+01 -1.654406e+00 -7.726905e-01 -5.453469e+00 -6.625153e+00 1.605660e+00 -3.183484e-01 -1.655452e+00 6.111304e-02 5.117283e-01 -1.298863e+00 1.792185e+00 2.410124e+00 -1.435206e-01 4.354212e-01 3.082691e-01 7.424726e-01 -7.148526e-01 7.458525e-03 1.758610e-01 -1.813811e+00
<VARIANCE> 25
 1.312270e+01 2.545747e+01 4.076072e+01 6.436983e+01 5.553956e+01 6.906571e+01 5.410718e+01 6.043396e+01 5.711145e+01 4.206150e+01 5.582674e+01 3.558953e+01 2.285399e+00 1.941986e+00 2.709494e+00 3.463641e+00 4.241391e+00 5.140970e+00 4.163013e+00 4.247692e+00 3.564242e+00 3.493624e+00 4.006639e+00 2.573596e+00 1.867146e+00
<GCONST> 1.065174e+02
<TRANSP> 5
 0.000000e+00 1.000000e+00 0.000000e+00 0.000000e+00 0.000000e+00
 0.000000e+00 7.453486e-01 2.546514e-01 0.000000e+00 0.000000e+00
 0.000000e+00 0.000000e+00 8.362790e-01 1.637210e-01 0.000000e+00
 0.000000e+00 0.000000e+00 0.000000e+00 7.127468e-01 2.872533e-01
 0.000000e+00 0.000000e+00 0.000000e+00 0.000000e+00 0.000000e+00
<ENDHMM>
~h "hh"
<BEGINHMM>
<NUMSTATES> 5
<STATE> 2
<MEAN> 25
 -5.792035e+00 -4.525662e+00 6.952255e-01 2.507456e+00 3.723139e+00 3.268110e+00 5.895472e+00 3.095137e+00 2.467745e+00 3.853411e-01 1.877627e+00 2.058711e+00 -2.178956e-01 -3.176480e-01 -5.682614e-02 -6.002152e-02 9.071576e-02 2.678824e-01 2.848897e-01 1.815213e-01 1.729822e-01 6.339575e-02 -4.553858e-02 6.148632e-02 6.628296e-02
<VARIANCE> 25
 3.428116e+01 5.657339e+01 4.539318e+01 3.067610e+01 6.853584e+01 6.667738e+01 4.162331e+01 4.224251e+01 4.961212e+01 4.986124e+01 3.654168e+01 2.882877e+01 1.131603e+00 1.579027e+00 1.422386e+00 1.755077e+00 2.163194e+00 2.392121e+00 3.048285e+00 2.588258e+00 2.812087e+00 2.582362e+00 1.915851e+00 1.827385e+00 7.508969e-01
<GCONST> 9.958233e+01
<STATE> 3
<MEAN> 25
 -4.229865e+00 -4.920679e+00 1.747971e+00 9.348363e-01 1.573060e+00 3.653022e+00 7.049772e+00 3.214666e+00 -5.751535e-01 4.404473e-02 -3.401177e-01 1.229773e+00 4.972436e-01 -2.897231e-02 2.030627e-01 -1.438298e-01 -5.536065e-01 -1.102914e-01 -3.617527e-01 -2.721733e-01 -4.147281e-01 -2.734453e-01 -5.148242e-01 -2.793323e-01 4.862097e-01
<VARIANCE> 25
 3.972152e+01 6.863961e+01 7.034641e+01 5.307395e+01 8.967285e+01 5.562299e+01 8.284025e+01 6.354717e+01 5.772304e+01 5.085482e+01 4.247161e+01 3.016681e+01 1.987764e+00 2.196409e+00 2.668360e+00 3.136995e+00 3.255504e+00 3.481378e+00 3.056523e+00 3.401704e+00 3.253330e+00 2.779308e+00 2.588146e+00 2.206355e+00 1.274757e+00
<GCONST> 1.068613e+02
<STATE> 4
<MEAN> 25
 -4.066845e+00 -2.395601e+00 2.194947e+00 -4.025253e-01 1.972873e+00 4.026606e+00 3.893023e+00 -1.321831e-02 4.592305e-01 -4.614602e-01 -1.413740e+00 6.985587e-01 1.361946e+00 3.987338e-01 1.453783e-01 -7.319487e-01 -1.263981e+00 -1.061735e+00 -1.464725e+00 -9.703307e-01 -9.889788e-01 -7.258795e-01 -9.579386e-01 -6.579198e-01 1.970208e+00
<VARIANCE> 25
 4.833356e+01 7.367710e+01 7.183193e+01 5.743918e+01 8.806671e+01 6.230371e+01 6.431623e+01 5.706989e+01 6.231981e+01 5.573787e+01 4.431320e+01 3.493959e+01 4.477382e+00 4.247062e+00 4.395216e+00 3.587886e+00 5.800752e+00 4.565036e+00 5.065523e+00 4.874489e+00 4.081174e+00 4.231863e+00 3.954623e+00 2.946140e+00 4.535774e+00
<GCONST> 1.137685e+02
<TRANSP> 5
 0.000000e+00 1.000000e+00 0.000000e+00 0.000000e+00 0.000000e+00
 0.000000e+00 7.556568e-01 2.443431e-01 0.000000e+00 0.000000e+00
 0.000000e+00 0.000000e+00 4.199937e-01 5.800062e-01 0.000000e+00
 0.000000e+00 0.000000e+00 0.000000e+00 5.565737e-01 4.434263e-01
 0.000000e+00 0.000000e+00 0.000000e+00 0.000000e+00 0.000000e+00
<ENDHMM>
~h "ih"
<BEGINHMM>
<NUMSTATES> 5
<STATE> 2
<MEAN> 25
 1.201153e+00 8.004126e-01 5.673647e+00 -1.064787e-01 -7.040989e+00 -5.726552e+00 -2.420259e+00 -1.262081e+00 -2.457401e+00 -4.510236e-01 -3.532595e-01 1.662171e-01 1.386223e+00 -8.073947e-01 1.379929e+00 -8.494655e-01 -2.867030e+00 -1.393204e+00 -9.337820e-01 4.673718e-02 -8.786365e-01 -2.099155e-01 -6.916150e-02 -1.726862e-01 1.810247e+00
<VARIANCE> 25
 3.357670e+01 3.769437e+01 5.134391e+01 4.802978e+01 6.019165e+01 6.159534e+01 6.508991e+01 5.918751e+01 5.031732e+01 4.644577e+01 3.671689e+01 3.410313e+01 5.415373e+00 3.788435e+00 4.258581e+00 5.170909e+00 5.460134e+00 6.725214e+00 6.947721e+00 6.976607e+00 6.054822e+00 4.879933e+00 4.938342e+00 3.816962e+00 4.084712e+00
<GCONST> 1.135917e+02
<STATE> 3
<MEAN> 25
 2.984473e+00 -1.792698e+00 8.592656e+00 -2.725653e+00 -1.227816e+01 -6.856233e+00 -2.586815e+00 -1.567889e-01 -4.662660e+00 -1.641929e-01 7.008426e-01 -4.828117e-01 1.649251e-01 -1.861481e-01 9.154227e-02 -1.105593e-01 -2.377147e-01 -3.006341e-02 1.453350e-01 3.881409e-01 -1.876506e-01 -2.668569e-02 -2.168971e-02 3.538369e-02 1.248487e-01
<VARIANCE> 25
 1.669520e+01 2.987527e+01 5.008212e+01 4.697109e+01 4.989689e+01 5.615368e+01 5.901669e+01 7.023917e+01 5.672755e+01 5.001094e+01 3.907382e+01 3.727184e+01 1.201656e+00 1.871082e+00 2.248073e+00 2.499542e+00 2.830283e+00 3.248111e+00 3.475867e+00 3.799739e+00 3.148387e+00 3.398870e+00 2.564828e+00 2.228086e+00 1.312741e+00
<GCONST> 1.031453e+02
<STATE> 4
<MEAN> 25
 3.913592e+00 -5.921219e-01 6.255260e+00 -5.524125e-01 -8.740559e+00 -7.266611e+00 -3.587635e+00 1.377203e-01 -3.155445e+00 -7.785095e-01 -7.312441e-01 2.025641e-01 -1.604898e-01 1.469325e+00 -5.342833e-01 1.042719e+00 1.812915e+00 6.053436e-01 2.579976e-01 -7.033875e-01 3.257868e-01 -1.565340e-01 -2.982132e-01 -1.265103e-01 -1.638336e+00
<VARIANCE> 25
 1.619614e+01 3.020748e+01 4.427159e+01 4.840252e+01 5.423660e+01 5.214267e+01 5.825815e+01 6.114493e+01 6.172315e+01 5.203521e+01 4.396990e+01 4.385332e+01 2.240900e+00 2.354793e+00 2.517185e+00 3.583695e+00 3.750198e+00 4.410597e+00 4.398813e+00 4.458713e+00 3.734380e+00 3.914720e+00 3.179323e+00 3.236755e+00 2.194392e+00
<GCONST> 1.070184e+02
<TRANSP> 5
 0.000000e+00 1.000000e+00 0.000000e+00 0.000000e+00 0.000000e+00
 0.000000e+00 4.617371e-01 5.382629e-01 0.000000e+00 0.000000e+00
 0.000000e+00 0.000000e+00 5.728286e-01 4.271714e-01 0.000000e+00
 0.000000e+00 0.000000e+00 0.000000e+00 4.750921e-01 5.249079e-01
 0.000000e+00 0.000000e+00 0.000000e+00 0.000000e+00 0.000000e+00
<ENDHMM>
~h "iy"
<BEGINHMM>
<NUMSTATES> 5
<STATE> 2
<MEAN> 25
 1.644474e+00 1.444626e+00 1.228306e+01 1.865921e-01 -1.089891e+01 -6.172762e+00 -3.292155e+00 -3.748045e+00 -7.567318e+00 -1.333202e+00 3.418632e-01 -1.139922e+00 1.905625e-01 1.540131e-01 2.827209e+00 -1.304043e+00 -3.068875e+00 5.746735e-01 -2.653184e-01 -1.339813e+00 -1.771950e+00 3.623614e-01 -7.617462e-02 -3.252016e-01 9.172065e-01
<VARIANCE> 25
 2.089340e+01 3.474258e+01 4.575592e+01 5.731578e+01 4.987987e+01 5.990994e+01 5.617416e+01 6.762347e+01 5.056590e+01 5.394080e+01 4.232715e+01 2.948238e+01 4.517090e+00 2.701961e+00 3.383435e+00 5.111366e+00 4.586597e+00 6.711339e+00 8.547323e+00 6.366251e+00 5.150198e+00 5.454579e+00 5.124826e+00 3.392594e+00 2.269102e+00
<GCONST> 1.114778e+02
<STATE> 3
<MEAN> 25
 4.476896e-01 4.307596e+00 1.706690e+01 -4.791946e+00 -1.361818e+01 -4.354611e-02 -4.610500e+00 -8.613784e+00 -8.241886e+00 1.223974e+00 -1.362707e+00 -2.006455e+00 -1.910262e-03 2.814628e-01 1.371987e-01 -2.120239e-01 -6.222090e-02 4.583064e-01 3.590222e-02 -2.974922e-01 1.401057e-01 2.403614e-01 -1.849712e-01 -9.288408e-02 -2.588181e-01
<VARIANCE> 25
 1.421134e+01 2.802539e+01 3.519883e+01 6.713017e+01 3.322799e+01 5.334168e+01 5.688756e+01 5.405872e+01 5.440003e+01 6.262805e+01 6.658114e+01 3.591581e+01 4.818045e-01 1.225374e+00 1.278420e+00 1.669466e+00 1.532858e+00 2.413994e+00 2.352096e+00 2.296470e+00 1.895349e+00 1.712400e+00 1.800310e+00 1.434551e+00 6.330202e-01
<GCONST> 9.602128e+01
<STATE> 4
<MEAN> 25
 1.465832e+00 4.041420e+00 1.266358e+01 -1.210344e+00 -1.053761e+01 -3.354865e-01 -1.554042e+00 -6.431535e+00 -5.727786e+00 6.868489e-01 -1.370039e+00 -1.815408e+00 1.794651e-01 -2.205375e-01 -1.761028e+00 1.140571e+00 1.723404e+00 -2.961266e-01 6.807257e-01 9.155577e-01 7.845919e-01 -2.361497e-01 1.477498e-01 2.453332e-01 -1.142256e+00
<VARIANCE> 25
 1.775491e+01 3.637093e+01 4.472547e+01 7.596680e+01 6.850853e+01 7.119701e+01 7.536564e+01 7.449783e+01 6.044148e+01 5.782310e+01 5.365084e+01 3.697201e+01 1.597198e+00 2.436952e+00 2.618190e+00 3.121964e+00 4.680908e+00 4.477335e+00 4.220849e+00 4.507400e+00 3.791997e+00 3.893142e+00 3.301335e+00 2.521869e+00 2.760066e+00
<GCONST> 1.087004e+02
<TRANSP> 5
 0.000000e+00 1.000000e+00 0.000000e+00 0.000000e+00 0.000000e+00
 0.000000e+00 5.838348e-01 4.161652e-01 0.000000e+00 0.000000e+00
 0.000000e+00 0.000000e+00 8.007299e-01 1.992702e-01 0.000000e+00
 0.000000e+00 0.000000e+00 0.000000e+00 7.320580e-01 2.679419e-01
 0.000000e+00 0.000000e+00 0.000000e+00 0.000000e+00 0.000000e+00
<ENDHMM>
~h "jh"
<BEGINHMM>
<NUMSTATES> 5
<STATE> 2
<MEAN> 25
 -3.509484e+00 5.748172e+00 7.197193e+00 1.870549e+00 4.412204e+00 3.177176e+00 4.899279e-01 -2.154446e+00 -9.042219e-01 -2.016853e+00 5.418323e-01 -1.347167e+00 -4.169801e+00 -6.128683e-01 5.811806e-01 -8.641549e-01 1.114448e-01 8.213536e-01 7.011809e-01 1.763900e-01 1.151821e+00 1.095419e-01 7.518291e-01 8.427231e-01 1.652232e+00
<VARIANCE> 25
 5.959176e+01 3.705196e+01 7.355045e+01 4.323044e+01 4.818665e+01 4.255036e+01 5.276712e+01 4.117138e+01 4.874719e+01 2.990039e+01 4.183188e+01 2.772281e+01 6.710322e+00 5.266364e+00 4.587406e+00 4.586254e+00 6.462362e+00 4.287945e+00 4.140790e+00 4.485067e+00 4.630832e+00 4.475800e+00 5.097741e+00 3.355587e+00 5.986080e+00
<GCONST> 1.118762e+02
<STATE> 3
<MEAN> 25
 -1.992252e+01 2.431312e-01 9.903612e+00 -1.346422e+00 -6.945387e-01 4.167054e+00 4.643672e+00 -1.603725e+00 3.603077e+00 -1.468908e+00 1.938737e+00 2.224169e+00 -5.483669e-01 -3.336338e-01 -1.381907e-02 2.547933e-01 -9.669273e-01 -1.207888e+00 3.997438e-01 1.558601e-01 2.194053e-02 -1.868652e-01 6.777674e-02 2.201777e-01 1.056685e+00
<VARIANCE> 25
 4.640442e+01 5.655338e+01 3.391579e+01 2.605943e+01 3.902041e+01 3.053086e+01 4.474289e+01 3.927523e+01 4.716809e+01 3.495839e+01 2.917249e+01 2.050982e+01 1.043977e+01 2.171254e+00 3.053309e+00 3.131069e+00 3.884075e+00 4.229100e+00 3.309594e+00 2.753299e+00 3.558475e+00 2.558161e+00 2.020686e+00 1.600724e+00 4.038727e+00
<GCONST> 1.041256e+02
<STATE> 4
<MEAN> 25
 -7.989687e+00 2.746411e+00 9.463875e+00 2.272979e+00 -3.939720e+00 -5.266509e+00 2.250410e-02 -3.106591e+00 1.259704e+00 -3.003569e+00 1.225486e+00 1.897939e+00 4.503927e+00 -7.597258e-01 -1.017472e+00 3.229011e-02 -1.504774e+00 -2.506050e+00 -1.764218e+00 3.613917e-02 -4.392662e-01 2.089841e-01 -7.333770e-02 8.627556e-02 1.400160e-01
<VARIANCE> 25
 5.529511e+01 4.397667e+01 2.440375e+01 5.667117e+01 3.797865e+01 4.772998e+01 5.344870e+01 3.949671e+01 5.603035e+01 2.768929e+01 2.111871e+01 2.166318e+01 6.012859e+00 5.180063e+00 3.125673e+00 3.444418e+00 7.330421e+00 8.006930e+00 5.951248e+00 5.861680e+00 3.736537e+00 3.421753e+00 3.500612e+00 2.791656e+00 3.032624e+00
<GCONST> 1.089823e+02
<TRANSP> 5
 0.000000e+00 1.000000e+00 0.000000e+00 0.000000e+00 0.000000e+00
 0.000000e+00 6.992341e-01 3.007659e-01 0.000000e+00 0.000000e+00
 0.000000e+00 0.000000e+00 7.036145e-01 2.963855e-01 0.000000e+00
 0.000000e+00 0.000000e+00 0.000000e+00 6.102297e-01 3.897703e-01
 0.000000e+00 0.000000e+00 0.000000e+00 0.000000e+00 0.000000e+00
<ENDHMM>
~h "ng"
<BEGINHMM>
<NUMSTATES> 5
<STATE> 2
<MEAN> 25
 3.957125e+00 3.656340e+00 8.430977e+00 -4.304872e+00 -1.067630e+01 1.911911e+00 1.998854e-01 -8.584387e+00 -8.000530e+00 3.084458e+00 -2.778405e+00 -4.520743e+00 1.037297e+00 1.133960e+00 -1.263297e+00 1.539161e+00 1.429300e+00 -2.258765e-01 -1.989942e-01 -1.690170e+00 2.260058e-01 2.913070e-01 -5.713463e-01 -2.058715e-01 -1.504913e+00
<VARIANCE> 25
 1.836420e+01 2.052285e+01 4.349419e+01 5.348097e+01 5.554424e+01 4.578662e+01 8.119074e+01 7.046088e+01 5.687092e+01 5.959500e+01 6.890456e+01 4.176238e+01 8.668455e-01 1.227042e+00 3.508791e+00 3.742137e+00 3.734932e+00 5.551995e+00 3.904010e+00 4.315830e+00 3.701647e+00 4.637365e+00 2.576843e+00 3.116872e+00 5.895040e-01
<GCONST> 1.051076e+02
<STATE> 3
<MEAN> 25
 8.277414e+00 6.442955e+00 1.793760e+00 1.579578e+00 -4.415356e+00 -1.078449e+00 -4.870926e-01 -1.086868e+01 -5.825148e+00 1.273611e+00 -2.858771e+00 -3.007654e+00 1.630901e-01 3.978855e-01 -3.929984e-01 6.130571e-01 5.768648e-01 -2.279172e-01 9.184284e-04 1.391261e-01 1.310247e-01 -3.379898e-01 3.268850e-02 9.765173e-02 -5.758503e-01
<VARIANCE> 25
 1.015577e+01 1.866609e+01 2.894170e+01 3.711347e+01 3.278574e+01 3.589180e+01 7.166299e+01 5.510284e+01 3.820783e+01 3.733353e+01 4.997879e+01 4.080382e+01 5.443560e-01 8.700720e-01 1.353495e+00 1.848406e+00 2.151806e+00 2.334528e+00 2.123847e+00 2.120125e+00 2.193834e+00 2.358471e+00 1.690968e+00 1.684231e+00 5.374830e-01
<GCONST> 9.376383e+01
<STATE> 4
<MEAN> 25
 4.192728e+00 4.841929e+00 3.890241e+00 2.629572e+00 -2.783841e+00 -1.135874e+00 9.604162e-01 -6.130016e+00 -6.000567e+00 -1.863193e-01 -2.095935e+00 -1.793156e+00 -1.207673e+00 -9.664136e-01 1.375876e-01 -2.559674e-01 8.120041e-01 3.034066e-01 3.970757e-01 2.099955e+00 7.094015e-01 -3.813032e-01 2.372176e-01 5.771224e-01 -1.761264e-01
<VARIANCE> 25
 2.278298e+01 2.665506e+01 4.055521e+01 4.206800e+01 6.912408e+01 6.129618e+01 5.813406e+01 8.538360e+01 5.308107e+01 4.675617e+01 5.539701e+01 4.227812e+01 1.544631e+00 2.496876e+00 3.140055e+00 3.894321e+00 5.057067e+00 4.639128e+00 4.610368e+00 4.995675e+00 5.041942e+00 4.974427e+00 4.291995e+00 2.921883e+00 2.324437e+00
<GCONST> 1.089753e+02
<TRANSP> 5
 0.000000e+00 1.000000e+00 0.000000e+00 0.000000e+00 0.000000e+00
 0.000000e+00 6.743262e-01 3.256738e-01 0.000000e+00 0.000000e+00
 0.000000e+00 0.000000e+00 7.329714e-01 2.670286e-01 0.000000e+00
 0.000000e+00 0.000000e+00 0.000000e+00 6.390498e-01 3.609502e-01
 0.000000e+00 0.000000e+00 0.000000e+00 0.000000e+00 0.000000e+00
<ENDHMM>
~h "ow"
<BEGINHMM>
<NUMSTATES> 5
<STATE> 2
<MEAN> 25
 5.285722e+00 -4.285491e+00 -4.876814e+00 -7.317998e+00 -2.428710e+00 -1.176618e-01 -5.909764e+00 -6.962851e-02 1.497741e+00 8.092036e-01 -3.231130e+00 -4.033348e+00 1.331492e+00 -7.578229e-01 -1.161191e+00 -1.873931e+00 -1.176605e-01 1.098524e+00 -6.902631e-01 -3.766551e-01 2.119897e-01 8.195965e-01 -9.748235e-02 -8.503824e-01 9.583468e-01
<VARIANCE> 25
 2.152159e+01 4.161900e+01 4.758440e+01 5.205356e+01 5.221904e+01 7.573573e+01 4.799397e+01 5.380242e+01 6.048293e+01 8.125650e+01 5.571201e+01 3.822525e+01 3.653650e+00 3.220664e+00 3.269838e+00 4.233432e+00 4.913980e+00 4.374749e+00 4.686569e+00 5.413524e+00 5.448482e+00 4.651852e+00 4.322940e+00 3.829013e+00 2.935226e+00
<GCONST> 1.113726e+02
<STATE> 3
<MEAN> 25
 8.746131e+00 -2.747499e+00 -7.189738e+00 -1.173831e+01 -1.504814e+00 5.444280e+00 -4.905926e+00 -4.594546e+00 -1.178722e+00 4.555595e+00 6.256806e-01 -4.018425e+00 3.688311e-01 8.268000e-01 8.702005e-03 -5.778577e-01 -2.020055e-01 4.865263e-01 2.980533e-01 -4.810270e-01 -9.158275e-01 -2.409988e-01 4.695807e-01 6.585389e-01 -6.257051e-01
<VARIANCE> 25
 8.969695e+00 2.775017e+01 2.982520e+01 4.741283e+01 4.004638e+01 6.961353e+01 5.520616e+01 4.629080e+01 7.020901e+01 8.058432e+01 5.337291e+01 4.311076e+01 2.980857e-01 9.497920e-01 8.677391e-01 2.007858e+00 1.673360e+00 2.129574e+00 2.086378e+00 2.100580e+00 2.046842e+00 2.473146e+00 2.175823e+00 1.956148e+00 4.171401e-01
<GCONST> 9.511670e+01
<STATE> 4
<MEAN> 25
 9.809285e+00 4.537519e+00 -6.330180e+00 -1.159666e+01 -3.602950e+00 6.138200e+00 -2.761077e+00 -4.890301e+00 -5.217277e+00 -4.536249e-01 -9.617943e-01 1.080576e-02 -4.197800e-01 3.213574e-01 5.342650e-01 1.523975e+00 3.803336e-01 -6.960253e-01 -1.589679e-01 6.886889e-02 4.541823e-01 -3.890541e-01 -3.628561e-01 -7.372414e-02 -8.781024e-01
<VARIANCE> 25
 1.367152e+01 3.525468e+01 3.953150e+01 5.825640e+01 6.966418e+01 5.475544e+01 9.341025e+01 4.922626e+01 5.774317e+01 6.441646e+01 5.493410e+01 5.518998e+01 1.120520e+00 2.240599e+00 2.127546e+00 3.405804e+00 3.609399e+00 2.956862e+00 3.257336e+00 3.269748e+00 3.917648e+00 3.996540e+00 3.122383e+00 3.044989e+00 1.355566e+00
<GCONST> 1.057266e+02
<TRANSP> 5
 0.000000e+00 1.000000e+00 0.000000e+00 0.000000e+00 0.000000e+00
 0.000000e+00 6.798820e-01 3.201180e-01 0.000000e+00 0.000000e+00
 0.000000e+00 0.000000e+00 8.165301e-01 1.834699e-01 0.000000e+00
 0.000000e+00 0.000000e+00 0.000000e+00 8.134623e-01 1.865377e-01
 0.000000e+00 0.000000e+00 0.000000e+00 0.000000e+00 0.000000e+00
<ENDHMM>
~h "oy"
<BEGINHMM>
<NUMSTATES> 5
<STATE> 2
<MEAN> 25
 8.700754e+00 1.618553e+00 -4.828190e+00 -1.056833e+01 -5.544823e+00 5.071071e+00 -1.903469e+00 -1.044920e+00 -3.775380e+00 -6.781298e-02 3.296100e+00 9.219240e-01 1.177594e+00 -2.765398e-01 -8.437760e-01 -2.426043e+00 -9.359273e-01 2.093702e+00 4.301484e-01 1.224454e-01 -9.728625e-01 6.503598e-01 8.868410e-01 1.878867e-01 4.917914e-01
<VARIANCE> 25
 1.444287e+01 3.527810e+01 3.032159e+01 7.043954e+01 3.557716e+01 4.258346e+01 6.941183e+01 4.174062e+01 5.197651e+01 3.476181e+01 4.151240e+01 3.004695e+01 2.254386e+00 1.560752e+00 1.868682e+00 6.397804e+00 3.110451e+00 3.743941e+00 3.485692e+00 3.789497e+00 3.692190e+00 4.775867e+00 4.366198e+00 2.793362e+00 8.684629e-01
<GCONST> 1.037747e+02
<STATE> 3
<MEAN> 25
 9.114066e+00 -3.718321e+00 -5.577194e+00 -1.193905e+01 -1.727713e+00 7.664838e+00 -2.183678e+00 -1.142763e+00 -1.501498e+00 4.971387e+00 2.272490e+00 -1.514187e+00 -5.165689e-01 -1.297931e+00 6.497284e-01 1.990993e+00 1.227037e+00 -2.403698e+00 -7.792087e-01 8.225439e-01 1.478631e+00 8.384210e-01 -1.050312e+00 -1.229761e+00 3.798733e-01
<VARIANCE> 25
 7.090813e+00 2.626578e+01 3.391314e+01 7.550974e+01 4.917938e+01 5.773373e+01 2.997189e+01 3.883614e+01 4.221268e+01 7.332832e+01 4.784958e+01 3.999136e+01 3.271246e-01 1.259077e+00 1.220676e+00 2.885958e+00 2.572417e+00 6.445545e+00 3.709965e+00 5.608233e+00 2.076783e+00 6.199240e+00 3.276757e+00 2.880074e+00 2.658666e-01
<GCONST> 9.931824e+01
<STATE> 4
<MEAN> 25
 4.492921e+00 -6.748515e+00 4.125411e+00 -3.793769e+00 -2.029979e+00 -4.629102e+00 -2.033903e+00 4.441202e+00 -4.563487e-02 3.844873e+00 3.116269e-01 -2.186695e-01 -4.231856e-01 9.208091e-01 1.100185e+00 5.989179e-01 -8.441347e-01 -3.475319e-01 3.246465e-01 4.837716e-02 -6.917822e-01 -5.574808e-01 1.995783e-01 7.532013e-01 -5.196896e-01
<VARIANCE> 25
 1.802897e+01 3.423429e+01 8.595094e+01 4.993990e+01 3.186729e+01 1.170577e+02 4.147261e+01 4.093975e+01 5.431882e+01 4.327856e+01 4.022591e+01 2.533670e+01 5.913979e-01 1.669941e+00 2.784252e+00 2.849144e+00 2.779070e+00 5.647676e+00 4.072580e+00 4.464790e+00 3.182920e+00 4.409566e+00 3.673217e+00 2.942895e+00 1.101271e+00
<GCONST> 1.039183e+02
<TRANSP> 5
 0.000000e+00 1.000000e+00 0.000000e+00 0.000000e+00 0.000000e+00
 0.000000e+00 7.942425e-01 2.057575e-01 0.000000e+00 0.000000e+00
 0.000000e+00 0.000000e+00 8.178488e-01 1.821512e-01 0.000000e+00
 0.000000e+00 0.000000e+00 0.000000e+00 8.405132e-01 1.594868e-01
 0.000000e+00 0.000000e+00 0.000000e+00 0.000000e+00 0.000000e+00
<ENDHMM>
~h "sh"
<BEGINHMM>
<NUMSTATES> 5
<STATE> 2
<MEAN> 25
 -1.183491e+01 1.102269e+00 1.096688e+01 1.416347e+00 -1.506658e+00 5.348873e-01 2.945037e+00 -1.329359e+00 8.140980e-01 -2.622047e+00 1.569701e+00 9.691474e-01 -4.644527e+00 -5.161730e-01 3.017102e-01 -2.021947e-01 9.739978e-01 9.956517e-01 1.304439e+00 5.580970e-01 1.390559e+00 2.227090e-01 9.635808e-01 4.480158e-01 8.593352e-01
<VARIANCE> 25
 8.134059e+01 3.205484e+01 3.340045e+01 4.487597e+01 4.533049e+01 6.282473e+01 4.763433e+01 3.664622e+01 5.167270e+01 3.595145e+01 3.296259e+01 2.477101e+01 3.674994e+00 3.311899e+00 3.722608e+00 3.407432e+00 5.104808e+00 4.906566e+00 4.664541e+00 4.279547e+00 3.504311e+00 4.468052e+00 3.447984e+00 2.500054e+00 2.394902e+00
<GCONST> 1.078093e+02
<STATE> 3
<MEAN> 25
 -2.316697e+01 -1.598222e+00 9.921599e+00 -1.462911e+00 -9.002030e-01 3.265529e+00 5.306950e+00 3.586477e-01 3.969582e+00 -4.517921e-01 4.579451e+00 1.939690e+00 -1.266592e-01 -2.364351e-01 -1.649973e-01 -1.295233e-01 -5.326235e-02 1.156359e-01 2.459955e-01 1.343677e-01 1.983458e-01 9.895989e-02 2.304439e-02 1.135529e-01 1.045804e-03
<VARIANCE> 25
 1.528500e+01 4.171221e+01 1.983590e+01 3.136484e+01 3.442907e+01 4.476202e+01 3.749996e+01 2.657765e+01 2.445989e+01 3.190794e+01 2.468355e+01 1.861845e+01 1.905915e+00 7.394004e-01 9.815407e-01 1.242022e+00 1.301037e+00 1.686818e+00 1.683920e+00 1.698657e+00 1.753349e+00 1.682093e+00 1.352393e+00 1.325733e+00 5.727323e-01
<GCONST> 8.935882e+01
<STATE> 4
<MEAN> 25
 -1.347108e+01 -9.781703e-01 9.207069e+00 2.382033e-01 -2.938743e+00 6.226130e-02 3.405360e+00 1.503738e-01 1.951825e+00 -2.023070e+00 1.916627e+00 9.519998e-01 5.323928e+00 1.035411e+00 -1.924966e-01 2.379729e-01 -1.239849e+00 -2.063280e+00 -2.143052e+00 -6.925071e-01 -1.422472e+00 -9.755138e-01 -1.195537e+00 -7.357643e-01 -3.749179e-01
<VARIANCE> 25
 6.949960e+01 3.451600e+01 2.390771e+01 3.089334e+01 3.452304e+01 4.663883e+01 4.434611e+01 3.312998e+01 3.704932e+01 3.762105e+01 2.586059e+01 2.048044e+01 3.504990e+00 3.129063e+00 3.152222e+00 2.509493e+00 4.261253e+00 3.844626e+00 3.428889e+00 3.481392e+00 3.460817e+00 2.923029e+00 2.446014e+00 1.681537e+00 1.197288e+00
<GCONST> 1.021703e+02
<TRANSP> 5
 0.000000e+00 1.000000e+00 0.000000e+00 0.000000e+00 0.000000e+00
 0.000000e+00 7.188047e-01 2.811953e-01 0.000000e+00 0.000000e+00
 0.000000e+00 0.000000e+00 8.422145e-01 1.577855e-01 0.000000e+00
 0.000000e+00 0.000000e+00 0.000000e+00 6.904355e-01 3.095644e-01
 0.000000e+00 0.000000e+00 0.000000e+00 0.000000e+00 0.000000e+00
<ENDHMM>
~h "sp"
<BEGINHMM>
<NUMSTATES> 3
<STATE> 2
~s "silst"
<TRANSP> 3
 0.000000e+00 1.341670e-01 8.658330e-01
 0.000000e+00 9.680938e-01 3.190633e-02
 0.000000e+00 0.000000e+00 0.000000e+00
<ENDHMM>
~h "th"
<BEGINHMM>
<NUMSTATES> 5
<STATE> 2
<MEAN> 25
 -4.419437e+00 4.126117e+00 -2.158781e+00 6.126816e+00 2.588702e+00 -4.955586e-01 2.775833e+00 -1.147177e+00 3.743787e+00 4.048001e-01 -1.973889e-01 9.159345e-01 -2.439213e+00 3.253855e-01 -3.644073e-01 7.450309e-01 1.334266e+00 9.326674e-01 1.351511e+00 6.153598e-01 9.883995e-01 1.083259e+00 1.528690e+00 5.636578e-01 -1.298057e+00
<VARIANCE> 25
 4.947663e+01 3.482824e+01 4.004438e+01 4.119933e+01 5.624961e+01 4.298466e+01 4.630060e+01 4.908842e+01 3.804977e+01 7.131515e+01 2.862206e+01 2.619808e+01 4.495495e+00 3.916001e+00 3.911752e+00 5.425159e+00 3.836331e+00 5.117659e+00 5.366087e+00 5.300394e+00 5.268452e+00 6.288985e+00 3.861187e+00 3.197135e+00 2.564966e+00
<GCONST> 1.100565e+02
<STATE> 3
<MEAN> 25
 -1.113438e+01 1.643931e+00 -1.274586e+00 5.621146e+00 4.149283e+00 2.715120e+00 6.669919e+00 2.815789e+00 5.581874e+00 2.415113e+00 4.797307e+00 3.882601e+00 -1.294205e-01 -2.641047e-01 -5.211629e-02 -1.718450e-01 1.095008e-02 3.158308e-01 5.924890e-02 2.208732e-01 1.422637e-01 1.832795e-01 1.656872e-01 9.609631e-02 -2.895589e-01
<VARIANCE> 25
 3.408253e+01 2.958966e+01 3.129959e+01 2.632519e+01 2.454756e+01 2.675293e+01 2.557939e+01 2.673808e+01 2.567977e+01 3.003871e+01 3.063655e+01 2.421531e+01 2.180122e+00 1.440158e+00 1.660894e+00 1.718766e+00 1.514347e+00 1.656715e+00 1.670845e+00 1.749303e+00 2.140822e+00 1.913064e+00 2.106360e+00 1.551337e+00 1.915814e+00
<GCONST> 9.327935e+01
<STATE> 4
<MEAN> 25
 -3.277068e+00 1.823995e+00 -1.772295e-01 5.827521e+00 2.997056e+00 4.868137e+00 3.440842e+00 1.056398e+00 2.763150e+00 4.968559e-01 3.664200e+00 1.714708e+00 3.566176e-01 -2.600772e-01 1.674735e-01 -2.757011e-01 -2.036480e-01 -1.899073e-01 -1.796438e-01 -1.354810e-01 -2.483925e-01 -1.902047e-01 -2.154586e-01 -3.116334e-02 4.051801e-01
<VARIANCE> 25
 3.833393e+01 2.121735e+01 1.506749e+01 2.208746e+01 1.848846e+01 2.116815e+01 2.215477e+01 2.541686e+01 1.734865e+01 2.490696e+01 1.643066e+01 1.986210e+01 2.546803e+00 1.551751e+00 1.797619e+00 2.128792e+00 2.214585e+00 2.441988e+00 1.730279e+00 2.385730e+00 1.903442e+00 2.462844e+00 1.769760e+00 1.948322e+00 3.091024e+00
<GCONST> 9.234856e+01
<TRANSP> 5
 0.000000e+00 1.000000e+00 0.000000e+00 0.000000e+00 0.000000e+00
 0.000000e+00 6.549829e-01 3.450171e-01 0.000000e+00 0.000000e+00
 0.000000e+00 0.000000e+00 8.082888e-01 1.917113e-01 0.000000e+00
 0.000000e+00 0.000000e+00 0.000000e+00 8.299674e-01 1.700325e-01
 0.000000e+00 0.000000e+00 0.000000e+00 0.000000e+00 0.000000e+00
<ENDHMM>
~h "uh"
<BEGINHMM>
<NUMSTATES> 5
<STATE> 2
<MEAN> 25
 7.801071e-01 6.225653e-01 1.203128e+00 -2.815341e+00 -1.675768e+00 -2.250479e+00 -3.160254e+00 -3.532374e+00 -2.584065e+00 6.501533e-01 5.909925e-01 -1.641754e+00 2.695550e+00 3.600513e-02 4.048032e-01 -1.012279e+00 -2.147153e+00 -1.332081e+00 -2.109831e+00 -3.551514e-01 -9.855512e-01 -5.163204e-01 -6.410673e-01 -7.101682e-01 1.208159e+00
<VARIANCE> 25
 7.700097e+01 2.637731e+01 6.656285e+01 6.870126e+01 6.899994e+01 7.467729e+01 8.725100e+01 3.413628e+01 3.527877e+01 3.924263e+01 5.461998e+01 2.724323e+01 9.808399e+00 4.022909e+00 6.927373e+00 9.299534e+00 9.470361e+00 6.860374e+00 7.493098e+00 6.539213e+00 3.984533e+00 5.076385e+00 6.802628e+00 4.092882e+00 2.667621e+00
<GCONST> 1.162970e+02
<STATE> 3
<MEAN> 25
 6.884469e+00 -2.514321e+00 -1.853024e-01 -4.155211e+00 -6.126662e+00 -3.684896e+00 -9.166693e+00 -3.792858e+00 -3.508793e+00 1.623875e+00 -6.542315e-01 -2.462455e+00 1.417664e+00 -8.641526e-01 -5.475973e-02 -4.621645e-01 -1.594454e+00 -6.348746e-01 -1.195540e+00 3.329749e-01 1.287511e-01 1.079676e-01 3.054300e-01 -2.504253e-01 8.286998e-01
<VARIANCE> 25
 1.610607e+01 2.904177e+01 5.536904e+01 7.648621e+01 4.416068e+01 9.629324e+01 6.033822e+01 4.483502e+01 5.244885e+01 3.721102e+01 7.186181e+01 4.105362e+01 3.366465e+00 2.076265e+00 5.781202e+00 6.897178e+00 4.535762e+00 7.614025e+00 4.405601e+00 7.132407e+00 6.153147e+00 5.491913e+00 4.958313e+00 3.148686e+00 1.884205e+00
<GCONST> 1.117917e+02
<STATE> 4
<MEAN> 25
 7.200029e+00 -2.977330e+00 -2.444543e+00 -3.885970e+00 -6.711969e+00 -3.101769e+00 -8.383160e+00 -3.377568e+00 7.475674e-01 3.265228e+00 -3.056106e-01 -2.389160e+00 5.523543e-03 2.284188e-01 3.850799e-01 7.897469e-01 2.188002e-01 -2.916434e-01 6.151191e-01 3.911923e-01 4.316366e-01 -2.597120e-01 1.480704e-01 3.163502e-01 -9.564194e-01
<VARIANCE> 25
 1.332056e+01 2.744554e+01 5.566956e+01 5.964469e+01 4.023598e+01 6.580927e+01 5.306913e+01 8.260960e+01 7.685757e+01 4.901164e+01 8.936244e+01 3.785738e+01 8.189432e-01 1.627701e+00 2.659052e+00 3.642519e+00 3.234343e+00 3.463727e+00 3.662889e+00 4.213078e+00 4.194981e+00 2.937307e+00 3.194416e+00 2.267600e+00 2.272707e+00
<GCONST> 1.056072e+02
<TRANSP> 5
 0.000000e+00 1.000000e+00 0.000000e+00 0.000000e+00 0.000000e+00
 0.000000e+00 3.642997e-01 6.357003e-01 0.000000e+00 0.000000e+00
 0.000000e+00 0.000000e+00 2.966304e-01 7.033697e-01 0.000000e+00
 0.000000e+00 0.000000e+00 0.000000e+00 7.172126e-01 2.827874e-01
 0.000000e+00 0.000000e+00 0.000000e+00 0.000000e+00 0.000000e+00
<ENDHMM>
~h "uw"
<BEGINHMM>
<NUMSTATES> 5
<STATE> 2
<MEAN> 25
 2.913731e-01 2.568259e+00 6.982315e+00 2.964768e+00 -4.272222e+00 -7.047125e+00 -4.806663e+00 -3.360619e+00 -4.818356e+00 -3.274184e+00 -1.171322e+00 2.647665e-01 3.245851e+00 -9.946178e-02 -5.789758e-02 2.582281e-01 -1.631746e+00 -1.392046e+00 -2.814893e+00 -1.611081e+00 -7.520254e-01 -5.630016e-01 -1.194599e+00 -7.032311e-01 6.410984e-01
<VARIANCE> 25
 4.346515e+01 3.107715e+01 4.110052e+01 5.399564e+01 6.105322e+01 4.623398e+01 6.190162e+01 5.203865e+01 4.582500e+01 4.649623e+01 3.446654e+01 3.063914e+01 5.278696e+00 4.191923e+00 5.677389e+00 4.430475e+00 9.333084e+00 6.008717e+00 6.095815e+00 5.105032e+00 7.494052e+00 5.557972e+00 4.896536e+00 3.662185e+00 2.550339e+00
<GCONST> 1.128484e+02
<STATE> 3
<MEAN> 25
 5.108365e+00 -1.604960e-01 4.708898e+00 3.383175e+00 -6.536649e+00 -7.936623e+00 -1.076594e+01 -4.198798e+00 -3.979235e+00 -2.285534e+00 -1.990340e+00 -1.479658e+00 1.291210e+00 1.724477e-01 -1.460002e+00 -5.526860e-01 4.559661e-01 7.339616e-01 -1.235844e+00 -1.230970e+00 1.186648e-01 1.063905e+00 -1.944243e-02 -9.928032e-01 -2.578695e-01
<VARIANCE> 25
 1.617473e+01 2.469839e+01 3.778213e+01 5.203595e+01 4.648334e+01 4.688485e+01 6.305263e+01 5.090713e+01 5.174166e+01 5.212167e+01 5.195498e+01 4.465145e+01 1.904683e+00 2.263514e+00 2.893770e+00 3.357082e+00 5.099971e+00 4.586518e+00 4.757876e+00 4.427170e+00 4.485879e+00 3.939523e+00 3.954644e+00 2.836885e+00 1.771549e+00
<GCONST> 1.067270e+02
<STATE> 4
<MEAN> 25
 7.608500e+00 2.916125e+00 2.892240e-01 6.643271e-02 -4.030854e+00 -2.165818e+00 -8.050200e+00 -7.737451e+00 -6.099735e+00 3.786777e-01 2.281794e-02 -3.067352e+00 -1.247472e-01 4.123484e-01 -1.816116e-01 5.898767e-02 6.479493e-01 5.143837e-01 9.502404e-01 1.719426e-01 1.739724e-01 1.128082e-01 -4.282593e-02 2.467384e-01 -8.703091e-01
<VARIANCE> 25
 2.374492e+01 3.313929e+01 5.035005e+01 5.107996e+01 5.583289e+01 8.298663e+01 6.734502e+01 5.963919e+01 6.365410e+01 6.023847e+01 6.255098e+01 4.125533e+01 1.347026e+00 2.001163e+00 1.997390e+00 2.626804e+00 2.977482e+00 3.958978e+00 4.306514e+00 3.875315e+00 4.157221e+00 3.436274e+00 3.382140e+00 2.566401e+00 1.585057e+00
<GCONST> 1.065260e+02
<TRANSP> 5
 0.000000e+00 1.000000e+00 0.000000e+00 0.000000e+00 0.000000e+00
 0.000000e+00 3.189851e-01 6.810150e-01 0.000000e+00 0.000000e+00
 0.000000e+00 0.000000e+00 4.498761e-01 5.501239e-01 0.000000e+00
 0.000000e+00 0.000000e+00 0.000000e+00 7.790795e-01 2.209205e-01
 0.000000e+00 0.000000e+00 0.000000e+00 0.000000e+00 0.000000e+00
<ENDHMM>
~h "zh"
<BEGINHMM>
<NUMSTATES> 5
<STATE> 2
<MEAN> 25
 4.186130e+00 9.049119e+00 2.803744e+00 8.163843e+00 6.520247e+00 9.272544e+00 9.137106e+00 -9.339140e+00 4.994228e+00 -1.912420e+00 -1.769414e+00 2.428244e+00 -5.749537e-01 5.078706e-01 -1.236237e-01 2.893822e-01 8.297988e-01 1.200164e-01 8.260865e-01 2.159767e-01 -2.143351e-02 2.891602e-02 1.795450e-01 3.472434e-02 -7.234624e-01
<VARIANCE> 25
 3.851272e+01 4.031422e+01 3.696968e+01 9.966770e+00 1.585299e+02 4.422355e+01 4.632029e+01 5.708938e+01 2.190074e+01 1.244902e+01 3.617247e+01 2.003386e+01 1.956349e+00 5.055467e+00 4.852175e+00 1.411788e+00 6.197077e+00 8.341495e-01 1.328650e+00 3.489313e+00 1.728769e+00 2.168826e+00 1.321192e+00 2.427913e+00 2.372418e+00
<GCONST> 9.887676e+01
<STATE> 3
<MEAN> 25
 -7.774852e+00 1.299852e+00 7.860259e+00 5.438702e+00 -2.390373e+00 -2.078063e+00 1.228116e+00 1.677691e+00 1.478396e+00 -2.042134e+00 2.251564e+00 -1.165716e+00 -9.523826e-01 -5.539155e-01 7.197891e-01 3.580075e-01 -4.218372e-01 3.558060e-01 -4.955683e-02 -5.294182e-01 6.318823e-01 -2.989294e-01 3.517947e-01 9.093356e-02 1.165286e+00
<VARIANCE> 25
 1.610317e+02 1.020811e+02 4.355365e+01 1.687194e+01 1.125314e+02 3.961637e+01 6.098393e+01 4.814813e+01 4.294890e+01 2.298916e+01 2.370397e+01 1.809710e+01 1.455453e+01 8.045311e+00 3.146024e+00 2.618235e+00 7.724648e+00 4.902384e+00 5.018533e+00 4.329959e+00 3.744550e+00 3.060339e+00 2.024222e+00 1.970681e+00 7.824459e+00
<GCONST> 1.110619e+02
<STATE> 4
<MEAN> 25
 -6.559689e+00 -6.407309e+00 1.298409e+01 1.255902e+01 4.323024e+00 4.937266e+00 8.188897e+00 7.837770e+00 6.292384e+00 -8.361958e+00 8.235669e+00 2.851943e+00 3.941637e-01 -1.765630e-01 -2.862965e-01 2.314121e-01 1.802149e-01 -1.048205e-01 -3.442450e-01 3.253720e-01 2.536705e-01 1.547165e-01 -1.329791e-01 -1.550311e-02 -2.218906e-01
<VARIANCE> 25
 5.623172e+01 2.678580e+01 2.455796e+01 3.788435e+01 1.526525e+01 2.136127e+01 5.863396e+01 6.074981e+01 3.092759e+01 5.494864e+01 2.927370e+01 1.600701e+01 1.774115e+00 6.925445e-01 1.793618e+00 1.230699e+00 1.291772e+00 1.544499e+00 2.229803e+00 1.111641e+00 1.741422e+00 1.418826e+00 1.748976e+00 1.418743e+00 7.592013e-01
<GCONST> 9.178688e+01
<TRANSP> 5
 0.000000e+00 1.000000e+00 0.000000e+00 0.000000e+00 0.000000e+00
 0.000000e+00 9.014210e-01 9.857909e-02 0.000000e+00 0.000000e+00
