~o
<STREAMINFO> 1 25
<VECSIZE> 25<NULLD><MFCC_D_N_Z_0><DIAGC>
~h "hcompv_proto"
<BEGINHMM>
<NUMSTATES> 5
<STATE> 2
<MEAN> 25
 -8.037036e-08 -2.763006e-08 -4.679700e-09 -1.539636e-08 -3.128493e-08 5.775334e-08 -2.799004e-08 -4.418900e-08 -9.594486e-08 -4.248830e-08 -5.289456e-09 2.887896e-08 2.450831e-04 9.733054e-04 -1.454730e-04 7.791626e-04 4.044105e-04 6.030637e-04 -2.704330e-05 1.718759e-04 3.252754e-04 -3.825893e-04 -3.537102e-04 -1.266510e-04 -1.874666e-03
<VARIANCE> 25
 8.910504e+01 5.982016e+01 6.978382e+01 7.172000e+01 7.834339e+01 7.155600e+01 7.268173e+01 6.544347e+01 6.067440e+01 4.805729e+01 4.578569e+01 3.870119e+01 3.923096e+00 3.169455e+00 2.951688e+00 3.694200e+00 4.200675e+00 4.140374e+00 4.214964e+00 4.153210e+00 3.788137e+00 3.367979e+00 3.061607e+00 2.617231e+00 3.596901e+00
<GCONST> 1.121383e+02
<STATE> 3
<MEAN> 25
 -8.037036e-08 -2.763006e-08 -4.679700e-09 -1.539636e-08 -3.128493e-08 5.775334e-08 -2.799004e-08 -4.418900e-08 -9.594486e-08 -4.248830e-08 -5.289456e-09 2.887896e-08 2.450831e-04 9.733054e-04 -1.454730e-04 7.791626e-04 4.044105e-04 6.030637e-04 -2.704330e-05 1.718759e-04 3.252754e-04 -3.825893e-04 -3.537102e-04 -1.266510e-04 -1.874666e-03
<VARIANCE> 25
 8.910504e+01 5.982016e+01 6.978382e+01 7.172000e+01 7.834339e+01 7.155600e+01 7.268173e+01 6.544347e+01 6.067440e+01 4.805729e+01 4.578569e+01 3.870119e+01 3.923096e+00 3.169455e+00 2.951688e+00 3.694200e+00 4.200675e+00 4.140374e+00 4.214964e+00 4.153210e+00 3.788137e+00 3.367979e+00 3.061607e+00 2.617231e+00 3.596901e+00
<GCONST> 1.121383e+02
<STATE> 4
<MEAN> 25
 -8.037036e-08 -2.763006e-08 -4.679700e-09 -1.539636e-08 -3.128493e-08 5.775334e-08 -2.799004e-08 -4.418900e-08 -9.594486e-08 -4.248830e-08 -5.289456e-09 2.887896e-08 2.450831e-04 9.733054e-04 -1.454730e-04 7.791626e-04 4.044105e-04 6.030637e-04 -2.704330e-05 1.718759e-04 3.252754e-04 -3.825893e-04 -3.537102e-04 -1.266510e-04 -1.874666e-03
<VARIANCE> 25
 8.910504e+01 5.982016e+01 6.978382e+01 7.172000e+01 7.834339e+01 7.155600e+01 7.268173e+01 6.544347e+01 6.067440e+01 4.805729e+01 4.578569e+01 3.870119e+01 3.923096e+00 3.169455e+00 2.951688e+00 3.694200e+00 4.200675e+00 4.140374e+00 4.214964e+00 4.153210e+00 3.788137e+00 3.367979e+00 3.061607e+00 2.617231e+00 3.596901e+00
<GCONST> 1.121383e+02
<TRANSP> 5
 0.000000e+00 1.000000e+00 0.000000e+00 0.000000e+00 0.000000e+00
 0.000000e+00 6.000000e-01 4.000000e-01 0.000000e+00 0.000000e+00
 0.000000e+00 0.000000e+00 6.000000e-01 4.000000e-01 0.000000e+00
 0.000000e+00 0.000000e+00 0.000000e+00 7.000000e-01 3.000000e-01
 0.000000e+00 0.000000e+00 0.000000e+00 0.000000e+00 0.000000e+00
<ENDHMM>
