~h "ah"
<BEGINHMM>
<NUMSTATES> 5
<STATE> 2
<MEAN> 25
 -7.058486e-08 2.489718e-08 -1.229799e-08 -8.680953e-08 5.766242e-08 4.071780e-08 -3.583607e-08 -1.153028e-08 3.397006e-08 1.212902e-07 2.771822e-08 1.059654e-07 5.401032e-04 1.880640e-03 -1.709414e-04 1.649692e-03 6.373423e-04 1.501366e-03 1.296647e-04 2.321990e-04 9.276945e-04 -7.022198e-04 -8.526447e-04 -2.070471e-04 -3.800282e-03
<VARIANCE> 25
 3.647618e+02 2.421758e+02 2.872428e+02 3.002232e+02 3.187477e+02 2.975811e+02 2.931188e+02 2.688133e+02 2.483396e+02 1.976984e+02 1.883581e+02 1.567490e+02 1.608973e+01 1.281061e+01 1.209880e+01 1.530956e+01 1.701871e+01 1.699401e+01 1.700544e+01 1.695725e+01 1.545665e+01 1.377801e+01 1.246021e+01 1.064510e+01 1.483226e+01
<GCONST> 1.473569e+02
<STATE> 3
<MEAN> 25
 -7.058486e-08 2.489718e-08 -1.229799e-08 -8.680953e-08 5.766242e-08 4.071780e-08 -3.583607e-08 -1.153028e-08 3.397006e-08 1.212902e-07 2.771822e-08 1.059654e-07 5.401032e-04 1.880640e-03 -1.709414e-04 1.649692e-03 6.373423e-04 1.501366e-03 1.296647e-04 2.321990e-04 9.276945e-04 -7.022198e-04 -8.526447e-04 -2.070471e-04 -3.800282e-03
<VARIANCE> 25
 3.647618e+02 2.421758e+02 2.872428e+02 3.002232e+02 3.187477e+02 2.975811e+02 2.931188e+02 2.688133e+02 2.483396e+02 1.976984e+02 1.883581e+02 1.567490e+02 1.608973e+01 1.281061e+01 1.209880e+01 1.530956e+01 1.701871e+01 1.699401e+01 1.700544e+01 1.695725e+01 1.545665e+01 1.377801e+01 1.246021e+01 1.064510e+01 1.483226e+01
<GCONST> 1.473569e+02
<STATE> 4
<MEAN> 25
 -7.058486e-08 2.489718e-08 -1.229799e-08 -8.680953e-08 5.766242e-08 4.071780e-08 -3.583607e-08 -1.153028e-08 3.397006e-08 1.212902e-07 2.771822e-08 1.059654e-07 5.401032e-04 1.880640e-03 -1.709414e-04 1.649692e-03 6.373423e-04 1.501366e-03 1.296647e-04 2.321990e-04 9.276945e-04 -7.022198e-04 -8.526447e-04 -2.070471e-04 -3.800282e-03
<VARIANCE> 25
 3.647618e+02 2.421758e+02 2.872428e+02 3.002232e+02 3.187477e+02 2.975811e+02 2.931188e+02 2.688133e+02 2.483396e+02 1.976984e+02 1.883581e+02 1.567490e+02 1.608973e+01 1.281061e+01 1.209880e+01 1.530956e+01 1.701871e+01 1.699401e+01 1.700544e+01 1.695725e+01 1.545665e+01 1.377801e+01 1.246021e+01 1.064510e+01 1.483226e+01
<GCONST> 1.473569e+02
<TRANSP> 5
 0.000000e+00 1.000000e+00 0.000000e+00 0.000000e+00 0.000000e+00
 0.000000e+00 6.000000e-01 4.000000e-01 0.000000e+00 0.000000e+00
 0.000000e+00 0.000000e+00 6.000000e-01 4.000000e-01 0.000000e+00
 0.000000e+00 0.000000e+00 0.000000e+00 7.000000e-01 3.000000e-01
 0.000000e+00 0.000000e+00 0.000000e+00 0.000000e+00 0.000000e+00
<ENDHMM>
~h "sp"
<BEGINHMM>
<NUMSTATES> 5
<STATE> 2
<MEAN> 25
 -7.058486e-08 2.489718e-08 -1.229799e-08 -8.680953e-08 5.766242e-08 4.071780e-08 -3.583607e-08 -1.153028e-08 3.397006e-08 1.212902e-07 2.771822e-08 1.059654e-07 5.401032e-04 1.880640e-03 -1.709414e-04 1.649692e-03 6.373423e-04 1.501366e-03 1.296647e-04 2.321990e-04 9.276945e-04 -7.022198e-04 -8.526447e-04 -2.070471e-04 -3.800282e-03
<VARIANCE> 25
 3.647618e+02 2.421758e+02 2.872428e+02 3.002232e+02 3.187477e+02 2.975811e+02 2.931188e+02 2.688133e+02 2.483396e+02 1.976984e+02 1.883581e+02 1.567490e+02 1.608973e+01 1.281061e+01 1.209880e+01 1.530956e+01 1.701871e+01 1.699401e+01 1.700544e+01 1.695725e+01 1.545665e+01 1.377801e+01 1.246021e+01 1.064510e+01 1.483226e+01
<GCONST> 1.473569e+02
<STATE> 3
<MEAN> 25
 -7.058486e-08 2.489718e-08 -1.229799e-08 -8.680953e-08 5.766242e-08 4.071780e-08 -3.583607e-08 -1.153028e-08 3.397006e-08 1.212902e-07 2.771822e-08 1.059654e-07 5.401032e-04 1.880640e-03 -1.709414e-04 1.649692e-03 6.373423e-04 1.501366e-03 1.296647e-04 2.321990e-04 9.276945e-04 -7.022198e-04 -8.526447e-04 -2.070471e-04 -3.800282e-03
<VARIANCE> 25
 3.647618e+02 2.421758e+02 2.872428e+02 3.002232e+02 3.187477e+02 2.975811e+02 2.931188e+02 2.688133e+02 2.483396e+02 1.976984e+02 1.883581e+02 1.567490e+02 1.608973e+01 1.281061e+01 1.209880e+01 1.530956e+01 1.701871e+01 1.699401e+01 1.700544e+01 1.695725e+01 1.545665e+01 1.377801e+01 1.246021e+01 1.064510e+01 1.483226e+01
<GCONST> 1.473569e+02
<STATE> 4
<MEAN> 25
 -7.058486e-08 2.489718e-08 -1.229799e-08 -8.680953e-08 5.766242e-08 4.071780e-08 -3.583607e-08 -1.153028e-08 3.397006e-08 1.212902e-07 2.771822e-08 1.059654e-07 5.401032e-04 1.880640e-03 -1.709414e-04 1.649692e-03 6.373423e-04 1.501366e-03 1.296647e-04 2.321990e-04 9.276945e-04 -7.022198e-04 -8.526447e-04 -2.070471e-04 -3.800282e-03
<VARIANCE> 25
 3.647618e+02 2.421758e+02 2.872428e+02 3.002232e+02 3.187477e+02 2.975811e+02 2.931188e+02 2.688133e+02 2.483396e+02 1.976984e+02 1.883581e+02 1.567490e+02 1.608973e+01 1.281061e+01 1.209880e+01 1.530956e+01 1.701871e+01 1.699401e+01 1.700544e+01 1.695725e+01 1.545665e+01 1.377801e+01 1.246021e+01 1.064510e+01 1.483226e+01
<GCONST> 1.473569e+02
<TRANSP> 5
 0.000000e+00 1.000000e+00 0.000000e+00 0.000000e+00 0.000000e+00
 0.000000e+00 6.000000e-01 4.000000e-01 0.000000e+00 0.000000e+00
 0.000000e+00 0.000000e+00 6.000000e-01 4.000000e-01 0.000000e+00
 0.000000e+00 0.000000e+00 0.000000e+00 7.000000e-01 3.000000e-01
 0.000000e+00 0.000000e+00 0.000000e+00 0.000000e+00 0.000000e+00
<ENDHMM>
~h "b"
<BEGINHMM>
<NUMSTATES> 5
<STATE> 2
<MEAN> 25
 -7.058486e-08 2.489718e-08 -1.229799e-08 -8.680953e-08 5.766242e-08 4.071780e-08 -3.583607e-08 -1.153028e-08 3.397006e-08 1.212902e-07 2.771822e-08 1.059654e-07 5.401032e-04 1.880640e-03 -1.709414e-04 1.649692e-03 6.373423e-04 1.501366e-03 1.296647e-04 2.321990e-04 9.276945e-04 -7.022198e-04 -8.526447e-04 -2.070471e-04 -3.800282e-03
<VARIANCE> 25
 3.647618e+02 2.421758e+02 2.872428e+02 3.002232e+02 3.187477e+02 2.975811e+02 2.931188e+02 2.688133e+02 2.483396e+02 1.976984e+02 1.883581e+02 1.567490e+02 1.608973e+01 1.281061e+01 1.209880e+01 1.530956e+01 1.701871e+01 1.699401e+01 1.700544e+01 1.695725e+01 1.545665e+01 1.377801e+01 1.246021e+01 1.064510e+01 1.483226e+01
<GCONST> 1.473569e+02
<STATE> 3
<MEAN> 25
 -7.058486e-08 2.489718e-08 -1.229799e-08 -8.680953e-08 5.766242e-08 4.071780e-08 -3.583607e-08 -1.153028e-08 3.397006e-08 1.212902e-07 2.771822e-08 1.059654e-07 5.401032e-04 1.880640e-03 -1.709414e-04 1.649692e-03 6.373423e-04 1.501366e-03 1.296647e-04 2.321990e-04 9.276945e-04 -7.022198e-04 -8.526447e-04 -2.070471e-04 -3.800282e-03
<VARIANCE> 25
 3.647618e+02 2.421758e+02 2.872428e+02 3.002232e+02 3.187477e+02 2.975811e+02 2.931188e+02 2.688133e+02 2.483396e+02 1.976984e+02 1.883581e+02 1.567490e+02 1.608973e+01 1.281061e+01 1.209880e+01 1.530956e+01 1.701871e+01 1.699401e+01 1.700544e+01 1.695725e+01 1.545665e+01 1.377801e+01 1.246021e+01 1.064510e+01 1.483226e+01
<GCONST> 1.473569e+02
<STATE> 4
<MEAN> 25
 -7.058486e-08 2.489718e-08 -1.229799e-08 -8.680953e-08 5.766242e-08 4.071780e-08 -3.583607e-08 -1.153028e-08 3.397006e-08 1.212902e-07 2.771822e-08 1.059654e-07 5.401032e-04 1.880640e-03 -1.709414e-04 1.649692e-03 6.373423e-04 1.501366e-03 1.296647e-04 2.321990e-04 9.276945e-04 -7.022198e-04 -8.526447e-04 -2.070471e-04 -3.800282e-03
<VARIANCE> 25
 3.647618e+02 2.421758e+02 2.872428e+02 3.002232e+02 3.187477e+02 2.975811e+02 2.931188e+02 2.688133e+02 2.483396e+02 1.976984e+02 1.883581e+02 1.567490e+02 1.608973e+01 1.281061e+01 1.209880e+01 1.530956e+01 1.701871e+01 1.699401e+01 1.700544e+01 1.695725e+01 1.545665e+01 1.377801e+01 1.246021e+01 1.064510e+01 1.483226e+01
<GCONST> 1.473569e+02
<TRANSP> 5
 0.000000e+00 1.000000e+00 0.000000e+00 0.000000e+00 0.000000e+00
 0.000000e+00 6.000000e-01 4.000000e-01 0.000000e+00 0.000000e+00
 0.000000e+00 0.000000e+00 6.000000e-01 4.000000e-01 0.000000e+00
 0.000000e+00 0.000000e+00 0.000000e+00 7.000000e-01 3.000000e-01
 0.000000e+00 0.000000e+00 0.000000e+00 0.000000e+00 0.000000e+00
<ENDHMM>
~h "ih"
<BEGINHMM>
<NUMSTATES> 5
<STATE> 2
<MEAN> 25
 -7.058486e-08 2.489718e-08 -1.229799e-08 -8.680953e-08 5.766242e-08 4.071780e-08 -3.583607e-08 -1.153028e-08 3.397006e-08 1.212902e-07 2.771822e-08 1.059654e-07 5.401032e-04 1.880640e-03 -1.709414e-04 1.649692e-03 6.373423e-04 1.501366e-03 1.296647e-04 2.321990e-04 9.276945e-04 -7.022198e-04 -8.526447e-04 -2.070471e-04 -3.800282e-03
<VARIANCE> 25
 3.647618e+02 2.421758e+02 2.872428e+02 3.002232e+02 3.187477e+02 2.975811e+02 2.931188e+02 2.688133e+02 2.483396e+02 1.976984e+02 1.883581e+02 1.567490e+02 1.608973e+01 1.281061e+01 1.209880e+01 1.530956e+01 1.701871e+01 1.699401e+01 1.700544e+01 1.695725e+01 1.545665e+01 1.377801e+01 1.246021e+01 1.064510e+01 1.483226e+01
<GCONST> 1.473569e+02
<STATE> 3
<MEAN> 25
 -7.058486e-08 2.489718e-08 -1.229799e-08 -8.680953e-08 5.766242e-08 4.071780e-08 -3.583607e-08 -1.153028e-08 3.397006e-08 1.212902e-07 2.771822e-08 1.059654e-07 5.401032e-04 1.880640e-03 -1.709414e-04 1.649692e-03 6.373423e-04 1.501366e-03 1.296647e-04 2.321990e-04 9.276945e-04 -7.022198e-04 -8.526447e-04 -2.070471e-04 -3.800282e-03
<VARIANCE> 25
 3.647618e+02 2.421758e+02 2.872428e+02 3.002232e+02 3.187477e+02 2.975811e+02 2.931188e+02 2.688133e+02 2.483396e+02 1.976984e+02 1.883581e+02 1.567490e+02 1.608973e+01 1.281061e+01 1.209880e+01 1.530956e+01 1.701871e+01 1.699401e+01 1.700544e+01 1.695725e+01 1.545665e+01 1.377801e+01 1.246021e+01 1.064510e+01 1.483226e+01
<GCONST> 1.473569e+02
<STATE> 4
<MEAN> 25
 -7.058486e-08 2.489718e-08 -1.229799e-08 -8.680953e-08 5.766242e-08 4.071780e-08 -3.583607e-08 -1.153028e-08 3.397006e-08 1.212902e-07 2.771822e-08 1.059654e-07 5.401032e-04 1.880640e-03 -1.709414e-04 1.649692e-03 6.373423e-04 1.501366e-03 1.296647e-04 2.321990e-04 9.276945e-04 -7.022198e-04 -8.526447e-04 -2.070471e-04 -3.800282e-03
<VARIANCE> 25
 3.647618e+02 2.421758e+02 2.872428e+02 3.002232e+02 3.187477e+02 2.975811e+02 2.931188e+02 2.688133e+02 2.483396e+02 1.976984e+02 1.883581e+02 1.567490e+02 1.608973e+01 1.281061e+01 1.209880e+01 1.530956e+01 1.701871e+01 1.699401e+01 1.700544e+01 1.695725e+01 1.545665e+01 1.377801e+01 1.246021e+01 1.064510e+01 1.483226e+01
<GCONST> 1.473569e+02
<TRANSP> 5
 0.000000e+00 1.000000e+00 0.000000e+00 0.000000e+00 0.000000e+00
 0.000000e+00 6.000000e-01 4.000000e-01 0.000000e+00 0.000000e+00
 0.000000e+00 0.000000e+00 6.000000e-01 4.000000e-01 0.000000e+00
 0.000000e+00 0.000000e+00 0.000000e+00 7.000000e-01 3.000000e-01
 0.000000e+00 0.000000e+00 0.000000e+00 0.000000e+00 0.000000e+00
<ENDHMM>
~h "l"
<BEGINHMM>
<NUMSTATES> 5
<STATE> 2
<MEAN> 25
 -7.058486e-08 2.489718e-08 -1.229799e-08 -8.680953e-08 5.766242e-08 4.071780e-08 -3.583607e-08 -1.153028e-08 3.397006e-08 1.212902e-07 2.771822e-08 1.059654e-07 5.401032e-04 1.880640e-03 -1.709414e-04 1.649692e-03 6.373423e-04 1.501366e-03 1.296647e-04 2.321990e-04 9.276945e-04 -7.022198e-04 -8.526447e-04 -2.070471e-04 -3.800282e-03
<VARIANCE> 25
 3.647618e+02 2.421758e+02 2.872428e+02 3.002232e+02 3.187477e+02 2.975811e+02 2.931188e+02 2.688133e+02 2.483396e+02 1.976984e+02 1.883581e+02 1.567490e+02 1.608973e+01 1.281061e+01 1.209880e+01 1.530956e+01 1.701871e+01 1.699401e+01 1.700544e+01 1.695725e+01 1.545665e+01 1.377801e+01 1.246021e+01 1.064510e+01 1.483226e+01
<GCONST> 1.473569e+02
<STATE> 3
<MEAN> 25
 -7.058486e-08 2.489718e-08 -1.229799e-08 -8.680953e-08 5.766242e-08 4.071780e-08 -3.583607e-08 -1.153028e-08 3.397006e-08 1.212902e-07 2.771822e-08 1.059654e-07 5.401032e-04 1.880640e-03 -1.709414e-04 1.649692e-03 6.373423e-04 1.501366e-03 1.296647e-04 2.321990e-04 9.276945e-04 -7.022198e-04 -8.526447e-04 -2.070471e-04 -3.800282e-03
<VARIANCE> 25
 3.647618e+02 2.421758e+02 2.872428e+02 3.002232e+02 3.187477e+02 2.975811e+02 2.931188e+02 2.688133e+02 2.483396e+02 1.976984e+02 1.883581e+02 1.567490e+02 1.608973e+01 1.281061e+01 1.209880e+01 1.530956e+01 1.701871e+01 1.699401e+01 1.700544e+01 1.695725e+01 1.545665e+01 1.377801e+01 1.246021e+01 1.064510e+01 1.483226e+01
<GCONST> 1.473569e+02
<STATE> 4
<MEAN> 25
 -7.058486e-08 2.489718e-08 -1.229799e-08 -8.680953e-08 5.766242e-08 4.071780e-08 -3.583607e-08 -1.153028e-08 3.397006e-08 1.212902e-07 2.771822e-08 1.059654e-07 5.401032e-04 1.880640e-03 -1.709414e-04 1.649692e-03 6.373423e-04 1.501366e-03 1.296647e-04 2.321990e-04 9.276945e-04 -7.022198e-04 -8.526447e-04 -2.070471e-04 -3.800282e-03
<VARIANCE> 25
 3.647618e+02 2.421758e+02 2.872428e+02 3.002232e+02 3.187477e+02 2.975811e+02 2.931188e+02 2.688133e+02 2.483396e+02 1.976984e+02 1.883581e+02 1.567490e+02 1.608973e+01 1.281061e+01 1.209880e+01 1.530956e+01 1.701871e+01 1.699401e+01 1.700544e+01 1.695725e+01 1.545665e+01 1.377801e+01 1.246021e+01 1.064510e+01 1.483226e+01
<GCONST> 1.473569e+02
<TRANSP> 5
 0.000000e+00 1.000000e+00 0.000000e+00 0.000000e+00 0.000000e+00
 0.000000e+00 6.000000e-01 4.000000e-01 0.000000e+00 0.000000e+00
 0.000000e+00 0.000000e+00 6.000000e-01 4.000000e-01 0.000000e+00
 0.000000e+00 0.000000e+00 0.000000e+00 7.000000e-01 3.000000e-01
 0.000000e+00 0.000000e+00 0.000000e+00 0.000000e+00 0.000000e+00
<ENDHMM>
~h "t"
<BEGINHMM>
<NUMSTATES> 5
<STATE> 2
<MEAN> 25
 -7.058486e-08 2.489718e-08 -1.229799e-08 -8.680953e-08 5.766242e-08 4.071780e-08 -3.583607e-08 -1.153028e-08 3.397006e-08 1.212902e-07 2.771822e-08 1.059654e-07 5.401032e-04 1.880640e-03 -1.709414e-04 1.649692e-03 6.373423e-04 1.501366e-03 1.296647e-04 2.321990e-04 9.276945e-04 -7.022198e-04 -8.526447e-04 -2.070471e-04 -3.800282e-03
<VARIANCE> 25
 3.647618e+02 2.421758e+02 2.872428e+02 3.002232e+02 3.187477e+02 2.975811e+02 2.931188e+02 2.688133e+02 2.483396e+02 1.976984e+02 1.883581e+02 1.567490e+02 1.608973e+01 1.281061e+01 1.209880e+01 1.530956e+01 1.701871e+01 1.699401e+01 1.700544e+01 1.695725e+01 1.545665e+01 1.377801e+01 1.246021e+01 1.064510e+01 1.483226e+01
<GCONST> 1.473569e+02
<STATE> 3
<MEAN> 25
 -7.058486e-08 2.489718e-08 -1.229799e-08 -8.680953e-08 5.766242e-08 4.071780e-08 -3.583607e-08 -1.153028e-08 3.397006e-08 1.212902e-07 2.771822e-08 1.059654e-07 5.401032e-04 1.880640e-03 -1.709414e-04 1.649692e-03 6.373423e-04 1.501366e-03 1.296647e-04 2.321990e-04 9.276945e-04 -7.022198e-04 -8.526447e-04 -2.070471e-04 -3.800282e-03
<VARIANCE> 25
 3.647618e+02 2.421758e+02 2.872428e+02 3.002232e+02 3.187477e+02 2.975811e+02 2.931188e+02 2.688133e+02 2.483396e+02 1.976984e+02 1.883581e+02 1.567490e+02 1.608973e+01 1.281061e+01 1.209880e+01 1.530956e+01 1.701871e+01 1.699401e+01 1.700544e+01 1.695725e+01 1.545665e+01 1.377801e+01 1.246021e+01 1.064510e+01 1.483226e+01
<GCONST> 1.473569e+02
<STATE> 4
<MEAN> 25
 -7.058486e-08 2.489718e-08 -1.229799e-08 -8.680953e-08 5.766242e-08 4.071780e-08 -3.583607e-08 -1.153028e-08 3.397006e-08 1.212902e-07 2.771822e-08 1.059654e-07 5.401032e-04 1.880640e-03 -1.709414e-04 1.649692e-03 6.373423e-04 1.501366e-03 1.296647e-04 2.321990e-04 9.276945e-04 -7.022198e-04 -8.526447e-04 -2.070471e-04 -3.800282e-03
<VARIANCE> 25
 3.647618e+02 2.421758e+02 2.872428e+02 3.002232e+02 3.187477e+02 2.975811e+02 2.931188e+02 2.688133e+02 2.483396e+02 1.976984e+02 1.883581e+02 1.567490e+02 1.608973e+01 1.281061e+01 1.209880e+01 1.530956e+01 1.701871e+01 1.699401e+01 1.700544e+01 1.695725e+01 1.545665e+01 1.377801e+01 1.246021e+01 1.064510e+01 1.483226e+01
<GCONST> 1.473569e+02
<TRANSP> 5
 0.000000e+00 1.000000e+00 0.000000e+00 0.000000e+00 0.000000e+00
 0.000000e+00 6.000000e-01 4.000000e-01 0.000000e+00 0.000000e+00
 0.000000e+00 0.000000e+00 6.000000e-01 4.000000e-01 0.000000e+00
 0.000000e+00 0.000000e+00 0.000000e+00 7.000000e-01 3.000000e-01
 0.000000e+00 0.000000e+00 0.000000e+00 0.000000e+00 0.000000e+00
<ENDHMM>
~h "iy"
<BEGINHMM>
<NUMSTATES> 5
<STATE> 2
<MEAN> 25
 -7.058486e-08 2.489718e-08 -1.229799e-08 -8.680953e-08 5.766242e-08 4.071780e-08 -3.583607e-08 -1.153028e-08 3.397006e-08 1.212902e-07 2.771822e-08 1.059654e-07 5.401032e-04 1.880640e-03 -1.709414e-04 1.649692e-03 6.373423e-04 1.501366e-03 1.296647e-04 2.321990e-04 9.276945e-04 -7.022198e-04 -8.526447e-04 -2.070471e-04 -3.800282e-03
<VARIANCE> 25
 3.647618e+02 2.421758e+02 2.872428e+02 3.002232e+02 3.187477e+02 2.975811e+02 2.931188e+02 2.688133e+02 2.483396e+02 1.976984e+02 1.883581e+02 1.567490e+02 1.608973e+01 1.281061e+01 1.209880e+01 1.530956e+01 1.701871e+01 1.699401e+01 1.700544e+01 1.695725e+01 1.545665e+01 1.377801e+01 1.246021e+01 1.064510e+01 1.483226e+01
<GCONST> 1.473569e+02
<STATE> 3
<MEAN> 25
 -7.058486e-08 2.489718e-08 -1.229799e-08 -8.680953e-08 5.766242e-08 4.071780e-08 -3.583607e-08 -1.153028e-08 3.397006e-08 1.212902e-07 2.771822e-08 1.059654e-07 5.401032e-04 1.880640e-03 -1.709414e-04 1.649692e-03 6.373423e-04 1.501366e-03 1.296647e-04 2.321990e-04 9.276945e-04 -7.022198e-04 -8.526447e-04 -2.070471e-04 -3.800282e-03
<VARIANCE> 25
 3.647618e+02 2.421758e+02 2.872428e+02 3.002232e+02 3.187477e+02 2.975811e+02 2.931188e+02 2.688133e+02 2.483396e+02 1.976984e+02 1.883581e+02 1.567490e+02 1.608973e+01 1.281061e+01 1.209880e+01 1.530956e+01 1.701871e+01 1.699401e+01 1.700544e+01 1.695725e+01 1.545665e+01 1.377801e+01 1.246021e+01 1.064510e+01 1.483226e+01
<GCONST> 1.473569e+02
<STATE> 4
<MEAN> 25
 -7.058486e-08 2.489718e-08 -1.229799e-08 -8.680953e-08 5.766242e-08 4.071780e-08 -3.583607e-08 -1.153028e-08 3.397006e-08 1.212902e-07 2.771822e-08 1.059654e-07 5.401032e-04 1.880640e-03 -1.709414e-04 1.649692e-03 6.373423e-04 1.501366e-03 1.296647e-04 2.321990e-04 9.276945e-04 -7.022198e-04 -8.526447e-04 -2.070471e-04 -3.800282e-03
<VARIANCE> 25
 3.647618e+02 2.421758e+02 2.872428e+02 3.002232e+02 3.187477e+02 2.975811e+02 2.931188e+02 2.688133e+02 2.483396e+02 1.976984e+02 1.883581e+02 1.567490e+02 1.608973e+01 1.281061e+01 1.209880e+01 1.530956e+01 1.701871e+01 1.699401e+01 1.700544e+01 1.695725e+01 1.545665e+01 1.377801e+01 1.246021e+01 1.064510e+01 1.483226e+01
<GCONST> 1.473569e+02
<TRANSP> 5
 0.000000e+00 1.000000e+00 0.000000e+00 0.000000e+00 0.000000e+00
 0.000000e+00 6.000000e-01 4.000000e-01 0.000000e+00 0.000000e+00
 0.000000e+00 0.000000e+00 6.000000e-01 4.000000e-01 0.000000e+00
 0.000000e+00 0.000000e+00 0.000000e+00 7.000000e-01 3.000000e-01
 0.000000e+00 0.000000e+00 0.000000e+00 0.000000e+00 0.000000e+00
<ENDHMM>
~h "ey"
<BEGINHMM>
<NUMSTATES> 5
<STATE> 2
<MEAN> 25
 -7.058486e-08 2.489718e-08 -1.229799e-08 -8.680953e-08 5.766242e-08 4.071780e-08 -3.583607e-08 -1.153028e-08 3.397006e-08 1.212902e-07 2.771822e-08 1.059654e-07 5.401032e-04 1.880640e-03 -1.709414e-04 1.649692e-03 6.373423e-04 1.501366e-03 1.296647e-04 2.321990e-04 9.276945e-04 -7.022198e-04 -8.526447e-04 -2.070471e-04 -3.800282e-03
<VARIANCE> 25
 3.647618e+02 2.421758e+02 2.872428e+02 3.002232e+02 3.187477e+02 2.975811e+02 2.931188e+02 2.688133e+02 2.483396e+02 1.976984e+02 1.883581e+02 1.567490e+02 1.608973e+01 1.281061e+01 1.209880e+01 1.530956e+01 1.701871e+01 1.699401e+01 1.700544e+01 1.695725e+01 1.545665e+01 1.377801e+01 1.246021e+01 1.064510e+01 1.483226e+01
<GCONST> 1.473569e+02
<STATE> 3
<MEAN> 25
 -7.058486e-08 2.489718e-08 -1.229799e-08 -8.680953e-08 5.766242e-08 4.071780e-08 -3.583607e-08 -1.153028e-08 3.397006e-08 1.212902e-07 2.771822e-08 1.059654e-07 5.401032e-04 1.880640e-03 -1.709414e-04 1.649692e-03 6.373423e-04 1.501366e-03 1.296647e-04 2.321990e-04 9.276945e-04 -7.022198e-04 -8.526447e-04 -2.070471e-04 -3.800282e-03
<VARIANCE> 25
 3.647618e+02 2.421758e+02 2.872428e+02 3.002232e+02 3.187477e+02 2.975811e+02 2.931188e+02 2.688133e+02 2.483396e+02 1.976984e+02 1.883581e+02 1.567490e+02 1.608973e+01 1.281061e+01 1.209880e+01 1.530956e+01 1.701871e+01 1.699401e+01 1.700544e+01 1.695725e+01 1.545665e+01 1.377801e+01 1.246021e+01 1.064510e+01 1.483226e+01
<GCONST> 1.473569e+02
<STATE> 4
<MEAN> 25
 -7.058486e-08 2.489718e-08 -1.229799e-08 -8.680953e-08 5.766242e-08 4.071780e-08 -3.583607e-08 -1.153028e-08 3.397006e-08 1.212902e-07 2.771822e-08 1.059654e-07 5.401032e-04 1.880640e-03 -1.709414e-04 1.649692e-03 6.373423e-04 1.501366e-03 1.296647e-04 2.321990e-04 9.276945e-04 -7.022198e-04 -8.526447e-04 -2.070471e-04 -3.800282e-03
<VARIANCE> 25
 3.647618e+02 2.421758e+02 2.872428e+02 3.002232e+02 3.187477e+02 2.975811e+02 2.931188e+02 2.688133e+02 2.483396e+02 1.976984e+02 1.883581e+02 1.567490e+02 1.608973e+01 1.281061e+01 1.209880e+01 1.530956e+01 1.701871e+01 1.699401e+01 1.700544e+01 1.695725e+01 1.545665e+01 1.377801e+01 1.246021e+01 1.064510e+01 1.483226e+01
<GCONST> 1.473569e+02
<TRANSP> 5
 0.000000e+00 1.000000e+00 0.000000e+00 0.000000e+00 0.000000e+00
 0.000000e+00 6.000000e-01 4.000000e-01 0.000000e+00 0.000000e+00
 0.000000e+00 0.000000e+00 6.000000e-01 4.000000e-01 0.000000e+00
 0.000000e+00 0.000000e+00 0.000000e+00 7.000000e-01 3.000000e-01
 0.000000e+00 0.000000e+00 0.000000e+00 0.000000e+00 0.000000e+00
<ENDHMM>
~h "aw"
<BEGINHMM>
<NUMSTATES> 5
<STATE> 2
<MEAN> 25
 -7.058486e-08 2.489718e-08 -1.229799e-08 -8.680953e-08 5.766242e-08 4.071780e-08 -3.583607e-08 -1.153028e-08 3.397006e-08 1.212902e-07 2.771822e-08 1.059654e-07 5.401032e-04 1.880640e-03 -1.709414e-04 1.649692e-03 6.373423e-04 1.501366e-03 1.296647e-04 2.321990e-04 9.276945e-04 -7.022198e-04 -8.526447e-04 -2.070471e-04 -3.800282e-03
<VARIANCE> 25
 3.647618e+02 2.421758e+02 2.872428e+02 3.002232e+02 3.187477e+02 2.975811e+02 2.931188e+02 2.688133e+02 2.483396e+02 1.976984e+02 1.883581e+02 1.567490e+02 1.608973e+01 1.281061e+01 1.209880e+01 1.530956e+01 1.701871e+01 1.699401e+01 1.700544e+01 1.695725e+01 1.545665e+01 1.377801e+01 1.246021e+01 1.064510e+01 1.483226e+01
<GCONST> 1.473569e+02
<STATE> 3
<MEAN> 25
 -7.058486e-08 2.489718e-08 -1.229799e-08 -8.680953e-08 5.766242e-08 4.071780e-08 -3.583607e-08 -1.153028e-08 3.397006e-08 1.212902e-07 2.771822e-08 1.059654e-07 5.401032e-04 1.880640e-03 -1.709414e-04 1.649692e-03 6.373423e-04 1.501366e-03 1.296647e-04 2.321990e-04 9.276945e-04 -7.022198e-04 -8.526447e-04 -2.070471e-04 -3.800282e-03
<VARIANCE> 25
 3.647618e+02 2.421758e+02 2.872428e+02 3.002232e+02 3.187477e+02 2.975811e+02 2.931188e+02 2.688133e+02 2.483396e+02 1.976984e+02 1.883581e+02 1.567490e+02 1.608973e+01 1.281061e+01 1.209880e+01 1.530956e+01 1.701871e+01 1.699401e+01 1.700544e+01 1.695725e+01 1.545665e+01 1.377801e+01 1.246021e+01 1.064510e+01 1.483226e+01
<GCONST> 1.473569e+02
<STATE> 4
<MEAN> 25
 -7.058486e-08 2.489718e-08 -1.229799e-08 -8.680953e-08 5.766242e-08 4.071780e-08 -3.583607e-08 -1.153028e-08 3.397006e-08 1.212902e-07 2.771822e-08 1.059654e-07 5.401032e-04 1.880640e-03 -1.709414e-04 1.649692e-03 6.373423e-04 1.501366e-03 1.296647e-04 2.321990e-04 9.276945e-04 -7.022198e-04 -8.526447e-04 -2.070471e-04 -3.800282e-03
<VARIANCE> 25
 3.647618e+02 2.421758e+02 2.872428e+02 3.002232e+02 3.187477e+02 2.975811e+02 2.931188e+02 2.688133e+02 2.483396e+02 1.976984e+02 1.883581e+02 1.567490e+02 1.608973e+01 1.281061e+01 1.209880e+01 1.530956e+01 1.701871e+01 1.699401e+01 1.700544e+01 1.695725e+01 1.545665e+01 1.377801e+01 1.246021e+01 1.064510e+01 1.483226e+01
<GCONST> 1.473569e+02
<TRANSP> 5
 0.000000e+00 1.000000e+00 0.000000e+00 0.000000e+00 0.000000e+00
 0.000000e+00 6.000000e-01 4.000000e-01 0.000000e+00 0.000000e+00
 0.000000e+00 0.000000e+00 6.000000e-01 4.000000e-01 0.000000e+00
 0.000000e+00 0.000000e+00 0.000000e+00 7.000000e-01 3.000000e-01
 0.000000e+00 0.000000e+00 0.000000e+00 0.000000e+00 0.000000e+00
<ENDHMM>
~h "ae"
<BEGINHMM>
<NUMSTATES> 5
<STATE> 2
<MEAN> 25
 -7.058486e-08 2.489718e-08 -1.229799e-08 -8.680953e-08 5.766242e-08 4.071780e-08 -3.583607e-08 -1.153028e-08 3.397006e-08 1.212902e-07 2.771822e-08 1.059654e-07 5.401032e-04 1.880640e-03 -1.709414e-04 1.649692e-03 6.373423e-04 1.501366e-03 1.296647e-04 2.321990e-04 9.276945e-04 -7.022198e-04 -8.526447e-04 -2.070471e-04 -3.800282e-03
<VARIANCE> 25
 3.647618e+02 2.421758e+02 2.872428e+02 3.002232e+02 3.187477e+02 2.975811e+02 2.931188e+02 2.688133e+02 2.483396e+02 1.976984e+02 1.883581e+02 1.567490e+02 1.608973e+01 1.281061e+01 1.209880e+01 1.530956e+01 1.701871e+01 1.699401e+01 1.700544e+01 1.695725e+01 1.545665e+01 1.377801e+01 1.246021e+01 1.064510e+01 1.483226e+01
<GCONST> 1.473569e+02
<STATE> 3
<MEAN> 25
 -7.058486e-08 2.489718e-08 -1.229799e-08 -8.680953e-08 5.766242e-08 4.071780e-08 -3.583607e-08 -1.153028e-08 3.397006e-08 1.212902e-07 2.771822e-08 1.059654e-07 5.401032e-04 1.880640e-03 -1.709414e-04 1.649692e-03 6.373423e-04 1.501366e-03 1.296647e-04 2.321990e-04 9.276945e-04 -7.022198e-04 -8.526447e-04 -2.070471e-04 -3.800282e-03
<VARIANCE> 25
 3.647618e+02 2.421758e+02 2.872428e+02 3.002232e+02 3.187477e+02 2.975811e+02 2.931188e+02 2.688133e+02 2.483396e+02 1.976984e+02 1.883581e+02 1.567490e+02 1.608973e+01 1.281061e+01 1.209880e+01 1.530956e+01 1.701871e+01 1.699401e+01 1.700544e+01 1.695725e+01 1.545665e+01 1.377801e+01 1.246021e+01 1.064510e+01 1.483226e+01
<GCONST> 1.473569e+02
<STATE> 4
<MEAN> 25
 -7.058486e-08 2.489718e-08 -1.229799e-08 -8.680953e-08 5.766242e-08 4.071780e-08 -3.583607e-08 -1.153028e-08 3.397006e-08 1.212902e-07 2.771822e-08 1.059654e-07 5.401032e-04 1.880640e-03 -1.709414e-04 1.649692e-03 6.373423e-04 1.501366e-03 1.296647e-04 2.321990e-04 9.276945e-04 -7.022198e-04 -8.526447e-04 -2.070471e-04 -3.800282e-03
<VARIANCE> 25
 3.647618e+02 2.421758e+02 2.872428e+02 3.002232e+02 3.187477e+02 2.975811e+02 2.931188e+02 2.688133e+02 2.483396e+02 1.976984e+02 1.883581e+02 1.567490e+02 1.608973e+01 1.281061e+01 1.209880e+01 1.530956e+01 1.701871e+01 1.699401e+01 1.700544e+01 1.695725e+01 1.545665e+01 1.377801e+01 1.246021e+01 1.064510e+01 1.483226e+01
<GCONST> 1.473569e+02
<TRANSP> 5
 0.000000e+00 1.000000e+00 0.000000e+00 0.000000e+00 0.000000e+00
 0.000000e+00 6.000000e-01 4.000000e-01 0.000000e+00 0.000000e+00
 0.000000e+00 0.000000e+00 6.000000e-01 4.000000e-01 0.000000e+00
 0.000000e+00 0.000000e+00 0.000000e+00 7.000000e-01 3.000000e-01
 0.000000e+00 0.000000e+00 0.000000e+00 0.000000e+00 0.000000e+00
<ENDHMM>
~h "s"
<BEGINHMM>
<NUMSTATES> 5
<STATE> 2
<MEAN> 25
 -7.058486e-08 2.489718e-08 -1.229799e-08 -8.680953e-08 5.766242e-08 4.071780e-08 -3.583607e-08 -1.153028e-08 3.397006e-08 1.212902e-07 2.771822e-08 1.059654e-07 5.401032e-04 1.880640e-03 -1.709414e-04 1.649692e-03 6.373423e-04 1.501366e-03 1.296647e-04 2.321990e-04 9.276945e-04 -7.022198e-04 -8.526447e-04 -2.070471e-04 -3.800282e-03
<VARIANCE> 25
 3.647618e+02 2.421758e+02 2.872428e+02 3.002232e+02 3.187477e+02 2.975811e+02 2.931188e+02 2.688133e+02 2.483396e+02 1.976984e+02 1.883581e+02 1.567490e+02 1.608973e+01 1.281061e+01 1.209880e+01 1.530956e+01 1.701871e+01 1.699401e+01 1.700544e+01 1.695725e+01 1.545665e+01 1.377801e+01 1.246021e+01 1.064510e+01 1.483226e+01
<GCONST> 1.473569e+02
<STATE> 3
<MEAN> 25
 -7.058486e-08 2.489718e-08 -1.229799e-08 -8.680953e-08 5.766242e-08 4.071780e-08 -3.583607e-08 -1.153028e-08 3.397006e-08 1.212902e-07 2.771822e-08 1.059654e-07 5.401032e-04 1.880640e-03 -1.709414e-04 1.649692e-03 6.373423e-04 1.501366e-03 1.296647e-04 2.321990e-04 9.276945e-04 -7.022198e-04 -8.526447e-04 -2.070471e-04 -3.800282e-03
<VARIANCE> 25
 3.647618e+02 2.421758e+02 2.872428e+02 3.002232e+02 3.187477e+02 2.975811e+02 2.931188e+02 2.688133e+02 2.483396e+02 1.976984e+02 1.883581e+02 1.567490e+02 1.608973e+01 1.281061e+01 1.209880e+01 1.530956e+01 1.701871e+01 1.699401e+01 1.700544e+01 1.695725e+01 1.545665e+01 1.377801e+01 1.246021e+01 1.064510e+01 1.483226e+01
<GCONST> 1.473569e+02
<STATE> 4
<MEAN> 25
 -7.058486e-08 2.489718e-08 -1.229799e-08 -8.680953e-08 5.766242e-08 4.071780e-08 -3.583607e-08 -1.153028e-08 3.397006e-08 1.212902e-07 2.771822e-08 1.059654e-07 5.401032e-04 1.880640e-03 -1.709414e-04 1.649692e-03 6.373423e-04 1.501366e-03 1.296647e-04 2.321990e-04 9.276945e-04 -7.022198e-04 -8.526447e-04 -2.070471e-04 -3.800282e-03
<VARIANCE> 25
 3.647618e+02 2.421758e+02 2.872428e+02 3.002232e+02 3.187477e+02 2.975811e+02 2.931188e+02 2.688133e+02 2.483396e+02 1.976984e+02 1.883581e+02 1.567490e+02 1.608973e+01 1.281061e+01 1.209880e+01 1.530956e+01 1.701871e+01 1.699401e+01 1.700544e+01 1.695725e+01 1.545665e+01 1.377801e+01 1.246021e+01 1.064510e+01 1.483226e+01
<GCONST> 1.473569e+02
<TRANSP> 5
 0.000000e+00 1.000000e+00 0.000000e+00 0.000000e+00 0.000000e+00
 0.000000e+00 6.000000e-01 4.000000e-01 0.000000e+00 0.000000e+00
 0.000000e+00 0.000000e+00 6.000000e-01 4.000000e-01 0.000000e+00
 0.000000e+00 0.000000e+00 0.000000e+00 7.000000e-01 3.000000e-01
 0.000000e+00 0.000000e+00 0.000000e+00 0.000000e+00 0.000000e+00
<ENDHMM>
~h "n"
<BEGINHMM>
<NUMSTATES> 5
<STATE> 2
<MEAN> 25
 -7.058486e-08 2.489718e-08 -1.229799e-08 -8.680953e-08 5.766242e-08 4.071780e-08 -3.583607e-08 -1.153028e-08 3.397006e-08 1.212902e-07 2.771822e-08 1.059654e-07 5.401032e-04 1.880640e-03 -1.709414e-04 1.649692e-03 6.373423e-04 1.501366e-03 1.296647e-04 2.321990e-04 9.276945e-04 -7.022198e-04 -8.526447e-04 -2.070471e-04 -3.800282e-03
<VARIANCE> 25
 3.647618e+02 2.421758e+02 2.872428e+02 3.002232e+02 3.187477e+02 2.975811e+02 2.931188e+02 2.688133e+02 2.483396e+02 1.976984e+02 1.883581e+02 1.567490e+02 1.608973e+01 1.281061e+01 1.209880e+01 1.530956e+01 1.701871e+01 1.699401e+01 1.700544e+01 1.695725e+01 1.545665e+01 1.377801e+01 1.246021e+01 1.064510e+01 1.483226e+01
<GCONST> 1.473569e+02
<STATE> 3
<MEAN> 25
 -7.058486e-08 2.489718e-08 -1.229799e-08 -8.680953e-08 5.766242e-08 4.071780e-08 -3.583607e-08 -1.153028e-08 3.397006e-08 1.212902e-07 2.771822e-08 1.059654e-07 5.401032e-04 1.880640e-03 -1.709414e-04 1.649692e-03 6.373423e-04 1.501366e-03 1.296647e-04 2.321990e-04 9.276945e-04 -7.022198e-04 -8.526447e-04 -2.070471e-04 -3.800282e-03
<VARIANCE> 25
 3.647618e+02 2.421758e+02 2.872428e+02 3.002232e+02 3.187477e+02 2.975811e+02 2.931188e+02 2.688133e+02 2.483396e+02 1.976984e+02 1.883581e+02 1.567490e+02 1.608973e+01 1.281061e+01 1.209880e+01 1.530956e+01 1.701871e+01 1.699401e+01 1.700544e+01 1.695725e+01 1.545665e+01 1.377801e+01 1.246021e+01 1.064510e+01 1.483226e+01
<GCONST> 1.473569e+02
<STATE> 4
<MEAN> 25
 -7.058486e-08 2.489718e-08 -1.229799e-08 -8.680953e-08 5.766242e-08 4.071780e-08 -3.583607e-08 -1.153028e-08 3.397006e-08 1.212902e-07 2.771822e-08 1.059654e-07 5.401032e-04 1.880640e-03 -1.709414e-04 1.649692e-03 6.373423e-04 1.501366e-03 1.296647e-04 2.321990e-04 9.276945e-04 -7.022198e-04 -8.526447e-04 -2.070471e-04 -3.800282e-03
<VARIANCE> 25
 3.647618e+02 2.421758e+02 2.872428e+02 3.002232e+02 3.187477e+02 2.975811e+02 2.931188e+02 2.688133e+02 2.483396e+02 1.976984e+02 1.883581e+02 1.567490e+02 1.608973e+01 1.281061e+01 1.209880e+01 1.530956e+01 1.701871e+01 1.699401e+01 1.700544e+01 1.695725e+01 1.545665e+01 1.377801e+01 1.246021e+01 1.064510e+01 1.483226e+01
<GCONST> 1.473569e+02
<TRANSP> 5
 0.000000e+00 1.000000e+00 0.000000e+00 0.000000e+00 0.000000e+00
 0.000000e+00 6.000000e-01 4.000000e-01 0.000000e+00 0.000000e+00
 0.000000e+00 0.000000e+00 6.000000e-01 4.000000e-01 0.000000e+00
 0.000000e+00 0.000000e+00 0.000000e+00 7.000000e-01 3.000000e-01
 0.000000e+00 0.000000e+00 0.000000e+00 0.000000e+00 0.000000e+00
<ENDHMM>
~h "k"
<BEGINHMM>
<NUMSTATES> 5
<STATE> 2
<MEAN> 25
 -7.058486e-08 2.489718e-08 -1.229799e-08 -8.680953e-08 5.766242e-08 4.071780e-08 -3.583607e-08 -1.153028e-08 3.397006e-08 1.212902e-07 2.771822e-08 1.059654e-07 5.401032e-04 1.880640e-03 -1.709414e-04 1.649692e-03 6.373423e-04 1.501366e-03 1.296647e-04 2.321990e-04 9.276945e-04 -7.022198e-04 -8.526447e-04 -2.070471e-04 -3.800282e-03
<VARIANCE> 25
 3.647618e+02 2.421758e+02 2.872428e+02 3.002232e+02 3.187477e+02 2.975811e+02 2.931188e+02 2.688133e+02 2.483396e+02 1.976984e+02 1.883581e+02 1.567490e+02 1.608973e+01 1.281061e+01 1.209880e+01 1.530956e+01 1.701871e+01 1.699401e+01 1.700544e+01 1.695725e+01 1.545665e+01 1.377801e+01 1.246021e+01 1.064510e+01 1.483226e+01
<GCONST> 1.473569e+02
<STATE> 3
<MEAN> 25
 -7.058486e-08 2.489718e-08 -1.229799e-08 -8.680953e-08 5.766242e-08 4.071780e-08 -3.583607e-08 -1.153028e-08 3.397006e-08 1.212902e-07 2.771822e-08 1.059654e-07 5.401032e-04 1.880640e-03 -1.709414e-04 1.649692e-03 6.373423e-04 1.501366e-03 1.296647e-04 2.321990e-04 9.276945e-04 -7.022198e-04 -8.526447e-04 -2.070471e-04 -3.800282e-03
<VARIANCE> 25
 3.647618e+02 2.421758e+02 2.872428e+02 3.002232e+02 3.187477e+02 2.975811e+02 2.931188e+02 2.688133e+02 2.483396e+02 1.976984e+02 1.883581e+02 1.567490e+02 1.608973e+01 1.281061e+01 1.209880e+01 1.530956e+01 1.701871e+01 1.699401e+01 1.700544e+01 1.695725e+01 1.545665e+01 1.377801e+01 1.246021e+01 1.064510e+01 1.483226e+01
<GCONST> 1.473569e+02
<STATE> 4
<MEAN> 25
 -7.058486e-08 2.489718e-08 -1.229799e-08 -8.680953e-08 5.766242e-08 4.071780e-08 -3.583607e-08 -1.153028e-08 3.397006e-08 1.212902e-07 2.771822e-08 1.059654e-07 5.401032e-04 1.880640e-03 -1.709414e-04 1.649692e-03 6.373423e-04 1.501366e-03 1.296647e-04 2.321990e-04 9.276945e-04 -7.022198e-04 -8.526447e-04 -2.070471e-04 -3.800282e-03
<VARIANCE> 25
 3.647618e+02 2.421758e+02 2.872428e+02 3.002232e+02 3.187477e+02 2.975811e+02 2.931188e+02 2.688133e+02 2.483396e+02 1.976984e+02 1.883581e+02 1.567490e+02 1.608973e+01 1.281061e+01 1.209880e+01 1.530956e+01 1.701871e+01 1.699401e+01 1.700544e+01 1.695725e+01 1.545665e+01 1.377801e+01 1.246021e+01 1.064510e+01 1.483226e+01
<GCONST> 1.473569e+02
<TRANSP> 5
 0.000000e+00 1.000000e+00 0.000000e+00 0.000000e+00 0.000000e+00
 0.000000e+00 6.000000e-01 4.000000e-01 0.000000e+00 0.000000e+00
 0.000000e+00 0.000000e+00 6.000000e-01 4.000000e-01 0.000000e+00
 0.000000e+00 0.000000e+00 0.000000e+00 7.000000e-01 3.000000e-01
 0.000000e+00 0.000000e+00 0.000000e+00 0.000000e+00 0.000000e+00
<ENDHMM>
~h "eh"
<BEGINHMM>
<NUMSTATES> 5
<STATE> 2
<MEAN> 25
 -7.058486e-08 2.489718e-08 -1.229799e-08 -8.680953e-08 5.766242e-08 4.071780e-08 -3.583607e-08 -1.153028e-08 3.397006e-08 1.212902e-07 2.771822e-08 1.059654e-07 5.401032e-04 1.880640e-03 -1.709414e-04 1.649692e-03 6.373423e-04 1.501366e-03 1.296647e-04 2.321990e-04 9.276945e-04 -7.022198e-04 -8.526447e-04 -2.070471e-04 -3.800282e-03
<VARIANCE> 25
 3.647618e+02 2.421758e+02 2.872428e+02 3.002232e+02 3.187477e+02 2.975811e+02 2.931188e+02 2.688133e+02 2.483396e+02 1.976984e+02 1.883581e+02 1.567490e+02 1.608973e+01 1.281061e+01 1.209880e+01 1.530956e+01 1.701871e+01 1.699401e+01 1.700544e+01 1.695725e+01 1.545665e+01 1.377801e+01 1.246021e+01 1.064510e+01 1.483226e+01
<GCONST> 1.473569e+02
<STATE> 3
<MEAN> 25
 -7.058486e-08 2.489718e-08 -1.229799e-08 -8.680953e-08 5.766242e-08 4.071780e-08 -3.583607e-08 -1.153028e-08 3.397006e-08 1.212902e-07 2.771822e-08 1.059654e-07 5.401032e-04 1.880640e-03 -1.709414e-04 1.649692e-03 6.373423e-04 1.501366e-03 1.296647e-04 2.321990e-04 9.276945e-04 -7.022198e-04 -8.526447e-04 -2.070471e-04 -3.800282e-03
<VARIANCE> 25
 3.647618e+02 2.421758e+02 2.872428e+02 3.002232e+02 3.187477e+02 2.975811e+02 2.931188e+02 2.688133e+02 2.483396e+02 1.976984e+02 1.883581e+02 1.567490e+02 1.608973e+01 1.281061e+01 1.209880e+01 1.530956e+01 1.701871e+01 1.699401e+01 1.700544e+01 1.695725e+01 1.545665e+01 1.377801e+01 1.246021e+01 1.064510e+01 1.483226e+01
<GCONST> 1.473569e+02
<STATE> 4
<MEAN> 25
 -7.058486e-08 2.489718e-08 -1.229799e-08 -8.680953e-08 5.766242e-08 4.071780e-08 -3.583607e-08 -1.153028e-08 3.397006e-08 1.212902e-07 2.771822e-08 1.059654e-07 5.401032e-04 1.880640e-03 -1.709414e-04 1.649692e-03 6.373423e-04 1.501366e-03 1.296647e-04 2.321990e-04 9.276945e-04 -7.022198e-04 -8.526447e-04 -2.070471e-04 -3.800282e-03
<VARIANCE> 25
 3.647618e+02 2.421758e+02 2.872428e+02 3.002232e+02 3.187477e+02 2.975811e+02 2.931188e+02 2.688133e+02 2.483396e+02 1.976984e+02 1.883581e+02 1.567490e+02 1.608973e+01 1.281061e+01 1.209880e+01 1.530956e+01 1.701871e+01 1.699401e+01 1.700544e+01 1.695725e+01 1.545665e+01 1.377801e+01 1.246021e+01 1.064510e+01 1.483226e+01
<GCONST> 1.473569e+02
<TRANSP> 5
 0.000000e+00 1.000000e+00 0.000000e+00 0.000000e+00 0.000000e+00
 0.000000e+00 6.000000e-01 4.000000e-01 0.000000e+00 0.000000e+00
 0.000000e+00 0.000000e+00 6.000000e-01 4.000000e-01 0.000000e+00
 0.000000e+00 0.000000e+00 0.000000e+00 7.000000e-01 3.000000e-01
 0.000000e+00 0.000000e+00 0.000000e+00 0.000000e+00 0.000000e+00
<ENDHMM>
~h "p"
<BEGINHMM>
<NUMSTATES> 5
<STATE> 2
<MEAN> 25
 -7.058486e-08 2.489718e-08 -1.229799e-08 -8.680953e-08 5.766242e-08 4.071780e-08 -3.583607e-08 -1.153028e-08 3.397006e-08 1.212902e-07 2.771822e-08 1.059654e-07 5.401032e-04 1.880640e-03 -1.709414e-04 1.649692e-03 6.373423e-04 1.501366e-03 1.296647e-04 2.321990e-04 9.276945e-04 -7.022198e-04 -8.526447e-04 -2.070471e-04 -3.800282e-03
<VARIANCE> 25
 3.647618e+02 2.421758e+02 2.872428e+02 3.002232e+02 3.187477e+02 2.975811e+02 2.931188e+02 2.688133e+02 2.483396e+02 1.976984e+02 1.883581e+02 1.567490e+02 1.608973e+01 1.281061e+01 1.209880e+01 1.530956e+01 1.701871e+01 1.699401e+01 1.700544e+01 1.695725e+01 1.545665e+01 1.377801e+01 1.246021e+01 1.064510e+01 1.483226e+01
<GCONST> 1.473569e+02
<STATE> 3
<MEAN> 25
 -7.058486e-08 2.489718e-08 -1.229799e-08 -8.680953e-08 5.766242e-08 4.071780e-08 -3.583607e-08 -1.153028e-08 3.397006e-08 1.212902e-07 2.771822e-08 1.059654e-07 5.401032e-04 1.880640e-03 -1.709414e-04 1.649692e-03 6.373423e-04 1.501366e-03 1.296647e-04 2.321990e-04 9.276945e-04 -7.022198e-04 -8.526447e-04 -2.070471e-04 -3.800282e-03
<VARIANCE> 25
 3.647618e+02 2.421758e+02 2.872428e+02 3.002232e+02 3.187477e+02 2.975811e+02 2.931188e+02 2.688133e+02 2.483396e+02 1.976984e+02 1.883581e+02 1.567490e+02 1.608973e+01 1.281061e+01 1.209880e+01 1.530956e+01 1.701871e+01 1.699401e+01 1.700544e+01 1.695725e+01 1.545665e+01 1.377801e+01 1.246021e+01 1.064510e+01 1.483226e+01
<GCONST> 1.473569e+02
<STATE> 4
<MEAN> 25
 -7.058486e-08 2.489718e-08 -1.229799e-08 -8.680953e-08 5.766242e-08 4.071780e-08 -3.583607e-08 -1.153028e-08 3.397006e-08 1.212902e-07 2.771822e-08 1.059654e-07 5.401032e-04 1.880640e-03 -1.709414e-04 1.649692e-03 6.373423e-04 1.501366e-03 1.296647e-04 2.321990e-04 9.276945e-04 -7.022198e-04 -8.526447e-04 -2.070471e-04 -3.800282e-03
<VARIANCE> 25
 3.647618e+02 2.421758e+02 2.872428e+02 3.002232e+02 3.187477e+02 2.975811e+02 2.931188e+02 2.688133e+02 2.483396e+02 1.976984e+02 1.883581e+02 1.567490e+02 1.608973e+01 1.281061e+01 1.209880e+01 1.530956e+01 1.701871e+01 1.699401e+01 1.700544e+01 1.695725e+01 1.545665e+01 1.377801e+01 1.246021e+01 1.064510e+01 1.483226e+01
<GCONST> 1.473569e+02
<TRANSP> 5
 0.000000e+00 1.000000e+00 0.000000e+00 0.000000e+00 0.000000e+00
 0.000000e+00 6.000000e-01 4.000000e-01 0.000000e+00 0.000000e+00
 0.000000e+00 0.000000e+00 6.000000e-01 4.000000e-01 0.000000e+00
 0.000000e+00 0.000000e+00 0.000000e+00 7.000000e-01 3.000000e-01
 0.000000e+00 0.000000e+00 0.000000e+00 0.000000e+00 0.000000e+00
<ENDHMM>
~h "sh"
<BEGINHMM>
<NUMSTATES> 5
<STATE> 2
<MEAN> 25
 -7.058486e-08 2.489718e-08 -1.229799e-08 -8.680953e-08 5.766242e-08 4.071780e-08 -3.583607e-08 -1.153028e-08 3.397006e-08 1.212902e-07 2.771822e-08 1.059654e-07 5.401032e-04 1.880640e-03 -1.709414e-04 1.649692e-03 6.373423e-04 1.501366e-03 1.296647e-04 2.321990e-04 9.276945e-04 -7.022198e-04 -8.526447e-04 -2.070471e-04 -3.800282e-03
<VARIANCE> 25
 3.647618e+02 2.421758e+02 2.872428e+02 3.002232e+02 3.187477e+02 2.975811e+02 2.931188e+02 2.688133e+02 2.483396e+02 1.976984e+02 1.883581e+02 1.567490e+02 1.608973e+01 1.281061e+01 1.209880e+01 1.530956e+01 1.701871e+01 1.699401e+01 1.700544e+01 1.695725e+01 1.545665e+01 1.377801e+01 1.246021e+01 1.064510e+01 1.483226e+01
<GCONST> 1.473569e+02
<STATE> 3
<MEAN> 25
 -7.058486e-08 2.489718e-08 -1.229799e-08 -8.680953e-08 5.766242e-08 4.071780e-08 -3.583607e-08 -1.153028e-08 3.397006e-08 1.212902e-07 2.771822e-08 1.059654e-07 5.401032e-04 1.880640e-03 -1.709414e-04 1.649692e-03 6.373423e-04 1.501366e-03 1.296647e-04 2.321990e-04 9.276945e-04 -7.022198e-04 -8.526447e-04 -2.070471e-04 -3.800282e-03
<VARIANCE> 25
 3.647618e+02 2.421758e+02 2.872428e+02 3.002232e+02 3.187477e+02 2.975811e+02 2.931188e+02 2.688133e+02 2.483396e+02 1.976984e+02 1.883581e+02 1.567490e+02 1.608973e+01 1.281061e+01 1.209880e+01 1.530956e+01 1.701871e+01 1.699401e+01 1.700544e+01 1.695725e+01 1.545665e+01 1.377801e+01 1.246021e+01 1.064510e+01 1.483226e+01
<GCONST> 1.473569e+02
<STATE> 4
<MEAN> 25
 -7.058486e-08 2.489718e-08 -1.229799e-08 -8.680953e-08 5.766242e-08 4.071780e-08 -3.583607e-08 -1.153028e-08 3.397006e-08 1.212902e-07 2.771822e-08 1.059654e-07 5.401032e-04 1.880640e-03 -1.709414e-04 1.649692e-03 6.373423e-04 1.501366e-03 1.296647e-04 2.321990e-04 9.276945e-04 -7.022198e-04 -8.526447e-04 -2.070471e-04 -3.800282e-03
<VARIANCE> 25
 3.647618e+02 2.421758e+02 2.872428e+02 3.002232e+02 3.187477e+02 2.975811e+02 2.931188e+02 2.688133e+02 2.483396e+02 1.976984e+02 1.883581e+02 1.567490e+02 1.608973e+01 1.281061e+01 1.209880e+01 1.530956e+01 1.701871e+01 1.699401e+01 1.700544e+01 1.695725e+01 1.545665e+01 1.377801e+01 1.246021e+01 1.064510e+01 1.483226e+01
<GCONST> 1.473569e+02
<TRANSP> 5
 0.000000e+00 1.000000e+00 0.000000e+00 0.000000e+00 0.000000e+00
 0.000000e+00 6.000000e-01 4.000000e-01 0.000000e+00 0.000000e+00
 0.000000e+00 0.000000e+00 6.000000e-01 4.000000e-01 0.000000e+00
 0.000000e+00 0.000000e+00 0.000000e+00 7.000000e-01 3.000000e-01
 0.000000e+00 0.000000e+00 0.000000e+00 0.000000e+00 0.000000e+00
<ENDHMM>
~h "m"
<BEGINHMM>
<NUMSTATES> 5
<STATE> 2
<MEAN> 25
 -7.058486e-08 2.489718e-08 -1.229799e-08 -8.680953e-08 5.766242e-08 4.071780e-08 -3.583607e-08 -1.153028e-08 3.397006e-08 1.212902e-07 2.771822e-08 1.059654e-07 5.401032e-04 1.880640e-03 -1.709414e-04 1.649692e-03 6.373423e-04 1.501366e-03 1.296647e-04 2.321990e-04 9.276945e-04 -7.022198e-04 -8.526447e-04 -2.070471e-04 -3.800282e-03
<VARIANCE> 25
 3.647618e+02 2.421758e+02 2.872428e+02 3.002232e+02 3.187477e+02 2.975811e+02 2.931188e+02 2.688133e+02 2.483396e+02 1.976984e+02 1.883581e+02 1.567490e+02 1.608973e+01 1.281061e+01 1.209880e+01 1.530956e+01 1.701871e+01 1.699401e+01 1.700544e+01 1.695725e+01 1.545665e+01 1.377801e+01 1.246021e+01 1.064510e+01 1.483226e+01
<GCONST> 1.473569e+02
<STATE> 3
<MEAN> 25
 -7.058486e-08 2.489718e-08 -1.229799e-08 -8.680953e-08 5.766242e-08 4.071780e-08 -3.583607e-08 -1.153028e-08 3.397006e-08 1.212902e-07 2.771822e-08 1.059654e-07 5.401032e-04 1.880640e-03 -1.709414e-04 1.649692e-03 6.373423e-04 1.501366e-03 1.296647e-04 2.321990e-04 9.276945e-04 -7.022198e-04 -8.526447e-04 -2.070471e-04 -3.800282e-03
<VARIANCE> 25
 3.647618e+02 2.421758e+02 2.872428e+02 3.002232e+02 3.187477e+02 2.975811e+02 2.931188e+02 2.688133e+02 2.483396e+02 1.976984e+02 1.883581e+02 1.567490e+02 1.608973e+01 1.281061e+01 1.209880e+01 1.530956e+01 1.701871e+01 1.699401e+01 1.700544e+01 1.695725e+01 1.545665e+01 1.377801e+01 1.246021e+01 1.064510e+01 1.483226e+01
<GCONST> 1.473569e+02
<STATE> 4
<MEAN> 25
 -7.058486e-08 2.489718e-08 -1.229799e-08 -8.680953e-08 5.766242e-08 4.071780e-08 -3.583607e-08 -1.153028e-08 3.397006e-08 1.212902e-07 2.771822e-08 1.059654e-07 5.401032e-04 1.880640e-03 -1.709414e-04 1.649692e-03 6.373423e-04 1.501366e-03 1.296647e-04 2.321990e-04 9.276945e-04 -7.022198e-04 -8.526447e-04 -2.070471e-04 -3.800282e-03
<VARIANCE> 25
 3.647618e+02 2.421758e+02 2.872428e+02 3.002232e+02 3.187477e+02 2.975811e+02 2.931188e+02 2.688133e+02 2.483396e+02 1.976984e+02 1.883581e+02 1.567490e+02 1.608973e+01 1.281061e+01 1.209880e+01 1.530956e+01 1.701871e+01 1.699401e+01 1.700544e+01 1.695725e+01 1.545665e+01 1.377801e+01 1.246021e+01 1.064510e+01 1.483226e+01
<GCONST> 1.473569e+02
<TRANSP> 5
 0.000000e+00 1.000000e+00 0.000000e+00 0.000000e+00 0.000000e+00
 0.000000e+00 6.000000e-01 4.000000e-01 0.000000e+00 0.000000e+00
 0.000000e+00 0.000000e+00 6.000000e-01 4.000000e-01 0.000000e+00
 0.000000e+00 0.000000e+00 0.000000e+00 7.000000e-01 3.000000e-01
 0.000000e+00 0.000000e+00 0.000000e+00 0.000000e+00 0.000000e+00
<ENDHMM>
~h "aa"
<BEGINHMM>
<NUMSTATES> 5
<STATE> 2
<MEAN> 25
 -7.058486e-08 2.489718e-08 -1.229799e-08 -8.680953e-08 5.766242e-08 4.071780e-08 -3.583607e-08 -1.153028e-08 3.397006e-08 1.212902e-07 2.771822e-08 1.059654e-07 5.401032e-04 1.880640e-03 -1.709414e-04 1.649692e-03 6.373423e-04 1.501366e-03 1.296647e-04 2.321990e-04 9.276945e-04 -7.022198e-04 -8.526447e-04 -2.070471e-04 -3.800282e-03
<VARIANCE> 25
 3.647618e+02 2.421758e+02 2.872428e+02 3.002232e+02 3.187477e+02 2.975811e+02 2.931188e+02 2.688133e+02 2.483396e+02 1.976984e+02 1.883581e+02 1.567490e+02 1.608973e+01 1.281061e+01 1.209880e+01 1.530956e+01 1.701871e+01 1.699401e+01 1.700544e+01 1.695725e+01 1.545665e+01 1.377801e+01 1.246021e+01 1.064510e+01 1.483226e+01
<GCONST> 1.473569e+02
<STATE> 3
<MEAN> 25
 -7.058486e-08 2.489718e-08 -1.229799e-08 -8.680953e-08 5.766242e-08 4.071780e-08 -3.583607e-08 -1.153028e-08 3.397006e-08 1.212902e-07 2.771822e-08 1.059654e-07 5.401032e-04 1.880640e-03 -1.709414e-04 1.649692e-03 6.373423e-04 1.501366e-03 1.296647e-04 2.321990e-04 9.276945e-04 -7.022198e-04 -8.526447e-04 -2.070471e-04 -3.800282e-03
<VARIANCE> 25
 3.647618e+02 2.421758e+02 2.872428e+02 3.002232e+02 3.187477e+02 2.975811e+02 2.931188e+02 2.688133e+02 2.483396e+02 1.976984e+02 1.883581e+02 1.567490e+02 1.608973e+01 1.281061e+01 1.209880e+01 1.530956e+01 1.701871e+01 1.699401e+01 1.700544e+01 1.695725e+01 1.545665e+01 1.377801e+01 1.246021e+01 1.064510e+01 1.483226e+01
<GCONST> 1.473569e+02
<STATE> 4
<MEAN> 25
 -7.058486e-08 2.489718e-08 -1.229799e-08 -8.680953e-08 5.766242e-08 4.071780e-08 -3.583607e-08 -1.153028e-08 3.397006e-08 1.212902e-07 2.771822e-08 1.059654e-07 5.401032e-04 1.880640e-03 -1.709414e-04 1.649692e-03 6.373423e-04 1.501366e-03 1.296647e-04 2.321990e-04 9.276945e-04 -7.022198e-04 -8.526447e-04 -2.070471e-04 -3.800282e-03
<VARIANCE> 25
 3.647618e+02 2.421758e+02 2.872428e+02 3.002232e+02 3.187477e+02 2.975811e+02 2.931188e+02 2.688133e+02 2.483396e+02 1.976984e+02 1.883581e+02 1.567490e+02 1.608973e+01 1.281061e+01 1.209880e+01 1.530956e+01 1.701871e+01 1.699401e+01 1.700544e+01 1.695725e+01 1.545665e+01 1.377801e+01 1.246021e+01 1.064510e+01 1.483226e+01
<GCONST> 1.473569e+02
<TRANSP> 5
 0.000000e+00 1.000000e+00 0.000000e+00 0.000000e+00 0.000000e+00
 0.000000e+00 6.000000e-01 4.000000e-01 0.000000e+00 0.000000e+00
 0.000000e+00 0.000000e+00 6.000000e-01 4.000000e-01 0.000000e+00
 0.000000e+00 0.000000e+00 0.000000e+00 7.000000e-01 3.000000e-01
 0.000000e+00 0.000000e+00 0.000000e+00 0.000000e+00 0.000000e+00
<ENDHMM>
~h "y"
<BEGINHMM>
<NUMSTATES> 5
<STATE> 2
<MEAN> 25
 -7.058486e-08 2.489718e-08 -1.229799e-08 -8.680953e-08 5.766242e-08 4.071780e-08 -3.583607e-08 -1.153028e-08 3.397006e-08 1.212902e-07 2.771822e-08 1.059654e-07 5.401032e-04 1.880640e-03 -1.709414e-04 1.649692e-03 6.373423e-04 1.501366e-03 1.296647e-04 2.321990e-04 9.276945e-04 -7.022198e-04 -8.526447e-04 -2.070471e-04 -3.800282e-03
<VARIANCE> 25
 3.647618e+02 2.421758e+02 2.872428e+02 3.002232e+02 3.187477e+02 2.975811e+02 2.931188e+02 2.688133e+02 2.483396e+02 1.976984e+02 1.883581e+02 1.567490e+02 1.608973e+01 1.281061e+01 1.209880e+01 1.530956e+01 1.701871e+01 1.699401e+01 1.700544e+01 1.695725e+01 1.545665e+01 1.377801e+01 1.246021e+01 1.064510e+01 1.483226e+01
<GCONST> 1.473569e+02
<STATE> 3
<MEAN> 25
 -7.058486e-08 2.489718e-08 -1.229799e-08 -8.680953e-08 5.766242e-08 4.071780e-08 -3.583607e-08 -1.153028e-08 3.397006e-08 1.212902e-07 2.771822e-08 1.059654e-07 5.401032e-04 1.880640e-03 -1.709414e-04 1.649692e-03 6.373423e-04 1.501366e-03 1.296647e-04 2.321990e-04 9.276945e-04 -7.022198e-04 -8.526447e-04 -2.070471e-04 -3.800282e-03
<VARIANCE> 25
 3.647618e+02 2.421758e+02 2.872428e+02 3.002232e+02 3.187477e+02 2.975811e+02 2.931188e+02 2.688133e+02 2.483396e+02 1.976984e+02 1.883581e+02 1.567490e+02 1.608973e+01 1.281061e+01 1.209880e+01 1.530956e+01 1.701871e+01 1.699401e+01 1.700544e+01 1.695725e+01 1.545665e+01 1.377801e+01 1.246021e+01 1.064510e+01 1.483226e+01
<GCONST> 1.473569e+02
<STATE> 4
<MEAN> 25
 -7.058486e-08 2.489718e-08 -1.229799e-08 -8.680953e-08 5.766242e-08 4.071780e-08 -3.583607e-08 -1.153028e-08 3.397006e-08 1.212902e-07 2.771822e-08 1.059654e-07 5.401032e-04 1.880640e-03 -1.709414e-04 1.649692e-03 6.373423e-04 1.501366e-03 1.296647e-04 2.321990e-04 9.276945e-04 -7.022198e-04 -8.526447e-04 -2.070471e-04 -3.800282e-03
<VARIANCE> 25
 3.647618e+02 2.421758e+02 2.872428e+02 3.002232e+02 3.187477e+02 2.975811e+02 2.931188e+02 2.688133e+02 2.483396e+02 1.976984e+02 1.883581e+02 1.567490e+02 1.608973e+01 1.281061e+01 1.209880e+01 1.530956e+01 1.701871e+01 1.699401e+01 1.700544e+01 1.695725e+01 1.545665e+01 1.377801e+01 1.246021e+01 1.064510e+01 1.483226e+01
<GCONST> 1.473569e+02
<TRANSP> 5
 0.000000e+00 1.000000e+00 0.000000e+00 0.000000e+00 0.000000e+00
 0.000000e+00 6.000000e-01 4.000000e-01 0.000000e+00 0.000000e+00
 0.000000e+00 0.000000e+00 6.000000e-01 4.000000e-01 0.000000e+00
 0.000000e+00 0.000000e+00 0.000000e+00 7.000000e-01 3.000000e-01
 0.000000e+00 0.000000e+00 0.000000e+00 0.000000e+00 0.000000e+00
<ENDHMM>
~h "uw"
<BEGINHMM>
<NUMSTATES> 5
<STATE> 2
<MEAN> 25
 -7.058486e-08 2.489718e-08 -1.229799e-08 -8.680953e-08 5.766242e-08 4.071780e-08 -3.583607e-08 -1.153028e-08 3.397006e-08 1.212902e-07 2.771822e-08 1.059654e-07 5.401032e-04 1.880640e-03 -1.709414e-04 1.649692e-03 6.373423e-04 1.501366e-03 1.296647e-04 2.321990e-04 9.276945e-04 -7.022198e-04 -8.526447e-04 -2.070471e-04 -3.800282e-03
<VARIANCE> 25
 3.647618e+02 2.421758e+02 2.872428e+02 3.002232e+02 3.187477e+02 2.975811e+02 2.931188e+02 2.688133e+02 2.483396e+02 1.976984e+02 1.883581e+02 1.567490e+02 1.608973e+01 1.281061e+01 1.209880e+01 1.530956e+01 1.701871e+01 1.699401e+01 1.700544e+01 1.695725e+01 1.545665e+01 1.377801e+01 1.246021e+01 1.064510e+01 1.483226e+01
<GCONST> 1.473569e+02
<STATE> 3
<MEAN> 25
 -7.058486e-08 2.489718e-08 -1.229799e-08 -8.680953e-08 5.766242e-08 4.071780e-08 -3.583607e-08 -1.153028e-08 3.397006e-08 1.212902e-07 2.771822e-08 1.059654e-07 5.401032e-04 1.880640e-03 -1.709414e-04 1.649692e-03 6.373423e-04 1.501366e-03 1.296647e-04 2.321990e-04 9.276945e-04 -7.022198e-04 -8.526447e-04 -2.070471e-04 -3.800282e-03
<VARIANCE> 25
 3.647618e+02 2.421758e+02 2.872428e+02 3.002232e+02 3.187477e+02 2.975811e+02 2.931188e+02 2.688133e+02 2.483396e+02 1.976984e+02 1.883581e+02 1.567490e+02 1.608973e+01 1.281061e+01 1.209880e+01 1.530956e+01 1.701871e+01 1.699401e+01 1.700544e+01 1.695725e+01 1.545665e+01 1.377801e+01 1.246021e+01 1.064510e+01 1.483226e+01
<GCONST> 1.473569e+02
<STATE> 4
<MEAN> 25
 -7.058486e-08 2.489718e-08 -1.229799e-08 -8.680953e-08 5.766242e-08 4.071780e-08 -3.583607e-08 -1.153028e-08 3.397006e-08 1.212902e-07 2.771822e-08 1.059654e-07 5.401032e-04 1.880640e-03 -1.709414e-04 1.649692e-03 6.373423e-04 1.501366e-03 1.296647e-04 2.321990e-04 9.276945e-04 -7.022198e-04 -8.526447e-04 -2.070471e-04 -3.800282e-03
<VARIANCE> 25
 3.647618e+02 2.421758e+02 2.872428e+02 3.002232e+02 3.187477e+02 2.975811e+02 2.931188e+02 2.688133e+02 2.483396e+02 1.976984e+02 1.883581e+02 1.567490e+02 1.608973e+01 1.281061e+01 1.209880e+01 1.530956e+01 1.701871e+01 1.699401e+01 1.700544e+01 1.695725e+01 1.545665e+01 1.377801e+01 1.246021e+01 1.064510e+01 1.483226e+01
<GCONST> 1.473569e+02
<TRANSP> 5
 0.000000e+00 1.000000e+00 0.000000e+00 0.000000e+00 0.000000e+00
 0.000000e+00 6.000000e-01 4.000000e-01 0.000000e+00 0.000000e+00
 0.000000e+00 0.000000e+00 6.000000e-01 4.000000e-01 0.000000e+00
 0.000000e+00 0.000000e+00 0.000000e+00 7.000000e-01 3.000000e-01
 0.000000e+00 0.000000e+00 0.000000e+00 0.000000e+00 0.000000e+00
<ENDHMM>
~h "ng"
<BEGINHMM>
<NUMSTATES> 5
<STATE> 2
<MEAN> 25
 -7.058486e-08 2.489718e-08 -1.229799e-08 -8.680953e-08 5.766242e-08 4.071780e-08 -3.583607e-08 -1.153028e-08 3.397006e-08 1.212902e-07 2.771822e-08 1.059654e-07 5.401032e-04 1.880640e-03 -1.709414e-04 1.649692e-03 6.373423e-04 1.501366e-03 1.296647e-04 2.321990e-04 9.276945e-04 -7.022198e-04 -8.526447e-04 -2.070471e-04 -3.800282e-03
<VARIANCE> 25
 3.647618e+02 2.421758e+02 2.872428e+02 3.002232e+02 3.187477e+02 2.975811e+02 2.931188e+02 2.688133e+02 2.483396e+02 1.976984e+02 1.883581e+02 1.567490e+02 1.608973e+01 1.281061e+01 1.209880e+01 1.530956e+01 1.701871e+01 1.699401e+01 1.700544e+01 1.695725e+01 1.545665e+01 1.377801e+01 1.246021e+01 1.064510e+01 1.483226e+01
<GCONST> 1.473569e+02
<STATE> 3
<MEAN> 25
 -7.058486e-08 2.489718e-08 -1.229799e-08 -8.680953e-08 5.766242e-08 4.071780e-08 -3.583607e-08 -1.153028e-08 3.397006e-08 1.212902e-07 2.771822e-08 1.059654e-07 5.401032e-04 1.880640e-03 -1.709414e-04 1.649692e-03 6.373423e-04 1.501366e-03 1.296647e-04 2.321990e-04 9.276945e-04 -7.022198e-04 -8.526447e-04 -2.070471e-04 -3.800282e-03
<VARIANCE> 25
 3.647618e+02 2.421758e+02 2.872428e+02 3.002232e+02 3.187477e+02 2.975811e+02 2.931188e+02 2.688133e+02 2.483396e+02 1.976984e+02 1.883581e+02 1.567490e+02 1.608973e+01 1.281061e+01 1.209880e+01 1.530956e+01 1.701871e+01 1.699401e+01 1.700544e+01 1.695725e+01 1.545665e+01 1.377801e+01 1.246021e+01 1.064510e+01 1.483226e+01
<GCONST> 1.473569e+02
<STATE> 4
<MEAN> 25
 -7.058486e-08 2.489718e-08 -1.229799e-08 -8.680953e-08 5.766242e-08 4.071780e-08 -3.583607e-08 -1.153028e-08 3.397006e-08 1.212902e-07 2.771822e-08 1.059654e-07 5.401032e-04 1.880640e-03 -1.709414e-04 1.649692e-03 6.373423e-04 1.501366e-03 1.296647e-04 2.321990e-04 9.276945e-04 -7.022198e-04 -8.526447e-04 -2.070471e-04 -3.800282e-03
<VARIANCE> 25
 3.647618e+02 2.421758e+02 2.872428e+02 3.002232e+02 3.187477e+02 2.975811e+02 2.931188e+02 2.688133e+02 2.483396e+02 1.976984e+02 1.883581e+02 1.567490e+02 1.608973e+01 1.281061e+01 1.209880e+01 1.530956e+01 1.701871e+01 1.699401e+01 1.700544e+01 1.695725e+01 1.545665e+01 1.377801e+01 1.246021e+01 1.064510e+01 1.483226e+01
<GCONST> 1.473569e+02
<TRANSP> 5
 0.000000e+00 1.000000e+00 0.000000e+00 0.000000e+00 0.000000e+00
 0.000000e+00 6.000000e-01 4.000000e-01 0.000000e+00 0.000000e+00
 0.000000e+00 0.000000e+00 6.000000e-01 4.000000e-01 0.000000e+00
 0.000000e+00 0.000000e+00 0.000000e+00 7.000000e-01 3.000000e-01
 0.000000e+00 0.000000e+00 0.000000e+00 0.000000e+00 0.000000e+00
<ENDHMM>
~h "z"
<BEGINHMM>
<NUMSTATES> 5
<STATE> 2
<MEAN> 25
 -7.058486e-08 2.489718e-08 -1.229799e-08 -8.680953e-08 5.766242e-08 4.071780e-08 -3.583607e-08 -1.153028e-08 3.397006e-08 1.212902e-07 2.771822e-08 1.059654e-07 5.401032e-04 1.880640e-03 -1.709414e-04 1.649692e-03 6.373423e-04 1.501366e-03 1.296647e-04 2.321990e-04 9.276945e-04 -7.022198e-04 -8.526447e-04 -2.070471e-04 -3.800282e-03
<VARIANCE> 25
 3.647618e+02 2.421758e+02 2.872428e+02 3.002232e+02 3.187477e+02 2.975811e+02 2.931188e+02 2.688133e+02 2.483396e+02 1.976984e+02 1.883581e+02 1.567490e+02 1.608973e+01 1.281061e+01 1.209880e+01 1.530956e+01 1.701871e+01 1.699401e+01 1.700544e+01 1.695725e+01 1.545665e+01 1.377801e+01 1.246021e+01 1.064510e+01 1.483226e+01
<GCONST> 1.473569e+02
<STATE> 3
<MEAN> 25
 -7.058486e-08 2.489718e-08 -1.229799e-08 -8.680953e-08 5.766242e-08 4.071780e-08 -3.583607e-08 -1.153028e-08 3.397006e-08 1.212902e-07 2.771822e-08 1.059654e-07 5.401032e-04 1.880640e-03 -1.709414e-04 1.649692e-03 6.373423e-04 1.501366e-03 1.296647e-04 2.321990e-04 9.276945e-04 -7.022198e-04 -8.526447e-04 -2.070471e-04 -3.800282e-03
<VARIANCE> 25
 3.647618e+02 2.421758e+02 2.872428e+02 3.002232e+02 3.187477e+02 2.975811e+02 2.931188e+02 2.688133e+02 2.483396e+02 1.976984e+02 1.883581e+02 1.567490e+02 1.608973e+01 1.281061e+01 1.209880e+01 1.530956e+01 1.701871e+01 1.699401e+01 1.700544e+01 1.695725e+01 1.545665e+01 1.377801e+01 1.246021e+01 1.064510e+01 1.483226e+01
<GCONST> 1.473569e+02
<STATE> 4
<MEAN> 25
 -7.058486e-08 2.489718e-08 -1.229799e-08 -8.680953e-08 5.766242e-08 4.071780e-08 -3.583607e-08 -1.153028e-08 3.397006e-08 1.212902e-07 2.771822e-08 1.059654e-07 5.401032e-04 1.880640e-03 -1.709414e-04 1.649692e-03 6.373423e-04 1.501366e-03 1.296647e-04 2.321990e-04 9.276945e-04 -7.022198e-04 -8.526447e-04 -2.070471e-04 -3.800282e-03
<VARIANCE> 25
 3.647618e+02 2.421758e+02 2.872428e+02 3.002232e+02 3.187477e+02 2.975811e+02 2.931188e+02 2.688133e+02 2.483396e+02 1.976984e+02 1.883581e+02 1.567490e+02 1.608973e+01 1.281061e+01 1.209880e+01 1.530956e+01 1.701871e+01 1.699401e+01 1.700544e+01 1.695725e+01 1.545665e+01 1.377801e+01 1.246021e+01 1.064510e+01 1.483226e+01
<GCONST> 1.473569e+02
<TRANSP> 5
 0.000000e+00 1.000000e+00 0.000000e+00 0.000000e+00 0.000000e+00
 0.000000e+00 6.000000e-01 4.000000e-01 0.000000e+00 0.000000e+00
 0.000000e+00 0.000000e+00 6.000000e-01 4.000000e-01 0.000000e+00
 0.000000e+00 0.000000e+00 0.000000e+00 7.000000e-01 3.000000e-01
 0.000000e+00 0.000000e+00 0.000000e+00 0.000000e+00 0.000000e+00
<ENDHMM>
~h "ch"
<BEGINHMM>
<NUMSTATES> 5
<STATE> 2
<MEAN> 25
 -7.058486e-08 2.489718e-08 -1.229799e-08 -8.680953e-08 5.766242e-08 4.071780e-08 -3.583607e-08 -1.153028e-08 3.397006e-08 1.212902e-07 2.771822e-08 1.059654e-07 5.401032e-04 1.880640e-03 -1.709414e-04 1.649692e-03 6.373423e-04 1.501366e-03 1.296647e-04 2.321990e-04 9.276945e-04 -7.022198e-04 -8.526447e-04 -2.070471e-04 -3.800282e-03
<VARIANCE> 25
 3.647618e+02 2.421758e+02 2.872428e+02 3.002232e+02 3.187477e+02 2.975811e+02 2.931188e+02 2.688133e+02 2.483396e+02 1.976984e+02 1.883581e+02 1.567490e+02 1.608973e+01 1.281061e+01 1.209880e+01 1.530956e+01 1.701871e+01 1.699401e+01 1.700544e+01 1.695725e+01 1.545665e+01 1.377801e+01 1.246021e+01 1.064510e+01 1.483226e+01
<GCONST> 1.473569e+02
<STATE> 3
<MEAN> 25
 -7.058486e-08 2.489718e-08 -1.229799e-08 -8.680953e-08 5.766242e-08 4.071780e-08 -3.583607e-08 -1.153028e-08 3.397006e-08 1.212902e-07 2.771822e-08 1.059654e-07 5.401032e-04 1.880640e-03 -1.709414e-04 1.649692e-03 6.373423e-04 1.501366e-03 1.296647e-04 2.321990e-04 9.276945e-04 -7.022198e-04 -8.526447e-04 -2.070471e-04 -3.800282e-03
<VARIANCE> 25
 3.647618e+02 2.421758e+02 2.872428e+02 3.002232e+02 3.187477e+02 2.975811e+02 2.931188e+02 2.688133e+02 2.483396e+02 1.976984e+02 1.883581e+02 1.567490e+02 1.608973e+01 1.281061e+01 1.209880e+01 1.530956e+01 1.701871e+01 1.699401e+01 1.700544e+01 1.695725e+01 1.545665e+01 1.377801e+01 1.246021e+01 1.064510e+01 1.483226e+01
<GCONST> 1.473569e+02
<STATE> 4
<MEAN> 25
 -7.058486e-08 2.489718e-08 -1.229799e-08 -8.680953e-08 5.766242e-08 4.071780e-08 -3.583607e-08 -1.153028e-08 3.397006e-08 1.212902e-07 2.771822e-08 1.059654e-07 5.401032e-04 1.880640e-03 -1.709414e-04 1.649692e-03 6.373423e-04 1.501366e-03 1.296647e-04 2.321990e-04 9.276945e-04 -7.022198e-04 -8.526447e-04 -2.070471e-04 -3.800282e-03
<VARIANCE> 25
 3.647618e+02 2.421758e+02 2.872428e+02 3.002232e+02 3.187477e+02 2.975811e+02 2.931188e+02 2.688133e+02 2.483396e+02 1.976984e+02 1.883581e+02 1.567490e+02 1.608973e+01 1.281061e+01 1.209880e+01 1.530956e+01 1.701871e+01 1.699401e+01 1.700544e+01 1.695725e+01 1.545665e+01 1.377801e+01 1.246021e+01 1.064510e+01 1.483226e+01
<GCONST> 1.473569e+02
<TRANSP> 5
 0.000000e+00 1.000000e+00 0.000000e+00 0.000000e+00 0.000000e+00
 0.000000e+00 6.000000e-01 4.000000e-01 0.000000e+00 0.000000e+00
 0.000000e+00 0.000000e+00 6.000000e-01 4.000000e-01 0.000000e+00
 0.000000e+00 0.000000e+00 0.000000e+00 7.000000e-01 3.000000e-01
 0.000000e+00 0.000000e+00 0.000000e+00 0.000000e+00 0.000000e+00
<ENDHMM>
~h "v"
<BEGINHMM>
<NUMSTATES> 5
<STATE> 2
<MEAN> 25
 -7.058486e-08 2.489718e-08 -1.229799e-08 -8.680953e-08 5.766242e-08 4.071780e-08 -3.583607e-08 -1.153028e-08 3.397006e-08 1.212902e-07 2.771822e-08 1.059654e-07 5.401032e-04 1.880640e-03 -1.709414e-04 1.649692e-03 6.373423e-04 1.501366e-03 1.296647e-04 2.321990e-04 9.276945e-04 -7.022198e-04 -8.526447e-04 -2.070471e-04 -3.800282e-03
<VARIANCE> 25
 3.647618e+02 2.421758e+02 2.872428e+02 3.002232e+02 3.187477e+02 2.975811e+02 2.931188e+02 2.688133e+02 2.483396e+02 1.976984e+02 1.883581e+02 1.567490e+02 1.608973e+01 1.281061e+01 1.209880e+01 1.530956e+01 1.701871e+01 1.699401e+01 1.700544e+01 1.695725e+01 1.545665e+01 1.377801e+01 1.246021e+01 1.064510e+01 1.483226e+01
<GCONST> 1.473569e+02
<STATE> 3
<MEAN> 25
 -7.058486e-08 2.489718e-08 -1.229799e-08 -8.680953e-08 5.766242e-08 4.071780e-08 -3.583607e-08 -1.153028e-08 3.397006e-08 1.212902e-07 2.771822e-08 1.059654e-07 5.401032e-04 1.880640e-03 -1.709414e-04 1.649692e-03 6.373423e-04 1.501366e-03 1.296647e-04 2.321990e-04 9.276945e-04 -7.022198e-04 -8.526447e-04 -2.070471e-04 -3.800282e-03
<VARIANCE> 25
 3.647618e+02 2.421758e+02 2.872428e+02 3.002232e+02 3.187477e+02 2.975811e+02 2.931188e+02 2.688133e+02 2.483396e+02 1.976984e+02 1.883581e+02 1.567490e+02 1.608973e+01 1.281061e+01 1.209880e+01 1.530956e+01 1.701871e+01 1.699401e+01 1.700544e+01 1.695725e+01 1.545665e+01 1.377801e+01 1.246021e+01 1.064510e+01 1.483226e+01
<GCONST> 1.473569e+02
<STATE> 4
<MEAN> 25
 -7.058486e-08 2.489718e-08 -1.229799e-08 -8.680953e-08 5.766242e-08 4.071780e-08 -3.583607e-08 -1.153028e-08 3.397006e-08 1.212902e-07 2.771822e-08 1.059654e-07 5.401032e-04 1.880640e-03 -1.709414e-04 1.649692e-03 6.373423e-04 1.501366e-03 1.296647e-04 2.321990e-04 9.276945e-04 -7.022198e-04 -8.526447e-04 -2.070471e-04 -3.800282e-03
<VARIANCE> 25
 3.647618e+02 2.421758e+02 2.872428e+02 3.002232e+02 3.187477e+02 2.975811e+02 2.931188e+02 2.688133e+02 2.483396e+02 1.976984e+02 1.883581e+02 1.567490e+02 1.608973e+01 1.281061e+01 1.209880e+01 1.530956e+01 1.701871e+01 1.699401e+01 1.700544e+01 1.695725e+01 1.545665e+01 1.377801e+01 1.246021e+01 1.064510e+01 1.483226e+01
<GCONST> 1.473569e+02
<TRANSP> 5
 0.000000e+00 1.000000e+00 0.000000e+00 0.000000e+00 0.000000e+00
 0.000000e+00 6.000000e-01 4.000000e-01 0.000000e+00 0.000000e+00
 0.000000e+00 0.000000e+00 6.000000e-01 4.000000e-01 0.000000e+00
 0.000000e+00 0.000000e+00 0.000000e+00 7.000000e-01 3.000000e-01
 0.000000e+00 0.000000e+00 0.000000e+00 0.000000e+00 0.000000e+00
<ENDHMM>
~h "d"
<BEGINHMM>
<NUMSTATES> 5
<STATE> 2
<MEAN> 25
 -7.058486e-08 2.489718e-08 -1.229799e-08 -8.680953e-08 5.766242e-08 4.071780e-08 -3.583607e-08 -1.153028e-08 3.397006e-08 1.212902e-07 2.771822e-08 1.059654e-07 5.401032e-04 1.880640e-03 -1.709414e-04 1.649692e-03 6.373423e-04 1.501366e-03 1.296647e-04 2.321990e-04 9.276945e-04 -7.022198e-04 -8.526447e-04 -2.070471e-04 -3.800282e-03
<VARIANCE> 25
 3.647618e+02 2.421758e+02 2.872428e+02 3.002232e+02 3.187477e+02 2.975811e+02 2.931188e+02 2.688133e+02 2.483396e+02 1.976984e+02 1.883581e+02 1.567490e+02 1.608973e+01 1.281061e+01 1.209880e+01 1.530956e+01 1.701871e+01 1.699401e+01 1.700544e+01 1.695725e+01 1.545665e+01 1.377801e+01 1.246021e+01 1.064510e+01 1.483226e+01
<GCONST> 1.473569e+02
<STATE> 3
<MEAN> 25
 -7.058486e-08 2.489718e-08 -1.229799e-08 -8.680953e-08 5.766242e-08 4.071780e-08 -3.583607e-08 -1.153028e-08 3.397006e-08 1.212902e-07 2.771822e-08 1.059654e-07 5.401032e-04 1.880640e-03 -1.709414e-04 1.649692e-03 6.373423e-04 1.501366e-03 1.296647e-04 2.321990e-04 9.276945e-04 -7.022198e-04 -8.526447e-04 -2.070471e-04 -3.800282e-03
<VARIANCE> 25
 3.647618e+02 2.421758e+02 2.872428e+02 3.002232e+02 3.187477e+02 2.975811e+02 2.931188e+02 2.688133e+02 2.483396e+02 1.976984e+02 1.883581e+02 1.567490e+02 1.608973e+01 1.281061e+01 1.209880e+01 1.530956e+01 1.701871e+01 1.699401e+01 1.700544e+01 1.695725e+01 1.545665e+01 1.377801e+01 1.246021e+01 1.064510e+01 1.483226e+01
<GCONST> 1.473569e+02
<STATE> 4
<MEAN> 25
 -7.058486e-08 2.489718e-08 -1.229799e-08 -8.680953e-08 5.766242e-08 4.071780e-08 -3.583607e-08 -1.153028e-08 3.397006e-08 1.212902e-07 2.771822e-08 1.059654e-07 5.401032e-04 1.880640e-03 -1.709414e-04 1.649692e-03 6.373423e-04 1.501366e-03 1.296647e-04 2.321990e-04 9.276945e-04 -7.022198e-04 -8.526447e-04 -2.070471e-04 -3.800282e-03
<VARIANCE> 25
 3.647618e+02 2.421758e+02 2.872428e+02 3.002232e+02 3.187477e+02 2.975811e+02 2.931188e+02 2.688133e+02 2.483396e+02 1.976984e+02 1.883581e+02 1.567490e+02 1.608973e+01 1.281061e+01 1.209880e+01 1.530956e+01 1.701871e+01 1.699401e+01 1.700544e+01 1.695725e+01 1.545665e+01 1.377801e+01 1.246021e+01 1.064510e+01 1.483226e+01
<GCONST> 1.473569e+02
<TRANSP> 5
 0.000000e+00 1.000000e+00 0.000000e+00 0.000000e+00 0.000000e+00
 0.000000e+00 6.000000e-01 4.000000e-01 0.000000e+00 0.000000e+00
 0.000000e+00 0.000000e+00 6.000000e-01 4.000000e-01 0.000000e+00
 0.000000e+00 0.000000e+00 0.000000e+00 7.000000e-01 3.000000e-01
 0.000000e+00 0.000000e+00 0.000000e+00 0.000000e+00 0.000000e+00
<ENDHMM>
~h "r"
<BEGINHMM>
<NUMSTATES> 5
<STATE> 2
<MEAN> 25
 -7.058486e-08 2.489718e-08 -1.229799e-08 -8.680953e-08 5.766242e-08 4.071780e-08 -3.583607e-08 -1.153028e-08 3.397006e-08 1.212902e-07 2.771822e-08 1.059654e-07 5.401032e-04 1.880640e-03 -1.709414e-04 1.649692e-03 6.373423e-04 1.501366e-03 1.296647e-04 2.321990e-04 9.276945e-04 -7.022198e-04 -8.526447e-04 -2.070471e-04 -3.800282e-03
<VARIANCE> 25
 3.647618e+02 2.421758e+02 2.872428e+02 3.002232e+02 3.187477e+02 2.975811e+02 2.931188e+02 2.688133e+02 2.483396e+02 1.976984e+02 1.883581e+02 1.567490e+02 1.608973e+01 1.281061e+01 1.209880e+01 1.530956e+01 1.701871e+01 1.699401e+01 1.700544e+01 1.695725e+01 1.545665e+01 1.377801e+01 1.246021e+01 1.064510e+01 1.483226e+01
<GCONST> 1.473569e+02
<STATE> 3
<MEAN> 25
 -7.058486e-08 2.489718e-08 -1.229799e-08 -8.680953e-08 5.766242e-08 4.071780e-08 -3.583607e-08 -1.153028e-08 3.397006e-08 1.212902e-07 2.771822e-08 1.059654e-07 5.401032e-04 1.880640e-03 -1.709414e-04 1.649692e-03 6.373423e-04 1.501366e-03 1.296647e-04 2.321990e-04 9.276945e-04 -7.022198e-04 -8.526447e-04 -2.070471e-04 -3.800282e-03
<VARIANCE> 25
 3.647618e+02 2.421758e+02 2.872428e+02 3.002232e+02 3.187477e+02 2.975811e+02 2.931188e+02 2.688133e+02 2.483396e+02 1.976984e+02 1.883581e+02 1.567490e+02 1.608973e+01 1.281061e+01 1.209880e+01 1.530956e+01 1.701871e+01 1.699401e+01 1.700544e+01 1.695725e+01 1.545665e+01 1.377801e+01 1.246021e+01 1.064510e+01 1.483226e+01
<GCONST> 1.473569e+02
<STATE> 4
<MEAN> 25
 -7.058486e-08 2.489718e-08 -1.229799e-08 -8.680953e-08 5.766242e-08 4.071780e-08 -3.583607e-08 -1.153028e-08 3.397006e-08 1.212902e-07 2.771822e-08 1.059654e-07 5.401032e-04 1.880640e-03 -1.709414e-04 1.649692e-03 6.373423e-04 1.501366e-03 1.296647e-04 2.321990e-04 9.276945e-04 -7.022198e-04 -8.526447e-04 -2.070471e-04 -3.800282e-03
<VARIANCE> 25
 3.647618e+02 2.421758e+02 2.872428e+02 3.002232e+02 3.187477e+02 2.975811e+02 2.931188e+02 2.688133e+02 2.483396e+02 1.976984e+02 1.883581e+02 1.567490e+02 1.608973e+01 1.281061e+01 1.209880e+01 1.530956e+01 1.701871e+01 1.699401e+01 1.700544e+01 1.695725e+01 1.545665e+01 1.377801e+01 1.246021e+01 1.064510e+01 1.483226e+01
<GCONST> 1.473569e+02
<TRANSP> 5
 0.000000e+00 1.000000e+00 0.000000e+00 0.000000e+00 0.000000e+00
 0.000000e+00 6.000000e-01 4.000000e-01 0.000000e+00 0.000000e+00
 0.000000e+00 0.000000e+00 6.000000e-01 4.000000e-01 0.000000e+00
 0.000000e+00 0.000000e+00 0.000000e+00 7.000000e-01 3.000000e-01
 0.000000e+00 0.000000e+00 0.000000e+00 0.000000e+00 0.000000e+00
<ENDHMM>
~h "er"
<BEGINHMM>
<NUMSTATES> 5
<STATE> 2
<MEAN> 25
 -7.058486e-08 2.489718e-08 -1.229799e-08 -8.680953e-08 5.766242e-08 4.071780e-08 -3.583607e-08 -1.153028e-08 3.397006e-08 1.212902e-07 2.771822e-08 1.059654e-07 5.401032e-04 1.880640e-03 -1.709414e-04 1.649692e-03 6.373423e-04 1.501366e-03 1.296647e-04 2.321990e-04 9.276945e-04 -7.022198e-04 -8.526447e-04 -2.070471e-04 -3.800282e-03
<VARIANCE> 25
 3.647618e+02 2.421758e+02 2.872428e+02 3.002232e+02 3.187477e+02 2.975811e+02 2.931188e+02 2.688133e+02 2.483396e+02 1.976984e+02 1.883581e+02 1.567490e+02 1.608973e+01 1.281061e+01 1.209880e+01 1.530956e+01 1.701871e+01 1.699401e+01 1.700544e+01 1.695725e+01 1.545665e+01 1.377801e+01 1.246021e+01 1.064510e+01 1.483226e+01
<GCONST> 1.473569e+02
<STATE> 3
<MEAN> 25
 -7.058486e-08 2.489718e-08 -1.229799e-08 -8.680953e-08 5.766242e-08 4.071780e-08 -3.583607e-08 -1.153028e-08 3.397006e-08 1.212902e-07 2.771822e-08 1.059654e-07 5.401032e-04 1.880640e-03 -1.709414e-04 1.649692e-03 6.373423e-04 1.501366e-03 1.296647e-04 2.321990e-04 9.276945e-04 -7.022198e-04 -8.526447e-04 -2.070471e-04 -3.800282e-03
<VARIANCE> 25
 3.647618e+02 2.421758e+02 2.872428e+02 3.002232e+02 3.187477e+02 2.975811e+02 2.931188e+02 2.688133e+02 2.483396e+02 1.976984e+02 1.883581e+02 1.567490e+02 1.608973e+01 1.281061e+01 1.209880e+01 1.530956e+01 1.701871e+01 1.699401e+01 1.700544e+01 1.695725e+01 1.545665e+01 1.377801e+01 1.246021e+01 1.064510e+01 1.483226e+01
<GCONST> 1.473569e+02
<STATE> 4
<MEAN> 25
 -7.058486e-08 2.489718e-08 -1.229799e-08 -8.680953e-08 5.766242e-08 4.071780e-08 -3.583607e-08 -1.153028e-08 3.397006e-08 1.212902e-07 2.771822e-08 1.059654e-07 5.401032e-04 1.880640e-03 -1.709414e-04 1.649692e-03 6.373423e-04 1.501366e-03 1.296647e-04 2.321990e-04 9.276945e-04 -7.022198e-04 -8.526447e-04 -2.070471e-04 -3.800282e-03
<VARIANCE> 25
 3.647618e+02 2.421758e+02 2.872428e+02 3.002232e+02 3.187477e+02 2.975811e+02 2.931188e+02 2.688133e+02 2.483396e+02 1.976984e+02 1.883581e+02 1.567490e+02 1.608973e+01 1.281061e+01 1.209880e+01 1.530956e+01 1.701871e+01 1.699401e+01 1.700544e+01 1.695725e+01 1.545665e+01 1.377801e+01 1.246021e+01 1.064510e+01 1.483226e+01
<GCONST> 1.473569e+02
<TRANSP> 5
 0.000000e+00 1.000000e+00 0.000000e+00 0.000000e+00 0.000000e+00
 0.000000e+00 6.000000e-01 4.000000e-01 0.000000e+00 0.000000e+00
 0.000000e+00 0.000000e+00 6.000000e-01 4.000000e-01 0.000000e+00
 0.000000e+00 0.000000e+00 0.000000e+00 7.000000e-01 3.000000e-01
 0.000000e+00 0.000000e+00 0.000000e+00 0.000000e+00 0.000000e+00
<ENDHMM>
~h "f"
<BEGINHMM>
<NUMSTATES> 5
<STATE> 2
<MEAN> 25
 -7.058486e-08 2.489718e-08 -1.229799e-08 -8.680953e-08 5.766242e-08 4.071780e-08 -3.583607e-08 -1.153028e-08 3.397006e-08 1.212902e-07 2.771822e-08 1.059654e-07 5.401032e-04 1.880640e-03 -1.709414e-04 1.649692e-03 6.373423e-04 1.501366e-03 1.296647e-04 2.321990e-04 9.276945e-04 -7.022198e-04 -8.526447e-04 -2.070471e-04 -3.800282e-03
<VARIANCE> 25
 3.647618e+02 2.421758e+02 2.872428e+02 3.002232e+02 3.187477e+02 2.975811e+02 2.931188e+02 2.688133e+02 2.483396e+02 1.976984e+02 1.883581e+02 1.567490e+02 1.608973e+01 1.281061e+01 1.209880e+01 1.530956e+01 1.701871e+01 1.699401e+01 1.700544e+01 1.695725e+01 1.545665e+01 1.377801e+01 1.246021e+01 1.064510e+01 1.483226e+01
<GCONST> 1.473569e+02
<STATE> 3
<MEAN> 25
 -7.058486e-08 2.489718e-08 -1.229799e-08 -8.680953e-08 5.766242e-08 4.071780e-08 -3.583607e-08 -1.153028e-08 3.397006e-08 1.212902e-07 2.771822e-08 1.059654e-07 5.401032e-04 1.880640e-03 -1.709414e-04 1.649692e-03 6.373423e-04 1.501366e-03 1.296647e-04 2.321990e-04 9.276945e-04 -7.022198e-04 -8.526447e-04 -2.070471e-04 -3.800282e-03
<VARIANCE> 25
 3.647618e+02 2.421758e+02 2.872428e+02 3.002232e+02 3.187477e+02 2.975811e+02 2.931188e+02 2.688133e+02 2.483396e+02 1.976984e+02 1.883581e+02 1.567490e+02 1.608973e+01 1.281061e+01 1.209880e+01 1.530956e+01 1.701871e+01 1.699401e+01 1.700544e+01 1.695725e+01 1.545665e+01 1.377801e+01 1.246021e+01 1.064510e+01 1.483226e+01
<GCONST> 1.473569e+02
<STATE> 4
<MEAN> 25
 -7.058486e-08 2.489718e-08 -1.229799e-08 -8.680953e-08 5.766242e-08 4.071780e-08 -3.583607e-08 -1.153028e-08 3.397006e-08 1.212902e-07 2.771822e-08 1.059654e-07 5.401032e-04 1.880640e-03 -1.709414e-04 1.649692e-03 6.373423e-04 1.501366e-03 1.296647e-04 2.321990e-04 9.276945e-04 -7.022198e-04 -8.526447e-04 -2.070471e-04 -3.800282e-03
<VARIANCE> 25
 3.647618e+02 2.421758e+02 2.872428e+02 3.002232e+02 3.187477e+02 2.975811e+02 2.931188e+02 2.688133e+02 2.483396e+02 1.976984e+02 1.883581e+02 1.567490e+02 1.608973e+01 1.281061e+01 1.209880e+01 1.530956e+01 1.701871e+01 1.699401e+01 1.700544e+01 1.695725e+01 1.545665e+01 1.377801e+01 1.246021e+01 1.064510e+01 1.483226e+01
<GCONST> 1.473569e+02
<TRANSP> 5
 0.000000e+00 1.000000e+00 0.000000e+00 0.000000e+00 0.000000e+00
 0.000000e+00 6.000000e-01 4.000000e-01 0.000000e+00 0.000000e+00
 0.000000e+00 0.000000e+00 6.000000e-01 4.000000e-01 0.000000e+00
 0.000000e+00 0.000000e+00 0.000000e+00 7.000000e-01 3.000000e-01
 0.000000e+00 0.000000e+00 0.000000e+00 0.000000e+00 0.000000e+00
<ENDHMM>
~h "ao"
<BEGINHMM>
<NUMSTATES> 5
<STATE> 2
<MEAN> 25
 -7.058486e-08 2.489718e-08 -1.229799e-08 -8.680953e-08 5.766242e-08 4.071780e-08 -3.583607e-08 -1.153028e-08 3.397006e-08 1.212902e-07 2.771822e-08 1.059654e-07 5.401032e-04 1.880640e-03 -1.709414e-04 1.649692e-03 6.373423e-04 1.501366e-03 1.296647e-04 2.321990e-04 9.276945e-04 -7.022198e-04 -8.526447e-04 -2.070471e-04 -3.800282e-03
<VARIANCE> 25
 3.647618e+02 2.421758e+02 2.872428e+02 3.002232e+02 3.187477e+02 2.975811e+02 2.931188e+02 2.688133e+02 2.483396e+02 1.976984e+02 1.883581e+02 1.567490e+02 1.608973e+01 1.281061e+01 1.209880e+01 1.530956e+01 1.701871e+01 1.699401e+01 1.700544e+01 1.695725e+01 1.545665e+01 1.377801e+01 1.246021e+01 1.064510e+01 1.483226e+01
<GCONST> 1.473569e+02
<STATE> 3
<MEAN> 25
 -7.058486e-08 2.489718e-08 -1.229799e-08 -8.680953e-08 5.766242e-08 4.071780e-08 -3.583607e-08 -1.153028e-08 3.397006e-08 1.212902e-07 2.771822e-08 1.059654e-07 5.401032e-04 1.880640e-03 -1.709414e-04 1.649692e-03 6.373423e-04 1.501366e-03 1.296647e-04 2.321990e-04 9.276945e-04 -7.022198e-04 -8.526447e-04 -2.070471e-04 -3.800282e-03
<VARIANCE> 25
 3.647618e+02 2.421758e+02 2.872428e+02 3.002232e+02 3.187477e+02 2.975811e+02 2.931188e+02 2.688133e+02 2.483396e+02 1.976984e+02 1.883581e+02 1.567490e+02 1.608973e+01 1.281061e+01 1.209880e+01 1.530956e+01 1.701871e+01 1.699401e+01 1.700544e+01 1.695725e+01 1.545665e+01 1.377801e+01 1.246021e+01 1.064510e+01 1.483226e+01
<GCONST> 1.473569e+02
<STATE> 4
<MEAN> 25
 -7.058486e-08 2.489718e-08 -1.229799e-08 -8.680953e-08 5.766242e-08 4.071780e-08 -3.583607e-08 -1.153028e-08 3.397006e-08 1.212902e-07 2.771822e-08 1.059654e-07 5.401032e-04 1.880640e-03 -1.709414e-04 1.649692e-03 6.373423e-04 1.501366e-03 1.296647e-04 2.321990e-04 9.276945e-04 -7.022198e-04 -8.526447e-04 -2.070471e-04 -3.800282e-03
<VARIANCE> 25
 3.647618e+02 2.421758e+02 2.872428e+02 3.002232e+02 3.187477e+02 2.975811e+02 2.931188e+02 2.688133e+02 2.483396e+02 1.976984e+02 1.883581e+02 1.567490e+02 1.608973e+01 1.281061e+01 1.209880e+01 1.530956e+01 1.701871e+01 1.699401e+01 1.700544e+01 1.695725e+01 1.545665e+01 1.377801e+01 1.246021e+01 1.064510e+01 1.483226e+01
<GCONST> 1.473569e+02
<TRANSP> 5
 0.000000e+00 1.000000e+00 0.000000e+00 0.000000e+00 0.000000e+00
 0.000000e+00 6.000000e-01 4.000000e-01 0.000000e+00 0.000000e+00
 0.000000e+00 0.000000e+00 6.000000e-01 4.000000e-01 0.000000e+00
 0.000000e+00 0.000000e+00 0.000000e+00 7.000000e-01 3.000000e-01
 0.000000e+00 0.000000e+00 0.000000e+00 0.000000e+00 0.000000e+00
<ENDHMM>
~h "g"
<BEGINHMM>
<NUMSTATES> 5
<STATE> 2
<MEAN> 25
 -7.058486e-08 2.489718e-08 -1.229799e-08 -8.680953e-08 5.766242e-08 4.071780e-08 -3.583607e-08 -1.153028e-08 3.397006e-08 1.212902e-07 2.771822e-08 1.059654e-07 5.401032e-04 1.880640e-03 -1.709414e-04 1.649692e-03 6.373423e-04 1.501366e-03 1.296647e-04 2.321990e-04 9.276945e-04 -7.022198e-04 -8.526447e-04 -2.070471e-04 -3.800282e-03
<VARIANCE> 25
 3.647618e+02 2.421758e+02 2.872428e+02 3.002232e+02 3.187477e+02 2.975811e+02 2.931188e+02 2.688133e+02 2.483396e+02 1.976984e+02 1.883581e+02 1.567490e+02 1.608973e+01 1.281061e+01 1.209880e+01 1.530956e+01 1.701871e+01 1.699401e+01 1.700544e+01 1.695725e+01 1.545665e+01 1.377801e+01 1.246021e+01 1.064510e+01 1.483226e+01
<GCONST> 1.473569e+02
<STATE> 3
<MEAN> 25
 -7.058486e-08 2.489718e-08 -1.229799e-08 -8.680953e-08 5.766242e-08 4.071780e-08 -3.583607e-08 -1.153028e-08 3.397006e-08 1.212902e-07 2.771822e-08 1.059654e-07 5.401032e-04 1.880640e-03 -1.709414e-04 1.649692e-03 6.373423e-04 1.501366e-03 1.296647e-04 2.321990e-04 9.276945e-04 -7.022198e-04 -8.526447e-04 -2.070471e-04 -3.800282e-03
<VARIANCE> 25
 3.647618e+02 2.421758e+02 2.872428e+02 3.002232e+02 3.187477e+02 2.975811e+02 2.931188e+02 2.688133e+02 2.483396e+02 1.976984e+02 1.883581e+02 1.567490e+02 1.608973e+01 1.281061e+01 1.209880e+01 1.530956e+01 1.701871e+01 1.699401e+01 1.700544e+01 1.695725e+01 1.545665e+01 1.377801e+01 1.246021e+01 1.064510e+01 1.483226e+01
<GCONST> 1.473569e+02
<STATE> 4
<MEAN> 25
 -7.058486e-08 2.489718e-08 -1.229799e-08 -8.680953e-08 5.766242e-08 4.071780e-08 -3.583607e-08 -1.153028e-08 3.397006e-08 1.212902e-07 2.771822e-08 1.059654e-07 5.401032e-04 1.880640e-03 -1.709414e-04 1.649692e-03 6.373423e-04 1.501366e-03 1.296647e-04 2.321990e-04 9.276945e-04 -7.022198e-04 -8.526447e-04 -2.070471e-04 -3.800282e-03
<VARIANCE> 25
 3.647618e+02 2.421758e+02 2.872428e+02 3.002232e+02 3.187477e+02 2.975811e+02 2.931188e+02 2.688133e+02 2.483396e+02 1.976984e+02 1.883581e+02 1.567490e+02 1.608973e+01 1.281061e+01 1.209880e+01 1.530956e+01 1.701871e+01 1.699401e+01 1.700544e+01 1.695725e+01 1.545665e+01 1.377801e+01 1.246021e+01 1.064510e+01 1.483226e+01
<GCONST> 1.473569e+02
<TRANSP> 5
 0.000000e+00 1.000000e+00 0.000000e+00 0.000000e+00 0.000000e+00
 0.000000e+00 6.000000e-01 4.000000e-01 0.000000e+00 0.000000e+00
 0.000000e+00 0.000000e+00 6.000000e-01 4.000000e-01 0.000000e+00
 0.000000e+00 0.000000e+00 0.000000e+00 7.000000e-01 3.000000e-01
 0.000000e+00 0.000000e+00 0.000000e+00 0.000000e+00 0.000000e+00
<ENDHMM>
~h "jh"
<BEGINHMM>
<NUMSTATES> 5
<STATE> 2
<MEAN> 25
 -7.058486e-08 2.489718e-08 -1.229799e-08 -8.680953e-08 5.766242e-08 4.071780e-08 -3.583607e-08 -1.153028e-08 3.397006e-08 1.212902e-07 2.771822e-08 1.059654e-07 5.401032e-04 1.880640e-03 -1.709414e-04 1.649692e-03 6.373423e-04 1.501366e-03 1.296647e-04 2.321990e-04 9.276945e-04 -7.022198e-04 -8.526447e-04 -2.070471e-04 -3.800282e-03
<VARIANCE> 25
 3.647618e+02 2.421758e+02 2.872428e+02 3.002232e+02 3.187477e+02 2.975811e+02 2.931188e+02 2.688133e+02 2.483396e+02 1.976984e+02 1.883581e+02 1.567490e+02 1.608973e+01 1.281061e+01 1.209880e+01 1.530956e+01 1.701871e+01 1.699401e+01 1.700544e+01 1.695725e+01 1.545665e+01 1.377801e+01 1.246021e+01 1.064510e+01 1.483226e+01
<GCONST> 1.473569e+02
<STATE> 3
<MEAN> 25
 -7.058486e-08 2.489718e-08 -1.229799e-08 -8.680953e-08 5.766242e-08 4.071780e-08 -3.583607e-08 -1.153028e-08 3.397006e-08 1.212902e-07 2.771822e-08 1.059654e-07 5.401032e-04 1.880640e-03 -1.709414e-04 1.649692e-03 6.373423e-04 1.501366e-03 1.296647e-04 2.321990e-04 9.276945e-04 -7.022198e-04 -8.526447e-04 -2.070471e-04 -3.800282e-03
<VARIANCE> 25
 3.647618e+02 2.421758e+02 2.872428e+02 3.002232e+02 3.187477e+02 2.975811e+02 2.931188e+02 2.688133e+02 2.483396e+02 1.976984e+02 1.883581e+02 1.567490e+02 1.608973e+01 1.281061e+01 1.209880e+01 1.530956e+01 1.701871e+01 1.699401e+01 1.700544e+01 1.695725e+01 1.545665e+01 1.377801e+01 1.246021e+01 1.064510e+01 1.483226e+01
<GCONST> 1.473569e+02
<STATE> 4
<MEAN> 25
 -7.058486e-08 2.489718e-08 -1.229799e-08 -8.680953e-08 5.766242e-08 4.071780e-08 -3.583607e-08 -1.153028e-08 3.397006e-08 1.212902e-07 2.771822e-08 1.059654e-07 5.401032e-04 1.880640e-03 -1.709414e-04 1.649692e-03 6.373423e-04 1.501366e-03 1.296647e-04 2.321990e-04 9.276945e-04 -7.022198e-04 -8.526447e-04 -2.070471e-04 -3.800282e-03
<VARIANCE> 25
 3.647618e+02 2.421758e+02 2.872428e+02 3.002232e+02 3.187477e+02 2.975811e+02 2.931188e+02 2.688133e+02 2.483396e+02 1.976984e+02 1.883581e+02 1.567490e+02 1.608973e+01 1.281061e+01 1.209880e+01 1.530956e+01 1.701871e+01 1.699401e+01 1.700544e+01 1.695725e+01 1.545665e+01 1.377801e+01 1.246021e+01 1.064510e+01 1.483226e+01
<GCONST> 1.473569e+02
<TRANSP> 5
 0.000000e+00 1.000000e+00 0.000000e+00 0.000000e+00 0.000000e+00
 0.000000e+00 6.000000e-01 4.000000e-01 0.000000e+00 0.000000e+00
 0.000000e+00 0.000000e+00 6.000000e-01 4.000000e-01 0.000000e+00
 0.000000e+00 0.000000e+00 0.000000e+00 7.000000e-01 3.000000e-01
 0.000000e+00 0.000000e+00 0.000000e+00 0.000000e+00 0.000000e+00
<ENDHMM>
~h "hh"
<BEGINHMM>
<NUMSTATES> 5
<STATE> 2
<MEAN> 25
 -7.058486e-08 2.489718e-08 -1.229799e-08 -8.680953e-08 5.766242e-08 4.071780e-08 -3.583607e-08 -1.153028e-08 3.397006e-08 1.212902e-07 2.771822e-08 1.059654e-07 5.401032e-04 1.880640e-03 -1.709414e-04 1.649692e-03 6.373423e-04 1.501366e-03 1.296647e-04 2.321990e-04 9.276945e-04 -7.022198e-04 -8.526447e-04 -2.070471e-04 -3.800282e-03
<VARIANCE> 25
 3.647618e+02 2.421758e+02 2.872428e+02 3.002232e+02 3.187477e+02 2.975811e+02 2.931188e+02 2.688133e+02 2.483396e+02 1.976984e+02 1.883581e+02 1.567490e+02 1.608973e+01 1.281061e+01 1.209880e+01 1.530956e+01 1.701871e+01 1.699401e+01 1.700544e+01 1.695725e+01 1.545665e+01 1.377801e+01 1.246021e+01 1.064510e+01 1.483226e+01
<GCONST> 1.473569e+02
<STATE> 3
<MEAN> 25
 -7.058486e-08 2.489718e-08 -1.229799e-08 -8.680953e-08 5.766242e-08 4.071780e-08 -3.583607e-08 -1.153028e-08 3.397006e-08 1.212902e-07 2.771822e-08 1.059654e-07 5.401032e-04 1.880640e-03 -1.709414e-04 1.649692e-03 6.373423e-04 1.501366e-03 1.296647e-04 2.321990e-04 9.276945e-04 -7.022198e-04 -8.526447e-04 -2.070471e-04 -3.800282e-03
<VARIANCE> 25
 3.647618e+02 2.421758e+02 2.872428e+02 3.002232e+02 3.187477e+02 2.975811e+02 2.931188e+02 2.688133e+02 2.483396e+02 1.976984e+02 1.883581e+02 1.567490e+02 1.608973e+01 1.281061e+01 1.209880e+01 1.530956e+01 1.701871e+01 1.699401e+01 1.700544e+01 1.695725e+01 1.545665e+01 1.377801e+01 1.246021e+01 1.064510e+01 1.483226e+01
<GCONST> 1.473569e+02
<STATE> 4
<MEAN> 25
 -7.058486e-08 2.489718e-08 -1.229799e-08 -8.680953e-08 5.766242e-08 4.071780e-08 -3.583607e-08 -1.153028e-08 3.397006e-08 1.212902e-07 2.771822e-08 1.059654e-07 5.401032e-04 1.880640e-03 -1.709414e-04 1.649692e-03 6.373423e-04 1.501366e-03 1.296647e-04 2.321990e-04 9.276945e-04 -7.022198e-04 -8.526447e-04 -2.070471e-04 -3.800282e-03
<VARIANCE> 25
 3.647618e+02 2.421758e+02 2.872428e+02 3.002232e+02 3.187477e+02 2.975811e+02 2.931188e+02 2.688133e+02 2.483396e+02 1.976984e+02 1.883581e+02 1.567490e+02 1.608973e+01 1.281061e+01 1.209880e+01 1.530956e+01 1.701871e+01 1.699401e+01 1.700544e+01 1.695725e+01 1.545665e+01 1.377801e+01 1.246021e+01 1.064510e+01 1.483226e+01
<GCONST> 1.473569e+02
<TRANSP> 5
 0.000000e+00 1.000000e+00 0.000000e+00 0.000000e+00 0.000000e+00
 0.000000e+00 6.000000e-01 4.000000e-01 0.000000e+00 0.000000e+00
 0.000000e+00 0.000000e+00 6.000000e-01 4.000000e-01 0.000000e+00
 0.000000e+00 0.000000e+00 0.000000e+00 7.000000e-01 3.000000e-01
 0.000000e+00 0.000000e+00 0.000000e+00 0.000000e+00 0.000000e+00
<ENDHMM>
~h "ay"
<BEGINHMM>
<NUMSTATES> 5
<STATE> 2
<MEAN> 25
 -7.058486e-08 2.489718e-08 -1.229799e-08 -8.680953e-08 5.766242e-08 4.071780e-08 -3.583607e-08 -1.153028e-08 3.397006e-08 1.212902e-07 2.771822e-08 1.059654e-07 5.401032e-04 1.880640e-03 -1.709414e-04 1.649692e-03 6.373423e-04 1.501366e-03 1.296647e-04 2.321990e-04 9.276945e-04 -7.022198e-04 -8.526447e-04 -2.070471e-04 -3.800282e-03
<VARIANCE> 25
 3.647618e+02 2.421758e+02 2.872428e+02 3.002232e+02 3.187477e+02 2.975811e+02 2.931188e+02 2.688133e+02 2.483396e+02 1.976984e+02 1.883581e+02 1.567490e+02 1.608973e+01 1.281061e+01 1.209880e+01 1.530956e+01 1.701871e+01 1.699401e+01 1.700544e+01 1.695725e+01 1.545665e+01 1.377801e+01 1.246021e+01 1.064510e+01 1.483226e+01
<GCONST> 1.473569e+02
<STATE> 3
<MEAN> 25
 -7.058486e-08 2.489718e-08 -1.229799e-08 -8.680953e-08 5.766242e-08 4.071780e-08 -3.583607e-08 -1.153028e-08 3.397006e-08 1.212902e-07 2.771822e-08 1.059654e-07 5.401032e-04 1.880640e-03 -1.709414e-04 1.649692e-03 6.373423e-04 1.501366e-03 1.296647e-04 2.321990e-04 9.276945e-04 -7.022198e-04 -8.526447e-04 -2.070471e-04 -3.800282e-03
<VARIANCE> 25
 3.647618e+02 2.421758e+02 2.872428e+02 3.002232e+02 3.187477e+02 2.975811e+02 2.931188e+02 2.688133e+02 2.483396e+02 1.976984e+02 1.883581e+02 1.567490e+02 1.608973e+01 1.281061e+01 1.209880e+01 1.530956e+01 1.701871e+01 1.699401e+01 1.700544e+01 1.695725e+01 1.545665e+01 1.377801e+01 1.246021e+01 1.064510e+01 1.483226e+01
<GCONST> 1.473569e+02
<STATE> 4
<MEAN> 25
 -7.058486e-08 2.489718e-08 -1.229799e-08 -8.680953e-08 5.766242e-08 4.071780e-08 -3.583607e-08 -1.153028e-08 3.397006e-08 1.212902e-07 2.771822e-08 1.059654e-07 5.401032e-04 1.880640e-03 -1.709414e-04 1.649692e-03 6.373423e-04 1.501366e-03 1.296647e-04 2.321990e-04 9.276945e-04 -7.022198e-04 -8.526447e-04 -2.070471e-04 -3.800282e-03
<VARIANCE> 25
 3.647618e+02 2.421758e+02 2.872428e+02 3.002232e+02 3.187477e+02 2.975811e+02 2.931188e+02 2.688133e+02 2.483396e+02 1.976984e+02 1.883581e+02 1.567490e+02 1.608973e+01 1.281061e+01 1.209880e+01 1.530956e+01 1.701871e+01 1.699401e+01 1.700544e+01 1.695725e+01 1.545665e+01 1.377801e+01 1.246021e+01 1.064510e+01 1.483226e+01
<GCONST> 1.473569e+02
<TRANSP> 5
 0.000000e+00 1.000000e+00 0.000000e+00 0.000000e+00 0.000000e+00
 0.000000e+00 6.000000e-01 4.000000e-01 0.000000e+00 0.000000e+00
 0.000000e+00 0.000000e+00 6.000000e-01 4.000000e-01 0.000000e+00
 0.000000e+00 0.000000e+00 0.000000e+00 7.000000e-01 3.000000e-01
 0.000000e+00 0.000000e+00 0.000000e+00 0.000000e+00 0.000000e+00
<ENDHMM>
~h "ow"
<BEGINHMM>
<NUMSTATES> 5
<STATE> 2
<MEAN> 25
 -7.058486e-08 2.489718e-08 -1.229799e-08 -8.680953e-08 5.766242e-08 4.071780e-08 -3.583607e-08 -1.153028e-08 3.397006e-08 1.212902e-07 2.771822e-08 1.059654e-07 5.401032e-04 1.880640e-03 -1.709414e-04 1.649692e-03 6.373423e-04 1.501366e-03 1.296647e-04 2.321990e-04 9.276945e-04 -7.022198e-04 -8.526447e-04 -2.070471e-04 -3.800282e-03
<VARIANCE> 25
 3.647618e+02 2.421758e+02 2.872428e+02 3.002232e+02 3.187477e+02 2.975811e+02 2.931188e+02 2.688133e+02 2.483396e+02 1.976984e+02 1.883581e+02 1.567490e+02 1.608973e+01 1.281061e+01 1.209880e+01 1.530956e+01 1.701871e+01 1.699401e+01 1.700544e+01 1.695725e+01 1.545665e+01 1.377801e+01 1.246021e+01 1.064510e+01 1.483226e+01
<GCONST> 1.473569e+02
<STATE> 3
<MEAN> 25
 -7.058486e-08 2.489718e-08 -1.229799e-08 -8.680953e-08 5.766242e-08 4.071780e-08 -3.583607e-08 -1.153028e-08 3.397006e-08 1.212902e-07 2.771822e-08 1.059654e-07 5.401032e-04 1.880640e-03 -1.709414e-04 1.649692e-03 6.373423e-04 1.501366e-03 1.296647e-04 2.321990e-04 9.276945e-04 -7.022198e-04 -8.526447e-04 -2.070471e-04 -3.800282e-03
<VARIANCE> 25
 3.647618e+02 2.421758e+02 2.872428e+02 3.002232e+02 3.187477e+02 2.975811e+02 2.931188e+02 2.688133e+02 2.483396e+02 1.976984e+02 1.883581e+02 1.567490e+02 1.608973e+01 1.281061e+01 1.209880e+01 1.530956e+01 1.701871e+01 1.699401e+01 1.700544e+01 1.695725e+01 1.545665e+01 1.377801e+01 1.246021e+01 1.064510e+01 1.483226e+01
<GCONST> 1.473569e+02
<STATE> 4
<MEAN> 25
 -7.058486e-08 2.489718e-08 -1.229799e-08 -8.680953e-08 5.766242e-08 4.071780e-08 -3.583607e-08 -1.153028e-08 3.397006e-08 1.212902e-07 2.771822e-08 1.059654e-07 5.401032e-04 1.880640e-03 -1.709414e-04 1.649692e-03 6.373423e-04 1.501366e-03 1.296647e-04 2.321990e-04 9.276945e-04 -7.022198e-04 -8.526447e-04 -2.070471e-04 -3.800282e-03
<VARIANCE> 25
 3.647618e+02 2.421758e+02 2.872428e+02 3.002232e+02 3.187477e+02 2.975811e+02 2.931188e+02 2.688133e+02 2.483396e+02 1.976984e+02 1.883581e+02 1.567490e+02 1.608973e+01 1.281061e+01 1.209880e+01 1.530956e+01 1.701871e+01 1.699401e+01 1.700544e+01 1.695725e+01 1.545665e+01 1.377801e+01 1.246021e+01 1.064510e+01 1.483226e+01
<GCONST> 1.473569e+02
<TRANSP> 5
 0.000000e+00 1.000000e+00 0.000000e+00 0.000000e+00 0.000000e+00
 0.000000e+00 6.000000e-01 4.000000e-01 0.000000e+00 0.000000e+00
 0.000000e+00 0.000000e+00 6.000000e-01 4.000000e-01 0.000000e+00
 0.000000e+00 0.000000e+00 0.000000e+00 7.000000e-01 3.000000e-01
 0.000000e+00 0.000000e+00 0.000000e+00 0.000000e+00 0.000000e+00
<ENDHMM>
~h "dh"
<BEGINHMM>
<NUMSTATES> 5
<STATE> 2
<MEAN> 25
 -7.058486e-08 2.489718e-08 -1.229799e-08 -8.680953e-08 5.766242e-08 4.071780e-08 -3.583607e-08 -1.153028e-08 3.397006e-08 1.212902e-07 2.771822e-08 1.059654e-07 5.401032e-04 1.880640e-03 -1.709414e-04 1.649692e-03 6.373423e-04 1.501366e-03 1.296647e-04 2.321990e-04 9.276945e-04 -7.022198e-04 -8.526447e-04 -2.070471e-04 -3.800282e-03
<VARIANCE> 25
 3.647618e+02 2.421758e+02 2.872428e+02 3.002232e+02 3.187477e+02 2.975811e+02 2.931188e+02 2.688133e+02 2.483396e+02 1.976984e+02 1.883581e+02 1.567490e+02 1.608973e+01 1.281061e+01 1.209880e+01 1.530956e+01 1.701871e+01 1.699401e+01 1.700544e+01 1.695725e+01 1.545665e+01 1.377801e+01 1.246021e+01 1.064510e+01 1.483226e+01
<GCONST> 1.473569e+02
<STATE> 3
<MEAN> 25
 -7.058486e-08 2.489718e-08 -1.229799e-08 -8.680953e-08 5.766242e-08 4.071780e-08 -3.583607e-08 -1.153028e-08 3.397006e-08 1.212902e-07 2.771822e-08 1.059654e-07 5.401032e-04 1.880640e-03 -1.709414e-04 1.649692e-03 6.373423e-04 1.501366e-03 1.296647e-04 2.321990e-04 9.276945e-04 -7.022198e-04 -8.526447e-04 -2.070471e-04 -3.800282e-03
<VARIANCE> 25
 3.647618e+02 2.421758e+02 2.872428e+02 3.002232e+02 3.187477e+02 2.975811e+02 2.931188e+02 2.688133e+02 2.483396e+02 1.976984e+02 1.883581e+02 1.567490e+02 1.608973e+01 1.281061e+01 1.209880e+01 1.530956e+01 1.701871e+01 1.699401e+01 1.700544e+01 1.695725e+01 1.545665e+01 1.377801e+01 1.246021e+01 1.064510e+01 1.483226e+01
<GCONST> 1.473569e+02
<STATE> 4
<MEAN> 25
 -7.058486e-08 2.489718e-08 -1.229799e-08 -8.680953e-08 5.766242e-08 4.071780e-08 -3.583607e-08 -1.153028e-08 3.397006e-08 1.212902e-07 2.771822e-08 1.059654e-07 5.401032e-04 1.880640e-03 -1.709414e-04 1.649692e-03 6.373423e-04 1.501366e-03 1.296647e-04 2.321990e-04 9.276945e-04 -7.022198e-04 -8.526447e-04 -2.070471e-04 -3.800282e-03
<VARIANCE> 25
 3.647618e+02 2.421758e+02 2.872428e+02 3.002232e+02 3.187477e+02 2.975811e+02 2.931188e+02 2.688133e+02 2.483396e+02 1.976984e+02 1.883581e+02 1.567490e+02 1.608973e+01 1.281061e+01 1.209880e+01 1.530956e+01 1.701871e+01 1.699401e+01 1.700544e+01 1.695725e+01 1.545665e+01 1.377801e+01 1.246021e+01 1.064510e+01 1.483226e+01
<GCONST> 1.473569e+02
<TRANSP> 5
 0.000000e+00 1.000000e+00 0.000000e+00 0.000000e+00 0.000000e+00
 0.000000e+00 6.000000e-01 4.000000e-01 0.000000e+00 0.000000e+00
 0.000000e+00 0.000000e+00 6.000000e-01 4.000000e-01 0.000000e+00
 0.000000e+00 0.000000e+00 0.000000e+00 7.000000e-01 3.000000e-01
 0.000000e+00 0.000000e+00 0.000000e+00 0.000000e+00 0.000000e+00
<ENDHMM>
~h "th"
<BEGINHMM>
<NUMSTATES> 5
<STATE> 2
<MEAN> 25
 -7.058486e-08 2.489718e-08 -1.229799e-08 -8.680953e-08 5.766242e-08 4.071780e-08 -3.583607e-08 -1.153028e-08 3.397006e-08 1.212902e-07 2.771822e-08 1.059654e-07 5.401032e-04 1.880640e-03 -1.709414e-04 1.649692e-03 6.373423e-04 1.501366e-03 1.296647e-04 2.321990e-04 9.276945e-04 -7.022198e-04 -8.526447e-04 -2.070471e-04 -3.800282e-03
<VARIANCE> 25
 3.647618e+02 2.421758e+02 2.872428e+02 3.002232e+02 3.187477e+02 2.975811e+02 2.931188e+02 2.688133e+02 2.483396e+02 1.976984e+02 1.883581e+02 1.567490e+02 1.608973e+01 1.281061e+01 1.209880e+01 1.530956e+01 1.701871e+01 1.699401e+01 1.700544e+01 1.695725e+01 1.545665e+01 1.377801e+01 1.246021e+01 1.064510e+01 1.483226e+01
<GCONST> 1.473569e+02
<STATE> 3
<MEAN> 25
 -7.058486e-08 2.489718e-08 -1.229799e-08 -8.680953e-08 5.766242e-08 4.071780e-08 -3.583607e-08 -1.153028e-08 3.397006e-08 1.212902e-07 2.771822e-08 1.059654e-07 5.401032e-04 1.880640e-03 -1.709414e-04 1.649692e-03 6.373423e-04 1.501366e-03 1.296647e-04 2.321990e-04 9.276945e-04 -7.022198e-04 -8.526447e-04 -2.070471e-04 -3.800282e-03
<VARIANCE> 25
 3.647618e+02 2.421758e+02 2.872428e+02 3.002232e+02 3.187477e+02 2.975811e+02 2.931188e+02 2.688133e+02 2.483396e+02 1.976984e+02 1.883581e+02 1.567490e+02 1.608973e+01 1.281061e+01 1.209880e+01 1.530956e+01 1.701871e+01 1.699401e+01 1.700544e+01 1.695725e+01 1.545665e+01 1.377801e+01 1.246021e+01 1.064510e+01 1.483226e+01
<GCONST> 1.473569e+02
<STATE> 4
<MEAN> 25
 -7.058486e-08 2.489718e-08 -1.229799e-08 -8.680953e-08 5.766242e-08 4.071780e-08 -3.583607e-08 -1.153028e-08 3.397006e-08 1.212902e-07 2.771822e-08 1.059654e-07 5.401032e-04 1.880640e-03 -1.709414e-04 1.649692e-03 6.373423e-04 1.501366e-03 1.296647e-04 2.321990e-04 9.276945e-04 -7.022198e-04 -8.526447e-04 -2.070471e-04 -3.800282e-03
<VARIANCE> 25
 3.647618e+02 2.421758e+02 2.872428e+02 3.002232e+02 3.187477e+02 2.975811e+02 2.931188e+02 2.688133e+02 2.483396e+02 1.976984e+02 1.883581e+02 1.567490e+02 1.608973e+01 1.281061e+01 1.209880e+01 1.530956e+01 1.701871e+01 1.699401e+01 1.700544e+01 1.695725e+01 1.545665e+01 1.377801e+01 1.246021e+01 1.064510e+01 1.483226e+01
<GCONST> 1.473569e+02
<TRANSP> 5
 0.000000e+00 1.000000e+00 0.000000e+00 0.000000e+00 0.000000e+00
 0.000000e+00 6.000000e-01 4.000000e-01 0.000000e+00 0.000000e+00
 0.000000e+00 0.000000e+00 6.000000e-01 4.000000e-01 0.000000e+00
 0.000000e+00 0.000000e+00 0.000000e+00 7.000000e-01 3.000000e-01
 0.000000e+00 0.000000e+00 0.000000e+00 0.000000e+00 0.000000e+00
<ENDHMM>
~h "uh"
<BEGINHMM>
<NUMSTATES> 5
<STATE> 2
<MEAN> 25
 -7.058486e-08 2.489718e-08 -1.229799e-08 -8.680953e-08 5.766242e-08 4.071780e-08 -3.583607e-08 -1.153028e-08 3.397006e-08 1.212902e-07 2.771822e-08 1.059654e-07 5.401032e-04 1.880640e-03 -1.709414e-04 1.649692e-03 6.373423e-04 1.501366e-03 1.296647e-04 2.321990e-04 9.276945e-04 -7.022198e-04 -8.526447e-04 -2.070471e-04 -3.800282e-03
<VARIANCE> 25
 3.647618e+02 2.421758e+02 2.872428e+02 3.002232e+02 3.187477e+02 2.975811e+02 2.931188e+02 2.688133e+02 2.483396e+02 1.976984e+02 1.883581e+02 1.567490e+02 1.608973e+01 1.281061e+01 1.209880e+01 1.530956e+01 1.701871e+01 1.699401e+01 1.700544e+01 1.695725e+01 1.545665e+01 1.377801e+01 1.246021e+01 1.064510e+01 1.483226e+01
<GCONST> 1.473569e+02
<STATE> 3
<MEAN> 25
 -7.058486e-08 2.489718e-08 -1.229799e-08 -8.680953e-08 5.766242e-08 4.071780e-08 -3.583607e-08 -1.153028e-08 3.397006e-08 1.212902e-07 2.771822e-08 1.059654e-07 5.401032e-04 1.880640e-03 -1.709414e-04 1.649692e-03 6.373423e-04 1.501366e-03 1.296647e-04 2.321990e-04 9.276945e-04 -7.022198e-04 -8.526447e-04 -2.070471e-04 -3.800282e-03
<VARIANCE> 25
 3.647618e+02 2.421758e+02 2.872428e+02 3.002232e+02 3.187477e+02 2.975811e+02 2.931188e+02 2.688133e+02 2.483396e+02 1.976984e+02 1.883581e+02 1.567490e+02 1.608973e+01 1.281061e+01 1.209880e+01 1.530956e+01 1.701871e+01 1.699401e+01 1.700544e+01 1.695725e+01 1.545665e+01 1.377801e+01 1.246021e+01 1.064510e+01 1.483226e+01
<GCONST> 1.473569e+02
<STATE> 4
<MEAN> 25
 -7.058486e-08 2.489718e-08 -1.229799e-08 -8.680953e-08 5.766242e-08 4.071780e-08 -3.583607e-08 -1.153028e-08 3.397006e-08 1.212902e-07 2.771822e-08 1.059654e-07 5.401032e-04 1.880640e-03 -1.709414e-04 1.649692e-03 6.373423e-04 1.501366e-03 1.296647e-04 2.321990e-04 9.276945e-04 -7.022198e-04 -8.526447e-04 -2.070471e-04 -3.800282e-03
<VARIANCE> 25
 3.647618e+02 2.421758e+02 2.872428e+02 3.002232e+02 3.187477e+02 2.975811e+02 2.931188e+02 2.688133e+02 2.483396e+02 1.976984e+02 1.883581e+02 1.567490e+02 1.608973e+01 1.281061e+01 1.209880e+01 1.530956e+01 1.701871e+01 1.699401e+01 1.700544e+01 1.695725e+01 1.545665e+01 1.377801e+01 1.246021e+01 1.064510e+01 1.483226e+01
<GCONST> 1.473569e+02
<TRANSP> 5
 0.000000e+00 1.000000e+00 0.000000e+00 0.000000e+00 0.000000e+00
 0.000000e+00 6.000000e-01 4.000000e-01 0.000000e+00 0.000000e+00
 0.000000e+00 0.000000e+00 6.000000e-01 4.000000e-01 0.000000e+00
 0.000000e+00 0.000000e+00 0.000000e+00 7.000000e-01 3.000000e-01
 0.000000e+00 0.000000e+00 0.000000e+00 0.000000e+00 0.000000e+00
<ENDHMM>
~h "w"
<BEGINHMM>
<NUMSTATES> 5
<STATE> 2
<MEAN> 25
 -7.058486e-08 2.489718e-08 -1.229799e-08 -8.680953e-08 5.766242e-08 4.071780e-08 -3.583607e-08 -1.153028e-08 3.397006e-08 1.212902e-07 2.771822e-08 1.059654e-07 5.401032e-04 1.880640e-03 -1.709414e-04 1.649692e-03 6.373423e-04 1.501366e-03 1.296647e-04 2.321990e-04 9.276945e-04 -7.022198e-04 -8.526447e-04 -2.070471e-04 -3.800282e-03
<VARIANCE> 25
 3.647618e+02 2.421758e+02 2.872428e+02 3.002232e+02 3.187477e+02 2.975811e+02 2.931188e+02 2.688133e+02 2.483396e+02 1.976984e+02 1.883581e+02 1.567490e+02 1.608973e+01 1.281061e+01 1.209880e+01 1.530956e+01 1.701871e+01 1.699401e+01 1.700544e+01 1.695725e+01 1.545665e+01 1.377801e+01 1.246021e+01 1.064510e+01 1.483226e+01
<GCONST> 1.473569e+02
<STATE> 3
<MEAN> 25
 -7.058486e-08 2.489718e-08 -1.229799e-08 -8.680953e-08 5.766242e-08 4.071780e-08 -3.583607e-08 -1.153028e-08 3.397006e-08 1.212902e-07 2.771822e-08 1.059654e-07 5.401032e-04 1.880640e-03 -1.709414e-04 1.649692e-03 6.373423e-04 1.501366e-03 1.296647e-04 2.321990e-04 9.276945e-04 -7.022198e-04 -8.526447e-04 -2.070471e-04 -3.800282e-03
<VARIANCE> 25
 3.647618e+02 2.421758e+02 2.872428e+02 3.002232e+02 3.187477e+02 2.975811e+02 2.931188e+02 2.688133e+02 2.483396e+02 1.976984e+02 1.883581e+02 1.567490e+02 1.608973e+01 1.281061e+01 1.209880e+01 1.530956e+01 1.701871e+01 1.699401e+01 1.700544e+01 1.695725e+01 1.545665e+01 1.377801e+01 1.246021e+01 1.064510e+01 1.483226e+01
<GCONST> 1.473569e+02
<STATE> 4
<MEAN> 25
 -7.058486e-08 2.489718e-08 -1.229799e-08 -8.680953e-08 5.766242e-08 4.071780e-08 -3.583607e-08 -1.153028e-08 3.397006e-08 1.212902e-07 2.771822e-08 1.059654e-07 5.401032e-04 1.880640e-03 -1.709414e-04 1.649692e-03 6.373423e-04 1.501366e-03 1.296647e-04 2.321990e-04 9.276945e-04 -7.022198e-04 -8.526447e-04 -2.070471e-04 -3.800282e-03
<VARIANCE> 25
 3.647618e+02 2.421758e+02 2.872428e+02 3.002232e+02 3.187477e+02 2.975811e+02 2.931188e+02 2.688133e+02 2.483396e+02 1.976984e+02 1.883581e+02 1.567490e+02 1.608973e+01 1.281061e+01 1.209880e+01 1.530956e+01 1.701871e+01 1.699401e+01 1.700544e+01 1.695725e+01 1.545665e+01 1.377801e+01 1.246021e+01 1.064510e+01 1.483226e+01
<GCONST> 1.473569e+02
<TRANSP> 5
 0.000000e+00 1.000000e+00 0.000000e+00 0.000000e+00 0.000000e+00
 0.000000e+00 6.000000e-01 4.000000e-01 0.000000e+00 0.000000e+00
 0.000000e+00 0.000000e+00 6.000000e-01 4.000000e-01 0.000000e+00
 0.000000e+00 0.000000e+00 0.000000e+00 7.000000e-01 3.000000e-01
 0.000000e+00 0.000000e+00 0.000000e+00 0.000000e+00 0.000000e+00
<ENDHMM>
~h "zh"
<BEGINHMM>
<NUMSTATES> 5
<STATE> 2
<MEAN> 25
 -7.058486e-08 2.489718e-08 -1.229799e-08 -8.680953e-08 5.766242e-08 4.071780e-08 -3.583607e-08 -1.153028e-08 3.397006e-08 1.212902e-07 2.771822e-08 1.059654e-07 5.401032e-04 1.880640e-03 -1.709414e-04 1.649692e-03 6.373423e-04 1.501366e-03 1.296647e-04 2.321990e-04 9.276945e-04 -7.022198e-04 -8.526447e-04 -2.070471e-04 -3.800282e-03
<VARIANCE> 25
 3.647618e+02 2.421758e+02 2.872428e+02 3.002232e+02 3.187477e+02 2.975811e+02 2.931188e+02 2.688133e+02 2.483396e+02 1.976984e+02 1.883581e+02 1.567490e+02 1.608973e+01 1.281061e+01 1.209880e+01 1.530956e+01 1.701871e+01 1.699401e+01 1.700544e+01 1.695725e+01 1.545665e+01 1.377801e+01 1.246021e+01 1.064510e+01 1.483226e+01
<GCONST> 1.473569e+02
<STATE> 3
<MEAN> 25
 -7.058486e-08 2.489718e-08 -1.229799e-08 -8.680953e-08 5.766242e-08 4.071780e-08 -3.583607e-08 -1.153028e-08 3.397006e-08 1.212902e-07 2.771822e-08 1.059654e-07 5.401032e-04 1.880640e-03 -1.709414e-04 1.649692e-03 6.373423e-04 1.501366e-03 1.296647e-04 2.321990e-04 9.276945e-04 -7.022198e-04 -8.526447e-04 -2.070471e-04 -3.800282e-03
<VARIANCE> 25
 3.647618e+02 2.421758e+02 2.872428e+02 3.002232e+02 3.187477e+02 2.975811e+02 2.931188e+02 2.688133e+02 2.483396e+02 1.976984e+02 1.883581e+02 1.567490e+02 1.608973e+01 1.281061e+01 1.209880e+01 1.530956e+01 1.701871e+01 1.699401e+01 1.700544e+01 1.695725e+01 1.545665e+01 1.377801e+01 1.246021e+01 1.064510e+01 1.483226e+01
<GCONST> 1.473569e+02
<STATE> 4
<MEAN> 25
 -7.058486e-08 2.489718e-08 -1.229799e-08 -8.680953e-08 5.766242e-08 4.071780e-08 -3.583607e-08 -1.153028e-08 3.397006e-08 1.212902e-07 2.771822e-08 1.059654e-07 5.401032e-04 1.880640e-03 -1.709414e-04 1.649692e-03 6.373423e-04 1.501366e-03 1.296647e-04 2.321990e-04 9.276945e-04 -7.022198e-04 -8.526447e-04 -2.070471e-04 -3.800282e-03
<VARIANCE> 25
 3.647618e+02 2.421758e+02 2.872428e+02 3.002232e+02 3.187477e+02 2.975811e+02 2.931188e+02 2.688133e+02 2.483396e+02 1.976984e+02 1.883581e+02 1.567490e+02 1.608973e+01 1.281061e+01 1.209880e+01 1.530956e+01 1.701871e+01 1.699401e+01 1.700544e+01 1.695725e+01 1.545665e+01 1.377801e+01 1.246021e+01 1.064510e+01 1.483226e+01
<GCONST> 1.473569e+02
<TRANSP> 5
 0.000000e+00 1.000000e+00 0.000000e+00 0.000000e+00 0.000000e+00
 0.000000e+00 6.000000e-01 4.000000e-01 0.000000e+00 0.000000e+00
 0.000000e+00 0.000000e+00 6.000000e-01 4.000000e-01 0.000000e+00
 0.000000e+00 0.000000e+00 0.000000e+00 7.000000e-01 3.000000e-01
 0.000000e+00 0.000000e+00 0.000000e+00 0.000000e+00 0.000000e+00
<ENDHMM>
~h "oy"
<BEGINHMM>
<NUMSTATES> 5
<STATE> 2
<MEAN> 25
 -7.058486e-08 2.489718e-08 -1.229799e-08 -8.680953e-08 5.766242e-08 4.071780e-08 -3.583607e-08 -1.153028e-08 3.397006e-08 1.212902e-07 2.771822e-08 1.059654e-07 5.401032e-04 1.880640e-03 -1.709414e-04 1.649692e-03 6.373423e-04 1.501366e-03 1.296647e-04 2.321990e-04 9.276945e-04 -7.022198e-04 -8.526447e-04 -2.070471e-04 -3.800282e-03
<VARIANCE> 25
 3.647618e+02 2.421758e+02 2.872428e+02 3.002232e+02 3.187477e+02 2.975811e+02 2.931188e+02 2.688133e+02 2.483396e+02 1.976984e+02 1.883581e+02 1.567490e+02 1.608973e+01 1.281061e+01 1.209880e+01 1.530956e+01 1.701871e+01 1.699401e+01 1.700544e+01 1.695725e+01 1.545665e+01 1.377801e+01 1.246021e+01 1.064510e+01 1.483226e+01
<GCONST> 1.473569e+02
<STATE> 3
<MEAN> 25
