~o
<STREAMINFO> 1 25
<VECSIZE> 25<NULLD><MFCC_D_N_Z_0><DIAGC>
~s "silst"
<MEAN> 25
 -4.047405e+00 -1.899996e-01 -8.066347e-01 4.172925e+00 5.678494e+00 3.949110e+00 4.838430e+00 3.218697e+00 3.082366e+00 2.173782e+00 2.792015e+00 2.622018e+00 -6.600724e-03 7.517494e-03 -1.405377e-02 3.897905e-03 1.512108e-02 5.677348e-02 1.538946e-02 -1.484261e-02 1.320324e-02 2.830597e-02 2.328713e-02 6.043803e-04 -5.319181e-02
<VARIANCE> 25
 1.562503e+01 2.290723e+01 1.641054e+01 1.824853e+01 2.009801e+01 2.530969e+01 2.532923e+01 2.802450e+01 2.687011e+01 2.367234e+01 2.370697e+01 1.713325e+01 2.213508e-01 4.561118e-01 5.631233e-01 7.652999e-01 9.816989e-01 1.231220e+00 1.345850e+00 1.459532e+00 1.498961e+00 1.496532e+00 1.418652e+00 1.315915e+00 2.021632e-01
<GCONST> 8.035162e+01
~h "b"
<BEGINHMM>
<NUMSTATES> 5
<STATE> 2
<MEAN> 25
 4.382889e+00 7.764921e+00 3.486660e+00 6.252139e+00 5.038086e+00 7.593844e-01 7.808350e-01 -3.047376e+00 -8.083290e-01 -1.480118e-01 -1.276459e+00 -1.794519e+00 -7.271973e-01 1.272876e-01 1.719904e-01 3.996156e-01 6.891063e-01 3.221620e-01 5.926448e-01 1.962894e-01 2.153739e-01 -2.255224e-02 7.636179e-02 2.670310e-01 -4.375879e-01
<VARIANCE> 25
 5.166391e+01 3.572024e+01 2.638698e+01 3.065244e+01 3.154943e+01 4.861449e+01 5.098405e+01 3.134770e+01 4.514467e+01 3.881357e+01 3.724283e+01 3.272467e+01 2.612284e+00 4.065889e+00 2.418177e+00 3.200995e+00 3.571513e+00 3.550067e+00 3.583397e+00 3.199290e+00 3.273314e+00 3.148046e+00 2.565690e+00 2.736763e+00 5.517571e+00
<GCONST> 1.048274e+02
<STATE> 3
<MEAN> 25
 5.906327e-01 3.603491e+00 2.329853e+00 5.035172e+00 5.356932e+00 2.009273e+00 1.586028e+00 -1.632506e+00 1.032714e+00 7.724649e-01 3.313543e-01 -1.455364e-01 -1.182661e-01 -2.224410e+00 -7.929102e-01 -2.083523e+00 -1.737340e+00 -1.264997e+00 -1.111012e+00 -2.107232e-01 5.689225e-01 2.363958e-01 1.181241e-01 2.306980e-01 4.626648e+00
<VARIANCE> 25
 2.955429e+01 3.376162e+01 2.309406e+01 3.049179e+01 2.182109e+01 3.676379e+01 3.725367e+01 3.288863e+01 3.337229e+01 3.216153e+01 2.718983e+01 2.429378e+01 5.371611e+00 3.883928e+00 5.507861e+00 5.441896e+00 4.286743e+00 6.253454e+00 4.756468e+00 4.930492e+00 4.844923e+00 4.914624e+00 3.833453e+00 3.758354e+00 5.501094e+00
<GCONST> 1.071041e+02
<STATE> 4
<MEAN> 25
 2.082499e+00 -4.661898e-01 1.237905e-01 9.542918e-02 2.336925e-01 -2.303844e+00 -2.156948e+00 -3.167994e+00 1.414327e+00 5.380680e-01 2.971810e-01 -3.094319e-01 1.182802e+00 -2.024364e+00 -7.308779e-01 -2.895602e+00 -2.746624e+00 -9.540004e-01 -1.497736e+00 3.234186e-02 -3.641830e-02 -1.254414e-01 2.207719e-03 -3.253856e-01 4.386108e+00
<VARIANCE> 25
 3.313009e+01 2.501602e+01 4.628616e+01 4.932479e+01 2.856268e+01 5.398674e+01 3.940893e+01 3.749866e+01 3.867542e+01 3.399894e+01 3.157611e+01 2.883713e+01 5.926301e+00 5.369309e+00 9.562040e+00 7.479360e+00 6.462801e+00 8.138945e+00 6.037748e+00 5.686244e+00 6.505749e+00 6.304275e+00 5.977065e+00 4.981225e+00 5.208423e+00
<GCONST> 1.130215e+02
<TRANSP> 5
 0.000000e+00 1.000000e+00 0.000000e+00 0.000000e+00 0.000000e+00
 0.000000e+00 6.600919e-01 3.399080e-01 0.000000e+00 0.000000e+00
 0.000000e+00 0.000000e+00 3.389693e-01 6.610307e-01 0.000000e+00
 0.000000e+00 0.000000e+00 0.000000e+00 1.005298e-01 8.994702e-01
 0.000000e+00 0.000000e+00 0.000000e+00 0.000000e+00 0.000000e+00
<ENDHMM>
~h "d"
<BEGINHMM>
<NUMSTATES> 5
<STATE> 2
<MEAN> 25
 6.462386e+00 4.034899e+00 7.199919e+00 5.994034e+00 -3.309916e+00 -4.116628e+00 -2.683598e+00 -2.271495e+00 -2.109002e+00 -2.455479e+00 -2.713934e+00 -9.146973e-01 -5.075969e-01 1.367855e+00 1.934964e-01 1.081186e+00 2.048107e+00 1.052704e+00 7.751114e-01 -5.093761e-02 3.224137e-01 -2.061196e-01 -1.251319e-01 -4.373074e-01 -2.251917e+00
<VARIANCE> 25
 1.935386e+01 4.451107e+01 3.688205e+01 4.618395e+01 5.133456e+01 4.516938e+01 4.240560e+01 4.120855e+01 4.624460e+01 3.805505e+01 3.242539e+01 3.409396e+01 2.636530e+00 4.234314e+00 2.877319e+00 4.008823e+00 4.117716e+00 4.350193e+00 4.049229e+00 4.202194e+00 4.036647e+00 3.402519e+00 3.298522e+00 2.980525e+00 4.334286e+00
<GCONST> 1.067914e+02
<STATE> 3
<MEAN> 25
 3.494248e+00 6.388233e+00 5.840151e+00 6.454595e+00 2.386063e+00 1.558819e-02 -9.479629e-02 -2.836464e+00 -2.330630e+00 -2.190883e+00 -2.331027e+00 -1.491310e+00 -2.155218e+00 -1.137519e+00 -6.196958e-01 -9.599662e-01 8.878294e-01 6.828797e-01 7.156343e-01 5.833362e-01 7.216439e-01 5.104783e-01 9.132990e-01 6.057265e-01 7.790340e-01
<VARIANCE> 25
 2.631679e+01 3.648439e+01 3.588242e+01 3.847382e+01 3.757202e+01 4.130394e+01 3.536086e+01 3.577263e+01 3.778283e+01 3.072187e+01 2.681936e+01 2.806893e+01 3.667229e+00 4.419045e+00 3.454947e+00 5.067612e+00 4.509245e+00 4.930842e+00 4.178314e+00 4.813072e+00 5.114016e+00 4.206958e+00 3.388213e+00 3.198235e+00 5.217551e+00
<GCONST> 1.070694e+02
<STATE> 4
<MEAN> 25
 -3.233130e+00 8.818609e-01 3.701369e+00 2.080870e+00 9.561633e-01 1.923943e-01 2.924424e+00 1.432250e-01 1.795072e+00 7.754070e-01 1.329999e+00 1.791534e+00 -7.538140e-01 -6.445007e-01 -2.983374e-01 -6.425070e-01 -5.841211e-01 -4.416850e-01 -3.869252e-02 3.813941e-01 3.379377e-01 2.853517e-01 3.822387e-01 2.950282e-01 1.014708e+00
<VARIANCE> 25
 5.025973e+01 4.739506e+01 4.248813e+01 4.476468e+01 6.037339e+01 5.399102e+01 5.624958e+01 5.343984e+01 4.949867e+01 4.228854e+01 3.455033e+01 3.024556e+01 5.283860e+00 4.111428e+00 3.505728e+00 4.717550e+00 5.890074e+00 5.865493e+00 4.885942e+00 4.752003e+00 4.720215e+00 4.015788e+00 3.403047e+00 2.992794e+00 7.976660e+00
<GCONST> 1.118801e+02
<TRANSP> 5
 0.000000e+00 1.000000e+00 0.000000e+00 0.000000e+00 0.000000e+00
 0.000000e+00 5.254086e-01 4.745914e-01 0.000000e+00 0.000000e+00
 0.000000e+00 0.000000e+00 3.076864e-01 6.923136e-01 0.000000e+00
 0.000000e+00 0.000000e+00 0.000000e+00 6.105160e-01 3.894840e-01
 0.000000e+00 0.000000e+00 0.000000e+00 0.000000e+00 0.000000e+00
<ENDHMM>
~h "f"
<BEGINHMM>
<NUMSTATES> 5
<STATE> 2
<MEAN> 25
 -6.592773e+00 2.118717e+00 -5.140543e-01 5.190202e+00 3.231254e+00 2.007934e+00 1.996195e+00 4.137873e-01 1.913794e+00 8.110005e-01 3.598036e-01 9.925287e-01 -3.007497e+00 -1.316699e-02 -2.734461e-01 8.261933e-01 5.371973e-01 4.805679e-01 7.054904e-01 9.460205e-01 9.250686e-01 7.179415e-01 7.590460e-01 8.766925e-01 -7.537645e-01
<VARIANCE> 25
 4.818586e+01 2.518578e+01 3.690909e+01 2.843322e+01 4.302933e+01 4.351717e+01 3.768674e+01 3.588109e+01 3.079396e+01 3.401480e+01 3.063124e+01 2.763151e+01 4.117793e+00 3.027163e+00 3.016435e+00 3.499835e+00 3.957073e+00 3.643366e+00 3.837332e+00 3.763141e+00 3.516635e+00 3.623672e+00 2.616375e+00 2.871238e+00 1.991361e+00
<GCONST> 1.039125e+02
<STATE> 3
<MEAN> 25
 -1.262469e+01 -1.123980e+00 -3.636019e+00 4.259071e+00 2.819903e+00 1.864401e+00 2.328779e+00 2.847040e+00 3.700373e+00 3.089628e+00 2.427685e+00 2.987717e+00 -9.013033e-02 -3.074643e-01 -1.860113e-01 -1.418433e-01 4.816234e-02 8.012557e-02 7.817309e-02 -5.310374e-02 -2.831037e-02 1.708493e-02 4.382855e-02 1.355467e-02 5.517187e-02
<VARIANCE> 25
 2.245743e+01 3.412446e+01 2.328864e+01 2.433366e+01 2.090761e+01 3.428828e+01 2.469345e+01 2.342482e+01 3.215077e+01 2.807328e+01 2.050158e+01 2.023571e+01 1.547924e+00 9.621336e-01 1.151366e+00 1.297338e+00 1.469048e+00 1.733155e+00 1.607533e+00 1.693947e+00 1.858853e+00 1.780306e+00 1.373731e+00 1.403975e+00 1.145749e+00
<GCONST> 8.942235e+01
<STATE> 4
<MEAN> 25
 -9.113019e+00 -1.104590e+00 -2.796311e+00 3.871830e+00 2.867336e+00 1.876401e+00 3.603840e+00 1.220255e+00 2.873682e+00 1.965206e+00 1.634893e+00 2.386746e+00 3.251142e+00 5.061296e-03 -1.077953e-01 -1.273699e+00 -1.061680e+00 -1.113803e+00 -9.561520e-01 -6.345989e-01 -8.557571e-01 -6.194332e-01 -5.779425e-01 -7.131351e-01 1.518202e+00
<VARIANCE> 25
 4.395892e+01 3.109110e+01 3.750452e+01 3.646392e+01 3.609830e+01 4.152598e+01 3.894790e+01 2.821281e+01 3.806621e+01 2.659408e+01 2.511155e+01 2.222355e+01 8.433845e+00 4.621937e+00 4.707252e+00 4.690734e+00 4.285842e+00 5.631110e+00 5.040290e+00 3.620946e+00 4.077856e+00 3.472844e+00 2.837821e+00 2.832535e+00 4.236730e+00
<GCONST> 1.069711e+02
<TRANSP> 5
 0.000000e+00 1.000000e+00 0.000000e+00 0.000000e+00 0.000000e+00
 0.000000e+00 6.977227e-01 3.022773e-01 0.000000e+00 0.000000e+00
 0.000000e+00 0.000000e+00 8.204175e-01 1.795824e-01 0.000000e+00
 0.000000e+00 0.000000e+00 0.000000e+00 6.728832e-01 3.271169e-01
 0.000000e+00 0.000000e+00 0.000000e+00 0.000000e+00 0.000000e+00
<ENDHMM>
~h "g"
<BEGINHMM>
<NUMSTATES> 5
<STATE> 2
<MEAN> 25
 5.101504e+00 6.827469e+00 7.317118e+00 6.115836e+00 -2.187910e+00 -2.451194e+00 -5.680940e-01 -1.903087e+00 -3.958753e+00 -3.814137e-01 -1.061838e-01 -1.517421e+00 -3.144358e-01 1.029629e+00 -7.931361e-01 7.089350e-01 1.916455e+00 9.039398e-01 8.456348e-01 -1.155808e-01 9.321592e-01 2.389123e-01 -2.365549e-01 1.148374e-01 -2.178360e+00
<VARIANCE> 25
 2.431916e+01 3.993881e+01 5.101669e+01 4.112204e+01 7.446026e+01 6.261775e+01 5.431758e+01 4.974498e+01 5.591550e+01 3.599066e+01 3.917854e+01 2.431075e+01 1.892535e+00 4.302275e+00 4.580897e+00 2.832987e+00 4.414359e+00 4.856801e+00 4.840890e+00 4.864460e+00 3.832733e+00 3.308009e+00 3.469489e+00 2.598796e+00 3.352063e+00
<GCONST> 1.081226e+02
<STATE> 3
<MEAN> 25
 1.794420e+00 6.153544e+00 3.425133e+00 6.496589e+00 4.265528e+00 4.528998e-01 1.058294e+00 -1.357215e+00 -1.360663e+00 9.635577e-01 -4.522283e-01 5.969685e-02 -1.900374e+00 -2.623245e+00 -1.795226e+00 -1.033595e+00 1.277737e+00 3.969707e-01 2.594787e-02 1.872535e-01 2.768423e-01 1.061394e+00 1.787027e-01 5.417919e-01 2.247941e+00
<VARIANCE> 25
 3.134044e+01 4.135409e+01 4.375058e+01 2.458442e+01 5.937288e+01 4.150768e+01 4.159741e+01 4.393388e+01 4.909724e+01 2.599426e+01 3.222849e+01 2.275287e+01 3.226591e+00 4.724467e+00 8.834723e+00 4.569196e+00 9.987929e+00 5.680706e+00 5.315575e+00 6.589395e+00 5.272931e+00 5.138479e+00 4.054126e+00 3.075104e+00 4.474797e+00
<GCONST> 1.105019e+02
<STATE> 4
<MEAN> 25
 -1.628527e+00 -1.958529e+00 -2.651358e+00 1.511527e+00 3.632107e+00 -1.563421e+00 -6.040570e-01 -1.259624e+00 -1.230667e+00 3.966042e+00 1.802578e-01 8.709030e-01 8.093345e-01 -7.868816e-01 2.662496e-01 -1.542958e+00 -2.106336e+00 -1.300272e+00 -1.091977e+00 -4.781322e-01 -7.344313e-01 5.993656e-02 2.949051e-02 -2.561602e-01 3.079538e+00
<VARIANCE> 25
 3.086554e+01 5.163706e+01 1.440809e+02 6.249112e+01 8.968884e+01 6.661079e+01 6.738768e+01 5.523049e+01 5.885073e+01 4.069643e+01 3.393700e+01 3.125410e+01 4.112246e+00 5.980140e+00 8.758135e+00 6.611076e+00 9.665719e+00 7.774951e+00 6.536368e+00 5.091548e+00 5.440718e+00 4.720072e+00 4.695009e+00 4.407897e+00 4.562845e+00
<GCONST> 1.169704e+02
<TRANSP> 5
 0.000000e+00 1.000000e+00 0.000000e+00 0.000000e+00 0.000000e+00
 0.000000e+00 6.268477e-01 3.731523e-01 0.000000e+00 0.000000e+00
 0.000000e+00 0.000000e+00 4.226490e-01 5.773510e-01 0.000000e+00
 0.000000e+00 0.000000e+00 0.000000e+00 6.173385e-01 3.826615e-01
 0.000000e+00 0.000000e+00 0.000000e+00 0.000000e+00 0.000000e+00
<ENDHMM>
~h "k"
<BEGINHMM>
<NUMSTATES> 5
<STATE> 2
<MEAN> 25
 2.851931e-01 2.331965e+00 3.128498e+00 4.378665e+00 1.736599e-01 -1.585685e+00 1.691412e+00 5.315750e-01 -1.799375e+00 1.120135e+00 1.264597e+00 1.040369e-01 -1.207684e+00 -2.923585e-01 -1.036148e+00 4.424501e-01 1.701795e+00 1.257914e+00 9.208505e-01 6.487892e-01 1.389947e+00 7.473457e-01 6.704070e-01 8.717047e-01 -2.225091e+00
<VARIANCE> 25
 2.213047e+01 2.687756e+01 5.569072e+01 4.061425e+01 5.825606e+01 6.099205e+01 5.130093e+01 5.636829e+01 4.632669e+01 3.901536e+01 3.799693e+01 3.181054e+01 2.188159e+00 4.772895e+00 4.194701e+00 4.817287e+00 5.554862e+00 5.774007e+00 4.967662e+00 5.702716e+00 4.296747e+00 4.439329e+00 4.583686e+00 3.347880e+00 6.981941e+00
<GCONST> 1.105878e+02
<STATE> 3
<MEAN> 25
 -4.203527e+00 -3.492583e+00 -2.700308e+00 2.850623e+00 4.452883e+00 6.982011e-01 2.012684e+00 3.004407e+00 2.295002e+00 4.430890e+00 2.449654e+00 2.879806e+00 -1.415381e+00 -1.863974e+00 -1.163906e+00 -9.688805e-01 3.757652e-01 -5.132743e-02 -3.572257e-01 5.634891e-01 6.266527e-01 9.208105e-01 1.116923e-01 3.866221e-01 2.766984e+00
<VARIANCE> 25
 2.128509e+01 4.338749e+01 6.050106e+01 3.810579e+01 4.365583e+01 5.137278e+01 4.669349e+01 4.226299e+01 3.815565e+01 3.625888e+01 2.881816e+01 2.373212e+01 3.184148e+00 3.724110e+00 6.445467e+00 4.552744e+00 5.805955e+00 5.969069e+00 5.402800e+00 5.040474e+00 4.615399e+00 4.001416e+00 3.991553e+00 3.367670e+00 6.798381e+00
<GCONST> 1.097144e+02
<STATE> 4
<MEAN> 25
 -7.085223e+00 -3.730645e+00 -1.335318e+00 -5.120572e-01 4.327664e+00 2.363772e+00 2.860923e+00 2.247823e+00 2.487139e+00 5.148391e+00 2.673891e+00 2.593355e+00 4.777530e-01 7.476397e-01 5.623966e-01 -2.227115e-01 -2.530397e-01 2.266262e-01 7.924081e-02 -6.663015e-01 -5.068957e-01 -7.184689e-01 -3.757784e-01 -3.932824e-01 3.899454e-01
<VARIANCE> 25
 3.005203e+01 4.197114e+01 6.463165e+01 4.767941e+01 6.501672e+01 6.332042e+01 5.792186e+01 4.822992e+01 5.080321e+01 3.998878e+01 3.731390e+01 2.804906e+01 4.765343e+00 2.955299e+00 2.934844e+00 3.120500e+00 4.021292e+00 4.563388e+00 3.973931e+00 4.409750e+00 4.657127e+00 4.023288e+00 3.346367e+00 2.936695e+00 4.028003e+00
<GCONST> 1.091896e+02
<TRANSP> 5
 0.000000e+00 1.000000e+00 0.000000e+00 0.000000e+00 0.000000e+00
 0.000000e+00 5.959502e-01 4.040497e-01 0.000000e+00 0.000000e+00
 0.000000e+00 0.000000e+00 6.025426e-01 3.974574e-01 0.000000e+00
 0.000000e+00 0.000000e+00 0.000000e+00 7.460330e-01 2.539671e-01
 0.000000e+00 0.000000e+00 0.000000e+00 0.000000e+00 0.000000e+00
<ENDHMM>
~h "l"
<BEGINHMM>
<NUMSTATES> 5
<STATE> 2
<MEAN> 25
 6.717468e+00 1.077632e+00 -5.315143e+00 -1.186170e+01 1.211132e+00 4.442693e+00 -4.946254e+00 -5.915112e+00 3.981772e-01 -3.428363e-01 1.685163e-01 -2.294178e+00 9.781296e-01 8.545337e-01 -5.115606e-01 -2.170700e+00 1.167187e-01 1.178517e+00 -4.579463e-01 -7.993222e-01 -6.468291e-01 -6.097169e-02 7.905713e-01 2.923349e-01 -3.434024e-02
<VARIANCE> 25
 1.695896e+01 5.078578e+01 4.562101e+01 7.766083e+01 4.367672e+01 6.625264e+01 7.783034e+01 6.398041e+01 6.086065e+01 5.109526e+01 5.117216e+01 5.097289e+01 2.270646e+00 2.232931e+00 2.630281e+00 4.581627e+00 3.766365e+00 4.668349e+00 4.855453e+00 4.713846e+00 4.015755e+00 4.455138e+00 3.824100e+00 3.423159e+00 1.875358e+00
<GCONST> 1.094653e+02
<STATE> 3
<MEAN> 25
 8.760919e+00 4.806379e+00 -5.295977e+00 -1.867824e+01 -7.138676e-01 7.643355e+00 -2.136614e+00 -4.673376e+00 -9.816807e-01 -2.611704e+00 1.575245e+00 5.145944e-01 1.471066e-02 2.996147e-01 1.532176e-01 3.807242e-01 1.435371e-01 -2.089764e-01 -1.475064e-01 1.514862e-01 -1.228539e-01 3.660053e-02 2.427335e-02 -3.188722e-02 -3.833472e-01
<VARIANCE> 25
 1.208151e+01 3.443791e+01 4.102151e+01 6.891448e+01 5.873813e+01 5.621934e+01 7.015291e+01 5.845746e+01 4.484164e+01 5.463196e+01 4.077958e+01 3.928042e+01 4.604397e-01 1.988805e+00 1.311383e+00 3.107576e+00 1.957578e+00 2.171034e+00 2.394750e+00 2.559237e+00 2.481270e+00 2.975495e+00 2.205699e+00 2.102037e+00 1.137974e+00
<GCONST> 9.976786e+01
<STATE> 4
<MEAN> 25
 6.612134e+00 2.750610e+00 -4.492646e+00 -9.759737e+00 2.423987e+00 2.839923e+00 -5.668718e+00 -5.022568e+00 1.018429e+00 6.906596e-01 5.425018e-01 -2.130909e+00 -9.358768e-01 -9.506279e-01 6.941546e-01 2.269912e+00 -7.407349e-02 -1.218196e+00 1.816290e-01 1.246181e+00 8.992546e-01 -2.274625e-04 -8.764409e-01 -3.465604e-01 -4.383235e-02
<VARIANCE> 25
 1.622409e+01 3.799648e+01 4.078902e+01 7.015712e+01 4.561806e+01 6.967201e+01 8.993666e+01 6.658540e+01 7.028706e+01 5.769644e+01 5.096603e+01 4.722657e+01 1.599092e+00 3.446172e+00 3.452142e+00 5.922117e+00 4.981482e+00 4.970377e+00 5.829856e+00 6.730258e+00 6.103633e+00 6.032662e+00 4.392404e+00 4.614510e+00 3.503155e+00
<GCONST> 1.126577e+02
<TRANSP> 5
 0.000000e+00 1.000000e+00 0.000000e+00 0.000000e+00 0.000000e+00
 0.000000e+00 5.553498e-01 4.446501e-01 0.000000e+00 0.000000e+00
 0.000000e+00 0.000000e+00 7.602252e-01 2.397748e-01 0.000000e+00
 0.000000e+00 0.000000e+00 0.000000e+00 6.395029e-01 3.604971e-01
 0.000000e+00 0.000000e+00 0.000000e+00 0.000000e+00 0.000000e+00
<ENDHMM>
~h "m"
<BEGINHMM>
<NUMSTATES> 5
<STATE> 2
<MEAN> 25
 8.638814e+00 1.678417e+00 -2.894287e-01 3.127336e+00 7.080048e-01 -2.433956e+00 -4.560214e+00 -6.393269e+00 -5.876688e+00 -1.072418e+00 -1.077038e+00 -4.493901e+00 5.108782e-01 1.343472e+00 6.884861e-01 1.978589e+00 6.368911e-01 -5.777506e-01 -1.562265e-01 -1.948554e+00 -1.841902e+00 3.405901e-02 5.705982e-01 -8.093575e-01 -1.108263e+00
<VARIANCE> 25
 1.609700e+01 3.946184e+01 3.434034e+01 4.909516e+01 3.825463e+01 5.638829e+01 6.271231e+01 6.138471e+01 6.024215e+01 5.525471e+01 5.721388e+01 4.302357e+01 1.688802e+00 2.734869e+00 3.194418e+00 3.448953e+00 4.046794e+00 4.103567e+00 4.570430e+00 5.089809e+00 5.320176e+00 5.784451e+00 4.699232e+00 3.980368e+00 2.810762e+00
<GCONST> 1.089572e+02
<STATE> 3
<MEAN> 25
 8.759145e+00 4.623245e+00 2.630978e+00 6.549722e+00 6.548642e-01 -2.349844e+00 -2.864526e+00 -8.092938e+00 -8.745180e+00 -1.623952e+00 -2.442832e-01 -5.172690e+00 -1.015916e-01 7.612529e-02 1.622078e-01 1.206372e-02 -8.560244e-02 7.218626e-02 1.660283e-01 1.305754e-01 3.226791e-03 -2.157512e-01 -6.270750e-02 8.168572e-02 -3.842711e-02
<VARIANCE> 25
 1.159822e+01 2.941499e+01 2.850303e+01 3.670357e+01 4.042077e+01 5.151138e+01 6.712702e+01 5.501013e+01 4.873624e+01 4.921774e+01 6.137963e+01 4.952112e+01 5.366410e-01 1.482035e+00 1.122487e+00 1.526369e+00 1.691896e+00 1.854035e+00 2.021716e+00 2.098432e+00 2.109798e+00 2.133427e+00 2.172670e+00 2.141686e+00 1.219881e+00
<GCONST> 9.652797e+01
<STATE> 4
<MEAN> 25
 7.716493e+00 1.529845e+00 5.905260e-01 3.473641e+00 2.021937e-01 -1.434272e+00 -3.410069e+00 -5.643195e+00 -5.271540e+00 -2.744024e+00 -9.232182e-01 -4.118649e+00 -7.139158e-01 -1.846574e+00 -4.702283e-01 -2.357211e+00 -1.117771e+00 8.593944e-01 3.044905e-01 1.891666e+00 2.055189e+00 -6.852052e-02 -4.422538e-01 7.391665e-01 1.578109e+00
<VARIANCE> 25
 1.686517e+01 4.404434e+01 3.411134e+01 5.252306e+01 4.176632e+01 6.144778e+01 6.247776e+01 5.813029e+01 6.109609e+01 5.214672e+01 4.905579e+01 4.339447e+01 1.493320e+00 3.391215e+00 4.296916e+00 5.150897e+00 4.825575e+00 4.981845e+00 5.747902e+00 5.813032e+00 6.533122e+00 5.459756e+00 5.951652e+00 4.937157e+00 3.518371e+00
<GCONST> 1.114465e+02
<TRANSP> 5
 0.000000e+00 1.000000e+00 0.000000e+00 0.000000e+00 0.000000e+00
 0.000000e+00 5.195562e-01 4.804437e-01 0.000000e+00 0.000000e+00
 0.000000e+00 0.000000e+00 6.926863e-01 3.073138e-01 0.000000e+00
 0.000000e+00 0.000000e+00 0.000000e+00 5.494840e-01 4.505160e-01
 0.000000e+00 0.000000e+00 0.000000e+00 0.000000e+00 0.000000e+00
<ENDHMM>
~h "n"
<BEGINHMM>
<NUMSTATES> 5
<STATE> 2
<MEAN> 25
 6.981162e+00 9.977962e-01 3.525861e+00 2.046692e+00 -4.420460e+00 -4.428692e+00 -2.511463e+00 -1.310974e+00 -4.655759e+00 -2.999948e+00 -4.470193e+00 -2.094084e+00 7.329974e-01 2.186813e+00 5.027289e-01 1.770851e+00 3.877184e-01 -3.841233e-01 4.200338e-01 -2.357637e+00 -1.249260e+00 5.214088e-01 -4.340202e-01 -1.224495e-01 -1.890738e+00
<VARIANCE> 25
 1.259777e+01 3.565276e+01 2.931433e+01 3.924259e+01 4.734483e+01 4.188538e+01 5.110360e+01 6.737621e+01 6.206350e+01 4.939628e+01 4.307473e+01 4.164196e+01 9.773933e-01 2.018454e+00 3.221989e+00 2.836809e+00 4.113830e+00 4.786469e+00 4.571345e+00 5.490771e+00 5.200611e+00 4.628868e+00 3.415176e+00 3.172023e+00 1.424399e+00
<GCONST> 1.053713e+02
<STATE> 3
<MEAN> 25
 7.980527e+00 6.251696e+00 4.669326e+00 4.921294e+00 -3.411124e+00 -3.586118e+00 -8.218415e-01 -6.880213e+00 -6.326450e+00 -9.752473e-01 -3.834135e+00 -2.322641e+00 -3.159246e-02 5.764629e-01 1.644017e-01 3.240614e-01 3.139414e-01 2.589139e-01 7.586858e-02 -4.591607e-01 -1.511784e-01 8.695108e-02 1.316668e-02 -4.197682e-02 -6.128821e-01
<VARIANCE> 25
 1.110381e+01 2.308488e+01 2.294573e+01 3.414478e+01 3.766989e+01 3.842569e+01 4.581583e+01 5.187003e+01 5.066571e+01 5.110328e+01 4.261901e+01 4.316630e+01 5.587101e-01 1.383462e+00 1.189719e+00 1.414622e+00 1.916424e+00 2.028821e+00 2.021270e+00 2.616067e+00 2.368820e+00 2.332796e+00 1.892303e+00 1.747854e+00 8.578334e-01
<GCONST> 9.462321e+01
<STATE> 4
<MEAN> 25
 6.108397e+00 4.655046e+00 4.183374e+00 4.595922e+00 -1.724021e+00 -2.272932e+00 -9.948500e-01 -4.992962e+00 -5.517328e+00 -2.265420e+00 -4.302265e+00 -2.081167e+00 -1.244003e+00 -1.113457e+00 -1.853514e-01 -7.619859e-01 5.147461e-01 8.263544e-01 -2.609444e-02 1.402988e+00 1.133557e+00 -2.441195e-01 5.594901e-01 2.467057e-01 3.557015e-01
<VARIANCE> 25
 1.709310e+01 3.700799e+01 2.712568e+01 4.051497e+01 4.932061e+01 4.080996e+01 4.530664e+01 5.415318e+01 5.689273e+01 5.865813e+01 4.443655e+01 4.053862e+01 1.885583e+00 4.024011e+00 2.984574e+00 3.947136e+00 4.455321e+00 4.582036e+00 4.969832e+00 5.283319e+00 5.428687e+00 4.972065e+00 4.002552e+00 3.661540e+00 3.310264e+00
<GCONST> 1.083752e+02
<TRANSP> 5
 0.000000e+00 1.000000e+00 0.000000e+00 0.000000e+00 0.000000e+00
 0.000000e+00 5.386061e-01 4.613939e-01 0.000000e+00 0.000000e+00
 0.000000e+00 0.000000e+00 6.493539e-01 3.506461e-01 0.000000e+00
 0.000000e+00 0.000000e+00 0.000000e+00 4.836531e-01 5.163469e-01
 0.000000e+00 0.000000e+00 0.000000e+00 0.000000e+00 0.000000e+00
<ENDHMM>
~h "p"
<BEGINHMM>
<NUMSTATES> 5
<STATE> 2
<MEAN> 25
 1.991717e+00 4.836084e+00 1.855139e-01 3.509337e+00 3.613394e+00 1.756295e+00 1.829756e+00 -7.056589e-01 1.335732e+00 1.526482e+00 9.627038e-01 -6.081361e-01 -1.577902e+00 -2.702448e-01 -1.947352e-01 4.448643e-01 8.145144e-01 8.270360e-01 1.293588e+00 1.167891e+00 1.095044e+00 7.904736e-01 8.249519e-01 9.258602e-01 -1.336932e+00
<VARIANCE> 25
 2.926978e+01 2.608075e+01 3.207957e+01 3.009093e+01 2.661128e+01 3.640216e+01 3.409182e+01 3.738792e+01 3.450054e+01 3.216426e+01 2.828423e+01 2.477816e+01 2.373683e+00 2.838515e+00 2.941061e+00 2.768107e+00 3.323500e+00 3.786805e+00 3.280413e+00 3.479068e+00 3.129155e+00 3.279894e+00 3.061322e+00 2.373975e+00 7.142684e+00
<GCONST> 1.022976e+02
<STATE> 3
<MEAN> 25
 -3.999243e+00 -6.850680e-01 -1.766134e+00 3.004000e+00 4.692475e+00 2.862715e+00 4.402090e+00 2.635544e+00 5.120328e+00 4.442896e+00 4.158741e+00 3.539826e+00 -5.709321e-01 -1.668850e+00 -4.343964e-01 -3.269635e-01 7.219294e-02 2.661658e-02 2.832963e-02 3.139831e-01 3.891790e-01 1.460153e-01 1.964238e-01 4.262193e-01 2.363758e+00
<VARIANCE> 25
 1.604972e+01 3.655782e+01 2.218489e+01 2.572529e+01 2.567561e+01 3.258306e+01 3.202240e+01 3.345402e+01 3.067426e+01 2.345816e+01 2.377414e+01 2.084643e+01 2.281044e+00 3.003861e+00 2.832918e+00 3.029075e+00 3.438156e+00 3.916418e+00 3.943736e+00 3.474918e+00 3.213422e+00 2.722907e+00 2.440296e+00 2.406329e+00 7.321097e+00
<GCONST> 1.003807e+02
<STATE> 4
<MEAN> 25
 -3.255454e+00 -5.164308e+00 -1.311397e+00 6.164292e-01 4.575875e+00 4.978432e+00 5.418744e+00 2.797259e+00 2.725117e+00 2.011624e+00 1.643523e+00 2.489986e+00 1.545088e+00 2.548292e-01 2.810806e-02 -8.644248e-01 -5.393026e-01 -2.980385e-01 -9.849389e-01 -8.982059e-01 -1.561336e+00 -1.251580e+00 -1.246034e+00 -8.501621e-01 1.216510e+00
<VARIANCE> 25
 2.729741e+01 4.724432e+01 6.164728e+01 4.812963e+01 6.886005e+01 6.109436e+01 5.425370e+01 4.536976e+01 4.699813e+01 3.787439e+01 3.231886e+01 2.634473e+01 4.509756e+00 4.380199e+00 4.720829e+00 4.975098e+00 5.285967e+00 7.354702e+00 6.189442e+00 4.736131e+00 5.241352e+00 4.515880e+00 4.061196e+00 2.852373e+00 5.481828e+00
<GCONST> 1.119822e+02
<TRANSP> 5
 0.000000e+00 1.000000e+00 0.000000e+00 0.000000e+00 0.000000e+00
 0.000000e+00 6.173329e-01 3.826671e-01 0.000000e+00 0.000000e+00
 0.000000e+00 0.000000e+00 6.960439e-01 3.039561e-01 0.000000e+00
 0.000000e+00 0.000000e+00 0.000000e+00 6.359166e-01 3.640833e-01
 0.000000e+00 0.000000e+00 0.000000e+00 0.000000e+00 0.000000e+00
<ENDHMM>
~h "r"
<BEGINHMM>
<NUMSTATES> 5
<STATE> 2
<MEAN> 25
 8.904268e+00 -2.760650e+00 -7.677888e+00 2.516901e+00 2.070623e+00 -4.538225e+00 -7.537294e+00 -1.079807e-01 -1.930153e+00 -1.950323e+00 9.029439e-01 3.264476e-01 1.976341e+00 -4.717976e-01 -1.149776e+00 9.458886e-02 1.117247e-02 -1.510169e+00 -2.236190e+00 5.596426e-01 1.783349e-01 -6.269984e-01 -2.763634e-01 1.388564e-02 7.511567e-01
<VARIANCE> 25
 4.056972e+01 3.849937e+01 6.808424e+01 3.780000e+01 5.435317e+01 7.250439e+01 7.596160e+01 7.472226e+01 4.996880e+01 4.740375e+01 3.792614e+01 3.771338e+01 5.217253e+00 3.544100e+00 5.076926e+00 4.210915e+00 5.929035e+00 6.062418e+00 6.637352e+00 6.025820e+00 6.052668e+00 4.822997e+00 4.381935e+00 3.515156e+00 3.316867e+00
<GCONST> 1.136704e+02
<STATE> 3
<MEAN> 25
 1.192910e+01 -6.375485e+00 -1.049548e+01 3.462423e+00 2.911031e+00 -8.923653e+00 -1.356793e+01 6.517847e+00 1.819835e+00 -2.199100e+00 -2.845306e-01 6.370280e-01 -1.059920e-01 -3.044636e-01 5.402671e-01 3.638854e-01 -5.400862e-01 -6.014341e-01 3.217340e-01 6.493840e-01 2.152080e-01 -2.036140e-01 -2.305166e-01 -1.021465e-01 1.813972e-02
<VARIANCE> 25
 1.145216e+01 2.572575e+01 5.586979e+01 4.103968e+01 5.339149e+01 5.852337e+01 8.971919e+01 8.548948e+01 5.857574e+01 4.858464e+01 3.519346e+01 4.156413e+01 1.076889e+00 2.604666e+00 3.495306e+00 2.206176e+00 4.305490e+00 3.852353e+00 5.245829e+00 5.202427e+00 3.524813e+00 3.019608e+00 2.745850e+00 2.399225e+00 1.931802e+00
<GCONST> 1.057019e+02
<STATE> 4
<MEAN> 25
 8.565563e+00 -6.721185e+00 -3.508988e+00 4.476011e+00 -2.825566e+00 -1.025392e+01 -5.467146e+00 6.662979e+00 -1.926707e+00 -3.329258e+00 9.953660e-01 -7.628922e-01 -1.115207e+00 5.591230e-01 2.153886e+00 -4.601735e-01 -1.258036e+00 1.052915e+00 2.092199e+00 -1.037453e+00 -7.705480e-01 3.676002e-01 1.765834e-01 -4.386784e-01 -5.156357e-01
<VARIANCE> 25
 1.779791e+01 3.533350e+01 6.997303e+01 4.402599e+01 8.127065e+01 7.885075e+01 7.139491e+01 7.556326e+01 6.853532e+01 5.585147e+01 4.881919e+01 4.577174e+01 1.437854e+00 3.021333e+00 3.489103e+00 3.379255e+00 5.147675e+00 4.007017e+00 4.822342e+00 4.978064e+00 5.042894e+00 4.279928e+00 3.653386e+00 3.175611e+00 2.672520e+00
<GCONST> 1.103912e+02
<TRANSP> 5
 0.000000e+00 1.000000e+00 0.000000e+00 0.000000e+00 0.000000e+00
 0.000000e+00 5.123534e-01 4.876466e-01 0.000000e+00 0.000000e+00
 0.000000e+00 0.000000e+00 6.521496e-01 3.478504e-01 0.000000e+00
 0.000000e+00 0.000000e+00 0.000000e+00 5.548495e-01 4.451505e-01
 0.000000e+00 0.000000e+00 0.000000e+00 0.000000e+00 0.000000e+00
<ENDHMM>
~h "s"
<BEGINHMM>
<NUMSTATES> 5
<STATE> 2
<MEAN> 25
 -9.986959e+00 6.801997e+00 3.199222e-01 1.378999e+00 4.038933e+00 -1.901373e+00 1.251499e+00 3.067046e-01 1.477388e+00 -1.038652e+00 -3.009679e-01 7.221633e-01 -4.621222e+00 1.345294e+00 -7.777150e-01 1.631586e-01 1.543054e+00 9.820598e-01 1.447353e+00 1.000440e+00 5.453975e-01 4.542481e-01 1.119610e+00 6.824660e-01 1.151010e-02
<VARIANCE> 25
 7.714543e+01 4.218959e+01 4.821014e+01 5.177245e+01 5.490572e+01 6.105815e+01 5.628448e+01 5.070252e+01 4.033757e+01 3.839694e+01 3.511239e+01 2.973397e+01 3.377676e+00 4.674183e+00 4.684608e+00 5.428041e+00 4.079522e+00 5.186033e+00 4.976727e+00 4.317587e+00 3.877771e+00 4.680618e+00 3.282589e+00 3.000203e+00 1.694055e+00
<GCONST> 1.100548e+02
<STATE> 3
<MEAN> 25
 -2.186459e+01 8.613375e+00 -5.401561e+00 1.926641e+00 6.880244e+00 2.985349e-01 5.204734e+00 2.853030e+00 2.474681e+00 1.575230e+00 2.861017e+00 3.188711e+00 -4.230928e-01 -1.607059e-01 -2.049472e-01 -1.557452e-01 6.285071e-02 1.411610e-01 1.723557e-01 1.668825e-01 7.661131e-02 1.533318e-01 8.859987e-02 1.369607e-01 -1.921109e-01
<VARIANCE> 25
 2.088483e+01 3.039175e+01 3.285815e+01 6.864755e+01 4.001108e+01 4.837741e+01 3.544593e+01 3.265841e+01 3.078418e+01 2.495992e+01 2.416038e+01 2.145439e+01 1.463851e+00 1.295080e+00 1.408328e+00 1.406807e+00 1.706163e+00 1.834354e+00 1.775869e+00 1.806853e+00 1.878279e+00 1.769842e+00 1.630860e+00 1.420264e+00 7.522532e-01
<GCONST> 9.302522e+01
<STATE> 4
<MEAN> 25
 -1.637400e+01 5.971580e+00 -2.047822e+00 6.136220e-01 6.781508e+00 -3.445389e-02 3.842402e+00 3.582152e+00 3.180314e+00 1.772410e+00 1.982537e+00 2.988720e+00 3.098399e+00 -6.938629e-01 7.099735e-01 1.827210e-02 -9.421533e-01 -4.038023e-01 -8.494883e-01 -5.649226e-01 -2.207646e-01 -9.873904e-02 -5.210895e-01 -4.595139e-01 -8.070401e-01
<VARIANCE> 25
 5.029816e+01 3.755400e+01 3.788169e+01 5.097054e+01 4.707304e+01 5.684481e+01 5.509560e+01 4.337490e+01 3.689138e+01 3.247962e+01 3.120048e+01 2.463021e+01 5.104927e+00 3.658579e+00 3.059710e+00 4.115172e+00 4.142735e+00 5.230488e+00 4.564852e+00 3.756850e+00 3.261420e+00 3.145707e+00 3.414548e+00 2.284327e+00 4.838840e+00
<GCONST> 1.077975e+02
<TRANSP> 5
 0.000000e+00 1.000000e+00 0.000000e+00 0.000000e+00 0.000000e+00
 0.000000e+00 7.129830e-01 2.870171e-01 0.000000e+00 0.000000e+00
 0.000000e+00 0.000000e+00 8.347754e-01 1.652246e-01 0.000000e+00
 0.000000e+00 0.000000e+00 0.000000e+00 7.338123e-01 2.661877e-01
 0.000000e+00 0.000000e+00 0.000000e+00 0.000000e+00 0.000000e+00
<ENDHMM>
~h "t"
<BEGINHMM>
<NUMSTATES> 5
<STATE> 2
<MEAN> 25
 -1.404982e+00 2.282990e+00 1.676511e+00 2.655790e+00 1.459179e+00 -5.316191e-01 8.597095e-01 8.761047e-02 1.873657e+00 9.672480e-01 2.582932e-01 5.490550e-01 -1.872896e+00 -1.153717e-01 -3.256295e-01 -1.972094e-01 8.354649e-01 8.369179e-01 1.035864e+00 3.960811e-01 6.934588e-01 5.836813e-01 9.049714e-01 7.178810e-01 -2.995582e-01
<VARIANCE> 25
 5.634719e+01 3.746090e+01 4.333123e+01 4.189369e+01 5.544962e+01 5.817070e+01 4.221319e+01 4.362236e+01 4.559977e+01 3.332974e+01 3.501619e+01 2.710886e+01 5.445399e+00 5.331911e+00 4.051338e+00 5.714950e+00 5.842376e+00 5.862411e+00 4.470772e+00 5.507190e+00 5.191271e+00 4.234942e+00 3.880630e+00 3.145732e+00 1.233385e+01
<GCONST> 1.122376e+02
<STATE> 3
<MEAN> 25
 -9.773791e+00 3.774621e-01 5.897593e-01 -4.846643e-01 2.880786e+00 1.737853e+00 4.599726e+00 2.819633e+00 3.365901e+00 2.651688e+00 3.867614e+00 3.323012e+00 -8.672190e-01 -3.489469e-01 2.267946e-01 -1.961759e-01 -2.982453e-01 -3.632701e-01 3.829919e-01 2.167298e-01 -6.159626e-03 -6.586879e-02 1.481754e-01 3.117708e-01 1.180858e+00
<VARIANCE> 25
 7.110927e+01 4.429511e+01 3.630290e+01 4.275845e+01 4.274702e+01 5.013658e+01 4.571602e+01 4.158911e+01 3.615466e+01 3.734220e+01 3.266575e+01 2.546104e+01 5.706097e+00 3.471664e+00 3.192657e+00 3.911516e+00 3.794840e+00 4.155706e+00 3.820036e+00 3.635026e+00 3.001387e+00 2.936036e+00 2.600598e+00 2.228775e+00 8.072522e+00
<GCONST> 1.074230e+02
<STATE> 4
<MEAN> 25
 -7.777890e+00 -1.116885e+00 1.469960e+00 1.472721e+00 1.395030e+00 -9.756847e-01 3.410115e+00 1.869090e+00 2.347416e+00 5.392898e-01 1.259553e+00 2.405242e+00 2.160494e+00 1.164278e-01 1.336462e-01 4.509127e-01 -5.081985e-01 -7.765493e-01 -1.227972e+00 -8.827744e-01 -8.815184e-01 -7.599380e-01 -9.517438e-01 -8.531992e-01 2.511347e-01
<VARIANCE> 25
 6.096752e+01 5.570771e+01 4.518226e+01 4.918542e+01 5.439755e+01 5.444217e+01 5.544818e+01 4.869059e+01 4.944972e+01 4.123134e+01 3.636412e+01 3.249794e+01 7.385211e+00 3.638027e+00 4.558297e+00 4.416535e+00 6.134477e+00 6.833827e+00 5.290151e+00 4.933308e+00 4.857771e+00 4.969452e+00 4.332251e+00 3.051951e+00 4.907573e+00
<GCONST> 1.130204e+02
<TRANSP> 5
 0.000000e+00 1.000000e+00 0.000000e+00 0.000000e+00 0.000000e+00
 0.000000e+00 4.731849e-01 5.268151e-01 0.000000e+00 0.000000e+00
 0.000000e+00 0.000000e+00 6.254756e-01 3.745244e-01 0.000000e+00
 0.000000e+00 0.000000e+00 0.000000e+00 4.867714e-01 5.132286e-01
 0.000000e+00 0.000000e+00 0.000000e+00 0.000000e+00 0.000000e+00
<ENDHMM>
~h "v"
<BEGINHMM>
<NUMSTATES> 5
<STATE> 2
<MEAN> 25
 8.389183e+00 -1.185444e+00 -3.057974e+00 1.915860e-01 -1.259192e+00 -1.478233e+00 -5.936398e+00 -4.161939e+00 1.954018e+00 3.133106e+00 -4.034596e-01 -2.391155e+00 -7.151160e-01 2.552574e+00 3.805308e-01 1.690124e+00 1.807067e+00 1.218930e+00 7.201127e-01 -9.977108e-01 -1.035102e+00 -5.534183e-01 6.601881e-01 3.280870e-01 -2.414591e+00
<VARIANCE> 25
 1.475984e+01 2.673431e+01 3.018651e+01 3.681950e+01 2.620652e+01 5.022747e+01 3.538425e+01 4.543393e+01 4.244170e+01 4.138755e+01 4.443292e+01 2.861479e+01 1.893317e+00 1.986386e+00 2.813158e+00 3.400427e+00 2.932934e+00 4.226654e+00 4.367947e+00 4.845367e+00 3.839292e+00 3.283797e+00 3.518538e+00 2.987105e+00 1.427961e+00
<GCONST> 1.025178e+02
<STATE> 3
<MEAN> 25
 4.195473e+00 5.988375e+00 2.700396e-01 4.853756e+00 3.080714e+00 1.383204e+00 -2.443376e+00 -4.139208e+00 -1.379126e+00 -3.945009e-02 -5.613920e-01 -1.406960e+00 -2.068104e+00 1.501287e+00 1.022512e+00 1.379037e+00 1.208461e+00 1.037606e+00 1.360119e+00 7.080219e-01 -1.581584e-01 -6.716322e-01 -2.922358e-01 -5.384469e-02 -1.465296e+00
<VARIANCE> 25
 1.897486e+01 1.821238e+01 2.765021e+01 2.608713e+01 1.947976e+01 3.185103e+01 2.584913e+01 2.763629e+01 3.241859e+01 3.369308e+01 3.180708e+01 2.219776e+01 2.434866e+00 2.118282e+00 2.098572e+00 2.720293e+00 2.535269e+00 3.331317e+00 3.068815e+00 2.997521e+00 3.085635e+00 2.650564e+00 2.583158e+00 2.134236e+00 1.523555e+00
<GCONST> 9.689570e+01
<STATE> 4
<MEAN> 25
 -2.453260e+00 4.392575e+00 6.252695e-01 6.092738e+00 4.119554e+00 2.859118e+00 1.459947e+00 1.551217e-02 1.871677e+00 3.365998e-01 -3.717313e-01 -3.408144e-02 -4.985144e-01 -7.456872e-01 -3.369123e-01 -3.051043e-01 -1.304719e-01 -1.896940e-01 8.085382e-02 2.775174e-01 1.808251e-01 1.095258e-01 2.622099e-01 3.226739e-01 2.494253e-01
<VARIANCE> 25
 3.273853e+01 2.738923e+01 3.027617e+01 2.457655e+01 2.766956e+01 3.432348e+01 3.037679e+01 3.016316e+01 4.143687e+01 3.093604e+01 2.806175e+01 2.290212e+01 4.828929e+00 2.420216e+00 2.301594e+00 2.984764e+00 2.973503e+00 3.009896e+00 3.141951e+00 2.962120e+00 3.054568e+00 2.877347e+00 2.501217e+00 2.135691e+00 2.638078e+00
<GCONST> 1.002831e+02
<TRANSP> 5
 0.000000e+00 1.000000e+00 0.000000e+00 0.000000e+00 0.000000e+00
 0.000000e+00 4.909413e-01 5.090586e-01 0.000000e+00 0.000000e+00
 0.000000e+00 0.000000e+00 4.963504e-01 5.036496e-01 0.000000e+00
 0.000000e+00 0.000000e+00 0.000000e+00 6.628392e-01 3.371607e-01
 0.000000e+00 0.000000e+00 0.000000e+00 0.000000e+00 0.000000e+00
<ENDHMM>
~h "w"
<BEGINHMM>
<NUMSTATES> 5
<STATE> 2
<MEAN> 25
 4.260064e+00 3.690635e+00 -2.120253e+00 7.949845e-01 2.333364e+00 2.101422e+00 1.408319e-01 -2.344641e+00 -1.403263e+00 3.110730e-01 6.181519e-01 2.918318e-02 1.529118e+00 1.226451e+00 -1.366549e-01 -1.108285e+00 -9.876031e-01 5.710683e-02 -1.920833e-02 -5.682156e-01 -8.296576e-01 -6.094381e-01 -3.128887e-01 -2.211838e-01 2.808120e-01
<VARIANCE> 25
 4.846640e+01 3.728873e+01 2.933060e+01 3.893753e+01 3.757836e+01 4.331771e+01 4.990270e+01 4.364511e+01 4.092722e+01 3.365999e+01 2.580599e+01 2.427996e+01 4.132285e+00 2.820089e+00 2.884490e+00 4.943117e+00 4.737554e+00 4.619827e+00 5.222723e+00 4.711815e+00 4.477813e+00 3.638222e+00 3.129514e+00 2.564111e+00 5.326955e+00
<GCONST> 1.071844e+02
<STATE> 3
<MEAN> 25
 1.124846e+01 6.907045e+00 -3.487931e+00 -9.343642e+00 -6.174132e+00 3.248919e+00 -1.024402e+00 -2.910874e+00 -3.530692e+00 -2.869748e+00 -7.669050e-01 -8.931084e-01 5.011492e-01 -1.095477e+00 -9.941152e-01 -2.016314e+00 -5.070462e-01 1.104787e+00 -7.371913e-01 -3.201208e-01 -4.132116e-01 2.158431e-01 6.032819e-01 2.384817e-01 1.844092e+00
<VARIANCE> 25
 1.140640e+01 2.242646e+01 2.990087e+01 6.761904e+01 4.235281e+01 4.369231e+01 3.945531e+01 4.348359e+01 6.264665e+01 3.120143e+01 3.475498e+01 3.461468e+01 1.970031e+00 2.851810e+00 2.981148e+00 5.848258e+00 5.752594e+00 5.380380e+00 5.652360e+00 4.814657e+00 4.842724e+00 4.730301e+00 3.920554e+00 3.042113e+00 2.746349e+00
<GCONST> 1.066856e+02
<STATE> 4
<MEAN> 25
 9.741147e+00 -1.975874e+00 -7.343679e+00 -9.926708e+00 -1.031919e+00 5.363519e+00 -6.975857e+00 -5.666967e+00 -3.991316e+00 3.637414e+00 1.525695e+00 -2.552998e+00 -7.867287e-01 -2.261904e+00 3.830288e-01 1.325362e+00 5.900064e-01 -1.668737e+00 -1.773771e+00 7.745454e-01 1.620150e+00 1.168171e+00 -9.356071e-01 -1.200637e+00 1.710313e+00
<VARIANCE> 25
 1.214253e+01 2.942472e+01 3.239185e+01 6.929224e+01 3.952072e+01 8.135477e+01 7.731518e+01 5.990913e+01 6.694566e+01 6.994518e+01 6.977414e+01 4.375555e+01 8.137537e-01 1.782145e+00 2.928408e+00 3.628524e+00 5.799909e+00 6.175392e+00 5.918509e+00 6.011304e+00 5.207804e+00 6.380760e+00 5.333164e+00 3.398791e+00 1.374049e+00
<GCONST> 1.091373e+02
<TRANSP> 5
 0.000000e+00 1.000000e+00 0.000000e+00 0.000000e+00 0.000000e+00
 0.000000e+00 6.888317e-01 3.111682e-01 0.000000e+00 0.000000e+00
 0.000000e+00 0.000000e+00 6.867298e-01 3.132703e-01 0.000000e+00
 0.000000e+00 0.000000e+00 0.000000e+00 5.934578e-01 4.065422e-01
 0.000000e+00 0.000000e+00 0.000000e+00 0.000000e+00 0.000000e+00
<ENDHMM>
~h "y"
<BEGINHMM>
<NUMSTATES> 5
<STATE> 2
<MEAN> 25
 -5.196184e+00 5.196888e+00 1.210040e+01 8.648088e-01 -3.006394e+00 -9.681362e-01 7.119424e-01 -4.334003e+00 -4.391053e+00 -6.173981e-01 -1.636275e-01 -4.516979e-02 1.490513e+00 3.100625e-01 2.612203e+00 -2.847458e-01 -2.250735e+00 -5.124481e-01 -1.287175e+00 -1.211862e+00 -2.337103e+00 -8.183264e-01 -3.538898e-01 -8.317146e-01 1.159072e+00
<VARIANCE> 25
 6.748841e+01 5.629593e+01 6.381132e+01 4.335857e+01 5.908654e+01 5.100959e+01 7.203529e+01 4.436728e+01 5.288951e+01 4.486378e+01 3.986462e+01 3.203372e+01 6.907414e+00 3.290039e+00 5.032746e+00 4.790453e+00 5.619565e+00 5.858211e+00 6.957404e+00 4.633100e+00 5.873957e+00 5.360308e+00 4.086462e+00 3.217828e+00 3.260229e+00
<GCONST> 1.136007e+02
<STATE> 3
<MEAN> 25
 2.018851e-01 4.162972e+00 1.796049e+01 -2.885284e+00 -1.293701e+01 -4.602171e-01 -5.229020e+00 -7.586993e+00 -1.023339e+01 -1.394338e+00 -6.981444e-01 -4.645953e+00 3.620754e-01 -7.304602e-01 4.108044e-01 -4.448514e-03 -1.668177e+00 -3.602595e-01 1.975076e-01 1.047780e-01 -7.393115e-01 -2.498667e-01 6.913449e-01 -3.962336e-01 7.627503e-01
<VARIANCE> 25
 1.647606e+01 2.806117e+01 3.114736e+01 7.531625e+01 4.203645e+01 4.632130e+01 3.968448e+01 3.985082e+01 3.768476e+01 5.444703e+01 3.920343e+01 5.475352e+01 1.926154e+00 2.289458e+00 3.076127e+00 3.332498e+00 3.805284e+00 4.362160e+00 3.977031e+00 3.590904e+00 3.925202e+00 3.143529e+00 3.212885e+00 2.689349e+00 1.159006e+00
<GCONST> 1.041783e+02
<STATE> 4
<MEAN> 25
 2.347085e+00 -9.179383e-01 1.471761e+01 2.642867e+00 -1.442060e+01 -6.583812e+00 -3.445478e+00 -3.050847e+00 -1.155867e+01 -4.092579e+00 2.639799e+00 -1.899400e+00 7.615497e-01 -8.849293e-01 -1.791589e+00 7.956945e-01 6.653112e-01 -1.339850e+00 -7.005907e-01 1.095193e+00 8.819333e-01 -7.001863e-01 -9.599292e-02 7.009322e-01 2.675637e-01
<VARIANCE> 25
 1.130229e+01 2.309357e+01 3.976511e+01 6.596839e+01 3.060133e+01 5.468910e+01 4.880691e+01 4.725736e+01 4.936763e+01 8.519909e+01 4.053412e+01 5.561473e+01 5.554111e-01 1.095620e+00 1.816590e+00 1.781182e+00 2.386114e+00 2.340549e+00 3.734806e+00 2.332261e+00 3.104189e+00 2.953659e+00 2.048758e+00 1.806084e+00 4.645513e-01
<GCONST> 9.793433e+01
<TRANSP> 5
 0.000000e+00 1.000000e+00 0.000000e+00 0.000000e+00 0.000000e+00
 0.000000e+00 5.784684e-01 4.215316e-01 0.000000e+00 0.000000e+00
 0.000000e+00 0.000000e+00 6.755760e-01 3.244240e-01 0.000000e+00
 0.000000e+00 0.000000e+00 0.000000e+00 7.108212e-01 2.891788e-01
 0.000000e+00 0.000000e+00 0.000000e+00 0.000000e+00 0.000000e+00
<ENDHMM>
~h "z"
<BEGINHMM>
<NUMSTATES> 5
<STATE> 2
<MEAN> 25
 -2.302564e+00 1.005883e+01 2.136241e+00 1.822028e+00 8.889808e-01 -8.148806e+00 -5.087632e+00 -4.009564e+00 -2.514945e-01 -1.109949e+00 -2.523938e+00 8.748879e-01 -4.058507e+00 3.065711e+00 -6.220878e-01 8.084869e-01 2.531793e+00 7.201494e-01 1.549058e+00 4.457061e-01 3.618990e-01 -2.221361e-01 5.937833e-01 1.943486e-01 -5.169635e-01
<VARIANCE> 25
 3.494526e+01 4.373557e+01 4.329769e+01 4.045167e+01 6.380888e+01 5.349612e+01 5.508747e+01 4.153673e+01 3.497870e+01 4.799794e+01 3.345113e+01 3.044008e+01 2.564090e+00 3.804560e+00 3.424844e+00 5.373593e+00 3.754512e+00 6.187058e+00 4.849555e+00 6.232543e+00 3.764027e+00 3.792501e+00 3.902984e+00 3.406748e+00 1.196886e+00
<GCONST> 1.081400e+02
<STATE> 3
<MEAN> 25
 -1.635729e+01 1.394724e+01 -1.378469e+00 4.263591e+00 6.602139e+00 -1.676899e+00 1.507476e+00 1.939912e-01 1.269161e+00 1.756363e-02 1.006402e+00 1.851251e+00 -1.969894e+00 -5.150517e-01 -5.968273e-01 -3.408695e-02 5.909597e-01 9.309682e-01 9.380631e-01 9.860175e-01 4.036561e-01 4.583549e-01 5.898337e-01 3.816456e-01 -2.939182e-01
<VARIANCE> 25
 2.966680e+01 2.691693e+01 4.714373e+01 5.837216e+01 5.373513e+01 5.217924e+01 4.760425e+01 4.313494e+01 3.971209e+01 3.134262e+01 2.957236e+01 2.217719e+01 3.668154e+00 2.026270e+00 2.189194e+00 2.307916e+00 2.327533e+00 3.090210e+00 3.200179e+00 2.797581e+00 2.765150e+00 2.784976e+00 2.144725e+00 2.022656e+00 8.019834e-01
<GCONST> 1.008072e+02
<STATE> 4
<MEAN> 25
 -1.306218e+01 6.535560e+00 -2.121831e-01 2.138708e+00 6.591595e+00 -8.440750e-01 2.168932e+00 2.933825e+00 2.444500e+00 7.374123e-01 1.002566e+00 2.685255e+00 1.944867e+00 -1.080210e+00 7.550306e-02 1.162463e-01 -6.796500e-01 2.353243e-02 -3.238296e-01 -3.373725e-01 8.398147e-03 5.287179e-02 -1.071050e-01 -1.925006e-01 -8.376659e-01
<VARIANCE> 25
 5.771031e+01 6.086508e+01 3.833631e+01 5.404819e+01 4.783519e+01 6.299041e+01 6.497488e+01 5.693907e+01 4.091202e+01 3.163670e+01 3.976845e+01 2.772920e+01 4.519774e+00 3.076492e+00 2.221054e+00 3.219827e+00 3.807140e+00 4.461083e+00 4.125768e+00 3.922079e+00 3.487828e+00 2.965929e+00 2.665351e+00 2.235679e+00 3.664928e+00
<GCONST> 1.077812e+02
<TRANSP> 5
 0.000000e+00 1.000000e+00 0.000000e+00 0.000000e+00 0.000000e+00
 0.000000e+00 6.649445e-01 3.350554e-01 0.000000e+00 0.000000e+00
 0.000000e+00 0.000000e+00 7.116728e-01 2.883272e-01 0.000000e+00
 0.000000e+00 0.000000e+00 0.000000e+00 7.903507e-01 2.096493e-01
 0.000000e+00 0.000000e+00 0.000000e+00 0.000000e+00 0.000000e+00
<ENDHMM>
~h "aa"
<BEGINHMM>
<NUMSTATES> 5
<STATE> 2
<MEAN> 25
 5.104047e+00 -5.395243e+00 -6.455661e+00 -5.779563e+00 2.080517e+00 4.394117e+00 -1.982584e+00 -1.322593e+00 8.764863e-01 -1.104859e+00 -2.251821e+00 -3.456228e+00 1.342304e+00 -1.712493e+00 -1.506568e+00 -1.691309e+00 1.746230e-01 1.235709e+00 -2.394306e-01 -2.095053e-01 5.908773e-02 -6.143966e-01 -2.920717e-01 -9.916308e-01 1.610283e+00
<VARIANCE> 25
 2.958817e+01 4.236154e+01 4.221845e+01 4.598803e+01 6.686030e+01 9.626289e+01 7.340173e+01 6.919845e+01 5.572673e+01 5.373065e+01 5.887274e+01 3.719445e+01 4.053359e+00 3.719371e+00 3.896742e+00 4.464985e+00 6.606856e+00 7.663409e+00 5.124743e+00 6.481140e+00 5.534790e+00 4.718064e+00 5.478139e+00 3.839139e+00 2.440927e+00
<GCONST> 1.138483e+02
<STATE> 3
<MEAN> 25
 8.009081e+00 -9.415092e+00 -1.001807e+01 -9.724571e+00 3.678571e+00 9.121636e+00 -2.099117e+00 -3.143541e+00 3.411205e-01 -2.560200e+00 -1.784624e+00 -4.559605e+00 1.502574e-02 -1.589932e-01 -1.637599e-01 2.142532e-01 1.725796e-01 -2.179815e-01 -1.312090e-01 1.364927e-01 1.239578e-01 1.979059e-03 -8.310235e-02 -6.699213e-02 6.054904e-03
<VARIANCE> 25
 1.312816e+01 3.711678e+01 3.115370e+01 5.181230e+01 5.548436e+01 7.296874e+01 8.840461e+01 5.576833e+01 5.153399e+01 4.771614e+01 5.665808e+01 4.061441e+01 3.602338e-01 9.834265e-01 9.815271e-01 1.825644e+00 1.973647e+00 2.716681e+00 2.115597e+00 2.405226e+00 1.863348e+00 2.015085e+00 2.004821e+00 1.799970e+00 3.589130e-01
<GCONST> 9.631380e+01
<STATE> 4
<MEAN> 25
 7.745336e+00 -7.010086e+00 -8.816165e+00 -5.486080e+00 2.511719e+00 3.364514e+00 -3.233884e+00 -2.000756e+00 2.172616e+00 -7.261114e-01 -4.200048e+00 -5.139548e+00 -1.061725e-01 1.652311e+00 9.254749e-01 1.382044e+00 -2.845247e-01 -1.531026e+00 6.324392e-03 9.802277e-02 -2.358030e-01 2.634058e-01 -1.733425e-01 3.593917e-01 -1.583636e+00
<VARIANCE> 25
 1.466066e+01 4.024092e+01 4.252752e+01 4.019784e+01 4.521741e+01 8.559496e+01 8.359630e+01 5.872023e+01 5.437237e+01 6.737090e+01 5.817141e+01 4.232271e+01 1.210065e+00 2.205523e+00 2.742547e+00 3.466173e+00 3.990688e+00 4.303480e+00 4.824395e+00 4.374886e+00 3.488287e+00 4.190869e+00 3.506127e+00 2.882678e+00 1.774191e+00
<GCONST> 1.072410e+02
<TRANSP> 5
 0.000000e+00 1.000000e+00 0.000000e+00 0.000000e+00 0.000000e+00
 0.000000e+00 6.506650e-01 3.493350e-01 0.000000e+00 0.000000e+00
 0.000000e+00 0.000000e+00 8.185889e-01 1.814112e-01 0.000000e+00
 0.000000e+00 0.000000e+00 0.000000e+00 6.668269e-01 3.331731e-01
 0.000000e+00 0.000000e+00 0.000000e+00 0.000000e+00 0.000000e+00
<ENDHMM>
~h "ae"
<BEGINHMM>
<NUMSTATES> 5
<STATE> 2
<MEAN> 25
 2.393020e+00 -5.949275e+00 -7.029163e-01 -1.309458e+00 -5.648374e+00 -2.562525e+00 3.232488e+00 3.322163e+00 5.991917e-01 -2.712815e+00 -3.058867e+00 -1.045691e+00 7.975141e-01 -1.571431e+00 -2.434755e-01 -7.110648e-01 -9.958618e-01 -3.826220e-02 3.976817e-02 7.418366e-01 -1.675977e-01 -6.563004e-01 -6.064343e-01 -2.652485e-01 1.940537e+00
<VARIANCE> 25
 2.291640e+01 4.539848e+01 4.234711e+01 3.845575e+01 5.870570e+01 5.630462e+01 6.823866e+01 5.743194e+01 7.012875e+01 5.089816e+01 5.103492e+01 3.727381e+01 3.155095e+00 3.867679e+00 3.623021e+00 3.412885e+00 5.455753e+00 4.484721e+00 6.690878e+00 4.806348e+00 4.989540e+00 4.706738e+00 4.382806e+00 3.517780e+00 4.093212e+00
<GCONST> 1.113833e+02
<STATE> 3
<MEAN> 25
 4.102462e+00 -1.068962e+01 -3.018246e+00 -1.955297e+00 -4.064640e+00 -1.061757e+00 3.526288e+00 3.206144e+00 -7.141128e-01 -4.807908e+00 -5.189952e+00 -2.142658e+00 9.667317e-02 -8.782595e-02 -2.082107e-01 1.402327e-01 2.818571e-01 1.044852e-01 -1.930696e-01 -3.599557e-03 1.632224e-01 2.576717e-02 -1.765274e-01 -1.803315e-02 -9.817655e-02
<VARIANCE> 25
 1.235972e+01 3.454252e+01 4.572029e+01 3.179040e+01 5.565259e+01 4.714265e+01 5.880059e+01 5.414856e+01 5.099041e+01 4.040725e+01 3.820574e+01 3.456065e+01 4.093149e-01 1.101501e+00 1.214911e+00 1.161599e+00 1.770872e+00 1.676387e+00 2.011675e+00 1.858860e+00 1.923390e+00 1.570776e+00 1.435730e+00 1.365983e+00 4.045101e-01
<GCONST> 9.286885e+01
<STATE> 4
<MEAN> 25
 5.041061e+00 -7.132843e+00 -2.833474e+00 -7.545400e-01 -4.390508e+00 -2.483707e+00 7.101573e-01 2.902098e+00 1.271945e+00 -3.047818e+00 -5.163402e+00 -2.258736e+00 1.718550e-01 1.986980e+00 7.236736e-01 8.627257e-01 6.056927e-01 -3.611410e-01 -4.957100e-01 -6.951069e-01 -1.080807e-01 7.007778e-01 3.958159e-01 3.545269e-02 -2.109329e+00
<VARIANCE> 25
 1.252592e+01 3.653631e+01 5.104072e+01 3.331037e+01 5.766218e+01 5.232495e+01 6.663721e+01 4.913196e+01 6.282707e+01 5.779801e+01 4.131070e+01 4.859499e+01 1.353185e+00 2.056356e+00 2.339960e+00 2.510423e+00 3.560782e+00 3.300083e+00 3.702253e+00 4.211611e+00 3.260487e+00 3.180662e+00 2.798317e+00 2.697905e+00 1.791378e+00
<GCONST> 1.043675e+02
<TRANSP> 5
 0.000000e+00 1.000000e+00 0.000000e+00 0.000000e+00 0.000000e+00
 0.000000e+00 6.378337e-01 3.621663e-01 0.000000e+00 0.000000e+00
 0.000000e+00 0.000000e+00 8.023347e-01 1.976652e-01 0.000000e+00
 0.000000e+00 0.000000e+00 0.000000e+00 6.278801e-01 3.721199e-01
 0.000000e+00 0.000000e+00 0.000000e+00 0.000000e+00 0.000000e+00
<ENDHMM>
~h "ah"
<BEGINHMM>
<NUMSTATES> 5
<STATE> 2
<MEAN> 25
 2.266856e+00 -1.419467e+00 -1.992876e-01 -1.637279e+00 -2.356164e+00 -2.193589e+00 -2.119064e+00 -3.248675e-01 8.546865e-01 -8.648220e-01 -1.901093e+00 -8.868248e-01 1.828198e+00 -1.197950e+00 3.842354e-03 -1.413804e+00 -1.426338e+00 -4.985224e-01 -1.246281e+00 -6.627242e-02 4.201851e-02 -2.601101e-01 -8.112502e-01 -5.926078e-01 1.966083e+00
<VARIANCE> 25
 3.552798e+01 4.368631e+01 5.191451e+01 5.281161e+01 6.518577e+01 7.312394e+01 7.580701e+01 5.458965e+01 5.459079e+01 4.832962e+01 4.105183e+01 3.586441e+01 5.473791e+00 4.398811e+00 4.782573e+00 5.891339e+00 5.817360e+00 6.875801e+00 6.981322e+00 6.998347e+00 6.449978e+00 5.379511e+00 5.094568e+00 4.325368e+00 5.942964e+00
<GCONST> 1.156996e+02
<STATE> 3
<MEAN> 25
 5.392912e+00 -4.257985e+00 -2.994929e-01 -4.743274e+00 -4.682694e+00 -2.190809e+00 -4.937598e+00 -8.658925e-02 9.580403e-01 -5.284625e-01 -3.065732e+00 -2.606359e+00 5.662360e-01 -1.720394e-01 -7.789026e-02 -2.633703e-01 -1.486192e-01 2.079132e-01 -4.492939e-02 5.301860e-02 2.487024e-02 6.654344e-02 -1.397704e-01 -4.538810e-02 7.398623e-02
<VARIANCE> 25
 1.685043e+01 4.282049e+01 8.043088e+01 5.763806e+01 6.908788e+01 7.168011e+01 6.068208e+01 6.832533e+01 6.773983e+01 6.357502e+01 4.831333e+01 4.387559e+01 1.710824e+00 2.057139e+00 2.826023e+00 3.592183e+00 3.741844e+00 3.691504e+00 3.635612e+00 3.996219e+00 3.812042e+00 3.513418e+00 3.022785e+00 2.735450e+00 1.862505e+00
<GCONST> 1.080412e+02
<STATE> 4
<MEAN> 25
 4.898878e+00 -2.798550e+00 -1.432135e+00 -2.828945e+00 -1.612587e+00 -3.477848e-01 -2.195472e+00 2.919073e-01 1.402131e+00 -1.531376e+00 -2.113304e+00 -1.232087e+00 -5.228622e-02 1.084127e+00 3.175686e-01 7.127275e-01 5.949500e-01 1.370161e-01 2.383805e-01 -2.471843e-01 -3.607052e-01 -7.041913e-02 2.095432e-01 1.407481e-01 -1.245564e+00
<VARIANCE> 25
 3.350743e+01 5.234261e+01 5.513049e+01 6.261462e+01 7.114601e+01 7.596638e+01 7.981682e+01 7.053310e+01 6.258978e+01 6.835632e+01 5.276951e+01 5.255458e+01 1.458251e+00 2.286688e+00 2.446726e+00 3.406365e+00 3.235758e+00 3.528713e+00 3.506562e+00 3.610283e+00 3.458973e+00 3.080445e+00 2.839876e+00 2.649081e+00 2.912411e+00
<GCONST> 1.088345e+02
<TRANSP> 5
 0.000000e+00 1.000000e+00 0.000000e+00 0.000000e+00 0.000000e+00
 0.000000e+00 4.302626e-01 5.697374e-01 0.000000e+00 0.000000e+00
 0.000000e+00 0.000000e+00 4.045782e-01 5.954218e-01 0.000000e+00
 0.000000e+00 0.000000e+00 0.000000e+00 6.059068e-01 3.940932e-01
 0.000000e+00 0.000000e+00 0.000000e+00 0.000000e+00 0.000000e+00
<ENDHMM>
~h "ao"
<BEGINHMM>
<NUMSTATES> 5
<STATE> 2
<MEAN> 25
 6.055893e+00 2.459614e-01 -7.735561e+00 -9.814442e+00 -1.196029e+00 4.634367e+00 -4.808377e-01 -4.226844e-01 -8.557770e-01 2.465931e-02 1.096168e+00 -1.540282e+00 1.668148e+00 -2.615144e-01 -9.410392e-01 -2.436444e+00 -9.354380e-01 5.412375e-01 -1.797678e-01 3.504134e-01 -7.215654e-01 -5.822012e-01 3.165599e-02 -1.409407e-01 1.297835e+00
<VARIANCE> 25
 4.256969e+01 5.574663e+01 4.113179e+01 7.115722e+01 7.381397e+01 7.802874e+01 5.805240e+01 6.213908e+01 5.502432e+01 4.915310e+01 5.337447e+01 3.636534e+01 5.317393e+00 4.829736e+00 4.530986e+00 7.102092e+00 7.297007e+00 7.545418e+00 6.719364e+00 6.048089e+00 5.806370e+00 4.747612e+00 4.789754e+00 4.559706e+00 4.749901e+00
<GCONST> 1.164123e+02
<STATE> 3
<MEAN> 25
 1.017366e+01 -1.794903e+00 -8.930503e+00 -1.723904e+01 -3.610854e+00 9.731055e+00 1.214130e+00 -2.252649e-01 -2.199260e+00 -3.024396e+00 1.631708e-01 -8.464248e-01 9.331565e-02 -3.515787e-01 -4.263031e-01 5.207380e-03 4.828573e-01 1.580041e-01 -9.915940e-04 5.363134e-02 -1.682840e-01 -1.090413e-01 2.572060e-01 1.927569e-01 9.151842e-02
<VARIANCE> 25
 1.169447e+01 5.183669e+01 3.146467e+01 4.970839e+01 1.040385e+02 8.452821e+01 7.655076e+01 6.424090e+01 5.338193e+01 4.541801e+01 5.140867e+01 3.978873e+01 3.066860e-01 1.350756e+00 1.238821e+00 1.794512e+00 2.251690e+00 2.053228e+00 2.371610e+00 1.958475e+00 1.955227e+00 2.202368e+00 2.000855e+00 1.809665e+00 5.346671e-01
<GCONST> 9.781350e+01
<STATE> 4
<MEAN> 25
 9.386240e+00 -4.260034e+00 -1.372751e+01 -8.833132e+00 4.382107e+00 4.575978e+00 -4.392398e+00 -1.406956e-01 -2.681871e+00 -2.200681e+00 2.964460e+00 -9.308703e-01 -1.786759e-01 -4.845738e-02 8.232147e-05 1.689400e+00 9.565931e-01 -1.046276e+00 -1.172376e+00 -1.318738e-01 8.274683e-01 5.833333e-01 -3.281060e-01 -2.630804e-01 -3.633163e-01
<VARIANCE> 25
 3.788255e+01 3.573902e+01 3.937228e+01 7.945118e+01 7.852997e+01 6.591564e+01 1.317489e+02 9.291216e+01 8.462394e+01 7.532482e+01 6.623747e+01 7.005851e+01 8.596862e-01 2.283175e+00 3.051410e+00 3.259214e+00 4.645512e+00 4.047428e+00 5.320144e+00 4.412790e+00 3.953208e+00 3.312794e+00 3.881601e+00 3.635137e+00 1.152056e+00
<GCONST> 1.107951e+02
<TRANSP> 5
 0.000000e+00 1.000000e+00 0.000000e+00 0.000000e+00 0.000000e+00
 0.000000e+00 7.224078e-01 2.775923e-01 0.000000e+00 0.000000e+00
 0.000000e+00 0.000000e+00 8.356296e-01 1.643704e-01 0.000000e+00
 0.000000e+00 0.000000e+00 0.000000e+00 7.372371e-01 2.627628e-01
 0.000000e+00 0.000000e+00 0.000000e+00 0.000000e+00 0.000000e+00
<ENDHMM>
~h "aw"
<BEGINHMM>
<NUMSTATES> 5
<STATE> 2
<MEAN> 25
 4.154097e+00 -1.238192e+01 -3.994218e+00 -2.359282e+00 -1.672278e+00 1.494774e+00 1.379064e+00 2.764278e+00 5.028489e-01 -4.974119e+00 -5.288926e+00 -3.480719e+00 4.027548e-01 -1.130711e+00 -1.007415e+00 -2.525315e-01 9.242114e-01 1.349342e+00 -2.106402e-01 -5.166832e-01 4.875731e-01 -2.640897e-01 -3.721943e-01 -4.357521e-01 5.580524e-01
<VARIANCE> 25
 1.341099e+01 3.433076e+01 3.365936e+01 3.129621e+01 5.864582e+01 6.113007e+01 4.213589e+01 5.458495e+01 6.930374e+01 4.127002e+01 4.179570e+01 4.577459e+01 1.040707e+00 2.649281e+00 2.138364e+00 2.433080e+00 2.958210e+00 2.840929e+00 4.078233e+00 4.787558e+00 3.426275e+00 2.749256e+00 2.805961e+00 2.771890e+00 1.281973e+00
<GCONST> 1.027854e+02
<STATE> 3
<MEAN> 25
 7.780522e+00 -1.136672e+01 -8.760334e+00 -5.197602e+00 2.277941e+00 9.343801e+00 -1.965490e+00 -2.171196e+00 2.786419e+00 -2.312095e+00 -4.493360e+00 -5.737743e+00 4.334882e-01 7.710738e-01 -3.705555e-01 -8.219613e-01 -1.503673e-01 6.132706e-01 -1.429705e-02 -5.866272e-01 -2.246557e-01 4.254828e-01 6.502330e-01 7.541833e-02 -5.348202e-01
<VARIANCE> 25
 1.074539e+01 2.999235e+01 1.895499e+01 3.562186e+01 3.782769e+01 6.288784e+01 5.219454e+01 4.531789e+01 3.963302e+01 4.806347e+01 4.019175e+01 3.952977e+01 2.918194e-01 8.524042e-01 8.425250e-01 1.513971e+00 1.828601e+00 2.033281e+00 1.649012e+00 1.868065e+00 2.223037e+00 1.829520e+00 1.487303e+00 1.940767e+00 2.701480e-01
<GCONST> 9.114790e+01
<STATE> 4
<MEAN> 25
 9.981495e+00 -3.873488e+00 -8.190377e+00 -9.622864e+00 -1.838420e+00 8.244412e+00 1.031772e+00 -4.964583e+00 8.890245e-01 -4.763655e-01 1.732209e-01 -2.397506e+00 3.880707e-02 1.238577e+00 7.954434e-01 1.046385e+00 -3.091751e-01 -1.248325e+00 -3.159886e-01 1.752843e-01 -4.369893e-01 2.378205e-01 1.418025e-01 4.093865e-01 -1.353042e+00
<VARIANCE> 25
 1.655461e+01 3.982312e+01 3.079548e+01 7.493725e+01 7.393941e+01 6.035145e+01 6.952345e+01 5.727122e+01 5.644030e+01 6.613404e+01 7.996500e+01 3.752525e+01 1.120000e+00 2.564930e+00 2.098910e+00 5.000443e+00 4.840573e+00 3.254935e+00 3.416550e+00 3.668520e+00 3.576862e+00 3.944565e+00 3.703720e+00 3.456923e+00 1.453002e+00
<GCONST> 1.073684e+02
<TRANSP> 5
 0.000000e+00 1.000000e+00 0.000000e+00 0.000000e+00 0.000000e+00
 0.000000e+00 8.048700e-01 1.951300e-01 0.000000e+00 0.000000e+00
 0.000000e+00 0.000000e+00 8.321059e-01 1.678941e-01 0.000000e+00
 0.000000e+00 0.000000e+00 0.000000e+00 8.017818e-01 1.982182e-01
 0.000000e+00 0.000000e+00 0.000000e+00 0.000000e+00 0.000000e+00
<ENDHMM>
~h "ay"
<BEGINHMM>
<NUMSTATES> 5
<STATE> 2
<MEAN> 25
 3.571280e+00 -7.072263e+00 -6.995342e+00 -4.674767e+00 5.006536e+00 7.559327e+00 8.365222e-01 -2.106954e+00 4.128664e+00 4.920316e-01 -1.791900e+00 -1.614169e+00 4.561217e-01 -1.663783e+00 -4.941447e-01 -6.486635e-01 1.474178e-01 4.651829e-01 -1.745908e-01 -9.234174e-03 4.244911e-01 -2.908973e-01 -7.571042e-01 -6.976486e-01 1.541388e+00
<VARIANCE> 25
 4.267413e+01 5.762126e+01 4.409011e+01 7.643681e+01 6.533746e+01 6.278946e+01 9.034090e+01 6.283835e+01 5.694542e+01 6.003077e+01 7.088158e+01 5.922296e+01 2.816090e+00 4.332932e+00 3.309536e+00 4.990870e+00 3.746566e+00 5.114292e+00 4.941772e+00 4.797250e+00 5.299122e+00 4.913218e+00 4.424763e+00 3.680519e+00 3.718606e+00
<GCONST> 1.141076e+02
<STATE> 3
<MEAN> 25
 6.537131e+00 -1.258153e+01 -7.317491e+00 -5.852823e+00 3.923034e+00 6.238358e+00 -1.375916e+00 -3.340856e-01 3.375578e+00 -2.944536e+00 -6.159750e+00 -5.515931e+00 -1.869726e-01 -1.986734e-01 6.206751e-01 5.355085e-01 -6.697403e-01 -1.057366e+00 2.477021e-01 1.034099e+00 2.022019e-02 -4.967490e-01 -3.515237e-01 3.185489e-01 8.871435e-02
<VARIANCE> 25
 8.777117e+00 2.864449e+01 2.972560e+01 3.034358e+01 4.478556e+01 5.732637e+01 6.081303e+01 5.424683e+01 4.406140e+01 4.945784e+01 3.805974e+01 3.395145e+01 3.378503e-01 8.928397e-01 1.141756e+00 1.414337e+00 2.251575e+00 2.221872e+00 2.110490e+00 2.524935e+00 1.839953e+00 1.628885e+00 1.512579e+00 1.601251e+00 2.544152e-01
<GCONST> 9.225872e+01
<STATE> 4
<MEAN> 25
 4.165567e+00 -8.581633e+00 1.545275e+00 -3.294106e+00 -8.539346e+00 -4.054646e+00 2.308508e+00 4.351823e+00 -4.910913e-01 -2.420588e+00 -3.449911e+00 -2.088179e+00 -7.458603e-02 1.507222e+00 1.367115e+00 4.662380e-01 -1.309004e+00 -1.001022e+00 1.010385e-01 -5.403941e-01 -8.353072e-01 8.760713e-01 8.322939e-01 2.985411e-01 -9.783169e-01
<VARIANCE> 25
 1.243592e+01 3.627919e+01 4.912645e+01 3.444992e+01 5.366312e+01 4.194210e+01 4.403771e+01 5.929053e+01 6.016718e+01 5.105822e+01 4.552510e+01 3.507117e+01 6.308981e-01 1.359488e+00 2.666092e+00 2.319283e+00 4.669810e+00 3.348663e+00 4.420443e+00 4.786011e+00 3.629909e+00 3.557112e+00 2.874919e+00 2.916661e+00 9.168386e-01
<GCONST> 1.025527e+02
<TRANSP> 5
 0.000000e+00 1.000000e+00 0.000000e+00 0.000000e+00 0.000000e+00
 0.000000e+00 7.596343e-01 2.403657e-01 0.000000e+00 0.000000e+00
 0.000000e+00 0.000000e+00 8.369396e-01 1.630604e-01 0.000000e+00
 0.000000e+00 0.000000e+00 0.000000e+00 7.964699e-01 2.035301e-01
 0.000000e+00 0.000000e+00 0.000000e+00 0.000000e+00 0.000000e+00
<ENDHMM>
~h "ch"
<BEGINHMM>
<NUMSTATES> 5
<STATE> 2
<MEAN> 25
 -7.614417e+00 1.135487e+00 4.572742e+00 4.128298e-01 1.498852e+00 1.137730e+00 6.880288e-01 4.974283e-02 2.343864e+00 5.744495e-01 2.770992e+00 1.473170e+00 -4.275605e+00 -9.184735e-02 3.030224e-01 -1.482610e+00 6.940706e-01 1.191117e+00 9.002384e-01 4.000211e-01 7.985151e-01 3.810275e-01 1.110050e+00 3.056061e-01 1.521233e+00
<VARIANCE> 25
 7.259022e+01 4.399397e+01 3.953278e+01 5.092881e+01 4.945856e+01 5.121498e+01 4.218263e+01 4.142809e+01 4.159981e+01 3.850042e+01 3.082321e+01 2.181851e+01 4.753596e+00 5.234428e+00 5.341322e+00 3.849379e+00 5.563785e+00 5.542621e+00 4.442983e+00 3.829919e+00 4.710688e+00 3.933880e+00 3.118886e+00 2.930872e+00 8.790224e+00
<GCONST> 1.106227e+02
<STATE> 3
<MEAN> 25
 -2.196937e+01 1.196751e+00 7.965667e+00 -2.929029e+00 8.275698e-01 3.448441e+00 5.012963e+00 1.315530e+00 4.280865e+00 3.700617e-01 4.246509e+00 2.238258e+00 -2.603803e-01 -4.198226e-01 4.407187e-01 7.332731e-01 -8.768426e-01 -3.467843e-01 6.233258e-01 4.066440e-02 -8.723145e-02 -1.379209e-01 -3.033511e-01 2.183858e-01 3.985879e-01
<VARIANCE> 25
 1.943270e+01 3.542232e+01 1.898945e+01 2.021589e+01 4.405544e+01 2.987174e+01 3.152205e+01 3.415883e+01 3.170796e+01 2.653883e+01 2.606348e+01 1.827589e+01 4.757080e+00 1.881037e+00 2.154709e+00 2.202984e+00 2.470752e+00 2.563470e+00 2.273395e+00 2.729927e+00 1.917542e+00 1.718740e+00 1.695934e+00 1.726863e+00 2.703547e+00
<GCONST> 9.617903e+01
<STATE> 4
<MEAN> 25
 -1.297523e+01 -2.133573e+00 3.840042e+00 2.837747e+00 -1.474045e+00 2.447405e-02 4.390701e+00 1.750879e+00 4.371592e+00 9.845064e-01 1.523371e+00 2.338289e+00 3.180631e+00 2.671863e-01 -8.628765e-01 3.031317e-01 5.258724e-02 -6.442613e-01 -9.303458e-01 -1.114622e-01 -2.616977e-01 -2.990378e-01 -5.416421e-01 -2.636799e-01 -9.067037e-01
<VARIANCE> 25
 6.292242e+01 3.971677e+01 6.513590e+01 3.450245e+01 3.101659e+01 6.487908e+01 4.212280e+01 3.572113e+01 3.654609e+01 3.353500e+01 3.726783e+01 2.018676e+01 6.450904e+00 2.436207e+00 2.795506e+00 3.144753e+00 4.230302e+00 5.149339e+00 3.942044e+00 3.707693e+00 3.880632e+00 2.588184e+00 3.123604e+00 2.125070e+00 4.681470e+00
<GCONST> 1.065808e+02
<TRANSP> 5
 0.000000e+00 1.000000e+00 0.000000e+00 0.000000e+00 0.000000e+00
 0.000000e+00 7.414322e-01 2.585678e-01 0.000000e+00 0.000000e+00
 0.000000e+00 0.000000e+00 7.631453e-01 2.368547e-01 0.000000e+00
 0.000000e+00 0.000000e+00 0.000000e+00 7.533367e-01 2.466633e-01
 0.000000e+00 0.000000e+00 0.000000e+00 0.000000e+00 0.000000e+00
<ENDHMM>
~h "dh"
<BEGINHMM>
<NUMSTATES> 5
<STATE> 2
<MEAN> 25
 8.197335e-01 6.694102e+00 7.002655e-01 6.127587e+00 2.527880e+00 -6.885394e-01 -2.930936e-01 -2.959059e+00 9.506620e-01 3.712139e-01 -2.012269e+00 -1.627974e+00 -6.269011e-01 1.434057e-01 -2.336081e-02 1.609336e-01 2.943121e-01 1.333896e-01 3.078661e-01 -5.932356e-02 2.421370e-01 -2.849118e-01 2.522998e-01 3.444340e-02 3.067448e-01
<VARIANCE> 25
 4.544241e+01 3.063121e+01 3.192638e+01 3.046503e+01 3.989952e+01 4.563372e+01 4.381155e+01 4.772476e+01 4.405192e+01 3.925510e+01 3.656727e+01 3.307418e+01 4.426167e+00 3.526348e+00 2.685429e+00 3.607121e+00 3.509933e+00 5.084450e+00 4.697541e+00 4.116597e+00 3.768789e+00 3.412299e+00 3.476103e+00 2.893887e+00 6.111917e+00
<GCONST> 1.073064e+02
<STATE> 3
<MEAN> 25
 -1.179547e+00 5.012686e+00 2.052023e-01 4.779817e+00 2.308667e+00 -1.149797e+00 1.873039e-01 -2.362094e+00 1.400423e+00 -1.714185e-01 -6.064360e-01 -6.765566e-01 -2.496386e-01 -1.522869e+00 -4.422328e-01 -1.485262e+00 -1.545530e+00 -1.590982e+00 -6.361313e-01 4.748661e-01 7.829842e-01 1.278112e-01 3.642663e-01 5.050756e-01 2.871193e+00
<VARIANCE> 25
 3.564249e+01 2.573191e+01 2.475685e+01 2.937551e+01 3.827236e+01 4.916448e+01 4.308052e+01 4.089716e+01 3.097068e+01 3.139001e+01 3.006460e+01 3.050173e+01 3.433102e+00 2.331168e+00 2.982986e+00 3.070244e+00 3.524126e+00 4.829485e+00 4.616654e+00 4.078671e+00 4.331264e+00 3.498386e+00 3.400597e+00 3.575382e+00 4.732394e+00
<GCONST> 1.049071e+02
<STATE> 4
<MEAN> 25
 -5.018428e+00 -2.637403e+00 -3.003987e+00 2.409351e+00 1.899759e+00 -1.798816e+00 8.106820e-01 1.575175e+00 3.867455e+00 -9.273054e-01 5.827677e-01 3.141629e+00 4.765331e-01 -6.075282e-01 3.369813e-02 -6.553121e-01 -9.219233e-01 -7.197343e-01 -5.471887e-01 1.073006e-01 1.368012e-01 6.770164e-03 -8.441523e-02 -5.968503e-03 1.657551e+00
<VARIANCE> 25
 3.913529e+01 8.088744e+01 3.318410e+01 3.631721e+01 5.656411e+01 5.501912e+01 4.935087e+01 4.469329e+01 3.554703e+01 3.709769e+01 3.350161e+01 4.111190e+01 2.281301e+00 3.293571e+00 2.551940e+00 3.506104e+00 4.443973e+00 4.759770e+00 4.320887e+00 3.862701e+00 3.282431e+00 3.297031e+00 3.022849e+00 2.680226e+00 6.073494e+00
<GCONST> 1.076078e+02
<TRANSP> 5
 0.000000e+00 1.000000e+00 0.000000e+00 0.000000e+00 0.000000e+00
 0.000000e+00 4.386905e-01 5.613095e-01 0.000000e+00 0.000000e+00
 0.000000e+00 0.000000e+00 2.195913e-01 7.804087e-01 0.000000e+00
 0.000000e+00 0.000000e+00 0.000000e+00 6.174225e-01 3.825775e-01
 0.000000e+00 0.000000e+00 0.000000e+00 0.000000e+00 0.000000e+00
<ENDHMM>
~h "eh"
<BEGINHMM>
<NUMSTATES> 5
<STATE> 2
<MEAN> 25
 3.580840e+00 -3.839172e+00 9.939299e-01 -2.322610e+00 -7.729220e+00 -5.499534e+00 -1.318477e+00 1.689835e+00 5.409861e-01 -9.210245e-01 -2.880304e+00 -1.777322e+00 1.227938e+00 -2.200779e+00 9.996927e-02 -1.522553e+00 -1.889739e+00 -8.585143e-01 9.090830e-02 1.259778e+00 1.717388e-02 -4.689485e-01 -9.044161e-01 -4.757183e-01 2.153019e+00
<VARIANCE> 25
 1.985342e+01 4.149250e+01 4.548495e+01 4.119583e+01 6.363835e+01 5.606464e+01 5.366982e+01 4.977647e+01 5.738759e+01 4.434042e+01 4.554539e+01 3.251768e+01 5.166842e+00 3.347370e+00 3.346326e+00 4.252226e+00 5.098492e+00 5.831780e+00 6.637467e+00 5.762152e+00 5.318175e+00 4.733526e+00 4.576150e+00 3.560316e+00 2.563116e+00
<GCONST> 1.109086e+02
<STATE> 3
<MEAN> 25
 4.287218e+00 -8.888906e+00 8.694841e-01 -4.479340e+00 -9.085282e+00 -4.447234e+00 1.799819e+00 5.484756e+00 -9.492710e-01 -2.426641e+00 -3.854824e+00 -2.675846e+00 1.182516e-01 -3.569357e-01 -3.158044e-01 1.285990e-01 3.615679e-01 3.496912e-02 8.814161e-02 4.076589e-01 -7.295365e-02 -3.235284e-01 -1.186289e-01 1.376685e-02 -3.255433e-02
<VARIANCE> 25
 1.135125e+01 3.024467e+01 4.024051e+01 3.005278e+01 4.988021e+01 5.210289e+01 5.777977e+01 6.319664e+01 8.041520e+01 5.519792e+01 4.604854e+01 3.419862e+01 4.758311e-01 1.285030e+00 1.577705e+00 1.683913e+00 1.751382e+00 2.323593e+00 2.540230e+00 2.565658e+00 1.895271e+00 1.826652e+00 1.611936e+00 1.643403e+00 4.544992e-01
<GCONST> 9.589981e+01
<STATE> 4
<MEAN> 25
 4.644275e+00 -8.280881e+00 -1.427688e+00 -1.398240e+00 -5.015828e+00 -4.005597e+00 1.637006e-02 6.096994e+00 1.491573e+00 -3.179619e+00 -3.760734e+00 -1.508880e+00 2.137474e-01 1.261368e+00 -1.390404e-01 9.116776e-01 8.398240e-01 -2.286535e-02 -7.113883e-01 -6.343027e-01 -1.003939e-01 7.275580e-02 3.322772e-01 9.646140e-02 -1.492046e+00
<VARIANCE> 25
 1.914822e+01 3.142525e+01 5.467015e+01 4.831351e+01 4.988571e+01 5.901482e+01 5.709566e+01 6.410822e+01 6.989683e+01 5.901978e+01 5.321016e+01 4.599427e+01 1.259718e+00 2.278323e+00 2.708982e+00 2.839680e+00 2.854310e+00 3.095350e+00 3.485944e+00 3.512490e+00 2.966598e+00 3.026928e+00 2.457909e+00 2.479912e+00 2.108699e+00
<GCONST> 1.050732e+02
<TRANSP> 5
 0.000000e+00 1.000000e+00 0.000000e+00 0.000000e+00 0.000000e+00
 0.000000e+00 5.411237e-01 4.588763e-01 0.000000e+00 0.000000e+00
 0.000000e+00 0.000000e+00 7.449504e-01 2.550496e-01 0.000000e+00
 0.000000e+00 0.000000e+00 0.000000e+00 5.965019e-01 4.034981e-01
 0.000000e+00 0.000000e+00 0.000000e+00 0.000000e+00 0.000000e+00
<ENDHMM>
~h "er"
<BEGINHMM>
<NUMSTATES> 5
<STATE> 2
<MEAN> 25
 8.522978e+00 -4.210480e+00 -6.141236e+00 1.320545e+00 8.627284e-02 -7.454738e+00 -8.554354e+00 2.075351e+00 -1.953375e-01 -5.740592e-01 -9.405353e-01 -6.592444e-01 2.203859e+00 -1.075712e+00 -1.597077e+00 2.513778e-02 1.878588e-01 -1.817938e+00 -2.504540e+00 1.286443e+00 3.341265e-01 -2.367057e-01 -6.499766e-02 1.979603e-01 7.341917e-01
<VARIANCE> 25
 2.629232e+01 2.791724e+01 7.388937e+01 4.508445e+01 7.073496e+01 6.469267e+01 8.671815e+01 6.705670e+01 5.804828e+01 4.388726e+01 3.755637e+01 3.433568e+01 4.586841e+00 2.799471e+00 3.985759e+00 4.018507e+00 4.636307e+00 5.132724e+00 7.255646e+00 5.991328e+00 5.367403e+00 3.966104e+00 3.687779e+00 3.010314e+00 1.495979e+00
<GCONST> 1.108941e+02
<STATE> 3
<MEAN> 25
 1.092675e+01 -6.457423e+00 -8.661546e+00 3.072839e+00 1.486747e+00 -1.126782e+01 -1.196962e+01 6.822820e+00 2.024206e+00 -1.893286e+00 -1.179436e+00 -2.168917e-02 -2.588063e-02 1.012618e-01 2.071058e-01 4.006641e-01 3.115978e-02 -2.626404e-01 5.863477e-02 1.428878e-01 3.238261e-02 -3.084420e-01 -5.968745e-02 1.756160e-01 -3.595799e-01
<VARIANCE> 25
 1.230729e+01 2.253750e+01 6.023112e+01 3.945089e+01 6.887392e+01 5.360281e+01 1.083963e+02 7.054514e+01 7.693845e+01 5.113944e+01 3.773850e+01 3.684813e+01 5.789443e-01 1.014373e+00 2.326041e+00 1.516162e+00 2.696777e+00 2.253764e+00 2.948907e+00 2.724327e+00 2.402570e+00 2.256876e+00 1.881673e+00 1.702763e+00 5.090027e-01
<GCONST> 9.881255e+01
<STATE> 4
<MEAN> 25
 3.226756e+00 -4.314586e+00 -5.202316e+00 4.992931e+00 2.638543e+00 -5.524769e+00 -3.635822e+00 6.523458e+00 3.780251e+00 -1.222996e+00 -2.206617e-02 1.840286e+00 -9.722458e-01 7.827645e-01 1.081258e+00 3.077153e-03 -2.273886e-01 9.974931e-01 1.484657e+00 -7.182551e-01 -3.474099e-01 1.785819e-01 1.970972e-01 -5.768365e-02 -1.101633e+00
<VARIANCE> 25
 7.450713e+01 4.489526e+01 5.827921e+01 5.324896e+01 7.259667e+01 1.053501e+02 9.231395e+01 6.956424e+01 1.200940e+02 6.643368e+01 5.160234e+01 3.853806e+01 1.964881e+00 3.274177e+00 3.924500e+00 2.886930e+00 4.156327e+00 4.576507e+00 5.640049e+00 5.336378e+00 5.247345e+00 4.105324e+00 3.326776e+00 2.869517e+00 2.362366e+00
<GCONST> 1.132165e+02
<TRANSP> 5
 0.000000e+00 1.000000e+00 0.000000e+00 0.000000e+00 0.000000e+00
 0.000000e+00 6.414569e-01 3.585431e-01 0.000000e+00 0.000000e+00
 0.000000e+00 0.000000e+00 8.015756e-01 1.984244e-01 0.000000e+00
 0.000000e+00 0.000000e+00 0.000000e+00 7.703822e-01 2.296178e-01
 0.000000e+00 0.000000e+00 0.000000e+00 0.000000e+00 0.000000e+00
<ENDHMM>
~h "ey"
<BEGINHMM>
<NUMSTATES> 5
<STATE> 2
<MEAN> 25
 2.626194e+00 -4.176578e+00 6.732871e+00 -3.198044e+00 -1.317308e+01 -6.411939e+00 9.648440e-01 2.594887e+00 -3.263391e+00 -7.080409e-01 1.606766e-01 -9.236094e-01 -2.411292e-01 -4.815270e-02 1.406917e+00 -8.870511e-01 -1.866060e+00 1.452801e-01 7.664909e-01 -4.578756e-01 -1.119867e+00 3.875125e-01 7.439127e-01 -2.720577e-01 4.916843e-01
<VARIANCE> 25
 8.963047e+00 2.432851e+01 3.882009e+01 3.970903e+01 3.937980e+01 4.869184e+01 4.332929e+01 5.314479e+01 5.172504e+01 3.913945e+01 3.734963e+01 3.062543e+01 1.472582e+00 2.382984e+00 2.741732e+00 2.909625e+00 3.184944e+00 4.184623e+00 4.175161e+00 4.200987e+00 4.017904e+00 3.375252e+00 3.061014e+00 2.135526e+00 1.462548e+00
<GCONST> 1.022792e+02
<STATE> 3
<MEAN> 25
 1.097250e+00 -7.330517e-01 1.250645e+01 -8.235678e+00 -1.612858e+01 -1.384646e+00 -8.698699e-01 -4.628859e+00 -5.930942e+00 3.060713e+00 -2.163897e-01 -3.070276e+00 -3.423855e-02 6.246008e-01 6.434005e-01 9.909099e-02 -3.053473e-03 4.621647e-01 -5.350306e-01 -8.717068e-01 -2.841748e-01 2.733742e-01 -2.322709e-01 7.323023e-03 -5.305609e-01
<VARIANCE> 25
 8.081107e+00 2.311975e+01 3.348592e+01 5.823879e+01 3.092067e+01 7.503787e+01 5.773587e+01 5.939826e+01 4.371726e+01 4.214778e+01 6.643427e+01 3.218798e+01 3.236469e-01 7.472061e-01 8.981444e-01 1.116271e+00 1.187306e+00 1.679603e+00 1.459678e+00 2.109492e+00 1.790684e+00 1.618753e+00 1.559590e+00 1.673220e+00 3.705925e-01
<GCONST> 9.125782e+01
<STATE> 4
<MEAN> 25
 2.136256e+00 1.965466e+00 1.251991e+01 -1.627323e+00 -1.240508e+01 -1.607402e+00 -8.806543e-01 -5.539688e+00 -6.665855e+00 1.660775e+00 -3.576750e-01 -1.723582e+00 8.265741e-02 5.146796e-01 -1.266673e+00 1.800996e+00 2.371313e+00 -1.646667e-01 4.134480e-01 2.995111e-01 7.158755e-01 -7.129768e-01 -5.444370e-03 1.727906e-01 -1.787968e+00
<VARIANCE> 25
 1.288557e+01 2.515693e+01 4.039787e+01 6.442278e+01 5.461397e+01 6.964815e+01 5.451723e+01 6.016147e+01 5.705970e+01 4.242043e+01 5.697085e+01 3.581909e+01 2.232316e+00 1.921764e+00 2.735643e+00 3.376578e+00 4.237697e+00 5.073687e+00 4.129992e+00 4.195923e+00 3.571619e+00 3.476632e+00 3.970096e+00 2.550224e+00 1.813608e+00
<GCONST> 1.063738e+02
<TRANSP> 5
 0.000000e+00 1.000000e+00 0.000000e+00 0.000000e+00 0.000000e+00
 0.000000e+00 7.377920e-01 2.622081e-01 0.000000e+00 0.000000e+00
 0.000000e+00 0.000000e+00 8.383448e-01 1.616553e-01 0.000000e+00
 0.000000e+00 0.000000e+00 0.000000e+00 7.147886e-01 2.852115e-01
 0.000000e+00 0.000000e+00 0.000000e+00 0.000000e+00 0.000000e+00
<ENDHMM>
~h "hh"
<BEGINHMM>
<NUMSTATES> 5
<STATE> 2
<MEAN> 25
 -5.764822e+00 -4.892622e+00 6.710745e-01 2.387552e+00 3.665133e+00 3.204521e+00 5.905252e+00 3.117112e+00 2.224151e+00 2.225909e-01 1.594392e+00 2.083329e+00 -2.291817e-01 -3.509207e-01 -6.407236e-02 -5.508966e-02 1.087860e-01 3.009004e-01 2.967811e-01 1.910335e-01 1.771573e-01 4.691871e-02 -5.505036e-02 6.077217e-02 7.073228e-02
<VARIANCE> 25
 3.489543e+01 5.882812e+01 4.829161e+01 3.029479e+01 6.909712e+01 6.733907e+01 4.350069e+01 4.333408e+01 4.925274e+01 4.983861e+01 3.489536e+01 2.950165e+01 1.155845e+00 1.676012e+00 1.475727e+00 1.786927e+00 2.269320e+00 2.468183e+00 3.094202e+00 2.630602e+00 2.784127e+00 2.637030e+00 1.976814e+00 1.879564e+00 7.785035e-01
<GCONST> 1.000980e+02
<STATE> 3
<MEAN> 25
 -3.993037e+00 -4.438651e+00 1.768103e+00 1.213592e+00 1.582131e+00 3.849854e+00 6.835775e+00 2.793711e+00 -5.072095e-01 -3.443616e-01 -5.874459e-01 1.015216e+00 5.901012e-01 7.243848e-02 2.356669e-01 -1.575195e-01 -6.448191e-01 -2.309922e-01 -4.688038e-01 -3.732751e-01 -4.841577e-01 -2.998902e-01 -5.734693e-01 -2.984043e-01 5.296159e-01
<VARIANCE> 25
 4.000561e+01 6.584061e+01 6.767963e+01 5.528251e+01 9.038626e+01 5.520489e+01 8.358543e+01 6.256200e+01 6.005738e+01 5.090626e+01 4.443345e+01 3.030285e+01 2.117113e+00 2.212574e+00 2.705461e+00 3.265385e+00 3.307885e+00 3.375437e+00 3.088665e+00 3.521201e+00 3.339928e+00 2.861911e+00 2.587683e+00 2.243566e+00 1.283578e+00
<GCONST> 1.071463e+02
<STATE> 4
<MEAN> 25
 -3.962979e+00 -2.208992e+00 2.298061e+00 -5.111809e-01 1.856491e+00 3.839963e+00 3.799116e+00 -1.708182e-01 2.938005e-01 -5.430164e-01 -1.520662e+00 6.877751e-01 1.399186e+00 3.855182e-01 1.648010e-01 -7.681376e-01 -1.344523e+00 -1.104173e+00 -1.507521e+00 -9.884766e-01 -1.029663e+00 -7.257736e-01 -9.755296e-01 -6.872428e-01 2.049196e+00
<VARIANCE> 25
 4.884539e+01 7.383912e+01 7.295582e+01 5.725390e+01 8.810337e+01 6.276992e+01 6.519436e+01 5.865812e+01 6.180921e+01 5.527812e+01 4.363601e+01 3.539654e+01 4.558787e+00 4.306864e+00 4.539170e+00 3.597899e+00 5.954131e+00 4.661360e+00 5.201721e+00 4.913450e+00 4.144251e+00 4.306456e+00 4.071213e+00 2.941391e+00 4.454151e+00
<GCONST> 1.140141e+02
<TRANSP> 5
 0.000000e+00 1.000000e+00 0.000000e+00 0.000000e+00 0.000000e+00
 0.000000e+00 7.568295e-01 2.431705e-01 0.000000e+00 0.000000e+00
 0.000000e+00 0.000000e+00 3.917319e-01 6.082681e-01 0.000000e+00
 0.000000e+00 0.000000e+00 0.000000e+00 5.479045e-01 4.520955e-01
 0.000000e+00 0.000000e+00 0.000000e+00 0.000000e+00 0.000000e+00
<ENDHMM>
~h "ih"
<BEGINHMM>
<NUMSTATES> 5
<STATE> 2
<MEAN> 25
 1.218638e+00 7.743288e-01 5.729658e+00 -1.250948e-01 -7.196482e+00 -5.748189e+00 -2.427750e+00 -1.254185e+00 -2.551834e+00 -4.216663e-01 -2.831475e-01 1.545026e-01 1.385967e+00 -8.108134e-01 1.371787e+00 -8.479959e-01 -2.864838e+00 -1.375692e+00 -9.242445e-01 5.261945e-02 -8.695615e-01 -1.970146e-01 -6.110602e-02 -1.915811e-01 1.818989e+00
<VARIANCE> 25
 3.292968e+01 3.754327e+01 5.141883e+01 4.851011e+01 6.082254e+01 6.147715e+01 6.517904e+01 5.912984e+01 5.049263e+01 4.693818e+01 3.698662e+01 3.423685e+01 5.363589e+00 3.743484e+00 4.210755e+00 5.153087e+00 5.396810e+00 6.774390e+00 6.920854e+00 6.970058e+00 6.048121e+00 4.871762e+00 4.942475e+00 3.774255e+00 3.986286e+00
<GCONST> 1.135307e+02
<STATE> 3
<MEAN> 25
 3.038703e+00 -1.816301e+00 8.509363e+00 -2.732040e+00 -1.219981e+01 -6.886204e+00 -2.563300e+00 -9.612769e-02 -4.623369e+00 -2.096501e-01 6.132665e-01 -4.952583e-01 1.637076e-01 -1.639370e-01 5.516863e-02 -7.842699e-02 -1.633801e-01 -2.536894e-02 1.161176e-01 3.774274e-01 -1.573371e-01 -4.431526e-02 -4.461417e-02 5.073642e-02 8.961378e-02
<VARIANCE> 25
 1.686756e+01 2.957710e+01 4.945951e+01 4.614880e+01 4.981157e+01 5.640265e+01 5.926534e+01 6.967991e+01 5.648799e+01 4.972709e+01 3.994191e+01 3.764655e+01 1.154638e+00 1.831721e+00 2.237789e+00 2.447987e+00 2.765392e+00 3.318484e+00 3.437313e+00 3.781695e+00 3.087145e+00 3.368310e+00 2.525849e+00 2.210372e+00 1.187743e+00
<GCONST> 1.028801e+02
<STATE> 4
<MEAN> 25
 3.996531e+00 -6.739979e-01 6.226510e+00 -5.734839e-01 -8.746366e+00 -7.223927e+00 -3.751210e+00 1.841712e-01 -3.167951e+00 -7.829052e-01 -7.568085e-01 1.629532e-01 -1.507575e-01 1.538085e+00 -5.310329e-01 1.091378e+00 1.858807e+00 6.413645e-01 2.690209e-01 -7.798411e-01 2.993918e-01 -1.498302e-01 -3.130486e-01 -1.590800e-01 -1.702904e+00
<VARIANCE> 25
 1.535179e+01 3.004909e+01 4.550079e+01 4.916324e+01 5.481345e+01 5.320131e+01 5.925267e+01 6.271127e+01 6.204261e+01 5.300932e+01 4.518445e+01 4.405238e+01 2.232919e+00 2.263020e+00 2.604210e+00 3.597154e+00 3.735612e+00 4.413669e+00 4.574965e+00 4.573749e+00 3.859171e+00 3.990438e+00 3.195799e+00 3.291557e+00 2.150344e+00
<GCONST> 1.072407e+02
<TRANSP> 5
 0.000000e+00 1.000000e+00 0.000000e+00 0.000000e+00 0.000000e+00
 0.000000e+00 4.693486e-01 5.306513e-01 0.000000e+00 0.000000e+00
 0.000000e+00 0.000000e+00 5.847023e-01 4.152977e-01 0.000000e+00
 0.000000e+00 0.000000e+00 0.000000e+00 4.563662e-01 5.436338e-01
 0.000000e+00 0.000000e+00 0.000000e+00 0.000000e+00 0.000000e+00
<ENDHMM>
~h "iy"
<BEGINHMM>
<NUMSTATES> 5
<STATE> 2
<MEAN> 25
 1.697677e+00 1.386462e+00 1.243701e+01 1.557682e-01 -1.112277e+01 -6.156339e+00 -3.326655e+00 -3.762303e+00 -7.690891e+00 -1.295230e+00 3.841073e-01 -1.191704e+00 1.571402e-01 1.625653e-01 2.795496e+00 -1.314130e+00 -3.012555e+00 6.275437e-01 -2.460464e-01 -1.338215e+00 -1.722892e+00 3.768705e-01 -7.634950e-02 -3.195647e-01 8.819331e-01
<VARIANCE> 25
 2.012932e+01 3.398718e+01 4.592381e+01 5.705397e+01 4.915227e+01 5.915648e+01 5.589851e+01 6.742970e+01 5.038020e+01 5.475860e+01 4.259775e+01 2.947213e+01 4.370477e+00 2.699551e+00 3.364568e+00 5.015652e+00 4.618873e+00 6.577327e+00 8.412169e+00 6.285589e+00 5.173935e+00 5.404886e+00 5.059102e+00 3.361482e+00 2.215157e+00
<GCONST> 1.112489e+02
<STATE> 3
<MEAN> 25
 4.360542e-01 4.574004e+00 1.693344e+01 -5.105124e+00 -1.339687e+01 2.428208e-01 -4.804065e+00 -8.855268e+00 -7.869526e+00 1.245241e+00 -1.631249e+00 -1.856761e+00 7.632967e-03 2.681901e-01 1.134212e-01 -1.823168e-01 -4.225865e-02 4.372358e-01 6.176513e-02 -2.763421e-01 1.386017e-01 2.209159e-01 -1.711774e-01 -9.615199e-02 -2.714693e-01
<VARIANCE> 25
 1.446070e+01 2.864314e+01 3.535552e+01 6.812780e+01 3.443813e+01 5.368061e+01 6.085101e+01 5.273828e+01 5.644185e+01 6.183813e+01 6.595918e+01 3.686003e+01 4.742059e-01 1.210612e+00 1.236199e+00 1.669244e+00 1.546930e+00 2.390214e+00 2.422254e+00 2.233502e+00 1.904165e+00 1.716911e+00 1.790974e+00 1.442460e+00 6.239274e-01
<GCONST> 9.613729e+01
<STATE> 4
<MEAN> 25
 1.509371e+00 3.703949e+00 1.269759e+01 -7.127032e-01 -1.075218e+01 -7.402555e-01 -1.234069e+00 -6.120787e+00 -6.154529e+00 6.312577e-01 -1.057143e+00 -2.037001e+00 1.842984e-01 -2.219566e-01 -1.825603e+00 1.173871e+00 1.793679e+00 -3.185807e-01 6.745374e-01 9.440780e-01 8.212275e-01 -2.384227e-01 1.426495e-01 2.662594e-01 -1.165791e+00
<VARIANCE> 25
 1.752067e+01 3.552013e+01 4.609173e+01 7.182431e+01 6.874815e+01 7.098184e+01 6.901185e+01 7.561097e+01 5.973484e+01 5.868999e+01 5.391912e+01 3.557728e+01 1.651867e+00 2.515838e+00 2.600996e+00 3.122565e+00 4.702938e+00 4.580339e+00 4.218898e+00 4.672155e+00 3.824350e+00 3.966702e+00 3.381920e+00 2.547757e+00 2.861014e+00
<GCONST> 1.087538e+02
<TRANSP> 5
 0.000000e+00 1.000000e+00 0.000000e+00 0.000000e+00 0.000000e+00
 0.000000e+00 5.883082e-01 4.116918e-01 0.000000e+00 0.000000e+00
 0.000000e+00 0.000000e+00 8.033153e-01 1.966847e-01 0.000000e+00
 0.000000e+00 0.000000e+00 0.000000e+00 7.199446e-01 2.800555e-01
 0.000000e+00 0.000000e+00 0.000000e+00 0.000000e+00 0.000000e+00
<ENDHMM>
~h "jh"
<BEGINHMM>
<NUMSTATES> 5
<STATE> 2
<MEAN> 25
 -3.640183e+00 5.758855e+00 7.232738e+00 1.827042e+00 4.451037e+00 3.150669e+00 4.934833e-01 -2.151122e+00 -8.612996e-01 -1.956674e+00 5.890491e-01 -1.309297e+00 -4.140349e+00 -6.126620e-01 5.728153e-01 -8.567680e-01 7.944563e-02 8.020104e-01 7.262128e-01 1.697868e-01 1.159215e+00 1.182859e-01 7.318907e-01 8.534796e-01 1.637948e+00
<VARIANCE> 25
 6.103374e+01 3.715689e+01 7.330965e+01 4.308066e+01 4.782759e+01 4.202608e+01 5.276381e+01 4.102007e+01 4.881551e+01 2.957165e+01 4.195732e+01 2.783904e+01 6.800685e+00 5.227965e+00 4.518313e+00 4.580170e+00 6.428100e+00 4.337681e+00 4.139331e+00 4.463519e+00 4.602899e+00 4.425356e+00 5.109599e+00 3.320216e+00 6.021271e+00
<GCONST> 1.118409e+02
<STATE> 3
<MEAN> 25
 -1.994267e+01 9.710070e-02 9.923040e+00 -1.340506e+00 -8.286729e-01 4.127355e+00 4.713515e+00 -1.587206e+00 3.614330e+00 -1.490264e+00 1.937558e+00 2.241523e+00 -4.514741e-01 -3.057698e-01 -2.707886e-02 2.839864e-01 -9.278531e-01 -1.212961e+00 3.738580e-01 1.643108e-01 3.853628e-03 -1.848266e-01 5.668923e-02 1.974000e-01 1.005848e+00
<VARIANCE> 25
 4.682529e+01 5.666681e+01 3.351284e+01 2.576797e+01 3.867051e+01 3.043380e+01 4.433825e+01 3.923689e+01 4.694712e+01 3.488756e+01 2.894992e+01 2.055332e+01 1.047522e+01 2.193542e+00 3.124879e+00 3.141129e+00 3.905720e+00 4.222641e+00 3.323714e+00 2.729874e+00 3.497037e+00 2.565856e+00 2.018716e+00 1.595266e+00 4.088879e+00
<GCONST> 1.041122e+02
<STATE> 4
<MEAN> 25
 -7.958477e+00 2.937842e+00 9.464091e+00 2.415365e+00 -3.787087e+00 -5.333192e+00 -6.103182e-02 -3.168128e+00 1.286586e+00 -3.009592e+00 1.223342e+00 1.890795e+00 4.533019e+00 -7.583926e-01 -1.014082e+00 -7.497661e-03 -1.555906e+00 -2.514844e+00 -1.793567e+00 -6.618299e-03 -4.695488e-01 2.069442e-01 -6.183576e-02 1.093509e-01 1.573981e-01
<VARIANCE> 25
 5.401406e+01 4.294246e+01 2.449398e+01 5.711595e+01 3.762474e+01 4.685631e+01 5.346285e+01 3.975453e+01 5.601434e+01 2.774435e+01 2.125865e+01 2.144213e+01 5.992584e+00 5.085558e+00 3.061541e+00 3.498145e+00 7.311323e+00 8.252866e+00 5.957159e+00 5.872402e+00 3.738499e+00 3.463476e+00 3.488305e+00 2.755343e+00 2.998421e+00
<GCONST> 1.089117e+02
<TRANSP> 5
 0.000000e+00 1.000000e+00 0.000000e+00 0.000000e+00 0.000000e+00
 0.000000e+00 7.019754e-01 2.980246e-01 0.000000e+00 0.000000e+00
 0.000000e+00 0.000000e+00 7.022981e-01 2.977020e-01 0.000000e+00
 0.000000e+00 0.000000e+00 0.000000e+00 6.014281e-01 3.985719e-01
 0.000000e+00 0.000000e+00 0.000000e+00 0.000000e+00 0.000000e+00
<ENDHMM>
~h "ng"
<BEGINHMM>
<NUMSTATES> 5
<STATE> 2
<MEAN> 25
 4.182603e+00 3.964056e+00 8.162335e+00 -3.987503e+00 -1.027349e+01 1.852902e+00 -2.216235e-02 -8.988551e+00 -7.903672e+00 3.168792e+00 -2.919707e+00 -4.524160e+00 1.104033e+00 1.098902e+00 -1.396642e+00 1.677164e+00 1.516734e+00 -3.716344e-01 -1.956367e-01 -1.589918e+00 2.668582e-01 1.852724e-01 -5.516743e-01 -1.549378e-01 -1.528908e+00
<VARIANCE> 25
 1.801646e+01 2.010680e+01 4.437804e+01 5.441386e+01 5.385206e+01 4.771486e+01 8.170461e+01 7.023163e+01 5.784827e+01 5.894685e+01 6.844102e+01 4.225113e+01 8.210269e-01 1.237671e+00 3.334655e+00 3.574097e+00 3.642073e+00 5.544068e+00 3.963056e+00 4.528629e+00 3.722683e+00 4.661444e+00 2.581225e+00 3.057818e+00 5.767564e-01
<GCONST> 1.049953e+02
<STATE> 3
<MEAN> 25
 8.337523e+00 6.428452e+00 1.744290e+00 1.586108e+00 -4.352819e+00 -1.066339e+00 -5.003720e-01 -1.082526e+01 -5.816067e+00 1.219318e+00 -2.830318e+00 -2.966491e+00 1.360444e-01 3.926513e-01 -3.486121e-01 5.554036e-01 5.334666e-01 -1.831180e-01 2.693302e-03 1.222426e-01 1.338586e-01 -3.155965e-01 3.411668e-02 7.904784e-02 -5.547919e-01
<VARIANCE> 25
 1.016554e+01 1.872435e+01 2.922963e+01 3.769059e+01 3.251018e+01 3.587667e+01 7.241918e+01 5.466025e+01 3.821226e+01 3.699083e+01 5.024966e+01 4.086081e+01 5.042138e-01 8.740780e-01 1.261040e+00 1.731624e+00 2.103169e+00 2.222859e+00 2.047107e+00 2.066128e+00 2.109027e+00 2.350786e+00 1.653897e+00 1.654110e+00 5.217044e-01
<GCONST> 9.332933e+01
<STATE> 4
<MEAN> 25
 4.212188e+00 4.845394e+00 3.873595e+00 2.626734e+00 -2.773517e+00 -1.164585e+00 9.437987e-01 -6.148994e+00 -5.997612e+00 -1.822259e-01 -2.108099e+00 -1.808202e+00 -1.215818e+00 -9.657090e-01 1.627109e-01 -2.492462e-01 8.092577e-01 3.155278e-01 4.094263e-01 2.091813e+00 6.781540e-01 -3.751593e-01 2.439676e-01 5.809799e-01 -1.853018e-01
<VARIANCE> 25
 2.292435e+01 2.672121e+01 4.068527e+01 4.200634e+01 6.886952e+01 6.113496e+01 5.816902e+01 8.571910e+01 5.329847e+01 4.696112e+01 5.533973e+01 4.301058e+01 1.534271e+00 2.527016e+00 3.112649e+00 3.887585e+00 5.066314e+00 4.640775e+00 4.628881e+00 4.972928e+00 4.983397e+00 4.958415e+00 4.282304e+00 2.938788e+00 2.331120e+00
<GCONST> 1.089964e+02
<TRANSP> 5
 0.000000e+00 1.000000e+00 0.000000e+00 0.000000e+00 0.000000e+00
 0.000000e+00 6.679295e-01 3.320704e-01 0.000000e+00 0.000000e+00
 0.000000e+00 0.000000e+00 7.234286e-01 2.765714e-01 0.000000e+00
 0.000000e+00 0.000000e+00 0.000000e+00 6.377674e-01 3.622326e-01
 0.000000e+00 0.000000e+00 0.000000e+00 0.000000e+00 0.000000e+00
<ENDHMM>
~h "ow"
<BEGINHMM>
<NUMSTATES> 5
<STATE> 2
<MEAN> 25
 5.171380e+00 -4.309504e+00 -4.747900e+00 -7.363123e+00 -2.661588e+00 -2.999725e-01 -5.761003e+00 4.082257e-02 1.524628e+00 7.308934e-01 -3.312497e+00 -3.863834e+00 1.340871e+00 -7.908764e-01 -1.176967e+00 -1.861942e+00 -9.013246e-02 1.076553e+00 -6.998943e-01 -3.376387e-01 2.480395e-01 8.365824e-01 -1.114921e-01 -8.783754e-01 9.690245e-01
<VARIANCE> 25
 2.101825e+01 4.092555e+01 4.829962e+01 5.210789e+01 5.292815e+01 7.783346e+01 4.905273e+01 5.481670e+01 6.001947e+01 8.053571e+01 5.495941e+01 3.759020e+01 3.688791e+00 3.148146e+00 3.292896e+00 4.227469e+00 4.885166e+00 4.240967e+00 4.657448e+00 5.406424e+00 5.428240e+00 4.602784e+00 4.243412e+00 3.794260e+00 2.868738e+00
<GCONST> 1.112655e+02
<STATE> 3
<MEAN> 25
 8.774339e+00 -2.688991e+00 -7.166580e+00 -1.170861e+01 -1.503488e+00 5.317237e+00 -4.942866e+00 -4.580447e+00 -1.208097e+00 4.537310e+00 5.290675e-01 -3.989638e+00 3.631712e-01 8.272186e-01 1.067182e-02 -5.577727e-01 -1.879482e-01 4.837757e-01 2.797667e-01 -4.923554e-01 -9.114940e-01 -2.324727e-01 4.659932e-01 6.381828e-01 -6.253154e-01
<VARIANCE> 25
 9.091224e+00 2.829652e+01 2.974506e+01 4.701455e+01 3.974882e+01 7.065011e+01 5.472107e+01 4.607693e+01 7.046062e+01 8.092872e+01 5.459276e+01 4.345101e+01 3.006400e-01 9.371474e-01 8.645189e-01 2.017357e+00 1.664755e+00 2.156243e+00 2.093282e+00 2.102491e+00 2.036623e+00 2.447227e+00 2.172020e+00 1.944335e+00 4.080604e-01
<GCONST> 9.513297e+01
<STATE> 4
<MEAN> 25
 9.699991e+00 4.501801e+00 -6.299127e+00 -1.104336e+01 -3.289212e+00 6.066751e+00 -2.683850e+00 -4.878121e+00 -4.993024e+00 -7.162172e-02 -1.050521e+00 2.168151e-02 -4.420196e-01 3.183827e-01 5.338852e-01 1.538484e+00 4.038954e-01 -6.796294e-01 -1.291960e-01 1.048945e-01 4.745986e-01 -3.862575e-01 -3.342348e-01 -8.223162e-02 -9.126432e-01
<VARIANCE> 25
 1.581596e+01 3.684690e+01 3.888824e+01 6.576919e+01 7.279780e+01 5.442521e+01 9.377563e+01 5.091847e+01 5.784393e+01 6.697497e+01 5.563071e+01 5.426545e+01 1.264760e+00 2.426288e+00 2.158180e+00 3.481141e+00 3.749722e+00 3.073904e+00 3.358611e+00 3.421160e+00 3.991142e+00 4.043018e+00 3.223088e+00 3.049293e+00 1.422377e+00
<GCONST> 1.066346e+02
<TRANSP> 5
 0.000000e+00 1.000000e+00 0.000000e+00 0.000000e+00 0.000000e+00
 0.000000e+00 6.784779e-01 3.215221e-01 0.000000e+00 0.000000e+00
 0.000000e+00 0.000000e+00 8.204861e-01 1.795140e-01 0.000000e+00
 0.000000e+00 0.000000e+00 0.000000e+00 8.163120e-01 1.836880e-01
 0.000000e+00 0.000000e+00 0.000000e+00 0.000000e+00 0.000000e+00
<ENDHMM>
~h "oy"
<BEGINHMM>
<NUMSTATES> 5
<STATE> 2
<MEAN> 25
 9.044076e+00 1.811144e+00 -5.115262e+00 -1.167013e+01 -5.921826e+00 5.589996e+00 -1.981009e+00 -8.753402e-01 -3.744565e+00 -7.698034e-02 3.235091e+00 9.452837e-01 1.085433e+00 -3.096665e-01 -7.292724e-01 -2.298345e+00 -8.596199e-01 2.047410e+00 5.335877e-01 1.080891e-01 -9.213709e-01 6.449373e-01 7.530608e-01 2.044964e-01 5.085068e-01
<VARIANCE> 25
 1.218895e+01 3.588655e+01 2.970012e+01 7.390630e+01 3.447692e+01 4.417249e+01 6.709232e+01 4.199342e+01 5.098941e+01 3.553413e+01 4.026605e+01 2.991253e+01 2.019186e+00 1.540082e+00 1.969600e+00 6.088295e+00 2.809563e+00 3.713482e+00 3.135508e+00 3.883617e+00 3.649477e+00 4.770074e+00 4.217973e+00 2.673912e+00 9.406874e-01
<GCONST> 1.032716e+02
<STATE> 3
<MEAN> 25
 9.065330e+00 -4.040597e+00 -5.676631e+00 -1.165559e+01 -1.590192e+00 7.908720e+00 -1.947995e+00 -1.781840e+00 -1.856287e+00 5.299383e+00 2.538609e+00 -1.652595e+00 -5.304632e-01 -1.375276e+00 5.665848e-01 2.117538e+00 1.456996e+00 -2.524404e+00 -1.053164e+00 7.355576e-01 1.578413e+00 1.014501e+00 -1.067532e+00 -1.468139e+00 4.115873e-01
<VARIANCE> 25
 6.904682e+00 2.191555e+01 3.730024e+01 6.700195e+01 4.720637e+01 5.327427e+01 2.981589e+01 3.841876e+01 4.229369e+01 7.397466e+01 4.877525e+01 4.072893e+01 2.988386e-01 1.215021e+00 1.025500e+00 2.564543e+00 2.186992e+00 5.720731e+00 3.687410e+00 5.156016e+00 2.053964e+00 5.837861e+00 3.662775e+00 2.482985e+00 2.583720e-01
<GCONST> 9.807018e+01
<STATE> 4
<MEAN> 25
 5.639866e+00 -6.333452e+00 4.727918e+00 -3.780240e+00 -2.842573e+00 -5.772907e+00 -2.378870e+00 4.643645e+00 -8.369491e-01 3.895930e+00 -5.461829e-01 -7.893721e-01 -4.502191e-01 9.808928e-01 1.368448e+00 8.521663e-01 -1.028105e+00 -6.499506e-01 4.297927e-01 1.915112e-01 -8.150213e-01 -7.382501e-01 2.450619e-01 8.690444e-01 -7.048780e-01
<VARIANCE> 25
 1.021396e+01 2.914756e+01 8.820856e+01 5.255906e+01 3.331388e+01 1.101145e+02 4.252871e+01 4.302661e+01 5.003167e+01 4.494358e+01 4.294053e+01 2.799368e+01 5.710363e-01 1.272061e+00 2.688718e+00 2.685796e+00 2.824270e+00 6.365889e+00 4.048293e+00 5.488513e+00 3.078818e+00 4.368380e+00 3.752580e+00 3.073223e+00 4.619492e-01
<GCONST> 1.025334e+02
<TRANSP> 5
 0.000000e+00 1.000000e+00 0.000000e+00 0.000000e+00 0.000000e+00
 0.000000e+00 8.025579e-01 1.974420e-01 0.000000e+00 0.000000e+00
 0.000000e+00 0.000000e+00 8.010938e-01 1.989062e-01 0.000000e+00
 0.000000e+00 0.000000e+00 0.000000e+00 8.342664e-01 1.657337e-01
 0.000000e+00 0.000000e+00 0.000000e+00 0.000000e+00 0.000000e+00
<ENDHMM>
~h "sh"
<BEGINHMM>
<NUMSTATES> 5
<STATE> 2
<MEAN> 25
 -1.198001e+01 1.020002e+00 1.100900e+01 1.402323e+00 -1.609092e+00 4.347116e-01 2.865470e+00 -1.295331e+00 7.981438e-01 -2.634568e+00 1.570507e+00 1.025612e+00 -4.653193e+00 -5.319328e-01 3.055464e-01 -2.040390e-01 9.662135e-01 9.908965e-01 1.320980e+00 5.553706e-01 1.374872e+00 2.305773e-01 9.658937e-01 4.493565e-01 8.615937e-01
<VARIANCE> 25
 8.128487e+01 3.175639e+01 3.312189e+01 4.517143e+01 4.427483e+01 6.154766e+01 4.686405e+01 3.681452e+01 5.191936e+01 3.579480e+01 3.328462e+01 2.498839e+01 3.597268e+00 3.253253e+00 3.702668e+00 3.403155e+00 5.119106e+00 4.928649e+00 4.618340e+00 4.299579e+00 3.469497e+00 4.431897e+00 3.432174e+00 2.493762e+00 2.364348e+00
<GCONST> 1.076785e+02
<STATE> 3
<MEAN> 25
 -2.316880e+01 -1.607711e+00 9.910495e+00 -1.466814e+00 -9.046891e-01 3.261579e+00 5.313553e+00 3.597898e-01 3.973260e+00 -4.506976e-01 4.575109e+00 1.936547e+00 -1.058267e-01 -2.327759e-01 -1.645067e-01 -1.243960e-01 -5.462519e-02 1.090035e-01 2.387447e-01 1.343929e-01 1.920091e-01 9.498426e-02 1.822293e-02 1.120446e-01 -5.414752e-03
<VARIANCE> 25
 1.522752e+01 4.172105e+01 1.990106e+01 3.127140e+01 3.443552e+01 4.480219e+01 3.746026e+01 2.654215e+01 2.444410e+01 3.195410e+01 2.467283e+01 1.865285e+01 1.898309e+00 7.384721e-01 9.796118e-01 1.242780e+00 1.302535e+00 1.694119e+00 1.685364e+00 1.698150e+00 1.752431e+00 1.681695e+00 1.358863e+00 1.324461e+00 5.687829e-01
<GCONST> 8.935202e+01
<STATE> 4
<MEAN> 25
 -1.350128e+01 -9.541017e-01 9.254771e+00 2.605486e-01 -2.919973e+00 1.025285e-01 3.416255e+00 9.141770e-02 1.940857e+00 -2.040443e+00 1.906196e+00 9.504194e-01 5.366225e+00 1.060768e+00 -1.832695e-01 2.410133e-01 -1.254247e+00 -2.081159e+00 -2.161423e+00 -7.164274e-01 -1.445613e+00 -9.873057e-01 -1.207363e+00 -7.461926e-01 -3.756220e-01
<VARIANCE> 25
 6.811717e+01 3.445235e+01 2.394559e+01 3.107215e+01 3.463831e+01 4.658147e+01 4.441579e+01 3.339729e+01 3.723320e+01 3.775745e+01 2.595397e+01 2.041307e+01 3.400563e+00 3.114595e+00 3.161352e+00 2.529691e+00 4.291850e+00 3.842230e+00 3.409094e+00 3.475599e+00 3.473415e+00 2.925162e+00 2.456593e+00 1.676889e+00 1.195790e+00
<GCONST> 1.021561e+02
<TRANSP> 5
 0.000000e+00 1.000000e+00 0.000000e+00 0.000000e+00 0.000000e+00
 0.000000e+00 7.188370e-01 2.811631e-01 0.000000e+00 0.000000e+00
 0.000000e+00 0.000000e+00 8.422275e-01 1.577724e-01 0.000000e+00
 0.000000e+00 0.000000e+00 0.000000e+00 6.854236e-01 3.145764e-01
 0.000000e+00 0.000000e+00 0.000000e+00 0.000000e+00 0.000000e+00
<ENDHMM>
~h "sp"
<BEGINHMM>
<NUMSTATES> 3
<STATE> 2
~s "silst"
<TRANSP> 3
 0.000000e+00 1.344798e-01 8.655202e-01
 0.000000e+00 9.682350e-01 3.176500e-02
 0.000000e+00 0.000000e+00 0.000000e+00
<ENDHMM>
~h "th"
<BEGINHMM>
<NUMSTATES> 5
<STATE> 2
<MEAN> 25
 -4.523370e+00 4.029548e+00 -2.286979e+00 6.065307e+00 2.642362e+00 -5.679966e-01 2.726294e+00 -1.046252e+00 3.791234e+00 5.015969e-01 -1.499304e-01 8.839992e-01 -2.431417e+00 2.874376e-01 -3.643685e-01 6.938542e-01 1.348856e+00 9.468451e-01 1.356026e+00 6.361974e-01 9.743868e-01 1.069687e+00 1.536060e+00 5.704738e-01 -1.275049e+00
<VARIANCE> 25
 5.215475e+01 3.855694e+01 4.054538e+01 4.155717e+01 5.658204e+01 4.354942e+01 4.714164e+01 5.119603e+01 3.836233e+01 7.166535e+01 2.741490e+01 2.587664e+01 4.539693e+00 3.818396e+00 3.877373e+00 5.682831e+00 3.823241e+00 5.084390e+00 5.282838e+00 5.248170e+00 5.218005e+00 6.410423e+00 3.827568e+00 3.238122e+00 2.585258e+00
<GCONST> 1.102767e+02
<STATE> 3
<MEAN> 25
 -1.101213e+01 1.419237e+00 -1.254213e+00 5.367151e+00 3.967083e+00 2.687933e+00 6.724398e+00 2.902093e+00 5.643108e+00 2.362563e+00 4.771534e+00 3.979471e+00 -1.249841e-01 -2.299288e-01 -4.387941e-02 -1.310254e-01 2.056656e-02 3.235395e-01 6.882942e-02 2.033229e-01 1.315791e-01 1.991579e-01 1.555545e-01 1.106504e-01 -3.144582e-01
<VARIANCE> 25
 3.509529e+01 2.971594e+01 3.108713e+01 2.633997e+01 2.457539e+01 2.590092e+01 2.607663e+01 2.679286e+01 2.676221e+01 2.942597e+01 3.070642e+01 2.354414e+01 2.102777e+00 1.403845e+00 1.670229e+00 1.693519e+00 1.516054e+00 1.621165e+00 1.662576e+00 1.754717e+00 2.102291e+00 1.850142e+00 2.096117e+00 1.497583e+00 1.701143e+00
<GCONST> 9.298768e+01
<STATE> 4
<MEAN> 25
 -3.328086e+00 1.964438e+00 -1.933970e-01 6.051201e+00 3.083175e+00 4.933833e+00 3.442445e+00 1.054171e+00 2.749220e+00 4.956132e-01 3.701449e+00 1.636497e+00 3.410942e-01 -2.574585e-01 1.623369e-01 -2.913071e-01 -1.999632e-01 -1.859764e-01 -1.733760e-01 -1.416976e-01 -2.328360e-01 -1.883562e-01 -2.081308e-01 -4.628462e-02 4.041944e-01
<VARIANCE> 25
 3.831566e+01 2.079504e+01 1.485540e+01 2.183221e+01 1.843939e+01 2.150511e+01 2.188444e+01 2.526228e+01 1.620046e+01 2.498325e+01 1.638698e+01 2.006477e+01 2.583699e+00 1.596051e+00 1.785154e+00 2.084767e+00 2.203738e+00 2.430407e+00 1.746188e+00 2.385940e+00 1.967041e+00 2.532820e+00 1.787764e+00 1.985495e+00 3.158798e+00
<GCONST> 9.236485e+01
<TRANSP> 5
 0.000000e+00 1.000000e+00 0.000000e+00 0.000000e+00 0.000000e+00
 0.000000e+00 6.593005e-01 3.406995e-01 0.000000e+00 0.000000e+00
 0.000000e+00 0.000000e+00 8.076756e-01 1.923244e-01 0.000000e+00
 0.000000e+00 0.000000e+00 0.000000e+00 8.307766e-01 1.692234e-01
 0.000000e+00 0.000000e+00 0.000000e+00 0.000000e+00 0.000000e+00
<ENDHMM>
~h "uh"
<BEGINHMM>
<NUMSTATES> 5
<STATE> 2
<MEAN> 25
 8.916993e-01 7.189488e-01 1.202271e+00 -2.986481e+00 -1.758916e+00 -2.199216e+00 -3.205397e+00 -3.662470e+00 -2.618362e+00 6.132356e-01 6.101838e-01 -1.616888e+00 2.685989e+00 -7.246535e-03 3.804420e-01 -1.014591e+00 -2.116839e+00 -1.326057e+00 -2.140689e+00 -3.359865e-01 -9.537644e-01 -5.193920e-01 -6.534252e-01 -7.283286e-01 1.235937e+00
<VARIANCE> 25
 7.830411e+01 2.642857e+01 6.623859e+01 7.031109e+01 6.961973e+01 7.518839e+01 8.617183e+01 3.397744e+01 3.621803e+01 3.851621e+01 5.481660e+01 2.621900e+01 9.876984e+00 3.943879e+00 6.884495e+00 9.345619e+00 9.515428e+00 6.896811e+00 7.428367e+00 6.606780e+00 3.975604e+00 5.239737e+00 6.807024e+00 4.130212e+00 2.603165e+00
<GCONST> 1.163177e+02
<STATE> 3
<MEAN> 25
 6.978319e+00 -2.561908e+00 -2.326097e-01 -4.118439e+00 -5.997036e+00 -3.549087e+00 -9.200035e+00 -3.831376e+00 -3.328138e+00 1.690557e+00 -5.612665e-01 -2.539958e+00 1.423252e+00 -9.235953e-01 -8.888240e-02 -4.486835e-01 -1.631745e+00 -6.509310e-01 -1.249209e+00 3.930293e-01 2.219703e-01 1.202304e-01 2.904691e-01 -2.618310e-01 8.778864e-01
<VARIANCE> 25
 1.521703e+01 2.928540e+01 5.489095e+01 7.821706e+01 4.503267e+01 9.616039e+01 5.966765e+01 4.367877e+01 5.337291e+01 3.718599e+01 7.173950e+01 3.985751e+01 3.357425e+00 1.988592e+00 5.500306e+00 6.771684e+00 4.517037e+00 7.589154e+00 4.353348e+00 7.128971e+00 6.141142e+00 5.632048e+00 5.038956e+00 3.270272e+00 1.689695e+00
<GCONST> 1.115579e+02
<STATE> 4
<MEAN> 25
 7.126163e+00 -2.928769e+00 -2.616484e+00 -4.105936e+00 -6.749201e+00 -3.110324e+00 -8.188251e+00 -3.375889e+00 8.372355e-01 3.291019e+00 -3.335247e-01 -2.317682e+00 8.373894e-03 1.829046e-01 4.003047e-01 7.619327e-01 1.699858e-01 -3.209474e-01 5.623698e-01 4.136029e-01 4.022437e-01 -2.548772e-01 1.605580e-01 3.054532e-01 -9.086424e-01
<VARIANCE> 25
 1.382946e+01 2.721586e+01 5.419727e+01 5.853287e+01 4.053865e+01 6.665325e+01 5.250756e+01 8.476263e+01 7.694997e+01 5.009137e+01 8.979343e+01 3.856258e+01 7.850464e-01 1.410437e+00 2.769125e+00 3.652152e+00 3.132505e+00 3.429695e+00 3.467461e+00 4.208384e+00 4.336083e+00 2.960464e+00 3.139878e+00 2.233359e+00 2.161814e+00
<GCONST> 1.053906e+02
<TRANSP> 5
 0.000000e+00 1.000000e+00 0.000000e+00 0.000000e+00 0.000000e+00
 0.000000e+00 3.550988e-01 6.449012e-01 0.000000e+00 0.000000e+00
 0.000000e+00 0.000000e+00 2.934358e-01 7.065641e-01 0.000000e+00
 0.000000e+00 0.000000e+00 0.000000e+00 7.144683e-01 2.855317e-01
 0.000000e+00 0.000000e+00 0.000000e+00 0.000000e+00 0.000000e+00
<ENDHMM>
~h "uw"
<BEGINHMM>
<NUMSTATES> 5
<STATE> 2
<MEAN> 25
 7.903373e-01 2.455315e+00 7.098351e+00 2.853630e+00 -4.952202e+00 -7.270356e+00 -5.164691e+00 -3.560653e+00 -5.207545e+00 -3.437638e+00 -1.230038e+00 2.359869e-01 3.170408e+00 -2.025082e-01 -1.435841e-01 1.913185e-01 -1.613504e+00 -1.380041e+00 -2.830384e+00 -1.503821e+00 -6.887056e-01 -5.175180e-01 -1.138925e+00 -6.413333e-01 6.601139e-01
<VARIANCE> 25
 3.924391e+01 3.097745e+01 4.263109e+01 5.513532e+01 5.998069e+01 4.652232e+01 5.885316e+01 5.000851e+01 4.681032e+01 4.631946e+01 3.516793e+01 3.087503e+01 5.020460e+00 4.141458e+00 5.525044e+00 4.288734e+00 9.148269e+00 5.812920e+00 5.944369e+00 5.244400e+00 7.436950e+00 5.295482e+00 4.840046e+00 3.696231e+00 2.378030e+00
<GCONST> 1.124422e+02
<STATE> 3
<MEAN> 25
 5.327577e+00 -5.050505e-01 4.575051e+00 3.148936e+00 -6.954674e+00 -7.990154e+00 -1.104755e+01 -4.143830e+00 -4.116880e+00 -2.287385e+00 -2.071957e+00 -1.870485e+00 1.123793e+00 2.532274e-01 -1.447912e+00 -5.409308e-01 6.284850e-01 8.330011e-01 -1.058379e+00 -1.224557e+00 2.320982e-01 1.049731e+00 3.961084e-02 -9.385959e-01 -3.728707e-01
<VARIANCE> 25
 1.600487e+01 2.432158e+01 3.663060e+01 5.274269e+01 5.083183e+01 4.645190e+01 5.998954e+01 4.971227e+01 5.333659e+01 5.461058e+01 5.189503e+01 4.570803e+01 1.622047e+00 1.937066e+00 2.555321e+00 3.022512e+00 4.457355e+00 4.012908e+00 4.342664e+00 4.096787e+00 4.216716e+00 3.789047e+00 3.674085e+00 2.660120e+00 1.513544e+00
<GCONST> 1.054104e+02
<STATE> 4
<MEAN> 25
 7.840138e+00 3.347349e+00 -1.336982e-01 -2.300761e-01 -3.623004e+00 -1.500210e+00 -7.883095e+00 -8.190372e+00 -6.096481e+00 5.642078e-01 3.554556e-01 -3.008300e+00 -1.608117e-01 4.099978e-01 -1.158357e-01 1.055904e-01 6.074621e-01 4.776006e-01 1.041216e+00 2.243454e-01 1.449879e-01 7.679605e-02 -7.603876e-02 2.754991e-01 -8.777068e-01
<VARIANCE> 25
 2.388291e+01 3.213638e+01 4.763361e+01 5.055839e+01 5.135287e+01 8.355802e+01 6.823529e+01 6.087616e+01 6.398349e+01 5.892442e+01 6.259056e+01 4.109743e+01 1.308271e+00 1.991061e+00 1.961256e+00 2.758091e+00 2.958213e+00 4.075349e+00 4.227493e+00 3.753438e+00 4.276550e+00 3.411755e+00 3.377459e+00 2.553855e+00 1.577572e+00
<GCONST> 1.063506e+02
<TRANSP> 5
 0.000000e+00 1.000000e+00 0.000000e+00 0.000000e+00 0.000000e+00
 0.000000e+00 3.303921e-01 6.696079e-01 0.000000e+00 0.000000e+00
 0.000000e+00 0.000000e+00 5.250786e-01 4.749214e-01 0.000000e+00
 0.000000e+00 0.000000e+00 0.000000e+00 7.642679e-01 2.357321e-01
 0.000000e+00 0.000000e+00 0.000000e+00 0.000000e+00 0.000000e+00
<ENDHMM>
~h "zh"
<BEGINHMM>
<NUMSTATES> 5
<STATE> 2
<MEAN> 25
 4.177456e+00 9.048548e+00 2.772088e+00 8.184568e+00 6.569734e+00 9.267966e+00 9.181314e+00 -9.309954e+00 4.972792e+00 -1.923025e+00 -1.716211e+00 2.446952e+00 -5.638990e-01 4.929450e-01 -1.276758e-01 2.937448e-01 8.097972e-01 1.096803e-01 8.315040e-01 2.187974e-01 -3.826042e-02 2.485392e-02 1.783476e-01 2.989951e-02 -7.151579e-01
<VARIANCE> 25
 3.838121e+01 3.996765e+01 3.667838e+01 1.027797e+01 1.569008e+02 4.343869e+01 4.683285e+01 5.697012e+01 2.195905e+01 1.245563e+01 3.657734e+01 2.009846e+01 1.909774e+00 5.027761e+00 4.767669e+00 1.408979e+00 6.220438e+00 8.364344e-01 1.329625e+00 3.466387e+00 1.698545e+00 2.162810e+00 1.320747e+00 2.428069e+00 2.366778e+00
<GCONST> 9.881417e+01
<STATE> 3
<MEAN> 25
 -7.711372e+00 1.301862e+00 7.881824e+00 5.532392e+00 -2.541004e+00 -2.203316e+00 1.249221e+00 1.625208e+00 1.423928e+00 -2.068434e+00 2.305794e+00 -1.204364e+00 -9.222079e-01 -5.365128e-01 7.522863e-01 3.661643e-01 -4.151360e-01 3.497683e-01 -4.909597e-02 -5.314591e-01 6.376027e-01 -3.145685e-01 3.500091e-01 9.776902e-02 1.157840e+00
<VARIANCE> 25
 1.601197e+02 1.011187e+02 4.297857e+01 1.829858e+01 1.129530e+02 4.030500e+01 6.099578e+01 4.869191e+01 4.294335e+01 2.314258e+01 2.386960e+01 1.777799e+01 1.476826e+01 8.019204e+00 3.208955e+00 2.594310e+00 7.665565e+00 4.888808e+00 5.016272e+00 4.309810e+00 3.791210e+00 3.045033e+00 2.003016e+00 1.961856e+00 7.761211e+00
<GCONST> 1.111333e+02
<STATE> 4
<MEAN> 25
 -6.566724e+00 -6.443038e+00 1.302225e+01 1.253680e+01 4.307293e+00 4.920825e+00 8.164412e+00 7.883267e+00 6.315403e+00 -8.377236e+00 8.232780e+00 2.876384e+00 3.911795e-01 -1.793880e-01 -2.937954e-01 2.213246e-01 1.895485e-01 -1.042256e-01 -3.476457e-01 3.230878e-01 2.568935e-01 1.633081e-01 -1.334992e-01 -1.025489e-02 -2.235910e-01
<VARIANCE> 25
 5.631797e+01 2.642646e+01 2.411313e+01 3.790059e+01 1.529073e+01 2.182699e+01 5.798499e+01 6.022200e+01 3.109240e+01 5.490623e+01 2.951858e+01 1.579715e+01 1.763861e+00 6.806610e-01 1.795056e+00 1.236220e+00 1.288958e+00 1.546066e+00 2.231334e+00 1.111686e+00 1.737767e+00 1.422521e+00 1.752614e+00 1.421312e+00 7.597907e-01
<GCONST> 9.174703e+01
<TRANSP> 5
 0.000000e+00 1.000000e+00 0.000000e+00 0.000000e+00 0.000000e+00
 0.000000e+00 9.019099e-01 9.808998e-02 0.000000e+00 0.000000e+00
