~o
<STREAMINFO> 1 25
<VECSIZE> 25<NULLD><MFCC_D_N_Z_0><DIAGC>
~s "silst"
<MEAN> 25
 -4.096811e+00 -1.900966e-01 -7.803376e-01 4.178968e+00 5.712923e+00 3.995181e+00 4.833595e+00 3.274964e+00 3.153293e+00 2.216587e+00 2.842615e+00 2.639060e+00 -5.870924e-03 3.347671e-03 -1.344080e-02 3.061079e-03 1.402963e-02 5.293045e-02 1.281686e-02 -1.461755e-02 1.259238e-02 2.451338e-02 2.164808e-02 -1.056236e-03 -4.944531e-02
<VARIANCE> 25
 1.581963e+01 2.273606e+01 1.623512e+01 1.806844e+01 1.978538e+01 2.531487e+01 2.519296e+01 2.755982e+01 2.652066e+01 2.374146e+01 2.300504e+01 1.701880e+01 2.129637e-01 4.343495e-01 5.486313e-01 7.569186e-01 9.706655e-01 1.215554e+00 1.333449e+00 1.450395e+00 1.486221e+00 1.485001e+00 1.410466e+00 1.312300e+00 1.877921e-01
<GCONST> 7.998852e+01
~h "b"
<BEGINHMM>
<NUMSTATES> 5
<STATE> 2
<MEAN> 25
 3.883270e+00 7.251343e+00 2.872306e+00 6.009442e+00 4.956565e+00 8.224176e-01 1.364890e+00 -2.801613e+00 -8.591748e-01 -2.689104e-02 -6.656342e-01 -1.150024e+00 -5.968215e-01 -2.287896e-02 1.511277e-01 2.473366e-01 5.093836e-01 1.058548e-01 3.431348e-01 -1.158375e-02 1.817156e-01 3.618906e-02 -3.045698e-02 2.222947e-01 1.397727e-01
<VARIANCE> 25
 5.410169e+01 4.161900e+01 3.071166e+01 3.386592e+01 3.704976e+01 4.894706e+01 5.060917e+01 3.419595e+01 4.781636e+01 4.613639e+01 3.818099e+01 3.085087e+01 3.375954e+00 4.852456e+00 2.779958e+00 3.831939e+00 4.009351e+00 4.251317e+00 4.004280e+00 3.750412e+00 3.764435e+00 4.056643e+00 2.870877e+00 3.022335e+00 8.315270e+00
<GCONST> 1.080549e+02
<STATE> 3
<MEAN> 25
 7.518840e-01 2.560001e+00 1.931207e+00 4.083906e+00 4.732677e+00 1.086084e+00 8.193852e-01 -2.035510e+00 1.201656e+00 6.999130e-01 -7.549730e-02 -2.611778e-01 4.095951e-01 -2.194723e+00 -8.991392e-01 -2.271498e+00 -2.002453e+00 -1.347799e+00 -1.212851e+00 -1.334233e-01 5.735776e-01 2.598425e-01 5.406082e-03 -3.299303e-02 4.825186e+00
<VARIANCE> 25
 2.757237e+01 3.330956e+01 2.532047e+01 3.390905e+01 2.627395e+01 4.382812e+01 3.872030e+01 3.477322e+01 3.300194e+01 2.912996e+01 2.844233e+01 2.593450e+01 5.827840e+00 4.858663e+00 6.305679e+00 6.086423e+00 4.842682e+00 6.731844e+00 5.242136e+00 5.072591e+00 5.017581e+00 5.553726e+00 4.359114e+00 4.239753e+00 7.211588e+00
<GCONST> 1.092264e+02
<STATE> 4
<MEAN> 25
 3.712714e+00 1.508996e-01 1.276877e-01 -2.661888e-01 -2.277143e-01 -2.786302e+00 -2.688900e+00 -3.154978e+00 1.694108e+00 8.744192e-01 4.486051e-02 -1.070702e+00 1.128220e+00 -1.777214e+00 -6.007910e-01 -2.543334e+00 -2.537271e+00 -7.079359e-01 -1.305464e+00 1.467810e-01 -9.542175e-02 -2.319201e-01 3.378290e-02 -2.582689e-01 3.792641e+00
<VARIANCE> 25
 4.062154e+01 4.492307e+01 5.286581e+01 5.579044e+01 3.312884e+01 7.235115e+01 4.659810e+01 4.102563e+01 4.580358e+01 3.814810e+01 3.454618e+01 3.322063e+01 5.557302e+00 5.456444e+00 9.513432e+00 7.113042e+00 6.924642e+00 7.854369e+00 7.181918e+00 5.236731e+00 6.440314e+00 6.077045e+00 5.496292e+00 4.905408e+00 5.581693e+00
<GCONST> 1.152255e+02
<TRANSP> 5
 0.000000e+00 1.000000e+00 0.000000e+00 0.000000e+00 0.000000e+00
 0.000000e+00 6.322286e-01 3.677714e-01 0.000000e+00 0.000000e+00
 0.000000e+00 0.000000e+00 3.044468e-01 6.955532e-01 0.000000e+00
 0.000000e+00 0.000000e+00 0.000000e+00 9.265303e-02 9.073470e-01
 0.000000e+00 0.000000e+00 0.000000e+00 0.000000e+00 0.000000e+00
<ENDHMM>
~h "d"
<BEGINHMM>
<NUMSTATES> 5
<STATE> 2
<MEAN> 25
 6.237484e+00 3.733326e+00 7.236258e+00 5.609041e+00 -3.650046e+00 -4.297115e+00 -2.609641e+00 -2.208911e+00 -2.059672e+00 -2.379895e+00 -2.725440e+00 -7.192878e-01 -5.290349e-01 1.290319e+00 2.985727e-01 1.049955e+00 1.940667e+00 9.812506e-01 6.847830e-01 -4.676529e-02 3.256408e-01 -2.309908e-01 -1.239186e-01 -3.795206e-01 -2.155607e+00
<VARIANCE> 25
 1.933418e+01 4.771437e+01 3.704564e+01 4.888760e+01 5.613778e+01 4.683332e+01 4.307683e+01 4.200733e+01 4.512312e+01 3.757330e+01 3.298199e+01 3.414957e+01 2.825007e+00 4.787556e+00 3.014522e+00 4.369215e+00 4.671935e+00 4.633259e+00 4.290293e+00 4.334334e+00 4.189178e+00 3.420982e+00 3.374945e+00 3.143579e+00 5.029356e+00
<GCONST> 1.079331e+02
<STATE> 3
<MEAN> 25
 3.357115e+00 5.841661e+00 6.036222e+00 6.081206e+00 2.001933e+00 -2.239227e-01 -2.863639e-01 -2.706758e+00 -2.079206e+00 -2.185174e+00 -2.374557e+00 -1.369187e+00 -2.061543e+00 -1.098727e+00 -6.563401e-01 -8.945885e-01 8.296213e-01 6.664300e-01 6.708112e-01 5.780575e-01 7.551785e-01 5.299634e-01 8.878699e-01 5.557802e-01 7.617583e-01
<VARIANCE> 25
 2.754629e+01 4.058580e+01 3.663073e+01 4.285192e+01 3.859242e+01 4.432213e+01 3.698375e+01 3.727335e+01 3.897100e+01 3.116465e+01 2.724540e+01 2.945458e+01 3.964910e+00 4.878844e+00 3.458049e+00 5.371919e+00 5.289959e+00 5.517288e+00 4.349626e+00 4.894475e+00 5.289874e+00 4.278669e+00 3.436194e+00 3.380893e+00 6.164156e+00
<GCONST> 1.084949e+02
<STATE> 4
<MEAN> 25
 -2.883689e+00 1.144230e+00 3.568338e+00 2.599569e+00 1.131929e+00 1.905650e-01 2.899784e+00 2.254377e-01 1.890144e+00 7.492526e-01 1.225879e+00 1.836313e+00 -7.649290e-01 -6.313007e-01 -3.799722e-01 -6.070607e-01 -4.237770e-01 -2.850742e-01 2.938592e-02 3.872558e-01 3.880405e-01 2.936423e-01 3.762394e-01 2.932706e-01 8.079740e-01
<VARIANCE> 25
 5.031157e+01 4.795492e+01 3.995037e+01 4.357132e+01 5.948864e+01 5.136452e+01 5.448874e+01 5.134225e+01 4.579405e+01 4.109022e+01 3.387867e+01 2.972935e+01 4.998214e+00 3.926425e+00 3.291496e+00 4.332850e+00 5.615988e+00 5.432361e+00 4.624693e+00 4.565928e+00 4.445162e+00 3.815823e+00 3.336464e+00 2.839940e+00 7.474450e+00
<GCONST> 1.108071e+02
<TRANSP> 5
 0.000000e+00 1.000000e+00 0.000000e+00 0.000000e+00 0.000000e+00
 0.000000e+00 5.018639e-01 4.981362e-01 0.000000e+00 0.000000e+00
 0.000000e+00 0.000000e+00 2.975744e-01 7.024256e-01 0.000000e+00
 0.000000e+00 0.000000e+00 0.000000e+00 6.057330e-01 3.942671e-01
 0.000000e+00 0.000000e+00 0.000000e+00 0.000000e+00 0.000000e+00
<ENDHMM>
~h "f"
<BEGINHMM>
<NUMSTATES> 5
<STATE> 2
<MEAN> 25
 -7.545939e+00 1.906659e+00 -7.511473e-01 5.260484e+00 3.339570e+00 2.119533e+00 2.135708e+00 5.788004e-01 1.974648e+00 1.061484e+00 6.152933e-01 1.362682e+00 -2.811795e+00 -1.052346e-01 -3.138309e-01 7.110422e-01 4.577184e-01 4.370214e-01 6.166238e-01 8.801942e-01 8.566143e-01 6.864290e-01 7.076729e-01 7.834983e-01 -6.582338e-01
<VARIANCE> 25
 4.493987e+01 2.584340e+01 3.634993e+01 2.736199e+01 3.928022e+01 4.124599e+01 3.500043e+01 3.377494e+01 2.910549e+01 3.138498e+01 2.934769e+01 2.682992e+01 4.154623e+00 2.733432e+00 2.844723e+00 3.205778e+00 3.671231e+00 3.349933e+00 3.570842e+00 3.605690e+00 3.360553e+00 3.387991e+00 2.539036e+00 2.820904e+00 1.824901e+00
<GCONST> 1.025657e+02
<STATE> 3
<MEAN> 25
 -1.294504e+01 -6.061531e-01 -3.657643e+00 4.599365e+00 3.087381e+00 2.631391e+00 2.696427e+00 2.765205e+00 3.905020e+00 3.449704e+00 2.140024e+00 2.551628e+00 -8.068088e-03 -3.197476e-01 -1.909717e-01 -1.702559e-01 2.079587e-02 5.495905e-02 6.935412e-02 -4.212034e-02 -4.998022e-02 3.090001e-03 2.051309e-02 8.162421e-03 6.086078e-02
<VARIANCE> 25
 2.232718e+01 2.901826e+01 2.121670e+01 2.134058e+01 2.008190e+01 2.820191e+01 2.292415e+01 2.106517e+01 3.172280e+01 2.639941e+01 1.904255e+01 1.676867e+01 1.468848e+00 9.229496e-01 1.063744e+00 1.220742e+00 1.383074e+00 1.621663e+00 1.537661e+00 1.622057e+00 1.755666e+00 1.700635e+00 1.318985e+00 1.333289e+00 1.138268e+00
<GCONST> 8.762679e+01
<STATE> 4
<MEAN> 25
 -8.961555e+00 -1.913124e+00 -2.998791e+00 3.393775e+00 2.654767e+00 9.041741e-01 3.102262e+00 1.716632e+00 2.958480e+00 1.702891e+00 2.261940e+00 3.048988e+00 2.834272e+00 -1.505588e-02 -1.230869e-01 -1.124949e+00 -8.934840e-01 -9.474181e-01 -8.181797e-01 -5.530918e-01 -7.009722e-01 -5.323877e-01 -4.882379e-01 -6.053884e-01 1.362750e+00
<VARIANCE> 25
 4.259293e+01 3.724157e+01 3.863590e+01 3.968997e+01 3.699459e+01 4.660729e+01 4.313921e+01 3.214759e+01 3.771224e+01 2.803667e+01 2.698236e+01 2.695198e+01 8.659393e+00 4.221694e+00 4.232244e+00 4.503932e+00 4.147335e+00 5.455181e+00 4.839265e+00 3.412565e+00 3.994403e+00 3.430492e+00 2.683593e+00 2.790284e+00 4.136042e+00
<GCONST> 1.074118e+02
<TRANSP> 5
 0.000000e+00 1.000000e+00 0.000000e+00 0.000000e+00 0.000000e+00
 0.000000e+00 7.124870e-01 2.875130e-01 0.000000e+00 0.000000e+00
 0.000000e+00 0.000000e+00 7.965569e-01 2.034431e-01 0.000000e+00
 0.000000e+00 0.000000e+00 0.000000e+00 7.170819e-01 2.829181e-01
 0.000000e+00 0.000000e+00 0.000000e+00 0.000000e+00 0.000000e+00
<ENDHMM>
~h "g"
<BEGINHMM>
<NUMSTATES> 5
<STATE> 2
<MEAN> 25
 5.388155e+00 6.686951e+00 7.437885e+00 5.806997e+00 -2.191922e+00 -2.426000e+00 -7.928422e-01 -1.412124e+00 -4.187559e+00 -5.935379e-01 -6.130940e-02 -1.682135e+00 -3.917434e-01 8.514782e-01 -6.941306e-01 7.278057e-01 1.871403e+00 9.222226e-01 6.731728e-01 -1.417341e-01 8.791523e-01 1.461577e-01 -1.759406e-01 8.559264e-02 -2.050748e+00
<VARIANCE> 25
 2.482530e+01 4.183002e+01 4.867774e+01 4.136898e+01 7.552153e+01 6.419192e+01 5.656593e+01 4.962102e+01 5.506708e+01 3.983130e+01 4.085571e+01 2.435469e+01 2.232135e+00 5.384808e+00 4.628918e+00 3.059718e+00 4.950981e+00 5.259548e+00 5.710829e+00 5.301698e+00 4.828375e+00 3.767078e+00 3.568845e+00 2.697778e+00 4.219419e+00
<GCONST> 1.099346e+02
<STATE> 3
<MEAN> 25
 1.661779e+00 6.192167e+00 3.913389e+00 6.459899e+00 4.151100e+00 8.120059e-01 8.406624e-01 -1.632337e+00 -1.453229e+00 6.811603e-01 -7.078460e-01 -1.200450e-01 -1.868957e+00 -2.539756e+00 -1.762345e+00 -8.749869e-01 1.190484e+00 2.321852e-01 -5.349859e-02 2.391734e-01 3.936420e-01 8.704785e-01 1.277229e-01 6.657314e-01 2.161223e+00
<VARIANCE> 25
 3.039244e+01 4.251717e+01 4.252421e+01 2.871243e+01 6.123462e+01 4.506166e+01 4.514236e+01 4.581970e+01 4.777988e+01 2.634002e+01 3.252539e+01 2.275737e+01 3.279808e+00 5.117668e+00 8.883458e+00 5.145008e+00 1.019639e+01 6.548470e+00 5.250289e+00 6.722754e+00 5.331019e+00 6.092864e+00 4.151956e+00 3.069780e+00 5.158731e+00
<GCONST> 1.115946e+02
<STATE> 4
<MEAN> 25
 -1.187039e+00 -2.012408e+00 -2.846435e+00 1.896783e+00 3.372638e+00 -2.021830e+00 -8.476330e-01 -1.193935e+00 -1.097061e+00 3.924280e+00 4.229940e-01 1.036499e+00 7.938346e-01 -8.712946e-01 -2.571270e-02 -1.562453e+00 -1.926207e+00 -1.181539e+00 -9.378599e-01 -3.800804e-01 -5.919706e-01 1.103307e-01 8.906731e-02 -2.607427e-01 2.985232e+00
<VARIANCE> 25
 2.996494e+01 5.237746e+01 1.419504e+02 6.041917e+01 1.000637e+02 6.619904e+01 6.558195e+01 5.316982e+01 6.206214e+01 4.263773e+01 3.433716e+01 3.073487e+01 3.807376e+00 5.821152e+00 9.158715e+00 6.287380e+00 9.603422e+00 7.248610e+00 6.812960e+00 5.138690e+00 5.951399e+00 5.029295e+00 4.708877e+00 4.463349e+00 4.723334e+00
<GCONST> 1.171070e+02
<TRANSP> 5
 0.000000e+00 1.000000e+00 0.000000e+00 0.000000e+00 0.000000e+00
 0.000000e+00 5.923097e-01 4.076904e-01 0.000000e+00 0.000000e+00
 0.000000e+00 0.000000e+00 4.120047e-01 5.879953e-01 0.000000e+00
 0.000000e+00 0.000000e+00 0.000000e+00 6.229251e-01 3.770749e-01
 0.000000e+00 0.000000e+00 0.000000e+00 0.000000e+00 0.000000e+00
<ENDHMM>
~h "k"
<BEGINHMM>
<NUMSTATES> 5
<STATE> 2
<MEAN> 25
 3.169678e-01 2.205871e+00 3.080588e+00 4.303289e+00 2.163561e-02 -1.647594e+00 1.693905e+00 4.989437e-01 -1.915962e+00 1.124748e+00 1.233617e+00 9.786442e-02 -1.201157e+00 -3.397827e-01 -1.020987e+00 5.106832e-01 1.680010e+00 1.242835e+00 9.512692e-01 6.648124e-01 1.351586e+00 8.069769e-01 6.649631e-01 8.635980e-01 -2.119198e+00
<VARIANCE> 25
 2.249701e+01 2.957180e+01 5.801021e+01 4.290225e+01 6.118942e+01 6.235202e+01 4.987418e+01 5.721823e+01 4.683163e+01 3.954218e+01 3.907789e+01 3.314808e+01 2.284768e+00 5.410630e+00 4.693167e+00 5.052734e+00 5.845039e+00 6.097556e+00 5.094902e+00 6.098329e+00 4.729663e+00 4.644014e+00 4.708545e+00 3.490690e+00 7.912243e+00
<GCONST> 1.118080e+02
<STATE> 3
<MEAN> 25
 -4.146127e+00 -3.254294e+00 -2.517186e+00 3.096606e+00 4.359907e+00 8.575337e-01 2.298977e+00 3.048693e+00 2.328878e+00 4.607861e+00 2.747951e+00 2.973328e+00 -1.430801e+00 -1.819964e+00 -1.155454e+00 -9.866439e-01 3.764278e-01 -4.788660e-02 -3.079452e-01 5.726565e-01 7.094052e-01 9.184036e-01 1.288219e-01 4.298954e-01 2.649211e+00
<VARIANCE> 25
 2.124910e+01 4.256454e+01 6.046026e+01 3.814400e+01 4.412159e+01 5.129437e+01 4.756645e+01 4.466138e+01 3.696197e+01 3.628995e+01 2.860705e+01 2.353480e+01 3.125890e+00 3.892003e+00 6.423952e+00 4.478205e+00 5.796885e+00 5.941072e+00 5.359201e+00 5.063245e+00 4.571102e+00 4.016956e+00 3.965830e+00 3.382831e+00 7.408956e+00
<GCONST> 1.098043e+02
<STATE> 4
<MEAN> 25
 -6.903549e+00 -3.652112e+00 -1.703385e+00 -4.587016e-01 4.459981e+00 2.436866e+00 2.497471e+00 2.082689e+00 2.492313e+00 5.244565e+00 2.214710e+00 2.505876e+00 4.918826e-01 6.992083e-01 5.272442e-01 -2.851737e-01 -2.773787e-01 1.896369e-01 -1.839566e-02 -6.549037e-01 -5.255878e-01 -7.346600e-01 -4.179905e-01 -4.243264e-01 5.289322e-01
<VARIANCE> 25
 2.856343e+01 4.111891e+01 6.461169e+01 4.826754e+01 6.601243e+01 6.290525e+01 5.318987e+01 4.710405e+01 4.990969e+01 3.990533e+01 3.359544e+01 2.838191e+01 5.012320e+00 2.964688e+00 3.120174e+00 3.237994e+00 4.277774e+00 4.796650e+00 4.136617e+00 4.444196e+00 4.865517e+00 4.151431e+00 3.471272e+00 2.981256e+00 4.278202e+00
<GCONST> 1.094156e+02
<TRANSP> 5
 0.000000e+00 1.000000e+00 0.000000e+00 0.000000e+00 0.000000e+00
 0.000000e+00 5.844903e-01 4.155097e-01 0.000000e+00 0.000000e+00
 0.000000e+00 0.000000e+00 5.824410e-01 4.175590e-01 0.000000e+00
 0.000000e+00 0.000000e+00 0.000000e+00 7.427241e-01 2.572759e-01
 0.000000e+00 0.000000e+00 0.000000e+00 0.000000e+00 0.000000e+00
<ENDHMM>
~h "l"
<BEGINHMM>
<NUMSTATES> 5
<STATE> 2
<MEAN> 25
 6.736287e+00 1.005213e+00 -5.360696e+00 -1.202716e+01 1.140666e+00 4.718833e+00 -4.776028e+00 -6.081068e+00 4.801480e-01 -4.791237e-01 -7.900739e-02 -2.175591e+00 1.022321e+00 8.611674e-01 -5.349082e-01 -2.311914e+00 3.530028e-02 1.162401e+00 -4.446738e-01 -7.789519e-01 -6.158533e-01 -1.098677e-01 8.199869e-01 3.536326e-01 1.318982e-02
<VARIANCE> 25
 1.623547e+01 5.131464e+01 4.453023e+01 7.472656e+01 4.340982e+01 6.614585e+01 7.729153e+01 6.306176e+01 5.909604e+01 5.128585e+01 4.955902e+01 4.856482e+01 2.239372e+00 2.112349e+00 2.639195e+00 4.601384e+00 3.943697e+00 4.681720e+00 4.822991e+00 4.655887e+00 3.905160e+00 4.467957e+00 3.734336e+00 3.368062e+00 1.921519e+00
<GCONST> 1.091614e+02
<STATE> 3
<MEAN> 25
 8.840043e+00 4.896232e+00 -5.223283e+00 -1.837440e+01 -7.226191e-01 7.528098e+00 -2.293293e+00 -5.133581e+00 -1.067486e+00 -2.494685e+00 1.648045e+00 4.703267e-01 4.060342e-03 2.270842e-01 1.117378e-01 3.786213e-01 1.579224e-01 -2.096801e-01 -1.857040e-01 1.298089e-01 -7.650127e-02 1.157238e-01 2.149647e-02 -9.568216e-02 -3.343320e-01
<VARIANCE> 25
 1.197060e+01 3.350430e+01 4.076515e+01 7.095075e+01 5.779203e+01 5.536245e+01 7.076832e+01 6.297063e+01 4.543452e+01 5.504234e+01 4.075647e+01 3.978207e+01 4.610404e-01 2.066717e+00 1.342379e+00 3.020998e+00 1.979859e+00 2.246733e+00 2.517999e+00 2.652499e+00 2.687284e+00 3.091866e+00 2.275333e+00 2.157078e+00 1.226722e+00
<GCONST> 1.002548e+02
<STATE> 4
<MEAN> 25
 6.571333e+00 2.546412e+00 -4.549005e+00 -9.557330e+00 2.432095e+00 2.722856e+00 -5.792292e+00 -4.746058e+00 1.193683e+00 7.786935e-01 2.992743e-01 -2.400902e+00 -9.522093e-01 -8.741733e-01 7.396978e-01 2.306233e+00 -8.309045e-02 -1.264768e+00 2.310090e-01 1.297108e+00 8.318385e-01 -6.468697e-02 -8.812031e-01 -2.929775e-01 -1.189850e-01
<VARIANCE> 25
 1.709475e+01 4.057251e+01 3.932953e+01 6.948719e+01 4.562449e+01 6.785133e+01 9.129769e+01 6.523362e+01 6.988407e+01 6.012815e+01 5.244688e+01 4.819098e+01 1.641418e+00 3.489417e+00 3.367294e+00 5.885616e+00 4.906154e+00 4.888341e+00 5.744738e+00 6.512048e+00 6.002213e+00 5.852383e+00 4.348834e+00 4.576168e+00 3.484891e+00
<GCONST> 1.126394e+02
<TRANSP> 5
 0.000000e+00 1.000000e+00 0.000000e+00 0.000000e+00 0.000000e+00
 0.000000e+00 5.657448e-01 4.342552e-01 0.000000e+00 0.000000e+00
 0.000000e+00 0.000000e+00 7.722727e-01 2.277273e-01 0.000000e+00
 0.000000e+00 0.000000e+00 0.000000e+00 6.506950e-01 3.493050e-01
 0.000000e+00 0.000000e+00 0.000000e+00 0.000000e+00 0.000000e+00
<ENDHMM>
~h "m"
<BEGINHMM>
<NUMSTATES> 5
<STATE> 2
<MEAN> 25
 8.619232e+00 1.437703e+00 -2.431518e-01 2.937997e+00 5.364022e-01 -2.415077e+00 -4.761355e+00 -6.214472e+00 -5.747941e+00 -1.056934e+00 -1.160044e+00 -4.473076e+00 5.167747e-01 1.356140e+00 6.453581e-01 1.935086e+00 6.086245e-01 -5.900135e-01 -1.675687e-01 -1.901716e+00 -1.781194e+00 6.567702e-02 5.898447e-01 -7.685319e-01 -1.138364e+00
<VARIANCE> 25
 1.557483e+01 4.065851e+01 3.415879e+01 4.992460e+01 3.910593e+01 5.612151e+01 6.324565e+01 6.286385e+01 5.891877e+01 5.369709e+01 5.696820e+01 4.542254e+01 1.597874e+00 2.584905e+00 3.066044e+00 3.293583e+00 3.830324e+00 3.899437e+00 4.470969e+00 4.962015e+00 5.222100e+00 5.541879e+00 4.530529e+00 3.958206e+00 2.604683e+00
<GCONST> 1.084823e+02
<STATE> 3
<MEAN> 25
 8.780233e+00 4.669058e+00 2.594900e+00 6.660283e+00 5.956005e-01 -2.492273e+00 -2.867062e+00 -8.134804e+00 -8.864429e+00 -1.544640e+00 -1.842996e-01 -5.163648e+00 -1.061784e-01 1.461630e-02 1.540904e-01 -3.787834e-02 -1.005252e-01 8.891349e-02 1.640311e-01 1.898292e-01 4.185352e-02 -2.424401e-01 -8.931091e-02 8.839640e-02 3.952473e-03
<VARIANCE> 25
 1.121035e+01 2.870554e+01 2.836370e+01 3.587437e+01 4.061947e+01 5.009069e+01 6.737472e+01 5.527240e+01 4.887355e+01 4.794286e+01 6.205997e+01 4.955008e+01 5.352686e-01 1.544211e+00 1.160878e+00 1.572402e+00 1.704265e+00 1.890269e+00 2.083818e+00 2.126776e+00 2.185858e+00 2.096049e+00 2.205240e+00 2.211298e+00 1.272816e+00
<GCONST> 9.669462e+01
<STATE> 4
<MEAN> 25
 7.444293e+00 1.427581e+00 4.345866e-01 3.060458e+00 4.070785e-01 -8.040225e-01 -3.147643e+00 -5.470686e+00 -5.034510e+00 -2.844422e+00 -8.394184e-01 -3.944349e+00 -7.161527e-01 -1.813520e+00 -4.997907e-01 -2.295810e+00 -1.048789e+00 8.715923e-01 2.814076e-01 1.838114e+00 2.128810e+00 -2.550550e-03 -4.569221e-01 7.075098e-01 1.495200e+00
<VARIANCE> 25
 1.872861e+01 4.482805e+01 3.525306e+01 5.742299e+01 4.205201e+01 6.484473e+01 6.300881e+01 5.786846e+01 6.280603e+01 5.406013e+01 4.865216e+01 4.463944e+01 1.462486e+00 3.346041e+00 4.202234e+00 5.254437e+00 4.896096e+00 4.828051e+00 5.518513e+00 5.830910e+00 6.436799e+00 5.535513e+00 6.015010e+00 5.076628e+00 3.603345e+00
<GCONST> 1.118094e+02
<TRANSP> 5
 0.000000e+00 1.000000e+00 0.000000e+00 0.000000e+00 0.000000e+00
 0.000000e+00 5.494221e-01 4.505778e-01 0.000000e+00 0.000000e+00
 0.000000e+00 0.000000e+00 6.902894e-01 3.097105e-01 0.000000e+00
 0.000000e+00 0.000000e+00 0.000000e+00 5.555359e-01 4.444641e-01
 0.000000e+00 0.000000e+00 0.000000e+00 0.000000e+00 0.000000e+00
<ENDHMM>
~h "n"
<BEGINHMM>
<NUMSTATES> 5
<STATE> 2
<MEAN> 25
 6.653356e+00 2.102783e-01 3.390216e+00 1.417895e+00 -4.753897e+00 -4.176471e+00 -2.321688e+00 -4.270688e-01 -4.337688e+00 -3.335452e+00 -4.302393e+00 -1.980653e+00 7.396361e-01 2.069899e+00 5.321949e-01 1.718795e+00 3.444735e-01 -4.454545e-01 2.473798e-01 -2.122128e+00 -1.175025e+00 5.010568e-01 -4.161298e-01 -1.201066e-01 -1.818447e+00
<VARIANCE> 25
 1.331342e+01 3.797177e+01 3.114736e+01 3.990257e+01 4.968134e+01 4.374299e+01 5.281150e+01 6.702989e+01 6.232959e+01 5.065558e+01 4.135461e+01 4.076257e+01 8.991212e-01 2.040873e+00 3.108894e+00 2.798351e+00 4.019394e+00 4.599201e+00 4.507423e+00 5.624280e+00 4.970831e+00 4.477913e+00 3.331884e+00 3.014161e+00 1.523297e+00
<GCONST> 1.053916e+02
<STATE> 3
<MEAN> 25
 8.096284e+00 6.257622e+00 4.682548e+00 4.949773e+00 -3.517836e+00 -3.689726e+00 -8.194994e-01 -7.020062e+00 -6.494274e+00 -9.412149e-01 -3.993943e+00 -2.410147e+00 -9.756824e-03 6.415212e-01 1.801789e-01 3.687315e-01 3.283741e-01 2.586315e-01 7.972097e-02 -5.287611e-01 -1.705404e-01 9.546543e-02 1.009636e-02 -4.658365e-02 -6.588349e-01
<VARIANCE> 25
 1.076601e+01 2.312935e+01 2.262682e+01 3.460194e+01 3.687639e+01 3.800074e+01 4.603822e+01 5.186154e+01 5.091647e+01 5.254258e+01 4.369271e+01 4.368353e+01 5.431255e-01 1.534137e+00 1.244074e+00 1.517795e+00 1.962615e+00 2.079704e+00 2.147085e+00 2.914740e+00 2.573960e+00 2.477250e+00 1.959006e+00 1.814406e+00 9.386051e-01
<GCONST> 9.534769e+01
<STATE> 4
<MEAN> 25
 5.897786e+00 4.714648e+00 4.149380e+00 4.763027e+00 -1.359743e+00 -1.981273e+00 -9.038208e-01 -4.770781e+00 -5.154116e+00 -2.166698e+00 -4.094961e+00 -2.105737e+00 -1.257843e+00 -1.049049e+00 -2.088310e-01 -7.019231e-01 5.493094e-01 8.350607e-01 5.227506e-02 1.304502e+00 1.100633e+00 -1.933183e-01 5.592871e-01 2.922333e-01 2.438177e-01
<VARIANCE> 25
 1.826762e+01 3.796004e+01 2.674815e+01 4.000483e+01 4.915736e+01 4.051143e+01 4.386230e+01 5.409791e+01 5.639848e+01 5.553574e+01 4.189276e+01 3.927674e+01 1.770346e+00 3.749748e+00 2.819625e+00 3.594883e+00 4.226327e+00 4.261030e+00 4.735920e+00 5.023044e+00 5.210956e+00 4.690564e+00 3.791908e+00 3.537461e+00 3.116081e+00
<GCONST> 1.074859e+02
<TRANSP> 5
 0.000000e+00 1.000000e+00 0.000000e+00 0.000000e+00 0.000000e+00
 0.000000e+00 5.712322e-01 4.287678e-01 0.000000e+00 0.000000e+00
 0.000000e+00 0.000000e+00 6.555976e-01 3.444023e-01 0.000000e+00
 0.000000e+00 0.000000e+00 0.000000e+00 5.028906e-01 4.971094e-01
 0.000000e+00 0.000000e+00 0.000000e+00 0.000000e+00 0.000000e+00
<ENDHMM>
~h "p"
<BEGINHMM>
<NUMSTATES> 5
<STATE> 2
<MEAN> 25
 1.171921e+00 4.529516e+00 -5.548534e-02 3.655339e+00 3.735255e+00 2.027672e+00 2.295214e+00 -1.961595e-02 1.838151e+00 1.876488e+00 1.395315e+00 -7.301933e-02 -1.407801e+00 -3.420332e-01 -2.339984e-01 3.748456e-01 7.466725e-01 7.896471e-01 1.214439e+00 1.147203e+00 1.078859e+00 7.908729e-01 8.104784e-01 8.335462e-01 -1.208827e+00
<VARIANCE> 25
 3.069485e+01 2.621481e+01 2.997503e+01 2.859757e+01 2.502452e+01 3.406837e+01 3.229763e+01 3.589674e+01 3.247509e+01 2.999623e+01 2.653623e+01 2.416140e+01 2.598052e+00 2.662405e+00 2.566291e+00 2.517130e+00 3.073228e+00 3.656435e+00 3.196451e+00 3.290310e+00 2.901401e+00 3.101898e+00 2.691019e+00 2.307752e+00 7.068475e+00
<GCONST> 1.010905e+02
<STATE> 3
<MEAN> 25
 -4.005429e+00 -6.753220e-01 -1.899955e+00 3.053608e+00 4.996324e+00 3.107265e+00 4.548469e+00 2.559967e+00 5.201911e+00 4.472151e+00 4.095464e+00 3.486037e+00 -5.401592e-01 -1.697233e+00 -4.631305e-01 -3.662258e-01 5.676218e-02 7.664859e-03 -1.191241e-02 2.576715e-01 4.075908e-01 1.577668e-01 1.583347e-01 4.216556e-01 2.490427e+00
<VARIANCE> 25
 1.650439e+01 3.622620e+01 2.289892e+01 2.552977e+01 2.563704e+01 3.125452e+01 3.165062e+01 3.419254e+01 3.099867e+01 2.344262e+01 2.416294e+01 2.113313e+01 2.361553e+00 3.152580e+00 2.888047e+00 2.985816e+00 3.589163e+00 3.751844e+00 3.967444e+00 3.492319e+00 3.275137e+00 2.777206e+00 2.493266e+00 2.457211e+00 7.173726e+00
<GCONST> 1.005901e+02
<STATE> 4
<MEAN> 25
 -2.727195e+00 -4.734336e+00 -1.561889e+00 9.827523e-01 4.662955e+00 4.645082e+00 4.843045e+00 2.558937e+00 2.908127e+00 2.183647e+00 1.567307e+00 2.204777e+00 1.632373e+00 1.071609e-01 -2.485380e-03 -9.366044e-01 -6.390489e-01 -4.342985e-01 -1.153361e+00 -9.073159e-01 -1.654069e+00 -1.355303e+00 -1.326966e+00 -8.685313e-01 1.489520e+00
<VARIANCE> 25
 2.530127e+01 4.624097e+01 5.962954e+01 4.823465e+01 6.706214e+01 6.180687e+01 5.574036e+01 4.432970e+01 4.598465e+01 3.625552e+01 3.194103e+01 2.593500e+01 4.782768e+00 4.748886e+00 5.125965e+00 5.306150e+00 5.495661e+00 7.923741e+00 6.718119e+00 5.020645e+00 5.219307e+00 4.649824e+00 4.192434e+00 2.934602e+00 6.126409e+00
<GCONST> 1.124862e+02
<TRANSP> 5
 0.000000e+00 1.000000e+00 0.000000e+00 0.000000e+00 0.000000e+00
 0.000000e+00 6.243484e-01 3.756516e-01 0.000000e+00 0.000000e+00
 0.000000e+00 0.000000e+00 6.633160e-01 3.366840e-01 0.000000e+00
 0.000000e+00 0.000000e+00 0.000000e+00 6.174417e-01 3.825583e-01
 0.000000e+00 0.000000e+00 0.000000e+00 0.000000e+00 0.000000e+00
<ENDHMM>
~h "r"
<BEGINHMM>
<NUMSTATES> 5
<STATE> 2
<MEAN> 25
 9.067788e+00 -2.991404e+00 -7.402990e+00 2.411948e+00 1.502766e+00 -5.062852e+00 -7.705872e+00 4.319066e-01 -2.079874e+00 -2.162472e+00 1.066509e+00 2.944990e-01 1.851655e+00 -4.993542e-01 -1.177037e+00 2.412287e-01 1.137888e-01 -1.575719e+00 -2.257061e+00 6.753669e-01 3.118978e-01 -6.775444e-01 -3.135276e-01 7.354172e-02 6.770136e-01
<VARIANCE> 25
 3.939465e+01 3.861718e+01 7.650341e+01 3.878299e+01 5.998166e+01 6.911063e+01 7.605840e+01 7.746600e+01 5.337516e+01 4.950782e+01 4.007132e+01 4.002437e+01 4.890929e+00 3.384184e+00 4.920585e+00 4.153554e+00 6.078400e+00 5.926330e+00 6.383100e+00 5.972820e+00 5.894696e+00 4.764248e+00 4.214986e+00 3.505872e+00 3.113564e+00
<GCONST> 1.137532e+02
<STATE> 3
<MEAN> 25
 1.182822e+01 -6.511598e+00 -1.027810e+01 3.551955e+00 2.726128e+00 -9.075122e+00 -1.379304e+01 6.607170e+00 1.767598e+00 -2.365782e+00 -2.778783e-01 6.763810e-01 -9.278256e-02 -3.540934e-01 5.724329e-01 3.481031e-01 -6.027630e-01 -6.289299e-01 3.422220e-01 7.173086e-01 1.727329e-01 -2.077210e-01 -2.326116e-01 -1.312593e-01 6.548194e-02
<VARIANCE> 25
 1.163157e+01 2.580359e+01 5.661678e+01 3.982272e+01 5.313357e+01 5.911447e+01 8.986997e+01 8.444297e+01 5.829089e+01 4.928016e+01 3.590945e+01 4.218790e+01 1.155919e+00 2.661129e+00 3.769486e+00 2.237743e+00 4.603463e+00 3.895492e+00 5.466497e+00 5.314270e+00 3.642303e+00 3.109319e+00 2.908631e+00 2.468526e+00 1.990548e+00
<GCONST> 1.062432e+02
<STATE> 4
<MEAN> 25
 8.632137e+00 -6.638551e+00 -3.696273e+00 4.579046e+00 -2.427439e+00 -1.020174e+01 -5.425379e+00 6.870100e+00 -1.687059e+00 -3.199278e+00 7.140106e-01 -8.242141e-01 -1.073911e+00 6.282601e-01 2.025266e+00 -4.132221e-01 -1.111554e+00 1.028066e+00 2.005615e+00 -1.067259e+00 -7.194554e-01 3.940091e-01 1.748397e-01 -3.958204e-01 -6.017690e-01
<VARIANCE> 25
 1.786957e+01 3.530359e+01 6.648312e+01 4.321291e+01 8.098294e+01 7.812361e+01 7.051360e+01 7.676589e+01 6.746921e+01 5.497018e+01 4.799181e+01 4.432528e+01 1.504073e+00 2.856739e+00 3.400583e+00 3.242630e+00 4.880924e+00 3.848686e+00 4.771150e+00 4.659145e+00 4.935773e+00 4.111110e+00 3.412194e+00 2.993505e+00 2.594662e+00
<GCONST> 1.097674e+02
<TRANSP> 5
 0.000000e+00 1.000000e+00 0.000000e+00 0.000000e+00 0.000000e+00
 0.000000e+00 5.148872e-01 4.851128e-01 0.000000e+00 0.000000e+00
 0.000000e+00 0.000000e+00 6.403004e-01 3.596996e-01 0.000000e+00
 0.000000e+00 0.000000e+00 0.000000e+00 5.827213e-01 4.172787e-01
 0.000000e+00 0.000000e+00 0.000000e+00 0.000000e+00 0.000000e+00
<ENDHMM>
~h "s"
<BEGINHMM>
<NUMSTATES> 5
<STATE> 2
<MEAN> 25
 -9.886473e+00 6.792512e+00 3.433774e-01 1.416416e+00 3.975219e+00 -1.865736e+00 1.277389e+00 2.848355e-01 1.444939e+00 -1.084444e+00 -3.061986e-01 7.073125e-01 -4.643515e+00 1.352903e+00 -7.794473e-01 1.573007e-01 1.556036e+00 9.961464e-01 1.459264e+00 1.015840e+00 5.693625e-01 4.688374e-01 1.138997e+00 6.906974e-01 2.167647e-02
<VARIANCE> 25
 7.636998e+01 4.254451e+01 4.842185e+01 5.174071e+01 5.499068e+01 6.085532e+01 5.574494e+01 5.065808e+01 4.060529e+01 3.838914e+01 3.522265e+01 2.969915e+01 3.375067e+00 4.704280e+00 4.730656e+00 5.480852e+00 4.087260e+00 5.190031e+00 5.016206e+00 4.336073e+00 3.874517e+00 4.689135e+00 3.303840e+00 3.031144e+00 1.758139e+00
<GCONST> 1.101477e+02
<STATE> 3
<MEAN> 25
 -2.183958e+01 8.594373e+00 -5.324155e+00 1.818920e+00 6.929586e+00 2.611056e-01 5.159799e+00 2.876891e+00 2.433310e+00 1.563869e+00 2.835374e+00 3.181544e+00 -4.263463e-01 -1.494672e-01 -2.086532e-01 -1.471835e-01 7.000303e-02 1.529006e-01 1.738349e-01 1.599309e-01 7.297593e-02 1.557383e-01 9.401166e-02 1.399570e-01 -2.106969e-01
<VARIANCE> 25
 2.103723e+01 3.038456e+01 3.326867e+01 6.865739e+01 3.983028e+01 4.837547e+01 3.554300e+01 3.268708e+01 3.076780e+01 2.494786e+01 2.409669e+01 2.146225e+01 1.581346e+00 1.300985e+00 1.427085e+00 1.411233e+00 1.708800e+00 1.843455e+00 1.772442e+00 1.803084e+00 1.882646e+00 1.771570e+00 1.635869e+00 1.421183e+00 8.069400e-01
<GCONST> 9.321835e+01
<STATE> 4
<MEAN> 25
 -1.607684e+01 5.892977e+00 -2.077373e+00 7.432227e-01 6.633929e+00 3.711876e-02 3.842683e+00 3.528026e+00 3.237966e+00 1.777441e+00 2.024535e+00 2.950039e+00 3.103468e+00 -7.412703e-01 7.041787e-01 -2.536371e-02 -9.659971e-01 -4.301262e-01 -8.735920e-01 -5.520280e-01 -2.262349e-01 -1.067049e-01 -5.351922e-01 -4.631568e-01 -7.253841e-01
<VARIANCE> 25
 5.165845e+01 3.813609e+01 3.769999e+01 5.048440e+01 4.799385e+01 5.714287e+01 5.481020e+01 4.344118e+01 3.680731e+01 3.235624e+01 3.137718e+01 2.448351e+01 5.209683e+00 3.733154e+00 3.026755e+00 4.190607e+00 4.174281e+00 5.229348e+00 4.581774e+00 3.772343e+00 3.292321e+00 3.175441e+00 3.449073e+00 2.297929e+00 4.920721e+00
<GCONST> 1.079543e+02
<TRANSP> 5
 0.000000e+00 1.000000e+00 0.000000e+00 0.000000e+00 0.000000e+00
 0.000000e+00 7.099482e-01 2.900518e-01 0.000000e+00 0.000000e+00
 0.000000e+00 0.000000e+00 8.379228e-01 1.620772e-01 0.000000e+00
 0.000000e+00 0.000000e+00 0.000000e+00 7.379049e-01 2.620951e-01
 0.000000e+00 0.000000e+00 0.000000e+00 0.000000e+00 0.000000e+00
<ENDHMM>
~h "t"
<BEGINHMM>
<NUMSTATES> 5
<STATE> 2
<MEAN> 25
 -1.962995e+00 1.861529e+00 1.338512e+00 2.370360e+00 1.846722e+00 1.842625e-01 1.230916e+00 5.256566e-01 2.268184e+00 1.205876e+00 6.651146e-01 8.478125e-01 -1.918114e+00 -1.302637e-01 -2.846770e-01 -3.430012e-01 6.540682e-01 6.067381e-01 9.248440e-01 3.824964e-01 6.269805e-01 5.935385e-01 8.690368e-01 6.882299e-01 1.034116e-01
<VARIANCE> 25
 5.727723e+01 3.827058e+01 4.157012e+01 4.191194e+01 5.318715e+01 5.971243e+01 4.354911e+01 4.388298e+01 4.455968e+01 3.437798e+01 3.595361e+01 2.676563e+01 5.558630e+00 5.287357e+00 3.854442e+00 5.741252e+00 5.507029e+00 5.834486e+00 4.466928e+00 5.276212e+00 4.927855e+00 3.963064e+00 3.676589e+00 2.946929e+00 1.282013e+01
<GCONST> 1.119378e+02
<STATE> 3
<MEAN> 25
 -1.025191e+01 5.359663e-01 6.406832e-01 -8.217342e-01 2.587559e+00 1.240034e+00 4.674246e+00 2.663670e+00 3.211139e+00 2.785312e+00 3.845277e+00 3.313723e+00 -8.156642e-01 -3.383272e-01 3.264333e-01 -1.615102e-01 -4.241554e-01 -5.418350e-01 3.847938e-01 1.954456e-01 -8.020982e-02 -1.219092e-01 1.004067e-01 2.909561e-01 1.298923e+00
<VARIANCE> 25
 7.503668e+01 4.395787e+01 3.795697e+01 4.336785e+01 4.560624e+01 5.183138e+01 4.680065e+01 4.329793e+01 3.718511e+01 3.769273e+01 3.533793e+01 2.720881e+01 5.878939e+00 3.635769e+00 3.488313e+00 4.126111e+00 4.369009e+00 4.685759e+00 4.107772e+00 3.949093e+00 3.191922e+00 3.055650e+00 2.801914e+00 2.370163e+00 8.590433e+00
<GCONST> 1.088061e+02
<STATE> 4
<MEAN> 25
 -7.518449e+00 -1.270978e+00 1.384449e+00 1.322573e+00 1.124093e+00 -1.206871e+00 3.350869e+00 1.907924e+00 2.224021e+00 6.512396e-01 1.335983e+00 2.420613e+00 2.119421e+00 8.618066e-02 9.735310e-02 4.710497e-01 -4.751077e-01 -6.991032e-01 -1.160933e+00 -7.707860e-01 -8.130228e-01 -7.233266e-01 -8.713469e-01 -7.988287e-01 1.524576e-01
<VARIANCE> 25
 6.333309e+01 5.561214e+01 4.809370e+01 4.999861e+01 5.552376e+01 5.575134e+01 5.631451e+01 5.067386e+01 4.967990e+01 4.244533e+01 3.662571e+01 3.357836e+01 7.389157e+00 3.753976e+00 4.665226e+00 4.441925e+00 6.028545e+00 6.710886e+00 5.501809e+00 5.048030e+00 4.949777e+00 4.956236e+00 4.362647e+00 3.146119e+00 4.788539e+00
<GCONST> 1.134252e+02
<TRANSP> 5
 0.000000e+00 1.000000e+00 0.000000e+00 0.000000e+00 0.000000e+00
 0.000000e+00 5.135567e-01 4.864433e-01 0.000000e+00 0.000000e+00
 0.000000e+00 0.000000e+00 5.517503e-01 4.482497e-01 0.000000e+00
 0.000000e+00 0.000000e+00 0.000000e+00 4.920010e-01 5.079990e-01
 0.000000e+00 0.000000e+00 0.000000e+00 0.000000e+00 0.000000e+00
<ENDHMM>
~h "v"
<BEGINHMM>
<NUMSTATES> 5
<STATE> 2
<MEAN> 25
 8.349144e+00 -1.803684e+00 -3.058317e+00 1.356394e-02 -1.662688e+00 -1.788045e+00 -5.993907e+00 -3.514887e+00 2.291702e+00 2.984019e+00 -7.057937e-01 -2.486630e+00 -5.627605e-01 2.434453e+00 2.662989e-01 1.642557e+00 1.736881e+00 1.129604e+00 5.413775e-01 -1.114870e+00 -9.650649e-01 -3.694092e-01 7.577257e-01 3.137741e-01 -2.327497e+00
<VARIANCE> 25
 1.437351e+01 2.951773e+01 3.073389e+01 3.674514e+01 2.773793e+01 5.140567e+01 3.569931e+01 4.966384e+01 4.351678e+01 4.188984e+01 4.546918e+01 2.897639e+01 1.919720e+00 2.031244e+00 2.803850e+00 3.153155e+00 3.026302e+00 4.197423e+00 4.618696e+00 4.698183e+00 3.780034e+00 3.273012e+00 3.663128e+00 2.902145e+00 1.465918e+00
<GCONST> 1.028823e+02
<STATE> 3
<MEAN> 25
 4.416332e+00 5.843680e+00 1.020097e-01 4.768179e+00 2.950074e+00 1.445972e+00 -2.401685e+00 -4.113695e+00 -1.186368e+00 1.876080e-01 -4.128305e-01 -1.472107e+00 -2.058796e+00 1.571301e+00 1.013205e+00 1.392316e+00 1.262954e+00 1.053809e+00 1.415478e+00 6.752719e-01 -1.971543e-01 -6.760415e-01 -2.911695e-01 -2.726589e-02 -1.547832e+00
<VARIANCE> 25
 1.916150e+01 1.927896e+01 2.788599e+01 2.694885e+01 1.991891e+01 3.155018e+01 2.713012e+01 2.860889e+01 3.310560e+01 3.308283e+01 3.204086e+01 2.216855e+01 2.489768e+00 2.178365e+00 2.108330e+00 2.704688e+00 2.573426e+00 3.403715e+00 3.084755e+00 3.069198e+00 3.142534e+00 2.715012e+00 2.612389e+00 2.213406e+00 1.537714e+00
<GCONST> 9.732146e+01
<STATE> 4
<MEAN> 25
 -2.331853e+00 4.521107e+00 6.024801e-01 5.957333e+00 4.031750e+00 2.868842e+00 1.167863e+00 -1.696259e-01 1.501694e+00 4.272555e-01 -2.754630e-01 -8.728576e-02 -5.193248e-01 -7.392027e-01 -3.321232e-01 -2.632317e-01 -1.055752e-01 -1.871733e-01 7.084271e-02 2.596316e-01 1.733080e-01 1.207316e-01 2.468437e-01 2.940360e-01 2.413152e-01
<VARIANCE> 25
 3.341551e+01 2.778142e+01 3.084711e+01 2.525425e+01 2.719573e+01 3.334994e+01 2.908150e+01 3.028848e+01 3.929823e+01 2.924799e+01 2.648602e+01 2.215525e+01 4.749224e+00 2.484414e+00 2.345740e+00 2.820590e+00 2.901443e+00 2.897239e+00 3.106411e+00 2.822192e+00 2.863550e+00 2.698625e+00 2.348066e+00 2.065850e+00 2.514086e+00
<GCONST> 9.965439e+01
<TRANSP> 5
 0.000000e+00 1.000000e+00 0.000000e+00 0.000000e+00 0.000000e+00
 0.000000e+00 5.107012e-01 4.892989e-01 0.000000e+00 0.000000e+00
 0.000000e+00 0.000000e+00 5.044003e-01 4.955998e-01 0.000000e+00
 0.000000e+00 0.000000e+00 0.000000e+00 6.615689e-01 3.384311e-01
 0.000000e+00 0.000000e+00 0.000000e+00 0.000000e+00 0.000000e+00
<ENDHMM>
~h "w"
<BEGINHMM>
<NUMSTATES> 5
<STATE> 2
<MEAN> 25
 4.449121e+00 3.465707e+00 -2.098557e+00 6.993098e-01 2.088066e+00 1.840876e+00 -5.750668e-02 -2.422603e+00 -1.482618e+00 4.638410e-01 5.758699e-01 -1.607224e-01 1.423105e+00 1.237835e+00 -1.760285e-01 -1.035900e+00 -8.372788e-01 1.438659e-01 4.194079e-02 -5.737522e-01 -8.037955e-01 -5.880448e-01 -2.802682e-01 -1.732218e-01 1.119666e-01
<VARIANCE> 25
 4.802835e+01 3.893604e+01 2.950517e+01 3.952021e+01 3.920015e+01 4.414814e+01 5.041061e+01 4.368617e+01 4.286429e+01 3.520587e+01 2.710912e+01 2.593354e+01 3.799479e+00 2.645971e+00 2.813371e+00 4.802512e+00 4.737264e+00 4.624258e+00 4.968597e+00 4.685950e+00 4.476457e+00 3.645448e+00 3.121194e+00 2.621992e+00 4.937998e+00
<GCONST> 1.072075e+02
<STATE> 3
<MEAN> 25
 1.124540e+01 7.165906e+00 -3.456922e+00 -8.843750e+00 -5.894644e+00 3.048092e+00 -9.250154e-01 -3.204807e+00 -3.660870e+00 -2.673465e+00 -7.570426e-01 -7.468696e-01 5.924504e-01 -9.645546e-01 -9.292120e-01 -2.057039e+00 -6.452244e-01 1.009954e+00 -7.789484e-01 -3.482521e-01 -3.875735e-01 1.915427e-01 5.585126e-01 1.903974e-01 1.829674e+00
<VARIANCE> 25
 1.282241e+01 2.168637e+01 3.065800e+01 6.481506e+01 4.359262e+01 4.196606e+01 3.909014e+01 4.048264e+01 6.231536e+01 2.917791e+01 3.200481e+01 3.341635e+01 2.213237e+00 3.003484e+00 3.157915e+00 5.977656e+00 5.609368e+00 5.453413e+00 5.716629e+00 5.007715e+00 4.924394e+00 4.805622e+00 3.821219e+00 3.021439e+00 3.166481e+00
<GCONST> 1.068984e+02
<STATE> 4
<MEAN> 25
 9.674554e+00 -1.916848e+00 -7.360813e+00 -9.997488e+00 -1.260055e+00 5.514217e+00 -6.863072e+00 -5.280153e+00 -3.632747e+00 3.139425e+00 1.105870e+00 -2.686805e+00 -7.753989e-01 -2.181362e+00 3.684478e-01 1.262488e+00 5.142291e-01 -1.553388e+00 -1.611158e+00 7.521686e-01 1.442325e+00 9.896708e-01 -8.934692e-01 -1.062287e+00 1.634171e+00
<VARIANCE> 25
 1.290493e+01 3.177376e+01 3.361002e+01 7.069596e+01 4.114011e+01 8.304177e+01 7.535603e+01 6.750068e+01 7.049900e+01 7.428163e+01 7.549223e+01 4.359228e+01 8.619989e-01 1.946069e+00 3.184220e+00 3.787447e+00 5.928536e+00 6.693038e+00 6.211702e+00 5.950856e+00 5.646401e+00 6.602974e+00 5.615044e+00 3.699823e+00 1.547255e+00
<GCONST> 1.104562e+02
<TRANSP> 5
 0.000000e+00 1.000000e+00 0.000000e+00 0.000000e+00 0.000000e+00
 0.000000e+00 6.936769e-01 3.063231e-01 0.000000e+00 0.000000e+00
 0.000000e+00 0.000000e+00 6.821586e-01 3.178414e-01 0.000000e+00
 0.000000e+00 0.000000e+00 0.000000e+00 6.255875e-01 3.744125e-01
 0.000000e+00 0.000000e+00 0.000000e+00 0.000000e+00 0.000000e+00
<ENDHMM>
~h "y"
<BEGINHMM>
<NUMSTATES> 5
<STATE> 2
<MEAN> 25
 -5.924860e+00 5.119580e+00 1.139189e+01 9.732195e-01 -2.352799e+00 -8.404389e-01 1.174204e+00 -4.024776e+00 -4.022571e+00 -2.397694e-01 7.056987e-02 1.865856e-01 1.388752e+00 2.327332e-01 2.531379e+00 -1.765587e-01 -2.188227e+00 -4.788347e-01 -1.172760e+00 -1.231158e+00 -2.211384e+00 -7.827728e-01 -4.062981e-01 -7.631544e-01 1.143769e+00
<VARIANCE> 25
 7.373036e+01 5.766824e+01 5.972241e+01 4.180943e+01 5.122301e+01 5.121150e+01 7.141927e+01 4.370509e+01 5.278356e+01 4.295602e+01 3.827975e+01 3.144424e+01 6.934144e+00 3.132939e+00 4.982532e+00 4.833762e+00 5.210471e+00 5.269894e+00 6.872729e+00 4.498876e+00 5.747594e+00 5.271763e+00 3.812930e+00 2.915365e+00 3.105027e+00
<GCONST> 1.128192e+02
<STATE> 3
<MEAN> 25
 6.834954e-02 4.055201e+00 1.741447e+01 -2.295757e+00 -1.258937e+01 -1.394466e+00 -5.199854e+00 -7.577305e+00 -1.025395e+01 -1.761983e+00 -9.604015e-01 -4.497112e+00 4.769377e-01 -8.269807e-01 5.792196e-01 -6.438296e-02 -1.935587e+00 -3.174786e-01 2.904788e-02 6.999516e-02 -9.307796e-01 -3.085286e-01 7.716659e-01 -4.950085e-01 8.885427e-01
<VARIANCE> 25
 1.595589e+01 2.793622e+01 3.135175e+01 8.228391e+01 3.962833e+01 4.392334e+01 4.237309e+01 4.091403e+01 3.814009e+01 5.566501e+01 3.827734e+01 5.120034e+01 2.366444e+00 2.209256e+00 3.767175e+00 3.667775e+00 3.736552e+00 5.434252e+00 4.692770e+00 3.832680e+00 4.336955e+00 3.413142e+00 3.508345e+00 3.206930e+00 1.279675e+00
<GCONST> 1.056056e+02
<STATE> 4
<MEAN> 25
 2.406286e+00 -7.179895e-01 1.484265e+01 2.468996e+00 -1.416029e+01 -6.079184e+00 -4.021314e+00 -3.368984e+00 -1.126683e+01 -4.123861e+00 2.378307e+00 -2.261302e+00 6.861481e-01 -7.103670e-01 -1.662544e+00 6.651911e-01 6.551443e-01 -1.139825e+00 -6.759133e-01 8.607585e-01 8.950388e-01 -4.920952e-01 -1.515478e-01 5.644701e-01 2.028346e-01
<VARIANCE> 25
 1.192203e+01 2.318072e+01 4.180756e+01 6.436806e+01 3.115057e+01 6.205905e+01 4.786235e+01 4.662435e+01 4.938412e+01 8.171191e+01 4.103735e+01 5.851952e+01 4.950530e-01 1.178176e+00 1.949758e+00 1.793641e+00 2.498545e+00 2.268826e+00 3.866859e+00 2.631506e+00 3.050469e+00 2.992591e+00 2.008459e+00 1.781607e+00 4.810559e-01
<GCONST> 9.835272e+01
<TRANSP> 5
 0.000000e+00 1.000000e+00 0.000000e+00 0.000000e+00 0.000000e+00
 0.000000e+00 5.893277e-01 4.106723e-01 0.000000e+00 0.000000e+00
 0.000000e+00 0.000000e+00 6.408806e-01 3.591194e-01 0.000000e+00
 0.000000e+00 0.000000e+00 0.000000e+00 7.537335e-01 2.462666e-01
 0.000000e+00 0.000000e+00 0.000000e+00 0.000000e+00 0.000000e+00
<ENDHMM>
~h "z"
<BEGINHMM>
<NUMSTATES> 5
<STATE> 2
<MEAN> 25
 -1.995347e+00 9.804452e+00 2.118428e+00 1.746911e+00 6.951078e-01 -8.147211e+00 -5.240083e+00 -4.016461e+00 -2.184285e-01 -1.066331e+00 -2.597050e+00 8.459609e-01 -4.014501e+00 3.091873e+00 -5.902407e-01 8.182023e-01 2.531902e+00 6.818116e-01 1.528869e+00 4.088498e-01 3.459358e-01 -2.427115e-01 5.793790e-01 1.918153e-01 -5.210000e-01
<VARIANCE> 25
 3.473087e+01 4.473310e+01 4.299967e+01 4.020928e+01 6.359266e+01 5.336779e+01 5.525724e+01 4.155656e+01 3.522245e+01 4.826727e+01 3.396983e+01 3.078965e+01 2.599622e+00 3.772624e+00 3.443548e+00 5.364407e+00 3.786909e+00 6.220420e+00 4.889944e+00 6.298988e+00 3.838927e+00 3.843421e+00 3.936812e+00 3.424507e+00 1.187140e+00
<GCONST> 1.082612e+02
<STATE> 3
<MEAN> 25
 -1.608256e+01 1.420023e+01 -1.030755e+00 4.223374e+00 6.612920e+00 -1.895546e+00 1.192633e+00 1.611242e-02 9.728955e-01 -9.029457e-02 8.054644e-01 1.798225e+00 -2.128530e+00 -4.878554e-01 -6.430824e-01 -6.681369e-03 6.492427e-01 9.958643e-01 9.997900e-01 1.036453e+00 4.279023e-01 5.021029e-01 6.234348e-01 3.837656e-01 -3.065796e-01
<VARIANCE> 25
 2.947061e+01 2.656730e+01 4.751971e+01 5.831348e+01 5.502309e+01 5.287914e+01 4.689272e+01 4.388836e+01 3.945913e+01 3.186310e+01 2.900215e+01 2.219353e+01 3.704614e+00 2.119208e+00 2.240755e+00 2.394789e+00 2.369309e+00 3.163858e+00 3.200675e+00 2.849445e+00 2.816199e+00 2.823883e+00 2.169841e+00 2.044366e+00 8.404455e-01
<GCONST> 1.011012e+02
<STATE> 4
<MEAN> 25
 -1.330043e+01 6.666686e+00 -4.186862e-01 2.241154e+00 6.558582e+00 -7.824330e-01 2.326156e+00 2.945884e+00 2.529037e+00 7.271351e-01 1.170680e+00 2.678658e+00 1.869737e+00 -1.071004e+00 8.504906e-02 8.944614e-02 -6.523587e-01 2.198694e-02 -3.134644e-01 -3.096211e-01 5.543476e-04 2.956268e-02 -1.139125e-01 -1.891033e-01 -7.713026e-01
<VARIANCE> 25
 5.885798e+01 5.894333e+01 3.915179e+01 5.460736e+01 4.730479e+01 6.177460e+01 6.416055e+01 5.591978e+01 4.034219e+01 3.072768e+01 3.970004e+01 2.750581e+01 4.614401e+00 3.072962e+00 2.211637e+00 3.176589e+00 3.769297e+00 4.366593e+00 4.157216e+00 3.898895e+00 3.435732e+00 2.899490e+00 2.657311e+00 2.232681e+00 3.577426e+00
<GCONST> 1.075917e+02
<TRANSP> 5
 0.000000e+00 1.000000e+00 0.000000e+00 0.000000e+00 0.000000e+00
 0.000000e+00 6.663564e-01 3.336437e-01 0.000000e+00 0.000000e+00
 0.000000e+00 0.000000e+00 6.988643e-01 3.011357e-01 0.000000e+00
 0.000000e+00 0.000000e+00 0.000000e+00 7.999338e-01 2.000662e-01
 0.000000e+00 0.000000e+00 0.000000e+00 0.000000e+00 0.000000e+00
<ENDHMM>
~h "aa"
<BEGINHMM>
<NUMSTATES> 5
<STATE> 2
<MEAN> 25
 4.696099e+00 -5.304479e+00 -6.255238e+00 -5.283067e+00 2.315541e+00 4.462718e+00 -1.846940e+00 -1.385670e+00 5.904531e-01 -9.657122e-01 -2.162674e+00 -3.274119e+00 1.357360e+00 -1.736815e+00 -1.464731e+00 -1.714284e+00 1.718449e-01 1.242988e+00 -2.935889e-01 -1.523528e-01 4.859881e-02 -6.633675e-01 -2.968819e-01 -9.957837e-01 1.702847e+00
<VARIANCE> 25
 3.226858e+01 4.534867e+01 4.545421e+01 4.739559e+01 6.641927e+01 9.838149e+01 7.502940e+01 6.989224e+01 5.588554e+01 5.394953e+01 5.854628e+01 3.665278e+01 4.133906e+00 3.960999e+00 4.324375e+00 4.540996e+00 6.567404e+00 7.875570e+00 5.294671e+00 6.737821e+00 5.646695e+00 4.746491e+00 5.581236e+00 3.837851e+00 2.695852e+00
<GCONST> 1.145809e+02
<STATE> 3
<MEAN> 25
 7.992553e+00 -9.291824e+00 -1.003945e+01 -1.001202e+01 3.554734e+00 9.550136e+00 -1.893390e+00 -3.339465e+00 2.918163e-01 -2.677617e+00 -1.335369e+00 -4.453089e+00 8.154396e-03 -2.641163e-01 -2.247801e-01 1.362965e-01 2.720357e-01 -5.452598e-02 -1.597295e-01 5.704284e-02 9.906273e-02 -2.870830e-03 -4.033915e-02 -1.194384e-01 7.872022e-02
<VARIANCE> 25
 1.395668e+01 3.778126e+01 3.141503e+01 5.214340e+01 5.775043e+01 7.183387e+01 9.190755e+01 5.534483e+01 5.061232e+01 4.644077e+01 5.504935e+01 4.058010e+01 3.955285e-01 9.819084e-01 9.829398e-01 1.875507e+00 1.974749e+00 2.712038e+00 2.189718e+00 2.417426e+00 1.891937e+00 2.018303e+00 2.092735e+00 1.877998e+00 4.048632e-01
<GCONST> 9.676955e+01
<STATE> 4
<MEAN> 25
 7.858753e+00 -7.757212e+00 -9.109407e+00 -5.785928e+00 2.763185e+00 3.772467e+00 -3.425086e+00 -1.784208e+00 2.123354e+00 -8.941239e-01 -4.380898e+00 -5.166354e+00 -1.411227e-02 1.368721e+00 7.586544e-01 1.181047e+00 -3.842190e-01 -1.493757e+00 -3.860877e-02 2.695680e-01 -1.556852e-01 2.163163e-01 -2.719641e-01 3.382704e-01 -1.284131e+00
<VARIANCE> 25
 1.365485e+01 3.948538e+01 4.034911e+01 3.916064e+01 4.184975e+01 8.104377e+01 8.179659e+01 5.866525e+01 5.572308e+01 6.360389e+01 5.671670e+01 4.139492e+01 9.352270e-01 1.945453e+00 2.276015e+00 2.874923e+00 3.429315e+00 3.827678e+00 4.169940e+00 3.926130e+00 3.164317e+00 3.774794e+00 3.086326e+00 2.565673e+00 1.581903e+00
<GCONST> 1.049969e+02
<TRANSP> 5
 0.000000e+00 1.000000e+00 0.000000e+00 0.000000e+00 0.000000e+00
 0.000000e+00 6.525279e-01 3.474720e-01 0.000000e+00 0.000000e+00
 0.000000e+00 0.000000e+00 8.065946e-01 1.934054e-01 0.000000e+00
 0.000000e+00 0.000000e+00 0.000000e+00 7.089007e-01 2.910993e-01
 0.000000e+00 0.000000e+00 0.000000e+00 0.000000e+00 0.000000e+00
<ENDHMM>
~h "ae"
<BEGINHMM>
<NUMSTATES> 5
<STATE> 2
<MEAN> 25
 2.262294e+00 -5.864833e+00 -9.146705e-01 -1.148981e+00 -5.085205e+00 -2.646686e+00 3.127243e+00 3.399369e+00 5.515864e-01 -2.649169e+00 -3.026569e+00 -7.437856e-01 8.017289e-01 -1.604930e+00 -2.648190e-01 -7.225997e-01 -1.062540e+00 -8.315639e-02 -7.096626e-03 7.591445e-01 -1.512783e-01 -7.450074e-01 -6.450170e-01 -2.476177e-01 2.053380e+00
<VARIANCE> 25
 2.556485e+01 4.777720e+01 4.088600e+01 3.912395e+01 5.949039e+01 5.750901e+01 6.988131e+01 5.689665e+01 7.239847e+01 5.071035e+01 5.474388e+01 3.809558e+01 3.197119e+00 4.095404e+00 3.577559e+00 3.624770e+00 5.370564e+00 4.635471e+00 6.702956e+00 4.976935e+00 5.113853e+00 4.682932e+00 4.571241e+00 3.605928e+00 4.643000e+00
<GCONST> 1.120793e+02
<STATE> 3
<MEAN> 25
 3.926718e+00 -1.080771e+01 -2.883825e+00 -2.154547e+00 -4.213587e+00 -1.045331e+00 3.414546e+00 3.221114e+00 -9.754111e-01 -5.026816e+00 -5.157412e+00 -2.090019e+00 9.923326e-02 -1.413376e-01 -2.396515e-01 1.364842e-01 3.036811e-01 1.245678e-01 -1.826341e-01 2.622612e-03 1.868890e-01 -8.521244e-03 -1.849918e-01 -5.486262e-03 -5.761761e-02
<VARIANCE> 25
 1.319176e+01 3.441480e+01 4.577358e+01 3.181067e+01 5.614552e+01 4.722194e+01 5.801778e+01 5.367957e+01 5.114778e+01 4.046984e+01 3.825534e+01 3.496680e+01 4.278923e-01 1.112281e+00 1.203276e+00 1.194527e+00 1.776625e+00 1.681199e+00 2.045091e+00 1.855850e+00 1.924725e+00 1.568020e+00 1.421003e+00 1.385022e+00 4.539995e-01
<GCONST> 9.314941e+01
<STATE> 4
<MEAN> 25
 4.971579e+00 -7.287618e+00 -3.307215e+00 -5.390615e-01 -4.012902e+00 -2.455279e+00 1.321875e+00 2.918573e+00 1.782143e+00 -2.766077e+00 -5.235327e+00 -2.288441e+00 1.522317e-01 1.839075e+00 6.307108e-01 7.415602e-01 5.587033e-01 -3.660542e-01 -4.829569e-01 -6.029342e-01 -6.568492e-02 7.128962e-01 3.699293e-01 3.228861e-02 -1.930010e+00
<VARIANCE> 25
 1.381812e+01 3.555938e+01 4.790708e+01 3.333593e+01 5.547525e+01 5.021518e+01 6.921576e+01 4.961622e+01 5.989222e+01 5.529223e+01 4.066717e+01 4.753979e+01 1.294161e+00 2.036646e+00 2.202308e+00 2.380837e+00 3.373273e+00 3.174080e+00 3.636667e+00 4.069140e+00 3.060969e+00 2.983536e+00 2.675053e+00 2.603117e+00 1.892855e+00
<GCONST> 1.037481e+02
<TRANSP> 5
 0.000000e+00 1.000000e+00 0.000000e+00 0.000000e+00 0.000000e+00
 0.000000e+00 6.438926e-01 3.561075e-01 0.000000e+00 0.000000e+00
 0.000000e+00 0.000000e+00 8.006332e-01 1.993667e-01 0.000000e+00
 0.000000e+00 0.000000e+00 0.000000e+00 6.422237e-01 3.577763e-01
 0.000000e+00 0.000000e+00 0.000000e+00 0.000000e+00 0.000000e+00
<ENDHMM>
~h "ah"
<BEGINHMM>
<NUMSTATES> 5
<STATE> 2
<MEAN> 25
 2.179348e+00 -1.587362e+00 -8.549242e-02 -1.560359e+00 -2.656896e+00 -2.508727e+00 -2.436716e+00 -1.519898e-01 9.013806e-01 -6.646996e-01 -1.964739e+00 -9.150833e-01 1.697174e+00 -1.129315e+00 7.404899e-03 -1.253301e+00 -1.295484e+00 -4.874818e-01 -1.217507e+00 -3.002875e-02 1.098623e-01 -1.882327e-01 -7.894946e-01 -5.578495e-01 1.796553e+00
<VARIANCE> 25
 3.580904e+01 4.301519e+01 5.512594e+01 4.991558e+01 6.895556e+01 7.054308e+01 7.605936e+01 5.597672e+01 5.582058e+01 5.032362e+01 4.192555e+01 3.745334e+01 5.248021e+00 4.273752e+00 4.810573e+00 5.673676e+00 6.007978e+00 6.754084e+00 6.886459e+00 6.918424e+00 6.227343e+00 5.310158e+00 4.850999e+00 4.195926e+00 6.000355e+00
<GCONST> 1.156400e+02
<STATE> 3
<MEAN> 25
 5.468911e+00 -3.890914e+00 -6.280370e-01 -4.372371e+00 -4.175398e+00 -2.527839e+00 -5.379710e+00 -5.825931e-01 1.204335e+00 -4.694573e-01 -3.396998e+00 -2.681329e+00 5.416973e-01 2.273621e-01 3.273530e-02 1.402636e-02 9.139812e-02 3.153340e-01 1.004877e-01 -1.528283e-01 -9.665883e-02 1.096104e-02 -6.024592e-02 -2.955345e-02 -3.422427e-01
<VARIANCE> 25
 1.802966e+01 4.268067e+01 7.693434e+01 5.581856e+01 6.659915e+01 6.911491e+01 6.114282e+01 6.651150e+01 6.456208e+01 6.584441e+01 4.981471e+01 4.372359e+01 2.039496e+00 2.789875e+00 3.086845e+00 4.381402e+00 4.226894e+00 4.124821e+00 4.098771e+00 4.377335e+00 3.988503e+00 3.602253e+00 3.243357e+00 2.928918e+00 2.969690e+00
<GCONST> 1.098374e+02
<STATE> 4
<MEAN> 25
 4.436218e+00 -2.625447e+00 -1.298270e+00 -2.230530e+00 -1.001647e+00 1.310836e-01 -1.465104e+00 5.455074e-01 1.582285e+00 -1.450850e+00 -1.913484e+00 -1.010035e+00 -1.151450e-01 9.080800e-01 2.633308e-01 5.198883e-01 5.258193e-01 2.188385e-01 2.970419e-01 -1.811758e-01 -3.592971e-01 -9.494440e-02 2.327107e-01 1.357394e-01 -1.021988e+00
<VARIANCE> 25
 3.647606e+01 5.548658e+01 5.327860e+01 6.282711e+01 7.016866e+01 7.358292e+01 7.723763e+01 6.894897e+01 6.141047e+01 6.477592e+01 5.123950e+01 5.222955e+01 1.725815e+00 2.414342e+00 2.334135e+00 3.541898e+00 3.239639e+00 3.344897e+00 3.329329e+00 3.574516e+00 3.405110e+00 3.008199e+00 2.726116e+00 2.557631e+00 3.210989e+00
<GCONST> 1.088200e+02
<TRANSP> 5
 0.000000e+00 1.000000e+00 0.000000e+00 0.000000e+00 0.000000e+00
 0.000000e+00 4.561428e-01 5.438572e-01 0.000000e+00 0.000000e+00
 0.000000e+00 0.000000e+00 3.758029e-01 6.241971e-01 0.000000e+00
 0.000000e+00 0.000000e+00 0.000000e+00 5.896632e-01 4.103368e-01
 0.000000e+00 0.000000e+00 0.000000e+00 0.000000e+00 0.000000e+00
<ENDHMM>
~h "ao"
<BEGINHMM>
<NUMSTATES> 5
<STATE> 2
<MEAN> 25
 6.480456e+00 4.288047e-01 -7.721915e+00 -1.007760e+01 -1.434102e+00 4.487725e+00 -4.768980e-01 -2.033001e-01 -1.078670e+00 -2.142076e-01 1.114095e+00 -1.771023e+00 1.692918e+00 -3.127450e-01 -1.021370e+00 -2.514813e+00 -9.532629e-01 6.028678e-01 -1.402123e-01 3.469909e-01 -7.795540e-01 -6.369727e-01 4.304793e-02 -1.092816e-01 1.354852e+00
<VARIANCE> 25
 4.067219e+01 5.410589e+01 3.683650e+01 7.050743e+01 7.572710e+01 7.726696e+01 5.766117e+01 5.956024e+01 5.731933e+01 4.839182e+01 5.577893e+01 3.573237e+01 5.087409e+00 4.804959e+00 4.271889e+00 6.800699e+00 7.351797e+00 7.581197e+00 6.712804e+00 5.894063e+00 5.871625e+00 4.729908e+00 4.895565e+00 4.502914e+00 4.487170e+00
<GCONST> 1.160294e+02
<STATE> 3
<MEAN> 25
 1.030137e+01 -1.805546e+00 -9.116834e+00 -1.707547e+01 -3.461210e+00 9.580197e+00 1.133513e+00 7.781230e-02 -2.509850e+00 -3.317951e+00 5.795268e-01 -7.833758e-01 9.062124e-02 -3.688094e-01 -4.726789e-01 6.687637e-02 6.021974e-01 1.444719e-01 -1.005058e-01 2.247122e-02 -1.205200e-01 -1.145529e-01 2.797350e-01 2.397116e-01 8.930546e-02
<VARIANCE> 25
 1.167364e+01 4.997361e+01 3.116687e+01 5.042890e+01 1.020123e+02 8.339113e+01 7.518316e+01 6.587283e+01 5.519864e+01 4.754472e+01 5.386174e+01 4.301866e+01 3.055279e-01 1.361432e+00 1.288015e+00 1.860540e+00 2.420633e+00 2.075699e+00 2.582408e+00 2.012108e+00 2.020143e+00 2.263807e+00 2.081859e+00 1.879761e+00 5.175906e-01
<GCONST> 9.833771e+01
<STATE> 4
<MEAN> 25
 9.116872e+00 -4.556325e+00 -1.380869e+01 -8.558822e+00 5.121090e+00 4.719639e+00 -4.661675e+00 -8.661864e-01 -1.706331e+00 -1.586951e+00 2.238259e+00 -8.569725e-01 -2.184739e-01 5.292549e-02 1.753096e-01 1.697110e+00 7.504005e-01 -1.129673e+00 -1.063136e+00 -1.149103e-01 8.592403e-01 6.507087e-01 -4.046025e-01 -4.168009e-01 -4.158746e-01
<VARIANCE> 25
 3.932937e+01 3.633812e+01 4.093539e+01 8.131946e+01 7.449929e+01 6.761865e+01 1.377463e+02 9.005150e+01 8.208269e+01 7.170087e+01 6.349028e+01 6.377151e+01 9.036711e-01 2.274945e+00 2.815959e+00 3.296718e+00 4.343834e+00 3.976045e+00 5.318123e+00 4.381585e+00 3.768015e+00 2.992473e+00 3.591331e+00 3.319278e+00 1.194037e+00
<GCONST> 1.102838e+02
<TRANSP> 5
 0.000000e+00 1.000000e+00 0.000000e+00 0.000000e+00 0.000000e+00
 0.000000e+00 7.176775e-01 2.823225e-01 0.000000e+00 0.000000e+00
 0.000000e+00 0.000000e+00 8.411798e-01 1.588201e-01 0.000000e+00
 0.000000e+00 0.000000e+00 0.000000e+00 7.238109e-01 2.761892e-01
 0.000000e+00 0.000000e+00 0.000000e+00 0.000000e+00 0.000000e+00
<ENDHMM>
~h "aw"
<BEGINHMM>
<NUMSTATES> 5
<STATE> 2
<MEAN> 25
 3.963435e+00 -1.212513e+01 -4.014090e+00 -2.280857e+00 -1.548318e+00 1.204507e+00 1.549999e+00 2.490396e+00 4.316892e-01 -4.907305e+00 -5.316483e+00 -3.287952e+00 4.248525e-01 -1.194706e+00 -1.060069e+00 -2.773442e-01 9.420716e-01 1.373021e+00 -2.109938e-01 -5.132747e-01 5.159052e-01 -2.971232e-01 -4.039704e-01 -4.208182e-01 6.113285e-01
<VARIANCE> 25
 1.281492e+01 3.461446e+01 3.293588e+01 3.140737e+01 5.832576e+01 6.057778e+01 4.222698e+01 5.067554e+01 7.013294e+01 4.215210e+01 4.238862e+01 4.581007e+01 1.122967e+00 2.738505e+00 2.278151e+00 2.566993e+00 3.035498e+00 2.902872e+00 4.276865e+00 5.014461e+00 3.470928e+00 2.787483e+00 2.777107e+00 2.815588e+00 1.356368e+00
<GCONST> 1.031470e+02
<STATE> 3
<MEAN> 25
 7.694418e+00 -1.170220e+01 -8.603428e+00 -5.011461e+00 2.165448e+00 9.152512e+00 -1.912772e+00 -1.790576e+00 2.719779e+00 -2.590084e+00 -4.626106e+00 -5.806518e+00 4.306549e-01 7.121130e-01 -3.879203e-01 -8.015028e-01 -9.724967e-02 6.290535e-01 -4.425173e-02 -5.961198e-01 -1.918222e-01 4.218243e-01 6.231521e-01 4.085737e-02 -5.053514e-01
<VARIANCE> 25
 1.077831e+01 2.998722e+01 2.064193e+01 3.434937e+01 3.780564e+01 6.235227e+01 5.130861e+01 5.046835e+01 4.112534e+01 4.757178e+01 3.965915e+01 3.947857e+01 3.100604e-01 8.954865e-01 8.357149e-01 1.550134e+00 1.842180e+00 2.017728e+00 1.714253e+00 1.890691e+00 2.285491e+00 1.833653e+00 1.593211e+00 1.958277e+00 2.865456e-01
<GCONST> 9.163573e+01
<STATE> 4
<MEAN> 25
 1.000172e+01 -3.828614e+00 -8.145923e+00 -9.679096e+00 -1.713069e+00 8.323283e+00 9.681292e-01 -4.884190e+00 8.398951e-01 -4.780219e-01 1.776133e-01 -2.444257e+00 4.676918e-02 1.243856e+00 7.821178e-01 1.030288e+00 -3.110668e-01 -1.248662e+00 -2.992745e-01 1.471636e-01 -4.245499e-01 2.519713e-01 1.414790e-01 4.158330e-01 -1.339548e+00
<VARIANCE> 25
 1.609813e+01 3.942494e+01 3.060223e+01 7.333027e+01 7.364008e+01 5.994044e+01 6.910078e+01 5.778809e+01 5.551249e+01 6.527598e+01 7.860963e+01 3.739406e+01 1.078453e+00 2.515734e+00 2.075614e+00 4.909233e+00 4.763335e+00 3.220377e+00 3.305197e+00 3.588092e+00 3.523662e+00 3.865735e+00 3.651944e+00 3.396906e+00 1.400933e+00
<GCONST> 1.069721e+02
<TRANSP> 5
 0.000000e+00 1.000000e+00 0.000000e+00 0.000000e+00 0.000000e+00
 0.000000e+00 7.908843e-01 2.091157e-01 0.000000e+00 0.000000e+00
 0.000000e+00 0.000000e+00 8.387023e-01 1.612977e-01 0.000000e+00
 0.000000e+00 0.000000e+00 0.000000e+00 8.053051e-01 1.946949e-01
 0.000000e+00 0.000000e+00 0.000000e+00 0.000000e+00 0.000000e+00
<ENDHMM>
~h "ay"
<BEGINHMM>
<NUMSTATES> 5
<STATE> 2
<MEAN> 25
 3.851591e+00 -7.740006e+00 -7.207357e+00 -5.211467e+00 4.966133e+00 7.793823e+00 7.813324e-01 -2.412610e+00 3.919623e+00 -7.219529e-02 -2.153349e+00 -1.948060e+00 4.000170e-01 -1.696771e+00 -4.713059e-01 -5.590516e-01 2.440750e-01 4.582710e-01 -1.967133e-01 -3.075971e-02 4.638508e-01 -2.904567e-01 -7.673550e-01 -7.219518e-01 1.531405e+00
<VARIANCE> 25
 3.733163e+01 5.045051e+01 3.896252e+01 7.684765e+01 6.239529e+01 6.299368e+01 8.226043e+01 5.788657e+01 5.106474e+01 5.233120e+01 6.227376e+01 5.822147e+01 2.579747e+00 4.037217e+00 2.905275e+00 5.007663e+00 3.650778e+00 4.940820e+00 4.478628e+00 4.722649e+00 4.563477e+00 4.268464e+00 4.036182e+00 3.555598e+00 3.362224e+00
<GCONST> 1.121342e+02
<STATE> 3
<MEAN> 25
 6.524435e+00 -1.260317e+01 -7.351946e+00 -5.843812e+00 3.929567e+00 6.208174e+00 -1.501438e+00 -3.346336e-01 3.447441e+00 -3.009588e+00 -6.195055e+00 -5.638761e+00 -1.915332e-01 -1.906576e-01 6.386661e-01 5.426933e-01 -7.013060e-01 -1.085568e+00 2.485861e-01 1.091625e+00 1.787063e-03 -5.184577e-01 -3.566501e-01 3.320690e-01 8.873393e-02
<VARIANCE> 25
 8.827052e+00 2.867485e+01 2.941605e+01 2.982326e+01 4.524844e+01 5.780127e+01 6.199897e+01 5.409027e+01 4.490264e+01 4.986313e+01 3.832988e+01 3.341648e+01 3.268430e-01 8.663765e-01 1.132521e+00 1.405771e+00 2.279709e+00 2.244703e+00 2.112046e+00 2.577266e+00 1.869542e+00 1.653547e+00 1.480936e+00 1.601481e+00 2.479417e-01
<GCONST> 9.224160e+01
<STATE> 4
<MEAN> 25
 4.081535e+00 -8.719241e+00 1.286314e+00 -3.158293e+00 -7.969079e+00 -3.842272e+00 2.732731e+00 4.638784e+00 -1.880913e-01 -2.536037e+00 -3.301431e+00 -1.966566e+00 -1.117392e-01 1.407043e+00 1.353032e+00 3.978395e-01 -1.362056e+00 -1.023066e+00 1.614948e-01 -4.539681e-01 -8.075546e-01 8.830953e-01 8.670521e-01 3.105882e-01 -8.736438e-01
<VARIANCE> 25
 1.337993e+01 3.690028e+01 4.679585e+01 3.432617e+01 5.692010e+01 4.317573e+01 4.404608e+01 5.534372e+01 5.781409e+01 4.889724e+01 4.684976e+01 3.471087e+01 5.797237e-01 1.332683e+00 2.582242e+00 2.140830e+00 4.343463e+00 3.133919e+00 4.202661e+00 4.258460e+00 3.534702e+00 3.434073e+00 2.732898e+00 2.821914e+00 8.012066e-01
<GCONST> 1.017422e+02
<TRANSP> 5
 0.000000e+00 1.000000e+00 0.000000e+00 0.000000e+00 0.000000e+00
 0.000000e+00 7.482852e-01 2.517147e-01 0.000000e+00 0.000000e+00
 0.000000e+00 0.000000e+00 8.314382e-01 1.685618e-01 0.000000e+00
 0.000000e+00 0.000000e+00 0.000000e+00 7.954625e-01 2.045375e-01
 0.000000e+00 0.000000e+00 0.000000e+00 0.000000e+00 0.000000e+00
<ENDHMM>
~h "ch"
<BEGINHMM>
<NUMSTATES> 5
<STATE> 2
<MEAN> 25
 -8.121090e+00 1.188984e+00 4.671204e+00 2.014551e-01 1.671639e+00 1.302421e+00 7.401985e-01 1.498911e-01 2.389481e+00 6.675279e-01 3.003285e+00 1.509593e+00 -4.272339e+00 -1.238789e-01 2.988505e-01 -1.494693e+00 6.158084e-01 1.182418e+00 9.070327e-01 3.881117e-01 8.096522e-01 3.843780e-01 1.101973e+00 3.066916e-01 1.639816e+00
<VARIANCE> 25
 7.075753e+01 4.317519e+01 3.746506e+01 4.919791e+01 5.042013e+01 5.033277e+01 4.267026e+01 4.089975e+01 4.042941e+01 3.746230e+01 2.985626e+01 2.078415e+01 4.855237e+00 5.126716e+00 5.351439e+00 3.809555e+00 5.411220e+00 5.449169e+00 4.361866e+00 3.778160e+00 4.592472e+00 3.849349e+00 3.147331e+00 2.905090e+00 8.447474e+00
<GCONST> 1.101825e+02
<STATE> 3
<MEAN> 25
 -2.193346e+01 9.553545e-01 8.037585e+00 -2.851005e+00 4.754871e-01 3.512069e+00 5.259375e+00 1.150518e+00 4.268464e+00 3.533428e-01 4.270247e+00 2.312253e+00 -5.746120e-02 -4.141266e-01 4.634932e-01 7.967086e-01 -9.028613e-01 -3.980635e-01 5.762901e-01 2.108511e-02 -1.403031e-01 -1.892619e-01 -3.642378e-01 1.819617e-01 3.254309e-01
<VARIANCE> 25
 1.972914e+01 3.505223e+01 1.902088e+01 1.962943e+01 4.128051e+01 3.011433e+01 3.093430e+01 3.407105e+01 3.246812e+01 2.635436e+01 2.641978e+01 1.847272e+01 5.437422e+00 1.894594e+00 2.161601e+00 2.250749e+00 2.542963e+00 2.590398e+00 2.452430e+00 2.780041e+00 2.010110e+00 1.799490e+00 1.736256e+00 1.760816e+00 2.779671e+00
<GCONST> 9.658109e+01
<STATE> 4
<MEAN> 25
 -1.221495e+01 -1.970696e+00 3.785607e+00 2.973931e+00 -1.647902e+00 -3.658742e-01 4.047873e+00 1.904443e+00 4.279837e+00 9.199774e-01 1.393645e+00 2.349270e+00 3.081542e+00 2.328814e-01 -9.535871e-01 2.715417e-01 7.967593e-02 -6.322655e-01 -9.124274e-01 -5.001330e-02 -1.920293e-01 -2.301333e-01 -5.222785e-01 -2.229147e-01 -8.695885e-01
<VARIANCE> 25
 7.002315e+01 4.004053e+01 6.389380e+01 3.336374e+01 3.177511e+01 6.620025e+01 4.253271e+01 3.519995e+01 3.624979e+01 3.336975e+01 3.617905e+01 2.031884e+01 6.575552e+00 2.449824e+00 2.576787e+00 2.892204e+00 4.121573e+00 4.990024e+00 3.822074e+00 3.597511e+00 3.770142e+00 2.500512e+00 3.028906e+00 2.166997e+00 4.301399e+00
<GCONST> 1.062279e+02
<TRANSP> 5
 0.000000e+00 1.000000e+00 0.000000e+00 0.000000e+00 0.000000e+00
 0.000000e+00 7.382349e-01 2.617652e-01 0.000000e+00 0.000000e+00
 0.000000e+00 0.000000e+00 7.635618e-01 2.364381e-01 0.000000e+00
 0.000000e+00 0.000000e+00 0.000000e+00 7.522035e-01 2.477965e-01
 0.000000e+00 0.000000e+00 0.000000e+00 0.000000e+00 0.000000e+00
<ENDHMM>
~h "dh"
<BEGINHMM>
<NUMSTATES> 5
<STATE> 2
<MEAN> 25
 6.866705e-01 5.949341e+00 4.114207e-01 5.521883e+00 2.198214e+00 -7.005164e-01 -4.364781e-01 -2.526662e+00 1.433396e+00 4.186258e-01 -1.974864e+00 -1.365935e+00 -5.953463e-01 2.444452e-01 -9.617215e-02 2.946367e-01 3.929430e-01 1.677307e-01 4.101539e-01 -3.930823e-02 3.020277e-01 -2.324768e-01 3.087206e-01 2.162645e-02 5.607037e-02
<VARIANCE> 25
 4.732250e+01 3.844473e+01 3.378571e+01 3.340420e+01 4.359518e+01 4.751430e+01 4.651471e+01 5.198539e+01 4.458068e+01 4.020838e+01 3.818055e+01 3.656742e+01 4.554186e+00 3.989877e+00 2.946626e+00 4.052097e+00 3.705415e+00 5.156092e+00 4.832055e+00 4.397288e+00 4.238616e+00 3.385798e+00 3.644843e+00 3.028318e+00 6.282176e+00
<GCONST> 1.089302e+02
<STATE> 3
<MEAN> 25
 -6.836925e-01 4.813172e+00 1.375732e-01 4.712736e+00 1.897787e+00 -1.462760e+00 -2.865487e-02 -2.114789e+00 1.537149e+00 -2.034224e-01 -7.348244e-01 -5.970955e-01 -1.687335e-01 -1.260142e+00 -3.004889e-01 -1.226821e+00 -1.223676e+00 -1.415583e+00 -4.542541e-01 3.585999e-01 5.978732e-01 1.298201e-01 3.196711e-01 4.403028e-01 2.464249e+00
<VARIANCE> 25
 3.583594e+01 2.838206e+01 2.561073e+01 3.275841e+01 4.160795e+01 5.086682e+01 4.283094e+01 4.214856e+01 3.369118e+01 3.195370e+01 3.185831e+01 3.412663e+01 3.770537e+00 2.862432e+00 3.028718e+00 3.438542e+00 3.774437e+00 5.498904e+00 4.608864e+00 3.845792e+00 4.233717e+00 3.557345e+00 3.545205e+00 3.720217e+00 5.683133e+00
<GCONST> 1.063915e+02
<STATE> 4
<MEAN> 25
 -4.503526e+00 -1.763996e+00 -2.923028e+00 2.744089e+00 2.393834e+00 -1.720042e+00 9.331759e-01 9.515685e-01 2.847979e+00 -5.801199e-01 2.401852e-01 2.217988e+00 2.307860e-01 -4.837773e-01 -1.080383e-02 -5.084221e-01 -6.553439e-01 -4.620879e-01 -3.477467e-01 6.734049e-02 8.373586e-02 5.578571e-02 1.207120e-02 4.565161e-02 1.201379e+00
<VARIANCE> 25
 3.534408e+01 6.982399e+01 3.079488e+01 3.356384e+01 4.650722e+01 5.050366e+01 4.041029e+01 4.198298e+01 3.791905e+01 3.164677e+01 3.123416e+01 3.760927e+01 1.611639e+00 2.489754e+00 1.991479e+00 2.579033e+00 3.245950e+00 3.606248e+00 3.324553e+00 2.934144e+00 2.580194e+00 2.701069e+00 2.486517e+00 2.265481e+00 4.874504e+00
<GCONST> 1.030734e+02
<TRANSP> 5
 0.000000e+00 1.000000e+00 0.000000e+00 0.000000e+00 0.000000e+00
 0.000000e+00 3.765249e-01 6.234752e-01 0.000000e+00 0.000000e+00
 0.000000e+00 0.000000e+00 2.735841e-01 7.264159e-01 0.000000e+00
 0.000000e+00 0.000000e+00 0.000000e+00 6.521198e-01 3.478802e-01
 0.000000e+00 0.000000e+00 0.000000e+00 0.000000e+00 0.000000e+00
<ENDHMM>
~h "eh"
<BEGINHMM>
<NUMSTATES> 5
<STATE> 2
<MEAN> 25
 3.508481e+00 -3.655188e+00 9.952461e-01 -2.158944e+00 -7.688593e+00 -5.341506e+00 -1.192662e+00 1.587199e+00 6.640459e-01 -8.797519e-01 -2.791001e+00 -1.804264e+00 1.206514e+00 -2.213885e+00 1.044383e-01 -1.539528e+00 -1.935838e+00 -8.395834e-01 1.452405e-01 1.246715e+00 5.506245e-02 -4.810979e-01 -8.862265e-01 -4.464033e-01 2.131326e+00
<VARIANCE> 25
 2.106840e+01 4.232029e+01 4.348415e+01 4.203038e+01 6.245234e+01 5.618834e+01 5.308847e+01 4.996283e+01 5.565693e+01 4.440452e+01 4.632986e+01 3.281802e+01 5.156891e+00 3.367306e+00 3.344100e+00 4.366487e+00 5.107340e+00 5.984144e+00 6.611503e+00 5.818832e+00 5.313855e+00 4.772742e+00 4.662023e+00 3.682039e+00 2.588571e+00
<GCONST> 1.110690e+02
<STATE> 3
<MEAN> 25
 4.282927e+00 -9.149480e+00 7.839923e-01 -4.747861e+00 -9.125826e+00 -4.612922e+00 1.732448e+00 5.622387e+00 -1.274179e+00 -2.508858e+00 -4.115408e+00 -2.916565e+00 1.498914e-01 -3.268076e-01 -3.598590e-01 1.564972e-01 3.949392e-01 3.611724e-02 4.068284e-02 3.815795e-01 -6.541353e-02 -3.305340e-01 -1.041354e-01 -1.920374e-02 -6.878670e-02
<VARIANCE> 25
 1.192918e+01 3.019067e+01 4.065048e+01 2.908792e+01 4.874350e+01 4.914886e+01 5.526429e+01 6.341337e+01 7.747792e+01 5.556740e+01 4.617434e+01 3.407370e+01 5.068496e-01 1.497055e+00 1.668116e+00 1.784673e+00 1.883983e+00 2.372437e+00 2.676650e+00 2.704288e+00 1.994605e+00 1.981057e+00 1.662646e+00 1.726762e+00 6.253572e-01
<GCONST> 9.683144e+01
<STATE> 4
<MEAN> 25
 2.594182e+00 -8.069809e+00 -7.824837e-01 -7.238038e-01 -4.012079e+00 -2.428371e+00 2.220909e+00 5.562795e+00 2.363420e+00 -2.808501e+00 -1.816401e+00 1.058046e-01 8.473398e-02 8.737512e-01 -8.195867e-02 6.072502e-01 6.821131e-01 5.981800e-02 -4.626009e-01 -4.496666e-01 -8.936303e-02 5.360645e-02 2.415676e-01 1.190556e-01 -1.088674e+00
<VARIANCE> 25
 3.813266e+01 3.338391e+01 5.356286e+01 4.315065e+01 5.075764e+01 6.226047e+01 7.004903e+01 5.819822e+01 6.543652e+01 5.660659e+01 6.571317e+01 4.802353e+01 1.109160e+00 2.164768e+00 2.114860e+00 2.457581e+00 2.510483e+00 2.851917e+00 2.972496e+00 3.117416e+00 2.571188e+00 2.588874e+00 2.168802e+00 2.311997e+00 1.873551e+00
<GCONST> 1.043419e+02
<TRANSP> 5
 0.000000e+00 1.000000e+00 0.000000e+00 0.000000e+00 0.000000e+00
 0.000000e+00 5.284646e-01 4.715355e-01 0.000000e+00 0.000000e+00
 0.000000e+00 0.000000e+00 7.482136e-01 2.517864e-01 0.000000e+00
 0.000000e+00 0.000000e+00 0.000000e+00 5.970362e-01 4.029638e-01
 0.000000e+00 0.000000e+00 0.000000e+00 0.000000e+00 0.000000e+00
<ENDHMM>
~h "er"
<BEGINHMM>
<NUMSTATES> 5
<STATE> 2
<MEAN> 25
 8.773360e+00 -4.451349e+00 -6.396802e+00 1.509948e+00 1.355155e-01 -7.666986e+00 -8.746779e+00 2.622517e+00 -3.085924e-02 -6.476805e-01 -7.952343e-01 -6.488736e-01 1.996452e+00 -1.000744e+00 -1.567990e+00 7.573010e-02 3.223100e-01 -1.698547e+00 -2.424893e+00 1.270510e+00 4.240044e-01 -2.329297e-01 -6.368245e-02 2.382689e-01 6.262373e-01
<VARIANCE> 25
 2.459601e+01 2.820054e+01 7.248493e+01 4.484534e+01 7.065484e+01 6.521868e+01 8.517829e+01 7.077248e+01 6.012717e+01 4.476548e+01 3.837529e+01 3.407422e+01 4.355424e+00 2.674777e+00 3.759478e+00 3.745492e+00 4.426331e+00 5.028143e+00 6.806277e+00 5.793040e+00 5.059318e+00 3.833061e+00 3.598794e+00 2.822204e+00 1.513705e+00
<GCONST> 1.103639e+02
<STATE> 3
<MEAN> 25
 1.101460e+01 -6.250906e+00 -8.892652e+00 3.259299e+00 1.929568e+00 -1.128729e+01 -1.248124e+01 6.747077e+00 2.307344e+00 -2.049493e+00 -1.333893e+00 1.268384e-01 -1.279177e-01 1.689210e-01 3.668988e-01 4.173686e-01 -8.157656e-02 -1.497173e-01 3.065222e-01 6.189651e-02 -4.628988e-02 -3.489248e-01 -6.061581e-02 1.466093e-01 -4.297776e-01
<VARIANCE> 25
 1.221383e+01 2.265670e+01 6.180447e+01 4.049332e+01 7.030518e+01 5.436980e+01 1.004158e+02 7.165166e+01 7.567817e+01 5.164342e+01 3.803877e+01 3.674920e+01 6.492984e-01 1.133611e+00 2.423980e+00 1.641330e+00 2.839338e+00 2.442191e+00 3.366096e+00 2.892249e+00 2.468775e+00 2.383416e+00 1.956364e+00 1.785385e+00 6.239145e-01
<GCONST> 9.987640e+01
<STATE> 4
<MEAN> 25
 2.260583e+00 -4.288489e+00 -4.686979e+00 5.119771e+00 2.493226e+00 -4.896796e+00 -2.531531e+00 6.593783e+00 3.867374e+00 -1.051759e+00 1.501155e-01 1.991284e+00 -9.850327e-01 7.789865e-01 1.032203e+00 -8.703849e-02 -1.710536e-01 1.031623e+00 1.414113e+00 -7.557881e-01 -3.399720e-01 2.910458e-01 2.383201e-01 -5.454028e-02 -1.062085e+00
<VARIANCE> 25
 7.244164e+01 4.721115e+01 5.283543e+01 5.180904e+01 6.844157e+01 1.041231e+02 8.582655e+01 6.836771e+01 1.230786e+02 6.661632e+01 5.033759e+01 3.795440e+01 1.998627e+00 3.336257e+00 3.841167e+00 2.771506e+00 4.019458e+00 4.571060e+00 5.471382e+00 5.283345e+00 5.284393e+00 3.961079e+00 3.288041e+00 2.818909e+00 2.418546e+00
<GCONST> 1.128033e+02
<TRANSP> 5
 0.000000e+00 1.000000e+00 0.000000e+00 0.000000e+00 0.000000e+00
 0.000000e+00 6.687022e-01 3.312977e-01 0.000000e+00 0.000000e+00
 0.000000e+00 0.000000e+00 8.045416e-01 1.954584e-01 0.000000e+00
 0.000000e+00 0.000000e+00 0.000000e+00 7.516505e-01 2.483495e-01
 0.000000e+00 0.000000e+00 0.000000e+00 0.000000e+00 0.000000e+00
<ENDHMM>
~h "ey"
<BEGINHMM>
<NUMSTATES> 5
<STATE> 2
<MEAN> 25
 2.543355e+00 -4.354848e+00 6.733418e+00 -3.344450e+00 -1.359967e+01 -5.971187e+00 1.337495e+00 2.735440e+00 -3.440816e+00 -7.393230e-01 5.072158e-01 -1.275962e+00 -2.542639e-01 7.278839e-02 1.425169e+00 -8.360336e-01 -1.750495e+00 2.272560e-01 6.385884e-01 -5.956370e-01 -1.106333e+00 5.015504e-01 7.450983e-01 -3.263844e-01 3.803354e-01
<VARIANCE> 25
 9.057836e+00 2.289410e+01 3.879799e+01 3.958027e+01 3.865108e+01 5.114737e+01 4.199803e+01 4.911890e+01 4.887988e+01 3.744587e+01 3.684032e+01 3.154938e+01 1.286913e+00 2.251706e+00 2.368720e+00 2.719998e+00 3.120386e+00 3.852630e+00 3.981206e+00 3.962697e+00 3.806959e+00 3.201970e+00 2.868921e+00 1.966129e+00 1.442391e+00
<GCONST> 1.011787e+02
<STATE> 3
<MEAN> 25
 1.063411e+00 -3.828482e-01 1.295578e+01 -8.259028e+00 -1.608370e+01 -1.375382e+00 -1.189064e+00 -5.144251e+00 -6.058889e+00 3.291256e+00 -3.677648e-01 -2.990982e+00 -4.542861e-03 6.100199e-01 5.722650e-01 1.518044e-01 6.739561e-02 4.406595e-01 -5.087762e-01 -8.179219e-01 -2.563532e-01 1.978125e-01 -2.713567e-01 3.333291e-02 -5.546197e-01
<VARIANCE> 25
 7.846183e+00 2.221705e+01 3.010585e+01 5.987778e+01 3.095104e+01 7.658168e+01 5.763551e+01 5.740460e+01 4.525880e+01 4.275411e+01 6.823936e+01 3.196124e+01 3.363221e-01 7.893237e-01 9.784385e-01 1.219334e+00 1.191300e+00 1.696949e+00 1.528672e+00 2.176912e+00 1.835273e+00 1.611651e+00 1.587807e+00 1.695956e+00 4.193613e-01
<GCONST> 9.169774e+01
<STATE> 4
<MEAN> 25
 2.198105e+00 2.156987e+00 1.238732e+01 -1.191274e+00 -1.187049e+01 -1.637923e+00 -5.975372e-01 -5.375134e+00 -6.562708e+00 1.468684e+00 -2.690098e-01 -1.555011e+00 2.973882e-02 4.998398e-01 -1.350778e+00 1.759138e+00 2.454746e+00 -1.234614e-01 4.557843e-01 3.231165e-01 7.630853e-01 -7.002236e-01 2.886277e-02 1.836539e-01 -1.823450e+00
<VARIANCE> 25
 1.339743e+01 2.574654e+01 4.077922e+01 6.548312e+01 5.704369e+01 6.816303e+01 5.428657e+01 6.042358e+01 5.694117e+01 4.168860e+01 5.431857e+01 3.491781e+01 2.331935e+00 1.974618e+00 2.639292e+00 3.589771e+00 4.243101e+00 5.224029e+00 4.207222e+00 4.294116e+00 3.529523e+00 3.504013e+00 4.081350e+00 2.597398e+00 1.971686e+00
<GCONST> 1.066849e+02
<TRANSP> 5
 0.000000e+00 1.000000e+00 0.000000e+00 0.000000e+00 0.000000e+00
 0.000000e+00 7.555026e-01 2.444973e-01 0.000000e+00 0.000000e+00
 0.000000e+00 0.000000e+00 8.352500e-01 1.647500e-01 0.000000e+00
 0.000000e+00 0.000000e+00 0.000000e+00 7.128382e-01 2.871618e-01
 0.000000e+00 0.000000e+00 0.000000e+00 0.000000e+00 0.000000e+00
<ENDHMM>
~h "hh"
<BEGINHMM>
<NUMSTATES> 5
<STATE> 2
<MEAN> 25
 -5.723529e+00 -3.902300e+00 6.511340e-01 2.844666e+00 4.074621e+00 3.673064e+00 6.061300e+00 2.936671e+00 2.687572e+00 3.325914e-01 2.225410e+00 2.099370e+00 -2.014264e-01 -2.814806e-01 -5.209578e-02 -5.753719e-02 7.663651e-02 2.321566e-01 2.745037e-01 1.677997e-01 1.565831e-01 6.360376e-02 -4.240036e-02 6.013330e-02 6.012603e-02
<VARIANCE> 25
 3.301933e+01 5.525507e+01 4.075603e+01 3.021017e+01 6.794833e+01 5.996875e+01 4.116131e+01 4.128159e+01 4.862285e+01 4.722478e+01 3.986819e+01 2.720323e+01 1.098869e+00 1.483839e+00 1.328897e+00 1.704073e+00 2.031883e+00 2.258986e+00 2.881874e+00 2.476398e+00 2.715745e+00 2.518035e+00 1.878940e+00 1.716754e+00 7.391774e-01
<GCONST> 9.863706e+01
<STATE> 3
<MEAN> 25
 -4.685985e+00 -5.405908e+00 2.290386e+00 8.083172e-01 1.261215e+00 2.683611e+00 7.278251e+00 3.846786e+00 -5.876532e-01 4.450864e-01 2.558239e-02 1.607688e+00 4.044313e-01 -1.136507e-01 1.432951e-01 -1.667984e-01 -4.654538e-01 -1.239068e-02 -2.670189e-01 -1.862801e-01 -3.297245e-01 -1.988458e-01 -4.604696e-01 -2.640846e-01 4.294842e-01
<VARIANCE> 25
 3.966561e+01 6.779368e+01 7.422352e+01 5.167567e+01 8.605585e+01 6.564918e+01 7.886484e+01 6.342697e+01 5.444749e+01 5.034471e+01 4.019941e+01 3.028412e+01 1.807710e+00 2.072798e+00 2.560228e+00 2.874561e+00 3.150571e+00 3.386626e+00 3.036174e+00 3.193938e+00 3.156588e+00 2.760955e+00 2.577363e+00 2.183999e+00 1.209486e+00
<GCONST> 1.063129e+02
<STATE> 4
<MEAN> 25
 -4.230852e+00 -2.601818e+00 2.077241e+00 -2.099272e-01 2.159564e+00 4.246145e+00 4.045183e+00 2.306266e-01 6.817275e-01 -1.683583e-01 -1.143327e+00 6.797419e-01 1.293680e+00 3.992992e-01 1.077093e-01 -6.997739e-01 -1.159347e+00 -1.016312e+00 -1.384103e+00 -9.186915e-01 -9.346768e-01 -7.076556e-01 -9.017237e-01 -6.020566e-01 1.875311e+00
<VARIANCE> 25
 4.818123e+01 7.231085e+01 7.072375e+01 5.675402e+01 8.828053e+01 6.230742e+01 6.355438e+01 5.490390e+01 6.299989e+01 5.638544e+01 4.499249e+01 3.437771e+01 4.262840e+00 4.135016e+00 4.126283e+00 3.574417e+00 5.680268e+00 4.464254e+00 4.811325e+00 4.790443e+00 4.088159e+00 4.157825e+00 3.775557e+00 2.947092e+00 4.880346e+00
<GCONST> 1.134487e+02
<TRANSP> 5
 0.000000e+00 1.000000e+00 0.000000e+00 0.000000e+00 0.000000e+00
 0.000000e+00 7.497113e-01 2.502887e-01 0.000000e+00 0.000000e+00
 0.000000e+00 0.000000e+00 4.575420e-01 5.424581e-01 0.000000e+00
 0.000000e+00 0.000000e+00 0.000000e+00 5.690396e-01 4.309603e-01
 0.000000e+00 0.000000e+00 0.000000e+00 0.000000e+00 0.000000e+00
<ENDHMM>
~h "ih"
<BEGINHMM>
<NUMSTATES> 5
<STATE> 2
<MEAN> 25
 1.222413e+00 7.553841e-01 5.562842e+00 -1.437026e-01 -6.805992e+00 -5.714974e+00 -2.330165e+00 -1.243130e+00 -2.292436e+00 -5.599062e-01 -4.516859e-01 1.831108e-01 1.358704e+00 -7.825043e-01 1.379616e+00 -8.372844e-01 -2.818810e+00 -1.405522e+00 -9.277280e-01 3.999623e-02 -8.898833e-01 -2.207581e-01 -6.542075e-02 -1.505022e-01 1.776607e+00
<VARIANCE> 25
 3.438101e+01 3.776857e+01 5.119837e+01 4.784953e+01 6.018583e+01 6.163557e+01 6.496051e+01 5.898719e+01 5.081045e+01 4.609594e+01 3.761268e+01 3.385030e+01 5.443105e+00 3.885651e+00 4.314674e+00 5.383588e+00 5.650496e+00 6.693223e+00 6.958828e+00 7.001683e+00 6.065814e+00 4.903950e+00 4.969621e+00 3.860411e+00 4.234410e+00
<GCONST> 1.138037e+02
<STATE> 3
<MEAN> 25
 2.975643e+00 -1.748960e+00 8.643175e+00 -2.605819e+00 -1.230035e+01 -6.861178e+00 -2.680046e+00 -2.157713e-01 -4.752957e+00 -4.373814e-02 7.216216e-01 -4.852596e-01 1.602919e-01 -1.800978e-01 1.459561e-01 -1.339041e-01 -3.227984e-01 -3.376821e-02 1.756572e-01 3.599554e-01 -2.237002e-01 -1.804519e-03 1.263990e-02 1.055429e-02 1.495691e-01
<VARIANCE> 25
 1.609174e+01 2.996820e+01 5.110776e+01 4.877002e+01 5.105866e+01 5.600323e+01 5.947555e+01 7.113239e+01 5.717671e+01 5.040428e+01 3.866018e+01 3.722883e+01 1.258716e+00 1.936390e+00 2.266866e+00 2.613429e+00 2.963672e+00 3.303770e+00 3.629953e+00 3.843921e+00 3.249672e+00 3.460684e+00 2.647076e+00 2.274948e+00 1.516832e+00
<GCONST> 1.037123e+02
<STATE> 4
<MEAN> 25
 3.759266e+00 -4.245718e-01 6.370654e+00 -5.352225e-01 -8.833799e+00 -7.318232e+00 -3.388790e+00 9.750247e-03 -3.202160e+00 -7.963021e-01 -5.861521e-01 2.270890e-01 -1.638850e-01 1.362242e+00 -5.543784e-01 9.777143e-01 1.751981e+00 5.814224e-01 2.499100e-01 -6.012626e-01 3.359481e-01 -1.741753e-01 -2.876436e-01 -1.022517e-01 -1.550041e+00
<VARIANCE> 25
 1.765567e+01 3.061621e+01 4.338758e+01 4.806158e+01 5.449576e+01 5.070730e+01 5.664642e+01 5.962278e+01 6.159760e+01 5.084803e+01 4.255230e+01 4.316291e+01 2.284055e+00 2.520015e+00 2.454162e+00 3.517418e+00 3.790407e+00 4.273702e+00 4.193063e+00 4.395226e+00 3.586127e+00 3.821889e+00 3.131444e+00 3.122133e+00 2.256892e+00
<GCONST> 1.068129e+02
<TRANSP> 5
 0.000000e+00 1.000000e+00 0.000000e+00 0.000000e+00 0.000000e+00
 0.000000e+00 4.598833e-01 5.401167e-01 0.000000e+00 0.000000e+00
 0.000000e+00 0.000000e+00 5.440061e-01 4.559938e-01 0.000000e+00
 0.000000e+00 0.000000e+00 0.000000e+00 5.027888e-01 4.972112e-01
 0.000000e+00 0.000000e+00 0.000000e+00 0.000000e+00 0.000000e+00
<ENDHMM>
~h "iy"
<BEGINHMM>
<NUMSTATES> 5
<STATE> 2
<MEAN> 25
 1.583034e+00 1.513558e+00 1.201074e+01 2.611985e-01 -1.058486e+01 -6.265369e+00 -3.120073e+00 -3.668498e+00 -7.406597e+00 -1.363917e+00 3.112713e-01 -1.042710e+00 2.265060e-01 1.518054e-01 2.859701e+00 -1.285176e+00 -3.115358e+00 5.114106e-01 -2.910579e-01 -1.343764e+00 -1.813362e+00 3.543167e-01 -9.228853e-02 -3.496712e-01 9.623621e-01
<VARIANCE> 25
 2.216063e+01 3.578747e+01 4.575910e+01 5.584275e+01 5.073199e+01 6.128563e+01 5.736555e+01 6.682701e+01 5.022118e+01 5.337028e+01 4.204551e+01 2.971891e+01 4.725944e+00 2.697519e+00 3.451612e+00 5.234470e+00 4.642222e+00 6.929623e+00 8.736769e+00 6.488080e+00 5.080924e+00 5.483231e+00 5.173392e+00 3.401567e+00 2.398437e+00
<GCONST> 1.118045e+02
<STATE> 3
<MEAN> 25
 5.701771e-01 3.916689e+00 1.732547e+01 -4.375329e+00 -1.395732e+01 -3.656832e-01 -4.552443e+00 -8.203755e+00 -8.765693e+00 1.206756e+00 -9.529474e-01 -2.320697e+00 -1.044873e-02 2.952917e-01 1.629821e-01 -2.669519e-01 -9.936935e-02 5.022726e-01 1.712198e-02 -3.421696e-01 1.403972e-01 2.632556e-01 -1.992281e-01 -1.059240e-01 -2.462188e-01
<VARIANCE> 25
 1.341729e+01 2.687239e+01 3.451235e+01 6.412427e+01 3.202650e+01 5.330433e+01 5.361715e+01 5.436025e+01 5.190246e+01 6.415907e+01 6.663115e+01 3.334324e+01 4.957639e-01 1.251077e+00 1.340161e+00 1.679034e+00 1.562417e+00 2.440833e+00 2.335111e+00 2.355563e+00 1.909759e+00 1.714208e+00 1.822119e+00 1.395422e+00 6.668804e-01
<GCONST> 9.586433e+01
<STATE> 4
<MEAN> 25
 1.314626e+00 4.454384e+00 1.258484e+01 -1.843517e+00 -1.019936e+01 7.611038e-02 -1.751294e+00 -6.879103e+00 -5.317724e+00 7.020089e-01 -1.751436e+00 -1.468561e+00 1.523985e-01 -1.944855e-01 -1.619056e+00 1.071440e+00 1.603341e+00 -2.765278e-01 6.513599e-01 8.791260e-01 7.279949e-01 -2.124624e-01 1.378715e-01 2.549235e-01 -1.085393e+00
<VARIANCE> 25
 1.891533e+01 3.694646e+01 4.262251e+01 8.248364e+01 6.695301e+01 6.991591e+01 7.718204e+01 7.614597e+01 5.945094e+01 5.555940e+01 5.345847e+01 3.905250e+01 1.541152e+00 2.322677e+00 2.686931e+00 3.108166e+00 4.590635e+00 4.318804e+00 4.103208e+00 4.382741e+00 3.689249e+00 3.736144e+00 3.167417e+00 2.511268e+00 2.625188e+00
<GCONST> 1.084743e+02
<TRANSP> 5
 0.000000e+00 1.000000e+00 0.000000e+00 0.000000e+00 0.000000e+00
 0.000000e+00 5.855808e-01 4.144192e-01 0.000000e+00 0.000000e+00
 0.000000e+00 0.000000e+00 7.938588e-01 2.061412e-01 0.000000e+00
 0.000000e+00 0.000000e+00 0.000000e+00 7.565832e-01 2.434167e-01
 0.000000e+00 0.000000e+00 0.000000e+00 0.000000e+00 0.000000e+00
<ENDHMM>
~h "jh"
<BEGINHMM>
<NUMSTATES> 5
<STATE> 2
<MEAN> 25
 -3.343925e+00 5.794558e+00 7.250310e+00 1.990885e+00 4.356931e+00 3.353502e+00 4.597025e-01 -2.125298e+00 -9.464855e-01 -2.105858e+00 4.045776e-01 -1.389997e+00 -4.210272e+00 -6.306309e-01 5.786240e-01 -9.075007e-01 1.476280e-01 8.620627e-01 6.568205e-01 2.095900e-01 1.137577e+00 8.907713e-02 8.002685e-01 8.025010e-01 1.685559e+00
<VARIANCE> 25
 5.839767e+01 3.719283e+01 7.351653e+01 4.369122e+01 4.914326e+01 4.347890e+01 5.212886e+01 4.103486e+01 4.798755e+01 3.028470e+01 4.154602e+01 2.759401e+01 6.432065e+00 5.330015e+00 4.739186e+00 4.701715e+00 6.462359e+00 4.134608e+00 4.144309e+00 4.497498e+00 4.676376e+00 4.525179e+00 5.019022e+00 3.425657e+00 5.840574e+00
<GCONST> 1.118768e+02
<STATE> 3
<MEAN> 25
 -1.990066e+01 4.669925e-01 9.863028e+00 -1.343681e+00 -4.743486e-01 4.219973e+00 4.568836e+00 -1.626110e+00 3.599915e+00 -1.429839e+00 1.922874e+00 2.199273e+00 -6.573219e-01 -3.770157e-01 -2.259145e-03 2.189889e-01 -1.024182e+00 -1.235203e+00 4.232943e-01 1.393338e-01 4.269340e-02 -1.980825e-01 8.346353e-02 2.516302e-01 1.122695e+00
<VARIANCE> 25
 4.605947e+01 5.629991e+01 3.443626e+01 2.673542e+01 3.990514e+01 3.104323e+01 4.547118e+01 3.923814e+01 4.780193e+01 3.505926e+01 2.956291e+01 2.046864e+01 1.026739e+01 2.161634e+00 2.979171e+00 3.109614e+00 3.890548e+00 4.261117e+00 3.271413e+00 2.772750e+00 3.606317e+00 2.538135e+00 2.031120e+00 1.607193e+00 3.983433e+00
<GCONST> 1.041892e+02
<STATE> 4
<MEAN> 25
 -7.922447e+00 2.346858e+00 9.384057e+00 2.021073e+00 -4.179662e+00 -5.248643e+00 5.318859e-02 -2.967611e+00 1.283239e+00 -2.977844e+00 1.239816e+00 1.935863e+00 4.475468e+00 -7.872075e-01 -1.050622e+00 5.324911e-02 -1.414141e+00 -2.452805e+00 -1.732264e+00 1.266867e-01 -4.177155e-01 2.197563e-01 -8.663316e-02 3.010079e-02 1.171955e-01
<VARIANCE> 25
 5.940237e+01 4.553518e+01 2.487563e+01 5.603238e+01 3.830745e+01 4.900980e+01 5.504250e+01 3.879641e+01 5.541442e+01 2.772083e+01 2.109556e+01 2.208018e+01 5.999634e+00 5.299252e+00 3.205685e+00 3.422902e+00 7.318274e+00 7.807195e+00 5.935512e+00 5.954950e+00 3.762404e+00 3.413698e+00 3.514908e+00 2.875726e+00 3.018147e+00
<GCONST> 1.092105e+02
<TRANSP> 5
 0.000000e+00 1.000000e+00 0.000000e+00 0.000000e+00 0.000000e+00
 0.000000e+00 7.022596e-01 2.977404e-01 0.000000e+00 0.000000e+00
 0.000000e+00 0.000000e+00 7.034452e-01 2.965548e-01 0.000000e+00
 0.000000e+00 0.000000e+00 0.000000e+00 6.253821e-01 3.746179e-01
 0.000000e+00 0.000000e+00 0.000000e+00 0.000000e+00 0.000000e+00
<ENDHMM>
~h "ng"
<BEGINHMM>
<NUMSTATES> 5
<STATE> 2
<MEAN> 25
 3.717175e+00 3.236620e+00 8.720448e+00 -4.591538e+00 -1.116035e+01 1.817115e+00 3.744388e-01 -8.053638e+00 -8.081839e+00 2.999931e+00 -2.498888e+00 -4.525576e+00 9.418155e-01 1.159493e+00 -1.064751e+00 1.336746e+00 1.284470e+00 -4.167677e-02 -1.776508e-01 -1.793516e+00 1.556448e-01 4.491097e-01 -5.968423e-01 -2.715777e-01 -1.451543e+00
<VARIANCE> 25
 1.864379e+01 2.076726e+01 4.291681e+01 5.218647e+01 5.686374e+01 4.233454e+01 8.028010e+01 7.124571e+01 5.512532e+01 6.009200e+01 6.835510e+01 4.159536e+01 9.107721e-01 1.206786e+00 3.559071e+00 3.854775e+00 3.880339e+00 5.328079e+00 3.802970e+00 3.948458e+00 3.639783e+00 4.543812e+00 2.594183e+00 3.187270e+00 6.270400e-01
<GCONST> 1.050187e+02
<STATE> 3
<MEAN> 25
 8.231058e+00 6.456581e+00 1.898232e+00 1.562800e+00 -4.537591e+00 -1.052371e+00 -4.413633e-01 -1.085108e+01 -5.902378e+00 1.363859e+00 -2.897778e+00 -3.105919e+00 1.974045e-01 4.100397e-01 -4.488883e-01 6.861043e-01 6.242402e-01 -2.773300e-01 -7.862443e-03 1.585451e-01 1.512524e-01 -3.848618e-01 2.477154e-02 1.457333e-01 -6.061496e-01
<VARIANCE> 25
 1.017117e+01 1.861414e+01 2.881228e+01 3.607737e+01 3.303064e+01 3.659621e+01 7.034222e+01 5.601180e+01 3.867754e+01 3.734415e+01 4.987457e+01 4.042378e+01 6.025305e-01 8.679962e-01 1.503839e+00 2.037722e+00 2.227899e+00 2.413712e+00 2.194595e+00 2.261834e+00 2.298822e+00 2.366170e+00 1.741280e+00 1.720914e+00 5.693570e-01
<GCONST> 9.438150e+01
<STATE> 4
<MEAN> 25
 4.251816e+00 4.875790e+00 3.859449e+00 2.628560e+00 -2.851934e+00 -1.075769e+00 9.424860e-01 -6.191679e+00 -5.966679e+00 -1.991636e-01 -2.176262e+00 -1.730267e+00 -1.189855e+00 -9.683186e-01 1.115776e-01 -2.453637e-01 8.136633e-01 2.826737e-01 3.619368e-01 2.096925e+00 7.369841e-01 -3.986993e-01 2.354134e-01 5.658193e-01 -1.642038e-01
<VARIANCE> 25
 2.220554e+01 2.689809e+01 4.000557e+01 4.165584e+01 6.871609e+01 6.161380e+01 5.853751e+01 8.528592e+01 5.266067e+01 4.625439e+01 5.480804e+01 4.142593e+01 1.570850e+00 2.429215e+00 3.169783e+00 3.972532e+00 5.069450e+00 4.601274e+00 4.572248e+00 4.949247e+00 5.023019e+00 4.943321e+00 4.233462e+00 2.896642e+00 2.314286e+00
<GCONST> 1.088489e+02
<TRANSP> 5
 0.000000e+00 1.000000e+00 0.000000e+00 0.000000e+00 0.000000e+00
 0.000000e+00 6.840159e-01 3.159841e-01 0.000000e+00 0.000000e+00
 0.000000e+00 0.000000e+00 7.439785e-01 2.560215e-01 0.000000e+00
 0.000000e+00 0.000000e+00 0.000000e+00 6.427685e-01 3.572316e-01
 0.000000e+00 0.000000e+00 0.000000e+00 0.000000e+00 0.000000e+00
<ENDHMM>
~h "ow"
<BEGINHMM>
<NUMSTATES> 5
<STATE> 2
<MEAN> 25
 5.618712e+00 -4.156831e+00 -5.092960e+00 -7.168249e+00 -1.963005e+00 2.335806e-01 -6.222546e+00 -1.932706e-01 1.490005e+00 8.918420e-01 -2.879632e+00 -4.374908e+00 1.293279e+00 -6.927702e-01 -1.110690e+00 -1.903122e+00 -1.512999e-01 1.120436e+00 -6.718265e-01 -4.451251e-01 1.130048e-01 7.983936e-01 -5.394626e-02 -7.857644e-01 9.403438e-01
<VARIANCE> 25
 2.291243e+01 4.293165e+01 4.468819e+01 5.197690e+01 5.060897e+01 7.344615e+01 4.612672e+01 5.253253e+01 6.141022e+01 8.170870e+01 5.853952e+01 3.907712e+01 3.587292e+00 3.385706e+00 3.218420e+00 4.230614e+00 4.944560e+00 4.668819e+00 4.762073e+00 5.350257e+00 5.458566e+00 4.624969e+00 4.475673e+00 3.925269e+00 2.993462e+00
<GCONST> 1.115346e+02
<STATE> 3
<MEAN> 25
 8.817826e+00 -2.773847e+00 -7.293911e+00 -1.182987e+01 -1.531573e+00 5.507178e+00 -4.886212e+00 -4.627809e+00 -1.154755e+00 4.545495e+00 5.391703e-01 -3.888876e+00 3.767364e-01 8.392147e-01 1.783773e-02 -5.894231e-01 -2.238193e-01 4.893478e-01 3.108395e-01 -4.533487e-01 -9.044214e-01 -2.429767e-01 4.615200e-01 6.745104e-01 -6.329433e-01
<VARIANCE> 25
 9.401908e+00 2.681213e+01 2.980019e+01 4.703516e+01 4.038988e+01 6.956234e+01 5.590384e+01 4.600859e+01 6.938761e+01 7.961501e+01 5.526506e+01 4.361457e+01 2.973276e-01 9.772798e-01 8.720624e-01 1.999123e+00 1.699773e+00 2.098895e+00 2.079511e+00 2.105258e+00 2.054211e+00 2.488583e+00 2.210937e+00 1.974856e+00 4.422718e-01
<GCONST> 9.527789e+01
<STATE> 4
<MEAN> 25
 9.808305e+00 4.510773e+00 -6.210563e+00 -1.181650e+01 -3.607484e+00 6.200764e+00 -2.926110e+00 -4.937522e+00 -5.317028e+00 -4.201284e-01 -9.702500e-01 2.563432e-02 -4.015022e-01 3.270302e-01 5.471718e-01 1.510064e+00 3.647451e-01 -6.792073e-01 -1.491482e-01 3.197138e-02 4.363399e-01 -4.145372e-01 -3.554499e-01 -7.164738e-02 -8.141465e-01
<VARIANCE> 25
 1.175802e+01 3.195540e+01 3.995893e+01 5.736662e+01 7.041064e+01 5.466984e+01 9.184692e+01 4.891873e+01 5.894072e+01 6.581542e+01 5.576593e+01 5.516588e+01 9.427632e-01 2.117803e+00 2.128181e+00 3.384744e+00 3.539146e+00 2.848974e+00 3.251845e+00 3.240060e+00 3.951357e+00 3.939375e+00 3.158071e+00 2.920882e+00 1.072105e+00
<GCONST> 1.049422e+02
<TRANSP> 5
 0.000000e+00 1.000000e+00 0.000000e+00 0.000000e+00 0.000000e+00
 0.000000e+00 6.818818e-01 3.181182e-01 0.000000e+00 0.000000e+00
 0.000000e+00 0.000000e+00 8.150807e-01 1.849193e-01 0.000000e+00
 0.000000e+00 0.000000e+00 0.000000e+00 8.141948e-01 1.858052e-01
 0.000000e+00 0.000000e+00 0.000000e+00 0.000000e+00 0.000000e+00
<ENDHMM>
~h "oy"
<BEGINHMM>
<NUMSTATES> 5
<STATE> 2
<MEAN> 25
 8.288135e+00 1.360767e+00 -4.300050e+00 -9.522287e+00 -4.968555e+00 4.674093e+00 -1.819368e+00 -1.184232e+00 -3.502352e+00 -1.357359e-02 3.510016e+00 1.207796e+00 1.268854e+00 -2.890971e-01 -1.008963e+00 -2.498410e+00 -9.445646e-01 2.057133e+00 3.657205e-01 1.343589e-01 -1.094317e+00 7.146261e-01 1.074906e+00 1.485042e-01 4.694618e-01
<VARIANCE> 25
 1.681193e+01 3.244678e+01 2.898021e+01 6.687715e+01 3.742205e+01 3.953708e+01 7.204422e+01 3.791936e+01 5.036337e+01 3.489084e+01 4.288185e+01 2.753231e+01 2.365654e+00 1.573395e+00 1.677103e+00 7.356986e+00 4.002023e+00 3.864171e+00 3.925338e+00 3.715999e+00 3.408033e+00 4.358969e+00 4.505621e+00 2.871623e+00 8.239339e-01
<GCONST> 1.038862e+02
<STATE> 3
<MEAN> 25
 9.151340e+00 -3.288295e+00 -5.496371e+00 -1.229413e+01 -1.989361e+00 7.497652e+00 -2.270247e+00 -2.401103e-01 -1.615721e+00 4.394279e+00 2.110825e+00 -1.415620e+00 -4.843596e-01 -1.146705e+00 7.087899e-01 1.761938e+00 8.526398e-01 -2.052723e+00 -4.436108e-01 7.644917e-01 1.362266e+00 6.768496e-01 -9.940121e-01 -9.356133e-01 3.390433e-01
<VARIANCE> 25
 7.753554e+00 3.277298e+01 3.054248e+01 7.781708e+01 5.059047e+01 6.429140e+01 2.997383e+01 4.401376e+01 4.535046e+01 7.222811e+01 4.624249e+01 4.055325e+01 3.528532e-01 1.423497e+00 1.518403e+00 3.478107e+00 3.237252e+00 7.530139e+00 3.517185e+00 5.591851e+00 2.275504e+00 6.377997e+00 3.004112e+00 3.414381e+00 2.944356e-01
<GCONST> 1.010895e+02
<STATE> 4
<MEAN> 25
 2.844220e+00 -7.415987e+00 2.791232e+00 -3.475542e+00 -6.275097e-01 -2.863143e+00 -1.723110e+00 3.713754e+00 1.356961e+00 3.637619e+00 1.272260e+00 5.074039e-01 -3.768838e-01 7.440417e-01 7.691615e-01 3.517826e-01 -5.943418e-01 -9.972265e-02 1.462338e-01 2.906910e-02 -4.736722e-01 -4.141156e-01 8.608952e-02 5.867795e-01 -2.225155e-01
<VARIANCE> 25
 2.555304e+01 3.914846e+01 7.853822e+01 4.483604e+01 3.045673e+01 1.171644e+02 4.001288e+01 3.328643e+01 5.592812e+01 4.264067e+01 3.373383e+01 2.116333e+01 6.085832e-01 2.303354e+00 2.733808e+00 3.051341e+00 2.611197e+00 5.174720e+00 3.897817e+00 3.749493e+00 3.362791e+00 4.756282e+00 3.409344e+00 2.672453e+00 1.981339e+00
<GCONST> 1.041537e+02
<TRANSP> 5
 0.000000e+00 1.000000e+00 0.000000e+00 0.000000e+00 0.000000e+00
 0.000000e+00 7.766023e-01 2.233977e-01 0.000000e+00 0.000000e+00
 0.000000e+00 0.000000e+00 8.331559e-01 1.668441e-01 0.000000e+00
 0.000000e+00 0.000000e+00 0.000000e+00 8.595215e-01 1.404785e-01
 0.000000e+00 0.000000e+00 0.000000e+00 0.000000e+00 0.000000e+00
<ENDHMM>
~h "sh"
<BEGINHMM>
<NUMSTATES> 5
<STATE> 2
<MEAN> 25
 -1.156372e+01 1.205896e+00 1.096093e+01 1.302190e+00 -1.496805e+00 5.088712e-01 2.905590e+00 -1.414391e+00 7.591845e-01 -2.625567e+00 1.603681e+00 8.613827e-01 -4.671847e+00 -4.853124e-01 3.208475e-01 -2.038478e-01 1.009204e+00 1.020637e+00 1.265794e+00 5.574278e-01 1.408597e+00 2.214056e-01 9.701571e-01 4.323312e-01 8.566601e-01
<VARIANCE> 25
 8.182960e+01 3.222398e+01 3.329695e+01 4.517013e+01 4.618407e+01 6.309970e+01 4.794044e+01 3.618904e+01 5.113218e+01 3.612012e+01 3.281400e+01 2.494797e+01 3.682192e+00 3.433860e+00 3.730006e+00 3.436265e+00 5.119153e+00 4.827018e+00 4.822056e+00 4.266800e+00 3.555211e+00 4.530369e+00 3.448751e+00 2.570520e+00 2.412421e+00
<GCONST> 1.079664e+02
<STATE> 3
<MEAN> 25
 -2.316390e+01 -1.565563e+00 9.947242e+00 -1.454698e+00 -8.857967e-01 3.275939e+00 5.294023e+00 3.620632e-01 3.967057e+00 -4.515556e-01 4.601918e+00 1.954363e+00 -1.644469e-01 -2.431620e-01 -1.658199e-01 -1.388889e-01 -5.136779e-02 1.242196e-01 2.590009e-01 1.335438e-01 2.076360e-01 1.078197e-01 3.412484e-02 1.167177e-01 1.369887e-02
<VARIANCE> 25
 1.542532e+01 4.163658e+01 1.971298e+01 3.165849e+01 3.435435e+01 4.468808e+01 3.757652e+01 2.667968e+01 2.441233e+01 3.182484e+01 2.461105e+01 1.854303e+01 1.937074e+00 7.426504e-01 9.837064e-01 1.241333e+00 1.298847e+00 1.672956e+00 1.673619e+00 1.695605e+00 1.753546e+00 1.680444e+00 1.339354e+00 1.326346e+00 5.804874e-01
<GCONST> 8.936749e+01
<STATE> 4
<MEAN> 25
 -1.339750e+01 -9.963250e-01 9.133411e+00 2.124569e-01 -2.954802e+00 -5.748516e-02 3.387504e+00 2.107249e-01 1.916019e+00 -1.999969e+00 1.955137e+00 9.647171e-01 5.234645e+00 9.795515e-01 -2.038726e-01 2.457760e-01 -1.220881e+00 -2.031420e+00 -2.106865e+00 -6.519883e-01 -1.372506e+00 -9.574422e-01 -1.181926e+00 -7.160884e-01 -3.689149e-01
<VARIANCE> 25
 7.235549e+01 3.497858e+01 2.376056e+01 3.047779e+01 3.448050e+01 4.634785e+01 4.436174e+01 3.264931e+01 3.611006e+01 3.741875e+01 2.569663e+01 2.068836e+01 3.767207e+00 3.153356e+00 3.122027e+00 2.477145e+00 4.181325e+00 3.864221e+00 3.485828e+00 3.490458e+00 3.447866e+00 2.929143e+00 2.399065e+00 1.709555e+00 1.206736e+00
<GCONST> 1.022209e+02
<TRANSP> 5
 0.000000e+00 1.000000e+00 0.000000e+00 0.000000e+00 0.000000e+00
 0.000000e+00 7.195061e-01 2.804938e-01 0.000000e+00 0.000000e+00
 0.000000e+00 0.000000e+00 8.419668e-01 1.580332e-01 0.000000e+00
 0.000000e+00 0.000000e+00 0.000000e+00 6.999605e-01 3.000395e-01
 0.000000e+00 0.000000e+00 0.000000e+00 0.000000e+00 0.000000e+00
<ENDHMM>
~h "sp"
<BEGINHMM>
<NUMSTATES> 3
<STATE> 2
~s "silst"
<TRANSP> 3
 0.000000e+00 1.349974e-01 8.650026e-01
 0.000000e+00 9.673792e-01 3.262084e-02
 0.000000e+00 0.000000e+00 0.000000e+00
<ENDHMM>
~h "th"
<BEGINHMM>
<NUMSTATES> 5
<STATE> 2
<MEAN> 25
 -4.231042e+00 3.864688e+00 -1.906856e+00 6.216885e+00 2.363951e+00 -3.061915e-01 2.779258e+00 -1.082740e+00 3.760551e+00 3.380697e-01 -2.124042e-01 1.075963e+00 -2.494975e+00 3.493977e-01 -3.838120e-01 7.608110e-01 1.330339e+00 9.087390e-01 1.351345e+00 6.185005e-01 9.950241e-01 1.129944e+00 1.516115e+00 5.866097e-01 -1.249355e+00
<VARIANCE> 25
 4.407702e+01 2.836858e+01 3.698449e+01 4.105891e+01 5.346001e+01 4.301577e+01 4.501061e+01 4.755893e+01 3.641048e+01 7.057439e+01 2.970132e+01 2.644943e+01 4.204753e+00 3.882680e+00 3.963355e+00 5.355769e+00 3.798202e+00 5.156947e+00 5.440394e+00 5.318840e+00 5.294612e+00 6.182343e+00 3.885461e+00 3.106552e+00 2.572007e+00
<GCONST> 1.094428e+02
<STATE> 3
<MEAN> 25
 -1.114820e+01 2.265264e+00 -1.457825e+00 5.964809e+00 4.428938e+00 2.842085e+00 6.581496e+00 2.602088e+00 5.448643e+00 2.365286e+00 4.689085e+00 3.767328e+00 -1.291169e-01 -3.248674e-01 -2.212529e-02 -2.655030e-01 2.822694e-02 2.995839e-01 5.142150e-02 2.232757e-01 1.148613e-01 1.604049e-01 1.622160e-01 6.126789e-02 -2.724796e-01
<VARIANCE> 25
 3.440490e+01 3.120328e+01 3.242341e+01 2.534887e+01 2.537328e+01 2.900218e+01 2.437718e+01 2.771664e+01 2.405308e+01 3.164495e+01 2.961574e+01 2.479002e+01 2.300246e+00 1.566524e+00 1.647472e+00 1.786854e+00 1.532655e+00 1.742290e+00 1.682680e+00 1.792984e+00 2.255095e+00 2.018912e+00 2.157319e+00 1.667358e+00 2.543916e+00
<GCONST> 9.416521e+01
<STATE> 4
<MEAN> 25
 -3.416645e+00 1.411315e+00 -7.203364e-02 5.480664e+00 2.894701e+00 4.642225e+00 3.538095e+00 1.183023e+00 2.872937e+00 6.349242e-01 3.766258e+00 1.818955e+00 4.011500e-01 -2.388696e-01 1.472040e-01 -2.240534e-01 -2.379861e-01 -2.001264e-01 -1.970759e-01 -1.214778e-01 -2.467469e-01 -1.996678e-01 -2.172377e-01 -3.593693e-02 4.050257e-01
<VARIANCE> 25
 4.003394e+01 2.264323e+01 1.575414e+01 2.299671e+01 1.855106e+01 2.092755e+01 2.359891e+01 2.575811e+01 1.943842e+01 2.455263e+01 1.753725e+01 1.973087e+01 2.571451e+00 1.481150e+00 1.845905e+00 2.139766e+00 2.252542e+00 2.433964e+00 1.734192e+00 2.362723e+00 1.826526e+00 2.407043e+00 1.765463e+00 1.916298e+00 2.799428e+00
<GCONST> 9.258704e+01
<TRANSP> 5
 0.000000e+00 1.000000e+00 0.000000e+00 0.000000e+00 0.000000e+00
 0.000000e+00 6.478518e-01 3.521482e-01 0.000000e+00 0.000000e+00
 0.000000e+00 0.000000e+00 8.064297e-01 1.935703e-01 0.000000e+00
 0.000000e+00 0.000000e+00 0.000000e+00 8.308374e-01 1.691627e-01
 0.000000e+00 0.000000e+00 0.000000e+00 0.000000e+00 0.000000e+00
<ENDHMM>
~h "uh"
<BEGINHMM>
<NUMSTATES> 5
<STATE> 2
<MEAN> 25
 5.580177e-01 4.207868e-01 1.074690e+00 -2.553011e+00 -1.522801e+00 -2.389950e+00 -3.189776e+00 -3.355273e+00 -2.471887e+00 7.635559e-01 5.115659e-01 -1.686239e+00 2.693555e+00 9.980373e-02 4.278556e-01 -9.927967e-01 -2.160183e+00 -1.332137e+00 -2.104761e+00 -4.137818e-01 -1.002213e+00 -5.079097e-01 -6.577403e-01 -7.245440e-01 1.187049e+00
<VARIANCE> 25
 7.460725e+01 2.679724e+01 6.773286e+01 6.570248e+01 6.830503e+01 7.499268e+01 8.806903e+01 3.446722e+01 3.443202e+01 3.970959e+01 5.416062e+01 2.880739e+01 9.678131e+00 4.118853e+00 6.821841e+00 9.131206e+00 9.424460e+00 6.674115e+00 7.500904e+00 6.395771e+00 4.012116e+00 4.857974e+00 6.803454e+00 4.076437e+00 2.833329e+00
<GCONST> 1.162444e+02
<STATE> 3
<MEAN> 25
 6.727014e+00 -2.377145e+00 -1.661684e-01 -4.219331e+00 -6.241786e+00 -3.795618e+00 -9.137559e+00 -3.797534e+00 -3.645751e+00 1.578972e+00 -8.203835e-01 -2.449446e+00 1.427887e+00 -7.652241e-01 1.019746e-03 -4.449639e-01 -1.538914e+00 -5.979517e-01 -1.108586e+00 2.337547e-01 4.699670e-03 7.786891e-02 3.069854e-01 -2.442807e-01 7.442763e-01
<VARIANCE> 25
 1.726729e+01 2.835833e+01 5.709021e+01 7.214449e+01 4.406332e+01 9.621850e+01 6.187299e+01 4.704820e+01 5.148368e+01 3.710293e+01 7.164423e+01 4.184141e+01 3.405128e+00 2.254312e+00 6.052975e+00 7.260220e+00 4.744144e+00 7.654836e+00 4.482555e+00 7.095188e+00 6.132397e+00 5.371193e+00 4.917732e+00 2.921165e+00 2.221302e+00
<GCONST> 1.121835e+02
<STATE> 4
<MEAN> 25
 7.288480e+00 -3.006480e+00 -2.084345e+00 -3.472238e+00 -6.644412e+00 -3.066813e+00 -8.694356e+00 -3.338364e+00 6.981540e-01 3.195076e+00 -3.037407e-01 -2.461735e+00 6.100699e-03 2.956785e-01 3.677687e-01 8.360160e-01 2.792842e-01 -2.417860e-01 6.949911e-01 3.617423e-01 4.451423e-01 -2.759537e-01 1.277194e-01 3.232989e-01 -1.029008e+00
<VARIANCE> 25
 1.280951e+01 2.757029e+01 5.920436e+01 6.088435e+01 3.973794e+01 6.405536e+01 5.362820e+01 7.984769e+01 7.711763e+01 4.719286e+01 8.834740e+01 3.716317e+01 9.195918e-01 2.013255e+00 2.555506e+00 3.683555e+00 3.335827e+00 3.618198e+00 3.922026e+00 4.185526e+00 4.086750e+00 2.892092e+00 3.186476e+00 2.337351e+00 2.541284e+00
<GCONST> 1.060616e+02
<TRANSP> 5
 0.000000e+00 1.000000e+00 0.000000e+00 0.000000e+00 0.000000e+00
 0.000000e+00 3.780148e-01 6.219853e-01 0.000000e+00 0.000000e+00
 0.000000e+00 0.000000e+00 2.948790e-01 7.051211e-01 0.000000e+00
 0.000000e+00 0.000000e+00 0.000000e+00 7.244231e-01 2.755769e-01
 0.000000e+00 0.000000e+00 0.000000e+00 0.000000e+00 0.000000e+00
<ENDHMM>
~h "uw"
<BEGINHMM>
<NUMSTATES> 5
<STATE> 2
<MEAN> 25
 -6.306683e-01 2.490877e+00 6.673917e+00 2.671141e+00 -3.133510e+00 -6.575593e+00 -4.328531e+00 -3.050750e+00 -4.148873e+00 -2.608758e+00 -1.061884e+00 2.687728e-01 3.241227e+00 2.938427e-02 7.461271e-02 2.814927e-01 -1.623591e+00 -1.252473e+00 -2.706234e+00 -1.678916e+00 -8.148729e-01 -6.266580e-01 -1.218291e+00 -7.745855e-01 6.206085e-01
<VARIANCE> 25
 5.199176e+01 3.161733e+01 3.931875e+01 5.728826e+01 6.167055e+01 4.567032e+01 6.471781e+01 5.370965e+01 4.575968e+01 4.925217e+01 3.384454e+01 3.142072e+01 5.768004e+00 4.254984e+00 5.679621e+00 4.521238e+00 9.332472e+00 6.584260e+00 6.358182e+00 5.192416e+00 7.401613e+00 6.064070e+00 5.050041e+00 3.654571e+00 2.993743e+00
<GCONST> 1.137352e+02
<STATE> 3
<MEAN> 25
 4.873778e+00 3.290944e-01 4.811722e+00 3.040741e+00 -6.271742e+00 -7.767565e+00 -1.004396e+01 -4.428473e+00 -4.240888e+00 -2.078541e+00 -2.105900e+00 -1.319674e+00 1.500841e+00 7.067358e-02 -1.332361e+00 -5.495543e-01 1.057650e-01 5.762404e-01 -1.372828e+00 -1.180163e+00 -4.016030e-02 8.925390e-01 -7.617252e-02 -9.223230e-01 -1.104818e-01
<VARIANCE> 25
 1.722821e+01 2.418666e+01 3.953773e+01 5.159949e+01 4.642590e+01 4.957767e+01 6.224963e+01 5.121079e+01 5.155813e+01 4.881285e+01 5.163421e+01 4.335506e+01 2.381455e+00 2.798221e+00 3.501155e+00 3.757808e+00 5.830537e+00 5.178127e+00 5.753194e+00 4.885006e+00 4.905890e+00 4.561698e+00 4.414470e+00 3.238273e+00 2.207629e+00
<GCONST> 1.087299e+02
<STATE> 4
<MEAN> 25
 7.262042e+00 2.500802e+00 1.022167e+00 5.077040e-01 -4.504622e+00 -2.578134e+00 -8.203580e+00 -7.085894e+00 -5.962505e+00 6.425932e-02 -3.210065e-01 -2.862158e+00 -1.217693e-01 3.901188e-01 -2.445416e-01 5.183677e-02 6.991208e-01 5.186961e-01 8.453283e-01 1.658681e-01 2.213490e-01 1.411241e-01 1.450812e-02 1.942917e-01 -8.555707e-01
<VARIANCE> 25
 2.260047e+01 3.435134e+01 5.648468e+01 5.350841e+01 6.216348e+01 8.015624e+01 6.663006e+01 5.406291e+01 6.272884e+01 6.153232e+01 6.364552e+01 4.144675e+01 1.450233e+00 2.167364e+00 2.249795e+00 2.647661e+00 3.232261e+00 4.081894e+00 4.487330e+00 4.040922e+00 4.094417e+00 3.553855e+00 3.412751e+00 2.653212e+00 1.775593e+00
<GCONST> 1.073168e+02
<TRANSP> 5
 0.000000e+00 1.000000e+00 0.000000e+00 0.000000e+00 0.000000e+00
 0.000000e+00 3.375939e-01 6.624061e-01 0.000000e+00 0.000000e+00
 0.000000e+00 0.000000e+00 3.579691e-01 6.420308e-01 0.000000e+00
 0.000000e+00 0.000000e+00 0.000000e+00 7.950693e-01 2.049307e-01
 0.000000e+00 0.000000e+00 0.000000e+00 0.000000e+00 0.000000e+00
<ENDHMM>
~h "zh"
<BEGINHMM>
<NUMSTATES> 5
<STATE> 2
<MEAN> 25
 4.306433e+00 9.094576e+00 2.993183e+00 7.888256e+00 6.136243e+00 9.370216e+00 8.678996e+00 -9.744125e+00 5.057656e+00 -1.742704e+00 -2.265730e+00 2.145031e+00 -6.165926e-01 6.128966e-01 -1.429378e-01 2.206673e-01 9.659919e-01 2.053014e-01 8.048556e-01 2.053938e-01 7.437725e-02 3.493749e-02 1.676566e-01 2.170800e-02 -7.932764e-01
<VARIANCE> 25
 4.038754e+01 4.260492e+01 3.869145e+01 8.458417e+00 1.660749e+02 4.718863e+01 4.429226e+01 5.713862e+01 2.269264e+01 1.252151e+01 3.340182e+01 1.929904e+01 2.095142e+00 5.177457e+00 5.188707e+00 1.395722e+00 6.202922e+00 7.545704e-01 1.352201e+00 3.641749e+00 1.712221e+00 2.265201e+00 1.274295e+00 2.384958e+00 2.421951e+00
<GCONST> 9.896229e+01
<STATE> 3
<MEAN> 25
 -7.835585e+00 1.394732e+00 7.784976e+00 5.273427e+00 -2.156280e+00 -1.836779e+00 1.131152e+00 1.755140e+00 1.719589e+00 -2.101438e+00 2.211031e+00 -1.062408e+00 -9.500154e-01 -5.666681e-01 6.796560e-01 3.651409e-01 -4.051511e-01 3.313861e-01 -7.986744e-02 -5.189104e-01 6.018347e-01 -2.891579e-01 3.995511e-01 1.581210e-01 1.166274e+00
<VARIANCE> 25
 1.616491e+02 1.037307e+02 4.496891e+01 1.455344e+01 1.137456e+02 4.063424e+01 5.859534e+01 4.770411e+01 4.308965e+01 2.310581e+01 2.356902e+01 1.919685e+01 1.445541e+01 8.086923e+00 3.064294e+00 2.677928e+00 7.759010e+00 4.975126e+00 4.974715e+00 4.368064e+00 3.757797e+00 3.074877e+00 2.125001e+00 2.041496e+00 7.888234e+00
<GCONST> 1.111283e+02
<STATE> 4
<MEAN> 25
 -6.299877e+00 -5.988997e+00 1.260047e+01 1.263966e+01 4.536257e+00 4.956365e+00 8.496424e+00 7.486406e+00 6.126882e+00 -8.226494e+00 8.176707e+00 2.938800e+00 3.799751e-01 -2.055541e-01 -2.600838e-01 2.675845e-01 1.193937e-01 -1.297088e-01 -2.879989e-01 3.277844e-01 2.053142e-01 1.487757e-01 -1.372442e-01 -4.165792e-02 -1.978171e-01
<VARIANCE> 25
 5.661303e+01 3.142454e+01 2.831673e+01 3.690167e+01 1.671081e+01 2.069468e+01 6.063571e+01 6.263317e+01 3.090599e+01 5.390734e+01 2.854934e+01 1.632298e+01 1.736809e+00 7.079265e-01 1.761024e+00 1.222953e+00 1.358941e+00 1.532192e+00 2.268723e+00 1.098070e+00 1.774521e+00 1.383349e+00 1.706887e+00 1.434635e+00 7.539408e-01
<GCONST> 9.216414e+01
<TRANSP> 5
 0.000000e+00 1.000000e+00 0.000000e+00 0.000000e+00 0.000000e+00
 0.000000e+00 8.957852e-01 1.042149e-01 0.000000e+00 0.000000e+00
