~o
<STREAMINFO> 1 25
<VECSIZE> 25<NULLD><MFCC_D_N_Z_0><DIAGC>
~h "b"
<BEGINHMM>
<NUMSTATES> 5
<STATE> 2
<MEAN> 25
 9.148833e-01 -2.408388e-01 -3.294731e-01 -3.947413e-01 -2.280983e-01 -1.054453e-01 -7.838818e-01 -1.615462e-01 -1.558570e-01 -4.388442e-01 -1.179206e-01 -3.696859e-01 3.124561e-04 2.078179e-04 1.355937e-03 -7.775116e-03 5.947541e-03 -2.358268e-03 -8.718995e-03 9.032056e-04 -4.792742e-03 1.149277e-02 1.828504e-03 -5.050273e-03 1.636309e-02
<VARIANCE> 25
 8.015077e+01 6.234169e+01 7.269465e+01 8.035195e+01 8.019545e+01 7.188651e+01 7.615266e+01 6.639259e+01 6.484825e+01 4.816896e+01 4.960010e+01 4.191836e+01 3.451315e+00 3.366638e+00 3.190089e+00 4.177217e+00 4.315565e+00 4.248538e+00 4.427537e+00 4.185689e+00 3.881715e+00 3.439840e+00 3.122252e+00 2.727112e+00 4.245544e+00
<GCONST> 1.130606e+02
<STATE> 3
<MEAN> 25
 9.173432e-01 -2.373779e-01 -3.206949e-01 -4.214128e-01 -2.143970e-01 -1.182816e-01 -8.115847e-01 -1.636623e-01 -1.720725e-01 -4.091328e-01 -1.206733e-01 -3.891941e-01 -6.393389e-04 2.337346e-03 3.439829e-03 -8.680695e-03 5.598939e-03 -4.404370e-03 -8.617250e-03 -1.527714e-03 -5.664384e-03 1.131727e-02 1.754781e-03 -5.834490e-03 2.252177e-02
<VARIANCE> 25
 8.041239e+01 6.229663e+01 7.308714e+01 8.040120e+01 8.013470e+01 7.190796e+01 7.655727e+01 6.635091e+01 6.482716e+01 4.789256e+01 4.944529e+01 4.205087e+01 3.466406e+00 3.365563e+00 3.211926e+00 4.209129e+00 4.317608e+00 4.251548e+00 4.443466e+00 4.206882e+00 3.901534e+00 3.425997e+00 3.127975e+00 2.736038e+00 4.240949e+00
<GCONST> 1.131006e+02
<STATE> 4
<MEAN> 25
 9.105991e-01 -2.506947e-01 -2.900142e-01 -4.292336e-01 -2.307062e-01 -1.931908e-01 -8.336681e-01 -1.618870e-01 -2.130539e-01 -3.743043e-01 -1.388568e-01 -4.470548e-01 -3.369948e-03 6.114922e-03 7.197426e-03 -8.409801e-03 1.013933e-03 -7.005987e-03 -5.190747e-03 -5.675829e-03 -9.962626e-03 9.214219e-03 7.087836e-04 -5.116657e-03 2.614500e-02
<VARIANCE> 25
 8.070438e+01 6.205912e+01 7.359394e+01 7.955984e+01 8.083719e+01 7.185365e+01 7.680999e+01 6.655624e+01 6.482024e+01 4.774536e+01 4.937226e+01 4.235033e+01 3.455899e+00 3.349203e+00 3.239668e+00 4.190114e+00 4.323856e+00 4.216220e+00 4.424436e+00 4.243121e+00 3.920796e+00 3.415818e+00 3.130892e+00 2.744967e+00 4.204236e+00
<GCONST> 1.131046e+02
<TRANSP> 5
 0.000000e+00 1.000000e+00 0.000000e+00 0.000000e+00 0.000000e+00
 0.000000e+00 6.529271e-01 3.470729e-01 0.000000e+00 0.000000e+00
 0.000000e+00 0.000000e+00 6.529298e-01 3.470702e-01 0.000000e+00
 0.000000e+00 0.000000e+00 0.000000e+00 7.649211e-01 2.350788e-01
 0.000000e+00 0.000000e+00 0.000000e+00 0.000000e+00 0.000000e+00
<ENDHMM>
~h "d"
<BEGINHMM>
<NUMSTATES> 5
<STATE> 2
<MEAN> 25
 3.790978e-01 -1.102533e-01 6.170197e-01 1.375672e-01 -4.787866e-01 4.900997e-02 2.183378e-01 -2.785453e-01 -1.351998e-01 -1.813639e-01 -2.633580e-01 5.699143e-02 6.914611e-03 1.708663e-03 -7.392412e-03 4.912118e-03 8.504851e-04 -6.563081e-03 -3.437475e-03 -3.199358e-04 4.260361e-03 -1.710871e-03 -4.195290e-03 -4.612769e-03 1.687731e-03
<VARIANCE> 25
 8.094329e+01 6.304622e+01 7.204224e+01 7.080262e+01 7.962633e+01 6.924799e+01 7.075293e+01 6.520760e+01 5.817616e+01 4.902150e+01 4.574886e+01 3.820567e+01 3.829687e+00 3.338193e+00 2.982352e+00 3.701500e+00 4.396976e+00 4.153538e+00 4.189212e+00 4.202496e+00 3.665406e+00 3.368535e+00 2.976880e+00 2.620276e+00 3.923337e+00
<GCONST> 1.121526e+02
<STATE> 3
<MEAN> 25
 3.898189e-01 -1.019874e-01 5.918256e-01 1.517255e-01 -4.689880e-01 3.709030e-02 2.136684e-01 -2.777631e-01 -1.167093e-01 -1.790452e-01 -2.658364e-01 4.798563e-02 2.853258e-03 3.573305e-03 -9.654365e-03 3.397627e-03 3.989700e-03 -4.967005e-03 -4.021923e-03 8.912261e-04 6.720066e-03 7.843882e-04 -1.492678e-03 -2.596294e-03 -1.731926e-03
<VARIANCE> 25
 8.089307e+01 6.292978e+01 7.164422e+01 7.066824e+01 7.970981e+01 6.916329e+01 7.080343e+01 6.523105e+01 5.826536e+01 4.917668e+01 4.572624e+01 3.815941e+01 3.831186e+00 3.330597e+00 2.977685e+00 3.695154e+00 4.382425e+00 4.151777e+00 4.196028e+00 4.214090e+00 3.671522e+00 3.380610e+00 2.969615e+00 2.620527e+00 3.891496e+00
<GCONST> 1.121368e+02
<STATE> 4
<MEAN> 25
 3.978361e-01 -8.737782e-02 5.478584e-01 1.710528e-01 -4.397500e-01 2.982178e-02 2.066199e-01 -2.631264e-01 -8.609654e-02 -1.645317e-01 -2.452519e-01 5.224931e-02 -2.001186e-03 5.939968e-03 -1.017674e-02 1.708267e-03 6.003378e-03 -3.187926e-03 -4.205140e-03 2.180799e-03 9.096385e-03 2.835754e-03 1.748693e-03 4.372141e-04 -5.600958e-03
<VARIANCE> 25
 8.091125e+01 6.257119e+01 7.121397e+01 7.016746e+01 7.968092e+01 6.902869e+01 7.092931e+01 6.520171e+01 5.848411e+01 4.932678e+01 4.581231e+01 3.818727e+01 3.800232e+00 3.298781e+00 2.948053e+00 3.659082e+00 4.327328e+00 4.117757e+00 4.169407e+00 4.205071e+00 3.660397e+00 3.383705e+00 2.950673e+00 2.616219e+00 3.821287e+00
<GCONST> 1.120313e+02
<TRANSP> 5
 0.000000e+00 1.000000e+00 0.000000e+00 0.000000e+00 0.000000e+00
 0.000000e+00 6.526201e-01 3.473798e-01 0.000000e+00 0.000000e+00
 0.000000e+00 0.000000e+00 6.526213e-01 3.473786e-01 0.000000e+00
 0.000000e+00 0.000000e+00 0.000000e+00 7.647846e-01 2.352153e-01
 0.000000e+00 0.000000e+00 0.000000e+00 0.000000e+00 0.000000e+00
<ENDHMM>
~h "f"
<BEGINHMM>
<NUMSTATES> 5
<STATE> 2
<MEAN> 25
 -6.786418e-01 -2.994173e-01 -4.174225e-01 1.504060e-01 3.341723e-01 2.051289e-01 4.841061e-02 1.583151e-01 6.567642e-02 3.552692e-02 3.469395e-01 2.587429e-01 1.025809e-02 6.067514e-03 2.343217e-02 -7.463565e-03 -1.962045e-02 -5.818784e-03 -3.857592e-03 -7.889241e-04 -1.332984e-02 1.482115e-02 4.474354e-03 -1.353968e-04 1.972642e-02
<VARIANCE> 25
 9.001554e+01 5.511848e+01 6.997516e+01 7.581879e+01 7.325336e+01 6.795792e+01 7.312168e+01 6.152602e+01 5.822733e+01 4.393721e+01 4.305579e+01 3.874648e+01 4.447179e+00 2.956690e+00 3.046254e+00 3.927421e+00 3.883639e+00 4.159826e+00 4.339253e+00 4.079381e+00 3.841927e+00 3.125938e+00 2.982370e+00 2.667155e+00 3.289484e+00
<GCONST> 1.116882e+02
<STATE> 3
<MEAN> 25
 -6.443147e-01 -2.872505e-01 -3.534773e-01 1.279582e-01 2.799131e-01 1.886209e-01 3.336797e-02 1.660709e-01 3.868044e-02 7.770244e-02 3.555264e-01 2.579862e-01 1.071382e-02 3.318290e-03 2.123962e-02 -1.019736e-02 -1.957071e-02 -6.478008e-03 -5.291995e-03 2.336860e-03 -8.917904e-03 1.492900e-02 3.760953e-04 -1.998750e-03 2.344470e-02
<VARIANCE> 25
 9.017120e+01 5.525310e+01 7.039413e+01 7.614522e+01 7.351228e+01 6.837036e+01 7.333306e+01 6.180281e+01 5.835448e+01 4.369653e+01 4.326844e+01 3.880260e+01 4.441049e+00 2.961140e+00 3.061873e+00 3.937927e+00 3.889284e+00 4.167246e+00 4.350107e+00 4.092099e+00 3.851802e+00 3.116199e+00 2.993243e+00 2.671752e+00 3.290548e+00
<GCONST> 1.117446e+02
<STATE> 4
<MEAN> 25
 -5.929375e-01 -2.888975e-01 -2.947901e-01 6.810474e-02 2.109371e-01 1.734767e-01 -2.311070e-02 1.663858e-01 1.534686e-02 1.071064e-01 3.727068e-01 2.388103e-01 8.045100e-03 3.110188e-04 1.594609e-02 -1.324415e-02 -1.547925e-02 -4.409872e-03 -8.622247e-03 6.092968e-03 -4.008996e-03 1.245442e-02 -3.435864e-03 -2.666259e-03 2.359294e-02
<VARIANCE> 25
 9.059801e+01 5.548038e+01 7.136188e+01 7.650822e+01 7.409861e+01 6.870802e+01 7.331165e+01 6.207711e+01 5.858310e+01 4.356095e+01 4.372347e+01 3.875861e+01 4.397614e+00 2.961008e+00 3.063890e+00 3.918514e+00 3.877357e+00 4.133502e+00 4.311035e+00 4.086888e+00 3.842083e+00 3.095483e+00 2.994283e+00 2.663894e+00 3.255791e+00
<GCONST> 1.117409e+02
<TRANSP> 5
 0.000000e+00 1.000000e+00 0.000000e+00 0.000000e+00 0.000000e+00
 0.000000e+00 6.496904e-01 3.503095e-01 0.000000e+00 0.000000e+00
 0.000000e+00 0.000000e+00 6.496904e-01 3.503095e-01 0.000000e+00
 0.000000e+00 0.000000e+00 0.000000e+00 7.612398e-01 2.387602e-01
 0.000000e+00 0.000000e+00 0.000000e+00 0.000000e+00 0.000000e+00
<ENDHMM>
~h "g"
<BEGINHMM>
<NUMSTATES> 5
<STATE> 2
<MEAN> 25
 4.415304e-01 3.199748e-01 4.501239e-01 2.601030e-01 6.398603e-02 -4.870088e-01 -3.782516e-01 4.120858e-01 -3.675549e-02 1.309584e-01 7.779541e-02 1.993401e-01 -1.338671e-02 -3.078440e-03 -1.105882e-02 1.557851e-02 1.756801e-02 -6.031726e-03 1.630768e-02 1.383332e-02 1.596179e-02 3.049017e-03 -7.231842e-05 1.422114e-02 -5.101607e-02
<VARIANCE> 25
 8.809384e+01 6.419924e+01 7.306233e+01 6.977714e+01 9.046536e+01 7.123890e+01 8.157018e+01 6.364673e+01 6.171877e+01 4.913963e+01 4.483459e+01 3.638878e+01 3.606886e+00 3.660600e+00 3.342727e+00 3.684129e+00 4.832238e+00 4.025155e+00 4.451392e+00 3.884456e+00 3.973354e+00 3.396450e+00 3.157693e+00 2.566640e+00 4.186533e+00
<GCONST> 1.129003e+02
<STATE> 3
<MEAN> 25
 4.001587e-01 3.049023e-01 4.069960e-01 2.972513e-01 1.194970e-01 -5.005769e-01 -3.272071e-01 4.474648e-01 1.874998e-03 1.400387e-01 7.539304e-02 2.344402e-01 -1.723353e-02 -2.893512e-03 -1.302785e-02 1.387569e-02 1.744137e-02 2.866594e-03 2.130904e-02 9.234251e-03 1.191979e-02 4.651746e-03 -1.527945e-03 1.082340e-02 -5.434383e-02
<VARIANCE> 25
 8.737114e+01 6.428403e+01 7.241489e+01 7.003514e+01 9.004606e+01 7.114814e+01 8.110462e+01 6.314624e+01 6.186245e+01 4.926060e+01 4.473503e+01 3.646001e+01 3.587239e+00 3.653983e+00 3.331430e+00 3.697513e+00 4.796389e+00 4.030359e+00 4.450408e+00 3.858468e+00 3.970472e+00 3.388685e+00 3.139269e+00 2.563892e+00 4.202834e+00
<GCONST> 1.128470e+02
<STATE> 4
<MEAN> 25
 3.014442e-01 2.762054e-01 3.264760e-01 3.527943e-01 2.023261e-01 -4.852051e-01 -2.429111e-01 4.873549e-01 7.565863e-02 1.626658e-01 6.097365e-02 2.667645e-01 -1.962694e-02 -3.170545e-03 -1.708574e-02 6.917617e-03 1.676833e-02 1.126541e-02 2.506894e-02 2.002120e-03 7.105320e-03 8.243058e-03 -4.371964e-03 5.048537e-03 -5.246703e-02
<VARIANCE> 25
 8.646342e+01 6.433293e+01 7.169167e+01 6.931815e+01 8.954538e+01 7.074820e+01 7.958702e+01 6.211483e+01 6.168792e+01 4.910419e+01 4.431603e+01 3.656495e+01 3.533628e+00 3.611471e+00 3.292229e+00 3.682650e+00 4.713475e+00 4.012806e+00 4.407250e+00 3.809149e+00 3.938830e+00 3.369185e+00 3.103668e+00 2.554566e+00 4.205551e+00
<GCONST> 1.126426e+02
<TRANSP> 5
 0.000000e+00 1.000000e+00 0.000000e+00 0.000000e+00 0.000000e+00
 0.000000e+00 6.581450e-01 3.418551e-01 0.000000e+00 0.000000e+00
 0.000000e+00 0.000000e+00 6.581475e-01 3.418525e-01 0.000000e+00
 0.000000e+00 0.000000e+00 0.000000e+00 7.709973e-01 2.290027e-01
 0.000000e+00 0.000000e+00 0.000000e+00 0.000000e+00 0.000000e+00
<ENDHMM>
~h "k"
<BEGINHMM>
<NUMSTATES> 5
<STATE> 2
<MEAN> 25
 -5.085905e-01 -5.695953e-02 -7.845005e-02 -1.985406e-02 4.078097e-01 3.164211e-01 5.983800e-01 9.043470e-02 -2.472941e-01 2.858539e-01 2.943049e-01 -1.411499e-01 7.367784e-03 -4.527172e-03 2.238868e-03 -5.029880e-03 -4.429683e-03 2.174311e-03 2.058296e-03 -5.696128e-03 -4.552109e-03 -8.453315e-03 1.177527e-03 5.566265e-03 -1.093179e-03
<VARIANCE> 25
 8.552544e+01 5.778135e+01 7.095289e+01 7.215956e+01 7.609296e+01 7.025530e+01 6.752090e+01 6.702737e+01 5.698150e+01 4.775730e+01 4.508462e+01 3.876410e+01 4.102146e+00 3.284347e+00 3.126259e+00 3.754750e+00 4.419434e+00 4.454346e+00 4.193591e+00 4.345180e+00 3.875396e+00 3.522956e+00 3.177998e+00 2.722025e+00 4.257493e+00
<GCONST> 1.125361e+02
<STATE> 3
<MEAN> 25
 -4.909754e-01 -7.679414e-02 -7.425890e-02 -3.451193e-02 3.996094e-01 3.266211e-01 6.021923e-01 8.210512e-02 -2.580075e-01 2.642204e-01 2.942984e-01 -1.276257e-01 4.666730e-03 -6.481621e-03 3.451915e-03 -4.480349e-03 -4.392664e-03 1.119671e-03 4.979671e-04 -5.002707e-03 -2.418153e-03 -9.137141e-03 -3.279734e-05 6.321742e-03 -9.263293e-04
<VARIANCE> 25
 8.557078e+01 5.796286e+01 7.076910e+01 7.228799e+01 7.615279e+01 7.039874e+01 6.763260e+01 6.708578e+01 5.714527e+01 4.796817e+01 4.492939e+01 3.879386e+01 4.090455e+00 3.280101e+00 3.125008e+00 3.741519e+00 4.410241e+00 4.448472e+00 4.181748e+00 4.335905e+00 3.886173e+00 3.520880e+00 3.177440e+00 2.721090e+00 4.220208e+00
<GCONST> 1.125254e+02
<STATE> 4
<MEAN> 25
 -4.753127e-01 -1.046880e-01 -7.851964e-02 -6.253188e-02 4.279776e-01 3.575487e-01 5.960478e-01 8.307072e-02 -2.543554e-01 2.452489e-01 2.870980e-01 -1.142163e-01 3.364253e-03 -7.587674e-03 3.727124e-03 -1.831825e-03 -3.394250e-03 6.219937e-04 -1.712003e-03 -1.244453e-03 -1.350110e-03 -1.009306e-02 -7.957992e-04 5.594071e-03 -3.423544e-03
<VARIANCE> 25
 8.526402e+01 5.817844e+01 7.019386e+01 7.185560e+01 7.631696e+01 7.034241e+01 6.793722e+01 6.726147e+01 5.739408e+01 4.842939e+01 4.485455e+01 3.876348e+01 4.022564e+00 3.249241e+00 3.097262e+00 3.673548e+00 4.360095e+00 4.385172e+00 4.145210e+00 4.303419e+00 3.876422e+00 3.505109e+00 3.159001e+00 2.709756e+00 4.123098e+00
<GCONST> 1.123954e+02
<TRANSP> 5
 0.000000e+00 1.000000e+00 0.000000e+00 0.000000e+00 0.000000e+00
 0.000000e+00 6.532959e-01 3.467041e-01 0.000000e+00 0.000000e+00
 0.000000e+00 0.000000e+00 6.532949e-01 3.467050e-01 0.000000e+00
 0.000000e+00 0.000000e+00 0.000000e+00 7.656633e-01 2.343366e-01
 0.000000e+00 0.000000e+00 0.000000e+00 0.000000e+00 0.000000e+00
<ENDHMM>
~h "l"
<BEGINHMM>
<NUMSTATES> 5
<STATE> 2
<MEAN> 25
 2.807892e-01 3.863954e-01 -7.421049e-01 -1.451633e+00 2.439742e-01 7.195832e-01 -3.876506e-01 -6.561088e-01 1.654581e-01 1.173240e-01 -1.276364e-02 -2.568084e-02 -6.229853e-03 -6.681966e-04 1.194524e-02 1.654566e-02 -8.630921e-03 -7.472912e-03 3.262995e-03 3.855895e-03 -2.232964e-03 4.253312e-04 1.133514e-03 2.999874e-03 6.976591e-03
<VARIANCE> 25
 8.677537e+01 5.886364e+01 6.708958e+01 8.935770e+01 7.688357e+01 7.435504e+01 7.503058e+01 6.529354e+01 6.015636e+01 4.837523e+01 4.547222e+01 3.940319e+01 3.789467e+00 3.127622e+00 2.888732e+00 4.070086e+00 4.071785e+00 4.149232e+00 4.278659e+00 4.305275e+00 3.865774e+00 3.481754e+00 3.126781e+00 2.700454e+00 3.473879e+00
<GCONST> 1.124548e+02
<STATE> 3
<MEAN> 25
 2.626240e-01 3.846451e-01 -7.040288e-01 -1.400749e+00 2.173990e-01 6.991580e-01 -3.784236e-01 -6.401721e-01 1.577046e-01 1.184353e-01 -1.032497e-02 -1.692321e-02 -6.711173e-03 -1.224290e-03 1.454560e-02 1.922083e-02 -8.504926e-03 -6.789178e-03 3.555548e-03 7.427679e-03 -2.647452e-03 -1.646106e-03 1.615799e-03 3.975104e-03 6.026411e-03
<VARIANCE> 25
 8.678748e+01 5.894495e+01 6.707643e+01 8.890698e+01 7.687012e+01 7.416122e+01 7.498827e+01 6.551616e+01 6.038886e+01 4.843488e+01 4.550850e+01 3.949093e+01 3.788756e+00 3.115192e+00 2.885796e+00 4.055166e+00 4.063837e+00 4.138371e+00 4.275217e+00 4.302340e+00 3.867678e+00 3.475489e+00 3.122684e+00 2.694680e+00 3.465451e+00
<GCONST> 1.124372e+02
<STATE> 4
<MEAN> 25
 2.387314e-01 3.874565e-01 -6.310262e-01 -1.341619e+00 1.585564e-01 6.635679e-01 -3.770494e-01 -6.004553e-01 1.293781e-01 1.123863e-01 -1.754537e-02 -1.759866e-02 -6.448233e-03 -1.292377e-03 1.694527e-02 2.249048e-02 -7.125190e-03 -6.332884e-03 4.379518e-03 1.001884e-02 -2.303340e-03 -4.502569e-03 1.847205e-03 3.630985e-03 1.237177e-03
<VARIANCE> 25
 8.675133e+01 5.890587e+01 6.726443e+01 8.785989e+01 7.708593e+01 7.358882e+01 7.465430e+01 6.573131e+01 6.059978e+01 4.856202e+01 4.560261e+01 3.970158e+01 3.763047e+00 3.087010e+00 2.877817e+00 4.008451e+00 4.039952e+00 4.098426e+00 4.241001e+00 4.278636e+00 3.854095e+00 3.454137e+00 3.112036e+00 2.681791e+00 3.446533e+00
<GCONST> 1.123516e+02
<TRANSP> 5
 0.000000e+00 1.000000e+00 0.000000e+00 0.000000e+00 0.000000e+00
 0.000000e+00 6.518496e-01 3.481505e-01 0.000000e+00 0.000000e+00
 0.000000e+00 0.000000e+00 6.518494e-01 3.481506e-01 0.000000e+00
 0.000000e+00 0.000000e+00 0.000000e+00 7.635875e-01 2.364125e-01
 0.000000e+00 0.000000e+00 0.000000e+00 0.000000e+00 0.000000e+00
<ENDHMM>
~h "m"
<BEGINHMM>
<NUMSTATES> 5
<STATE> 2
<MEAN> 25
 5.903162e-01 -1.972975e-02 -6.581265e-02 3.993445e-01 9.857803e-03 1.630698e-01 -1.014248e-01 9.852577e-02 -2.746158e-01 -4.470302e-01 -1.281236e-01 -2.876709e-01 5.791575e-05 1.395115e-02 7.620808e-03 -6.909235e-03 -1.319742e-02 1.221224e-03 -5.816264e-03 -9.079071e-03 -4.250816e-03 -6.485063e-04 2.652305e-03 5.642375e-03 -6.300303e-03
<VARIANCE> 25
 8.772523e+01 5.961959e+01 6.805312e+01 7.170983e+01 8.092989e+01 6.921509e+01 7.358530e+01 6.894514e+01 6.535467e+01 4.959303e+01 4.569524e+01 4.076250e+01 3.665524e+00 3.158607e+00 2.843284e+00 3.801748e+00 4.068312e+00 4.050213e+00 4.140218e+00 4.256038e+00 3.952399e+00 3.361739e+00 3.026363e+00 2.691508e+00 3.490661e+00
<GCONST> 1.122130e+02
<STATE> 3
<MEAN> 25
 5.860323e-01 1.975112e-02 -4.272726e-02 3.819241e-01 -2.637616e-02 1.632262e-01 -1.132151e-01 7.462502e-02 -2.941699e-01 -4.501805e-01 -1.217264e-01 -2.731742e-01 -2.812031e-03 1.501601e-02 9.104484e-03 -7.455784e-03 -1.353385e-02 -9.473595e-04 -3.185975e-03 -9.407644e-03 -7.237405e-03 -9.514338e-04 2.935892e-03 4.612838e-03 -6.415572e-03
<VARIANCE> 25
 8.763872e+01 5.948716e+01 6.818773e+01 7.196564e+01 8.156655e+01 6.933318e+01 7.349594e+01 6.908394e+01 6.516050e+01 4.997355e+01 4.569330e+01 4.066152e+01 3.656281e+00 3.158170e+00 2.849001e+00 3.814636e+00 4.076286e+00 4.064967e+00 4.149476e+00 4.256466e+00 3.956625e+00 3.387228e+00 3.023971e+00 2.695813e+00 3.488135e+00
<GCONST> 1.122471e+02
<STATE> 4
<MEAN> 25
 5.567747e-01 6.735964e-02 -3.895337e-02 3.500761e-01 -4.029722e-02 1.701551e-01 -1.140830e-01 5.074872e-02 -3.030269e-01 -4.345874e-01 -1.100750e-01 -2.608669e-01 -5.027627e-03 1.577903e-02 9.409727e-03 -7.652359e-03 -1.029565e-02 -2.129688e-03 1.067976e-03 -1.100178e-02 -9.232959e-03 1.085220e-03 3.894111e-03 2.478880e-03 -7.873087e-03
<VARIANCE> 25
 8.754125e+01 5.937740e+01 6.844125e+01 7.194341e+01 8.231644e+01 6.950654e+01 7.335884e+01 6.933175e+01 6.498392e+01 5.050559e+01 4.575958e+01 4.051788e+01 3.622899e+00 3.153056e+00 2.851882e+00 3.799839e+00 4.059388e+00 4.065184e+00 4.135076e+00 4.258158e+00 3.958955e+00 3.399636e+00 3.014278e+00 2.686316e+00 3.484206e+00
<GCONST> 1.122423e+02
<TRANSP> 5
 0.000000e+00 1.000000e+00 0.000000e+00 0.000000e+00 0.000000e+00
 0.000000e+00 6.507396e-01 3.492604e-01 0.000000e+00 0.000000e+00
 0.000000e+00 0.000000e+00 6.507375e-01 3.492624e-01 0.000000e+00
 0.000000e+00 0.000000e+00 0.000000e+00 7.622152e-01 2.377848e-01
 0.000000e+00 0.000000e+00 0.000000e+00 0.000000e+00 0.000000e+00
<ENDHMM>
~h "n"
<BEGINHMM>
<NUMSTATES> 5
<STATE> 2
<MEAN> 25
 5.004162e-01 3.801050e-02 5.693899e-01 5.725035e-02 -3.386058e-01 -1.452010e-02 3.538485e-02 -7.403389e-02 -4.410087e-01 -3.811010e-01 -3.442695e-01 -1.808140e-01 4.830087e-04 -5.211169e-05 -7.666679e-03 -1.294116e-04 1.511540e-03 7.655793e-03 -4.042835e-03 -2.127489e-03 1.793934e-04 -1.069874e-03 2.742056e-03 3.052204e-03 -4.366477e-03
<VARIANCE> 25
 8.457722e+01 6.060335e+01 6.675389e+01 6.867171e+01 7.756333e+01 7.136511e+01 7.008550e+01 6.584201e+01 6.221308e+01 4.862357e+01 4.655009e+01 4.019445e+01 3.762988e+00 3.183970e+00 2.849692e+00 3.661423e+00 4.222044e+00 4.075171e+00 4.052409e+00 4.294021e+00 3.918503e+00 3.354282e+00 3.042480e+00 2.639486e+00 3.440884e+00
<GCONST> 1.119492e+02
<STATE> 3
<MEAN> 25
 4.993112e-01 3.544024e-02 5.452495e-01 5.826124e-02 -3.341621e-01 5.558206e-03 1.990633e-02 -8.090890e-02 -4.390377e-01 -3.846718e-01 -3.358684e-01 -1.735192e-01 -1.424335e-03 -2.281908e-03 -9.291776e-03 4.466531e-04 1.685305e-03 5.281406e-03 -5.877306e-03 -1.285034e-03 8.294560e-04 -4.332350e-04 3.154643e-03 2.405761e-03 -2.410921e-03
<VARIANCE> 25
 8.480383e+01 6.053045e+01 6.683483e+01 6.894630e+01 7.738103e+01 7.149026e+01 6.994157e+01 6.574533e+01 6.212865e+01 4.867141e+01 4.642088e+01 4.018291e+01 3.769571e+00 3.178804e+00 2.849712e+00 3.662592e+00 4.223038e+00 4.077349e+00 4.052546e+00 4.287316e+00 3.916576e+00 3.356834e+00 3.039856e+00 2.636697e+00 3.452767e+00
<GCONST> 1.119498e+02
<STATE> 4
<MEAN> 25
 4.783181e-01 2.794771e-02 5.025502e-01 6.586221e-02 -3.052151e-01 1.823590e-02 5.369359e-03 -8.479813e-02 -4.322810e-01 -3.870749e-01 -3.191104e-01 -1.535126e-01 -4.115734e-03 -3.349678e-03 -1.060947e-02 1.924083e-03 3.263392e-03 2.241875e-03 -7.163765e-03 -7.792918e-04 2.232449e-03 6.556119e-04 4.395350e-03 2.748765e-03 -3.003071e-03
<VARIANCE> 25
 8.489565e+01 6.036265e+01 6.681511e+01 6.914038e+01 7.710760e+01 7.130965e+01 6.964234e+01 6.562399e+01 6.185254e+01 4.881506e+01 4.651984e+01 4.006492e+01 3.745148e+00 3.151824e+00 2.833102e+00 3.630325e+00 4.191751e+00 4.050791e+00 4.022504e+00 4.264682e+00 3.882526e+00 3.341355e+00 3.025836e+00 2.622177e+00 3.443232e+00
<GCONST> 1.118534e+02
<TRANSP> 5
 0.000000e+00 1.000000e+00 0.000000e+00 0.000000e+00 0.000000e+00
 0.000000e+00 6.533325e-01 3.466675e-01 0.000000e+00 0.000000e+00
 0.000000e+00 0.000000e+00 6.533332e-01 3.466667e-01 0.000000e+00
 0.000000e+00 0.000000e+00 0.000000e+00 7.653764e-01 2.346236e-01
 0.000000e+00 0.000000e+00 0.000000e+00 0.000000e+00 0.000000e+00
<ENDHMM>
~h "p"
<BEGINHMM>
<NUMSTATES> 5
<STATE> 2
<MEAN> 25
 5.841501e-02 2.066283e-02 -2.388757e-01 -3.156253e-01 4.727284e-01 3.686979e-01 4.518656e-01 -6.239396e-02 3.591340e-01 2.576080e-01 1.244605e-01 1.631128e-01 6.806688e-03 1.049425e-02 -7.115237e-03 4.495216e-03 4.921894e-04 -1.285008e-02 -6.111317e-03 8.563072e-03 8.979263e-03 -1.035248e-02 -6.005271e-03 4.192074e-03 -8.969923e-03
<VARIANCE> 25
 8.750719e+01 5.670639e+01 7.011308e+01 7.210739e+01 7.519969e+01 6.957401e+01 7.427057e+01 6.536465e+01 5.899545e+01 4.673173e+01 4.687385e+01 3.725051e+01 4.112567e+00 3.210190e+00 2.944187e+00 3.612175e+00 4.033170e+00 4.217427e+00 4.428392e+00 4.238485e+00 3.881777e+00 3.418554e+00 3.084016e+00 2.682161e+00 3.902296e+00
<GCONST> 1.121925e+02
<STATE> 3
<MEAN> 25
 8.297426e-02 3.906528e-02 -2.546001e-01 -3.012301e-01 4.655039e-01 3.306304e-01 4.283645e-01 -3.830695e-02 3.836372e-01 2.211344e-01 1.104129e-01 1.714798e-01 1.157511e-02 4.706247e-03 -3.577640e-03 5.563480e-03 -5.580800e-03 -9.471841e-03 -6.684499e-03 6.540459e-03 6.154545e-03 -1.269890e-02 -3.546505e-03 2.330107e-03 -6.909430e-03
<VARIANCE> 25
 8.733380e+01 5.670772e+01 6.945445e+01 7.214030e+01 7.536100e+01 6.961935e+01 7.462256e+01 6.549651e+01 5.917504e+01 4.666360e+01 4.687046e+01 3.708399e+01 4.103692e+00 3.213363e+00 2.934291e+00 3.604367e+00 4.023840e+00 4.226218e+00 4.443861e+00 4.268050e+00 3.893933e+00 3.431588e+00 3.085397e+00 2.680418e+00 3.902244e+00
<GCONST> 1.121984e+02
<STATE> 4
<MEAN> 25
 1.126603e-01 2.880636e-02 -2.394048e-01 -2.882639e-01 3.989703e-01 2.776766e-01 3.796667e-01 -3.279369e-02 3.826036e-01 1.471894e-01 9.878131e-02 1.565847e-01 1.503482e-02 -2.617746e-03 -2.087745e-03 6.607113e-03 -1.138551e-02 -6.715698e-03 -9.704935e-03 3.149626e-03 4.461513e-03 -1.237515e-02 -1.645576e-03 -8.342889e-04 -3.563238e-03
<VARIANCE> 25
 8.693231e+01 5.685004e+01 6.901608e+01 7.185146e+01 7.559450e+01 6.959230e+01 7.546935e+01 6.613299e+01 5.945419e+01 4.683485e+01 4.709511e+01 3.710246e+01 4.073636e+00 3.209002e+00 2.916012e+00 3.564100e+00 4.005095e+00 4.201648e+00 4.450356e+00 4.296311e+00 3.898342e+00 3.448559e+00 3.078840e+00 2.681852e+00 3.877040e+00
<GCONST> 1.121926e+02
<TRANSP> 5
 0.000000e+00 1.000000e+00 0.000000e+00 0.000000e+00 0.000000e+00
 0.000000e+00 6.494187e-01 3.505813e-01 0.000000e+00 0.000000e+00
 0.000000e+00 0.000000e+00 6.494201e-01 3.505799e-01 0.000000e+00
 0.000000e+00 0.000000e+00 0.000000e+00 7.602370e-01 2.397631e-01
 0.000000e+00 0.000000e+00 0.000000e+00 0.000000e+00 0.000000e+00
<ENDHMM>
~h "r"
<BEGINHMM>
<NUMSTATES> 5
<STATE> 2
<MEAN> 25
 5.885983e-01 -3.878482e-01 -4.601042e-01 3.115883e-01 -1.524428e-01 -4.454075e-01 -2.812698e-01 4.358386e-01 -2.997343e-01 2.372314e-03 2.557404e-01 9.743454e-03 -1.761422e-02 3.025496e-03 9.382376e-03 4.840411e-03 7.577958e-03 1.925165e-03 9.175612e-03 5.901024e-03 7.456257e-03 7.239180e-03 -4.833335e-03 -6.809110e-03 -1.374057e-02
<VARIANCE> 25
 9.666336e+01 6.113587e+01 7.337461e+01 6.981606e+01 7.978357e+01 7.503336e+01 7.591653e+01 6.652821e+01 6.279066e+01 4.867111e+01 4.481089e+01 3.810758e+01 4.123644e+00 3.210463e+00 3.167839e+00 3.699213e+00 4.319954e+00 4.277301e+00 4.500819e+00 4.157423e+00 3.903398e+00 3.432953e+00 3.020712e+00 2.625489e+00 3.408943e+00
<GCONST> 1.126474e+02
<STATE> 3
<MEAN> 25
 5.324977e-01 -3.722900e-01 -4.357316e-01 3.212549e-01 -1.260742e-01 -4.403742e-01 -2.532662e-01 4.490574e-01 -2.713457e-01 2.646614e-02 2.415256e-01 -6.855028e-03 -2.295163e-02 4.711654e-03 1.000414e-02 1.682012e-03 6.422231e-03 2.195837e-03 1.084781e-02 4.917392e-03 8.745511e-03 8.382021e-03 -4.140689e-03 -5.883822e-03 -1.712948e-02
<VARIANCE> 25
 9.665272e+01 6.107682e+01 7.350669e+01 6.959647e+01 7.987626e+01 7.467521e+01 7.582022e+01 6.612578e+01 6.279936e+01 4.864785e+01 4.474835e+01 3.795586e+01 4.119026e+00 3.204021e+00 3.167576e+00 3.697265e+00 4.318140e+00 4.262301e+00 4.462172e+00 4.138373e+00 3.882478e+00 3.419162e+00 3.022552e+00 2.617458e+00 3.408272e+00
<GCONST> 1.125954e+02
<STATE> 4
<MEAN> 25
 4.402564e-01 -3.327028e-01 -4.033745e-01 3.116252e-01 -8.845903e-02 -4.391036e-01 -2.115351e-01 4.497072e-01 -2.431023e-01 6.396625e-02 2.213653e-01 -1.995881e-02 -2.605107e-02 7.773028e-03 9.725352e-03 -2.688966e-03 6.273921e-03 3.944406e-03 1.342519e-02 2.351715e-03 9.144712e-03 9.465022e-03 -2.382687e-03 -4.590270e-03 -2.171262e-02
<VARIANCE> 25
 9.617462e+01 6.084361e+01 7.373975e+01 6.919723e+01 8.015119e+01 7.416111e+01 7.541035e+01 6.596918e+01 6.260824e+01 4.879544e+01 4.466687e+01 3.787808e+01 4.062987e+00 3.169000e+00 3.151923e+00 3.653811e+00 4.280541e+00 4.209811e+00 4.385283e+00 4.114005e+00 3.843964e+00 3.396349e+00 3.015723e+00 2.600533e+00 3.368795e+00
<GCONST> 1.124459e+02
<TRANSP> 5
 0.000000e+00 1.000000e+00 0.000000e+00 0.000000e+00 0.000000e+00
 0.000000e+00 6.518033e-01 3.481967e-01 0.000000e+00 0.000000e+00
 0.000000e+00 0.000000e+00 6.518006e-01 3.481994e-01 0.000000e+00
 0.000000e+00 0.000000e+00 0.000000e+00 7.635534e-01 2.364465e-01
 0.000000e+00 0.000000e+00 0.000000e+00 0.000000e+00 0.000000e+00
<ENDHMM>
~h "s"
<BEGINHMM>
<NUMSTATES> 5
<STATE> 2
<MEAN> 25
 -1.667489e+00 6.725321e-01 -4.873710e-01 1.110907e-01 6.500209e-01 -4.743302e-01 3.065555e-01 1.948262e-01 3.274137e-01 1.467187e-01 -2.363814e-02 1.802503e-01 -2.970534e-03 -7.110010e-03 -4.925866e-03 2.727107e-03 2.329942e-03 1.197364e-02 -2.715819e-03 9.427290e-03 1.171703e-02 5.051288e-03 4.951800e-03 -5.320986e-04 -1.300273e-02
<VARIANCE> 25
 1.138504e+02 6.176494e+01 6.744450e+01 6.939741e+01 7.601333e+01 7.240496e+01 7.348217e+01 6.242673e+01 5.770824e+01 4.667726e+01 4.531852e+01 3.800518e+01 5.011329e+00 3.306464e+00 2.922956e+00 3.671170e+00 4.193040e+00 4.275444e+00 4.345428e+00 4.093462e+00 3.692808e+00 3.383577e+00 3.114295e+00 2.618422e+00 3.571435e+00
<GCONST> 1.124930e+02
<STATE> 3
<MEAN> 25
 -1.676588e+00 6.509128e-01 -4.952804e-01 1.193173e-01 6.527477e-01 -4.392493e-01 2.989251e-01 2.221715e-01 3.598763e-01 1.599096e-01 -6.402786e-03 1.770149e-01 1.773777e-03 -1.037799e-02 -2.355311e-03 2.763000e-03 9.350735e-05 1.249058e-02 -2.198683e-03 9.055840e-03 1.076231e-02 4.457120e-03 6.176989e-03 -9.876452e-04 -1.558112e-02
<VARIANCE> 25
 1.140515e+02 6.172615e+01 6.745501e+01 6.943758e+01 7.604398e+01 7.229804e+01 7.344101e+01 6.246996e+01 5.758147e+01 4.648280e+01 4.536877e+01 3.782664e+01 5.006708e+00 3.315025e+00 2.928774e+00 3.673488e+00 4.190773e+00 4.272880e+00 4.356164e+00 4.099332e+00 3.687810e+00 3.374102e+00 3.115910e+00 2.610884e+00 3.585081e+00
<GCONST> 1.124883e+02
<STATE> 4
<MEAN> 25
 -1.654239e+00 6.114376e-01 -4.955903e-01 1.279301e-01 6.327152e-01 -3.895023e-01 2.675716e-01 2.424853e-01 3.969823e-01 1.715809e-01 1.282831e-02 1.700902e-01 8.677767e-03 -1.496410e-02 1.862140e-03 2.082505e-03 -3.480489e-03 1.276845e-02 -2.287759e-03 9.007464e-03 9.338118e-03 2.964398e-03 6.840783e-03 -5.547139e-04 -1.766397e-02
<VARIANCE> 25
 1.137469e+02 6.143565e+01 6.740826e+01 6.933719e+01 7.607862e+01 7.183568e+01 7.326764e+01 6.242428e+01 5.737836e+01 4.627536e+01 4.541798e+01 3.764075e+01 4.948186e+00 3.300108e+00 2.922494e+00 3.653918e+00 4.159797e+00 4.226098e+00 4.347757e+00 4.083942e+00 3.667120e+00 3.352058e+00 3.106509e+00 2.595721e+00 3.579483e+00
<GCONST> 1.123874e+02
<TRANSP> 5
 0.000000e+00 1.000000e+00 0.000000e+00 0.000000e+00 0.000000e+00
 0.000000e+00 6.514229e-01 3.485772e-01 0.000000e+00 0.000000e+00
 0.000000e+00 0.000000e+00 6.514185e-01 3.485815e-01 0.000000e+00
 0.000000e+00 0.000000e+00 0.000000e+00 7.630156e-01 2.369844e-01
 0.000000e+00 0.000000e+00 0.000000e+00 0.000000e+00 0.000000e+00
<ENDHMM>
~h "t"
<BEGINHMM>
<NUMSTATES> 5
<STATE> 2
<MEAN> 25
 -3.199032e-01 -1.268749e-01 8.760044e-02 -3.146676e-02 -4.188391e-02 -2.931843e-01 -4.559461e-02 1.524388e-01 1.009885e-01 8.238141e-02 4.464556e-02 4.327337e-02 2.351069e-03 1.022542e-03 -7.832914e-04 -2.677019e-03 -3.712787e-05 1.116680e-03 -2.367709e-03 -2.622479e-03 -4.869222e-03 2.836917e-03 6.559931e-03 5.735437e-04 -8.608229e-04
<VARIANCE> 25
 9.146359e+01 6.070313e+01 7.215668e+01 7.171881e+01 7.741185e+01 7.513345e+01 7.394082e+01 6.464272e+01 6.036755e+01 4.869969e+01 4.633758e+01 3.807838e+01 4.217498e+00 3.279264e+00 3.139669e+00 3.867155e+00 4.362844e+00 4.377999e+00 4.427118e+00 4.195151e+00 3.922902e+00 3.429126e+00 3.243059e+00 2.688093e+00 4.045080e+00
<GCONST> 1.128796e+02
<STATE> 3
<MEAN> 25
 -3.116811e-01 -1.246819e-01 9.309241e-02 -4.159462e-02 -4.915839e-02 -2.933027e-01 -4.972504e-02 1.418982e-01 8.377505e-02 8.892050e-02 6.100225e-02 4.594130e-02 2.799205e-03 5.451362e-04 1.730550e-03 -4.561299e-03 -1.882381e-03 4.454151e-04 -1.150116e-03 -2.690156e-03 -6.849710e-03 1.271436e-03 5.602551e-03 1.190581e-03 1.133040e-03
<VARIANCE> 25
 9.168065e+01 6.061152e+01 7.246467e+01 7.172009e+01 7.779654e+01 7.532189e+01 7.392699e+01 6.467779e+01 6.059244e+01 4.852681e+01 4.639585e+01 3.789980e+01 4.223289e+00 3.282153e+00 3.148144e+00 3.865507e+00 4.378101e+00 4.388088e+00 4.433686e+00 4.196832e+00 3.934017e+00 3.426819e+00 3.244992e+00 2.683420e+00 4.043268e+00
<GCONST> 1.129021e+02
<STATE> 4
<MEAN> 25
 -2.858679e-01 -1.420005e-01 1.078993e-01 -4.720470e-02 -9.058056e-02 -3.308426e-01 -6.172948e-02 1.284361e-01 5.526293e-02 8.172107e-02 6.146483e-02 4.834528e-02 3.541665e-03 -5.094883e-04 4.121235e-03 -4.782283e-03 -3.712181e-03 -1.113906e-03 -4.319434e-04 -1.230706e-03 -8.055297e-03 3.766059e-04 4.093905e-03 2.142346e-03 3.660337e-03
<VARIANCE> 25
 9.162170e+01 6.053586e+01 7.300417e+01 7.133694e+01 7.853181e+01 7.552037e+01 7.360248e+01 6.490523e+01 6.079874e+01 4.828405e+01 4.652063e+01 3.779921e+01 4.189631e+00 3.272812e+00 3.155452e+00 3.827300e+00 4.380428e+00 4.367109e+00 4.410518e+00 4.190400e+00 3.930786e+00 3.412911e+00 3.235348e+00 2.670227e+00 4.024716e+00
<GCONST> 1.128649e+02
<TRANSP> 5
 0.000000e+00 1.000000e+00 0.000000e+00 0.000000e+00 0.000000e+00
 0.000000e+00 6.522735e-01 3.477265e-01 0.000000e+00 0.000000e+00
 0.000000e+00 0.000000e+00 6.522673e-01 3.477327e-01 0.000000e+00
 0.000000e+00 0.000000e+00 0.000000e+00 7.640705e-01 2.359296e-01
 0.000000e+00 0.000000e+00 0.000000e+00 0.000000e+00 0.000000e+00
<ENDHMM>
~h "v"
<BEGINHMM>
<NUMSTATES> 5
<STATE> 2
<MEAN> 25
 1.048221e+00 9.660304e-02 -2.378211e-01 -1.511423e-01 -4.765321e-01 -1.111497e-01 -5.510618e-01 -4.519105e-01 -1.763464e-01 -2.170036e-01 2.439512e-02 -1.425517e-01 -6.649143e-03 7.469380e-03 -2.015008e-03 7.828774e-03 1.414517e-02 5.819173e-03 1.283333e-02 2.830026e-03 6.452058e-03 -3.989273e-03 5.692362e-03 1.045423e-03 -1.466605e-02
<VARIANCE> 25
 8.643810e+01 5.665459e+01 6.756873e+01 7.124100e+01 7.569954e+01 7.016947e+01 7.009988e+01 6.111734e+01 6.127930e+01 4.769749e+01 4.139246e+01 3.548269e+01 3.898363e+00 3.151843e+00 2.872622e+00 3.725683e+00 4.244338e+00 4.126658e+00 4.135266e+00 3.945650e+00 3.827539e+00 3.387512e+00 3.006320e+00 2.532780e+00 3.439539e+00
<GCONST> 1.114973e+02
<STATE> 3
<MEAN> 25
 1.030793e+00 1.173186e-01 -2.465362e-01 -1.269229e-01 -4.357552e-01 -9.776220e-02 -5.111979e-01 -4.380229e-01 -1.571751e-01 -2.302876e-01 4.255860e-02 -1.413121e-01 -8.433761e-03 7.025171e-03 -2.537301e-03 7.407139e-03 1.555642e-02 5.010858e-03 1.691333e-02 6.165559e-03 6.928233e-03 -6.062212e-03 8.244940e-03 7.671550e-04 -1.706732e-02
<VARIANCE> 25
 8.637574e+01 5.640320e+01 6.731575e+01 7.118581e+01 7.512596e+01 7.010753e+01 6.981345e+01 6.081367e+01 6.105839e+01 4.759744e+01 4.140422e+01 3.541613e+01 3.899764e+00 3.151692e+00 2.872836e+00 3.718307e+00 4.247151e+00 4.110938e+00 4.128673e+00 3.940737e+00 3.816825e+00 3.385779e+00 3.003849e+00 2.527609e+00 3.447385e+00
<GCONST> 1.114513e+02
<STATE> 4
<MEAN> 25
 1.011240e+00 1.443586e-01 -2.469470e-01 -1.047598e-01 -3.780368e-01 -9.512675e-02 -4.541979e-01 -4.030117e-01 -1.389170e-01 -2.538191e-01 8.034186e-02 -1.266661e-01 -8.815021e-03 6.585556e-03 -2.372247e-03 6.734098e-03 1.651717e-02 4.191680e-03 1.999011e-02 9.123524e-03 7.249410e-03 -7.842490e-03 9.968997e-03 9.025905e-04 -1.855303e-02
<VARIANCE> 25
 8.620241e+01 5.581395e+01 6.683723e+01 7.080212e+01 7.416932e+01 6.974140e+01 6.919897e+01 6.041114e+01 6.064597e+01 4.740635e+01 4.130688e+01 3.527365e+01 3.869425e+00 3.120017e+00 2.850363e+00 3.661509e+00 4.204330e+00 4.035869e+00 4.085005e+00 3.926135e+00 3.794189e+00 3.368840e+00 2.989740e+00 2.507290e+00 3.431441e+00
<GCONST> 1.112631e+02
<TRANSP> 5
 0.000000e+00 1.000000e+00 0.000000e+00 0.000000e+00 0.000000e+00
 0.000000e+00 6.528278e-01 3.471722e-01 0.000000e+00 0.000000e+00
 0.000000e+00 0.000000e+00 6.528282e-01 3.471718e-01 0.000000e+00
 0.000000e+00 0.000000e+00 0.000000e+00 7.648393e-01 2.351606e-01
 0.000000e+00 0.000000e+00 0.000000e+00 0.000000e+00 0.000000e+00
<ENDHMM>
~h "w"
<BEGINHMM>
<NUMSTATES> 5
<STATE> 2
<MEAN> 25
 7.001464e-01 8.714454e-02 -5.840079e-01 -4.183090e-01 9.203622e-02 6.763874e-01 -5.795899e-01 -3.681300e-01 4.191320e-02 5.031816e-01 -1.419979e-02 -1.633444e-01 3.396024e-02 3.187572e-02 9.410596e-03 -7.728406e-05 -3.614171e-03 8.900248e-03 -1.824113e-02 -2.505025e-02 -2.549041e-02 4.589397e-03 -8.011764e-03 -2.481582e-03 6.490879e-03
<VARIANCE> 25
 8.417831e+01 5.655474e+01 6.926985e+01 7.513291e+01 7.291216e+01 7.016984e+01 7.184970e+01 6.272906e+01 6.373327e+01 4.837804e+01 4.623977e+01 3.848544e+01 3.523177e+00 3.097570e+00 3.183112e+00 3.871382e+00 4.185278e+00 4.274178e+00 4.292219e+00 4.193307e+00 3.906609e+00 3.505665e+00 3.199768e+00 2.594790e+00 3.485165e+00
<GCONST> 1.121018e+02
<STATE> 3
<MEAN> 25
 7.708553e-01 1.670974e-01 -5.409222e-01 -4.170825e-01 7.978442e-02 6.813589e-01 -6.280952e-01 -4.214832e-01 -2.026876e-02 5.034879e-01 -3.789477e-02 -1.817793e-01 2.019135e-02 2.660001e-02 1.550652e-02 1.806511e-03 -3.823184e-03 6.936116e-04 -1.719187e-02 -1.807266e-02 -1.771086e-02 -1.080657e-03 -5.737934e-03 -5.306215e-03 1.678249e-02
<VARIANCE> 25
 8.438296e+01 5.612822e+01 6.920424e+01 7.545911e+01 7.284275e+01 7.037148e+01 7.253616e+01 6.307116e+01 6.393502e+01 4.818938e+01 4.638145e+01 3.834715e+01 3.562672e+00 3.113173e+00 3.178226e+00 3.896630e+00 4.215285e+00 4.288540e+00 4.349442e+00 4.213752e+00 3.912990e+00 3.513994e+00 3.208114e+00 2.596987e+00 3.510034e+00
<GCONST> 1.121800e+02
<STATE> 4
<MEAN> 25
 7.944239e-01 2.539571e-01 -4.688838e-01 -4.086336e-01 6.006384e-02 6.504691e-01 -6.774193e-01 -4.717031e-01 -4.072467e-02 4.910966e-01 -7.419714e-02 -2.077167e-01 5.238194e-03 1.472770e-02 1.584604e-02 3.138782e-03 -2.439800e-03 -6.288451e-03 -1.525046e-02 -9.344709e-03 -5.679552e-03 -5.310248e-03 -2.834290e-03 -3.238958e-03 2.566021e-02
<VARIANCE> 25
 8.453583e+01 5.566933e+01 6.857000e+01 7.537722e+01 7.263942e+01 6.998574e+01 7.306971e+01 6.402901e+01 6.329819e+01 4.780140e+01 4.641882e+01 3.815295e+01 3.597841e+00 3.108953e+00 3.136367e+00 3.888683e+00 4.220807e+00 4.265047e+00 4.386596e+00 4.226966e+00 3.878665e+00 3.506455e+00 3.202307e+00 2.596648e+00 3.530429e+00
<GCONST> 1.121486e+02
<TRANSP> 5
 0.000000e+00 1.000000e+00 0.000000e+00 0.000000e+00 0.000000e+00
 0.000000e+00 6.547291e-01 3.452709e-01 0.000000e+00 0.000000e+00
 0.000000e+00 0.000000e+00 6.547327e-01 3.452673e-01 0.000000e+00
 0.000000e+00 0.000000e+00 0.000000e+00 7.671298e-01 2.328701e-01
 0.000000e+00 0.000000e+00 0.000000e+00 0.000000e+00 0.000000e+00
<ENDHMM>
~h "y"
<BEGINHMM>
<NUMSTATES> 5
<STATE> 2
<MEAN> 25
 1.167288e-01 4.504265e-01 5.432634e-01 8.479650e-01 -4.381426e-01 -6.829534e-01 -3.057021e-01 -3.603968e-01 -2.941425e-01 -4.671151e-02 5.463200e-01 1.859330e-02 2.963171e-02 -6.414307e-03 -4.823328e-03 -1.571327e-02 -2.238236e-02 -1.601092e-02 -2.162776e-02 -1.205913e-02 -9.289096e-03 -2.258746e-03 -2.299199e-02 -3.041643e-02 6.209190e-02
<VARIANCE> 25
 8.905869e+01 5.789960e+01 7.880072e+01 6.196024e+01 7.728707e+01 7.825512e+01 7.213028e+01 6.787192e+01 6.477529e+01 5.382455e+01 4.714135e+01 3.820831e+01 3.509554e+00 2.980304e+00 3.195537e+00 3.334406e+00 4.083916e+00 4.218644e+00 4.097921e+00 4.176836e+00 3.832580e+00 3.524829e+00 3.038200e+00 2.636486e+00 3.505244e+00
<GCONST> 1.121833e+02
<STATE> 3
<MEAN> 25
 1.932782e-01 4.247990e-01 5.551986e-01 8.072660e-01 -5.179130e-01 -7.341597e-01 -3.672531e-01 -3.960105e-01 -3.416142e-01 -5.052052e-02 4.835367e-01 -8.089868e-02 2.673035e-02 -8.076278e-03 -1.538357e-03 -1.612674e-02 -2.498148e-02 -1.403713e-02 -2.169684e-02 -1.081916e-02 -1.253941e-02 2.784137e-03 -2.196445e-02 -3.678751e-02 5.926484e-02
<VARIANCE> 25
 8.969275e+01 5.745200e+01 8.043562e+01 6.172383e+01 7.781949e+01 7.812925e+01 7.235646e+01 6.782510e+01 6.465686e+01 5.375597e+01 4.746525e+01 3.801089e+01 3.508458e+00 2.972942e+00 3.193372e+00 3.320198e+00 4.078785e+00 4.208122e+00 4.090105e+00 4.197234e+00 3.840704e+00 3.521873e+00 3.046591e+00 2.630005e+00 3.503519e+00
<GCONST> 1.121982e+02
<STATE> 4
<MEAN> 25
 2.800078e-01 4.080789e-01 6.133099e-01 7.319205e-01 -6.264101e-01 -7.518979e-01 -4.286993e-01 -4.856188e-01 -4.060906e-01 -5.708951e-02 4.381131e-01 -2.581162e-01 1.977964e-02 -1.274581e-02 6.692254e-03 -1.622116e-02 -2.916757e-02 -1.056760e-02 -1.697756e-02 -8.075641e-03 -2.141190e-02 5.822281e-03 -1.785087e-02 -3.862505e-02 5.297908e-02
<VARIANCE> 25
 9.002654e+01 5.697968e+01 8.246236e+01 6.122927e+01 7.876427e+01 7.749117e+01 7.176524e+01 6.828317e+01 6.457940e+01 5.358895e+01 4.805009e+01 3.798372e+01 3.491199e+00 2.948040e+00 3.145210e+00 3.290030e+00 4.035856e+00 4.134584e+00 4.014936e+00 4.199388e+00 3.824619e+00 3.497212e+00 3.056133e+00 2.610897e+00 3.492991e+00
<GCONST> 1.121178e+02
<TRANSP> 5
 0.000000e+00 1.000000e+00 0.000000e+00 0.000000e+00 0.000000e+00
 0.000000e+00 6.628808e-01 3.371192e-01 0.000000e+00 0.000000e+00
 0.000000e+00 0.000000e+00 6.628803e-01 3.371197e-01 0.000000e+00
 0.000000e+00 0.000000e+00 0.000000e+00 7.777528e-01 2.222472e-01
 0.000000e+00 0.000000e+00 0.000000e+00 0.000000e+00 0.000000e+00
<ENDHMM>
~h "z"
<BEGINHMM>
<NUMSTATES> 5
<STATE> 2
<MEAN> 25
 -4.968058e-01 6.754246e-01 -1.139021e-01 -2.143567e-01 1.820807e-01 -1.532568e-01 -1.836976e-01 -8.491112e-02 2.038675e-01 1.330699e-01 -3.692850e-02 2.363626e-01 -4.933059e-03 -8.125318e-04 6.269820e-03 -6.355993e-04 9.986520e-03 -9.436620e-03 5.152887e-03 1.121860e-02 -1.389522e-02 -6.182989e-03 -7.928516e-03 2.597984e-03 5.972280e-03
<VARIANCE> 25
 9.583048e+01 6.662465e+01 6.685666e+01 7.445463e+01 7.649405e+01 7.531713e+01 7.254656e+01 6.830231e+01 6.003862e+01 4.610432e+01 4.715310e+01 3.929687e+01 4.477325e+00 3.494888e+00 2.915607e+00 3.730330e+00 4.423343e+00 4.261266e+00 4.297598e+00 4.197316e+00 3.737990e+00 3.363925e+00 3.099678e+00 2.666683e+00 3.486021e+00
<GCONST> 1.126973e+02
<STATE> 3
<MEAN> 25
 -5.112299e-01 6.662650e-01 -9.943777e-02 -2.179967e-01 2.217931e-01 -1.726067e-01 -1.692403e-01 -5.152991e-02 1.675361e-01 1.173425e-01 -5.905681e-02 2.437590e-01 -3.533660e-03 -3.102812e-03 5.192407e-03 1.718242e-04 1.490474e-02 -5.063120e-03 4.446545e-03 1.189346e-02 -1.279961e-02 -5.236248e-03 -7.276186e-03 2.669495e-03 -1.793948e-03
<VARIANCE> 25
 9.578790e+01 6.654173e+01 6.691461e+01 7.417452e+01 7.666978e+01 7.514653e+01 7.261922e+01 6.821170e+01 6.015886e+01 4.622796e+01 4.709718e+01 3.934321e+01 4.464567e+00 3.492779e+00 2.910329e+00 3.704876e+00 4.402164e+00 4.250238e+00 4.291182e+00 4.181521e+00 3.731628e+00 3.359305e+00 3.089218e+00 2.670315e+00 3.477080e+00
<GCONST> 1.126646e+02
<STATE> 4
<MEAN> 25
 -5.140436e-01 6.424280e-01 -8.423135e-02 -2.345505e-01 2.710491e-01 -1.577855e-01 -1.564173e-01 -8.962748e-03 1.132155e-01 9.905066e-02 -9.179442e-02 2.529837e-01 3.220540e-03 -8.836690e-03 2.315676e-03 1.902501e-04 1.584150e-02 -1.239060e-03 1.741610e-03 1.008584e-02 -9.945657e-03 -4.871699e-03 -5.719996e-03 1.064827e-03 -7.991282e-03
<VARIANCE> 25
 9.573472e+01 6.627144e+01 6.719454e+01 7.366424e+01 7.692364e+01 7.467670e+01 7.262363e+01 6.790083e+01 6.017529e+01 4.641209e+01 4.712579e+01 3.944254e+01 4.412580e+00 3.455846e+00 2.889468e+00 3.658579e+00 4.336237e+00 4.218713e+00 4.259746e+00 4.151446e+00 3.712709e+00 3.343144e+00 3.074772e+00 2.658019e+00 3.469372e+00
<GCONST> 1.125565e+02
<TRANSP> 5
 0.000000e+00 1.000000e+00 0.000000e+00 0.000000e+00 0.000000e+00
 0.000000e+00 6.479375e-01 3.520626e-01 0.000000e+00 0.000000e+00
 0.000000e+00 0.000000e+00 6.479405e-01 3.520594e-01 0.000000e+00
 0.000000e+00 0.000000e+00 0.000000e+00 7.586464e-01 2.413537e-01
 0.000000e+00 0.000000e+00 0.000000e+00 0.000000e+00 0.000000e+00
<ENDHMM>
~h "aa"
<BEGINHMM>
<NUMSTATES> 5
<STATE> 2
<MEAN> 25
 9.703028e-01 -4.424415e-01 -8.783005e-01 -6.057210e-01 9.877335e-01 9.706715e-01 -4.678927e-01 1.494019e-01 4.193679e-01 8.804264e-02 -1.564043e-01 -1.775502e-01 9.788703e-03 -1.361839e-02 4.208348e-03 -2.701319e-03 1.575867e-03 -5.109706e-03 -1.761078e-02 9.630938e-03 -2.468575e-03 -6.051918e-03 -3.604794e-03 -1.849617e-03 2.162720e-02
<VARIANCE> 25
 8.386893e+01 6.191124e+01 7.134169e+01 7.532294e+01 7.760908e+01 7.765514e+01 7.549593e+01 6.553529e+01 6.045575e+01 4.891899e+01 5.121719e+01 4.111720e+01 3.444514e+00 3.376141e+00 3.028112e+00 3.887513e+00 4.145702e+00 4.277508e+00 4.295567e+00 4.115344e+00 3.881277e+00 3.430763e+00 3.239638e+00 2.648335e+00 3.680554e+00
<GCONST> 1.126547e+02
<STATE> 3
<MEAN> 25
 9.877800e-01 -4.822963e-01 -8.615938e-01 -6.091580e-01 9.890296e-01 9.416595e-01 -5.212860e-01 1.767433e-01 4.180332e-01 7.300805e-02 -1.752078e-01 -1.812143e-01 6.129553e-03 -1.439901e-02 4.845817e-03 -1.000025e-03 -3.674480e-03 -1.280512e-02 -1.977178e-02 9.935698e-03 -1.405601e-03 -6.099762e-03 -5.405296e-03 -2.018851e-03 2.406546e-02
<VARIANCE> 25
 8.381647e+01 6.213013e+01 7.163316e+01 7.510882e+01 7.766568e+01 7.800728e+01 7.549067e+01 6.590973e+01 6.049111e+01 4.902741e+01 5.144310e+01 4.109155e+01 3.459194e+00 3.383824e+00 3.034838e+00 3.900113e+00 4.166548e+00 4.291753e+00 4.309513e+00 4.137214e+00 3.876764e+00 3.437137e+00 3.250652e+00 2.665797e+00 3.696997e+00
<GCONST> 1.127203e+02
<STATE> 4
<MEAN> 25
 9.587703e-01 -5.046516e-01 -8.192508e-01 -6.025072e-01 9.590441e-01 8.196194e-01 -5.706159e-01 2.144870e-01 4.119782e-01 4.896884e-02 -2.347670e-01 -1.932800e-01 -2.157531e-03 -1.095517e-02 4.351216e-03 3.116187e-03 -2.606012e-03 -1.912255e-02 -1.581788e-02 1.090212e-02 -6.815364e-04 -3.819746e-03 -7.029244e-03 4.451979e-04 1.753381e-02
<VARIANCE> 25
 8.372133e+01 6.251341e+01 7.198601e+01 7.460609e+01 7.782944e+01 7.820928e+01 7.521928e+01 6.624631e+01 6.052170e+01 4.953054e+01 5.184764e+01 4.106477e+01 3.467491e+00 3.370426e+00 3.032470e+00 3.878781e+00 4.157941e+00 4.284167e+00 4.281871e+00 4.126681e+00 3.850385e+00 3.438069e+00 3.253934e+00 2.674426e+00 3.663051e+00
<GCONST> 1.127154e+02
<TRANSP> 5
 0.000000e+00 1.000000e+00 0.000000e+00 0.000000e+00 0.000000e+00
 0.000000e+00 6.535189e-01 3.464811e-01 0.000000e+00 0.000000e+00
 0.000000e+00 0.000000e+00 6.535200e-01 3.464800e-01 0.000000e+00
 0.000000e+00 0.000000e+00 0.000000e+00 7.654975e-01 2.345025e-01
 0.000000e+00 0.000000e+00 0.000000e+00 0.000000e+00 0.000000e+00
<ENDHMM>
~h "ae"
<BEGINHMM>
<NUMSTATES> 5
<STATE> 2
<MEAN> 25
 6.553221e-02 -9.348370e-01 -1.551706e-01 4.630591e-01 -4.545498e-01 -3.807816e-01 5.488471e-01 4.621893e-01 4.039926e-01 -5.096289e-01 -5.980514e-01 -1.215628e-01 -2.601082e-04 1.175479e-02 -4.837821e-03 -7.082922e-03 5.185843e-03 -8.960851e-03 -1.019934e-03 7.623385e-03 -2.649484e-03 -1.538148e-04 9.113754e-04 -2.813215e-03 1.491260e-02
<VARIANCE> 25
 8.334043e+01 6.708475e+01 6.815935e+01 6.531365e+01 7.841949e+01 6.837760e+01 7.250716e+01 6.477955e+01 6.090625e+01 5.040760e+01 4.799512e+01 4.139570e+01 3.763968e+00 3.407344e+00 2.917560e+00 3.561982e+00 4.276879e+00 4.028911e+00 4.180427e+00 4.048399e+00 3.714473e+00 3.353397e+00 3.111329e+00 2.682857e+00 3.918028e+00
<GCONST> 1.122201e+02
<STATE> 3
<MEAN> 25
 6.634292e-02 -8.954325e-01 -1.734527e-01 4.463731e-01 -4.284871e-01 -4.097745e-01 5.451748e-01 4.748466e-01 3.995735e-01 -5.070568e-01 -5.946403e-01 -1.205150e-01 -4.929352e-04 1.515663e-02 -6.337491e-03 -5.953603e-03 1.011203e-02 -8.318730e-03 -9.918293e-04 1.983865e-03 -1.165511e-03 1.643362e-03 2.477730e-03 1.090766e-03 6.107443e-03
<VARIANCE> 25
 8.387431e+01 6.715936e+01 6.838087e+01 6.561529e+01 7.827775e+01 6.865307e+01 7.256955e+01 6.480305e+01 6.062244e+01 5.030204e+01 4.830284e+01 4.170794e+01 3.788060e+00 3.405739e+00 2.925028e+00 3.567639e+00 4.287169e+00 4.045188e+00 4.183604e+00 4.039739e+00 3.710503e+00 3.354672e+00 3.117509e+00 2.685628e+00 3.891347e+00
<GCONST> 1.122566e+02
<STATE> 4
<MEAN> 25
 6.822923e-02 -8.380123e-01 -1.692833e-01 4.122750e-01 -3.950917e-01 -4.617759e-01 5.221851e-01 4.501573e-01 3.819468e-01 -5.046031e-01 -6.150391e-01 -1.044306e-01 -2.940271e-03 1.946380e-02 -4.102593e-03 -5.757668e-03 1.577895e-02 -6.020883e-03 -2.418082e-03 6.849793e-04 2.124051e-03 5.553178e-03 5.736625e-03 4.904538e-03 -8.196160e-03
<VARIANCE> 25
 8.439538e+01 6.717972e+01 6.904295e+01 6.542939e+01 7.827084e+01 6.891164e+01 7.251664e+01 6.497465e+01 6.042914e+01 5.006165e+01 4.875822e+01 4.195044e+01 3.785989e+00 3.379069e+00 2.937902e+00 3.541356e+00 4.282986e+00 4.034548e+00 4.167337e+00 4.021521e+00 3.688297e+00 3.343880e+00 3.105824e+00 2.680750e+00 3.844367e+00
<GCONST> 1.122323e+02
<TRANSP> 5
 0.000000e+00 1.000000e+00 0.000000e+00 0.000000e+00 0.000000e+00
 0.000000e+00 6.509265e-01 3.490736e-01 0.000000e+00 0.000000e+00
 0.000000e+00 0.000000e+00 6.509312e-01 3.490688e-01 0.000000e+00
 0.000000e+00 0.000000e+00 0.000000e+00 7.625980e-01 2.374020e-01
 0.000000e+00 0.000000e+00 0.000000e+00 0.000000e+00 0.000000e+00
<ENDHMM>
~h "ah"
<BEGINHMM>
<NUMSTATES> 5
<STATE> 2
<MEAN> 25
 7.857170e-02 -2.890675e-02 -9.015471e-02 -1.141251e-01 7.043800e-02 3.675695e-03 -8.850676e-02 -8.476601e-02 2.169540e-02 -6.042172e-02 -9.292418e-02 -1.740911e-02 1.045222e-03 3.656421e-03 8.081586e-04 1.414229e-03 7.324276e-03 3.822966e-03 3.633361e-03 -1.497285e-03 -3.851014e-04 -3.349811e-03 -1.632964e-05 2.793952e-03 -4.368335e-03
<VARIANCE> 25
 9.078935e+01 5.961202e+01 6.840123e+01 7.181639e+01 7.646475e+01 7.040287e+01 7.232102e+01 6.433475e+01 6.080932e+01 4.776180e+01 4.444827e+01 3.880165e+01 4.065805e+00 3.202969e+00 2.887369e+00 3.757005e+00 4.151920e+00 4.115352e+00 4.240292e+00 4.242362e+00 3.853504e+00 3.381616e+00 3.059985e+00 2.675328e+00 3.620657e+00
<GCONST> 1.121410e+02
<STATE> 3
<MEAN> 25
 8.355176e-02 -1.820002e-02 -8.865753e-02 -1.116447e-01 8.609054e-02 1.403406e-02 -7.987021e-02 -8.942696e-02 2.097046e-02 -7.185948e-02 -9.490293e-02 -1.057898e-02 1.535175e-03 3.296883e-03 4.144987e-04 4.598758e-04 4.721360e-03 2.831727e-03 2.689428e-03 -1.732966e-03 -7.340465e-04 -4.269375e-03 -1.170773e-03 2.388981e-03 -2.973753e-03
<VARIANCE> 25
 9.056753e+01 5.964948e+01 6.821304e+01 7.177762e+01 7.648106e+01 7.039647e+01 7.225056e+01 6.429174e+01 6.080003e+01 4.787563e+01 4.440598e+01 3.886019e+01 4.062167e+00 3.205219e+00 2.885459e+00 3.751767e+00 4.156740e+00 4.119158e+00 4.243581e+00 4.240509e+00 3.864560e+00 3.384528e+00 3.062623e+00 2.677296e+00 3.631954e+00
<GCONST> 1.121458e+02
<STATE> 4
<MEAN> 25
 1.008128e-01 -9.811189e-03 -8.777420e-02 -1.081670e-01 9.590542e-02 2.505086e-02 -7.066199e-02 -9.803943e-02 1.072229e-02 -8.465213e-02 -1.023872e-01 -7.481636e-03 1.362535e-03 1.919043e-03 -4.400777e-04 -1.006192e-03 8.733136e-04 1.625969e-03 9.700439e-04 -1.376370e-03 -1.412660e-03 -5.671393e-03 -2.264297e-03 9.363707e-04 2.184210e-04
<VARIANCE> 25
 9.022411e+01 5.957531e+01 6.796020e+01 7.130917e+01 7.642339e+01 7.006393e+01 7.187361e+01 6.428849e+01 6.072389e+01 4.802488e+01 4.431211e+01 3.887223e+01 4.024436e+00 3.191680e+00 2.873225e+00 3.716107e+00 4.134773e+00 4.088355e+00 4.211620e+00 4.229464e+00 3.858599e+00 3.375235e+00 3.054394e+00 2.669889e+00 3.635850e+00
<GCONST> 1.120608e+02
<TRANSP> 5
 0.000000e+00 1.000000e+00 0.000000e+00 0.000000e+00 0.000000e+00
 0.000000e+00 6.511959e-01 3.488041e-01 0.000000e+00 0.000000e+00
 0.000000e+00 0.000000e+00 6.511942e-01 3.488058e-01 0.000000e+00
 0.000000e+00 0.000000e+00 0.000000e+00 7.630574e-01 2.369426e-01
 0.000000e+00 0.000000e+00 0.000000e+00 0.000000e+00 0.000000e+00
<ENDHMM>
~h "ao"
<BEGINHMM>
<NUMSTATES> 5
<STATE> 2
<MEAN> 25
 9.426206e-01 -3.411601e-01 -2.501704e+00 -1.345782e+00 9.687347e-01 9.524301e-01 -5.037943e-01 1.634700e-01 2.392486e-01 -3.460657e-01 3.405890e-01 7.442311e-02 -2.111878e-02 1.671202e-02 1.084593e-02 1.642176e-03 1.117218e-02 8.133959e-03 1.732481e-03 6.812450e-05 1.380568e-02 1.368587e-02 8.688289e-04 2.823557e-03 -1.086882e-02
<VARIANCE> 25
 9.615299e+01 5.597829e+01 7.480080e+01 9.481104e+01 7.964139e+01 7.756626e+01 7.963930e+01 6.559854e+01 5.913457e+01 5.173146e+01 4.388707e+01 4.079700e+01 4.022745e+00 3.070269e+00 3.036187e+00 4.171885e+00 4.083993e+00 4.309935e+00 4.483819e+00 4.074498e+00 3.763420e+00 3.417928e+00 3.083006e+00 2.731656e+00 3.449765e+00
<GCONST> 1.129598e+02
<STATE> 3
<MEAN> 25
 8.889163e-01 -2.932577e-01 -2.466342e+00 -1.338634e+00 1.004222e+00 9.738211e-01 -5.079569e-01 1.630443e-01 2.805192e-01 -3.001136e-01 3.364769e-01 7.813777e-02 -2.027033e-02 1.926402e-02 1.637419e-02 6.858097e-03 9.750225e-03 6.369967e-03 9.070287e-04 -1.898322e-03 1.267532e-02 1.901420e-02 -3.345291e-03 -1.386994e-03 -1.639485e-02
<VARIANCE> 25
 9.716765e+01 5.588699e+01 7.432419e+01 9.480468e+01 7.978802e+01 7.744875e+01 7.976783e+01 6.590043e+01 5.894392e+01 5.163296e+01 4.392999e+01 4.036499e+01 4.031203e+00 3.059969e+00 3.018564e+00 4.176064e+00 4.083111e+00 4.290212e+00 4.468823e+00 4.071859e+00 3.754095e+00 3.417921e+00 3.084794e+00 2.708200e+00 3.401480e+00
<GCONST> 1.129144e+02
<STATE> 4
<MEAN> 25
 8.118304e-01 -2.380384e-01 -2.410430e+00 -1.315568e+00 1.059136e+00 1.006080e+00 -5.227292e-01 1.481790e-01 3.555740e-01 -2.164546e-01 3.040836e-01 5.391531e-02 -1.675653e-02 2.041919e-02 1.932570e-02 1.204515e-02 9.425303e-03 5.090027e-03 3.432466e-03 -4.476156e-03 1.350354e-02 2.507477e-02 -8.849175e-03 -5.270067e-03 -2.425114e-02
<VARIANCE> 25
 9.830669e+01 5.582552e+01 7.400795e+01 9.463120e+01 8.048373e+01 7.660508e+01 8.012858e+01 6.631291e+01 5.866378e+01 5.172611e+01 4.445605e+01 3.973935e+01 4.026166e+00 3.029766e+00 2.982992e+00 4.151288e+00 4.064735e+00 4.224830e+00 4.425817e+00 4.060682e+00 3.721068e+00 3.412126e+00 3.092382e+00 2.663988e+00 3.337089e+00
<GCONST> 1.128158e+02
<TRANSP> 5
 0.000000e+00 1.000000e+00 0.000000e+00 0.000000e+00 0.000000e+00
 0.000000e+00 6.532090e-01 3.467910e-01 0.000000e+00 0.000000e+00
 0.000000e+00 0.000000e+00 6.532105e-01 3.467895e-01 0.000000e+00
 0.000000e+00 0.000000e+00 0.000000e+00 7.654844e-01 2.345156e-01
 0.000000e+00 0.000000e+00 0.000000e+00 0.000000e+00 0.000000e+00
<ENDHMM>
~h "aw"
<BEGINHMM>
<NUMSTATES> 5
<STATE> 2
<MEAN> 25
 1.447855e+00 -1.225155e+00 -1.065223e+00 -9.808099e-01 3.383065e-02 5.738982e-01 -5.068774e-01 -6.650050e-01 6.259554e-02 -3.057871e-01 -5.114585e-01 -1.063792e+00 1.974915e-02 -8.426461e-03 6.325156e-03 2.097461e-03 -7.172058e-04 1.173141e-03 -3.093667e-03 -1.933496e-03 -2.745595e-03 2.842919e-03 9.136767e-03 2.323752e-03 8.383742e-03
<VARIANCE> 25
 7.974077e+01 6.978600e+01 6.808182e+01 6.739159e+01 8.484783e+01 7.463290e+01 7.167434e+01 6.434977e+01 5.982022e+01 4.992531e+01 5.069992e+01 4.144144e+01 3.439374e+00 3.217089e+00 3.059984e+00 3.634737e+00 4.373248e+00 3.813998e+00 4.260033e+00 4.110921e+00 3.881441e+00 3.431657e+00 3.137892e+00 2.822405e+00 3.414775e+00
<GCONST> 1.123327e+02
<STATE> 3
<MEAN> 25
 1.499148e+00 -1.237115e+00 -1.039790e+00 -9.730355e-01 2.633783e-02 5.669342e-01 -5.175728e-01 -6.739948e-01 5.306023e-02 -2.935785e-01 -4.870976e-01 -1.048184e+00 1.728516e-02 -2.904088e-03 8.635776e-03 5.712296e-03 -3.056200e-03 -1.869052e-03 -2.720844e-03 -9.367755e-04 -2.303609e-03 2.112392e-03 6.166995e-03 9.244396e-03 2.162961e-03
<VARIANCE> 25
 7.988804e+01 6.946608e+01 6.895626e+01 6.742838e+01 8.513675e+01 7.435128e+01 7.158573e+01 6.415624e+01 5.969837e+01 4.989422e+01 5.084622e+01 4.172260e+01 3.417661e+00 3.209481e+00 3.084327e+00 3.642577e+00 4.373111e+00 3.811036e+00 4.259689e+00 4.110672e+00 3.856698e+00 3.448752e+00 3.137556e+00 2.828474e+00 3.418622e+00
<GCONST> 1.123477e+02
<STATE> 4
<MEAN> 25
 1.498713e+00 -1.210231e+00 -9.990930e-01 -9.644722e-01 -3.015943e-02 4.762764e-01 -5.695778e-01 -6.453313e-01 2.568696e-02 -3.014553e-01 -4.808295e-01 -9.894245e-01 1.365041e-02 4.842547e-03 1.126789e-02 1.058313e-02 -6.466652e-03 -8.220498e-03 -3.784416e-03 -2.509178e-04 -3.809880e-03 1.915064e-03 3.243728e-03 1.582312e-02 -3.673492e-03
<VARIANCE> 25
 7.993737e+01 6.842550e+01 6.976611e+01 6.674795e+01 8.537833e+01 7.398502e+01 7.108570e+01 6.401759e+01 5.923678e+01 5.012696e+01 5.111039e+01 4.183809e+01 3.368555e+00 3.196009e+00 3.121734e+00 3.631607e+00 4.369555e+00 3.798193e+00 4.215521e+00 4.123892e+00 3.803068e+00 3.462337e+00 3.131860e+00 2.823235e+00 3.427242e+00
<GCONST> 1.122961e+02
<TRANSP> 5
 0.000000e+00 1.000000e+00 0.000000e+00 0.000000e+00 0.000000e+00
 0.000000e+00 6.626700e-01 3.373300e-01 0.000000e+00 0.000000e+00
 0.000000e+00 0.000000e+00 6.626688e-01 3.373312e-01 0.000000e+00
 0.000000e+00 0.000000e+00 0.000000e+00 7.771556e-01 2.228445e-01
 0.000000e+00 0.000000e+00 0.000000e+00 0.000000e+00 0.000000e+00
<ENDHMM>
~h "ay"
<BEGINHMM>
<NUMSTATES> 5
<STATE> 2
<MEAN> 25
 4.648692e-01 -1.014010e+00 -8.961950e-01 -4.328556e-01 3.911089e-01 6.281306e-01 4.179225e-01 4.352462e-01 4.743083e-01 6.952190e-02 -2.329896e-01 -9.925435e-02 1.290126e-02 1.547127e-02 -6.627866e-03 -1.603686e-02 -1.263276e-02 -1.959533e-04 7.409514e-03 -2.214423e-02 -2.250852e-02 2.703035e-03 -1.113395e-02 -6.083109e-03 3.793541e-02
<VARIANCE> 25
 7.739908e+01 6.550487e+01 6.605406e+01 6.673280e+01 7.302811e+01 7.167529e+01 6.858012e+01 6.515536e+01 5.859957e+01 4.597415e+01 4.868610e+01 4.103552e+01 3.379629e+00 3.254765e+00 2.984804e+00 3.486022e+00 3.969967e+00 4.054617e+00 3.965268e+00 4.052964e+00 3.746307e+00 3.303075e+00 3.050578e+00 2.631973e+00 3.512780e+00
<GCONST> 1.114865e+02
<STATE> 3
<MEAN> 25
 5.088812e-01 -9.788243e-01 -9.227557e-01 -4.824206e-01 3.524141e-01 6.204867e-01 4.336416e-01 3.708482e-01 4.073028e-01 7.936211e-02 -2.705780e-01 -1.270212e-01 1.385211e-02 1.318191e-02 -8.150130e-03 -1.540171e-02 -1.350555e-02 -5.198733e-03 4.406256e-03 -2.380733e-02 -2.222770e-02 1.647006e-03 -1.325154e-02 -8.839322e-03 4.329588e-02
<VARIANCE> 25
 7.766467e+01 6.554759e+01 6.646793e+01 6.653803e+01 7.303233e+01 7.209611e+01 6.868442e+01 6.516984e+01 5.870984e+01 4.611541e+01 4.862171e+01 4.081044e+01 3.393041e+00 3.255465e+00 2.991907e+00 3.482554e+00 3.975809e+00 4.037837e+00 3.969024e+00 4.081494e+00 3.760576e+00 3.317542e+00 3.054885e+00 2.631440e+00 3.505818e+00
<GCONST> 1.115179e+02
<STATE> 4
<MEAN> 25
 5.709736e-01 -8.959261e-01 -9.563040e-01 -5.516533e-01 2.923695e-01 5.678011e-01 4.107245e-01 2.907363e-01 2.722703e-01 8.823353e-02 -3.263193e-01 -1.671361e-01 1.326704e-02 8.621263e-03 -4.153503e-03 -1.121464e-02 -1.443052e-02 -1.319424e-02 -2.338244e-03 -2.382953e-02 -2.253107e-02 -2.363386e-03 -1.573816e-02 -1.023045e-02 4.728527e-02
<VARIANCE> 25
 7.800195e+01 6.531551e+01 6.681885e+01 6.644762e+01 7.348209e+01 7.231773e+01 6.895626e+01 6.549091e+01 5.905458e+01 4.631426e+01 4.849527e+01 4.059866e+01 3.387295e+00 3.242235e+00 2.994972e+00 3.461232e+00 3.977084e+00 3.999744e+00 3.965885e+00 4.116957e+00 3.775236e+00 3.339875e+00 3.056742e+00 2.635485e+00 3.481852e+00
<GCONST> 1.115368e+02
<TRANSP> 5
 0.000000e+00 1.000000e+00 0.000000e+00 0.000000e+00 0.000000e+00
 0.000000e+00 6.575618e-01 3.424381e-01 0.000000e+00 0.000000e+00
 0.000000e+00 0.000000e+00 6.575611e-01 3.424389e-01 0.000000e+00
 0.000000e+00 0.000000e+00 0.000000e+00 7.705726e-01 2.294274e-01
 0.000000e+00 0.000000e+00 0.000000e+00 0.000000e+00 0.000000e+00
<ENDHMM>
~h "ch"
<BEGINHMM>
<NUMSTATES> 5
<STATE> 2
<MEAN> 25
 -1.689796e+00 -3.705164e-01 5.190681e-01 -4.981875e-02 -3.756218e-01 2.419321e-01 4.652602e-01 4.239054e-02 -1.769824e-01 4.747695e-02 4.885524e-01 2.914308e-01 -7.362916e-03 -3.659343e-03 4.931980e-02 -1.326947e-02 -3.355931e-02 1.558287e-02 4.969975e-04 5.304859e-03 -1.297723e-02 -1.441191e-03 -4.371087e-03 -1.816924e-02 1.400820e-02
<VARIANCE> 25
 1.004418e+02 5.722380e+01 7.101785e+01 6.489841e+01 6.752747e+01 6.152407e+01 7.215376e+01 5.789560e+01 5.583008e+01 4.405859e+01 4.224782e+01 3.882835e+01 4.788320e+00 2.985768e+00 3.025904e+00 3.642196e+00 4.133261e+00 4.316589e+00 4.213501e+00 3.914040e+00 3.753912e+00 3.177253e+00 2.977330e+00 2.520287e+00 3.624607e+00
<GCONST> 1.114454e+02
<STATE> 3
<MEAN> 25
 -1.685194e+00 -3.825862e-01 6.513854e-01 -9.195296e-02 -4.682716e-01 2.898025e-01 4.591991e-01 3.612933e-02 -2.198043e-01 3.751782e-02 4.650586e-01 2.312513e-01 1.118637e-02 -1.204571e-03 4.341127e-02 -1.243333e-02 -2.949602e-02 1.633781e-02 -3.683255e-03 -1.652310e-03 -1.486524e-02 -3.394427e-03 -8.136907e-03 -2.118662e-02 1.322777e-02
<VARIANCE> 25
 9.936545e+01 5.740649e+01 7.158968e+01 6.545474e+01 6.775623e+01 6.205262e+01 7.193556e+01 5.815005e+01 5.627023e+01 4.401107e+01 4.288060e+01 3.909395e+01 4.751397e+00 2.982917e+00 3.031020e+00 3.625469e+00 4.126446e+00 4.343302e+00 4.195017e+00 3.883008e+00 3.749053e+00 3.115582e+00 2.985398e+00 2.528303e+00 3.681564e+00
<GCONST> 1.114772e+02
<STATE> 4
<MEAN> 25
 -1.586385e+00 -3.958659e-01 7.019758e-01 -1.390947e-01 -5.010924e-01 3.543740e-01 4.768180e-01 3.571470e-02 -2.548754e-01 6.622605e-02 3.784577e-01 1.850013e-01 2.635537e-02 1.196876e-03 2.162859e-02 -1.878926e-04 -1.649566e-02 9.871077e-03 -4.707049e-03 -1.681562e-03 -8.774483e-03 -8.961712e-03 -5.728559e-03 -1.893230e-02 9.862518e-03
<VARIANCE> 25
 9.727674e+01 5.711369e+01 7.176659e+01 6.583320e+01 6.815816e+01 6.231743e+01 7.185545e+01 5.913225e+01 5.696834e+01 4.413939e+01 4.401965e+01 3.981827e+01 4.619621e+00 2.933563e+00 3.030903e+00 3.561686e+00 4.108911e+00 4.332512e+00 4.165514e+00 3.883344e+00 3.749542e+00 3.063274e+00 2.977115e+00 2.540206e+00 3.733898e+00
<GCONST> 1.114676e+02
<TRANSP> 5
 0.000000e+00 1.000000e+00 0.000000e+00 0.000000e+00 0.000000e+00
 0.000000e+00 6.495283e-01 3.504717e-01 0.000000e+00 0.000000e+00
 0.000000e+00 0.000000e+00 6.495289e-01 3.504711e-01 0.000000e+00
 0.000000e+00 0.000000e+00 0.000000e+00 7.615992e-01 2.384008e-01
 0.000000e+00 0.000000e+00 0.000000e+00 0.000000e+00 0.000000e+00
<ENDHMM>
~h "dh"
<BEGINHMM>
<NUMSTATES> 5
<STATE> 2
<MEAN> 25
 1.032788e-01 5.776333e-02 -2.098228e-01 5.235876e-01 6.306031e-02 -3.462391e-01 -8.350387e-02 -1.171051e-01 4.496075e-01 9.636450e-02 -2.858134e-01 6.539324e-03 2.522575e-03 1.697605e-02 1.178617e-03 -1.190915e-02 -3.946394e-03 -6.264977e-04 -6.978549e-04 -8.647132e-03 1.071693e-03 -6.924821e-03 -1.741858e-03 -6.935533e-03 1.842496e-02
<VARIANCE> 25
 8.251173e+01 5.895564e+01 6.414008e+01 6.893857e+01 7.562245e+01 6.889833e+01 7.057561e+01 6.437480e+01 5.975735e+01 4.574316e+01 4.458656e+01 3.864692e+01 3.627511e+00 3.128840e+00 2.816746e+00 3.706680e+00 4.050402e+00 4.037278e+00 4.158125e+00 4.023372e+00 3.557645e+00 3.223594e+00 3.052052e+00 2.539392e+00 4.014487e+00
<GCONST> 1.114397e+02
<STATE> 3
<MEAN> 25
 1.163114e-01 9.914082e-02 -1.998656e-01 4.851128e-01 4.955509e-02 -3.502173e-01 -9.142963e-02 -1.410349e-01 4.530939e-01 7.172681e-02 -2.861081e-01 -1.352388e-02 4.475760e-03 1.448321e-02 2.215998e-03 -1.262088e-02 -2.801007e-03 -6.123462e-04 -3.553911e-03 -7.010483e-03 2.068666e-03 -8.191853e-03 1.717265e-03 -6.416933e-03 2.739995e-02
<VARIANCE> 25
 8.277716e+01 5.890999e+01 6.416044e+01 6.903968e+01 7.564012e+01 6.914233e+01 7.065609e+01 6.440172e+01 5.962789e+01 4.577376e+01 4.463530e+01 3.875322e+01 3.651725e+00 3.144531e+00 2.810755e+00 3.711135e+00 4.060338e+00 4.056314e+00 4.161146e+00 4.017258e+00 3.564760e+00 3.227449e+00 3.043072e+00 2.544361e+00 4.084236e+00
<GCONST> 1.114881e+02
<STATE> 4
<MEAN> 25
 1.500102e-01 1.480015e-01 -1.456608e-01 4.182915e-01 -9.335334e-04 -3.835398e-01 -1.314237e-01 -1.833514e-01 4.401054e-01 4.040809e-02 -2.783570e-01 -2.401875e-02 7.422826e-03 9.883177e-03 4.653563e-03 -1.321346e-02 -2.764370e-03 -2.412703e-04 -6.956550e-03 -5.828678e-03 1.617773e-03 -7.233105e-03 3.732003e-03 -3.642012e-03 3.582139e-02
<VARIANCE> 25
 8.302230e+01 5.889155e+01 6.436932e+01 6.886030e+01 7.599319e+01 6.895276e+01 7.057316e+01 6.437594e+01 5.932708e+01 4.584954e+01 4.478222e+01 3.886676e+01 3.653499e+00 3.144061e+00 2.801714e+00 3.676737e+00 4.055536e+00 4.046103e+00 4.143090e+00 4.006855e+00 3.566549e+00 3.225549e+00 3.032886e+00 2.541825e+00 4.125181e+00
<GCONST> 1.114772e+02
<TRANSP> 5
 0.000000e+00 1.000000e+00 0.000000e+00 0.000000e+00 0.000000e+00
 0.000000e+00 6.551733e-01 3.448267e-01 0.000000e+00 0.000000e+00
 0.000000e+00 0.000000e+00 6.551725e-01 3.448275e-01 0.000000e+00
 0.000000e+00 0.000000e+00 0.000000e+00 7.678033e-01 2.321967e-01
 0.000000e+00 0.000000e+00 0.000000e+00 0.000000e+00 0.000000e+00
<ENDHMM>
~h "eh"
<BEGINHMM>
<NUMSTATES> 5
<STATE> 2
<MEAN> 25
 -1.450841e-01 8.779178e-02 1.695195e-01 7.017294e-02 -4.105031e-01 -4.426917e-01 2.817525e-01 4.540431e-01 1.812941e-01 1.009399e-01 -1.742018e-01 -3.392780e-02 9.665741e-03 -8.302744e-03 -1.775476e-04 1.526257e-02 7.806525e-03 6.076068e-03 8.245445e-04 3.092939e-03 6.114821e-04 5.310685e-03 -3.140135e-04 2.517689e-03 -3.026897e-02
<VARIANCE> 25
 9.014809e+01 6.029393e+01 6.258204e+01 6.888595e+01 7.818982e+01 6.840536e+01 6.927953e+01 6.600795e+01 5.866847e+01 4.873925e+01 4.538280e+01 3.687596e+01 4.027296e+00 3.334755e+00 2.809029e+00 3.749717e+00 4.166406e+00 4.051756e+00 4.084280e+00 4.195662e+00 3.747723e+00 3.409181e+00 3.087517e+00 2.661452e+00 3.675259e+00
<GCONST> 1.118850e+02
<STATE> 3
<MEAN> 25
 -1.150120e-01 5.813232e-02 1.717943e-01 1.140489e-01 -3.905178e-01 -4.265234e-01 2.833331e-01 4.622374e-01 1.811931e-01 1.137862e-01 -1.749263e-01 -2.382538e-02 9.899912e-03 -1.178470e-02 -4.172107e-04 1.603311e-02 6.978846e-03 8.771407e-03 1.709926e-03 2.772784e-03 2.004195e-03 5.921180e-03 2.003787e-03 3.253443e-03 -3.228863e-02
<VARIANCE> 25
 8.934421e+01 6.032072e+01 6.250844e+01 6.862415e+01 7.771321e+01 6.863400e+01 6.957235e+01 6.562738e+01 5.876204e+01 4.881260e+01 4.511041e+01 3.690255e+01 4.013466e+00 3.335455e+00 2.806458e+00 3.739190e+00 4.148648e+00 4.049279e+00 4.078381e+00 4.185497e+00 3.749610e+00 3.407959e+00 3.083101e+00 2.657042e+00 3.664366e+00
<GCONST> 1.118434e+02
<STATE> 4
<MEAN> 25
 -8.296295e-02 1.668813e-02 1.933141e-01 1.530280e-01 -4.012097e-01 -3.981636e-01 2.874040e-01 4.640653e-01 1.844850e-01 1.203826e-01 -1.551363e-01 1.827464e-03 8.067286e-03 -1.298657e-02 -3.520853e-05 1.466998e-02 6.111154e-03 9.851122e-03 1.581994e-03 1.193606e-03 3.057187e-03 5.399943e-03 4.766059e-03 4.259070e-03 -3.192435e-02
<VARIANCE> 25
 8.774670e+01 6.001597e+01 6.251616e+01 6.816965e+01 7.780346e+01 6.866415e+01 6.979641e+01 6.523447e+01 5.864928e+01 4.892847e+01 4.475191e+01 3.698760e+01 3.953233e+00 3.306025e+00 2.791790e+00 3.693797e+00 4.105943e+00 4.002685e+00 4.042714e+00 4.150469e+00 3.719133e+00 3.387850e+00 3.053619e+00 2.643308e+00 3.629151e+00
<GCONST> 1.116882e+02
<TRANSP> 5
 0.000000e+00 1.000000e+00 0.000000e+00 0.000000e+00 0.000000e+00
 0.000000e+00 6.533680e-01 3.466319e-01 0.000000e+00 0.000000e+00
 0.000000e+00 0.000000e+00 6.533697e-01 3.466303e-01 0.000000e+00
 0.000000e+00 0.000000e+00 0.000000e+00 7.655280e-01 2.344720e-01
 0.000000e+00 0.000000e+00 0.000000e+00 0.000000e+00 0.000000e+00
<ENDHMM>
~h "er"
<BEGINHMM>
<NUMSTATES> 5
<STATE> 2
<MEAN> 25
 6.674915e-01 -4.295981e-01 -9.044601e-01 4.144800e-01 4.134455e-01 -5.378721e-01 -6.314743e-01 6.739922e-01 4.859287e-01 9.741266e-02 -1.955697e-03 -7.650522e-02 -1.656807e-02 1.048023e-02 -6.077716e-03 4.593799e-03 -3.779469e-03 1.476940e-02 1.807951e-02 -4.089331e-03 3.185494e-03 3.160570e-04 4.996719e-03 7.604490e-03 -1.597601e-02
<VARIANCE> 25
 9.323759e+01 6.045567e+01 6.681054e+01 7.081018e+01 7.936347e+01 7.985246e+01 8.279823e+01 6.838092e+01 6.225960e+01 4.692556e+01 4.416395e+01 3.881504e+01 4.193285e+00 3.244915e+00 3.006310e+00 3.607569e+00 4.198483e+00 4.339526e+00 4.538456e+00 4.230878e+00 3.796496e+00 3.324975e+00 2.954770e+00 2.545868e+00 3.551480e+00
<GCONST> 1.125408e+02
<STATE> 3
<MEAN> 25
 6.223240e-01 -3.996372e-01 -9.235318e-01 4.252867e-01 4.027233e-01 -4.923809e-01 -5.734782e-01 6.598870e-01 4.904496e-01 8.944508e-02 1.086064e-02 -5.091484e-02 -1.421021e-02 8.093296e-03 -6.016007e-03 2.164894e-04 -3.101430e-03 1.595074e-02 1.807455e-02 -4.732016e-03 -1.449037e-04 -1.906474e-03 4.350826e-03 9.787226e-03 -1.479063e-02
<VARIANCE> 25
 9.333875e+01 6.040260e+01 6.680345e+01 7.068131e+01 7.944221e+01 7.903763e+01 8.221973e+01 6.792330e+01 6.229078e+01 4.679182e+01 4.442289e+01 3.886996e+01 4.211392e+00 3.244831e+00 3.002826e+00 3.606056e+00 4.206442e+00 4.324090e+00 4.524597e+00 4.233437e+00 3.796800e+00 3.319025e+00 2.969944e+00 2.547660e+00 3.545559e+00
<GCONST> 1.125220e+02
<STATE> 4
<MEAN> 25
 5.810947e-01 -3.689825e-01 -9.338629e-01 4.081805e-01 3.531599e-01 -4.479347e-01 -5.138731e-01 6.177713e-01 4.653372e-01 4.663994e-02 1.473476e-02 -2.884686e-02 -1.121090e-02 5.339763e-03 -6.714302e-03 -5.783360e-03 -2.941885e-03 1.737979e-02 1.848574e-02 -5.846162e-03 -4.738448e-03 -4.125549e-03 4.322642e-03 1.124389e-02 -1.112968e-02
<VARIANCE> 25
 9.286069e+01 6.024562e+01 6.671847e+01 7.032028e+01 7.924993e+01 7.785658e+01 8.124145e+01 6.712617e+01 6.215202e+01 4.666317e+01 4.496159e+01 3.900689e+01 4.179977e+00 3.232847e+00 2.987692e+00 3.573635e+00 4.195445e+00 4.276253e+00 4.475118e+00 4.234270e+00 3.784399e+00 3.304765e+00 2.983547e+00 2.545079e+00 3.516588e+00
<GCONST> 1.124151e+02
<TRANSP> 5
 0.000000e+00 1.000000e+00 0.000000e+00 0.000000e+00 0.000000e+00
 0.000000e+00 6.508146e-01 3.491854e-01 0.000000e+00 0.000000e+00
 0.000000e+00 0.000000e+00 6.508141e-01 3.491859e-01 0.000000e+00
 0.000000e+00 0.000000e+00 0.000000e+00 7.624359e-01 2.375641e-01
 0.000000e+00 0.000000e+00 0.000000e+00 0.000000e+00 0.000000e+00
<ENDHMM>
~h "ey"
<BEGINHMM>
<NUMSTATES> 5
<STATE> 2
<MEAN> 25
 -3.495960e-01 2.715095e-01 1.374883e+00 -1.677524e-01 -1.462152e+00 -3.934342e-01 4.041183e-02 -6.754031e-01 -5.878395e-01 1.627111e-01 3.020877e-01 -5.613653e-02 -1.398898e-02 4.105982e-03 -2.120748e-02 2.388779e-02 3.325557e-02 6.139615e-03 1.960561e-02 2.204526e-02 1.101679e-02 3.315790e-04 -1.867358e-02 7.593899e-03 -2.706127e-02
<VARIANCE> 25
 9.023382e+01 5.458584e+01 7.616206e+01 7.085171e+01 8.653427e+01 6.821405e+01 6.830334e+01 6.610373e+01 6.381370e+01 4.538635e+01 4.517055e+01 3.563309e+01 3.907883e+00 3.018372e+00 3.028281e+00 3.770430e+00 4.376643e+00 4.117317e+00 4.204823e+00 4.258893e+00 3.844657e+00 3.286739e+00 2.999667e+00 2.526961e+00 3.445695e+00
<GCONST> 1.119747e+02
<STATE> 3
<MEAN> 25
 -3.886984e-01 2.745738e-01 1.312987e+00 -9.938005e-02 -1.366615e+00 -3.767448e-01 9.777457e-02 -6.051369e-01 -5.612155e-01 1.674597e-01 2.506581e-01 -3.738086e-02 -1.533546e-02 4.751559e-04 -2.314784e-02 2.417487e-02 3.465437e-02 6.141466e-03 2.082983e-02 2.439297e-02 1.451817e-02 2.755773e-03 -1.976353e-02 7.055835e-03 -3.169552e-02
<VARIANCE> 25
 9.068984e+01 5.493470e+01 7.537276e+01 7.117407e+01 8.590201e+01 6.818849e+01 6.839932e+01 6.654913e+01 6.339491e+01 4.517782e+01 4.499510e+01 3.548660e+01 3.924649e+00 3.022908e+00 3.018328e+00 3.789218e+00 4.340672e+00 4.126339e+00 4.202229e+00 4.277535e+00 3.840932e+00 3.280991e+00 2.993358e+00 2.519951e+00 3.435570e+00
<GCONST> 1.119560e+02
<STATE> 4
<MEAN> 25
 -3.744310e-01 2.413995e-01 1.178258e+00 -5.868512e-02 -1.260007e+00 -3.335313e-01 1.372880e-01 -5.189571e-01 -5.528152e-01 1.841479e-01 1.970668e-01 -3.662199e-02 -1.354276e-02 -5.289653e-03 -2.414478e-02 2.184691e-02 3.040839e-02 4.959654e-03 1.866110e-02 2.731494e-02 1.766645e-02 5.224370e-03 -1.743999e-02 5.296762e-03 -3.173277e-02
<VARIANCE> 25
 9.072338e+01 5.531295e+01 7.502209e+01 7.069744e+01 8.508962e+01 6.797540e+01 6.865736e+01 6.726527e+01 6.271069e+01 4.508981e+01 4.493433e+01 3.556760e+01 3.900276e+00 3.021027e+00 3.003836e+00 3.761771e+00 4.279500e+00 4.122314e+00 4.184982e+00 4.299966e+00 3.826364e+00 3.269416e+00 2.980232e+00 2.510807e+00 3.415264e+00
<GCONST> 1.118876e+02
<TRANSP> 5
 0.000000e+00 1.000000e+00 0.000000e+00 0.000000e+00 0.000000e+00
 0.000000e+00 6.517874e-01 3.482127e-01 0.000000e+00 0.000000e+00
 0.000000e+00 0.000000e+00 6.517895e-01 3.482104e-01 0.000000e+00
 0.000000e+00 0.000000e+00 0.000000e+00 7.631435e-01 2.368565e-01
 0.000000e+00 0.000000e+00 0.000000e+00 0.000000e+00 0.000000e+00
<ENDHMM>
~h "hh"
<BEGINHMM>
<NUMSTATES> 5
<STATE> 2
<MEAN> 25
 -3.328020e-01 -4.788911e-01 6.649063e-03 9.210170e-02 -4.454499e-02 1.334729e-01 4.510250e-01 -4.403816e-02 1.045982e-01 1.310242e-02 -1.742729e-01 9.004067e-02 3.612855e-02 6.219496e-03 6.041623e-03 -6.878452e-03 -2.198298e-02 5.548371e-03 -1.802378e-02 -4.622504e-03 -2.101220e-02 -4.879048e-03 -1.123950e-02 -1.818904e-02 3.066955e-02
<VARIANCE> 25
 8.846490e+01 6.506894e+01 7.312522e+01 6.974433e+01 8.495381e+01 7.399559e+01 7.372826e+01 6.710471e+01 5.773597e+01 5.037413e+01 4.841664e+01 3.839332e+01 3.812003e+00 3.187243e+00 3.000983e+00 3.379453e+00 4.304636e+00 3.975718e+00 4.244752e+00 4.081131e+00 3.577437e+00 3.348916e+00 3.086485e+00 2.513317e+00 3.350629e+00
<GCONST> 1.121448e+02
<STATE> 3
<MEAN> 25
 -2.264864e-01 -4.655478e-01 2.060901e-02 6.673761e-02 -1.071209e-01 1.429162e-01 3.945054e-01 -6.389031e-02 4.997413e-02 -9.052799e-03 -2.026214e-01 3.522296e-02 3.603421e-02 3.408242e-03 4.980966e-03 -5.650742e-03 -1.944628e-02 1.674768e-03 -1.888546e-02 -5.421889e-03 -1.762176e-02 -9.437495e-03 -1.083040e-02 -1.735476e-02 3.393099e-02
<VARIANCE> 25
 8.794583e+01 6.513371e+01 7.404793e+01 7.035925e+01 8.590319e+01 7.455064e+01 7.346107e+01 6.783944e+01 5.773397e+01 5.081421e+01 4.846059e+01 3.825373e+01 3.790461e+00 3.212126e+00 3.014259e+00 3.401090e+00 4.331116e+00 3.997263e+00 4.249419e+00 4.085487e+00 3.568503e+00 3.366720e+00 3.093710e+00 2.511339e+00 3.401937e+00
<GCONST> 1.122392e+02
<STATE> 4
<MEAN> 25
 -7.830350e-02 -4.596688e-01 3.708965e-02 2.169908e-02 -2.121693e-01 1.523320e-01 2.935762e-01 -1.520073e-01 3.917675e-03 -6.801194e-02 -2.436440e-01 -5.131011e-02 3.326618e-02 1.195889e-03 2.974367e-03 -4.362432e-03 -1.801989e-02 -8.777287e-03 -2.046907e-02 -8.877933e-03 -1.435335e-02 -1.434116e-02 -1.210366e-02 -1.480072e-02 4.055264e-02
<VARIANCE> 25
 8.706666e+01 6.505043e+01 7.531336e+01 7.103448e+01 8.694938e+01 7.445347e+01 7.326695e+01 6.877454e+01 5.782531e+01 5.137381e+01 4.879073e+01 3.842055e+01 3.745692e+00 3.215651e+00 3.018812e+00 3.414840e+00 4.335821e+00 3.994847e+00 4.216856e+00 4.070467e+00 3.548716e+00 3.375401e+00 3.100556e+00 2.509255e+00 3.440904e+00
<GCONST> 1.122935e+02
<TRANSP> 5
 0.000000e+00 1.000000e+00 0.000000e+00 0.000000e+00 0.000000e+00
 0.000000e+00 6.522735e-01 3.477265e-01 0.000000e+00 0.000000e+00
 0.000000e+00 0.000000e+00 6.522735e-01 3.477265e-01 0.000000e+00
 0.000000e+00 0.000000e+00 0.000000e+00 7.645478e-01 2.354521e-01
 0.000000e+00 0.000000e+00 0.000000e+00 0.000000e+00 0.000000e+00
<ENDHMM>
~h "ih"
<BEGINHMM>
<NUMSTATES> 5
<STATE> 2
<MEAN> 25
 -3.115469e-04 3.955320e-01 7.465214e-01 6.668326e-02 -5.521874e-01 -5.661016e-01 -2.977825e-01 -2.656476e-01 -5.155030e-01 -8.794184e-02 -2.218448e-04 -1.378028e-01 -1.056508e-02 2.110192e-03 -3.909817e-03 7.209634e-04 5.234823e-03 2.845368e-03 -1.255865e-03 4.026819e-04 6.227052e-03 1.912427e-03 7.017236e-03 7.205857e-04 -1.941917e-03
<VARIANCE> 25
 8.893309e+01 5.778516e+01 6.793721e+01 7.018851e+01 7.918669e+01 7.351634e+01 7.132411e+01 6.594294e+01 6.225568e+01 4.716581e+01 4.496262e+01 3.869001e+01 4.060066e+00 3.131383e+00 2.983990e+00 3.768866e+00 4.467829e+00 4.324660e+00 4.257695e+00 4.256320e+00 3.951795e+00 3.447612e+00 3.103633e+00 2.631126e+00 3.567245e+00
<GCONST> 1.123377e+02
<STATE> 3
<MEAN> 25
 -3.008390e-02 4.050005e-01 7.303550e-01 7.494972e-02 -5.322906e-01 -5.574230e-01 -2.937677e-01 -2.614519e-01 -4.937203e-01 -8.198926e-02 2.270235e-02 -1.302812e-01 -1.123489e-02 1.747891e-03 -6.748435e-03 2.236078e-03 8.471977e-03 4.831598e-03 3.321389e-03 3.302480e-03 7.901920e-03 3.701952e-03 8.398001e-03 3.373333e-03 -6.115398e-03
<VARIANCE> 25
 8.919224e+01 5.790719e+01 6.797659e+01 7.043831e+01 7.923837e+01 7.349313e+01 7.139383e+01 6.599542e+01 6.218214e+01 4.702075e+01 4.490314e+01 3.865560e+01 4.068593e+00 3.131428e+00 2.979680e+00 3.774242e+00 4.460961e+00 4.329936e+00 4.248944e+00 4.250476e+00 3.947618e+00 3.449385e+00 3.099256e+00 2.632315e+00 3.562383e+00
<GCONST> 1.123380e+02
<STATE> 4
<MEAN> 25
 -5.847741e-02 3.981386e-01 7.004778e-01 8.048603e-02 -5.048103e-01 -5.427837e-01 -2.702777e-01 -2.472297e-01 -4.717241e-01 -7.850733e-02 5.487357e-02 -1.148571e-01 -9.191749e-03 1.340448e-03 -9.354413e-03 2.841391e-03 1.105415e-02 6.463111e-03 7.460447e-03 5.512490e-03 9.293688e-03 5.291141e-03 8.533317e-03 5.821574e-03 -1.001547e-02
<VARIANCE> 25
 8.905736e+01 5.785188e+01 6.785973e+01 7.045331e+01 7.931757e+01 7.309926e+01 7.139490e+01 6.617902e+01 6.196203e+01 4.688913e+01 4.490660e+01 3.865410e+01 4.021659e+00 3.108997e+00 2.958681e+00 3.743742e+00 4.415249e+00 4.288444e+00 4.198379e+00 4.233576e+00 3.929372e+00 3.434656e+00 3.080796e+00 2.626367e+00 3.541947e+00
<GCONST> 1.122333e+02
<TRANSP> 5
 0.000000e+00 1.000000e+00 0.000000e+00 0.000000e+00 0.000000e+00
 0.000000e+00 6.505594e-01 3.494406e-01 0.000000e+00 0.000000e+00
 0.000000e+00 0.000000e+00 6.505607e-01 3.494393e-01 0.000000e+00
 0.000000e+00 0.000000e+00 0.000000e+00 7.620029e-01 2.379971e-01
 0.000000e+00 0.000000e+00 0.000000e+00 0.000000e+00 0.000000e+00
<ENDHMM>
~h "iy"
<BEGINHMM>
<NUMSTATES> 5
<STATE> 2
<MEAN> 25
 -2.441797e-01 5.407289e-01 1.710959e+00 2.838517e-01 -1.110783e+00 -2.809089e-01 -1.672060e-01 -6.003354e-01 -7.737071e-01 3.824297e-01 1.595438e-01 -3.166239e-02 2.398437e-03 4.994883e-03 -1.945336e-03 -1.054091e-02 1.832631e-03 1.759183e-03 2.902996e-03 6.154067e-03 -6.254514e-03 -9.148067e-03 -7.164021e-03 -2.874472e-03 4.384822e-03
<VARIANCE> 25
 8.376703e+01 5.627325e+01 8.565889e+01 6.935561e+01 8.869903e+01 7.061394e+01 7.425819e+01 7.092540e+01 6.616352e+01 5.006959e+01 4.787941e+01 3.863367e+01 3.491457e+00 3.008552e+00 3.231218e+00 3.612370e+00 4.470880e+00 4.172689e+00 4.320143e+00 4.311147e+00 3.745709e+00 3.356319e+00 3.033472e+00 2.578443e+00 3.426510e+00
<GCONST> 1.125143e+02
<STATE> 3
<MEAN> 25
 -2.438707e-01 5.534372e-01 1.694257e+00 2.553073e-01 -1.100656e+00 -2.667111e-01 -1.564258e-01 -5.840767e-01 -7.891501e-01 3.543117e-01 1.376051e-01 -4.053804e-02 1.842369e-03 4.167778e-03 -7.305386e-03 -9.384505e-03 3.350921e-03 5.418318e-03 3.195948e-03 5.762216e-03 -5.193480e-03 -1.098330e-02 -7.137053e-03 -1.344634e-03 2.701764e-03
<VARIANCE> 25
 8.371335e+01 5.624949e+01 8.559027e+01 6.944748e+01 8.888244e+01 7.038541e+01 7.420441e+01 7.133180e+01 6.592146e+01 5.011860e+01 4.777610e+01 3.892947e+01 3.474857e+00 3.006296e+00 3.225107e+00 3.606422e+00 4.460443e+00 4.142275e+00 4.314691e+00 4.315316e+00 3.733413e+00 3.345026e+00 3.031445e+00 2.581295e+00 3.417509e+00
<GCONST> 1.124925e+02
<STATE> 4
<MEAN> 25
 -2.678435e-01 5.628309e-01 1.657748e+00 2.233811e-01 -1.088556e+00 -2.337499e-01 -1.485494e-01 -5.791924e-01 -7.786039e-01 3.191564e-01 1.083539e-01 -4.305719e-02 6.591404e-04 -7.597904e-05 -1.554422e-02 -8.012230e-03 6.468390e-03 9.000396e-03 3.989474e-03 3.296034e-03 -1.860597e-03 -1.013999e-02 -6.332441e-03 5.848486e-04 -1.245316e-03
<VARIANCE> 25
 8.399287e+01 5.627814e+01 8.551450e+01 6.957738e+01 8.928620e+01 7.000978e+01 7.420444e+01 7.176788e+01 6.540855e+01 5.003313e+01 4.780365e+01 3.920719e+01 3.454732e+00 2.993957e+00 3.211740e+00 3.575876e+00 4.442092e+00 4.096620e+00 4.283922e+00 4.297620e+00 3.700769e+00 3.321103e+00 3.028007e+00 2.577252e+00 3.395737e+00
<GCONST> 1.124267e+02
<TRANSP> 5
 0.000000e+00 1.000000e+00 0.000000e+00 0.000000e+00 0.000000e+00
 0.000000e+00 6.516844e-01 3.483156e-01 0.000000e+00 0.000000e+00
 0.000000e+00 0.000000e+00 6.516835e-01 3.483165e-01 0.000000e+00
 0.000000e+00 0.000000e+00 0.000000e+00 7.628763e-01 2.371237e-01
 0.000000e+00 0.000000e+00 0.000000e+00 0.000000e+00 0.000000e+00
<ENDHMM>
~h "jh"
<BEGINHMM>
<NUMSTATES> 5
<STATE> 2
<MEAN> 25
 -1.009018e+00 -1.247141e-01 8.704520e-01 -4.671228e-01 -8.804832e-02 2.844751e-01 -3.114069e-01 -6.087616e-02 5.552882e-01 -5.569338e-01 -1.733657e-01 -1.334985e-01 -2.985872e-02 -1.650286e-02 -1.769125e-02 -9.442059e-03 -3.328839e-03 4.860696e-03 1.581669e-02 1.518046e-02 1.652004e-02 1.182126e-02 2.151890e-03 -3.130962e-03 3.796197e-03
<VARIANCE> 25
 1.080082e+02 6.419980e+01 6.924468e+01 7.592169e+01 7.205611e+01 7.093299e+01 7.418209e+01 6.383311e+01 5.883480e+01 4.652730e+01 4.664120e+01 3.857945e+01 5.506628e+00 3.272615e+00 3.009370e+00 3.850438e+00 4.093046e+00 4.307317e+00 4.277407e+00 4.162247e+00 3.790354e+00 3.109574e+00 3.375549e+00 2.721938e+00 3.748695e+00
<GCONST> 1.128672e+02
<STATE> 3
<MEAN> 25
 -1.061964e+00 -1.697564e-01 8.153602e-01 -4.837139e-01 -1.026387e-01 2.886703e-01 -2.646618e-01 -2.154626e-02 5.928615e-01 -5.206072e-01 -1.711086e-01 -1.484653e-01 -1.123011e-02 -1.424880e-02 -2.555808e-02 -3.769947e-03 -1.902491e-03 -8.209998e-03 1.697505e-02 1.877282e-02 5.367289e-03 1.424854e-02 3.113066e-03 -7.024992e-03 4.958875e-03
<VARIANCE> 25
 1.079545e+02 6.418761e+01 6.986324e+01 7.614634e+01 7.235775e+01 7.132537e+01 7.480061e+01 6.444362e+01 5.897756e+01 4.628156e+01 4.695545e+01 3.899883e+01 5.545299e+00 3.270441e+00 3.009614e+00 3.840888e+00 4.095006e+00 4.335626e+00 4.271975e+00 4.164693e+00 3.791221e+00 3.098718e+00 3.380138e+00 2.750551e+00 3.743937e+00
<GCONST> 1.129380e+02
<STATE> 4
<MEAN> 25
 -1.034181e+00 -2.391834e-01 6.793516e-01 -4.460177e-01 -8.061960e-02 2.695893e-01 -1.697974e-01 6.436647e-02 5.850917e-01 -4.971451e-01 -1.771082e-01 -2.038584e-01 3.856265e-03 -1.309428e-02 -2.847328e-02 1.011055e-03 -4.816933e-03 -1.932558e-02 1.503651e-02 1.934448e-02 -7.811783e-03 1.025919e-02 1.314463e-03 -1.066945e-02 9.196727e-03
<VARIANCE> 25
 1.058648e+02 6.442281e+01 6.999731e+01 7.570163e+01 7.196558e+01 7.099133e+01 7.436341e+01 6.474932e+01 5.841763e+01 4.521049e+01 4.675660e+01 3.909303e+01 5.429467e+00 3.222234e+00 2.976902e+00 3.761713e+00 4.035277e+00 4.325394e+00 4.227356e+00 4.124527e+00 3.734581e+00 3.033895e+00 3.346730e+00 2.760798e+00 3.657922e+00
<GCONST> 1.127016e+02
<TRANSP> 5
 0.000000e+00 1.000000e+00 0.000000e+00 0.000000e+00 0.000000e+00
 0.000000e+00 6.452952e-01 3.547048e-01 0.000000e+00 0.000000e+00
 0.000000e+00 0.000000e+00 6.452961e-01 3.547039e-01 0.000000e+00
 0.000000e+00 0.000000e+00 0.000000e+00 7.558938e-01 2.441061e-01
 0.000000e+00 0.000000e+00 0.000000e+00 0.000000e+00 0.000000e+00
<ENDHMM>
~h "ng"
<BEGINHMM>
<NUMSTATES> 5
<STATE> 2
<MEAN> 25
 4.461901e-01 4.509986e-01 3.519197e-01 -1.201098e-01 -5.480778e-01 -2.311684e-01 -7.990990e-02 -4.098124e-01 -1.025020e+00 1.281700e-01 -2.431913e-01 -5.528436e-01 -1.711370e-02 -7.947454e-03 -9.211976e-03 9.754187e-03 2.281576e-02 -1.652784e-02 7.305599e-03 2.816548e-02 1.763836e-02 8.057791e-03 1.325272e-02 1.182391e-02 -1.438876e-02
<VARIANCE> 25
 8.477378e+01 5.675681e+01 6.783018e+01 6.702895e+01 8.536091e+01 6.991825e+01 7.492543e+01 7.239122e+01 6.214394e+01 4.894741e+01 4.248745e+01 4.005207e+01 3.723535e+00 3.072968e+00 3.030786e+00 3.631271e+00 4.529327e+00 4.203681e+00 4.146282e+00 4.441498e+00 3.940927e+00 3.578356e+00 2.984241e+00 2.615174e+00 3.261583e+00
<GCONST> 1.121789e+02
<STATE> 3
<MEAN> 25
 3.977950e-01 4.280611e-01 3.277015e-01 -9.495086e-02 -4.857175e-01 -2.813465e-01 -5.469412e-02 -3.278124e-01 -9.770069e-01 1.480722e-01 -2.069257e-01 -5.155519e-01 -1.713933e-02 -1.084887e-02 -7.200660e-03 7.805671e-03 2.041882e-02 -1.847619e-02 8.760936e-03 2.893084e-02 1.706654e-02 8.504581e-03 1.311294e-02 1.295011e-02 -1.139748e-02
<VARIANCE> 25
 8.519236e+01 5.688583e+01 6.785960e+01 6.697980e+01 8.593315e+01 7.062247e+01 7.574912e+01 7.299377e+01 6.179501e+01 4.883667e+01 4.249936e+01 3.994818e+01 3.715368e+00 3.069206e+00 3.030237e+00 3.628005e+00 4.515301e+00 4.206504e+00 4.136685e+00 4.425553e+00 3.921116e+00 3.571264e+00 2.972833e+00 2.598480e+00 3.263940e+00
<GCONST> 1.121821e+02
<STATE> 4
<MEAN> 25
 3.532388e-01 3.978855e-01 3.252788e-01 -8.705188e-02 -4.042414e-01 -3.339159e-01 -3.465226e-02 -2.509848e-01 -9.356242e-01 1.530441e-01 -1.531300e-01 -4.640285e-01 -1.589295e-02 -1.331449e-02 -4.361121e-03 7.149935e-03 1.713450e-02 -1.963948e-02 1.063903e-02 2.861991e-02 1.630365e-02 5.424881e-03 1.064500e-02 1.256185e-02 -1.019839e-02
<VARIANCE> 25
 8.530774e+01 5.666533e+01 6.787420e+01 6.678387e+01 8.672216e+01 7.115601e+01 7.668936e+01 7.414799e+01 6.111644e+01 4.883108e+01 4.253411e+01 4.007858e+01 3.659582e+00 3.040864e+00 3.022058e+00 3.584012e+00 4.474596e+00 4.172720e+00 4.114686e+00 4.413246e+00 3.885619e+00 3.549688e+00 2.943524e+00 2.585075e+00 3.248108e+00
<GCONST> 1.121148e+02
<TRANSP> 5
 0.000000e+00 1.000000e+00 0.000000e+00 0.000000e+00 0.000000e+00
 0.000000e+00 6.511759e-01 3.488241e-01 0.000000e+00 0.000000e+00
 0.000000e+00 0.000000e+00 6.511761e-01 3.488239e-01 0.000000e+00
 0.000000e+00 0.000000e+00 0.000000e+00 7.633242e-01 2.366758e-01
 0.000000e+00 0.000000e+00 0.000000e+00 0.000000e+00 0.000000e+00
<ENDHMM>
~h "ow"
<BEGINHMM>
<NUMSTATES> 5
<STATE> 2
<MEAN> 25
 1.069034e+00 4.273859e-01 -8.675216e-01 -1.362576e+00 1.938938e-02 9.257036e-01 -7.116818e-01 -7.435038e-01 -4.164413e-01 4.650315e-03 -4.666150e-02 -3.542777e-01 7.172716e-03 6.724944e-03 -3.051196e-03 -2.373649e-02 1.746231e-03 -5.836864e-03 -4.333566e-03 -1.680734e-02 -1.005919e-02 -1.576584e-02 8.841932e-03 -7.404201e-03 7.753907e-03
<VARIANCE> 25
 8.558545e+01 5.985199e+01 6.990361e+01 8.657466e+01 7.547220e+01 7.205971e+01 7.468128e+01 6.156042e+01 6.005817e+01 5.556987e+01 4.774052e+01 3.790368e+01 3.754074e+00 3.125553e+00 2.910096e+00 3.993464e+00 4.191483e+00 4.157996e+00 4.335584e+00 4.242338e+00 3.746073e+00 3.741941e+00 3.177993e+00 2.604919e+00 3.514514e+00
<GCONST> 1.125410e+02
<STATE> 3
<MEAN> 25
 1.078988e+00 4.448770e-01 -8.798816e-01 -1.429233e+00 3.417964e-02 9.044349e-01 -7.296648e-01 -7.820139e-01 -4.452446e-01 -4.493657e-02 -2.229835e-02 -3.659660e-01 -6.600117e-04 1.891121e-03 -1.929149e-03 -1.704425e-02 1.387087e-03 -1.378723e-02 -3.698867e-03 -1.122267e-02 -8.830895e-03 -1.503854e-02 6.173945e-03 -1.749088e-03 7.259126e-03
<VARIANCE> 25
 8.621370e+01 6.004377e+01 6.980737e+01 8.765253e+01 7.576518e+01 7.171254e+01 7.513935e+01 6.161056e+01 6.042622e+01 5.622958e+01 4.753602e+01 3.793437e+01 3.753304e+00 3.112092e+00 2.904503e+00 4.045473e+00 4.191011e+00 4.151119e+00 4.322757e+00 4.251966e+00 3.752754e+00 3.748335e+00 3.155848e+00 2.606765e+00 3.512413e+00
<GCONST> 1.125835e+02
<STATE> 4
<MEAN> 25
 1.093561e+00 4.611625e-01 -9.107949e-01 -1.491652e+00 8.391497e-02 8.474803e-01 -7.919015e-01 -7.993051e-01 -4.542098e-01 -1.279030e-01 -2.086095e-02 -3.616780e-01 -1.114984e-02 -4.025196e-03 3.362141e-03 -9.569297e-03 2.086659e-03 -1.970720e-02 -1.966997e-03 -2.090905e-03 -7.386080e-03 -9.977235e-03 4.162694e-03 6.435125e-03 7.665114e-03
<VARIANCE> 25
 8.661691e+01 6.024871e+01 6.905750e+01 8.910556e+01 7.552231e+01 7.114656e+01 7.502766e+01 6.164333e+01 6.099350e+01 5.722100e+01 4.760426e+01 3.803294e+01 3.719576e+00 3.102216e+00 2.887764e+00 4.091753e+00 4.166420e+00 4.135139e+00 4.271297e+00 4.249902e+00 3.755592e+00 3.733195e+00 3.133409e+00 2.609425e+00 3.557193e+00
<GCONST> 1.125904e+02
<TRANSP> 5
 0.000000e+00 1.000000e+00 0.000000e+00 0.000000e+00 0.000000e+00
 0.000000e+00 6.546082e-01 3.453918e-01 0.000000e+00 0.000000e+00
 0.000000e+00 0.000000e+00 6.546093e-01 3.453907e-01 0.000000e+00
 0.000000e+00 0.000000e+00 0.000000e+00 7.674804e-01 2.325196e-01
 0.000000e+00 0.000000e+00 0.000000e+00 0.000000e+00 0.000000e+00
<ENDHMM>
~h "oy"
<BEGINHMM>
<NUMSTATES> 5
<STATE> 2
<MEAN> 25
 9.236891e-03 2.664949e-01 2.320093e-01 -3.868213e-02 1.027410e+00 -3.818381e-01 7.955933e-01 7.803021e-01 5.186012e-01 5.764579e-01 4.794040e-01 5.141069e-01 -9.879474e-02 -2.436099e-02 -3.915773e-02 1.109105e-02 6.553557e-02 7.970409e-02 4.093245e-02 -4.785113e-02 4.090595e-02 -6.926597e-03 -2.182218e-02 4.005159e-02 -1.869773e-01
<VARIANCE> 25
 7.928804e+01 5.282245e+01 7.253825e+01 7.026501e+01 5.593017e+01 6.337648e+01 6.539992e+01 4.975840e+01 5.766001e+01 3.854080e+01 3.858821e+01 3.544318e+01 4.188288e+00 3.224984e+00 3.002599e+00 4.306862e+00 3.597680e+00 4.079411e+00 3.882795e+00 4.063539e+00 3.494141e+00 3.298012e+00 3.242965e+00 2.705040e+00 3.308618e+00
<GCONST> 1.104317e+02
<STATE> 3
<MEAN> 25
 -2.268603e-01 1.857912e-01 1.479714e-01 -2.305315e-02 1.176121e+00 -1.827577e-01 9.072618e-01 6.388037e-01 6.006999e-01 5.554516e-01 4.252879e-01 5.899585e-01 -7.903294e-02 -6.091958e-03 -3.610001e-02 1.677112e-02 6.237446e-02 8.739324e-02 3.663844e-02 -5.806192e-02 2.363907e-02 7.854351e-04 -1.130242e-02 2.228654e-02 -1.790057e-01
<VARIANCE> 25
 7.728605e+01 5.248660e+01 7.012251e+01 6.927171e+01 5.663605e+01 6.345395e+01 6.471734e+01 4.775429e+01 5.879697e+01 3.802995e+01 3.726986e+01 3.543164e+01 4.013490e+00 3.164848e+00 2.917979e+00 4.268062e+00 3.596651e+00 4.059034e+00 3.838371e+00 4.000229e+00 3.469171e+00 3.284749e+00 3.233351e+00 2.654296e+00 3.302574e+00
<GCONST> 1.101184e+02
<STATE> 4
<MEAN> 25
 -3.748600e-01 1.020993e-01 1.150819e-01 -2.285561e-02 1.310585e+00 -1.884730e-02 1.048917e+00 4.486733e-01 5.749069e-01 5.917895e-01 3.399000e-01 5.178244e-01 -5.684847e-02 4.682175e-03 -8.383439e-03 2.062385e-02 4.323004e-02 9.000733e-02 3.411048e-02 -5.984338e-02 5.393174e-03 7.281571e-03 -7.478608e-04 -1.434171e-03 -1.410310e-01
<VARIANCE> 25
 7.507581e+01 5.323527e+01 6.773230e+01 7.007701e+01 5.783829e+01 6.397305e+01 6.406171e+01 4.527845e+01 5.992294e+01 3.809784e+01 3.619485e+01 3.536608e+01 3.802433e+00 3.041656e+00 2.825927e+00 4.246586e+00 3.701504e+00 4.067034e+00 3.855324e+00 3.883402e+00 3.444855e+00 3.318841e+00 3.254792e+00 2.621409e+00 3.238397e+00
<GCONST> 1.098882e+02
<TRANSP> 5
 0.000000e+00 1.000000e+00 0.000000e+00 0.000000e+00 0.000000e+00
 0.000000e+00 6.402490e-01 3.597510e-01 0.000000e+00 0.000000e+00
 0.000000e+00 0.000000e+00 6.402490e-01 3.597510e-01 0.000000e+00
 0.000000e+00 0.000000e+00 0.000000e+00 7.498741e-01 2.501260e-01
 0.000000e+00 0.000000e+00 0.000000e+00 0.000000e+00 0.000000e+00
<ENDHMM>
~h "sh"
<BEGINHMM>
<NUMSTATES> 5
<STATE> 2
<MEAN> 25
 -1.717105e+00 -2.523800e-01 1.425624e+00 -3.812537e-01 -7.144032e-01 3.520070e-01 2.295714e-01 -1.909987e-01 1.202586e-01 1.828212e-01 2.764799e-01 -2.819279e-03 5.024733e-03 3.859074e-03 -3.667068e-02 -4.324323e-03 2.467746e-02 4.728478e-03 1.199286e-02 -3.817700e-03 2.270488e-02 3.347341e-03 3.459242e-04 2.531902e-04 -1.211357e-02
<VARIANCE> 25
 1.145050e+02 5.611766e+01 7.501717e+01 6.916445e+01 7.718997e+01 6.818074e+01 6.672121e+01 6.118403e+01 5.919503e+01 4.665777e+01 4.485352e+01 3.468853e+01 5.333221e+00 3.132337e+00 2.831196e+00 3.596099e+00 4.032185e+00 4.101902e+00 4.242941e+00 3.937837e+00 3.848945e+00 3.480453e+00 3.036003e+00 2.537008e+00 3.314502e+00
<GCONST> 1.120183e+02
<STATE> 3
<MEAN> 25
 -1.706219e+00 -2.343183e-01 1.300261e+00 -3.954482e-01 -6.344925e-01 3.754411e-01 2.605971e-01 -2.018271e-01 1.775827e-01 1.914330e-01 2.898464e-01 -6.115675e-03 1.403494e-02 7.502130e-03 -4.464123e-02 -2.556366e-03 2.878205e-02 6.534643e-03 8.710375e-03 -4.640941e-04 1.671922e-02 3.709423e-03 3.591086e-03 -2.083173e-03 -1.551826e-02
<VARIANCE> 25
 1.140975e+02 5.604424e+01 7.480978e+01 6.999895e+01 7.680961e+01 6.728217e+01 6.649325e+01 6.048307e+01 5.861127e+01 4.640259e+01 4.482360e+01 3.467620e+01 5.311459e+00 3.136753e+00 2.833185e+00 3.603029e+00 4.034567e+00 4.083689e+00 4.246773e+00 3.953325e+00 3.839854e+00 3.467823e+00 3.031948e+00 2.535058e+00 3.316409e+00
<GCONST> 1.119664e+02
<STATE> 4
<MEAN> 25
 -1.677767e+00 -1.722383e-01 1.092159e+00 -4.855574e-01 -5.859531e-01 4.302072e-01 3.169752e-01 -1.979303e-01 1.827657e-01 1.988092e-01 3.091846e-01 -3.581218e-02 1.982520e-02 1.392676e-02 -5.088165e-02 -2.672435e-03 2.975523e-02 1.078244e-02 6.361795e-03 1.744849e-03 1.083247e-02 1.500501e-04 5.287828e-03 -2.724915e-03 -1.850970e-02
<VARIANCE> 25
 1.140327e+02 5.602205e+01 7.456009e+01 7.136937e+01 7.731709e+01 6.629762e+01 6.630598e+01 5.931684e+01 5.775224e+01 4.619599e+01 4.488931e+01 3.457642e+01 5.250519e+00 3.122833e+00 2.849647e+00 3.615089e+00 4.042245e+00 4.039855e+00 4.219216e+00 3.952136e+00 3.796569e+00 3.436742e+00 3.025869e+00 2.520259e+00 3.321349e+00
<GCONST> 1.118812e+02
<TRANSP> 5
 0.000000e+00 1.000000e+00 0.000000e+00 0.000000e+00 0.000000e+00
 0.000000e+00 6.566149e-01 3.433851e-01 0.000000e+00 0.000000e+00
 0.000000e+00 0.000000e+00 6.566157e-01 3.433843e-01 0.000000e+00
 0.000000e+00 0.000000e+00 0.000000e+00 7.698880e-01 2.301120e-01
 0.000000e+00 0.000000e+00 0.000000e+00 0.000000e+00 0.000000e+00
<ENDHMM>
~h "th"
<BEGINHMM>
<NUMSTATES> 5
<STATE> 2
<MEAN> 25
 -7.077385e-01 6.833335e-01 -5.382621e-01 2.593788e-01 -1.970457e-01 -3.155428e-01 2.281408e-02 -5.089162e-01 -2.030707e-01 7.172241e-02 -4.780346e-01 2.258222e-01 2.633524e-03 2.113825e-03 1.520807e-02 -4.778405e-03 9.725001e-03 1.190169e-02 1.441034e-02 -9.631969e-03 -7.599599e-03 -6.029651e-03 -2.415074e-02 -2.553018e-02 8.004442e-03
<VARIANCE> 25
 8.459020e+01 5.698194e+01 6.808318e+01 7.321256e+01 8.348977e+01 6.363506e+01 7.270668e+01 5.468669e+01 5.752682e+01 4.931158e+01 4.689828e+01 3.824397e+01 3.737089e+00 3.249719e+00 2.983082e+00 3.861739e+00 4.673709e+00 4.169426e+00 4.268364e+00 3.933192e+00 3.699535e+00 3.723283e+00 3.321715e+00 2.675175e+00 3.769425e+00
<GCONST> 1.121155e+02
<STATE> 3
<MEAN> 25
 -6.949832e-01 6.871850e-01 -5.059024e-01 2.402749e-01 -1.837277e-01 -2.836949e-01 5.635924e-02 -5.420956e-01 -2.250579e-01 4.723025e-02 -5.525432e-01 1.494728e-01 3.017579e-03 8.400646e-06 1.068809e-02 -7.081505e-03 1.077028e-02 7.966301e-03 1.419238e-02 -1.127002e-02 -6.191626e-03 -4.540932e-03 -2.327309e-02 -2.685368e-02 2.821986e-03
<VARIANCE> 25
 8.476117e+01 5.741934e+01 6.778123e+01 7.255841e+01 8.335845e+01 6.319223e+01 7.311422e+01 5.526559e+01 5.692596e+01 4.890471e+01 4.713924e+01 3.806393e+01 3.731132e+00 3.242784e+00 2.963448e+00 3.869215e+00 4.658980e+00 4.146733e+00 4.245917e+00 3.928236e+00 3.640172e+00 3.704106e+00 3.310748e+00 2.680670e+00 3.739311e+00
<GCONST> 1.120467e+02
<STATE> 4
<MEAN> 25
 -5.959921e-01 6.782076e-01 -5.483713e-01 1.534093e-01 -1.953977e-01 -2.933194e-01 2.914133e-02 -6.364941e-01 -2.807438e-01 -7.654190e-03 -6.813719e-01 3.049512e-02 5.998219e-03 -2.049946e-03 9.431574e-03 -8.817406e-03 8.723577e-03 3.236420e-03 1.388356e-02 -1.336653e-02 -4.951100e-03 -1.890579e-03 -2.090813e-02 -2.471225e-02 2.065486e-03
<VARIANCE> 25
 8.507489e+01 5.805740e+01 6.808195e+01 7.231913e+01 8.192261e+01 6.320106e+01 7.377730e+01 5.579467e+01 5.616933e+01 4.835637e+01 4.834367e+01 3.805711e+01 3.725551e+00 3.229143e+00 2.939445e+00 3.876634e+00 4.600350e+00 4.122212e+00 4.217846e+00 3.903668e+00 3.544253e+00 3.652269e+00 3.311591e+00 2.688153e+00 3.666656e+00
<GCONST> 1.119635e+02
<TRANSP> 5
 0.000000e+00 1.000000e+00 0.000000e+00 0.000000e+00 0.000000e+00
 0.000000e+00 6.498398e-01 3.501602e-01 0.000000e+00 0.000000e+00
 0.000000e+00 0.000000e+00 6.498403e-01 3.501597e-01 0.000000e+00
 0.000000e+00 0.000000e+00 0.000000e+00 7.622770e-01 2.377230e-01
 0.000000e+00 0.000000e+00 0.000000e+00 0.000000e+00 0.000000e+00
<ENDHMM>
~h "uh"
<BEGINHMM>
<NUMSTATES> 5
<STATE> 2
<MEAN> 25
 4.076612e-01 1.291049e-01 5.158949e-01 1.607006e-01 -5.642191e-01 1.639276e-01 -3.022875e-01 -4.388483e-01 -4.081301e-02 3.951468e-01 4.054274e-01 -3.422651e-01 5.766665e-02 3.291372e-03 7.149077e-03 4.370372e-03 -3.476229e-02 -2.521309e-02 -6.482875e-03 -3.175497e-02 -3.921912e-03 1.587166e-02 -2.238875e-02 -1.738805e-02 4.065901e-02
<VARIANCE> 25
 8.376497e+01 5.838155e+01 8.097452e+01 7.463356e+01 7.538992e+01 6.638179e+01 7.544595e+01 6.110457e+01 5.460115e+01 4.964533e+01 4.715894e+01 3.947590e+01 3.908969e+00 3.451183e+00 3.237607e+00 3.574112e+00 4.500724e+00 4.339126e+00 4.580622e+00 4.054652e+00 3.801133e+00 3.543922e+00 3.119220e+00 2.736030e+00 4.002887e+00
<GCONST> 1.126127e+02
<STATE> 3
<MEAN> 25
 5.604402e-01 1.563532e-01 5.477642e-01 1.692530e-01 -6.791603e-01 8.447096e-02 -3.220183e-01 -5.382596e-01 -6.457901e-02 4.409653e-01 3.425992e-01 -3.937534e-01 4.711610e-02 8.284134e-03 9.900473e-03 -2.855032e-04 -3.428550e-02 -2.227915e-02 -4.789335e-03 -3.384190e-02 -3.870985e-03 1.679632e-02 -2.190337e-02 -1.915066e-02 3.746877e-02
<VARIANCE> 25
 8.232690e+01 5.827565e+01 8.095385e+01 7.440770e+01 7.574422e+01 6.679159e+01 7.564967e+01 6.077932e+01 5.456549e+01 4.918442e+01 4.703691e+01 3.937124e+01 3.878170e+00 3.458654e+00 3.229196e+00 3.558931e+00 4.548676e+00 4.341300e+00 4.590246e+00 4.053360e+00 3.789305e+00 3.527520e+00 3.109969e+00 2.733962e+00 4.020176e+00
<GCONST> 1.125764e+02
<STATE> 4
<MEAN> 25
 6.425824e-01 2.594937e-01 6.315697e-01 2.192592e-01 -8.282431e-01 5.702965e-02 -2.459106e-01 -5.985818e-01 -6.675974e-02 5.006237e-01 2.770568e-01 -4.536942e-01 3.182165e-02 1.597354e-02 1.480706e-02 -5.834280e-03 -3.556655e-02 -1.857047e-02 -2.824837e-03 -3.864049e-02 -8.000565e-03 1.627282e-02 -2.065012e-02 -2.212746e-02 3.257844e-02
<VARIANCE> 25
 7.994911e+01 5.740027e+01 7.917938e+01 7.356886e+01 7.623227e+01 6.658298e+01 7.464088e+01 6.079477e+01 5.439374e+01 4.862720e+01 4.674099e+01 3.942797e+01 3.799854e+00 3.415151e+00 3.157735e+00 3.483037e+00 4.564228e+00 4.260425e+00 4.511880e+00 4.006400e+00 3.744731e+00 3.480646e+00 3.086581e+00 2.723516e+00 3.945399e+00
<GCONST> 1.122925e+02
<TRANSP> 5
 0.000000e+00 1.000000e+00 0.000000e+00 0.000000e+00 0.000000e+00
 0.000000e+00 6.577645e-01 3.422355e-01 0.000000e+00 0.000000e+00
 0.000000e+00 0.000000e+00 6.577639e-01 3.422361e-01 0.000000e+00
 0.000000e+00 0.000000e+00 0.000000e+00 7.710603e-01 2.289397e-01
 0.000000e+00 0.000000e+00 0.000000e+00 0.000000e+00 0.000000e+00
<ENDHMM>
~h "uw"
<BEGINHMM>
<NUMSTATES> 5
<STATE> 2
<MEAN> 25
 -1.757607e-02 7.133372e-01 8.203154e-01 2.757164e-01 -3.039408e-01 -4.051259e-01 -4.403725e-01 -8.064954e-01 -6.292108e-01 -8.300637e-02 3.649561e-01 -1.419261e-01 7.183471e-03 -3.477370e-03 2.004003e-02 2.732356e-03 -2.674253e-02 -1.345123e-02 -8.646782e-03 -5.663797e-03 -1.214666e-02 -3.662179e-03 1.976032e-03 -1.342446e-02 4.658746e-02
<VARIANCE> 25
 9.066944e+01 5.667173e+01 7.379809e+01 7.043398e+01 8.487291e+01 7.469939e+01 7.460477e+01 6.914372e+01 5.919919e+01 4.851353e+01 4.717421e+01 3.552602e+01 4.149116e+00 3.124458e+00 3.132229e+00 3.716580e+00 4.471871e+00 4.427828e+00 4.440144e+00 4.162180e+00 3.789093e+00 3.451685e+00 3.218632e+00 2.528341e+00 3.770493e+00
<GCONST> 1.126512e+02
<STATE> 3
<MEAN> 25
 2.961618e-03 6.976055e-01 8.886031e-01 2.818131e-01 -3.860568e-01 -4.497689e-01 -4.684679e-01 -8.168349e-01 -6.615970e-01 -9.266236e-02 3.732143e-01 -1.737472e-01 1.019494e-02 -8.181941e-03 2.198224e-02 1.317210e-03 -2.760135e-02 -1.784098e-02 -1.140789e-02 -3.206691e-03 -9.230299e-03 -3.094640e-03 9.876972e-04 -1.129921e-02 4.606423e-02
<VARIANCE> 25
 9.085645e+01 5.620745e+01 7.399944e+01 7.002249e+01 8.508867e+01 7.452003e+01 7.453527e+01 6.907469e+01 5.935712e+01 4.866861e+01 4.744458e+01 3.571333e+01 4.154552e+00 3.122952e+00 3.136561e+00 3.713206e+00 4.500824e+00 4.427772e+00 4.434042e+00 4.171013e+00 3.799101e+00 3.467064e+00 3.225467e+00 2.529673e+00 3.779784e+00
<GCONST> 1.126776e+02
<STATE> 4
<MEAN> 25
 3.824456e-02 6.512282e-01 9.972889e-01 3.144736e-01 -4.956434e-01 -5.369643e-01 -5.030121e-01 -8.110753e-01 -6.749531e-01 -9.117788e-02 4.010773e-01 -2.084566e-01 8.001240e-03 -1.034377e-02 2.241564e-02 4.641294e-04 -2.298588e-02 -1.600859e-02 -9.776981e-03 2.630387e-03 -3.765112e-03 -7.557396e-04 3.929543e-04 -8.168916e-03 3.401858e-02
<VARIANCE> 25
 9.067503e+01 5.583737e+01 7.450847e+01 6.885126e+01 8.551382e+01 7.423706e+01 7.435135e+01 6.919290e+01 5.980191e+01 4.896161e+01 4.799966e+01 3.611126e+01 4.099648e+00 3.115527e+00 3.123056e+00 3.663457e+00 4.475653e+00 4.380330e+00 4.376664e+00 4.153261e+00 3.793069e+00 3.475127e+00 3.226844e+00 2.528083e+00 3.773807e+00
<GCONST> 1.126274e+02
<TRANSP> 5
 0.000000e+00 1.000000e+00 0.000000e+00 0.000000e+00 0.000000e+00
 0.000000e+00 6.551871e-01 3.448129e-01 0.000000e+00 0.000000e+00
 0.000000e+00 0.000000e+00 6.551870e-01 3.448131e-01 0.000000e+00
 0.000000e+00 0.000000e+00 0.000000e+00 7.681962e-01 2.318038e-01
 0.000000e+00 0.000000e+00 0.000000e+00 0.000000e+00 0.000000e+00
<ENDHMM>
~h "zh"
<BEGINHMM>
<NUMSTATES> 5
<STATE> 2
<MEAN> 25
 5.567952e-01 6.694492e-01 3.733578e+00 4.633325e+00 5.579424e-01 1.086526e+00 9.347782e-02 -9.446980e-01 9.367982e-01 -1.651695e+00 1.908390e+00 7.405553e-01 -5.046531e-02 -2.778305e-02 1.131592e-01 1.392891e-01 -2.536668e-02 -4.288547e-02 7.161792e-02 1.046186e-01 -1.825459e-02 6.860086e-03 8.252279e-02 -1.164480e-02 -4.129292e-02
<VARIANCE> 25
 9.212517e+01 7.364087e+01 7.741379e+01 7.791785e+01 1.013211e+02 7.021320e+01 9.530221e+01 7.711618e+01 5.259093e+01 4.693135e+01 3.680404e+01 2.553701e+01 4.580097e+00 4.384244e+00 3.908329e+00 3.041924e+00 5.695771e+00 2.896354e+00 4.028116e+00 4.062292e+00 3.174345e+00 3.260808e+00 1.875785e+00 2.250091e+00 4.531329e+00
<GCONST> 1.122649e+02
<STATE> 3
<MEAN> 25
 4.092228e-01 5.805620e-01 4.032169e+00 4.970808e+00 5.037395e-01 9.803042e-01 2.835473e-01 -6.672404e-01 9.087234e-01 -1.632927e+00 2.131410e+00 7.146805e-01 -5.527346e-02 -3.469438e-02 1.012629e-01 1.118711e-01 -1.160649e-02 -3.636407e-02 7.919180e-02 1.092009e-01 -1.549922e-02 1.709132e-02 8.296521e-02 -1.239394e-02 -2.635590e-02
<VARIANCE> 25
 9.143781e+01 7.181133e+01 7.962888e+01 7.500936e+01 1.016138e+02 7.008109e+01 9.573016e+01 7.612567e+01 5.192328e+01 4.831927e+01 3.696553e+01 2.549366e+01 4.551764e+00 4.337143e+00 3.916291e+00 3.041036e+00 5.675247e+00 2.932755e+00 4.028543e+00 3.982005e+00 3.149985e+00 3.269434e+00 1.921048e+00 2.241460e+00 4.564821e+00
<GCONST> 1.122301e+02
<STATE> 4
<MEAN> 25
 1.940536e-01 5.065171e-01 4.371770e+00 5.284490e+00 5.272107e-01 9.214858e-01 6.023446e-01 -3.142699e-01 9.293916e-01 -1.655884e+00 2.430105e+00 7.205936e-01 -6.093813e-02 -4.439102e-02 8.962836e-02 8.339930e-02 6.162577e-03 -2.750495e-02 8.504536e-02 1.109474e-01 -7.363176e-03 2.562619e-02 8.273026e-02 -1.185945e-02 -1.193427e-02
<VARIANCE> 25
 9.075690e+01 6.996393e+01 8.114543e+01 7.229601e+01 1.013017e+02 7.016842e+01 9.612264e+01 7.516570e+01 5.121091e+01 4.986126e+01 3.726743e+01 2.538279e+01 4.497747e+00 4.273404e+00 3.870324e+00 3.022666e+00 5.596397e+00 2.965266e+00 3.974036e+00 3.852869e+00 3.112739e+00 3.254329e+00 1.964794e+00 2.210851e+00 4.588022e+00
<GCONST> 1.120927e+02
<TRANSP> 5
 0.000000e+00 1.000000e+00 0.000000e+00 0.000000e+00 0.000000e+00
 0.000000e+00 6.104991e-01 3.895008e-01 0.000000e+00 0.000000e+00
 0.000000e+00 0.000000e+00 6.104991e-01 3.895009e-01 0.000000e+00
 0.000000e+00 0.000000e+00 0.000000e+00 7.126538e-01 2.873462e-01
 0.000000e+00 0.000000e+00 0.000000e+00 0.000000e+00 0.000000e+00
<ENDHMM>
~h "sil"
<BEGINHMM>
<NUMSTATES> 5
<STATE> 2
<MEAN> 25
 -4.928234e+00 -1.768090e+00 -5.242260e-01 3.602449e+00 5.013829e+00 3.022986e+00 4.746747e+00 4.126365e+00 3.856421e+00 1.381714e+00 2.686601e+00 3.147733e+00 -2.310381e-02 -1.434933e-01 -2.889583e-02 1.153158e-02 -4.076228e-02 -3.761011e-02 -1.743757e-02 1.278925e-02 9.126643e-02 -3.586207e-03 -5.148312e-02 1.389746e-02 -1.369836e-01
<VARIANCE> 25
