~o
<STREAMINFO> 1 25
<VECSIZE> 25<NULLD><MFCC_D_N_Z_0><DIAGC>
~h "b"
<BEGINHMM>
<NUMSTATES> 5
<STATE> 2
<MEAN> 25
 3.954630e+00 1.292699e+00 -1.719937e-02 1.317137e+00 5.723232e-01 1.853125e-01 -1.585043e+00 -1.461249e+00 -1.772522e-01 -3.217042e-01 -8.062133e-02 -1.077613e+00 3.138377e-01 -3.328618e-01 -9.264494e-02 -3.705969e-01 -2.589314e-01 -1.883464e-01 -3.519741e-01 -1.668269e-01 -1.211753e-02 -1.236400e-01 -1.234087e-01 -2.184014e-01 8.596892e-01
<VARIANCE> 25
 4.519546e+01 6.356667e+01 5.977017e+01 8.607890e+01 7.293246e+01 7.085349e+01 8.006074e+01 5.511382e+01 6.160303e+01 4.944098e+01 4.852154e+01 4.533494e+01 3.113205e+00 5.350585e+00 3.859233e+00 6.443518e+00 6.318359e+00 5.857890e+00 5.932856e+00 4.668604e+00 4.817908e+00 3.965781e+00 3.719216e+00 3.345213e+00 1.034988e+01
<GCONST> 1.158828e+02
<STATE> 3
<MEAN> 25
 4.558961e+00 4.649151e-01 -1.251757e-02 3.579836e-01 -1.678800e-01 -2.627949e-01 -2.374850e+00 -1.791453e+00 -2.998066e-01 -5.287567e-01 -2.590080e-01 -1.634392e+00 1.458726e-01 -4.995936e-01 -3.416468e-04 -4.981553e-01 -4.770461e-01 -2.108975e-01 -2.232151e-01 -4.630608e-02 -2.573663e-02 -5.192371e-02 -7.751459e-02 -1.693512e-01 1.059353e+00
<VARIANCE> 25
 4.067245e+01 6.240460e+01 6.356377e+01 9.481618e+01 7.144705e+01 7.268353e+01 8.192767e+01 5.703128e+01 6.470867e+01 4.891186e+01 5.115816e+01 4.699185e+01 2.909106e+00 5.831098e+00 4.481503e+00 7.462518e+00 6.596485e+00 6.010061e+00 6.009023e+00 5.060157e+00 5.164145e+00 4.336282e+00 3.963428e+00 3.630197e+00 1.051476e+01
<GCONST> 1.169029e+02
<STATE> 4
<MEAN> 25
 5.101754e+00 -6.044545e-01 2.482113e-01 -9.055754e-01 -1.817188e+00 -1.011619e+00 -3.630154e+00 -2.083796e+00 -1.452326e+00 -1.239346e+00 -4.867440e-01 -2.317344e+00 -4.819596e-02 -3.660299e-01 5.077994e-02 -4.469261e-01 -4.438838e-01 -1.248867e-01 8.198254e-03 2.917393e-02 -6.563510e-02 -7.370088e-03 -1.418768e-02 2.946668e-02 7.569817e-01
<VARIANCE> 25
 3.682975e+01 6.529265e+01 6.984236e+01 9.360172e+01 7.887736e+01 7.381056e+01 8.400349e+01 6.140006e+01 7.232597e+01 5.275858e+01 5.820556e+01 4.748363e+01 2.579154e+00 5.128389e+00 4.584764e+00 6.948527e+00 6.103637e+00 5.149252e+00 5.621064e+00 5.373416e+00 4.987892e+00 4.433474e+00 3.904127e+00 3.531692e+00 8.739109e+00
<GCONST> 1.166934e+02
<TRANSP> 5
 0.000000e+00 1.000000e+00 0.000000e+00 0.000000e+00 0.000000e+00
 0.000000e+00 5.308620e-01 4.691381e-01 0.000000e+00 0.000000e+00
 0.000000e+00 0.000000e+00 5.359344e-01 4.640656e-01 0.000000e+00
 0.000000e+00 0.000000e+00 0.000000e+00 6.681548e-01 3.318452e-01
 0.000000e+00 0.000000e+00 0.000000e+00 0.000000e+00 0.000000e+00
<ENDHMM>
~h "d"
<BEGINHMM>
<NUMSTATES> 5
<STATE> 2
<MEAN> 25
 2.318714e+00 6.163584e-01 3.244047e+00 2.289493e+00 -1.960577e+00 -9.848742e-01 5.153245e-01 -4.848229e-01 -9.264140e-01 -1.112192e+00 -1.314926e+00 3.229125e-01 -1.086445e-01 8.293235e-02 1.438262e-01 1.629786e-01 1.181106e-01 1.988161e-02 1.084997e-01 -2.118485e-02 1.091259e-01 -8.179054e-03 1.888665e-02 3.650082e-02 -1.949328e-01
<VARIANCE> 25
 4.752101e+01 6.395768e+01 5.460713e+01 5.963343e+01 7.287870e+01 6.024882e+01 6.361507e+01 6.078683e+01 5.485921e+01 4.560620e+01 4.117775e+01 3.463885e+01 3.327023e+00 4.471526e+00 3.265245e+00 4.566561e+00 5.630986e+00 4.734372e+00 4.329198e+00 4.513240e+00 3.952512e+00 3.674341e+00 3.054875e+00 2.806274e+00 6.658009e+00
<GCONST> 1.121675e+02
<STATE> 3
<MEAN> 25
 2.081207e+00 6.199204e-01 3.364161e+00 2.363765e+00 -1.813776e+00 -9.986799e-01 5.527325e-01 -4.418247e-01 -7.005802e-01 -1.105979e+00 -1.206948e+00 2.847629e-01 -2.142404e-01 -1.013604e-02 -5.095943e-02 -1.256534e-02 1.239749e-01 1.146794e-02 1.075452e-02 6.343738e-02 1.469780e-01 6.334812e-02 1.136521e-01 -5.087307e-03 1.159451e-02
<VARIANCE> 25
 4.735907e+01 6.199116e+01 5.196685e+01 5.765211e+01 7.129510e+01 5.808266e+01 6.067169e+01 5.834365e+01 5.279887e+01 4.490660e+01 4.012935e+01 3.393606e+01 3.470359e+00 4.372170e+00 3.230731e+00 4.301030e+00 5.706048e+00 4.954742e+00 4.378569e+00 4.568749e+00 3.919851e+00 3.680835e+00 3.010671e+00 2.806499e+00 6.449121e+00
<GCONST> 1.117810e+02
<STATE> 4
<MEAN> 25
 1.354175e+00 3.907796e-01 2.914522e+00 2.439469e+00 -1.325886e+00 -6.443337e-01 8.536687e-01 2.610588e-02 -2.177309e-01 -7.136637e-01 -7.077713e-01 4.157957e-01 -2.524912e-01 -3.542759e-02 -2.235156e-01 -1.029198e-01 1.487544e-01 3.644945e-02 -8.837614e-02 6.212535e-02 1.297134e-01 1.500999e-01 1.722307e-01 -1.161839e-02 1.181537e-01
<VARIANCE> 25
 4.949445e+01 5.875147e+01 4.847072e+01 5.326944e+01 7.227039e+01 5.692231e+01 6.021403e+01 5.744697e+01 5.169791e+01 4.450840e+01 4.068893e+01 3.364785e+01 3.343744e+00 3.809124e+00 3.000830e+00 3.776316e+00 5.025367e+00 4.721683e+00 4.281319e+00 4.387948e+00 3.700420e+00 3.526291e+00 2.928710e+00 2.639459e+00 5.186716e+00
<GCONST> 1.105442e+02
<TRANSP> 5
 0.000000e+00 1.000000e+00 0.000000e+00 0.000000e+00 0.000000e+00
 0.000000e+00 5.152486e-01 4.847514e-01 0.000000e+00 0.000000e+00
 0.000000e+00 0.000000e+00 5.126387e-01 4.873612e-01 0.000000e+00
 0.000000e+00 0.000000e+00 0.000000e+00 6.233146e-01 3.766854e-01
 0.000000e+00 0.000000e+00 0.000000e+00 0.000000e+00 0.000000e+00
<ENDHMM>
~h "f"
<BEGINHMM>
<NUMSTATES> 5
<STATE> 2
<MEAN> 25
 -7.356629e+00 2.615955e-01 -1.968402e+00 3.861533e+00 3.090456e+00 2.027066e+00 2.231155e+00 1.544325e+00 2.277248e+00 1.126860e+00 1.354130e+00 2.040178e+00 -9.937686e-01 -1.448325e-01 -1.557312e-01 2.143058e-01 7.460429e-02 1.785902e-01 1.964680e-01 2.097938e-01 2.607960e-01 1.818365e-01 2.717659e-01 2.622303e-01 -1.207869e-01
<VARIANCE> 25
 8.021400e+01 3.409119e+01 3.890216e+01 4.082290e+01 3.842511e+01 4.549173e+01 4.893093e+01 3.787334e+01 3.547467e+01 3.088198e+01 2.980915e+01 2.871314e+01 6.229981e+00 2.316238e+00 2.421139e+00 3.509241e+00 2.888781e+00 3.553161e+00 3.538529e+00 3.166268e+00 3.123451e+00 2.768311e+00 2.457903e+00 2.361393e+00 2.513849e+00
<GCONST> 1.043645e+02
<STATE> 3
<MEAN> 25
 -8.514793e+00 -1.158974e-01 -2.351653e+00 3.803399e+00 2.881284e+00 2.119205e+00 2.332967e+00 1.807585e+00 2.646398e+00 1.422907e+00 1.732319e+00 2.266055e+00 1.519763e-01 -1.724587e-01 -1.855865e-01 -2.441704e-01 -1.851335e-01 -7.883511e-02 -8.784533e-02 2.387155e-02 4.676934e-02 3.064187e-02 5.427884e-02 3.576088e-04 2.262109e-01
<VARIANCE> 25
 7.942979e+01 3.302094e+01 4.051011e+01 4.237817e+01 3.784100e+01 4.369997e+01 4.850067e+01 3.663608e+01 3.472994e+01 2.900291e+01 2.795930e+01 2.562340e+01 7.225534e+00 2.174802e+00 2.497694e+00 3.518209e+00 2.861666e+00 3.644075e+00 3.565995e+00 3.059944e+00 3.083708e+00 2.698663e+00 2.373559e+00 2.211183e+00 2.753567e+00
<GCONST> 1.041017e+02
<STATE> 4
<MEAN> 25
 -6.585132e+00 -4.248949e-01 -2.590580e+00 2.674826e+00 2.670199e+00 1.909907e+00 2.721092e+00 2.215827e+00 2.910659e+00 1.590889e+00 2.224115e+00 2.282195e+00 1.117130e+00 -1.295224e-01 -1.485031e-01 -5.993412e-01 -3.515513e-01 -1.966413e-01 -2.849346e-01 -1.226439e-01 -1.599501e-01 -1.116037e-01 -1.072722e-01 -2.161214e-01 4.970558e-01
<VARIANCE> 25
 8.509375e+01 3.871942e+01 4.831085e+01 5.243859e+01 4.834460e+01 4.680069e+01 5.631025e+01 4.142242e+01 3.977658e+01 3.116776e+01 2.978484e+01 2.780247e+01 6.909307e+00 2.534474e+00 2.878116e+00 3.952020e+00 3.016455e+00 3.710556e+00 3.895477e+00 3.142679e+00 3.264634e+00 2.632165e+00 2.419848e+00 2.321619e+00 2.723330e+00
<GCONST> 1.062982e+02
<TRANSP> 5
 0.000000e+00 1.000000e+00 0.000000e+00 0.000000e+00 0.000000e+00
 0.000000e+00 6.258478e-01 3.741522e-01 0.000000e+00 0.000000e+00
 0.000000e+00 0.000000e+00 6.113393e-01 3.886607e-01 0.000000e+00
 0.000000e+00 0.000000e+00 0.000000e+00 7.546756e-01 2.453244e-01
 0.000000e+00 0.000000e+00 0.000000e+00 0.000000e+00 0.000000e+00
<ENDHMM>
~h "g"
<BEGINHMM>
<NUMSTATES> 5
<STATE> 2
<MEAN> 25
 3.125736e+00 2.195487e+00 4.124619e+00 2.820740e+00 -2.360400e+00 -2.397756e+00 -1.667750e+00 1.448759e-02 -1.511320e+00 3.921379e-01 3.247149e-01 -3.148196e-01 -8.183923e-02 3.993490e-02 -1.246954e-02 1.379438e-01 2.868077e-01 -1.985763e-01 2.161160e-02 1.123470e-01 1.611454e-01 6.867412e-03 -3.183277e-02 1.385792e-01 -1.406845e-01
<VARIANCE> 25
 4.793748e+01 7.173923e+01 6.576677e+01 5.274468e+01 1.057940e+02 6.844936e+01 8.335385e+01 6.206705e+01 6.338459e+01 5.289885e+01 4.830263e+01 3.297633e+01 3.275585e+00 6.582715e+00 5.860063e+00 3.784379e+00 9.863185e+00 5.633081e+00 6.679084e+00 5.238848e+00 5.807271e+00 4.329780e+00 3.963609e+00 3.057501e+00 8.096734e+00
<GCONST> 1.167246e+02
<STATE> 3
<MEAN> 25
 2.864020e+00 1.767271e+00 3.342750e+00 3.183580e+00 -1.289794e+00 -2.797318e+00 -1.427569e+00 1.275043e-01 -1.023859e+00 5.478488e-01 -4.998574e-02 2.221588e-01 -1.316700e-01 -3.138813e-01 -4.858084e-01 -9.239015e-02 3.994829e-01 -1.304130e-01 -1.112166e-02 -4.888296e-02 1.920042e-01 8.675817e-02 -9.304805e-02 1.423035e-01 3.366086e-01
<VARIANCE> 25
 4.502398e+01 7.522060e+01 7.290733e+01 5.364818e+01 1.174922e+02 6.434008e+01 8.192892e+01 5.804785e+01 6.301633e+01 5.161433e+01 4.732739e+01 2.937213e+01 3.470608e+00 6.531530e+00 6.368786e+00 4.106742e+00 9.941525e+00 5.429455e+00 6.561401e+00 4.977412e+00 5.565797e+00 4.606281e+00 4.048256e+00 3.074793e+00 8.196684e+00
<GCONST> 1.167972e+02
<STATE> 4
<MEAN> 25
 2.688354e+00 2.549240e-01 1.360673e+00 3.180196e+00 -2.003953e-03 -3.180308e+00 -1.501371e+00 2.309805e-01 -3.177169e-01 1.213306e+00 -3.623174e-01 6.610870e-01 6.130874e-02 -4.565575e-01 -6.711343e-01 -4.005002e-01 2.192211e-01 -4.373733e-02 -2.403117e-01 -1.113202e-01 7.317478e-02 7.806443e-02 -3.280952e-03 -7.248197e-02 6.894883e-01
<VARIANCE> 25
 4.539846e+01 7.667023e+01 7.990282e+01 5.535482e+01 1.128024e+02 6.296423e+01 8.071711e+01 5.530842e+01 5.545348e+01 5.307930e+01 4.462491e+01 2.961733e+01 3.276736e+00 5.339036e+00 5.587410e+00 4.515850e+00 9.056940e+00 4.851795e+00 6.361851e+00 4.292683e+00 4.731966e+00 4.652833e+00 3.894548e+00 3.204069e+00 7.284761e+00
<GCONST> 1.157243e+02
<TRANSP> 5
 0.000000e+00 1.000000e+00 0.000000e+00 0.000000e+00 0.000000e+00
 0.000000e+00 5.735008e-01 4.264993e-01 0.000000e+00 0.000000e+00
 0.000000e+00 0.000000e+00 5.655011e-01 4.344990e-01 0.000000e+00
 0.000000e+00 0.000000e+00 0.000000e+00 6.712857e-01 3.287143e-01
 0.000000e+00 0.000000e+00 0.000000e+00 0.000000e+00 0.000000e+00
<ENDHMM>
~h "k"
<BEGINHMM>
<NUMSTATES> 5
<STATE> 2
<MEAN> 25
 -1.979863e+00 -2.508786e-03 6.229462e-01 1.939553e+00 1.105581e+00 1.653364e-02 1.928059e+00 1.138713e+00 2.785635e-02 1.903544e+00 1.361882e+00 8.745850e-01 -4.510942e-01 -3.134584e-01 -2.830159e-01 -8.728355e-04 4.410033e-01 3.354590e-01 3.293802e-01 1.768225e-01 2.931537e-01 3.292720e-01 2.251186e-01 2.883251e-01 -2.629287e-01
<VARIANCE> 25
 5.290179e+01 4.704140e+01 6.416131e+01 5.981509e+01 7.658887e+01 6.268674e+01 5.294714e+01 6.207416e+01 5.276079e+01 4.421256e+01 4.023916e+01 3.603141e+01 4.057947e+00 4.878592e+00 4.848836e+00 5.245483e+00 6.234535e+00 6.142902e+00 4.772070e+00 5.639624e+00 4.953554e+00 4.440914e+00 3.776408e+00 3.375261e+00 1.030430e+01
<GCONST> 1.147557e+02
<STATE> 3
<MEAN> 25
 -2.887046e+00 -9.935266e-01 2.909016e-02 1.358398e+00 1.605642e+00 4.814753e-01 2.344994e+00 1.426781e+00 4.652151e-01 2.456441e+00 1.668239e+00 1.384342e+00 -2.762908e-01 -3.814401e-01 -3.156581e-01 -3.024687e-01 1.571894e-01 1.788395e-01 5.304324e-02 7.460062e-02 1.823816e-01 1.302739e-01 8.875660e-02 1.199632e-01 5.094655e-01
<VARIANCE> 25
 5.042102e+01 4.642000e+01 6.534835e+01 6.131180e+01 7.454389e+01 6.168921e+01 5.168589e+01 5.766238e+01 5.087107e+01 4.548188e+01 3.774521e+01 3.405504e+01 4.655115e+00 4.651292e+00 4.988040e+00 5.019216e+00 6.228198e+00 6.022715e+00 4.680160e+00 5.469584e+00 4.992838e+00 4.660921e+00 3.828008e+00 3.405360e+00 9.395272e+00
<GCONST> 1.144572e+02
<STATE> 4
<MEAN> 25
 -3.377581e+00 -1.762686e+00 -6.007288e-01 6.263396e-01 1.899140e+00 9.795328e-01 2.381452e+00 1.345459e+00 8.546219e-01 2.590024e+00 1.652119e+00 1.497844e+00 7.025016e-02 -1.313529e-01 -1.727026e-01 -2.903102e-01 -8.345302e-02 2.032237e-02 -1.807635e-01 -1.385160e-01 2.814922e-03 -1.395642e-01 -1.232105e-01 -1.067937e-01 7.118161e-01
<VARIANCE> 25
 5.478378e+01 4.687114e+01 6.332609e+01 6.189075e+01 7.426247e+01 6.141172e+01 5.032613e+01 5.469883e+01 5.195220e+01 4.592082e+01 3.810422e+01 3.376842e+01 4.879082e+00 3.914927e+00 4.413594e+00 4.234562e+00 5.602969e+00 5.355635e+00 4.529428e+00 5.109404e+00 4.622966e+00 4.521525e+00 3.672325e+00 3.239453e+00 6.781881e+00
<GCONST> 1.132053e+02
<TRANSP> 5
 0.000000e+00 1.000000e+00 0.000000e+00 0.000000e+00 0.000000e+00
 0.000000e+00 5.550890e-01 4.449110e-01 0.000000e+00 0.000000e+00
 0.000000e+00 0.000000e+00 5.478367e-01 4.521633e-01 0.000000e+00
 0.000000e+00 0.000000e+00 0.000000e+00 6.597834e-01 3.402166e-01
 0.000000e+00 0.000000e+00 0.000000e+00 0.000000e+00 0.000000e+00
<ENDHMM>
~h "l"
<BEGINHMM>
<NUMSTATES> 5
<STATE> 2
<MEAN> 25
 5.735109e+00 1.695324e+00 -4.013002e+00 -1.176189e+01 5.019248e-01 5.190652e+00 -2.611474e+00 -4.187763e+00 4.038325e-02 -5.124894e-01 1.482264e-01 -6.461159e-01 3.898180e-01 3.117083e-01 -1.054077e-01 -1.003121e+00 -1.060374e-02 3.518639e-01 -3.104176e-01 -2.008769e-01 -1.501746e-01 -9.416592e-02 1.337423e-01 7.025728e-02 8.420473e-02
<VARIANCE> 25
 3.868800e+01 4.811671e+01 4.821137e+01 1.227907e+02 5.958862e+01 6.998886e+01 8.201735e+01 6.536630e+01 5.475842e+01 4.646013e+01 4.665813e+01 4.238623e+01 2.524045e+00 2.745721e+00 2.485681e+00 6.895466e+00 3.549240e+00 4.040434e+00 4.462117e+00 4.700897e+00 3.960387e+00 3.800307e+00 3.517094e+00 2.968281e+00 2.409029e+00
<GCONST> 1.109361e+02
<STATE> 3
<MEAN> 25
 6.092278e+00 2.205145e+00 -3.899511e+00 -1.254889e+01 6.138525e-01 5.299335e+00 -3.154845e+00 -4.137996e+00 -2.372436e-01 -6.139271e-01 4.177594e-01 -4.653693e-01 -6.249622e-03 1.330558e-02 1.219328e-01 1.986001e-01 3.962073e-02 -1.447211e-01 -1.431810e-01 1.324200e-01 4.598398e-02 6.716205e-03 -5.413445e-02 -1.470212e-02 -7.064316e-02
<VARIANCE> 25
 3.644545e+01 4.549215e+01 4.855347e+01 1.227135e+02 5.933677e+01 7.061056e+01 8.596339e+01 6.680508e+01 5.560254e+01 4.845379e+01 4.876456e+01 4.371301e+01 1.964655e+00 2.997946e+00 2.358489e+00 6.335713e+00 3.348995e+00 3.914169e+00 4.396850e+00 4.690642e+00 4.252004e+00 3.854687e+00 3.517877e+00 3.044123e+00 2.367172e+00
<GCONST> 1.107190e+02
<STATE> 4
<MEAN> 25
 5.557715e+00 1.830000e+00 -3.370328e+00 -1.049836e+01 8.109283e-01 4.522148e+00 -2.983163e+00 -3.551445e+00 2.453956e-01 -3.871310e-01 7.098071e-02 -5.918528e-01 -3.711450e-01 -1.973549e-01 3.635280e-01 1.121967e+00 -4.192333e-02 -5.186512e-01 1.146786e-01 3.545747e-01 1.248980e-01 2.625224e-02 -1.762206e-01 -2.402074e-02 -1.866383e-01
<VARIANCE> 25
 3.924232e+01 4.874689e+01 4.770873e+01 1.185624e+02 5.999825e+01 7.079235e+01 8.842447e+01 6.966084e+01 5.943098e+01 5.261980e+01 5.013033e+01 4.587817e+01 2.104332e+00 2.984735e+00 2.578377e+00 5.740486e+00 3.754053e+00 3.982181e+00 4.563046e+00 5.145384e+00 4.731358e+00 4.040854e+00 3.633772e+00 3.073641e+00 2.574046e+00
<GCONST> 1.117145e+02
<TRANSP> 5
 0.000000e+00 1.000000e+00 0.000000e+00 0.000000e+00 0.000000e+00
 0.000000e+00 6.308600e-01 3.691401e-01 0.000000e+00 0.000000e+00
 0.000000e+00 0.000000e+00 6.151156e-01 3.848844e-01 0.000000e+00
 0.000000e+00 0.000000e+00 0.000000e+00 7.140912e-01 2.859087e-01
 0.000000e+00 0.000000e+00 0.000000e+00 0.000000e+00 0.000000e+00
<ENDHMM>
~h "m"
<BEGINHMM>
<NUMSTATES> 5
<STATE> 2
<MEAN> 25
 5.071487e+00 -3.625114e-02 4.554961e-02 2.240180e+00 -2.349292e-02 -5.644522e-01 -1.589195e+00 -1.880705e+00 -3.460296e+00 -1.718083e+00 -4.482782e-01 -2.705031e+00 1.605178e-01 1.285095e-01 7.314012e-02 3.213451e-01 5.919775e-02 -4.117279e-03 2.727609e-02 -1.843303e-01 -3.874067e-01 -2.037378e-01 1.495065e-01 -1.265606e-01 -2.373971e-01
<VARIANCE> 25
 4.821329e+01 5.565318e+01 4.687802e+01 6.012581e+01 6.034877e+01 5.930428e+01 7.504288e+01 8.534856e+01 7.940392e+01 5.178727e+01 5.312312e+01 4.862397e+01 1.838919e+00 2.889828e+00 2.542132e+00 3.971621e+00 3.325131e+00 3.521130e+00 3.472245e+00 4.786901e+00 5.085793e+00 3.397636e+00 3.308668e+00 3.017804e+00 2.520736e+00
<GCONST> 1.102404e+02
<STATE> 3
<MEAN> 25
 5.167134e+00 1.690291e-01 1.622941e-01 2.498411e+00 -5.337274e-02 -4.262780e-01 -1.271315e+00 -2.085396e+00 -3.948992e+00 -2.003079e+00 -1.461486e-01 -2.782485e+00 -4.764036e-02 -1.107346e-02 6.415431e-03 -5.149693e-02 -5.281832e-02 1.123649e-01 1.426943e-01 3.925754e-02 4.394522e-02 -6.427845e-02 7.568200e-02 3.571703e-02 -5.777989e-02
<VARIANCE> 25
 4.732851e+01 5.415962e+01 4.737374e+01 6.033205e+01 6.102765e+01 6.130605e+01 7.546723e+01 8.404086e+01 8.250895e+01 5.529560e+01 5.463566e+01 5.044670e+01 1.616982e+00 3.021915e+00 2.512082e+00 4.275670e+00 3.309579e+00 3.405495e+00 3.401628e+00 4.766843e+00 5.158828e+00 3.334519e+00 3.305163e+00 3.103139e+00 2.642787e+00
<GCONST> 1.103967e+02
<STATE> 4
<MEAN> 25
 4.333652e+00 1.381907e-01 6.354856e-02 1.969451e+00 2.883107e-01 4.667830e-01 -2.178440e-01 -1.531983e+00 -2.858335e+00 -1.833511e+00 5.572897e-02 -2.313267e+00 -2.303528e-01 -1.619669e-01 -4.601928e-02 -3.501393e-01 -1.348204e-01 1.462502e-01 1.743260e-01 2.572040e-01 4.089170e-01 8.261594e-02 -5.361997e-03 1.760177e-01 9.503617e-02
<VARIANCE> 25
 5.002341e+01 5.788140e+01 4.786243e+01 6.320907e+01 6.696845e+01 6.426665e+01 7.144693e+01 7.914378e+01 8.236093e+01 6.087438e+01 5.234555e+01 5.075113e+01 1.569077e+00 3.092338e+00 2.559124e+00 4.244924e+00 3.424576e+00 3.192834e+00 3.315105e+00 4.496607e+00 4.949732e+00 3.530543e+00 3.331764e+00 3.146630e+00 2.676307e+00
<GCONST> 1.105984e+02
<TRANSP> 5
 0.000000e+00 1.000000e+00 0.000000e+00 0.000000e+00 0.000000e+00
 0.000000e+00 5.356259e-01 4.643741e-01 0.000000e+00 0.000000e+00
 0.000000e+00 0.000000e+00 5.349751e-01 4.650249e-01 0.000000e+00
 0.000000e+00 0.000000e+00 0.000000e+00 6.661968e-01 3.338032e-01
 0.000000e+00 0.000000e+00 0.000000e+00 0.000000e+00 0.000000e+00
<ENDHMM>
~h "n"
<BEGINHMM>
<NUMSTATES> 5
<STATE> 2
<MEAN> 25
 3.977628e+00 2.100545e-01 2.259007e+00 1.205746e+00 -2.553613e+00 -1.316534e+00 -1.719796e-01 -7.209453e-01 -3.090611e+00 -1.724425e+00 -2.422420e+00 -1.247696e+00 1.647439e-01 3.337192e-01 1.777054e-01 3.383065e-01 6.784167e-02 8.230539e-03 3.004966e-02 -2.963515e-01 -2.955382e-01 -4.321970e-02 -1.528831e-01 -5.873040e-02 -3.543129e-01
<VARIANCE> 25
 4.167908e+01 5.690059e+01 4.602949e+01 5.238144e+01 6.567575e+01 5.966389e+01 6.060564e+01 6.879600e+01 6.848791e+01 5.315213e+01 4.800548e+01 4.313512e+01 1.787142e+00 3.246764e+00 2.402920e+00 3.373233e+00 3.653163e+00 3.690777e+00 3.465522e+00 5.026998e+00 4.266803e+00 3.470558e+00 2.851487e+00 2.614518e+00 2.663615e+00
<GCONST> 1.089443e+02
<STATE> 3
<MEAN> 25
 4.087251e+00 8.016144e-01 2.440913e+00 1.844361e+00 -2.235347e+00 -1.164140e+00 -1.596542e-01 -1.222048e+00 -3.366406e+00 -1.738314e+00 -2.572759e+00 -1.280382e+00 -7.493612e-02 2.142577e-01 3.269400e-02 2.000118e-01 1.970737e-01 1.393973e-01 1.548468e-02 -1.273422e-01 2.078825e-02 -9.702776e-03 -7.086609e-03 8.287963e-03 -3.012309e-01
<VARIANCE> 25
 4.209545e+01 5.578178e+01 4.262327e+01 5.129009e+01 6.356449e+01 5.653190e+01 5.798298e+01 6.909129e+01 6.689896e+01 5.352421e+01 4.787928e+01 4.367528e+01 1.873500e+00 3.356468e+00 2.348531e+00 3.407259e+00 3.573386e+00 3.702471e+00 3.430686e+00 5.233715e+00 4.401744e+00 3.521715e+00 2.921442e+00 2.633218e+00 2.606468e+00
<GCONST> 1.088374e+02
<STATE> 4
<MEAN> 25
 3.360950e+00 1.018679e+00 2.258256e+00 2.312588e+00 -1.357716e+00 -5.346295e-01 1.336176e-01 -9.455013e-01 -2.828004e+00 -1.797016e+00 -2.212127e+00 -1.047633e+00 -3.625262e-01 3.443921e-02 -9.353621e-02 -7.324296e-03 2.737518e-01 2.429446e-01 4.093744e-02 1.101709e-01 3.236787e-01 4.639442e-02 1.757306e-01 7.572687e-02 -1.652600e-01
<VARIANCE> 25
 4.493037e+01 5.654616e+01 4.054279e+01 5.055990e+01 6.376417e+01 5.515833e+01 5.661568e+01 6.774830e+01 6.396749e+01 5.367913e+01 4.759875e+01 4.222506e+01 2.337871e+00 3.235457e+00 2.417534e+00 3.320914e+00 3.544037e+00 3.721158e+00 3.390590e+00 4.859475e+00 4.239000e+00 3.565175e+00 3.009070e+00 2.638629e+00 2.591713e+00
<GCONST> 1.088047e+02
<TRANSP> 5
 0.000000e+00 1.000000e+00 0.000000e+00 0.000000e+00 0.000000e+00
 0.000000e+00 5.260974e-01 4.739026e-01 0.000000e+00 0.000000e+00
 0.000000e+00 0.000000e+00 5.232518e-01 4.767483e-01 0.000000e+00
 0.000000e+00 0.000000e+00 0.000000e+00 6.418046e-01 3.581954e-01
 0.000000e+00 0.000000e+00 0.000000e+00 0.000000e+00 0.000000e+00
<ENDHMM>
~h "p"
<BEGINHMM>
<NUMSTATES> 5
<STATE> 2
<MEAN> 25
 -5.399312e-01 1.231991e+00 -1.028183e+00 1.731726e+00 3.220118e+00 2.248911e+00 2.624744e+00 5.246463e-01 2.144246e+00 2.129755e+00 1.325587e+00 7.770438e-01 -2.831604e-01 -2.907837e-01 -2.657013e-01 3.261457e-02 3.735398e-01 2.685121e-01 3.472947e-01 2.209884e-01 3.041798e-01 1.914555e-01 2.094583e-01 2.824460e-01 -7.035273e-02
<VARIANCE> 25
 5.583266e+01 4.393543e+01 4.231956e+01 4.499351e+01 4.265870e+01 5.047152e+01 5.330122e+01 4.604869e+01 4.247447e+01 3.608298e+01 3.639664e+01 3.167841e+01 4.019612e+00 3.697095e+00 2.635106e+00 3.509092e+00 3.752418e+00 4.449922e+00 4.182923e+00 4.078573e+00 4.094789e+00 3.479008e+00 3.182659e+00 2.650176e+00 9.079985e+00
<GCONST> 1.087388e+02
<STATE> 3
<MEAN> 25
 -1.178847e+00 2.465666e-01 -1.534873e+00 1.542294e+00 3.618526e+00 2.377301e+00 2.984843e+00 9.138917e-01 2.570254e+00 2.263549e+00 1.593236e+00 1.252242e+00 -8.848821e-02 -5.341223e-01 -2.629417e-01 -2.362101e-01 3.531166e-02 -5.651377e-02 -4.518653e-02 6.626732e-02 6.062186e-02 -4.295014e-02 2.772908e-02 1.294210e-01 7.097272e-01
<VARIANCE> 25
 4.887337e+01 4.278179e+01 4.210222e+01 4.377918e+01 4.269323e+01 5.094736e+01 5.394223e+01 4.575350e+01 4.201240e+01 3.506215e+01 3.595817e+01 3.019395e+01 4.282176e+00 3.895585e+00 2.888419e+00 3.854135e+00 3.911674e+00 4.954926e+00 4.946707e+00 4.341413e+00 4.363913e+00 3.697057e+00 3.390830e+00 2.716465e+00 8.750447e+00
<GCONST> 1.093185e+02
<STATE> 4
<MEAN> 25
 -1.168232e+00 -1.078526e+00 -2.048951e+00 7.928104e-01 3.490865e+00 1.980074e+00 2.609521e+00 8.919190e-01 2.370227e+00 1.806911e+00 1.412651e+00 1.415580e+00 3.504954e-01 -4.824741e-01 -2.016569e-01 -4.515018e-01 -2.631556e-01 -2.682344e-01 -4.495521e-01 -1.052438e-01 -2.857051e-01 -2.817392e-01 -1.767881e-01 -7.827063e-02 1.031148e+00
<VARIANCE> 25
 4.897171e+01 4.232236e+01 4.721021e+01 4.663349e+01 4.872920e+01 5.754869e+01 6.261602e+01 4.986214e+01 4.363915e+01 3.608284e+01 3.711323e+01 3.091365e+01 4.703750e+00 3.979971e+00 3.422722e+00 3.894063e+00 4.267921e+00 5.370811e+00 5.689025e+00 4.719892e+00 4.769347e+00 3.922401e+00 3.590755e+00 2.880332e+00 7.141632e+00
<GCONST> 1.108456e+02
<TRANSP> 5
 0.000000e+00 1.000000e+00 0.000000e+00 0.000000e+00 0.000000e+00
 0.000000e+00 5.225430e-01 4.774571e-01 0.000000e+00 0.000000e+00
 0.000000e+00 0.000000e+00 5.215036e-01 4.784964e-01 0.000000e+00
 0.000000e+00 0.000000e+00 0.000000e+00 6.137763e-01 3.862238e-01
 0.000000e+00 0.000000e+00 0.000000e+00 0.000000e+00 0.000000e+00
<ENDHMM>
~h "r"
<BEGINHMM>
<NUMSTATES> 5
<STATE> 2
<MEAN> 25
 5.521870e+00 -4.006940e+00 -4.795782e+00 2.245101e+00 3.040702e-01 -4.674680e+00 -4.743309e+00 2.905143e+00 -7.229953e-01 -9.396273e-01 1.140579e+00 2.000449e-01 4.548578e-01 -1.847565e-01 -1.725559e-01 3.287108e-01 -3.626618e-02 -6.605082e-01 -4.034191e-01 4.021044e-01 1.720830e-02 -1.669334e-01 -8.950569e-02 -4.103533e-02 1.296066e-01
<VARIANCE> 25
 7.694827e+01 5.197523e+01 7.831664e+01 5.215096e+01 7.263645e+01 8.640829e+01 1.122588e+02 8.114505e+01 6.989541e+01 5.277491e+01 4.178995e+01 4.152041e+01 4.441911e+00 3.152037e+00 4.689341e+00 3.422824e+00 4.962943e+00 5.259383e+00 6.835241e+00 5.243987e+00 4.677924e+00 4.079860e+00 3.396818e+00 2.935584e+00 2.761911e+00
<GCONST> 1.146099e+02
<STATE> 3
<MEAN> 25
 6.068079e+00 -4.195952e+00 -4.861328e+00 2.770552e+00 1.949655e-01 -5.627176e+00 -5.101995e+00 3.583305e+00 -5.145772e-01 -1.173286e+00 8.557613e-01 1.365299e-01 5.189088e-02 -2.210884e-02 3.438137e-01 1.215438e-01 -3.095911e-01 -2.898578e-01 1.299673e-01 1.646921e-01 -7.765281e-02 -4.600428e-02 -9.983038e-02 -1.041816e-01 2.309374e-02
<VARIANCE> 25
 7.019715e+01 5.124634e+01 7.660708e+01 4.965482e+01 6.993159e+01 8.969538e+01 1.117453e+02 8.285267e+01 6.773858e+01 5.337238e+01 4.053387e+01 4.072921e+01 4.180441e+00 3.173219e+00 4.583815e+00 3.142777e+00 4.948526e+00 5.179314e+00 6.791275e+00 5.215668e+00 4.681921e+00 4.072519e+00 3.365388e+00 2.906043e+00 2.604615e+00
<GCONST> 1.141074e+02
<STATE> 4
<MEAN> 25
 5.553241e+00 -4.063464e+00 -3.783817e+00 2.973598e+00 -3.991491e-01 -5.619244e+00 -3.909933e+00 3.948552e+00 -5.204989e-01 -1.035484e+00 6.366899e-01 -1.072081e-01 -3.463244e-01 2.060371e-01 7.570472e-01 -1.318076e-01 -4.351406e-01 2.190482e-01 5.364775e-01 -2.533266e-01 -1.851011e-01 1.067852e-01 -5.660788e-02 -1.800390e-01 -1.308237e-01
<VARIANCE> 25
 6.798523e+01 5.168294e+01 7.630902e+01 5.061541e+01 7.514447e+01 8.941757e+01 1.039403e+02 8.165906e+01 6.632957e+01 5.573668e+01 4.105393e+01 3.987308e+01 3.695952e+00 3.088780e+00 4.183791e+00 3.080541e+00 4.706676e+00 4.919319e+00 6.010039e+00 5.008779e+00 4.515855e+00 3.907030e+00 3.219058e+00 2.826506e+00 2.630967e+00
<GCONST> 1.134293e+02
<TRANSP> 5
 0.000000e+00 1.000000e+00 0.000000e+00 0.000000e+00 0.000000e+00
 0.000000e+00 5.496514e-01 4.503486e-01 0.000000e+00 0.000000e+00
 0.000000e+00 0.000000e+00 5.388080e-01 4.611920e-01 0.000000e+00
 0.000000e+00 0.000000e+00 0.000000e+00 6.352627e-01 3.647372e-01
 0.000000e+00 0.000000e+00 0.000000e+00 0.000000e+00 0.000000e+00
<ENDHMM>
~h "s"
<BEGINHMM>
<NUMSTATES> 5
<STATE> 2
<MEAN> 25
 -1.273723e+01 6.485513e+00 -1.514494e+00 1.506221e+00 5.170520e+00 -1.392805e+00 2.591860e+00 1.397418e+00 1.800822e+00 1.728689e-01 5.874046e-01 1.508486e+00 -2.576584e+00 6.344197e-01 -5.042523e-01 -4.838385e-02 8.096476e-01 4.508442e-01 6.888526e-01 5.107135e-01 2.504581e-01 2.172125e-01 5.321586e-01 3.937591e-01 -1.727406e-02
<VARIANCE> 25
 1.162823e+02 4.987971e+01 5.112164e+01 5.639479e+01 5.484904e+01 6.137650e+01 5.597958e+01 4.591500e+01 3.882413e+01 3.555761e+01 3.476683e+01 3.000288e+01 8.017317e+00 3.840747e+00 3.571435e+00 3.656458e+00 3.986740e+00 4.261431e+00 4.343662e+00 3.578274e+00 3.047135e+00 3.387583e+00 2.861300e+00 2.567736e+00 2.149006e+00
<GCONST> 1.093992e+02
<STATE> 3
<MEAN> 25
 -1.743952e+01 6.925085e+00 -2.889125e+00 1.041082e+00 6.250542e+00 -2.887201e-01 3.580939e+00 2.459546e+00 2.308453e+00 9.157048e-01 1.807695e+00 2.442345e+00 -5.368593e-01 -7.995737e-02 -2.146530e-01 -1.325901e-01 8.178198e-02 1.370269e-01 1.109522e-01 1.780316e-01 1.234820e-01 1.795857e-01 1.955305e-01 1.666120e-01 -1.548029e-01
<VARIANCE> 25
 8.988869e+01 4.625935e+01 4.744282e+01 6.111586e+01 5.003483e+01 5.608540e+01 5.145413e+01 4.144372e+01 3.422811e+01 3.117066e+01 3.081904e+01 2.645976e+01 8.150866e+00 2.784953e+00 2.736685e+00 2.714391e+00 3.222314e+00 3.608570e+00 3.565783e+00 2.925653e+00 2.575584e+00 2.721396e+00 2.642019e+00 2.145687e+00 2.232662e+00
<GCONST> 1.059443e+02
<STATE> 4
<MEAN> 25
 -1.472423e+01 5.326221e+00 -2.581119e+00 1.132059e+00 5.971895e+00 -8.439147e-02 3.636767e+00 2.810454e+00 2.989165e+00 1.634862e+00 1.753407e+00 2.461588e+00 1.434367e+00 -5.580232e-01 2.147248e-01 -1.539021e-01 -5.323970e-01 -1.769155e-01 -3.518552e-01 -1.677360e-01 -5.449465e-02 -2.186886e-02 -2.070015e-01 -1.920685e-01 -1.175050e-01
<VARIANCE> 25
 1.064556e+02 4.882603e+01 4.122991e+01 5.498632e+01 5.665112e+01 5.835455e+01 5.966330e+01 4.284708e+01 3.830417e+01 3.436552e+01 3.390227e+01 2.671054e+01 7.619219e+00 3.093560e+00 2.613728e+00 3.150700e+00 3.674940e+00 3.942003e+00 4.143171e+00 3.240793e+00 2.818177e+00 2.758806e+00 3.014570e+00 2.245310e+00 3.379977e+00
<GCONST> 1.078901e+02
<TRANSP> 5
 0.000000e+00 1.000000e+00 0.000000e+00 0.000000e+00 0.000000e+00
 0.000000e+00 6.980261e-01 3.019739e-01 0.000000e+00 0.000000e+00
 0.000000e+00 0.000000e+00 6.993797e-01 3.006203e-01 0.000000e+00
 0.000000e+00 0.000000e+00 0.000000e+00 8.360725e-01 1.639275e-01
 0.000000e+00 0.000000e+00 0.000000e+00 0.000000e+00 0.000000e+00
<ENDHMM>
~h "t"
<BEGINHMM>
<NUMSTATES> 5
<STATE> 2
<MEAN> 25
 -2.358639e+00 5.051917e-02 7.152159e-01 9.393333e-01 8.103810e-01 -1.671561e-01 1.005745e+00 7.642300e-01 1.324614e+00 8.273992e-01 6.524296e-01 7.761788e-01 -3.041486e-01 -1.484547e-01 5.755745e-02 -2.360002e-02 -2.772011e-02 -1.233779e-01 1.006497e-01 6.058466e-02 1.571908e-01 1.199480e-01 1.060109e-01 1.352144e-01 2.614832e-01
<VARIANCE> 25
 8.554274e+01 5.805716e+01 5.426942e+01 5.303129e+01 6.847298e+01 7.165803e+01 6.304688e+01 5.449373e+01 5.439512e+01 4.354155e+01 4.541978e+01 3.736356e+01 6.428861e+00 4.559305e+00 3.887680e+00 4.792019e+00 5.451471e+00 5.875578e+00 4.934735e+00 4.982407e+00 4.555466e+00 3.984961e+00 4.044257e+00 3.198951e+00 8.711051e+00
<GCONST> 1.148644e+02
<STATE> 3
<MEAN> 25
 -2.963001e+00 -3.507801e-01 7.783027e-01 6.887755e-01 5.097386e-01 -5.685012e-01 1.107887e+00 8.481930e-01 1.419720e+00 9.711626e-01 7.912678e-01 9.291487e-01 -3.180302e-03 -1.502741e-01 6.078776e-02 -8.341057e-02 -2.274658e-01 -2.214701e-01 -7.304934e-02 -3.338191e-02 -6.634264e-02 -2.079072e-02 -7.221454e-03 -3.234746e-04 4.894128e-01
<VARIANCE> 25
 8.643693e+01 5.640657e+01 5.344714e+01 5.273719e+01 6.809942e+01 7.149093e+01 6.433635e+01 5.315712e+01 5.362218e+01 4.343853e+01 4.552609e+01 3.691565e+01 7.014853e+00 4.391987e+00 4.194695e+00 4.848948e+00 5.648675e+00 6.229788e+00 5.437585e+00 4.975310e+00 4.722291e+00 4.132495e+00 4.212344e+00 3.331072e+00 8.311357e+00
<GCONST> 1.152202e+02
<STATE> 4
<MEAN> 25
 -2.538922e+00 -7.870161e-01 8.508872e-01 5.310692e-01 -1.329392e-01 -1.129760e+00 8.708726e-01 8.612507e-01 9.427373e-01 8.366096e-01 7.273502e-01 8.243441e-01 4.285456e-01 -7.062168e-02 2.312905e-02 -4.253793e-02 -2.875921e-01 -1.839588e-01 -2.510065e-01 -1.313106e-01 -2.683887e-01 -1.314486e-01 -9.788056e-02 -1.353416e-01 3.950296e-01
<VARIANCE> 25
 8.642543e+01 5.744469e+01 5.660270e+01 5.333065e+01 6.936975e+01 7.370592e+01 6.756541e+01 5.605455e+01 5.602334e+01 4.484581e+01 4.595926e+01 3.706471e+01 6.702265e+00 4.134769e+00 4.301167e+00 4.560508e+00 5.642972e+00 6.045125e+00 5.720801e+00 4.929519e+00 4.757103e+00 4.140151e+00 4.107416e+00 3.238263e+00 6.882708e+00
<GCONST> 1.151824e+02
<TRANSP> 5
 0.000000e+00 1.000000e+00 0.000000e+00 0.000000e+00 0.000000e+00
 0.000000e+00 4.952100e-01 5.047900e-01 0.000000e+00 0.000000e+00
 0.000000e+00 0.000000e+00 4.955865e-01 5.044135e-01 0.000000e+00
 0.000000e+00 0.000000e+00 0.000000e+00 5.905001e-01 4.095000e-01
 0.000000e+00 0.000000e+00 0.000000e+00 0.000000e+00 0.000000e+00
<ENDHMM>
~h "v"
<BEGINHMM>
<NUMSTATES> 5
<STATE> 2
<MEAN> 25
 4.143952e+00 -7.913714e-02 -8.408912e-01 1.232976e+00 -1.024599e+00 -6.493056e-01 -1.864209e+00 -1.291800e+00 9.507208e-01 3.869150e-01 -4.737438e-01 -1.098330e+00 -1.496482e-01 4.752490e-01 5.019884e-02 3.355893e-01 2.776293e-01 2.088376e-01 1.235164e-01 -1.706286e-01 -7.190353e-02 3.272538e-03 1.378918e-01 3.182400e-02 -4.749053e-01
<VARIANCE> 25
 4.481832e+01 4.615535e+01 4.493533e+01 5.256496e+01 5.308111e+01 5.816775e+01 5.337869e+01 5.307598e+01 5.103981e+01 4.391669e+01 3.844714e+01 2.860810e+01 3.296954e+00 3.615023e+00 2.465658e+00 3.911849e+00 4.537686e+00 4.210591e+00 3.922699e+00 3.642635e+00 4.011425e+00 3.141931e+00 2.831228e+00 2.437860e+00 3.160599e+00
<GCONST> 1.080217e+02
<STATE> 3
<MEAN> 25
 3.528472e+00 8.507278e-01 -6.519207e-01 1.867486e+00 -3.673224e-01 -1.796717e-01 -1.407754e+00 -1.459511e+00 7.837764e-01 3.999963e-01 -1.903537e-01 -9.594569e-01 -3.425270e-01 3.135728e-01 8.529224e-02 2.471951e-01 2.557003e-01 1.893015e-01 2.269871e-01 -3.252973e-03 -7.651708e-02 -6.459096e-03 1.075781e-01 6.677241e-02 -3.833680e-01
<VARIANCE> 25
 4.804695e+01 4.411590e+01 4.422349e+01 5.150909e+01 5.187384e+01 5.507685e+01 5.285206e+01 4.946455e+01 4.962269e+01 4.184157e+01 3.610592e+01 2.696255e+01 3.396584e+00 3.691939e+00 2.461253e+00 3.824437e+00 4.242224e+00 3.931224e+00 3.816244e+00 3.520124e+00 3.704998e+00 3.167287e+00 2.700832e+00 2.318923e+00 3.050042e+00
<GCONST> 1.072777e+02
<STATE> 4
<MEAN> 25
 2.480384e+00 1.276765e+00 -4.887260e-01 2.263557e+00 2.941676e-01 3.464399e-01 -4.264812e-01 -9.279854e-01 8.675227e-01 4.068699e-01 2.269426e-01 -4.119837e-01 -2.787316e-01 -8.408962e-03 2.739058e-03 1.923466e-02 1.515880e-01 5.432329e-02 1.334165e-01 1.463799e-01 -2.470068e-02 6.485967e-03 6.271174e-02 1.065165e-01 -9.393670e-02
<VARIANCE> 25
 5.182551e+01 4.305238e+01 4.418731e+01 4.991175e+01 5.093121e+01 5.350147e+01 5.459837e+01 4.822290e+01 4.984805e+01 3.980927e+01 3.548807e+01 2.702857e+01 3.520615e+00 3.419923e+00 2.411328e+00 3.585276e+00 3.895096e+00 3.686384e+00 3.822865e+00 3.324978e+00 3.398669e+00 3.130303e+00 2.615118e+00 2.192104e+00 2.891450e+00
<GCONST> 1.066256e+02
<TRANSP> 5
 0.000000e+00 1.000000e+00 0.000000e+00 0.000000e+00 0.000000e+00
 0.000000e+00 5.055690e-01 4.944310e-01 0.000000e+00 0.000000e+00
 0.000000e+00 0.000000e+00 5.081089e-01 4.918912e-01 0.000000e+00
 0.000000e+00 0.000000e+00 0.000000e+00 6.301447e-01 3.698554e-01
 0.000000e+00 0.000000e+00 0.000000e+00 0.000000e+00 0.000000e+00
<ENDHMM>
~h "w"
<BEGINHMM>
<NUMSTATES> 5
<STATE> 2
<MEAN> 25
 4.422235e+00 1.151049e+00 -2.724179e+00 -1.535246e+00 -1.522323e-01 1.747313e+00 -1.028032e+00 -1.896310e+00 -9.113666e-01 1.166765e+00 1.780742e-02 -6.845962e-01 5.463291e-01 1.041799e-01 -3.475031e-01 -5.376280e-01 -1.178392e-01 3.379096e-01 -2.637113e-01 -3.053193e-01 -2.468266e-01 9.132428e-02 8.128027e-02 -1.097061e-01 1.009281e-01
<VARIANCE> 25
 6.229857e+01 5.265738e+01 4.675534e+01 7.681799e+01 6.123642e+01 5.425354e+01 6.317611e+01 5.318550e+01 7.921454e+01 5.130530e+01 4.395292e+01 3.799984e+01 2.487103e+00 3.278752e+00 3.158109e+00 4.969755e+00 4.678629e+00 4.538225e+00 4.694868e+00 4.529590e+00 4.903441e+00 4.357006e+00 3.566310e+00 2.982606e+00 3.399706e+00
<GCONST> 1.118021e+02
<STATE> 3
<MEAN> 25
 5.704313e+00 1.430573e+00 -3.353041e+00 -3.019851e+00 -5.978093e-01 2.444535e+00 -1.827120e+00 -2.508346e+00 -1.709359e+00 1.134955e+00 2.447809e-01 -1.017964e+00 2.518164e-01 -1.941007e-01 -1.251348e-01 -3.846017e-01 -1.630935e-01 8.367559e-02 -3.952271e-01 -9.671107e-02 -9.322731e-02 5.471607e-02 3.073845e-02 -1.490010e-01 4.907809e-01
<VARIANCE> 25
 5.452184e+01 4.625602e+01 4.791922e+01 8.594701e+01 5.919695e+01 5.611274e+01 6.648708e+01 5.340036e+01 7.742207e+01 5.191801e+01 4.612428e+01 4.135094e+01 2.368875e+00 3.553259e+00 3.375784e+00 5.652494e+00 4.736980e+00 4.976823e+00 5.404713e+00 4.996603e+00 5.096273e+00 4.785921e+00 4.028612e+00 3.169314e+00 3.691808e+00
<GCONST> 1.128209e+02
<STATE> 4
<MEAN> 25
 6.082115e+00 7.159461e-01 -3.572274e+00 -3.836264e+00 -9.242906e-01 2.467246e+00 -2.756052e+00 -2.377228e+00 -1.581491e+00 1.156617e+00 7.827774e-02 -1.564772e+00 -1.194182e-01 -4.212184e-01 2.228355e-01 4.630927e-02 -1.951206e-01 -3.284350e-01 -3.076345e-01 2.010179e-01 1.088123e-01 -3.690955e-02 -1.197838e-01 -1.352512e-01 6.482031e-01
<VARIANCE> 25
 4.735070e+01 4.607195e+01 5.125563e+01 9.124719e+01 5.956731e+01 6.643790e+01 7.741048e+01 6.087286e+01 7.069745e+01 5.479450e+01 5.088887e+01 4.259701e+01 2.173751e+00 3.485528e+00 3.783000e+00 5.634957e+00 5.008279e+00 5.487982e+00 6.098475e+00 5.332413e+00 5.285109e+00 4.908783e+00 4.492801e+00 3.368134e+00 3.411442e+00
<GCONST> 1.138498e+02
<TRANSP> 5
 0.000000e+00 1.000000e+00 0.000000e+00 0.000000e+00 0.000000e+00
 0.000000e+00 5.711697e-01 4.288302e-01 0.000000e+00 0.000000e+00
 0.000000e+00 0.000000e+00 5.720256e-01 4.279744e-01 0.000000e+00
 0.000000e+00 0.000000e+00 0.000000e+00 6.856524e-01 3.143477e-01
 0.000000e+00 0.000000e+00 0.000000e+00 0.000000e+00 0.000000e+00
<ENDHMM>
~h "y"
<BEGINHMM>
<NUMSTATES> 5
<STATE> 2
<MEAN> 25
 -5.425144e-01 1.677187e+00 7.328300e+00 1.258399e+00 -3.767480e+00 -2.707099e+00 -1.137749e+00 -1.917189e+00 -3.622618e+00 -1.199257e+00 1.520579e+00 4.416637e-01 3.763028e-01 -6.273054e-02 9.336469e-01 2.019992e-02 -7.982317e-01 -2.745100e-01 -4.175252e-01 -3.308935e-01 -6.641772e-01 -2.369797e-01 1.003887e-01 -2.165270e-01 5.067130e-01
<VARIANCE> 25
 7.556775e+01 4.412939e+01 9.319723e+01 4.333265e+01 7.541479e+01 7.262145e+01 7.516623e+01 6.132677e+01 7.253212e+01 5.175527e+01 4.669955e+01 3.625597e+01 3.026757e+00 2.923364e+00 5.254059e+00 3.153271e+00 4.741548e+00 4.285620e+00 5.309318e+00 3.891100e+00 4.400279e+00 3.530855e+00 3.104728e+00 2.333470e+00 2.503076e+00
<GCONST> 1.117403e+02
<STATE> 3
<MEAN> 25
 7.096217e-01 1.114990e+00 8.979193e+00 8.977013e-01 -6.224196e+00 -3.517026e+00 -2.789446e+00 -2.708748e+00 -5.112139e+00 -1.702925e+00 1.288251e+00 -6.187042e-01 3.930384e-01 -2.143948e-01 2.145528e-01 -5.381406e-02 -5.788592e-01 -1.631569e-01 -4.256682e-01 -1.651536e-01 -3.053581e-01 -1.137844e-01 -3.049314e-02 -2.827323e-01 4.268634e-01
<VARIANCE> 25
 6.113787e+01 4.498072e+01 1.080851e+02 4.382277e+01 7.709326e+01 7.410799e+01 7.396024e+01 6.259715e+01 8.093863e+01 6.091356e+01 5.187857e+01 3.734817e+01 2.279215e+00 2.437307e+00 5.165023e+00 2.853236e+00 4.317289e+00 4.233116e+00 4.713067e+00 3.925507e+00 4.803367e+00 3.445238e+00 3.074803e+00 2.460908e+00 2.356639e+00
<GCONST> 1.114083e+02
<STATE> 4
<MEAN> 25
 1.658956e+00 5.052882e-01 8.148044e+00 1.012428e+00 -7.279949e+00 -3.162684e+00 -3.326093e+00 -2.646997e+00 -5.413191e+00 -1.994636e+00 1.375175e+00 -1.521389e+00 3.449482e-01 -1.297984e-01 -5.872095e-01 6.761591e-02 1.307541e-01 -2.768304e-02 -1.833405e-01 4.314085e-02 1.057716e-01 -1.517175e-02 -1.599517e-01 -8.720326e-02 3.085726e-02
<VARIANCE> 25
 4.987738e+01 4.258968e+01 1.135473e+02 4.713905e+01 8.058124e+01 7.264893e+01 8.578884e+01 6.871606e+01 9.496352e+01 7.244533e+01 5.714485e+01 3.946894e+01 1.550401e+00 2.073019e+00 3.927297e+00 2.431081e+00 3.547228e+00 3.717530e+00 3.947267e+00 3.853128e+00 4.879405e+00 3.401455e+00 2.853209e+00 2.432602e+00 2.155008e+00
<GCONST> 1.103470e+02
<TRANSP> 5
 0.000000e+00 1.000000e+00 0.000000e+00 0.000000e+00 0.000000e+00
 0.000000e+00 5.738361e-01 4.261639e-01 0.000000e+00 0.000000e+00
 0.000000e+00 0.000000e+00 5.832158e-01 4.167841e-01 0.000000e+00
 0.000000e+00 0.000000e+00 0.000000e+00 7.736433e-01 2.263567e-01
 0.000000e+00 0.000000e+00 0.000000e+00 0.000000e+00 0.000000e+00
<ENDHMM>
~h "z"
<BEGINHMM>
<NUMSTATES> 5
<STATE> 2
<MEAN> 25
 -5.263277e+00 8.251664e+00 8.461149e-01 1.661568e+00 2.420456e+00 -4.414209e+00 -2.071204e+00 -1.515370e+00 5.054005e-01 -2.084889e-01 -1.256334e+00 1.306356e+00 -2.161847e+00 1.207837e+00 -3.788207e-01 3.817711e-01 1.163735e+00 3.449441e-01 7.896404e-01 3.318840e-01 2.535455e-01 7.565892e-03 3.539854e-01 2.259327e-01 -3.309478e-01
<VARIANCE> 25
 9.893484e+01 7.169129e+01 4.506170e+01 5.846780e+01 7.330474e+01 7.260848e+01 6.571294e+01 5.956427e+01 4.277254e+01 4.180228e+01 3.830409e+01 3.247786e+01 7.257958e+00 6.203756e+00 3.061547e+00 4.357761e+00 5.142612e+00 5.617868e+00 5.171248e+00 5.001042e+00 3.657757e+00 3.641861e+00 3.225044e+00 2.886778e+00 1.889681e+00
<GCONST> 1.126285e+02
<STATE> 3
<MEAN> 25
 -9.926836e+00 9.510319e+00 -1.756146e-01 2.162887e+00 4.606335e+00 -2.977260e+00 -6.279978e-02 -1.960482e-01 9.974817e-01 1.073735e-01 -2.620473e-01 1.701192e+00 -9.453028e-01 9.234155e-03 -3.248792e-01 1.095382e-01 4.324322e-01 4.536464e-01 5.635347e-01 3.670821e-01 1.840014e-01 1.182664e-01 2.793327e-01 7.871464e-02 -3.613122e-01
<VARIANCE> 25
 9.963952e+01 6.746616e+01 4.421653e+01 6.017371e+01 6.769633e+01 6.746503e+01 6.265493e+01 5.829525e+01 4.146735e+01 3.764217e+01 3.627737e+01 2.951446e+01 9.407203e+00 5.661760e+00 2.764053e+00 3.739509e+00 5.001744e+00 4.914277e+00 4.823625e+00 4.264637e+00 3.481677e+00 3.324597e+00 3.082944e+00 2.742018e+00 2.221087e+00
<GCONST> 1.115235e+02
<STATE> 4
<MEAN> 25
 -1.042864e+01 6.848472e+00 -6.079767e-01 2.010655e+00 5.021619e+00 -1.454199e+00 1.455287e+00 1.218145e+00 1.564716e+00 6.217193e-01 2.799276e-01 1.910434e+00 8.034300e-01 -8.304201e-01 -1.110831e-01 -5.833831e-02 -2.827719e-01 2.620195e-01 6.391703e-02 4.588673e-02 6.943141e-02 4.405666e-02 2.845524e-02 -8.434997e-02 -3.829158e-01
<VARIANCE> 25
 1.023491e+02 7.821803e+01 4.215703e+01 5.839272e+01 6.433009e+01 6.960896e+01 7.408994e+01 6.207797e+01 4.206254e+01 3.662041e+01 3.931861e+01 3.012556e+01 7.484787e+00 4.076464e+00 2.594967e+00 3.322202e+00 4.487360e+00 4.603385e+00 4.737848e+00 4.205043e+00 3.634691e+00 3.256270e+00 3.014878e+00 2.561354e+00 2.941917e+00
<GCONST> 1.111873e+02
<TRANSP> 5
 0.000000e+00 1.000000e+00 0.000000e+00 0.000000e+00 0.000000e+00
 0.000000e+00 5.992448e-01 4.007552e-01 0.000000e+00 0.000000e+00
 0.000000e+00 0.000000e+00 5.999478e-01 4.000523e-01 0.000000e+00
 0.000000e+00 0.000000e+00 0.000000e+00 7.209651e-01 2.790349e-01
 0.000000e+00 0.000000e+00 0.000000e+00 0.000000e+00 0.000000e+00
<ENDHMM>
~h "aa"
<BEGINHMM>
<NUMSTATES> 5
<STATE> 2
<MEAN> 25
 4.790287e+00 -4.933062e+00 -6.366983e+00 -5.175849e+00 2.830330e+00 5.968168e+00 -1.633443e+00 -1.603071e+00 1.316184e+00 -1.148430e+00 -1.047420e+00 -2.276103e+00 4.306996e-01 -7.383706e-01 -5.045791e-01 -6.989350e-01 2.364118e-01 6.022531e-01 -2.941324e-01 -1.145336e-01 1.772131e-01 -2.529987e-01 -1.197479e-01 -3.766970e-01 7.314788e-01
<VARIANCE> 25
 4.636341e+01 6.055424e+01 5.388734e+01 7.412503e+01 6.609835e+01 9.128590e+01 7.894939e+01 6.759243e+01 5.950171e+01 5.923575e+01 5.930876e+01 4.862206e+01 2.245133e+00 3.205922e+00 2.984153e+00 4.175554e+00 4.078919e+00 5.405272e+00 4.571649e+00 4.406271e+00 4.250946e+00 3.762438e+00 3.977427e+00 3.051593e+00 3.032211e+00
<GCONST> 1.125717e+02
<STATE> 3
<MEAN> 25
 5.812709e+00 -6.353972e+00 -7.207099e+00 -6.230557e+00 3.098069e+00 6.657972e+00 -2.572651e+00 -1.892524e+00 1.531537e+00 -1.536948e+00 -1.393593e+00 -3.092195e+00 2.190594e-01 -2.174495e-01 -1.342032e-01 -9.739076e-02 2.645796e-02 -9.586190e-02 -2.472986e-01 -6.798711e-03 6.138651e-02 -1.020922e-02 -1.527890e-01 -1.933458e-01 2.622501e-01
<VARIANCE> 25
 3.872699e+01 6.180197e+01 5.353540e+01 6.917964e+01 6.153362e+01 9.641496e+01 8.784510e+01 6.666830e+01 5.814973e+01 5.739692e+01 6.064684e+01 5.011179e+01 1.768567e+00 3.026877e+00 2.557428e+00 3.642780e+00 3.514502e+00 4.766820e+00 4.147985e+00 3.929209e+00 3.614987e+00 3.359522e+00 3.534017e+00 2.715949e+00 2.713588e+00
<GCONST> 1.107161e+02
<STATE> 4
<MEAN> 25
 6.788176e+00 -6.543578e+00 -7.659403e+00 -5.755087e+00 2.762396e+00 5.221482e+00 -3.890745e+00 -1.002304e+00 1.577333e+00 -1.207252e+00 -2.278995e+00 -3.878450e+00 -2.911382e-02 4.760917e-01 2.488787e-01 5.113670e-01 -1.313216e-01 -7.210580e-01 -6.503426e-02 9.632424e-02 -7.070617e-02 1.196795e-01 -1.593718e-01 4.152850e-02 -3.228061e-01
<VARIANCE> 25
 3.348717e+01 6.212931e+01 5.414605e+01 6.389313e+01 5.646076e+01 1.045707e+02 8.904093e+01 6.847678e+01 5.819631e+01 5.820679e+01 6.232677e+01 4.740161e+01 1.720798e+00 3.360766e+00 2.566165e+00 3.471657e+00 3.488671e+00 4.481290e+00 3.927163e+00 4.035151e+00 3.442742e+00 3.400016e+00 3.428905e+00 2.703502e+00 2.816952e+00
<GCONST> 1.104309e+02
<TRANSP> 5
 0.000000e+00 1.000000e+00 0.000000e+00 0.000000e+00 0.000000e+00
 0.000000e+00 6.367981e-01 3.632020e-01 0.000000e+00 0.000000e+00
 0.000000e+00 0.000000e+00 6.392639e-01 3.607361e-01 0.000000e+00
 0.000000e+00 0.000000e+00 0.000000e+00 7.691050e-01 2.308951e-01
 0.000000e+00 0.000000e+00 0.000000e+00 0.000000e+00 0.000000e+00
<ENDHMM>
~h "ae"
<BEGINHMM>
<NUMSTATES> 5
<STATE> 2
<MEAN> 25
 1.322990e+00 -6.589981e+00 -1.668060e+00 3.523022e-03 -2.426928e+00 -1.083257e+00 2.860702e+00 2.977630e+00 1.340901e+00 -2.674989e+00 -2.353599e+00 -7.371721e-01 2.313882e-01 -6.532607e-01 -1.562635e-01 -7.033695e-02 -2.162544e-01 2.482408e-02 1.219763e-01 2.473599e-01 -1.317553e-02 -3.386661e-01 -3.440560e-01 -3.872711e-02 5.929706e-01
<VARIANCE> 25
 4.162480e+01 6.322768e+01 4.785338e+01 3.808597e+01 6.531741e+01 5.286402e+01 6.666594e+01 5.111794e+01 5.521427e+01 4.940363e+01 4.578535e+01 4.205342e+01 2.207904e+00 3.896370e+00 2.581209e+00 2.820841e+00 3.904452e+00 3.236042e+00 4.252851e+00 3.770948e+00 3.603526e+00 3.198827e+00 3.203362e+00 2.717264e+00 4.284817e+00
<GCONST> 1.085977e+02
<STATE> 3
<MEAN> 25
 1.901114e+00 -7.403741e+00 -1.968796e+00 4.270053e-02 -2.604914e+00 -1.077652e+00 2.834495e+00 3.114442e+00 1.161360e+00 -3.185828e+00 -3.138170e+00 -9.525832e-01 1.298291e-01 1.387172e-02 -1.288976e-02 9.074493e-02 2.349762e-02 7.973984e-04 -5.881956e-02 -3.760811e-02 -1.379545e-02 -3.325864e-02 -2.024030e-01 -2.258929e-02 4.666016e-02
<VARIANCE> 25
 3.892787e+01 6.437391e+01 4.790810e+01 3.711175e+01 6.348899e+01 5.244214e+01 6.739190e+01 5.216846e+01 5.533147e+01 4.891087e+01 4.608432e+01 4.402677e+01 1.836986e+00 3.631512e+00 2.318311e+00 2.567635e+00 3.647449e+00 3.027450e+00 3.654583e+00 3.464083e+00 3.186316e+00 2.889869e+00 2.825639e+00 2.424769e+00 4.061001e+00
<GCONST> 1.072185e+02
<STATE> 4
<MEAN> 25
 1.771888e+00 -6.595837e+00 -2.141503e+00 5.162061e-01 -2.035769e+00 -1.500165e+00 3.036412e+00 3.035570e+00 1.354120e+00 -3.041948e+00 -3.790902e+00 -6.951181e-01 -7.069074e-03 6.635731e-01 1.732091e-01 1.834067e-01 1.728988e-01 -8.847647e-02 -1.407148e-01 -2.137839e-01 -1.061860e-02 2.641816e-01 2.174251e-02 2.757636e-02 -4.143201e-01
<VARIANCE> 25
 4.441369e+01 6.761485e+01 4.710754e+01 3.808627e+01 6.047357e+01 5.268036e+01 6.740364e+01 4.970528e+01 5.510181e+01 4.819283e+01 4.710098e+01 4.373283e+01 2.124536e+00 3.713253e+00 2.193375e+00 2.663991e+00 3.554990e+00 3.226254e+00 3.500164e+00 3.526631e+00 3.035469e+00 2.808686e+00 2.700951e+00 2.347414e+00 4.422417e+00
<GCONST> 1.074049e+02
<TRANSP> 5
 0.000000e+00 1.000000e+00 0.000000e+00 0.000000e+00 0.000000e+00
 0.000000e+00 6.240792e-01 3.759208e-01 0.000000e+00 0.000000e+00
 0.000000e+00 0.000000e+00 6.149532e-01 3.850468e-01 0.000000e+00
 0.000000e+00 0.000000e+00 0.000000e+00 7.639378e-01 2.360622e-01
 0.000000e+00 0.000000e+00 0.000000e+00 0.000000e+00 0.000000e+00
<ENDHMM>
~h "ah"
<BEGINHMM>
<NUMSTATES> 5
<STATE> 2
<MEAN> 25
 1.650199e+00 -5.332899e-01 -2.295292e-01 -1.414646e-01 -3.197493e-01 -5.533648e-01 -1.159504e+00 -4.315022e-02 1.025603e+00 4.467896e-01 -5.868905e-01 -4.701035e-01 2.335622e-01 -4.835119e-02 -2.870728e-03 -4.885397e-02 1.932330e-02 1.195588e-01 -1.526468e-02 -7.643656e-02 2.004954e-02 -1.126308e-02 -8.324248e-02 -1.864689e-02 -5.225386e-02
<VARIANCE> 25
 6.349119e+01 4.949783e+01 5.371024e+01 6.158590e+01 6.597952e+01 6.604490e+01 6.980927e+01 5.919674e+01 5.511328e+01 4.804427e+01 4.261840e+01 4.003214e+01 4.035513e+00 3.466949e+00 2.902777e+00 4.116026e+00 4.258249e+00 4.430237e+00 4.580040e+00 4.662721e+00 4.341726e+00 3.658125e+00 3.320505e+00 2.963476e+00 3.968811e+00
<GCONST> 1.116813e+02
<STATE> 3
<MEAN> 25
 1.830386e+00 -4.149084e-01 -1.911006e-01 -9.530116e-02 -1.379362e-01 -2.377442e-01 -1.043191e+00 -2.297436e-01 9.172578e-01 3.934184e-01 -6.328476e-01 -4.474220e-01 8.106346e-02 1.400740e-01 4.182218e-02 7.918229e-03 7.509670e-02 1.461402e-01 7.984187e-02 -1.105757e-01 -1.117899e-01 -5.421154e-02 -2.666668e-02 2.021794e-02 -1.676715e-01
<VARIANCE> 25
 6.191737e+01 4.951177e+01 5.180846e+01 6.241507e+01 6.347535e+01 6.402642e+01 6.838145e+01 5.793365e+01 5.542540e+01 4.813041e+01 4.280686e+01 4.007103e+01 3.740636e+00 3.380676e+00 2.772237e+00 4.100960e+00 4.129797e+00 4.166340e+00 4.346765e+00 4.478154e+00 4.259256e+00 3.601537e+00 3.195983e+00 2.920389e+00 3.969204e+00
<GCONST> 1.111117e+02
<STATE> 4
<MEAN> 25
 1.406440e+00 -9.094545e-02 -1.652464e-01 2.585927e-01 4.001270e-01 2.753671e-01 -4.529997e-01 -1.416792e-01 8.688499e-01 2.866268e-01 -4.096353e-01 -1.811023e-01 -7.265142e-02 2.351465e-01 6.111225e-02 3.116221e-02 6.785276e-02 1.046539e-01 1.303755e-01 -7.772224e-02 -1.666956e-01 -8.727500e-02 1.983607e-02 5.046926e-02 -1.782997e-01
<VARIANCE> 25
 6.299160e+01 4.918621e+01 4.843407e+01 6.220197e+01 6.030495e+01 6.042682e+01 6.599296e+01 5.681114e+01 5.540844e+01 4.736710e+01 4.338762e+01 3.968613e+01 3.557143e+00 3.266072e+00 2.580872e+00 4.006662e+00 3.892915e+00 3.808123e+00 3.993732e+00 4.122792e+00 4.006820e+00 3.428777e+00 2.998173e+00 2.786273e+00 3.859000e+00
<GCONST> 1.101296e+02
<TRANSP> 5
 0.000000e+00 1.000000e+00 0.000000e+00 0.000000e+00 0.000000e+00
 0.000000e+00 4.612942e-01 5.387058e-01 0.000000e+00 0.000000e+00
 0.000000e+00 0.000000e+00 4.616688e-01 5.383312e-01 0.000000e+00
 0.000000e+00 0.000000e+00 0.000000e+00 5.705355e-01 4.294644e-01
 0.000000e+00 0.000000e+00 0.000000e+00 0.000000e+00 0.000000e+00
<ENDHMM>
~h "ao"
<BEGINHMM>
<NUMSTATES> 5
<STATE> 2
<MEAN> 25
 6.884623e+00 -1.664456e+00 -8.816596e+00 -1.109864e+01 3.540308e-01 5.926462e+00 -8.237728e-01 -2.358681e-01 -9.327092e-01 -1.711467e+00 5.929174e-01 -7.969816e-01 6.281970e-01 -3.332028e-01 -6.890414e-01 -1.093751e+00 1.826167e-01 5.643237e-01 -5.564901e-02 1.572321e-01 -2.183306e-01 -3.612554e-01 9.808899e-02 9.097622e-02 4.353593e-01
<VARIANCE> 25
 4.892276e+01 5.328097e+01 4.226554e+01 1.086790e+02 8.816781e+01 8.592997e+01 7.605813e+01 6.364103e+01 5.968239e+01 5.430326e+01 4.886530e+01 4.704581e+01 3.160027e+00 3.095122e+00 2.727592e+00 5.895712e+00 4.758749e+00 4.981283e+00 4.844109e+00 3.909282e+00 3.860639e+00 3.605732e+00 3.199481e+00 3.161191e+00 2.767603e+00
<GCONST> 1.126166e+02
<STATE> 3
<MEAN> 25
 7.919059e+00 -2.244709e+00 -9.973577e+00 -1.238621e+01 1.451090e+00 6.707624e+00 -1.019639e+00 7.272366e-02 -1.176263e+00 -2.450075e+00 8.437468e-01 -2.406838e-01 2.288912e-01 -1.635119e-01 -2.400432e-01 8.993759e-03 3.042076e-01 -1.832431e-02 -2.422666e-01 2.746252e-02 8.328397e-03 -7.196103e-02 3.342141e-02 3.413464e-02 1.264488e-01
<VARIANCE> 25
 4.701144e+01 5.068915e+01 4.392420e+01 1.078930e+02 9.409560e+01 9.094431e+01 9.704716e+01 7.082704e+01 6.258101e+01 5.695977e+01 4.899342e+01 4.807491e+01 1.946795e+00 2.372786e+00 2.169755e+00 4.465559e+00 3.851822e+00 3.876824e+00 4.629690e+00 3.467917e+00 3.437367e+00 3.146607e+00 2.953453e+00 2.713661e+00 1.988073e+00
<GCONST> 1.104502e+02
<STATE> 4
<MEAN> 25
 7.474067e+00 -1.903822e+00 -1.032768e+01 -1.055074e+01 3.234713e+00 6.136171e+00 -1.555048e+00 2.769125e-01 2.375507e-01 -2.012674e+00 1.037508e+00 -2.080764e-01 -1.457965e-01 9.838090e-02 2.103051e-01 7.891597e-01 1.177620e-01 -5.259330e-01 -2.444512e-01 5.068036e-02 1.615454e-01 1.739239e-01 -5.947846e-02 -9.802593e-02 -1.617197e-01
<VARIANCE> 25
 5.578659e+01 4.759322e+01 4.998630e+01 1.239738e+02 9.651003e+01 9.302613e+01 1.314050e+02 7.283896e+01 6.866998e+01 6.320320e+01 4.979525e+01 4.225296e+01 2.125610e+00 2.162806e+00 2.539910e+00 4.513442e+00 3.694493e+00 3.822178e+00 4.844199e+00 3.524579e+00 3.414733e+00 3.199478e+00 2.922799e+00 2.607165e+00 1.937430e+00
<GCONST> 1.113924e+02
<TRANSP> 5
 0.000000e+00 1.000000e+00 0.000000e+00 0.000000e+00 0.000000e+00
 0.000000e+00 7.180576e-01 2.819424e-01 0.000000e+00 0.000000e+00
 0.000000e+00 0.000000e+00 7.074029e-01 2.925970e-01 0.000000e+00
 0.000000e+00 0.000000e+00 0.000000e+00 8.430461e-01 1.569539e-01
 0.000000e+00 0.000000e+00 0.000000e+00 0.000000e+00 0.000000e+00
<ENDHMM>
~h "aw"
<BEGINHMM>
<NUMSTATES> 5
<STATE> 2
<MEAN> 25
 4.907861e+00 -9.459942e+00 -5.471314e+00 -3.252800e+00 3.533752e-01 4.798593e+00 1.412350e-02 -3.200508e-01 2.067445e+00 -2.887638e+00 -3.665222e+00 -4.247551e+00 3.635411e-01 -5.406569e-01 -5.775921e-01 -4.540100e-01 2.668601e-01 9.315073e-01 -6.382490e-02 -6.084360e-01 2.656433e-01 -8.335724e-02 -1.548464e-01 -3.496238e-01 3.929887e-01
<VARIANCE> 25
 2.355248e+01 5.574497e+01 3.520271e+01 5.228949e+01 7.300792e+01 8.265793e+01 5.509474e+01 6.360048e+01 6.288752e+01 5.365226e+01 4.962424e+01 4.916630e+01 1.359107e+00 3.169552e+00 2.108397e+00 2.920750e+00 4.009106e+00 3.414232e+00 4.000681e+00 4.584100e+00 3.986151e+00 3.311416e+00 2.887371e+00 3.348408e+00 2.190878e+00
<GCONST> 1.078725e+02
<STATE> 3
<MEAN> 25
 6.368240e+00 -9.316625e+00 -6.839044e+00 -5.292134e+00 4.539493e-01 7.200257e+00 -5.133749e-01 -2.171217e+00 2.265363e+00 -2.303955e+00 -3.065689e+00 -4.608461e+00 2.931366e-01 2.474199e-01 -2.189995e-01 -3.884375e-01 -7.027920e-02 4.161240e-01 -1.287413e-01 -3.487500e-01 -3.456847e-02 2.086900e-01 1.995649e-01 2.364570e-02 -2.236383e-01
<VARIANCE> 25
 2.130242e+01 5.511543e+01 3.483046e+01 5.806737e+01 6.874880e+01 7.825785e+01 5.620385e+01 6.136852e+01 6.195235e+01 6.128968e+01 5.691177e+01 4.978012e+01 8.493783e-01 2.576987e+00 1.860863e+00 2.987179e+00 3.621012e+00 3.391984e+00 3.181990e+00 3.770646e+00 3.657342e+00 3.053632e+00 2.695857e+00 2.989472e+00 1.505679e+00
<GCONST> 1.059555e+02
<STATE> 4
<MEAN> 25
 7.962742e+00 -7.043333e+00 -7.076020e+00 -5.859895e+00 -3.870130e-01 5.892181e+00 -1.448895e+00 -2.017298e+00 8.716224e-01 -1.551311e+00 -1.895148e+00 -3.777271e+00 6.508761e-02 6.391088e-01 2.359572e-01 3.178976e-01 -4.123611e-02 -4.120036e-01 -1.821045e-01 5.158264e-02 -2.089343e-01 1.589988e-01 2.441511e-01 2.369368e-01 -6.197483e-01
<VARIANCE> 25
 2.198330e+01 5.632736e+01 3.841582e+01 6.584656e+01 7.550803e+01 8.816032e+01 6.315992e+01 5.991299e+01 6.104266e+01 5.913592e+01 6.900523e+01 5.097242e+01 1.098229e+00 2.949412e+00 2.211548e+00 3.754729e+00 4.152603e+00 3.707085e+00 3.351012e+00 3.665116e+00 3.645972e+00 3.666142e+00 3.270173e+00 3.303782e+00 1.786135e+00
<GCONST> 1.083899e+02
<TRANSP> 5
 0.000000e+00 1.000000e+00 0.000000e+00 0.000000e+00 0.000000e+00
 0.000000e+00 7.329940e-01 2.670060e-01 0.000000e+00 0.000000e+00
 0.000000e+00 0.000000e+00 7.278033e-01 2.721967e-01 0.000000e+00
 0.000000e+00 0.000000e+00 0.000000e+00 8.491931e-01 1.508069e-01
 0.000000e+00 0.000000e+00 0.000000e+00 0.000000e+00 0.000000e+00
<ENDHMM>
~h "ay"
<BEGINHMM>
<NUMSTATES> 5
<STATE> 2
<MEAN> 25
 2.591454e+00 -7.620127e+00 -5.113341e+00 -2.412980e+00 3.111210e+00 4.890559e+00 1.373128e+00 4.726798e-01 2.786952e+00 -8.779994e-01 -1.632304e+00 -1.751353e+00 6.577220e-02 -7.211969e-01 -2.807626e-02 -9.010649e-03 6.008382e-02 -2.962498e-02 1.254705e-01 2.238385e-01 1.522350e-01 -1.754951e-01 -3.008097e-01 -9.613245e-02 3.966991e-01
<VARIANCE> 25
 4.727253e+01 6.297914e+01 4.383064e+01 6.862151e+01 5.679254e+01 6.788181e+01 6.569426e+01 5.848655e+01 4.184731e+01 4.474926e+01 5.636213e+01 5.576536e+01 1.397823e+00 2.722955e+00 2.150840e+00 2.865559e+00 2.931724e+00 3.521385e+00 3.000160e+00 3.450830e+00 3.197886e+00 2.785634e+00 2.766778e+00 2.641599e+00 1.793634e+00
<GCONST> 1.066409e+02
<STATE> 3
<MEAN> 25
 3.171748e+00 -8.785171e+00 -4.892890e+00 -2.512351e+00 2.512058e+00 4.020336e+00 1.258712e+00 9.472654e-01 2.720386e+00 -1.463741e+00 -2.674921e+00 -2.116961e+00 -3.090119e-03 -1.041382e-01 3.105443e-01 1.919978e-01 -3.128822e-01 -5.297911e-01 1.112009e-01 2.988945e-01 -8.620651e-02 -1.344170e-01 -1.493672e-01 7.049131e-02 1.450281e-01
<VARIANCE> 25
 3.936120e+01 6.122144e+01 4.295737e+01 5.795890e+01 5.982761e+01 7.019318e+01 6.193283e+01 6.007991e+01 4.165157e+01 4.736510e+01 5.484406e+01 5.276581e+01 9.997796e-01 2.172919e+00 1.968859e+00 2.268043e+00 3.023553e+00 3.136060e+00 2.713346e+00 3.382293e+00 2.819890e+00 2.547709e+00 2.518503e+00 2.355721e+00 1.646776e+00
<GCONST> 1.046658e+02
<STATE> 4
<MEAN> 25
 2.608856e+00 -7.738511e+00 -3.936087e+00 -1.454862e+00 1.783812e+00 2.208819e+00 1.784386e+00 1.771594e+00 2.410650e+00 -1.371176e+00 -2.641464e+00 -1.237802e+00 3.360888e-02 3.344361e-01 3.804162e-01 1.426565e-01 -4.752669e-01 -5.073859e-01 -2.633145e-04 1.277725e-01 -1.539593e-01 6.270452e-02 6.117027e-02 7.433818e-02 3.357563e-03
<VARIANCE> 25
 3.799519e+01 5.756085e+01 4.194575e+01 5.355790e+01 6.688776e+01 6.458703e+01 5.647239e+01 5.678614e+01 4.583529e+01 4.432732e+01 5.590688e+01 4.733276e+01 1.030410e+00 2.275452e+00 2.135824e+00 2.204427e+00 3.075030e+00 3.307634e+00 2.601483e+00 3.395043e+00 2.779080e+00 2.528585e+00 2.494953e+00 2.258976e+00 2.088415e+00
<GCONST> 1.046107e+02
<TRANSP> 5
 0.000000e+00 1.000000e+00 0.000000e+00 0.000000e+00 0.000000e+00
 0.000000e+00 7.023741e-01 2.976259e-01 0.000000e+00 0.000000e+00
 0.000000e+00 0.000000e+00 6.872885e-01 3.127116e-01 0.000000e+00
 0.000000e+00 0.000000e+00 0.000000e+00 8.478298e-01 1.521702e-01
 0.000000e+00 0.000000e+00 0.000000e+00 0.000000e+00 0.000000e+00
<ENDHMM>
~h "ch"
<BEGINHMM>
<NUMSTATES> 5
<STATE> 2
<MEAN> 25
 -1.136575e+01 8.072863e-01 3.899560e+00 -9.817942e-01 5.542561e-01 1.616946e+00 1.765171e+00 8.009997e-01 2.473061e+00 9.874421e-01 2.252317e+00 1.542066e+00 -2.149395e+00 -1.085375e-01 2.624777e-01 -4.179731e-01 -6.197596e-02 4.866819e-01 7.004542e-01 3.019991e-01 2.779056e-01 -2.860568e-02 5.066171e-01 3.026129e-01 7.818356e-01
<VARIANCE> 25
 1.156960e+02 4.234915e+01 3.704588e+01 4.176082e+01 5.743276e+01 4.787568e+01 4.475115e+01 4.557491e+01 4.255684e+01 3.337704e+01 3.442883e+01 2.526490e+01 1.010272e+01 3.429478e+00 3.612948e+00 3.935083e+00 4.435962e+00 5.170825e+00 3.357518e+00 3.826563e+00 3.977909e+00 3.220579e+00 3.409519e+00 2.372806e+00 6.844568e+00
<GCONST> 1.098047e+02
<STATE> 3
<MEAN> 25
 -1.421792e+01 2.796995e-01 4.741854e+00 -1.001507e+00 -6.786555e-01 1.627239e+00 3.095404e+00 1.243802e+00 2.726001e+00 6.160723e-01 2.520006e+00 2.077110e+00 1.975239e-02 -1.751789e-01 4.286692e-03 1.298696e-01 -3.298369e-01 -2.189376e-01 1.613720e-01 1.607868e-01 6.571580e-03 -1.584388e-01 -6.090686e-02 5.980864e-02 2.424151e-01
<VARIANCE> 25
 1.070075e+02 3.764316e+01 3.456234e+01 3.802353e+01 5.531500e+01 4.627051e+01 4.491238e+01 4.043819e+01 4.085028e+01 3.207123e+01 3.303679e+01 2.439926e+01 1.147638e+01 2.674029e+00 2.760854e+00 3.383023e+00 3.876849e+00 4.207868e+00 3.628369e+00 3.438156e+00 3.128697e+00 2.421211e+00 2.769044e+00 2.255620e+00 5.373161e+00
<GCONST> 1.071631e+02
<STATE> 4
<MEAN> 25
 -9.285290e+00 -2.408461e-01 2.553186e+00 1.239969e+00 -5.509251e-01 7.650197e-01 3.402124e+00 1.870270e+00 2.922644e+00 3.071626e-01 1.739377e+00 2.692827e+00 1.562527e+00 -1.738932e-01 -4.531899e-01 1.887506e-01 -9.850651e-02 -3.474675e-01 -3.735087e-01 -4.772157e-02 -2.044606e-01 -1.106545e-01 -2.199375e-01 -1.863486e-01 -1.594180e-01
<VARIANCE> 25
 9.921908e+01 3.518129e+01 5.135358e+01 4.108049e+01 4.759978e+01 4.618538e+01 4.935215e+01 3.648287e+01 4.045507e+01 3.288484e+01 3.723265e+01 2.856019e+01 7.504981e+00 2.516173e+00 2.274732e+00 2.400199e+00 3.478985e+00 4.422973e+00 3.918573e+00 3.141610e+00 2.850464e+00 2.300268e+00 2.484520e+00 2.347728e+00 4.328721e+00
<GCONST> 1.061018e+02
<TRANSP> 5
 0.000000e+00 1.000000e+00 0.000000e+00 0.000000e+00 0.000000e+00
 0.000000e+00 6.636505e-01 3.363495e-01 0.000000e+00 0.000000e+00
 0.000000e+00 0.000000e+00 6.488801e-01 3.511199e-01 0.000000e+00
 0.000000e+00 0.000000e+00 0.000000e+00 7.655187e-01 2.344813e-01
 0.000000e+00 0.000000e+00 0.000000e+00 0.000000e+00 0.000000e+00
<ENDHMM>
~h "dh"
<BEGINHMM>
<NUMSTATES> 5
<STATE> 2
<MEAN> 25
 -4.030302e-01 1.815796e+00 -8.744111e-01 3.012695e+00 1.352139e+00 -5.038874e-01 4.455284e-01 -3.179167e-01 1.757030e+00 8.896088e-01 -7.847167e-01 -4.941995e-02 2.634011e-02 -3.219410e-02 -4.150294e-02 1.285230e-02 4.395194e-02 -6.138563e-02 5.813400e-03 -1.832304e-02 2.029531e-01 6.160413e-02 4.817185e-02 4.774656e-02 -9.429628e-03
<VARIANCE> 25
 5.217389e+01 4.250265e+01 3.695236e+01 4.608286e+01 5.185598e+01 5.277060e+01 5.689920e+01 5.414993e+01 4.379213e+01 3.761463e+01 3.862005e+01 3.707484e+01 2.606171e+00 2.958149e+00 2.299496e+00 3.444404e+00 3.383820e+00 3.926630e+00 3.788064e+00 3.529685e+00 3.038783e+00 2.881294e+00 2.762124e+00 2.484488e+00 5.241965e+00
<GCONST> 1.067564e+02
<STATE> 3
<MEAN> 25
 -1.530526e-01 1.740014e+00 -8.309977e-01 2.784580e+00 1.198407e+00 -8.581667e-01 1.612917e-01 -4.884013e-01 2.025167e+00 9.624600e-01 -7.084530e-01 -5.038197e-02 6.447849e-02 -1.609774e-01 2.134278e-02 -1.916006e-01 -9.296460e-02 -1.483015e-01 -1.163863e-01 2.865069e-02 1.284600e-01 5.881741e-03 5.439866e-02 4.874918e-02 3.362674e-01
<VARIANCE> 25
 4.851243e+01 4.073505e+01 3.570883e+01 4.731804e+01 5.159148e+01 5.237956e+01 5.746763e+01 5.274786e+01 4.183068e+01 3.695343e+01 3.797568e+01 3.782608e+01 2.654909e+00 2.956040e+00 2.315149e+00 3.624421e+00 3.616286e+00 4.271320e+00 4.093053e+00 3.520419e+00 3.078950e+00 2.863312e+00 2.862006e+00 2.512945e+00 6.117080e+00
<GCONST> 1.070533e+02
<STATE> 4
<MEAN> 25
 -7.130524e-01 7.737616e-01 -1.293277e+00 2.330124e+00 1.251364e+00 -8.220656e-01 4.829568e-01 -6.568006e-01 1.959127e+00 7.804858e-01 -5.623180e-01 4.238533e-01 1.007851e-01 -1.739577e-01 8.427554e-02 -2.068445e-01 -1.970377e-01 -1.159492e-01 -1.390659e-01 7.356213e-02 6.545053e-03 -2.527100e-02 4.724237e-02 1.760891e-02 4.714296e-01
<VARIANCE> 25
 4.036847e+01 3.744410e+01 3.540902e+01 4.124510e+01 4.817955e+01 4.798833e+01 5.253872e+01 4.857030e+01 3.992599e+01 3.338328e+01 3.360468e+01 3.436372e+01 2.234852e+00 2.507358e+00 2.036632e+00 3.087266e+00 3.352777e+00 3.809610e+00 3.711060e+00 3.188250e+00 2.810922e+00 2.647586e+00 2.563143e+00 2.259087e+00 5.305518e+00
<GCONST> 1.044037e+02
<TRANSP> 5
 0.000000e+00 1.000000e+00 0.000000e+00 0.000000e+00 0.000000e+00
 0.000000e+00 5.651684e-01 4.348316e-01 0.000000e+00 0.000000e+00
 0.000000e+00 0.000000e+00 5.569718e-01 4.430282e-01 0.000000e+00
 0.000000e+00 0.000000e+00 0.000000e+00 7.356059e-01 2.643941e-01
 0.000000e+00 0.000000e+00 0.000000e+00 0.000000e+00 0.000000e+00
<ENDHMM>
~h "eh"
<BEGINHMM>
<NUMSTATES> 5
<STATE> 2
<MEAN> 25
 1.059136e+00 -3.444800e+00 3.924248e-02 -6.987019e-01 -2.942053e+00 -2.322004e+00 1.109705e+00 3.016379e+00 1.300640e+00 -6.031416e-03 -1.318264e+00 -5.610338e-01 2.196434e-01 -4.937436e-01 1.574676e-02 -1.229196e-01 -2.200144e-01 -1.267960e-01 2.348144e-01 3.777056e-01 -4.172293e-03 -8.391298e-02 -2.330885e-01 -9.339944e-02 2.885661e-01
<VARIANCE> 25
 5.795059e+01 5.845196e+01 4.347898e+01 5.339179e+01 7.306731e+01 6.327804e+01 6.220844e+01 5.669807e+01 5.302642e+01 4.706684e+01 5.054405e+01 3.560901e+01 3.808495e+00 4.074850e+00 2.395233e+00 3.695378e+00 4.020205e+00 4.041362e+00 4.114699e+00 4.079505e+00 3.371033e+00 3.250698e+00 3.481087e+00 2.680291e+00 3.792149e+00
<GCONST> 1.102410e+02
<STATE> 3
<MEAN> 25
 1.228071e+00 -4.094040e+00 -5.264758e-02 -6.382411e-01 -2.911585e+00 -2.265266e+00 1.578155e+00 3.525233e+00 1.219618e+00 -1.579170e-01 -1.579720e+00 -6.977322e-01 1.021359e-01 -8.619078e-02 -3.128551e-02 6.359240e-02 7.932205e-02 4.501233e-02 6.700383e-02 7.760236e-02 -1.129251e-01 -5.535759e-02 -6.410674e-02 -8.608289e-02 -6.162020e-02
<VARIANCE> 25
 5.625417e+01 5.721798e+01 4.113888e+01 5.128078e+01 7.131491e+01 6.053325e+01 6.018602e+01 5.668970e+01 5.640401e+01 4.814421e+01 5.111896e+01 3.574583e+01 2.944712e+00 3.672239e+00 2.218099e+00 3.316102e+00 3.572476e+00 3.606118e+00 3.590165e+00 3.779335e+00 3.063364e+00 2.977686e+00 2.885189e+00 2.569952e+00 3.428188e+00
<GCONST> 1.085867e+02
<STATE> 4
<MEAN> 25
 -5.438785e-02 -3.650195e+00 -1.645370e-01 6.385267e-01 -1.674940e+00 -1.139734e+00 2.403970e+00 3.751087e+00 1.703277e+00 1.212841e-01 -8.408397e-01 4.098201e-02 4.772582e-02 2.766689e-01 -5.827809e-02 1.282284e-01 2.206775e-01 8.422173e-02 -1.285570e-01 -1.489207e-01 -1.760407e-01 -3.045399e-02 5.798386e-02 -2.829744e-02 -2.211944e-01
<VARIANCE> 25
 5.993861e+01 5.373577e+01 3.869423e+01 5.023338e+01 6.616323e+01 5.973071e+01 5.730674e+01 5.205083e+01 5.717935e+01 4.484632e+01 4.778181e+01 3.727372e+01 2.666538e+00 3.170879e+00 2.046657e+00 2.968592e+00 3.225409e+00 3.265897e+00 3.218158e+00 3.445404e+00 2.930391e+00 2.824954e+00 2.524239e+00 2.438523e+00 3.272127e+00
<GCONST> 1.070296e+02
<TRANSP> 5
 0.000000e+00 1.000000e+00 0.000000e+00 0.000000e+00 0.000000e+00
 0.000000e+00 5.160182e-01 4.839818e-01 0.000000e+00 0.000000e+00
 0.000000e+00 0.000000e+00 5.193761e-01 4.806239e-01 0.000000e+00
 0.000000e+00 0.000000e+00 0.000000e+00 6.971971e-01 3.028030e-01
 0.000000e+00 0.000000e+00 0.000000e+00 0.000000e+00 0.000000e+00
<ENDHMM>
~h "er"
<BEGINHMM>
<NUMSTATES> 5
<STATE> 2
<MEAN> 25
 6.643359e+00 -4.393317e+00 -6.488100e+00 2.667541e+00 2.321758e+00 -6.975450e+00 -8.074306e+00 4.811173e+00 2.434656e+00 -4.309263e-01 -2.232430e-01 3.541576e-01 6.587303e-01 -1.264607e-01 -4.146499e-01 1.529748e-01 3.147895e-01 -7.036134e-01 -9.320591e-01 4.857851e-01 2.207611e-01 -9.509012e-02 -1.000694e-01 1.532296e-01 -5.919179e-02
<VARIANCE> 25
 6.066826e+01 3.751905e+01 7.193844e+01 4.908759e+01 6.404764e+01 8.519763e+01 1.313981e+02 8.640793e+01 6.731460e+01 4.997986e+01 3.822519e+01 3.882790e+01 4.151693e+00 2.779254e+00 3.432812e+00 2.830256e+00 3.502992e+00 4.827490e+00 7.350546e+00 4.844605e+00 3.768927e+00 3.249922e+00 2.583637e+00 2.339491e+00 2.146012e+00
<GCONST> 1.114004e+02
<STATE> 3
<MEAN> 25
 6.867354e+00 -4.035974e+00 -6.378045e+00 3.213879e+00 2.823738e+00 -7.225026e+00 -8.501074e+00 5.215038e+00 2.882008e+00 -6.301329e-01 -4.312941e-01 7.619048e-01 -4.214654e-02 1.731184e-01 2.923718e-01 1.594219e-01 -2.007261e-02 -6.747472e-02 1.151225e-01 4.986434e-02 -1.318249e-02 -9.069971e-02 -1.784351e-02 1.074279e-01 -3.764429e-01
<VARIANCE> 25
 5.816200e+01 3.771790e+01 7.197141e+01 4.941529e+01 6.242351e+01 9.071640e+01 1.346401e+02 8.449806e+01 7.304814e+01 4.933727e+01 3.818233e+01 3.832093e+01 3.154082e+00 2.665803e+00 3.371961e+00 2.718437e+00 3.599572e+00 4.740310e+00 6.932827e+00 4.661230e+00 3.857175e+00 3.262629e+00 2.510818e+00 2.332869e+00 2.154703e+00
<GCONST> 1.110010e+02
<STATE> 4
<MEAN> 25
 3.070120e+00 -3.258798e+00 -4.731461e+00 3.858891e+00 3.182399e+00 -4.107106e+00 -4.726842e+00 5.118324e+00 4.105101e+00 -3.064027e-01 -1.798018e-02 1.457897e+00 -5.295745e-01 3.337438e-01 6.207516e-01 -3.939602e-02 -2.577934e-01 4.255037e-01 7.668575e-01 -3.189118e-01 -2.600272e-01 6.104402e-03 1.220480e-01 -3.065858e-04 -3.871336e-01
<VARIANCE> 25
 8.048229e+01 4.596706e+01 6.189994e+01 5.403047e+01 6.252431e+01 1.100389e+02 1.200965e+02 6.985803e+01 8.997603e+01 5.116715e+01 4.418486e+01 3.675315e+01 2.813028e+00 2.841713e+00 3.387778e+00 2.755486e+00 3.554681e+00 4.525932e+00 5.609311e+00 4.556987e+00 3.883109e+00 3.369130e+00 2.754277e+00 2.354610e+00 2.302902e+00
<GCONST> 1.115830e+02
<TRANSP> 5
 0.000000e+00 1.000000e+00 0.000000e+00 0.000000e+00 0.000000e+00
 0.000000e+00 6.464213e-01 3.535787e-01 0.000000e+00 0.000000e+00
 0.000000e+00 0.000000e+00 6.216214e-01 3.783786e-01 0.000000e+00
 0.000000e+00 0.000000e+00 0.000000e+00 7.626003e-01 2.373996e-01
 0.000000e+00 0.000000e+00 0.000000e+00 0.000000e+00 0.000000e+00
<ENDHMM>
~h "ey"
<BEGINHMM>
<NUMSTATES> 5
<STATE> 2
<MEAN> 25
 1.508914e+00 -1.596489e+00 8.554822e+00 -3.110262e+00 -1.239232e+01 -4.210921e+00 2.185141e-01 -6.711984e-01 -4.056432e+00 1.033401e+00 9.093003e-01 -1.323935e+00 -3.294883e-02 2.916121e-01 9.487398e-01 -2.763549e-01 -7.876502e-01 1.302560e-01 8.050083e-02 -6.051190e-01 -5.299633e-01 2.826678e-01 1.835747e-01 -6.979779e-02 -2.441705e-02
<VARIANCE> 25
 2.239668e+01 2.980439e+01 5.070992e+01 6.229398e+01 7.223130e+01 5.769366e+01 4.986953e+01 6.627549e+01 5.447132e+01 4.211874e+01 4.998092e+01 3.137897e+01 1.809317e+00 2.100994e+00 2.436355e+00 2.994874e+00 4.234988e+00 3.328043e+00 3.358543e+00 3.914753e+00 3.510594e+00 2.861959e+00 2.990417e+00 2.195168e+00 2.034167e+00
<GCONST> 1.054865e+02
<STATE> 3
<MEAN> 25
 1.276757e+00 -3.939909e-02 1.028451e+01 -2.872291e+00 -1.244349e+01 -3.074232e+00 1.322301e-01 -2.865692e+00 -5.068930e+00 1.795840e+00 1.021897e+00 -1.288859e+00 -7.397196e-02 3.937041e-01 2.985108e-01 2.434066e-01 2.033446e-01 3.275575e-01 -2.446424e-02 -4.664727e-01 -2.445482e-01 9.210145e-02 1.880493e-03 -4.957155e-02 -5.245385e-01
<VARIANCE> 25
 2.206988e+01 2.846573e+01 5.547163e+01 7.226293e+01 7.621662e+01 6.396072e+01 5.005348e+01 6.741465e+01 5.403718e+01 4.181951e+01 5.439938e+01 3.218543e+01 1.507503e+00 1.831560e+00 2.544456e+00 3.094876e+00 4.110940e+00 3.109918e+00 3.017422e+00 3.732858e+00 3.355096e+00 2.626394e+00 2.698702e+00 2.077031e+00 2.018182e+00
<GCONST> 1.051438e+02
<STATE> 4
<MEAN> 25
 9.780531e-01 1.495337e+00 1.009758e+01 -1.096952e+00 -1.011314e+01 -1.772458e+00 4.606088e-01 -4.177648e+00 -5.298011e+00 1.833141e+00 7.746795e-01 -1.133621e+00 -2.015982e-01 2.541918e-01 -4.703498e-01 5.948731e-01 1.003839e+00 2.155604e-01 8.955488e-02 3.177439e-02 1.222347e-01 -2.122951e-01 1.953630e-03 6.198610e-02 -7.285156e-01
<VARIANCE> 25
 2.864785e+01 2.983262e+01 5.927313e+01 7.389833e+01 8.237834e+01 6.933418e+01 5.226397e+01 6.884193e+01 5.382627e+01 4.230646e+01 5.392232e+01 3.387218e+01 2.225526e+00 2.128213e+00 2.790893e+00 3.466918e+00 4.654348e+00 3.851667e+00 3.485672e+00 4.352573e+00 3.463886e+00 2.779806e+00 3.138234e+00 2.330157e+00 2.384458e+00
<GCONST> 1.077156e+02
<TRANSP> 5
 0.000000e+00 1.000000e+00 0.000000e+00 0.000000e+00 0.000000e+00
 0.000000e+00 7.131704e-01 2.868295e-01 0.000000e+00 0.000000e+00
 0.000000e+00 0.000000e+00 6.717784e-01 3.282216e-01 0.000000e+00
 0.000000e+00 0.000000e+00 0.000000e+00 7.665640e-01 2.334360e-01
 0.000000e+00 0.000000e+00 0.000000e+00 0.000000e+00 0.000000e+00
<ENDHMM>
~h "hh"
<BEGINHMM>
<NUMSTATES> 5
<STATE> 2
<MEAN> 25
 -3.077270e+00 -2.003426e+00 4.849767e-01 2.029005e+00 1.957543e+00 2.036593e+00 4.349557e+00 1.976601e+00 9.920993e-01 1.404242e-01 9.136131e-01 1.079420e+00 5.182044e-02 -2.530210e-01 9.929382e-03 -1.225006e-01 -7.822288e-02 1.973528e-02 2.252652e-02 9.723558e-02 2.679204e-02 -6.059480e-03 -3.084292e-02 -2.136675e-02 1.531329e-01
<VARIANCE> 25
 5.779073e+01 5.541260e+01 4.991962e+01 4.380475e+01 7.275731e+01 6.123835e+01 6.287037e+01 5.501867e+01 4.964579e+01 4.691106e+01 4.985945e+01 3.159797e+01 2.298170e+00 2.511099e+00 2.469756e+00 2.375116e+00 3.717946e+00 3.089254e+00 3.968859e+00 3.369996e+00 2.976396e+00 3.062053e+00 2.653743e+00 2.167976e+00 1.560984e+00
<GCONST> 1.063362e+02
<STATE> 3
<MEAN> 25
 -2.262068e+00 -2.245723e+00 5.669596e-01 1.492133e+00 1.352288e+00 1.870664e+00 3.766350e+00 1.653349e+00 5.993170e-01 -1.067453e-01 2.856991e-01 7.549926e-01 2.844549e-01 -9.844701e-02 1.351980e-02 -1.430277e-01 -1.711692e-01 -1.115615e-01 -3.041333e-01 -3.449750e-02 -3.677075e-02 -7.020918e-02 -1.066692e-01 -1.023483e-01 2.509548e-01
<VARIANCE> 25
 5.621632e+01 6.000120e+01 5.513608e+01 4.642916e+01 8.314926e+01 6.508438e+01 7.016093e+01 5.983549e+01 5.158554e+01 5.014265e+01 5.031973e+01 3.171633e+01 2.441887e+00 2.585113e+00 2.668741e+00 2.521368e+00 4.102956e+00 3.314018e+00 4.163467e+00 3.592456e+00 3.078094e+00 3.146809e+00 2.781610e+00 2.199620e+00 1.915421e+00
<GCONST> 1.078862e+02
<STATE> 4
<MEAN> 25
 -1.816489e+00 -2.445687e+00 2.180804e-01 1.646695e+00 1.820210e+00 2.442516e+00 3.171303e+00 1.484111e+00 1.282250e+00 1.197104e-01 7.334305e-01 4.037966e-01 3.564239e-01 2.271215e-02 2.843420e-03 -1.242833e-01 -2.219158e-01 -2.635516e-01 -4.368646e-01 -1.571943e-01 -8.695880e-02 -9.888321e-02 -1.455779e-01 -1.219581e-01 3.554359e-01
<VARIANCE> 25
 4.893555e+01 5.704015e+01 5.393813e+01 4.478599e+01 8.728115e+01 6.486288e+01 6.916827e+01 6.089148e+01 5.465415e+01 5.239936e+01 5.240550e+01 3.133088e+01 2.186770e+00 2.520765e+00 2.578689e+00 2.441796e+00 4.025708e+00 3.156092e+00 3.964237e+00 3.478081e+00 3.046503e+00 3.130738e+00 2.830771e+00 2.159586e+00 2.588556e+00
<GCONST> 1.077512e+02
<TRANSP> 5
 0.000000e+00 1.000000e+00 0.000000e+00 0.000000e+00 0.000000e+00
 0.000000e+00 5.960634e-01 4.039366e-01 0.000000e+00 0.000000e+00
 0.000000e+00 0.000000e+00 5.533500e-01 4.466500e-01 0.000000e+00
 0.000000e+00 0.000000e+00 0.000000e+00 6.872365e-01 3.127635e-01
 0.000000e+00 0.000000e+00 0.000000e+00 0.000000e+00 0.000000e+00
<ENDHMM>
~h "ih"
<BEGINHMM>
<NUMSTATES> 5
<STATE> 2
<MEAN> 25
 1.600677e+00 9.360836e-01 4.170272e+00 4.882685e-01 -4.437365e+00 -3.999751e+00 -1.766449e+00 -8.221255e-01 -2.529293e+00 -3.433629e-01 -1.949174e-01 -6.197851e-02 2.890038e-01 6.696284e-02 4.170035e-01 -1.333741e-02 -5.533881e-01 -4.038543e-01 -1.105175e-01 -1.261539e-01 -3.071092e-01 -7.730048e-02 -4.598315e-02 -5.235708e-02 1.829061e-01
<VARIANCE> 25
 5.119504e+01 4.444112e+01 5.558878e+01 5.541275e+01 7.876456e+01 6.732069e+01 6.666864e+01 6.676621e+01 5.903906e+01 4.747292e+01 4.328303e+01 3.652331e+01 4.323144e+00 3.389115e+00 3.440298e+00 4.337437e+00 6.451961e+00 5.424387e+00 5.222960e+00 5.297648e+00 4.860583e+00 4.117545e+00 3.564090e+00 2.908514e+00 3.806548e+00
<GCONST> 1.129252e+02
<STATE> 3
<MEAN> 25
 1.862756e+00 1.178799e+00 4.690737e+00 4.635338e-01 -5.080088e+00 -4.358180e+00 -1.858304e+00 -1.104942e+00 -2.919149e+00 -3.450013e-01 -2.085374e-01 -1.856642e-01 1.603431e-02 2.202476e-01 9.078734e-02 8.345880e-02 -4.201215e-02 -7.053611e-03 4.216893e-02 -1.130053e-01 -9.562245e-02 2.801920e-02 -1.488481e-02 -5.711622e-02 -1.111237e-01
<VARIANCE> 25
 4.622392e+01 4.329857e+01 5.467489e+01 5.559472e+01 8.093821e+01 6.596677e+01 6.435214e+01 6.540378e+01 5.892126e+01 4.672328e+01 4.251126e+01 3.755209e+01 3.857716e+00 3.368277e+00 3.181929e+00 4.184024e+00 6.101988e+00 5.133009e+00 4.801334e+00 5.107882e+00 4.490985e+00 3.956069e+00 3.293082e+00 2.859985e+00 3.531910e+00
<GCONST> 1.119708e+02
<STATE> 4
<MEAN> 25
 1.552018e+00 1.712596e+00 4.616182e+00 8.244684e-01 -4.662360e+00 -3.976558e+00 -1.604159e+00 -1.299060e+00 -2.866702e+00 -2.485529e-01 -1.228048e-01 -2.669818e-01 -2.302911e-01 3.097402e-01 -2.275860e-01 1.829508e-01 4.487201e-01 3.017147e-01 1.524324e-01 -8.719373e-02 1.069683e-01 6.237783e-02 1.489101e-03 -3.415013e-02 -3.253438e-01
<VARIANCE> 25
 5.091558e+01 4.408923e+01 5.338868e+01 5.599862e+01 8.452638e+01 6.524252e+01 6.253807e+01 6.513581e+01 6.001032e+01 4.556591e+01 4.275224e+01 3.844982e+01 3.785735e+00 3.241435e+00 2.923183e+00 3.942527e+00 5.281446e+00 4.717050e+00 4.265553e+00 4.879368e+00 4.057340e+00 3.669346e+00 3.005167e+00 2.757888e+00 3.166635e+00
<GCONST> 1.110828e+02
<TRANSP> 5
 0.000000e+00 1.000000e+00 0.000000e+00 0.000000e+00 0.000000e+00
 0.000000e+00 5.031798e-01 4.968201e-01 0.000000e+00 0.000000e+00
 0.000000e+00 0.000000e+00 4.989164e-01 5.010836e-01 0.000000e+00
 0.000000e+00 0.000000e+00 0.000000e+00 5.935469e-01 4.064531e-01
 0.000000e+00 0.000000e+00 0.000000e+00 0.000000e+00 0.000000e+00
<ENDHMM>
~h "iy"
<BEGINHMM>
<NUMSTATES> 5
<STATE> 2
<MEAN> 25
 1.267636e+00 1.631466e+00 1.131299e+01 -3.702500e-01 -9.229772e+00 -2.826889e+00 -2.207019e+00 -3.800232e+00 -6.289893e+00 3.062339e-01 4.627345e-01 -1.187039e+00 1.547789e-02 2.751506e-01 1.304756e+00 -3.820980e-01 -1.138884e+00 3.158814e-01 -6.181034e-02 -6.278957e-01 -6.826121e-01 1.786852e-01 -1.141564e-01 -2.186001e-01 2.286932e-01
<VARIANCE> 25
 3.493079e+01 3.797144e+01 7.829973e+01 6.251150e+01 7.790198e+01 7.182451e+01 6.643954e+01 7.670316e+01 6.645018e+01 5.860440e+01 5.472757e+01 3.535351e+01 2.603931e+00 2.348430e+00 4.702353e+00 3.867538e+00 6.077354e+00 4.766959e+00 5.244825e+00 5.349625e+00 4.605821e+00 3.756052e+00 3.634012e+00 2.639018e+00 2.496450e+00
<GCONST> 1.120723e+02
<STATE> 3
<MEAN> 25
 1.144935e+00 2.655427e+00 1.311280e+01 -1.280787e+00 -1.052387e+01 -1.495981e+00 -2.322646e+00 -5.347874e+00 -7.152876e+00 7.991942e-01 -1.120913e-01 -1.771556e+00 -6.714702e-04 2.213078e-01 1.011074e-01 -4.551404e-02 -3.536890e-02 2.779193e-01 9.848464e-02 -2.284308e-01 -3.099375e-02 1.078273e-01 -1.117620e-01 -8.283569e-02 -2.249066e-01
<VARIANCE> 25
 2.808534e+01 3.687545e+01 7.429729e+01 6.679405e+01 7.515716e+01 6.433739e+01 6.293462e+01 7.643319e+01 6.366245e+01 5.873308e+01 6.032505e+01 3.674162e+01 1.627835e+00 2.047563e+00 3.995332e+00 3.211462e+00 4.929549e+00 3.957864e+00 4.038918e+00 4.306635e+00 3.890915e+00 3.081840e+00 2.956788e+00 2.315129e+00 2.362893e+00
<GCONST> 1.091424e+02
<STATE> 4
<MEAN> 25
 1.059895e+00 3.430604e+00 1.179251e+01 -9.473467e-01 -9.157373e+00 -4.006873e-01 -1.472647e+00 -5.873589e+00 -6.268483e+00 1.151289e+00 -3.302841e-01 -1.638763e+00 -2.436445e-02 -5.759683e-02 -8.483738e-01 3.429323e-01 7.406666e-01 7.193352e-03 2.773855e-01 3.276682e-01 4.087264e-01 -4.467865e-02 3.371474e-03 1.299997e-01 -4.431885e-01
<VARIANCE> 25
 3.169347e+01 4.013277e+01 7.221808e+01 7.170650e+01 8.532444e+01 6.515524e+01 6.915783e+01 8.189449e+01 6.157920e+01 5.612718e+01 5.709063e+01 3.819979e+01 1.697694e+00 2.212339e+00 3.382622e+00 3.119592e+00 4.700862e+00 3.858011e+00 3.787657e+00 4.306391e+00 3.488603e+00 3.088679e+00 2.848194e+00 2.377715e+00 2.433452e+00
<GCONST> 1.092968e+02
<TRANSP> 5
 0.000000e+00 1.000000e+00 0.000000e+00 0.000000e+00 0.000000e+00
 0.000000e+00 6.832708e-01 3.167291e-01 0.000000e+00 0.000000e+00
 0.000000e+00 0.000000e+00 6.824515e-01 3.175485e-01 0.000000e+00
 0.000000e+00 0.000000e+00 0.000000e+00 8.206067e-01 1.793933e-01
 0.000000e+00 0.000000e+00 0.000000e+00 0.000000e+00 0.000000e+00
<ENDHMM>
~h "jh"
<BEGINHMM>
<NUMSTATES> 5
<STATE> 2
<MEAN> 25
 -5.456657e+00 3.065021e+00 7.413785e+00 7.327708e-01 1.378598e+00 2.996613e+00 4.859191e-01 -1.916107e+00 1.232529e+00 -2.039529e+00 -9.340207e-02 4.031443e-01 -2.763315e+00 -4.085987e-01 3.260451e-01 -4.729797e-01 -1.719594e-02 3.943921e-01 3.389846e-01 4.913213e-02 7.166026e-01 -3.751352e-02 4.288052e-01 3.800611e-01 1.079936e+00
<VARIANCE> 25
 1.253378e+02 5.323345e+01 5.677510e+01 4.933556e+01 6.372087e+01 5.199543e+01 5.992799e+01 4.565100e+01 5.138652e+01 3.281710e+01 3.606703e+01 2.878042e+01 1.109229e+01 4.775867e+00 3.734372e+00 5.223317e+00 6.147634e+00 5.724031e+00 4.844509e+00 4.141132e+00 4.847466e+00 3.614377e+00 3.867228e+00 2.886046e+00 6.288731e+00
<GCONST> 1.137003e+02
<STATE> 3
<MEAN> 25
 -1.106086e+01 1.454721e+00 7.675599e+00 -2.588011e-01 1.038238e-01 2.322490e+00 1.027083e+00 -1.614415e+00 2.498200e+00 -1.977561e+00 7.680616e-01 1.220435e+00 -5.484838e-01 -3.795190e-01 -6.421088e-02 -2.100386e-01 -5.908180e-01 -7.444423e-01 -1.301531e-01 2.659727e-01 1.171286e-01 2.633049e-02 2.218687e-01 1.733517e-01 1.112042e+00
<VARIANCE> 25
 1.242409e+02 5.108382e+01 5.211267e+01 4.619037e+01 5.410225e+01 5.874555e+01 6.037338e+01 4.590773e+01 5.043609e+01 3.312919e+01 3.298561e+01 2.788750e+01 1.804216e+01 3.832524e+00 3.387437e+00 4.265810e+00 5.667777e+00 7.161105e+00 5.624796e+00 3.880887e+00 4.511859e+00 3.232068e+00 3.483111e+00 2.794641e+00 4.486149e+00
<GCONST> 1.128755e+02
<STATE> 4
<MEAN> 25
 -7.907123e+00 -1.511697e-01 6.756152e+00 -3.991224e-01 -1.962833e+00 -5.870834e-01 -1.493438e-01 -4.159732e-01 2.269033e+00 -1.743018e+00 9.487240e-01 1.211950e+00 1.957367e+00 -4.840406e-01 -6.001427e-01 -1.200681e-01 -6.232823e-01 -1.049205e+00 -6.212394e-01 3.524553e-01 -2.547300e-01 1.774241e-01 9.429057e-03 -1.055900e-01 3.758720e-01
<VARIANCE> 25
 1.246402e+02 5.459008e+01 4.964912e+01 5.618317e+01 4.750733e+01 7.201183e+01 6.234924e+01 4.390191e+01 5.368582e+01 3.213657e+01 3.129929e+01 2.906349e+01 1.196939e+01 3.927206e+00 3.474850e+00 3.597147e+00 5.241165e+00 7.852854e+00 5.610529e+00 4.652447e+00 3.979782e+00 3.159653e+00 3.501177e+00 3.158642e+00 3.460540e+00
<GCONST> 1.125562e+02
<TRANSP> 5
 0.000000e+00 1.000000e+00 0.000000e+00 0.000000e+00 0.000000e+00
 0.000000e+00 6.324054e-01 3.675946e-01 0.000000e+00 0.000000e+00
 0.000000e+00 0.000000e+00 6.296104e-01 3.703896e-01 0.000000e+00
 0.000000e+00 0.000000e+00 0.000000e+00 7.040918e-01 2.959082e-01
 0.000000e+00 0.000000e+00 0.000000e+00 0.000000e+00 0.000000e+00
<ENDHMM>
~h "ng"
<BEGINHMM>
<NUMSTATES> 5
<STATE> 2
<MEAN> 25
 4.796092e+00 3.048529e+00 4.368096e+00 -1.470273e+00 -7.390676e+00 -7.411301e-01 2.922028e-02 -5.934940e+00 -7.043782e+00 1.212552e+00 -1.556201e+00 -3.642966e+00 2.292731e-01 4.080002e-01 -1.799439e-01 4.367304e-01 3.236827e-01 1.560367e-02 5.638447e-02 -5.776709e-01 -9.829789e-02 2.552312e-01 -1.281022e-01 -8.655536e-02 -5.515537e-01
<VARIANCE> 25
 2.740990e+01 3.499985e+01 5.590265e+01 5.018431e+01 8.168086e+01 4.734892e+01 7.480936e+01 8.583519e+01 5.739668e+01 5.598304e+01 4.752319e+01 4.216139e+01 1.550732e+00 2.102620e+00 3.435289e+00 3.637624e+00 4.818310e+00 3.775952e+00 4.098445e+00 5.355238e+00 4.336191e+00 4.101699e+00 2.558686e+00 2.821637e+00 1.593776e+00
<GCONST> 1.084764e+02
<STATE> 3
<MEAN> 25
 5.120090e+00 3.770742e+00 3.599329e+00 -3.339269e-01 -6.086075e+00 -8.397600e-01 2.016311e-01 -6.594859e+00 -6.541615e+00 1.441147e+00 -1.855253e+00 -3.296191e+00 -1.879867e-02 1.530237e-01 -2.541566e-01 3.605711e-01 5.328696e-01 -4.270837e-03 7.439364e-02 4.117656e-02 2.786460e-01 -3.425926e-02 -3.812474e-02 1.847911e-01 -4.432053e-01
<VARIANCE> 25
 2.805170e+01 3.506320e+01 4.981709e+01 5.244084e+01 7.837988e+01 4.764035e+01 7.721333e+01 8.974966e+01 5.851599e+01 5.069312e+01 4.458614e+01 4.094608e+01 1.629367e+00 2.317323e+00 3.096580e+00 3.559482e+00 4.514834e+00 3.549453e+00 3.873093e+00 5.712444e+00 4.334378e+00 4.023259e+00 2.572938e+00 2.616109e+00 1.757802e+00
<GCONST> 1.082086e+02
<STATE> 4
<MEAN> 25
 4.539620e+00 3.601979e+00 2.666084e+00 1.746838e-01 -4.624030e+00 -8.028138e-01 2.097436e-01 -5.837607e+00 -5.312882e+00 9.573163e-01 -2.220296e+00 -2.694699e+00 -3.227901e-01 -1.763334e-01 -2.883896e-01 1.702597e-01 6.832662e-01 8.840887e-02 1.096835e-01 6.949465e-01 5.515044e-01 -1.844723e-01 7.985903e-02 3.149647e-01 -2.244112e-01
<VARIANCE> 25
 3.113511e+01 3.854827e+01 4.776984e+01 5.315787e+01 9.104380e+01 5.004760e+01 7.757245e+01 1.032036e+02 5.620408e+01 4.935436e+01 4.453282e+01 4.168853e+01 1.997949e+00 2.718954e+00 2.884514e+00 3.791818e+00 4.710424e+00 3.814230e+00 4.093488e+00 6.348293e+00 4.574030e+00 4.274100e+00 2.861411e+00 2.700784e+00 2.120601e+00
<GCONST> 1.097437e+02
<TRANSP> 5
 0.000000e+00 1.000000e+00 0.000000e+00 0.000000e+00 0.000000e+00
 0.000000e+00 6.134113e-01 3.865888e-01 0.000000e+00 0.000000e+00
 0.000000e+00 0.000000e+00 5.942788e-01 4.057212e-01 0.000000e+00
 0.000000e+00 0.000000e+00 0.000000e+00 7.115796e-01 2.884204e-01
 0.000000e+00 0.000000e+00 0.000000e+00 0.000000e+00 0.000000e+00
<ENDHMM>
~h "ow"
<BEGINHMM>
<NUMSTATES> 5
<STATE> 2
<MEAN> 25
 6.286675e+00 -1.298496e+00 -5.197919e+00 -8.473146e+00 -7.949408e-01 3.534540e+00 -4.407922e+00 -3.169449e+00 -9.657947e-01 2.466009e+00 -2.816010e-01 -2.362833e+00 6.849297e-01 1.908500e-02 -3.307745e-01 -1.235883e+00 -3.499646e-01 7.335087e-01 -1.731735e-01 -3.291713e-01 -3.867135e-01 1.593649e-01 4.945481e-02 7.426256e-03 2.703784e-01
<VARIANCE> 25
 3.459953e+01 4.278550e+01 4.856873e+01 7.691462e+01 7.062271e+01 8.156750e+01 7.362871e+01 4.944711e+01 6.116288e+01 8.469949e+01 5.688522e+01 4.971389e+01 2.398324e+00 2.888472e+00 2.387699e+00 4.613208e+00 3.857044e+00 4.248053e+00 4.931275e+00 3.897808e+00 4.176962e+00 5.083547e+00 3.772643e+00 3.338952e+00 2.597465e+00
<GCONST> 1.114620e+02
<STATE> 3
<MEAN> 25
 7.453534e+00 -1.227575e-01 -5.645304e+00 -1.093688e+01 -1.493683e+00 5.154958e+00 -4.249406e+00 -4.030846e+00 -2.130620e+00 1.962702e+00 -4.419550e-02 -1.800262e+00 2.501883e-01 3.662417e-01 -1.645189e-02 -4.343166e-01 -1.723466e-01 2.755820e-01 3.342683e-02 -1.288528e-01 -2.239115e-01 -2.400600e-01 4.566185e-02 1.672708e-01 -1.886906e-01
<VARIANCE> 25
 2.935669e+01 4.512030e+01 4.986540e+01 7.801761e+01 6.955925e+01 6.843523e+01 7.746622e+01 5.417924e+01 6.047382e+01 8.429653e+01 5.616996e+01 5.131218e+01 1.372906e+00 2.496473e+00 1.963909e+00 4.675527e+00 3.374548e+00 3.652591e+00 3.843202e+00 3.549006e+00 3.645174e+00 4.484823e+00 3.441807e+00 2.749778e+00 2.176855e+00
<GCONST> 1.091084e+02
<STATE> 4
<MEAN> 25
 7.608872e+00 2.211498e+00 -5.031754e+00 -1.004238e+01 -1.042004e+00 5.287629e+00 -3.764033e+00 -4.667267e+00 -3.260400e+00 8.201174e-01 -2.712719e-01 -1.250234e+00 -2.480728e-01 2.666830e-01 3.084815e-01 6.603447e-01 1.869761e-01 -2.866664e-01 1.075445e-01 9.490365e-02 9.794903e-02 -2.588901e-01 -5.847866e-02 1.753787e-01 -5.350670e-01
<VARIANCE> 25
 2.809552e+01 4.602481e+01 5.162198e+01 9.554478e+01 7.257780e+01 5.985793e+01 8.511973e+01 6.041336e+01 6.305994e+01 8.717470e+01 5.352085e+01 4.815452e+01 1.535866e+00 2.460802e+00 2.065629e+00 4.618474e+00 3.315714e+00 3.130567e+00 3.694316e+00 3.854331e+00 3.860900e+00 4.436559e+00 3.144219e+00 2.691895e+00 1.751539e+00
<GCONST> 1.091217e+02
<TRANSP> 5
 0.000000e+00 1.000000e+00 0.000000e+00 0.000000e+00 0.000000e+00
 0.000000e+00 6.652715e-01 3.347285e-01 0.000000e+00 0.000000e+00
 0.000000e+00 0.000000e+00 6.757189e-01 3.242811e-01 0.000000e+00
 0.000000e+00 0.000000e+00 0.000000e+00 8.305215e-01 1.694784e-01
 0.000000e+00 0.000000e+00 0.000000e+00 0.000000e+00 0.000000e+00
<ENDHMM>
~h "oy"
<BEGINHMM>
<NUMSTATES> 5
<STATE> 2
<MEAN> 25
 3.904726e+00 -1.436457e+00 -1.879257e+00 -1.911171e+00 -1.928884e-01 3.183435e-01 -2.452287e+00 8.413299e-01 -3.846152e-01 2.615373e+00 3.735084e+00 1.509478e+00 2.535226e-02 -2.323892e-01 -4.229752e-01 -4.947062e-01 -7.023493e-02 3.124244e-01 3.304513e-01 1.630099e-01 -9.502718e-02 3.693066e-01 -9.136386e-02 -1.150799e-01 1.872335e-01
<VARIANCE> 25
 4.799739e+01 2.913511e+01 4.687703e+01 7.419752e+01 5.167353e+01 6.782445e+01 4.654958e+01 4.668658e+01 4.613937e+01 2.963123e+01 4.283775e+01 2.699732e+01 3.500669e+00 2.497972e+00 3.645556e+00 8.795314e+00 3.384139e+00 7.243550e+00 4.116483e+00 4.441986e+00 3.581809e+00 3.887526e+00 3.281483e+00 2.809803e+00 2.517369e+00
<GCONST> 1.089835e+02
<STATE> 3
<MEAN> 25
 3.302905e+00 -1.523625e+00 -2.346179e+00 -3.042507e+00 1.624284e-01 1.266268e+00 -1.169686e+00 1.258365e+00 -1.572271e-01 2.637727e+00 2.335909e+00 1.595849e+00 -4.156684e-02 9.350731e-02 -1.128092e-01 -5.968385e-01 -7.033563e-02 4.134791e-01 3.359485e-01 1.715130e-01 -3.621633e-02 -3.990031e-02 -4.478953e-01 7.718150e-02 7.905890e-02
<VARIANCE> 25
 5.589635e+01 3.439331e+01 4.650008e+01 8.376931e+01 5.035451e+01 7.134283e+01 3.401809e+01 3.598650e+01 3.790268e+01 2.967979e+01 4.138978e+01 2.620066e+01 2.221888e+00 2.429616e+00 2.657730e+00 7.403195e+00 3.141655e+00 5.181344e+00 2.864644e+00 3.622550e+00 2.885600e+00 3.296712e+00 2.979593e+00 2.742272e+00 2.188856e+00
<GCONST> 1.060183e+02
<STATE> 4
<MEAN> 25
 1.331195e+00 -4.215755e+00 -2.068833e+00 -2.881438e+00 1.602313e+00 1.473049e+00 -8.707491e-01 2.014444e+00 2.451375e+00 2.137313e+00 1.441218e+00 2.069931e+00 -4.881886e-02 1.083056e-01 -6.380872e-02 -2.463102e-01 -4.576341e-02 1.925808e-01 1.997280e-01 3.578515e-02 5.578199e-02 3.656946e-02 -2.360473e-01 8.765563e-02 1.753594e-01
<VARIANCE> 25
 4.634019e+01 5.517056e+01 3.320911e+01 7.064384e+01 3.750797e+01 6.031802e+01 3.378131e+01 2.335104e+01 3.950480e+01 3.639547e+01 3.355421e+01 1.827183e+01 1.720642e+00 2.812639e+00 2.071897e+00 4.655658e+00 2.712385e+00 3.430834e+00 2.682538e+00 2.680032e+00 3.304790e+00 3.327200e+00 2.664738e+00 2.164011e+00 2.298314e+00
<GCONST> 1.026663e+02
<TRANSP> 5
 0.000000e+00 1.000000e+00 0.000000e+00 0.000000e+00 0.000000e+00
 0.000000e+00 5.975381e-01 4.024619e-01 0.000000e+00 0.000000e+00
 0.000000e+00 0.000000e+00 6.043123e-01 3.956877e-01 0.000000e+00
 0.000000e+00 0.000000e+00 0.000000e+00 8.362101e-01 1.637899e-01
 0.000000e+00 0.000000e+00 0.000000e+00 0.000000e+00 0.000000e+00
<ENDHMM>
~h "sh"
<BEGINHMM>
<NUMSTATES> 5
<STATE> 2
<MEAN> 25
 -1.237830e+01 2.491935e-01 8.784867e+00 5.395968e-01 -1.495065e+00 5.825014e-01 2.927250e+00 -6.929665e-01 6.113421e-01 -8.860326e-01 2.677312e+00 1.237572e+00 -2.791488e+00 -1.765164e-01 1.919509e-01 -1.936714e-01 5.595751e-01 6.037810e-01 7.381354e-01 2.982954e-01 8.805260e-01 2.324682e-01 5.670590e-01 2.291871e-01 3.160037e-01
<VARIANCE> 25
 1.188501e+02 3.980145e+01 4.744492e+01 4.701733e+01 4.853249e+01 5.696682e+01 4.714675e+01 3.771662e+01 4.567295e+01 3.847591e+01 3.287077e+01 2.308173e+01 8.238916e+00 2.884417e+00 2.583766e+00 2.811388e+00 3.919922e+00 3.782106e+00 4.137332e+00 3.219929e+00 3.428279e+00 3.539208e+00 2.920750e+00 2.200663e+00 1.963643e+00
<GCONST> 1.070983e+02
<STATE> 3
<MEAN> 25
 -1.758397e+01 -5.539250e-01 8.340327e+00 -3.053020e-01 -4.499716e-01 1.811820e+00 4.522927e+00 2.180491e-01 2.573520e+00 -1.537823e-01 3.775474e+00 1.721252e+00 -4.038610e-01 -1.413104e-01 -1.292407e-01 -1.662335e-01 7.680394e-02 1.045828e-01 1.722133e-01 1.492453e-01 2.990318e-01 6.032095e-02 6.613214e-02 2.771731e-02 5.195751e-02
<VARIANCE> 25
 9.261974e+01 3.850737e+01 4.090557e+01 4.180294e+01 4.527716e+01 4.960165e+01 4.409251e+01 3.125621e+01 3.576474e+01 3.526254e+01 2.753007e+01 2.057626e+01 9.721162e+00 2.048028e+00 1.775659e+00 2.065460e+00 2.812171e+00 3.206393e+00 3.396065e+00 2.428495e+00 2.821641e+00 2.528174e+00 2.262804e+00 1.670210e+00 1.369049e+00
<GCONST> 1.022032e+02
<STATE> 4
<MEAN> 25
 -1.418255e+01 -2.466823e-01 7.802420e+00 -5.755044e-01 -9.447550e-01 1.607337e+00 3.815479e+00 3.704825e-01 2.424291e+00 -7.383015e-01 3.213187e+00 1.198047e+00 2.075301e+00 1.008345e-01 -2.169001e-01 -2.017754e-02 -5.243132e-01 -6.037240e-01 -7.427751e-01 -1.337868e-01 -3.627924e-01 -2.524338e-01 -4.423022e-01 -2.041931e-01 -7.112344e-02
<VARIANCE> 25
 1.269717e+02 3.864724e+01 3.999438e+01 4.207029e+01 5.886689e+01 5.707819e+01 5.326392e+01 3.184640e+01 3.520127e+01 4.065326e+01 2.949232e+01 2.099966e+01 9.886764e+00 2.672300e+00 2.282848e+00 2.261528e+00 3.732937e+00 4.037034e+00 3.991729e+00 2.768727e+00 3.194830e+00 2.879397e+00 2.439693e+00 1.763818e+00 2.023035e+00
<GCONST> 1.055381e+02
<TRANSP> 5
 0.000000e+00 1.000000e+00 0.000000e+00 0.000000e+00 0.000000e+00
 0.000000e+00 7.160437e-01 2.839564e-01 0.000000e+00 0.000000e+00
 0.000000e+00 0.000000e+00 7.057537e-01 2.942463e-01 0.000000e+00
 0.000000e+00 0.000000e+00 0.000000e+00 8.198505e-01 1.801495e-01
 0.000000e+00 0.000000e+00 0.000000e+00 0.000000e+00 0.000000e+00
<ENDHMM>
~h "th"
<BEGINHMM>
<NUMSTATES> 5
<STATE> 2
<MEAN> 25
 -4.211361e+00 3.119703e+00 -1.450277e+00 3.949763e+00 1.434325e+00 -2.748132e-02 3.049689e+00 -8.226633e-03 2.237963e+00 6.123233e-01 4.535623e-01 2.134829e+00 -7.158414e-01 1.822997e-02 -1.423569e-01 1.087495e-01 2.951039e-01 6.921156e-02 2.659120e-01 3.766202e-03 2.174768e-01 9.496301e-02 2.941239e-01 1.907538e-01 -3.910058e-01
<VARIANCE> 25
 7.588613e+01 3.412541e+01 3.395100e+01 4.389293e+01 6.630141e+01 4.781714e+01 5.231942e+01 3.688361e+01 3.917165e+01 4.243483e+01 3.761670e+01 2.875194e+01 4.955051e+00 3.397042e+00 2.627048e+00 3.961833e+00 4.611841e+00 4.275464e+00 4.203100e+00 3.129181e+00 3.564013e+00 3.973786e+00 3.991888e+00 2.852657e+00 4.542524e+00
<GCONST> 1.084623e+02
<STATE> 3
<MEAN> 25
 -5.373015e+00 2.681529e+00 -1.597915e+00 3.516843e+00 1.649443e+00 7.064134e-02 3.569134e+00 -2.608657e-02 2.322438e+00 7.871785e-01 7.937041e-01 2.267999e+00 -1.674601e-01 -2.966887e-01 -4.736380e-02 -2.691182e-01 -1.209814e-01 -1.214075e-01 2.005529e-02 2.776444e-02 9.337711e-03 -7.879671e-03 -4.684232e-03 -8.918948e-02 1.132997e-01
<VARIANCE> 25
 7.569303e+01 3.786740e+01 3.350196e+01 4.237472e+01 6.117408e+01 4.493200e+01 4.823680e+01 3.376769e+01 3.613036e+01 3.812727e+01 3.726844e+01 2.759827e+01 5.224468e+00 3.100589e+00 2.823345e+00 3.506568e+00 4.546794e+00 4.272762e+00 3.974858e+00 2.865889e+00 3.113319e+00 3.707627e+00 4.129083e+00 2.883878e+00 4.850180e+00
<GCONST> 1.076237e+02
<STATE> 4
<MEAN> 25
 -4.203226e+00 1.945478e+00 -1.552409e+00 2.785376e+00 1.153864e+00 -1.868381e-01 3.474222e+00 -7.997735e-01 1.460590e+00 4.838029e-01 2.703536e-01 1.744028e+00 3.972133e-01 -3.787239e-01 4.831456e-02 -2.322716e-01 -3.319055e-01 -2.723083e-01 -3.103121e-01 2.156944e-02 -8.726810e-02 -1.191424e-01 -1.351348e-01 -2.936605e-01 3.429967e-01
<VARIANCE> 25
 7.249675e+01 4.060060e+01 3.578798e+01 4.408622e+01 6.014328e+01 4.548920e+01 4.513045e+01 3.453358e+01 3.576440e+01 3.480664e+01 4.276182e+01 3.031228e+01 4.358157e+00 2.621851e+00 3.164570e+00 3.255274e+00 4.305313e+00 4.039227e+00 3.578825e+00 2.879992e+00 2.765052e+00 3.477928e+00 3.680853e+00 2.819156e+00 3.807938e+00
<GCONST> 1.067548e+02
<TRANSP> 5
 0.000000e+00 1.000000e+00 0.000000e+00 0.000000e+00 0.000000e+00
 0.000000e+00 5.980385e-01 4.019615e-01 0.000000e+00 0.000000e+00
 0.000000e+00 0.000000e+00 5.956237e-01 4.043763e-01 0.000000e+00
 0.000000e+00 0.000000e+00 0.000000e+00 7.247162e-01 2.752838e-01
 0.000000e+00 0.000000e+00 0.000000e+00 0.000000e+00 0.000000e+00
<ENDHMM>
~h "uh"
<BEGINHMM>
<NUMSTATES> 5
<STATE> 2
<MEAN> 25
 8.850725e-01 -4.035646e-01 9.017341e-01 7.731443e-02 -7.126126e-01 -1.020347e+00 -3.351052e+00 -1.559981e+00 -2.579134e-01 8.957136e-01 2.057004e+00 -5.012029e-01 1.039625e+00 -3.744236e-02 7.882982e-02 -5.840884e-02 -7.692868e-01 -3.077511e-01 -6.125638e-01 -2.930000e-01 -4.274155e-01 -1.638507e-01 -8.314913e-02 -2.122923e-01 3.544199e-01
<VARIANCE> 25
 6.849587e+01 4.199233e+01 8.525942e+01 6.630331e+01 7.520525e+01 7.109802e+01 8.883865e+01 5.090660e+01 5.232920e+01 4.938863e+01 4.835752e+01 4.040454e+01 5.564357e+00 4.035842e+00 4.465940e+00 4.712353e+00 6.008758e+00 5.507375e+00 6.904792e+00 4.392951e+00 4.598441e+00 4.526553e+00 3.813216e+00 3.071160e+00 7.046562e+00
<GCONST> 1.155056e+02
<STATE> 3
<MEAN> 25
 2.874810e+00 -1.788735e-01 1.498940e+00 2.252316e-01 -2.580014e+00 -1.494713e+00 -4.610449e+00 -2.163166e+00 -9.923781e-01 7.855908e-01 1.610120e+00 -9.908662e-01 6.696075e-01 2.026608e-01 1.194215e-01 9.628037e-02 -4.658213e-01 -3.285412e-02 -1.849340e-01 -2.349230e-01 -1.784891e-01 -3.111029e-02 -1.104945e-01 -1.234366e-01 -2.214509e-01
<VARIANCE> 25
 5.127468e+01 4.476538e+01 8.364373e+01 6.921864e+01 7.243129e+01 6.235798e+01 8.684921e+01 4.896097e+01 5.259173e+01 4.739747e+01 5.013135e+01 4.116909e+01 4.286502e+00 4.323602e+00 4.460043e+00 4.739841e+00 6.437168e+00 5.697352e+00 6.261285e+00 4.207387e+00 4.786281e+00 3.838331e+00 3.468333e+00 3.121778e+00 6.727904e+00
<GCONST> 1.146168e+02
<STATE> 4
<MEAN> 25
 3.935006e+00 4.108712e-01 2.373904e+00 1.233442e+00 -3.363697e+00 -1.503383e+00 -4.730447e+00 -2.280585e+00 -7.150087e-01 1.227889e+00 1.403201e+00 -1.028492e+00 2.510132e-01 2.357752e-01 2.064257e-02 1.122665e-01 6.055020e-02 9.789897e-02 2.586991e-01 -2.148487e-04 8.679252e-02 -6.531343e-03 -9.560831e-02 4.197937e-02 -5.146726e-01
<VARIANCE> 25
 4.346856e+01 4.525287e+01 8.423452e+01 7.259489e+01 6.727937e+01 5.832638e+01 8.574442e+01 4.765110e+01 5.342767e+01 4.279748e+01 4.921674e+01 3.808567e+01 3.126654e+00 4.317874e+00 3.752760e+00 4.470858e+00 5.760847e+00 5.035459e+00 6.152870e+00 3.731303e+00 4.266315e+00 3.215307e+00 3.003217e+00 3.000616e+00 5.853521e+00
<GCONST> 1.126191e+02
<TRANSP> 5
 0.000000e+00 1.000000e+00 0.000000e+00 0.000000e+00 0.000000e+00
 0.000000e+00 5.166458e-01 4.833542e-01 0.000000e+00 0.000000e+00
 0.000000e+00 0.000000e+00 5.243959e-01 4.756041e-01 0.000000e+00
 0.000000e+00 0.000000e+00 0.000000e+00 6.449989e-01 3.550011e-01
 0.000000e+00 0.000000e+00 0.000000e+00 0.000000e+00 0.000000e+00
<ENDHMM>
~h "uw"
<BEGINHMM>
<NUMSTATES> 5
<STATE> 2
<MEAN> 25
 1.771939e-01 1.971078e+00 3.359610e+00 2.148496e+00 -2.165831e+00 -2.280927e+00 -2.811145e+00 -3.425709e+00 -2.780394e+00 -5.464399e-01 4.877032e-01 -4.181484e-01 7.858927e-01 7.533514e-02 5.994239e-02 2.039116e-02 -4.065072e-01 -3.331835e-01 -6.370428e-01 -4.659876e-01 -3.520141e-01 -1.717615e-01 -1.711056e-01 -2.595319e-01 2.320544e-01
<VARIANCE> 25
 8.267680e+01 4.240252e+01 6.524950e+01 5.754600e+01 7.945621e+01 6.625700e+01 8.395159e+01 7.345177e+01 5.785244e+01 5.781134e+01 4.803370e+01 3.274280e+01 5.860017e+00 3.282632e+00 4.086758e+00 4.014316e+00 5.962251e+00 6.266500e+00 6.203737e+00 5.074378e+00 4.707526e+00 4.576718e+00 4.094885e+00 2.779271e+00 4.132093e+00
<GCONST> 1.148565e+02
<STATE> 3
<MEAN> 25
 1.938910e+00 1.984195e+00 3.534914e+00 2.024841e+00 -3.257721e+00 -2.914689e+00 -4.130045e+00 -4.230735e+00 -3.667561e+00 -1.009429e+00 5.882484e-02 -9.329739e-01 5.927761e-01 3.235818e-02 -1.534802e-01 -4.185926e-02 -1.664728e-01 -7.436741e-02 -3.483174e-01 -1.973238e-01 -1.432184e-01 -1.430311e-01 -1.753956e-01 -1.506962e-01 4.094810e-02
<VARIANCE> 25
 6.724940e+01 4.248954e+01 6.530101e+01 5.449500e+01 7.888949e+01 7.004295e+01 7.793092e+01 7.281181e+01 5.598267e+01 5.577229e+01 5.222564e+01 3.081026e+01 5.167594e+00 3.281651e+00 3.971519e+00 3.715476e+00 6.150397e+00 6.093545e+00 6.793497e+00 5.091238e+00 4.573531e+00 4.543557e+00 4.262053e+00 2.825392e+00 3.989658e+00
<GCONST> 1.143680e+02
<STATE> 4
<MEAN> 25
 3.572441e+00 2.084594e+00 3.601771e+00 1.868504e+00 -3.918998e+00 -3.123780e+00 -4.974080e+00 -4.611891e+00 -4.019214e+00 -1.180534e+00 -4.081864e-01 -1.320597e+00 3.826962e-02 4.904491e-02 -3.632146e-01 -1.763967e-02 4.118069e-01 2.495094e-01 1.287578e-01 1.792075e-01 2.849919e-01 3.235408e-02 -6.110593e-02 5.717191e-02 -2.687378e-01
<VARIANCE> 25
 5.854776e+01 4.228774e+01 6.674628e+01 5.005223e+01 8.300224e+01 7.407594e+01 7.637181e+01 6.847427e+01 5.730510e+01 5.384379e+01 5.552965e+01 3.272989e+01 4.220747e+00 3.160562e+00 3.593239e+00 3.456954e+00 5.777342e+00 5.454912e+00 6.148332e+00 4.967092e+00 4.214099e+00 4.225628e+00 3.864177e+00 2.779990e+00 3.578014e+00
<GCONST> 1.132092e+02
<TRANSP> 5
 0.000000e+00 1.000000e+00 0.000000e+00 0.000000e+00 0.000000e+00
 0.000000e+00 5.425525e-01 4.574475e-01 0.000000e+00 0.000000e+00
 0.000000e+00 0.000000e+00 5.529492e-01 4.470508e-01 0.000000e+00
 0.000000e+00 0.000000e+00 0.000000e+00 6.943210e-01 3.056790e-01
 0.000000e+00 0.000000e+00 0.000000e+00 0.000000e+00 0.000000e+00
<ENDHMM>
~h "zh"
<BEGINHMM>
<NUMSTATES> 5
<STATE> 2
<MEAN> 25
 3.422419e+00 5.709099e+00 5.070299e+00 6.387927e+00 1.334505e+00 3.661359e+00 2.671424e+00 -8.080420e+00 2.274621e+00 -2.380004e+00 -2.300481e+00 1.009356e+00 -6.558713e-01 4.556481e-01 5.615805e-01 4.568432e-01 4.405232e-01 2.058534e-01 5.160708e-01 -2.154252e-01 -1.432210e-01 -5.488156e-02 1.708059e-01 6.016234e-02 -1.623562e-01
<VARIANCE> 25
 7.367329e+01 7.454247e+01 4.402079e+01 1.707766e+01 1.457228e+02 6.774242e+01 7.251147e+01 8.838085e+01 2.903661e+01 2.420854e+01 3.698058e+01 1.757599e+01 5.128891e+00 5.502001e+00 5.889305e+00 2.382734e+00 9.662349e+00 1.536536e+00 4.660042e+00 3.832112e+00 2.372034e+00 3.972897e+00 1.651940e+00 2.718852e+00 8.499201e+00
<GCONST> 1.096223e+02
<STATE> 3
<MEAN> 25
 -2.438363e+00 4.355215e+00 6.788792e+00 6.290876e+00 3.178518e+00 2.016346e+00 2.509403e+00 -3.092929e+00 1.569252e+00 -2.428159e+00 6.794738e-01 1.759569e-01 -8.185476e-01 -2.443543e-01 4.022361e-01 3.040200e-02 -2.736533e-02 7.531966e-02 3.520400e-01 1.838258e-01 1.385774e-01 1.577505e-01 3.017794e-01 -1.179071e-01 6.597443e-01
<VARIANCE> 25
 9.005974e+01 9.134026e+01 5.721831e+01 1.541271e+01 1.041375e+02 8.152410e+01 9.105267e+01 5.882693e+01 4.720210e+01 3.005643e+01 2.856943e+01 2.130125e+01 7.551079e+00 6.631513e+00 5.023125e+00 2.024247e+00 7.209738e+00 2.284021e+00 5.582746e+00 3.388217e+00 3.210519e+00 3.569637e+00 1.874129e+00 2.117781e+00 7.319737e+00
<GCONST> 1.108274e+02
<STATE> 4
<MEAN> 25
 -2.968698e+00 -1.824646e+00 9.868589e+00 1.200880e+01 3.044709e+00 3.145656e+00 6.026619e+00 3.646405e+00 4.694912e+00 -6.159238e+00 4.634280e+00 1.739309e+00 9.406014e-02 -8.376039e-02 -1.256857e-01 8.272155e-02 5.357557e-02 -5.919895e-02 7.340401e-02 4.267021e-02 7.029287e-02 5.394620e-02 -2.063145e-02 -2.953140e-02 5.716276e-03
<VARIANCE> 25
 6.671125e+01 7.704482e+01 4.135916e+01 3.557984e+01 6.824551e+01 5.169010e+01 7.612868e+01 8.025480e+01 3.767669e+01 4.717590e+01 3.730742e+01 1.882816e+01 4.243997e+00 3.874922e+00 2.396726e+00 2.830385e+00 3.254009e+00 2.379787e+00 2.761836e+00 2.392691e+00 2.217277e+00 2.291168e+00 1.677165e+00 1.811268e+00 4.001356e+00
<GCONST> 1.054821e+02
<TRANSP> 5
 0.000000e+00 1.000000e+00 0.000000e+00 0.000000e+00 0.000000e+00
 0.000000e+00 8.574924e-01 1.425075e-01 0.000000e+00 0.000000e+00
 0.000000e+00 0.000000e+00 8.136362e-01 1.863638e-01 0.000000e+00
 0.000000e+00 0.000000e+00 0.000000e+00 9.655367e-01 3.446332e-02
 0.000000e+00 0.000000e+00 0.000000e+00 0.000000e+00 0.000000e+00
<ENDHMM>
~h "sil"
<BEGINHMM>
<NUMSTATES> 5
<STATE> 2
<MEAN> 25
 -3.968157e+00 3.012331e-01 4.733315e-01 3.888536e+00 4.012268e+00 2.855949e+00 4.188446e+00 2.420950e+00 2.669462e+00 1.179869e+00 2.858275e+00 2.023993e+00 -2.784232e-02 -1.145765e-01 -4.659294e-02 -3.602181e-02 1.028480e-02 1.592001e-02 -1.994529e-02 2.757897e-02 6.734666e-02 1.646138e-02 -1.667921e-02 3.561605e-02 -8.101633e-02
<VARIANCE> 25
